<?xml version="1.0"?>
<opencv_storage>
<my_svm type_id="opencv-ml-svm">
  <svm_type>C_SVC</svm_type>
  <kernel><type>LINEAR</type></kernel>
  <C>5.0000000000000000e-01</C>
  <term_criteria><epsilon>2.2204460492503131e-16</epsilon>
    <iterations>1000</iterations></term_criteria>
  <var_all>16128</var_all>
  <var_count>16128</var_count>
  <class_count>2</class_count>
  <class_labels type_id="opencv-matrix">
    <rows>1</rows>
    <cols>2</cols>
    <dt>i</dt>
    <data>
      -1 1</data></class_labels>
  <sv_total>1</sv_total>
  <support_vectors>
    <_>
      -1.10941671e-03 -4.07487765e-04 9.91925015e-04 -2.74568534e-04
      3.25168599e-04 -2.00153634e-04 7.40458898e-04 7.67063000e-04
      6.94916962e-05 -1.48597523e-04 -8.97209611e-05 -2.71239987e-04
      -8.60981818e-04 -2.32690018e-05 -8.24620249e-04 7.12873880e-04
      1.22600072e-03 -4.44950332e-04 -6.19931438e-04 -3.07204202e-04
      2.98326428e-04 -1.80173299e-06 -1.74181096e-05 3.44846158e-05
      6.81442907e-04 -5.75707636e-05 -8.19026318e-05 -7.81236449e-05
      -3.09131632e-04 2.25666168e-04 2.07926564e-06 -1.22163049e-03
      1.42863370e-04 1.71624662e-04 -2.29430792e-04 1.56836526e-03
      6.25650282e-05 2.78636959e-04 4.10931854e-04 -9.08826696e-05
      -8.70400327e-05 1.85913581e-04 4.59950061e-05 -6.28693029e-04
      -4.24171667e-05 5.38626919e-05 2.32961786e-04 -4.76930982e-05
      -8.30940902e-04 -1.21589971e-03 1.30693807e-04 -1.26825253e-04
      -2.20572565e-05 1.26152416e-04 -1.36693439e-03 3.01997527e-04
      1.35562918e-03 8.02421069e-04 -4.37714807e-05 -5.32586710e-04
      1.07901217e-03 -2.78878462e-04 -1.77835158e-04 4.69998195e-05
      -1.36485905e-03 9.47684166e-04 1.58431195e-03 -7.10124150e-04
      5.64308895e-04 -2.05947217e-05 -7.06607650e-04 -4.10373214e-05
      4.97109490e-04 -2.69229731e-05 -1.42795339e-04 2.07794903e-04
      -3.45285225e-04 4.14526818e-04 -1.24544802e-03 9.06763016e-04
      1.90141509e-04 -1.37486539e-04 -3.36727635e-06 -9.33952251e-05
      4.06823121e-04 -4.72984175e-05 -5.92185534e-04 1.59565534e-04
      -2.37974789e-04 -2.70287623e-04 -1.14907118e-04 2.85866030e-04
      -5.29452635e-04 -2.88971554e-04 1.60922075e-03 -4.69850551e-04
      2.02827126e-04 -2.23957957e-03 4.95815941e-04 2.11605919e-03
      -6.52291114e-04 3.74371681e-04 2.09826409e-04 1.83531040e-04
      -8.73605750e-05 2.91300530e-04 2.20228740e-05 8.61554217e-05
      -1.23102145e-04 -3.04241917e-06 5.57951105e-04 -7.06358987e-04
      1.67704816e-03 -1.24018837e-03 -3.47545974e-05 -1.93777797e-03
      3.62852908e-04 7.18081064e-05 -6.98185875e-04 8.74416262e-04
      1.36148569e-03 9.92267509e-04 -8.81080705e-05 2.38781096e-04
      4.14372073e-04 -1.30997249e-03 -5.98156592e-04 -1.19927863e-03
      1.42093224e-03 -6.50087371e-04 1.10961229e-03 -3.26192006e-04
      -1.04770169e-03 -5.89607771e-05 4.36712697e-04 1.27323798e-03
      -8.12008628e-04 2.47868942e-04 4.12853551e-04 -7.28835876e-05
      6.71692076e-04 2.19586436e-04 -1.61598402e-03 -1.75583802e-04
      -2.15084595e-03 -5.54332742e-04 -1.68581697e-04 -2.13798121e-05
      -5.00261194e-05 1.83885913e-05 1.98032430e-04 1.83570064e-05
      6.00323256e-04 2.57204345e-04 5.00120223e-04 8.21036735e-07
      3.38014943e-04 -1.35250530e-05 8.36414343e-04 -7.05540820e-04
      2.76177248e-04 1.53458779e-04 1.12113659e-04 1.19787187e-03
      3.01650489e-05 4.73644555e-04 -1.56603492e-04 -5.65286668e-04
      5.63976209e-06 -5.31761580e-05 -3.47348869e-05 -2.54030339e-04
      8.20575297e-05 -2.35102518e-04 -1.11488029e-04 -5.21983427e-04
      1.58119388e-03 2.26564916e-05 -7.51412008e-05 5.24014504e-05
      3.82063481e-05 1.65977726e-05 -1.10573473e-03 -1.15337293e-03
      -9.75076400e-04 6.22966385e-04 2.98021361e-04 5.02639799e-04
      1.38567854e-03 -1.06477598e-03 3.03938694e-04 -9.85460938e-04
      -3.09106050e-04 2.76533421e-04 -2.71221739e-04 -1.17242849e-03
      8.21727968e-04 -3.61718325e-04 2.23258859e-04 -5.23589726e-04
      -5.93477569e-04 3.77424003e-04 -2.16644316e-04 1.00582656e-04
      3.82931088e-04 2.11761253e-05 6.12758391e-04 -5.77258703e-04
      -9.39352904e-04 -3.92638613e-05 1.82307092e-04 3.40579136e-05
      -1.92501728e-04 -2.54581013e-04 -7.72718704e-05 5.38502703e-04
      2.01151893e-03 -2.52866539e-05 1.25501276e-04 3.03409633e-05
      5.21230686e-04 -2.70049059e-04 -4.92527382e-04 1.28951899e-04
      -1.09147346e-04 8.91332893e-05 -3.71219532e-04 7.51250773e-04
      1.22448051e-04 -1.89419065e-04 2.43741757e-04 2.51763180e-04
      -2.22537856e-04 1.84479959e-05 -2.67913365e-05 3.75931879e-04
      -6.93569818e-05 -1.52315319e-04 3.64978259e-05 -4.74093482e-04
      -1.61378353e-03 1.11234374e-03 -2.23947020e-04 2.89296557e-04
      2.65063631e-04 5.13988607e-06 -1.47289666e-03 -4.60919313e-04
      4.44828329e-04 3.27989517e-04 1.19253389e-04 -5.08602883e-04
      1.30785652e-03 4.81045194e-04 -4.97140456e-04 7.76147717e-05
      1.03343464e-03 6.00186293e-04 1.86321640e-03 8.43855014e-05
      -8.57609208e-04 -2.49369587e-05 1.67542871e-03 -1.61178014e-05
      -7.55427289e-04 9.01313906e-05 -3.29877512e-05 6.81023448e-05
      -3.98201402e-04 -1.72750952e-04 -4.43993078e-04 -8.54101163e-05
      1.24058267e-03 1.26264815e-04 -1.85531389e-04 2.05112286e-04
      5.02651616e-04 -7.99448535e-05 -1.11288531e-03 3.97288532e-04
      -3.46668792e-04 -1.77678638e-04 4.01779835e-04 -9.71874251e-05
      4.99842106e-04 -5.78837644e-04 -2.50955083e-04 4.78235655e-04
      1.32296496e-04 1.53807778e-04 -7.96874636e-04 -3.79821839e-04
      -6.27825735e-04 1.13122915e-04 -1.22386016e-04 3.87254491e-04
      2.35691085e-04 -3.04533878e-05 -4.69696097e-05 -3.62750259e-04
      3.12586984e-04 -8.97339123e-05 6.48726360e-04 -1.28827625e-04
      8.34438077e-04 -1.54886558e-03 -5.75112244e-05 -1.72153802e-03
      -1.44694452e-04 -1.35648064e-04 -2.44821393e-04 3.63936502e-04
      -1.01208244e-03 -1.49971558e-04 -8.29549099e-04 -1.28041254e-04
      5.73233003e-04 7.19304604e-04 1.12252159e-03 -6.88072876e-04
      1.91606418e-03 3.81431397e-04 1.49719708e-03 1.15141738e-04
      -1.12779334e-03 1.97461777e-04 2.56560143e-05 -1.05464458e-03
      9.65204847e-04 -1.33925103e-04 6.44990287e-05 -1.35241149e-04
      3.12074117e-04 -1.39845783e-04 4.96335560e-04 1.34420511e-03
      -6.92323374e-04 -4.23842925e-04 2.69147713e-04 -3.14851175e-04
      -7.35218637e-04 6.54044561e-05 -9.48188594e-04 -5.40251967e-05
      1.63274439e-04 2.71653524e-04 -7.08447551e-05 -2.08964666e-05
      8.56379047e-05 -4.68273298e-04 9.09802475e-05 -6.46186760e-04
      8.53322097e-04 -1.31603959e-03 -3.86959437e-04 4.46325925e-04
      5.11390332e-04 2.62479443e-05 -8.86478301e-06 1.44857331e-03
      7.04942868e-05 -5.78892250e-05 5.21199809e-06 -4.26524697e-04
      -2.08799451e-04 2.13379753e-04 2.45525618e-04 5.35060011e-04
      -7.36536691e-04 5.62985151e-05 4.22443300e-05 -1.28624996e-03
      -7.04843769e-05 3.05376743e-05 1.48501626e-04 -2.74440608e-05
      -9.48024623e-04 -2.23243391e-04 -1.47545768e-04 5.66583301e-04
      1.74038182e-03 -4.28261585e-04 -1.83921691e-03 -1.23261867e-04
      1.07137382e-03 1.64190738e-03 -4.53207467e-04 1.78163755e-03
      -1.18818448e-03 1.71230975e-04 1.19897386e-03 7.51948624e-04
      9.72605718e-04 1.96166206e-04 -1.63532495e-05 -1.39608077e-04
      -5.99454033e-05 2.99370822e-05 -8.90411728e-04 9.31262388e-04
      9.70555993e-04 -6.50601112e-04 8.86164198e-05 1.98986818e-04
      -1.04683881e-04 9.86713058e-05 -1.30565197e-04 -1.25172573e-05
      -7.66407116e-04 -2.86068389e-04 3.33903627e-05 4.41949742e-05
      -1.03994214e-03 -3.59454076e-04 2.52086786e-04 -1.89813669e-04
      8.29750905e-04 1.74870420e-05 -3.57408135e-04 -4.94439737e-04
      -2.97848223e-04 -4.04493359e-04 4.59740579e-04 1.04443054e-03
      2.99831619e-04 -6.49339752e-04 -1.42939653e-05 -2.94598576e-04
      -3.41320556e-04 -1.51479660e-04 -1.77734313e-04 -9.19434184e-04
      -5.68732619e-04 -2.97451508e-04 4.56854119e-04 2.18466143e-04
      4.67915233e-04 -1.51585889e-04 -1.45295227e-03 -1.16361363e-03
      -9.91194276e-04 6.46346189e-06 -3.90218702e-05 -7.95265427e-04
      1.02126785e-03 -2.97713123e-04 -3.69403308e-04 1.26133393e-03
      -2.39693024e-03 -6.93836715e-04 1.82007061e-04 -9.26833251e-04
      -5.71172161e-04 4.47206286e-04 1.01674732e-03 -3.14482953e-04
      4.67816746e-04 -1.34365589e-04 -3.43595457e-04 -4.00956720e-04
      -5.87131362e-04 2.33685423e-04 -8.20589485e-04 1.55614020e-04
      9.19803919e-04 3.74830706e-04 -1.24614045e-04 -1.85847850e-04
      -6.41464896e-04 2.60945617e-05 3.08246264e-04 3.21798900e-04
      1.23122591e-04 1.01594895e-04 9.88070387e-05 -1.49161729e-04
      1.00967253e-03 3.31366318e-04 -9.52716102e-04 6.25708126e-05
      3.00020212e-04 -1.89910235e-04 -2.67600524e-04 -1.14969525e-03
      -2.14110423e-05 3.47323330e-05 4.63895209e-04 1.69740920e-03
      9.09566370e-05 -1.31539098e-04 1.83051554e-04 1.04175917e-04
      -1.10080400e-04 -1.98886119e-04 6.13183074e-04 5.97543083e-04
      -1.40688673e-03 -1.11437810e-03 4.78814938e-04 5.29304205e-04
      3.75050411e-04 3.02032480e-04 5.81099594e-04 -7.78775211e-05
      -3.08383838e-04 7.36164337e-04 3.85213789e-04 -2.40603316e-04
      2.50862558e-05 8.39831773e-04 1.20828743e-03 -1.26588694e-03
      2.11617837e-04 -4.92269755e-04 4.84179909e-04 2.96323880e-04
      1.42619596e-04 1.11230445e-04 8.09289224e-04 4.66310565e-04
      -3.16324004e-04 1.30988965e-05 2.16142958e-04 -1.76320027e-05
      5.16006665e-04 3.84897285e-04 -4.65385296e-04 -4.69518185e-04
      -7.42068456e-04 -7.66410551e-04 8.49436765e-05 4.38921561e-05
      -3.03283625e-04 -4.09959248e-05 -3.01909924e-04 2.60188594e-04
      -1.48984324e-03 1.45769183e-04 -2.11862440e-04 1.01466459e-04
      1.83929864e-03 -2.34072751e-04 4.19215794e-04 -1.55622663e-03
      9.60045087e-04 1.07962673e-03 1.47930710e-04 7.35212758e-04
      -3.35253251e-04 -3.30441748e-04 -3.38503625e-04 2.70805642e-04
      9.11765746e-05 -3.25059555e-05 1.79796378e-04 -1.52867520e-04
      -1.15076829e-04 2.07496079e-04 2.30284335e-04 -2.95387610e-04
      6.95758034e-04 1.01021654e-03 -1.86257501e-04 9.61077341e-04
      -1.09308843e-04 -1.25595019e-04 -9.00475279e-05 -8.92352429e-04
      3.58932535e-04 -6.34436961e-04 -2.11408391e-04 6.80213561e-04
      -3.59935075e-05 -6.34576485e-04 -1.40766462e-03 -8.19583540e-04
      1.47784012e-03 -1.93322296e-04 9.35679942e-04 -8.39299290e-04
      -1.38167851e-03 9.93508002e-05 3.30667419e-04 1.42700318e-03
      -1.34151487e-04 7.82796240e-04 7.33363340e-05 1.83194003e-04
      -6.29255432e-04 2.35156884e-04 -4.16091090e-04 2.98151339e-04
      1.66600430e-03 -1.72616899e-04 -2.72742269e-04 1.16057316e-04
      1.19473108e-04 1.00282006e-04 -1.00892961e-04 -2.01585917e-05
      -4.34610789e-04 -6.61630329e-05 2.64623341e-05 -3.38265148e-04
      1.05819188e-03 -3.04802204e-04 -6.58517471e-04 -7.48568040e-04
      4.05931554e-04 -9.66422027e-04 -3.92365444e-04 -2.44490599e-04
      -1.50373889e-04 -8.19075649e-05 2.60386092e-04 -7.39688403e-04
      7.80189876e-05 -1.64840400e-04 -8.78406136e-05 -1.57358576e-04
      -4.13106987e-04 -1.74536253e-04 -2.51522084e-04 6.17777259e-05
      -1.68719402e-04 -9.38754354e-04 -6.98363365e-05 -1.03151938e-03
      -3.71002679e-04 3.00871907e-04 2.92737182e-04 -2.48622790e-04
      1.12679496e-03 4.02764650e-04 5.24583993e-05 6.55905606e-05
      1.71826535e-03 -1.74842569e-06 5.10989339e-04 -8.40442081e-04
      4.09205817e-03 -1.54107215e-03 1.18719973e-03 -2.92920187e-04
      2.67667579e-03 2.24998221e-05 -3.59109603e-04 -1.89198903e-03
      2.66633928e-04 -4.66356927e-04 2.25122378e-04 2.06170553e-05
      -6.72764902e-04 -5.82578999e-04 -5.90476790e-04 -3.29900533e-04
      1.65369391e-04 6.72722701e-04 1.02048092e-04 -1.71017382e-04
      9.42134066e-05 6.60670994e-05 -3.11301526e-04 -1.52610610e-05
      3.52226896e-04 -1.58225394e-05 1.54338923e-05 9.87928288e-05
      2.44782394e-04 -1.74809087e-04 -4.22440789e-04 -5.44938703e-05
      1.20463956e-04 1.98451831e-04 1.74951667e-04 6.54494215e-04
      6.45732565e-04 1.45669022e-04 -6.28659691e-05 -5.32017264e-04
      -1.52862864e-04 9.56628210e-05 -1.03409569e-04 -2.99664080e-05
      3.52614676e-04 3.16982769e-04 1.71264455e-05 4.12190828e-04
      -1.23336422e-03 -1.76076125e-03 1.09036817e-04 -7.13494723e-04
      1.89700717e-04 -1.08606066e-04 7.12841866e-04 -1.82804448e-04
      4.01316443e-04 1.97054687e-05 -1.54766007e-04 -1.64570461e-04
      -5.70429664e-04 -4.95485256e-05 -1.28626416e-03 1.28640982e-04
      2.62935879e-03 -7.22056488e-04 -1.30330294e-03 7.50054431e-04
      -5.36134175e-04 -3.54779950e-05 -1.25579222e-03 -5.54665399e-04
      7.13279063e-04 -2.37451415e-04 -3.22664273e-04 -5.75727563e-06
      3.26057547e-04 1.73828681e-04 3.48965332e-05 1.92995103e-05
      1.00719533e-03 1.24363316e-04 2.37927288e-05 6.31554285e-05
      4.48171399e-04 5.63128415e-05 1.81903655e-04 1.74945453e-04
      -3.85561376e-04 -1.69021034e-04 4.16228519e-04 -7.98927795e-06
      -6.71463960e-04 -5.14943395e-07 -1.49840183e-04 3.18700804e-05
      1.06227111e-04 1.21823221e-03 1.93237429e-04 -1.19042094e-03
      2.47832242e-04 -1.39153062e-05 1.16280827e-03 -8.69009760e-04
      -1.02321435e-04 -2.97911960e-04 -2.93131234e-05 1.99934715e-04
      1.24946848e-04 -1.23333433e-04 -4.13747533e-04 -1.20678676e-04
      -7.30120344e-04 -3.77200413e-05 7.82567222e-05 -9.10932140e-04
      1.16146102e-05 -7.09211308e-05 8.98330763e-04 -1.56636335e-04
      6.14961784e-04 8.18079061e-05 2.85613671e-04 -1.18516397e-03
      -1.84324002e-04 -1.09212263e-03 4.47338796e-04 1.04042923e-03
      2.34989263e-03 7.48763501e-04 1.53803558e-03 -1.21565477e-03
      -1.15086441e-03 -3.43604741e-04 1.24289829e-04 -6.25663728e-04
      -1.18721719e-03 -3.51959461e-04 -3.49989918e-04 1.03179344e-04
      -2.57606269e-04 -2.73744052e-04 -1.33458187e-03 2.47806078e-04
      3.47230198e-05 1.68598650e-04 -2.92234841e-08 3.48154106e-04
      -1.60160605e-04 6.96175121e-05 1.64458615e-05 -1.04486746e-04
      2.27987941e-04 2.65173847e-04 -3.17877275e-04 -1.16713294e-04
      -1.61855438e-04 3.07008236e-06 -1.36993767e-03 -5.68215037e-04
      8.95650825e-04 2.35785497e-04 -5.88367751e-04 1.24332175e-04
      1.55144648e-04 1.79066235e-04 7.05418119e-04 9.62624210e-04
      -1.80723466e-04 8.94773912e-05 5.17315857e-05 -3.07529699e-04
      3.15112629e-05 -2.03832111e-04 -6.49316780e-06 -4.47776023e-04
      9.67546424e-04 1.43265945e-03 -1.42075020e-04 -1.76191879e-05
      8.44296010e-05 2.09701640e-04 1.54387832e-04 -3.29336581e-05
      3.72996205e-04 5.96497848e-04 3.38867067e-05 -6.61382393e-04
      2.33452054e-04 -1.19211222e-03 -5.46113355e-04 4.55081958e-04
      -1.44682266e-03 -1.18372357e-03 2.94282421e-04 -1.79090799e-04
      1.06222264e-03 1.79475046e-05 1.12058967e-03 4.09529166e-04
      -1.24061690e-03 -9.25985078e-05 1.46306211e-05 2.39150264e-04
      1.06828357e-03 -4.51574480e-04 2.28773759e-04 5.85630769e-04
      1.11791969e-03 3.77284014e-04 4.45441314e-04 2.24744363e-04
      2.09374746e-04 -6.98081931e-05 3.18671118e-05 3.10950672e-05
      8.94210418e-04 1.32587418e-04 1.67590028e-04 -3.86593492e-05
      2.49685108e-04 5.14599997e-05 -1.32280192e-03 1.35239062e-03
      -6.80803205e-05 7.07107829e-04 2.78054886e-05 2.08563777e-03
      2.18423520e-04 1.76435889e-04 4.00399149e-04 -7.68278667e-04
      4.21250850e-04 -3.74271622e-04 2.87499042e-05 1.24126294e-04
      3.58306919e-04 -6.55296375e-04 -2.71726516e-04 -8.17697801e-05
      -1.82965375e-03 8.22604343e-05 1.39777330e-04 -1.19796477e-03
      -1.11635331e-04 -4.50216867e-05 -7.03404949e-04 -6.06474001e-04
      1.07322659e-04 -6.30723254e-04 2.68836389e-04 -2.76083272e-04
      6.27250527e-04 -2.77028535e-04 -8.46627081e-05 -2.09260941e-03
      6.18803781e-04 -4.72569431e-04 -8.74896185e-04 -7.91280909e-05
      -8.94691271e-04 2.55913619e-04 4.26837913e-04 8.39569140e-04
      -6.75128715e-04 3.25869187e-05 1.85402692e-04 -2.60469678e-04
      1.14883657e-03 -2.97789637e-04 1.17681606e-03 2.50799148e-05
      -9.20141814e-04 -3.44637985e-04 -1.07174579e-04 3.03377805e-04
      -5.84490190e-04 6.97862779e-05 7.38402246e-04 1.09816501e-04
      -1.23905367e-03 2.31174326e-05 -2.27006734e-04 2.84610549e-04
      1.23265199e-03 1.95994403e-06 2.51191541e-05 -6.65671541e-05
      2.72423204e-04 8.83075234e-04 6.63396568e-05 -1.33452658e-03
      -2.22114773e-04 -1.83930591e-04 -2.08687256e-04 -6.34740165e-04
      1.87037425e-04 -4.29517764e-04 5.66200652e-05 7.44796183e-04
      6.80228768e-05 8.73775643e-05 5.45283729e-05 1.64929326e-04
      1.11357076e-03 -4.68482351e-04 1.03002880e-04 8.81415268e-04
      -5.11030375e-04 5.23545714e-06 6.74874973e-05 3.46885907e-04
      2.55985156e-04 -1.18039455e-03 -1.95288667e-04 2.67643569e-04
      6.91071211e-04 -3.33193981e-04 -5.02331823e-04 -5.68152056e-04
      1.07346161e-03 -8.76029808e-05 4.55850968e-04 5.21447419e-06
      1.31829770e-03 -8.14312662e-05 -1.12046651e-03 -1.86529087e-06
      -6.42177940e-04 2.96800339e-04 -2.35673710e-04 9.91715860e-05
      1.25587941e-03 -9.55871874e-05 3.09742958e-04 -2.71723227e-04
      -3.97872005e-04 -1.54639492e-04 3.23505083e-04 1.38444870e-04
      -7.81470662e-05 3.29834002e-05 -8.54264305e-04 -5.84934547e-04
      4.93548796e-05 -4.09324603e-05 2.73963698e-04 -1.28343294e-04
      -4.99008689e-04 -2.58596556e-04 4.96727764e-04 5.04628348e-04
      7.52967084e-04 3.18434351e-04 -5.45124407e-04 -3.50191782e-04
      4.10013774e-04 2.80828426e-05 7.76549452e-04 -1.55934424e-03
      -2.72955203e-05 2.90567659e-05 -3.07267374e-06 3.41010920e-04
      7.95213873e-06 -1.79019102e-04 1.54495050e-04 5.02519368e-04
      -1.89182858e-04 1.14281545e-03 -8.96600905e-05 -5.60791814e-04
      4.91168816e-04 1.52000677e-04 6.82118989e-04 2.22544395e-03
      3.77187884e-04 -2.92103598e-03 4.71153850e-04 -3.04320070e-04
      -4.46067628e-04 -1.08860550e-03 -2.19823234e-03 4.98212350e-04
      -2.03463220e-04 -1.72211658e-04 1.52040069e-04 -2.93490069e-04
      7.98382040e-04 -2.35960724e-05 1.71120837e-03 1.04182190e-03
      -4.08330001e-04 -1.92058826e-04 2.33652725e-04 5.73409961e-05
      1.04312121e-03 -2.15809225e-04 -1.64913712e-03 5.78082225e-04
      2.56556808e-03 2.09984835e-04 -5.27696218e-04 1.89243205e-04
      2.10469152e-04 -9.65850631e-05 3.95070354e-04 1.28813035e-05
      5.52191023e-06 -3.99720448e-04 5.71921526e-04 2.89102463e-04
      -4.18968091e-04 -3.39506194e-04 -1.68483297e-04 -2.40308320e-04
      -1.43208774e-03 4.66449856e-04 -4.95421002e-04 1.18224090e-03
      4.50239429e-04 2.16824468e-04 2.68564676e-04 -1.20984646e-03
      -7.04262566e-05 1.21890196e-04 -4.04846614e-05 -6.09720359e-04
      -2.66564253e-04 -6.33404343e-05 1.79650495e-04 8.17658729e-05
      -3.08384129e-04 -1.74645032e-03 -5.60902059e-04 2.41464048e-04
      2.36964101e-04 4.09647386e-04 4.98062873e-05 -1.24500424e-04
      4.05255196e-05 -1.02444552e-03 -2.90548705e-05 -1.08851271e-03
      1.25970715e-03 -7.88820384e-04 -4.50819178e-04 3.87991982e-04
      9.36775352e-04 2.77985178e-04 -7.28071958e-04 5.61753346e-04
      -9.41601407e-04 7.94870866e-05 -2.24926203e-04 8.28913355e-04
      1.44305755e-03 -2.42166370e-05 2.49766308e-04 -2.22362971e-04
      -1.78055299e-04 2.59892822e-05 2.38558999e-03 -7.58354145e-04
      3.23944434e-04 -1.10727524e-04 3.49773181e-05 5.46117844e-05
      -4.87377547e-04 -6.42461819e-05 5.68536052e-04 3.98010714e-04
      4.12987778e-04 -4.18094744e-04 -2.34666790e-04 -3.75076896e-04
      -1.68951403e-03 3.61720333e-04 -1.01764023e-03 -8.41405301e-04
      -1.86948944e-03 6.84485247e-04 -8.78812745e-04 5.00105554e-04
      1.78846185e-05 3.05464091e-05 2.46029958e-05 -1.43275980e-03
      1.40749558e-04 -8.75759215e-05 3.32051241e-06 -6.88670843e-04
      9.18788137e-05 -2.08448808e-04 4.08008957e-04 -1.19371619e-03
      -2.67634110e-04 5.53361373e-04 1.63387915e-04 1.40869315e-03
      3.80501733e-04 2.50681827e-04 1.05572527e-03 -1.64983940e-04
      1.16813411e-04 3.60174818e-05 -3.38546961e-04 -6.10039104e-04
      1.99007709e-03 -1.15298317e-03 1.86548990e-04 2.22502291e-04
      1.11374515e-03 -2.95298727e-04 2.20455622e-04 8.43355316e-04
      3.92909045e-04 4.22738754e-04 1.10963022e-03 -9.62425373e-04
      -6.23827858e-04 -9.27304973e-06 -3.92371876e-04 -1.31708599e-04
      1.48376368e-03 -3.38195641e-05 -1.49894087e-03 3.40797706e-04
      -7.37834605e-04 -5.08363126e-04 -3.97926866e-04 -4.59797331e-04
      -2.02256371e-04 -1.19291333e-04 -2.30347912e-04 5.62594250e-05
      6.88351225e-04 -7.55227666e-05 -1.01904816e-05 -3.47861242e-05
      1.51620747e-03 -1.54400204e-05 1.67942286e-04 -2.75708066e-04
      1.59048429e-03 8.95946403e-04 -1.03673512e-04 -2.55287341e-05
      1.49962389e-05 -1.08364140e-04 -2.64152739e-04 -1.10583543e-03
      2.42769602e-04 2.13606530e-04 4.73954560e-06 -1.25772742e-04
      -2.64848582e-04 2.44445633e-04 1.62403635e-03 7.73017164e-05
      1.43826692e-04 -1.16388232e-03 2.15986351e-04 -1.84394675e-03
      -3.62648600e-04 -2.21543552e-04 1.16430968e-03 -1.51269051e-04
      -8.20826041e-04 -1.23708078e-03 -4.52534034e-04 6.91405847e-04
      1.51727104e-03 -1.03180704e-03 -3.05471149e-05 -6.67889544e-04
      2.67397991e-04 -2.27296303e-04 3.36718833e-04 -5.15194843e-04
      -3.67678062e-04 -2.06990400e-04 2.12293840e-03 -8.40790672e-05
      5.50333236e-04 5.53332211e-04 2.07436926e-04 -2.40989015e-04
      6.62163831e-04 -1.92065927e-04 1.49362674e-03 -1.00263080e-03
      6.32757379e-04 2.32906474e-04 2.26764620e-04 7.75577719e-05
      -7.61204807e-04 1.73651133e-04 -6.75642979e-04 4.69507177e-05
      6.63144048e-04 -3.44241053e-05 -2.00973100e-05 2.36303633e-04
      -4.62662632e-04 -1.35976457e-04 -1.27446512e-03 -1.17004721e-03
      2.66980758e-04 -1.43865007e-04 -1.33009235e-04 -3.39621940e-04
      -9.15021155e-05 -1.17682634e-04 2.93992023e-04 -2.98169558e-04
      -7.29098450e-04 -1.45502636e-04 3.53920768e-05 7.86975361e-05
      -1.82433636e-04 -1.19958431e-05 -3.25434899e-04 2.18983827e-04
      -1.89215149e-04 1.32810837e-03 5.16167376e-04 2.91816099e-03
      4.12768895e-05 -2.12472823e-05 6.80493657e-04 -5.05951815e-04
      1.11211324e-04 -2.49591190e-03 3.09792056e-04 -7.47265178e-04
      9.49133013e-04 -7.53281754e-04 5.41360583e-04 -2.17110058e-03
      -2.14055530e-03 1.05759152e-03 1.20830715e-04 -2.83291301e-04
      -9.72411479e-04 3.15361176e-05 -1.13343331e-03 -5.78444451e-04
      9.41252394e-04 3.87228065e-05 -3.90838919e-04 6.35312812e-04
      4.42171382e-04 1.36081610e-04 -1.05658581e-03 -4.72549524e-04
      8.00894923e-04 -3.11957643e-04 -1.08393862e-04 1.90057122e-04
      1.18644639e-04 -1.54581125e-04 1.02457625e-03 5.38020162e-04
      -4.52681677e-04 4.28188068e-04 3.80701560e-04 -2.05769946e-04
      4.07936081e-04 1.52422639e-04 1.75785704e-03 -2.20510425e-04
      -1.16244867e-03 3.39521561e-04 1.84313085e-05 -5.07770223e-04
      -1.50883381e-04 -1.84293152e-04 -2.66662682e-04 8.93971999e-04
      -4.23087804e-05 2.84841808e-04 1.13997841e-04 2.24136966e-04
      -1.70067869e-04 -9.87941312e-05 -7.12167064e-04 1.83102355e-04
      -8.94669502e-04 2.02699623e-04 -4.34884860e-05 1.02554004e-04
      2.21372189e-04 6.75450079e-04 4.25083184e-04 -8.21236346e-04
      -7.54998415e-04 -9.39981022e-04 6.99997006e-04 -6.18970837e-04
      7.82379822e-04 -8.75054277e-04 1.18226802e-03 1.17319380e-03
      -8.08410812e-04 -2.05185520e-03 3.30180716e-04 9.09069786e-04
      -1.92546388e-04 1.73199762e-04 -1.99120329e-03 1.60498850e-04
      -7.57951522e-04 2.98099494e-05 -1.82559626e-04 -4.48992592e-04
      1.12963328e-03 -1.06338965e-04 -5.99953521e-04 7.95591273e-04
      -3.46708432e-04 3.43338499e-04 2.43711853e-04 -2.66654679e-04
      -3.73442890e-05 3.08638737e-05 9.26577923e-05 -2.52889382e-04
      -1.06225756e-03 1.19486911e-04 2.75235780e-05 -1.37469484e-04
      -6.13248383e-04 1.38430551e-04 1.18224765e-03 5.06554788e-04
      -4.97406472e-05 1.22552854e-03 -6.28426671e-04 1.22090254e-03
      3.12844320e-04 4.32770146e-04 -9.40072059e-05 -9.28814916e-06
      2.91634700e-04 1.74178684e-04 6.74794283e-05 -1.65787540e-04
      -6.79824516e-05 -1.07495995e-04 -1.01477046e-04 -5.49240969e-04
      -1.07928077e-04 1.10146275e-03 -3.19440645e-04 -1.68628548e-03
      -3.20161635e-04 -1.04102190e-04 2.79956585e-05 6.71559712e-04
      -4.81454394e-04 -4.38113435e-04 5.02232520e-04 2.70461751e-04
      9.89575405e-04 2.45610809e-05 1.71956280e-03 -1.58232477e-04
      -7.73745822e-04 6.99807541e-04 3.27494199e-04 3.30672920e-05
      1.04904687e-03 -6.12268166e-04 3.35537770e-04 1.68082130e-03
      -1.76271505e-03 5.95975027e-04 2.36436710e-04 2.88865442e-04
      9.25118453e-04 -2.73928570e-04 3.02321045e-04 4.97991161e-04
      -1.62203726e-03 1.92862120e-04 2.54314335e-04 1.98618854e-05
      2.07156554e-04 -1.18144453e-04 -2.18975019e-05 8.33657905e-05
      5.11370599e-04 -2.43990871e-04 2.77865067e-04 2.83281988e-04
      -2.99377745e-04 4.80272574e-04 -5.78572450e-04 3.09600640e-04
      -6.43579056e-04 -8.16837302e-04 -3.49938375e-04 1.56689715e-03
      -1.75490248e-04 8.27142503e-05 4.19084361e-04 -5.70946431e-04
      -1.04301237e-03 -6.05545123e-04 -1.47542654e-04 -1.92824402e-04
      -1.37086245e-04 7.47670347e-05 7.10886263e-04 -9.76983720e-05
      2.47312454e-03 -2.10833416e-04 3.72202456e-04 -7.07434374e-04
      2.20857444e-04 -7.58121023e-05 -1.01240049e-03 -1.03856309e-03
      -5.22051181e-04 8.26233067e-04 9.03437671e-04 -1.04136462e-03
      -1.26825631e-04 5.98390820e-04 -5.88310824e-04 -1.43025536e-03
      9.54684918e-04 -7.35136739e-04 -7.16534909e-04 7.72384112e-04
      6.97405121e-05 -2.98594641e-05 -1.79379771e-04 2.44377559e-04
      1.20320288e-03 2.27987766e-05 4.46271879e-04 -4.46769991e-04
      1.25620002e-03 2.10901140e-04 -2.32052626e-04 -3.42026848e-04
      1.49523129e-03 1.41589495e-04 4.69231600e-05 -4.74049666e-05
      9.69672983e-05 -1.33861264e-04 1.31243258e-04 1.78408867e-04
      -1.94588763e-04 8.43448506e-04 1.52634559e-04 -1.59137518e-04
      -1.98008725e-03 7.84540243e-05 -9.27329354e-04 9.63059429e-05
      -6.83370279e-04 4.04051854e-04 1.99543763e-04 -2.24446855e-03
      7.25113860e-05 -1.85999030e-04 9.03069449e-04 -4.55511676e-04
      2.39146630e-05 2.60583056e-05 1.25311544e-05 -5.58288521e-05
      3.16199235e-04 -3.10795076e-05 2.21401751e-05 -1.50130445e-03
      7.13384186e-04 1.93473170e-04 -7.05793384e-04 -2.97348597e-05
      2.45212956e-04 -2.03551346e-04 6.54991076e-04 -3.34587181e-04
      5.23814451e-05 1.19883195e-03 6.17784623e-04 -7.07801082e-04
      -1.06496608e-03 1.14703435e-03 -1.12470903e-03 2.07992853e-04
      -7.38638686e-04 -5.81466629e-05 -1.03562837e-03 9.38466226e-04
      8.56641913e-04 -5.19736379e-04 -6.07173250e-04 6.08242466e-04
      3.56965669e-04 -7.51230546e-05 -6.24093009e-05 2.32380116e-04
      9.59452183e-04 7.40767864e-04 1.15597725e-03 -4.05562256e-04
      -1.86773704e-03 9.23443076e-05 2.37346321e-04 -7.21008255e-05
      4.85487544e-04 1.22309983e-04 -2.00957234e-04 -4.55532601e-04
      2.88650568e-04 -2.47538439e-04 -2.77211686e-04 -3.72558075e-04
      8.51084595e-04 2.64575036e-04 -6.91033958e-04 1.07020279e-03
      -4.01365920e-04 4.17205738e-04 -7.67839083e-04 1.78997486e-03
      -3.29381728e-04 8.85270492e-06 1.03435630e-03 7.48482649e-04
      -2.18953661e-04 -1.73922963e-04 -1.28421334e-06 -4.24697297e-04
      2.52824655e-04 -1.99209127e-04 3.13592056e-04 -1.38258445e-03
      -5.37247164e-04 -2.82989386e-05 1.94148932e-04 -6.49986556e-04
      -1.19008771e-04 -2.19170091e-04 6.85725536e-05 -8.09982070e-04
      -2.25257318e-04 4.11245797e-04 2.43161063e-04 9.70324545e-05
      -1.85681658e-03 4.86874138e-04 -2.09134596e-04 9.14009579e-04
      2.01395201e-03 5.22929651e-04 2.81918255e-05 -2.82240333e-04
      7.90932332e-04 1.81438038e-04 -1.58888113e-03 -2.01193456e-04
      7.53340079e-04 -4.72698826e-04 2.76546780e-04 2.16572997e-04
      -1.40907083e-04 -1.63788194e-04 -1.02717045e-03 5.33702201e-04
      -3.49775539e-04 2.70946242e-04 2.45179806e-04 7.05020560e-04
      3.61803905e-05 -9.40152768e-06 -5.57042658e-04 2.90939352e-04
      2.37061584e-04 -4.36275805e-05 5.29559975e-06 1.61511445e-04
      -3.76144832e-04 3.19750077e-04 2.68227392e-04 1.32210110e-03
      3.83215694e-04 -6.76157768e-04 -3.58342513e-04 -4.56941460e-04
      -3.87639360e-04 3.10776086e-04 4.94905216e-05 4.30485728e-04
      -3.22312932e-04 4.06836334e-04 -1.00410698e-05 -1.91904153e-04
      2.82577734e-04 1.30691216e-04 -1.07295498e-04 4.09078522e-04
      -1.55346806e-03 -3.34556535e-04 -4.81910392e-04 1.58247029e-04
      -9.94591537e-05 5.04615775e-04 -3.53873125e-04 7.48604885e-04
      -5.88193419e-04 -1.22987898e-03 3.07539682e-04 -3.10026488e-04
      6.10659015e-04 -4.82278789e-04 -1.29507936e-03 5.39593049e-04
      9.02550586e-04 -2.30952515e-04 8.40922643e-04 4.73706808e-04
      -1.75275578e-04 -5.07199031e-04 -8.09777994e-04 2.06672261e-03
      -1.63522112e-04 2.54451617e-04 2.74197722e-04 -9.69074754e-05
      -1.65551645e-03 1.20180506e-04 6.43934647e-04 1.46729511e-03
      -3.43524676e-04 3.16187477e-04 -8.63689274e-05 1.40595279e-04
      2.41514630e-04 -2.55728221e-08 5.13176110e-06 -2.20183603e-04
      -8.24625968e-05 -1.35189199e-04 -1.30222485e-04 -2.01027768e-04
      -4.68486862e-04 -1.40497679e-04 -1.33716007e-04 4.16665687e-04
      -7.03065016e-04 -2.71160970e-04 -1.79273484e-04 -8.25405528e-04
      3.52780946e-04 -1.71461361e-04 -5.62089321e-04 -9.91200330e-04
      1.24098206e-05 2.81091081e-04 1.00279205e-04 -2.15039792e-04
      3.57875542e-04 9.29617163e-05 1.66287457e-04 -8.78490740e-04
      2.61597830e-04 -1.18882139e-03 2.05300021e-04 1.58822397e-03
      -2.96169717e-04 4.06627485e-04 3.49896836e-05 6.04828529e-05
      5.08065626e-04 -5.69104915e-04 4.43015633e-05 -5.37728301e-05
      -3.35830846e-04 -5.58712927e-04 6.35820557e-04 1.07303211e-04
      -1.88239559e-03 -1.02467462e-03 1.00464956e-03 -2.68291042e-04
      7.63492542e-04 -2.75201572e-04 2.16453942e-03 -2.63218564e-04
      -4.27714462e-04 3.68421141e-04 2.80585722e-04 1.32839941e-05
      -4.69559775e-04 -3.93589522e-04 -3.20853782e-04 5.27530501e-04
      -2.33252678e-04 4.89478698e-04 1.46896840e-04 2.20118613e-06
      2.86445400e-04 -1.36719667e-04 2.63535592e-04 1.12927788e-04
      -1.59592164e-04 -2.37996246e-05 -1.11602450e-04 -2.70327786e-04
      6.88442611e-04 -1.36989111e-04 8.48411699e-04 -1.46892609e-03
      -8.09440608e-05 1.93253611e-04 3.11194482e-04 1.04023369e-04
      4.71509527e-04 -1.14800205e-04 -5.30211837e-04 -9.16123900e-05
      -5.37591368e-05 4.15911163e-05 5.35083600e-05 -2.35243730e-04
      -4.57844842e-04 2.32554652e-04 -1.10503705e-03 6.10556628e-04
      -1.79259514e-04 -1.55792839e-03 1.23693596e-03 -9.09558963e-04
      7.86716701e-04 1.41540950e-04 1.19052199e-03 -1.20719871e-03
      -1.44065463e-03 1.01701450e-03 5.70221571e-04 8.21103051e-04
      5.85260896e-05 -6.85229432e-04 6.91083260e-04 2.32931525e-05
      9.69079148e-04 -2.64565868e-04 6.25459288e-05 -5.68381161e-04
      -7.15753005e-04 -4.52844630e-04 -7.19163509e-04 -7.35659632e-05
      1.02939387e-03 -2.94946396e-04 8.94334371e-05 -4.03406244e-04
      2.17614928e-04 -3.25770525e-04 -1.46054279e-03 -1.05067366e-03
      3.47649097e-04 4.70779996e-05 4.36883041e-04 1.74998655e-04
      5.14229527e-04 3.79864323e-05 -3.12347875e-05 -8.85321642e-05
      -1.80907361e-03 5.66212868e-04 -5.62875975e-05 5.36363659e-05
      -4.85898956e-04 3.37072888e-05 5.65263268e-04 2.32413193e-04
      1.34711911e-04 8.40166740e-06 5.23820461e-04 -1.20680699e-04
      3.67835484e-04 -8.46786643e-05 4.46787570e-04 -1.19743217e-03
      6.44114567e-04 2.87844479e-04 8.57602863e-05 -1.26965373e-04
      -1.20923447e-04 2.57800912e-05 -5.29852405e-04 8.09582358e-04
      1.78231421e-05 1.30289394e-04 6.84163650e-04 -1.73541193e-04
      1.81582785e-04 -3.75531119e-04 6.96362229e-04 5.79618099e-05
      8.51358054e-05 -1.39901065e-03 -6.16342644e-04 1.23554631e-03
      -4.67801030e-04 1.44458422e-03 1.09171495e-03 -3.24528170e-04
      -8.98229948e-04 -1.15626305e-03 -1.01872676e-04 2.64621369e-04
      6.05147914e-04 -1.84530189e-04 -6.34016120e-04 -4.12565598e-04
      9.57883312e-04 5.14905725e-04 -1.62965851e-04 -4.27677471e-04
      2.65102339e-04 -1.98891532e-04 -7.34926361e-05 1.49373885e-03
      2.19458714e-04 1.69010280e-04 1.11342342e-04 3.74922151e-04
      -2.07432458e-04 -2.90868884e-05 -1.12364569e-05 -2.72804988e-04
      -1.39467840e-04 -1.69709761e-04 6.23625165e-05 3.81224854e-05
      -8.95225385e-04 2.04464770e-04 4.03484046e-05 -2.00166876e-04
      1.30194065e-03 -9.32655414e-04 4.86830832e-05 -2.94562797e-05
      -2.33750834e-05 2.05844990e-04 -4.51905653e-04 2.36407635e-04
      1.07353211e-04 1.75447305e-04 -3.92621514e-05 2.75116872e-05
      -3.80376878e-05 4.30451983e-05 -1.63873599e-04 7.62105221e-04
      1.81013311e-03 -7.29490537e-04 -1.82400225e-04 9.07892681e-05
      -1.20125442e-04 -8.94252589e-05 -6.84040831e-04 1.64773944e-03
      -6.81390578e-04 -1.06171705e-03 -3.16248421e-04 4.46885126e-04
      -4.68993880e-04 -2.64886447e-04 1.27920589e-06 2.26323871e-04
      -2.01066592e-04 6.11581025e-04 1.24173152e-04 2.17527640e-03
      -1.44003279e-04 2.13559615e-05 -5.18045563e-04 2.56252370e-05
      -8.83194909e-04 3.66818480e-04 -3.45670211e-04 -1.41746903e-04
      1.86495553e-03 -6.57601486e-05 -9.59113822e-04 -6.33012620e-04
      -1.15611753e-03 -5.85997441e-05 -2.96116250e-05 -1.55007408e-04
      -1.72935179e-04 3.92399088e-05 4.10418055e-04 3.84508239e-05
      4.12980735e-04 -4.55662783e-04 -3.19160870e-04 -8.30748104e-05
      -5.92724246e-04 -5.67524636e-04 3.88156972e-04 -3.05480557e-04
      8.52050958e-04 1.68701785e-03 1.35683164e-04 -1.44210947e-03
      4.56415466e-04 -3.06435337e-04 -4.17462259e-04 -5.18360117e-04
      -6.39775652e-04 -7.97277753e-05 1.15141875e-05 -3.28949915e-04
      5.97459621e-05 -1.17724419e-04 -2.38298177e-04 1.54452646e-04
      -3.84309271e-04 -6.99240132e-04 3.86935077e-04 5.09072444e-04
      3.79841105e-04 -1.13349866e-04 -5.87133516e-04 1.48066971e-03
      4.40542615e-04 3.21217580e-04 -3.83855986e-05 5.37359156e-04
      -9.16904362e-04 -6.97541574e-04 2.29296536e-04 1.19237427e-03
      -6.10916119e-04 6.28860609e-04 9.29066504e-04 -2.53914273e-04
      1.27530226e-03 -8.66360861e-05 1.88650901e-03 -4.81731287e-04
      1.90468365e-03 3.66652559e-04 6.06144713e-05 3.78941581e-06
      -1.18006494e-04 3.85900312e-05 -1.81618001e-04 1.41452136e-03
      1.32113392e-03 -7.22631330e-06 -2.70105578e-04 1.92929729e-04
      -7.37555893e-05 -7.80169794e-05 -1.88114936e-04 5.71259152e-05
      8.11700593e-04 2.91818229e-04 -2.07935926e-04 -1.32247122e-04
      9.37228979e-05 -5.83349436e-04 -5.36817533e-04 5.55007573e-05
      -1.86248368e-03 -1.00433675e-03 2.37760605e-06 -2.08341912e-03
      4.72091415e-05 4.23871417e-04 -1.81030438e-04 -1.25274149e-04
      6.16105899e-06 -6.90823712e-04 -2.38655412e-04 -6.16445250e-05
      -5.73431134e-05 1.89443366e-04 -4.11736022e-04 1.77893526e-04
      -4.42301593e-04 -3.00298532e-04 3.42022569e-04 -2.90426047e-04
      1.83686367e-04 -3.88165063e-04 -1.55618894e-04 -2.11174571e-04
      -7.53774017e-04 5.79965184e-04 -1.78582428e-04 -1.28526031e-03
      -1.00884961e-07 6.79909892e-04 -4.58454626e-04 1.02623343e-03
      -2.05366814e-04 -2.26181073e-04 1.09212950e-03 1.34710071e-03
      -3.73156188e-04 -3.24735389e-04 -5.50478813e-04 1.28975511e-03
      1.64191111e-03 5.26518386e-04 2.30455407e-05 2.24020099e-04
      -1.01752684e-03 1.79381197e-04 -1.63955300e-03 5.75641927e-04
      4.47248254e-04 -9.53611670e-05 -5.19018213e-05 2.05886954e-05
      3.67902452e-04 -4.70938649e-05 2.01435672e-04 -4.71771864e-06
      -1.13918947e-03 1.85605277e-05 -1.20323268e-04 2.36878201e-04
      1.26309006e-03 -2.89380521e-04 -1.59551017e-03 -8.48989235e-04
      2.47394841e-04 -1.60851225e-04 1.87829264e-05 3.46476212e-04
      5.97904327e-05 2.38075707e-04 -1.29080174e-04 1.55387586e-03
      -1.97614951e-04 4.98701484e-05 -1.15770890e-04 6.02916480e-05
      1.39425520e-05 -1.34679169e-04 8.64213289e-05 1.08266766e-04
      -1.70568773e-03 -7.40947027e-04 3.85681225e-04 1.22498884e-03
      -1.03996717e-04 6.45429682e-05 -4.53652261e-04 -5.86163078e-04
      1.40726403e-03 -8.69829499e-04 1.48898442e-04 -3.40060767e-04
      -6.91257534e-04 5.28954493e-04 -5.57966705e-04 -6.81702513e-04
      1.83017331e-03 -8.14400206e-04 4.94134030e-04 3.16476071e-04
      5.48173412e-05 -6.13285636e-04 -1.42138713e-04 3.47896603e-05
      3.86097265e-04 1.31940193e-04 1.02132944e-04 -8.28852935e-04
      -9.59454221e-04 8.37453172e-06 6.48087356e-04 2.60797283e-03
      9.33516829e-04 -4.32505585e-05 -6.69183864e-05 -1.09238463e-04
      -2.27105294e-04 3.24516586e-05 -3.82610306e-04 2.12479754e-05
      -1.57391580e-04 -6.41325780e-04 7.10536260e-05 1.59075469e-04
      1.59001409e-03 1.00680896e-04 -7.49730913e-04 7.18979223e-04
      -6.24718552e-04 2.09882637e-05 1.49890238e-05 -6.36277488e-04
      -2.44404771e-04 -2.79161846e-04 -4.30201944e-05 9.70741239e-05
      -3.43125401e-04 1.19484052e-04 1.27677136e-04 4.74915490e-04
      -3.50106246e-04 -9.62659251e-05 -2.07528981e-04 5.02771756e-04
      2.22319242e-04 1.00592652e-03 1.23557649e-04 1.62977551e-04
      3.96600575e-04 -9.75410367e-05 -1.52080657e-03 -7.54388398e-04
      -7.95009255e-04 -6.70768437e-04 9.64675783e-05 8.11164151e-04
      1.09618716e-03 -8.69423267e-04 -1.70965010e-04 -2.07590126e-03
      -1.10555404e-04 3.19160841e-04 -6.84940256e-04 8.09382822e-04
      4.26077575e-04 -2.56673484e-05 -8.97957594e-04 3.54881672e-06
      8.80619773e-05 1.32463092e-03 9.60572925e-06 1.81821102e-04
      -8.29863478e-04 -5.01743518e-04 2.00159079e-03 3.76068550e-04
      -3.63990461e-04 -3.25144734e-04 -4.72151987e-05 -1.61737349e-04
      -2.05012242e-04 5.37910682e-06 8.34067760e-05 -7.68594909e-04
      -6.43860549e-04 2.94696365e-04 9.08853108e-05 1.15748502e-04
      4.99294896e-04 -3.34859724e-05 3.37603124e-05 -1.10556415e-04
      3.60642443e-04 6.34041207e-04 -2.39104120e-05 -2.61293352e-03
      -2.39801084e-04 1.68192273e-04 1.26109779e-04 8.86389869e-04
      1.24513599e-05 3.44058179e-04 1.50975420e-05 -1.16964678e-04
      -5.62339919e-05 -3.23487504e-04 1.05245796e-04 -1.17710930e-04
      -1.08558557e-03 -7.52904161e-04 -2.28906545e-04 -3.55592900e-04
      -5.53471968e-04 4.47488768e-04 1.19901856e-03 1.71341491e-03
      -9.89950495e-04 -3.34135781e-04 -6.10747491e-04 -4.76227229e-04
      -5.85435599e-04 4.02070757e-04 9.90042696e-04 1.10694068e-03
      2.72701291e-04 -3.47738154e-04 1.07508677e-03 1.17252814e-03
      5.89956122e-04 -5.12246683e-04 5.94308716e-04 -7.80920323e-04
      5.31356236e-05 1.89106489e-04 -1.86872741e-04 -3.38149839e-04
      2.19668771e-04 -4.19383927e-04 -1.27459446e-03 -9.75834904e-04
      -2.79170286e-04 2.07153513e-04 -2.63034221e-04 -1.80778967e-04
      -9.84817452e-05 -2.67237829e-06 6.69017143e-04 5.96986676e-04
      -3.95721872e-04 -2.83681235e-04 2.00341223e-04 7.55222063e-05
      7.60201539e-04 2.21338239e-04 -5.63224836e-04 -1.03232094e-04
      -5.10084152e-04 1.15490169e-04 -1.22629106e-04 -1.01411471e-03
      6.10624411e-05 1.58277428e-04 -2.05932680e-04 4.63049801e-04
      -6.43672422e-04 3.61444661e-04 -5.28072123e-05 8.05352374e-06
      4.46052116e-04 -5.07682889e-05 -2.81077082e-04 -1.74133267e-04
      2.41463698e-04 7.73836859e-04 2.19374168e-04 -1.20304700e-03
      2.68069998e-04 -7.04807753e-04 7.27516541e-04 -1.04561797e-03
      -1.32828965e-04 2.20339512e-04 2.16713423e-04 -3.34261829e-04
      2.47109885e-04 5.65101102e-04 1.22456823e-03 2.66945281e-04
      4.24622791e-04 -8.91840536e-05 8.77263315e-04 -3.69627727e-04
      5.52909391e-04 -6.19090046e-04 7.37381401e-04 -6.24132444e-05
      -9.08394286e-04 2.85823451e-04 5.73556281e-05 7.90507067e-04
      -5.43428818e-04 2.34587991e-04 8.47679097e-04 -1.45970553e-03
      1.11814926e-03 5.00402530e-04 4.40838601e-04 3.18375132e-05
      -2.77696745e-05 -1.19030941e-04 3.17471742e-04 1.58484563e-05
      -5.72030782e-04 -3.36228637e-04 -1.02361875e-04 4.31366198e-06
      1.22663693e-03 -4.69184713e-04 -1.72515493e-03 -3.12422562e-05
      -1.02163048e-03 9.84572689e-05 2.15022083e-04 -4.48568113e-04
      2.44686962e-04 4.22297453e-04 1.08046261e-04 -2.69147102e-04
      2.68051808e-04 -1.91825966e-04 6.69471483e-05 -1.81475320e-04
      -1.42509656e-04 -1.14503317e-04 -7.68096186e-04 -7.74082146e-04
      1.31095422e-03 -7.24140380e-04 -4.80697490e-04 1.19264633e-03
      -4.74235771e-04 6.21485815e-04 3.94675240e-04 -7.65325269e-04
      -1.05762645e-03 -4.71918785e-04 4.04891034e-04 1.00804842e-04
      1.58481498e-03 -9.46217624e-04 1.25150045e-03 -4.82063304e-04
      -1.41703745e-03 -9.04680172e-04 -3.32391501e-04 -1.45482644e-03
      -9.63506405e-04 2.11760314e-04 -6.41817693e-04 3.22655251e-04
      -1.31643334e-04 -4.64439305e-04 8.72651872e-05 -6.29027927e-05
      6.73581962e-04 2.20471236e-04 -2.48942029e-04 -9.52936884e-04
      3.81839811e-04 4.04160906e-04 4.77964903e-04 6.20847743e-04
      1.32498157e-04 -1.14880158e-05 -1.52782392e-04 6.91868336e-05
      3.22647684e-04 -3.76794604e-04 9.58859018e-05 4.79877526e-05
      1.16656686e-03 -2.47864606e-04 5.56169776e-04 -1.09187665e-03
      5.79325831e-04 3.01601312e-06 -4.32665038e-05 -5.36147505e-04
      1.17650343e-04 4.61724630e-05 5.44686511e-04 -1.69803388e-04
      2.55748892e-04 -3.72469221e-04 -5.91837997e-05 -3.92654736e-04
      -1.32817178e-04 1.70033076e-04 3.80111567e-04 8.95057980e-04
      8.50318698e-04 1.19942846e-03 4.63859033e-04 2.19872745e-04
      7.22803699e-04 -4.73981781e-04 5.73071884e-04 1.07182153e-04
      1.23209215e-03 -4.09995147e-04 2.65902170e-04 -2.77949905e-04
      -7.42253149e-04 -4.71643143e-04 -4.39527328e-04 -4.40200965e-04
      -1.00435305e-03 -5.89205942e-04 1.40955474e-03 1.33078109e-04
      1.45288429e-03 1.87904312e-04 7.47263606e-04 1.45789716e-04
      4.61057061e-04 4.38526360e-04 -2.92672281e-04 -1.47622573e-04
      1.42099627e-03 -1.24415346e-05 1.34087319e-03 -9.30352544e-04
      -3.03364795e-04 -3.54412186e-04 -1.63446123e-06 -1.02009399e-04
      -2.87506642e-04 6.05413297e-05 -4.33447625e-04 7.79391194e-05
      -5.59040462e-04 3.01026506e-04 -4.95232089e-05 -1.87363752e-04
      -1.44485047e-03 -6.71022572e-05 -9.99988057e-04 1.54774447e-04
      -9.36304277e-04 5.39347180e-04 -1.46314444e-04 1.61850860e-03
      -2.33774277e-04 1.19858032e-05 -1.44850957e-04 1.61093846e-03
      4.18739452e-04 -5.11974446e-04 -3.45375993e-05 -5.20769026e-05
      -3.82734259e-04 2.53386650e-04 -2.18575296e-04 9.18108417e-05
      7.10883236e-04 -3.19898973e-04 -7.16055874e-05 -6.40363549e-04
      3.61007842e-04 2.69725453e-04 -1.95245229e-04 -1.65139255e-03
      -9.26754030e-04 4.34885005e-04 -2.55789259e-04 4.29484207e-05
      -7.55918038e-04 -1.38495398e-05 5.64190268e-04 -1.71592831e-06
      -1.30399282e-03 -1.01987529e-03 2.37218846e-05 1.64444430e-03
      -1.23799895e-04 -2.61719943e-05 -4.15478251e-04 1.21884956e-03
      9.74186056e-04 8.61380715e-04 2.30055462e-04 -4.61537456e-05
      -5.50051336e-04 1.00011872e-04 1.93506567e-04 -2.07514793e-04
      -3.57126381e-04 8.42462687e-05 2.49871344e-04 -1.45423328e-04
      -3.88803426e-04 6.86333005e-05 -9.46865985e-05 -4.60771371e-05
      8.48062220e-04 -2.41996731e-05 1.33416237e-04 2.64095288e-04
      1.19222554e-04 -2.32399121e-04 4.77057802e-05 7.67873542e-04
      3.73570743e-04 1.48357489e-04 1.49633022e-04 -8.32826714e-04
      -2.17608191e-04 -1.48586274e-04 5.22157177e-04 -1.05325598e-03
      -5.03682182e-04 1.63185119e-04 -5.48121716e-05 1.01006435e-05
      -3.14930599e-04 2.58456043e-04 2.12181942e-04 -6.86120591e-04
      1.19390362e-03 6.95165189e-04 2.27567492e-04 -1.32277215e-04
      -4.28862550e-04 -2.78075284e-04 -7.28681858e-04 8.46919080e-04
      3.22550914e-04 -4.67424252e-04 -4.51579574e-04 3.52762901e-04
      -4.31865308e-04 5.21042501e-04 -6.87012041e-04 -1.42748212e-03
      -1.30462635e-04 9.90320928e-04 -5.64193586e-04 4.84016753e-04
      -5.00404021e-05 6.78319630e-05 -4.65803460e-04 -1.61310367e-03
      -3.60621489e-04 7.02789926e-04 1.08377862e-04 2.29737980e-05
      -1.70855725e-03 1.26640211e-04 1.05811271e-03 9.62136546e-04
      -1.96890775e-04 2.89428310e-04 2.50779412e-04 -6.43606763e-05
      5.41125890e-04 -1.00723437e-05 -1.50287597e-04 2.77392333e-04
      -1.48640724e-03 -2.00765135e-04 -1.81874839e-05 -1.79854324e-04
      1.67128234e-03 -5.86535389e-05 -3.21509055e-04 4.24666941e-05
      -1.22771820e-03 1.90893630e-03 1.23129852e-04 -4.69135644e-04
      -2.42654787e-05 -4.09274071e-05 -3.03399633e-04 -2.87096569e-04
      6.11528812e-05 3.15430836e-04 4.01628022e-05 -5.30079124e-05
      1.45037571e-04 -1.51245777e-05 8.48852156e-04 1.19864184e-04
      -1.37987561e-04 8.88600887e-04 2.71029712e-04 -7.34670612e-04
      -3.79375037e-04 2.68316144e-05 -4.00731020e-04 6.23351603e-04
      7.75015633e-06 -1.74891786e-03 -1.53772635e-04 -1.77958369e-04
      -5.19602792e-04 8.78663443e-04 9.83265054e-05 3.00665764e-04
      4.92669584e-04 -7.15429487e-05 2.26611635e-04 -7.92185543e-04
      7.49729166e-04 3.69940157e-04 -4.55934292e-04 -1.13522328e-05
      -1.28477812e-03 2.15954424e-04 2.66465941e-04 2.05077682e-04
      -7.57901638e-04 3.62209423e-04 2.40296562e-04 3.41048755e-04
      3.70392547e-04 3.34890028e-05 -1.30968237e-05 -1.18269672e-04
      -4.17495175e-04 -2.04608616e-04 -2.43990769e-04 -6.44014799e-05
      1.40520057e-03 -3.17392172e-04 -1.09009525e-04 -2.17825509e-04
      -3.36581259e-04 1.46711158e-04 1.89869315e-04 8.75073601e-04
      -7.83389405e-05 -1.09900546e-03 -7.22506666e-04 4.49741812e-04
      -3.12553238e-05 2.77300540e-04 -5.58591855e-04 6.25308312e-04
      1.46015105e-03 -2.50300654e-05 2.49098812e-05 4.82579577e-04
      -1.51207918e-04 -2.12914150e-04 4.05028579e-04 -3.48845897e-05
      8.39655477e-05 -1.57328800e-03 -1.59169562e-04 8.52360623e-04
      9.91852744e-07 2.83298432e-04 -2.85371032e-04 -3.56159027e-04
      -8.24922929e-04 9.11503506e-04 -6.47939742e-05 5.46712952e-04
      -7.23309291e-04 -1.13310898e-03 -9.07457579e-05 6.46377215e-04
      -7.05992861e-04 4.70604282e-04 9.75483446e-04 -9.70542489e-04
      -1.30539178e-03 -3.78784083e-04 -6.93164882e-04 -7.11245695e-04
      -2.36303924e-04 1.34392627e-04 -6.33179297e-05 -3.05988564e-04
      1.08096014e-04 3.41250648e-04 4.54054709e-04 -9.34123062e-04
      2.09206762e-03 -2.36158943e-04 4.13470931e-04 1.64688041e-04
      -4.34134185e-04 3.96144205e-05 4.87738225e-06 2.76839710e-04
      5.96625614e-04 1.32982721e-04 1.33823734e-04 1.76985763e-04
      5.06154960e-04 1.61815289e-04 2.43296352e-04 7.65867881e-04
      1.22117213e-04 5.17837652e-05 4.38268005e-04 5.42722002e-04
      -1.00438047e-04 -2.33679544e-04 3.05467489e-04 -1.13361026e-03
      -6.87283391e-05 -1.35016846e-04 -5.81727545e-05 1.02882557e-04
      -1.32136236e-04 2.29678990e-04 7.45750789e-04 6.04088476e-04
      -8.61509878e-04 2.38491484e-04 1.43155949e-05 3.56972014e-04
      -9.58978198e-04 5.47690201e-04 -5.21071197e-04 -2.08364055e-03
      -3.22508306e-04 8.21129477e-04 -6.23526794e-05 -4.92644438e-04
      5.10520826e-04 2.80430861e-04 5.31346421e-04 -4.97012632e-04
      1.52537395e-04 1.24211982e-03 -4.60381270e-04 1.99671704e-04
      3.13897268e-04 6.13362572e-05 -2.19052643e-04 1.24522124e-03
      -1.33829692e-03 7.20072770e-04 1.53844085e-04 -6.76766969e-04
      7.19534466e-04 5.26652912e-05 4.79764247e-04 1.72843249e-03
      3.61980579e-04 -4.85613389e-04 -5.63979964e-04 -2.34296080e-04
      1.00054986e-05 -1.25638981e-05 3.99194687e-04 -3.18586099e-04
      -6.54958712e-04 1.06613807e-04 1.28723768e-04 2.57830368e-04
      3.91232345e-04 -6.80204903e-05 6.90982561e-04 -6.23830827e-04
      5.73472411e-04 3.52799601e-04 -2.87526898e-04 -2.25353724e-04
      1.26801402e-04 -4.60007839e-04 -4.39748081e-04 9.46841668e-04
      -8.56430212e-04 2.32225575e-05 -6.58679928e-05 -4.01494821e-04
      1.20481396e-04 1.22089055e-04 -3.61549988e-04 -8.15209991e-04
      -1.55292253e-03 1.04951777e-03 -9.06865636e-04 -2.71430967e-04
      3.24999128e-04 -6.73127419e-04 2.15998836e-04 6.80420955e-04
      5.64140675e-04 -4.92248859e-04 2.35507236e-04 -7.04101054e-04
      -6.27616479e-04 5.84910566e-04 -6.02818793e-04 6.38044221e-05
      5.58644351e-05 -1.02614588e-03 1.98264886e-03 2.52901606e-04
      -4.26910439e-04 -1.96445963e-05 4.30417393e-04 1.12834002e-03
      -5.27144584e-04 5.06582553e-04 4.37666458e-04 -1.48061736e-04
      -1.19423075e-03 1.78311719e-04 1.09293273e-04 4.04526247e-04
      1.45433005e-03 3.73238348e-04 -1.12902919e-04 -1.42048040e-04
      1.82633157e-04 8.17068394e-06 3.69060901e-04 -9.66252555e-05
      -1.20541255e-03 -2.49510485e-04 -2.25759111e-04 -9.39901327e-07
      1.91542524e-04 -2.29142515e-05 -1.27744686e-03 -5.80153079e-04
      9.73740418e-04 1.31557506e-04 5.24392017e-05 -4.62392083e-04
      1.67474878e-04 2.33932718e-04 5.86231705e-04 -4.91732033e-04
      3.58247285e-04 4.66860001e-05 -8.43558519e-06 -4.27553132e-05
      1.32428744e-04 2.44284456e-04 2.40038338e-04 -2.62974296e-04
      -1.07264251e-03 4.70382132e-04 -3.36342579e-04 3.49528127e-04
      -3.55596167e-05 1.19242803e-04 -4.55228001e-04 -5.78211388e-04
      1.38135662e-03 -1.36719074e-03 -4.11484507e-04 -2.90088065e-04
      -1.18534511e-03 4.20144352e-04 -1.66175305e-05 2.99606385e-04
      -2.18564318e-03 3.15628044e-04 8.97688093e-04 -1.64392128e-04
      5.65479895e-05 -1.97648958e-04 1.71755149e-03 -3.47262365e-04
      4.24673373e-04 -3.20537860e-04 -6.95762792e-05 -4.32355679e-04
      -7.89981103e-04 5.29046956e-05 6.35174569e-04 -9.20885068e-05
      1.33032457e-03 -3.98911507e-04 1.73857028e-04 -3.04400892e-04
      -1.56513648e-04 -2.68764416e-04 5.36923355e-04 2.50833284e-04
      5.89605363e-04 -1.68680544e-05 4.58470371e-04 8.58188869e-05
      -5.50984696e-04 -3.35570279e-04 1.63682445e-03 -1.46724144e-03
      6.29706483e-04 1.52914057e-04 6.05693902e-04 1.28138869e-03
      4.78296424e-04 -3.27642592e-05 7.89951766e-04 -2.48961151e-04
      -3.50643822e-04 -3.20724532e-04 -1.85394703e-04 4.07609514e-05
      -2.18372545e-04 -3.00357788e-04 4.22044046e-04 -2.74626625e-04
      1.04522239e-03 -8.07965480e-05 -9.27588320e-04 -2.04346329e-03
      -4.98846784e-05 2.96648999e-04 -7.25234684e-04 4.97467932e-04
      -1.71793683e-03 -5.79941261e-05 3.56015735e-05 -4.41289885e-04
      -2.15317094e-04 -2.84491471e-05 -3.63223924e-04 1.24324206e-03
      -4.29008178e-05 -1.60103804e-03 7.71691382e-04 3.33965552e-04
      -5.39669185e-04 2.54020153e-04 1.68377266e-03 -3.29449686e-04
      7.06140825e-04 -5.56818035e-04 -2.44866416e-04 -1.02028236e-04
      -6.69960049e-04 -7.91732600e-05 1.18211994e-03 3.39040882e-04
      -1.08691235e-03 -2.89972668e-04 2.89840536e-04 -1.08617605e-04
      -2.06337172e-05 -2.61564783e-05 3.77779099e-04 -3.43345397e-04
      -5.05119911e-04 -2.26925258e-04 -4.76977963e-04 4.23293590e-04
      7.17594987e-04 -3.68065696e-04 -7.58908165e-04 -6.34437136e-04
      8.46714946e-04 -5.27050812e-04 -2.18230140e-04 -6.70932001e-04
      4.99588787e-04 1.49655476e-04 -7.66664743e-05 -1.65184599e-03
      4.10818437e-04 -4.21949226e-04 -1.00913276e-04 -1.71740030e-04
      1.54704860e-04 1.87601865e-04 -4.56496309e-05 -6.92671572e-04
      1.98164978e-03 5.52706188e-04 -3.02529923e-04 6.82925611e-06
      8.99825536e-04 -1.58697789e-04 -7.02829391e-04 6.17236190e-04
      9.34421027e-04 -6.75065394e-07 5.96091268e-04 -2.52828788e-04
      1.33489876e-03 -9.83716920e-04 -5.64369955e-04 3.03271052e-04
      2.24479684e-03 7.67570280e-04 -1.51435926e-03 1.28866450e-04
      1.34155009e-04 7.56930676e-04 8.91582516e-04 -6.64165535e-04
      -2.70613265e-04 3.15869460e-04 -5.21451992e-04 -3.39916325e-04
      -1.20857544e-03 1.51751563e-04 -3.82247936e-06 -1.02120091e-03
      1.88772311e-03 3.85372441e-05 3.58165671e-05 -4.37880459e-04
      -5.36726497e-04 -6.38694473e-05 -6.50487491e-04 -3.23008950e-04
      -1.21460971e-03 -6.54193855e-07 3.29917966e-04 -1.85409590e-05
      5.88054754e-05 5.61411143e-04 5.14394022e-04 -3.16964026e-04
      2.66694609e-04 2.43543778e-04 2.99761159e-04 1.06784049e-03
      -2.99767635e-05 2.07447796e-04 -3.99415239e-06 -3.37190082e-04
      1.03394457e-04 -7.03065234e-06 2.95705049e-05 -4.55526642e-05
      1.05965941e-04 -1.91015079e-05 -2.90425996e-05 3.63846862e-04
      -4.96087479e-04 -5.28326316e-04 -9.92466928e-04 -1.75243430e-03
      3.32845026e-04 1.98756316e-04 -4.68321174e-04 -5.40880836e-04
      3.79612437e-04 1.91519666e-03 -1.42807708e-04 -1.25116098e-03
      2.30447087e-03 -3.23521817e-05 1.95545334e-04 -1.04904722e-03
      1.20816485e-03 1.36092224e-03 -9.24355918e-05 6.49111054e-04
      -2.79859931e-04 4.45617130e-04 1.02627106e-04 1.07718304e-04
      -6.42816536e-04 -4.69191233e-04 -1.10906796e-04 -1.56060021e-04
      4.05350322e-04 -6.91218767e-04 6.56018208e-04 7.97255663e-04
      1.32476489e-04 1.15752446e-04 4.60322481e-04 1.35447423e-04
      -4.61938442e-04 1.02587568e-04 4.32284898e-04 -2.97378807e-04
      7.84965639e-04 9.98833784e-05 -1.56298760e-04 -4.21362565e-05
      -2.02507246e-04 -3.15926911e-04 -1.96952280e-03 4.50651423e-04
      3.96762451e-04 -1.40741700e-04 7.87254885e-06 -6.53013645e-04
      7.52334672e-05 6.89217195e-05 2.11746359e-04 -4.18449781e-04
      -5.42860886e-04 -2.70831260e-05 -4.57713941e-05 -2.59782246e-04
      -9.29991656e-05 -9.98511605e-05 3.66715190e-04 5.52400074e-04
      -2.02428619e-03 -1.53651310e-03 1.06260658e-03 9.22592066e-04
      -1.39188152e-04 5.71606972e-04 -7.84245552e-04 -6.33086311e-05
      7.78871588e-04 3.49835376e-04 -5.96660480e-04 -1.01368374e-03
      5.56711224e-04 -2.77760206e-04 -3.44152882e-04 5.79517917e-04
      -1.31309804e-04 6.48084853e-04 4.75043635e-04 -1.25207077e-03
      5.95267222e-04 6.02317741e-05 -4.62285243e-04 6.70696958e-04
      -1.04546480e-05 -3.77019780e-04 1.96045512e-05 -5.64806338e-04
      1.15140073e-03 -7.36176735e-05 1.41728851e-05 3.48006957e-04
      -1.85354642e-04 -1.19873321e-05 -8.87786064e-06 -1.10577319e-04
      -2.67849555e-05 -1.61875359e-05 -1.85081823e-04 2.54381186e-04
      -8.59294145e-04 1.11865826e-04 -4.75606590e-04 -2.37320914e-04
      -4.01274330e-04 3.15024226e-04 -3.18158447e-04 -4.17376112e-04
      1.73985449e-04 8.03355302e-04 3.64024731e-06 5.46960859e-04
      3.02912464e-04 2.23296429e-05 -5.69917727e-04 2.61682738e-03
      -5.96643949e-04 6.07108697e-04 -3.08198680e-04 2.55408057e-04
      1.96840716e-04 1.58943178e-04 3.51761497e-04 4.41059055e-05
      -1.15235383e-03 -2.61003734e-04 9.11352341e-04 -9.45486419e-04
      2.01428062e-04 -3.67062254e-04 -2.63567257e-04 2.91795266e-04
      1.32222194e-03 -6.93750568e-04 3.82691942e-04 -1.77256204e-03
      -1.46727962e-03 3.34200013e-04 6.32703828e-04 -3.01080814e-04
      -2.14063795e-03 -1.52832491e-03 2.95944628e-04 9.58123346e-05
      8.96947517e-04 2.09631326e-05 5.34285908e-04 -1.53209479e-03
      2.83164089e-04 -1.82057440e-04 4.11134533e-04 3.61984508e-04
      1.45236461e-03 7.02009638e-05 2.44373427e-04 2.24075891e-04
      6.90895031e-05 1.14739232e-03 -2.82895835e-05 1.18246862e-04
      6.86453306e-04 1.59512692e-05 -3.61081969e-04 -1.06858795e-04
      1.84871384e-03 -2.35165535e-05 2.17560053e-04 -3.64180392e-04
      -4.11278248e-04 8.43900852e-05 -7.79063674e-04 -1.33044191e-03
      -7.50336258e-05 5.69095973e-05 1.97681629e-06 3.62502265e-04
      1.84305864e-05 -1.24551807e-04 1.69617415e-04 -1.52430334e-03
      -2.84871145e-04 4.47387283e-04 1.60833661e-05 -2.69029377e-04
      -1.97793037e-04 -1.64350058e-04 -1.83149619e-04 -1.12454954e-03
      -3.15099984e-04 9.42041297e-05 -1.90752718e-04 -2.84402020e-04
      3.44576925e-04 -1.80270901e-04 3.57752753e-04 1.21944887e-03
      -5.17933804e-04 -8.06244090e-04 -8.32332153e-05 -2.08908212e-04
      1.48761168e-03 9.72485213e-05 2.53525417e-04 1.31597824e-03
      5.10654820e-04 1.01219703e-04 5.81015716e-04 -2.99577136e-04
      1.39790773e-03 -2.50775047e-04 3.54170392e-04 -8.18070665e-04
      2.17996218e-04 1.58181501e-04 1.28825021e-04 2.17243112e-04
      -2.42278635e-04 -1.04136714e-04 4.55956004e-04 7.38883973e-04
      -1.11614750e-03 -7.28485975e-05 4.98132213e-05 1.10961380e-04
      1.36412273e-04 2.83497429e-05 6.25858302e-05 -5.89978881e-04
      2.80418375e-04 2.83734225e-05 1.81273936e-04 -7.56427289e-06
      -2.64127768e-04 -4.60952288e-04 -3.66011285e-04 -1.00737426e-03
      -9.42917250e-04 -6.12747797e-04 -6.87598877e-05 3.12307588e-04
      1.52970024e-04 9.57351440e-05 -1.07248744e-03 -3.83337814e-04
      -2.58349959e-04 4.58511058e-05 5.94381854e-05 -1.45965430e-04
      2.50291429e-04 -1.30307890e-04 -3.45406443e-04 -5.69493335e-04
      1.43252965e-03 2.26470409e-04 2.47284101e-04 2.74678780e-04
      3.93784256e-04 -1.23789228e-04 -6.55359239e-04 -7.78848771e-04
      1.09113450e-03 -4.03112557e-04 -7.67151432e-05 3.62925348e-04
      9.38102312e-05 2.52599100e-04 2.12236031e-04 9.23152897e-04
      -1.90087725e-04 -6.98795833e-04 -8.31191719e-04 6.85307372e-04
      8.47070245e-04 1.91013474e-04 -5.07646881e-04 1.11169109e-04
      -3.38967278e-04 3.08920426e-04 -4.68709368e-05 -6.41382474e-04
      -3.14459350e-04 4.08179476e-05 1.23142346e-03 2.34349383e-04
      1.73084647e-03 3.46275396e-04 1.53881760e-04 2.30906386e-04
      -1.67825201e-04 -2.21810260e-05 -6.01779378e-04 -2.59393186e-04
      -3.36998746e-05 1.97589034e-05 -2.92588724e-04 -3.24598281e-04
      -5.42977883e-04 1.21826481e-04 -1.46775180e-03 7.35787151e-04
      1.63057004e-03 1.76002225e-03 3.19108483e-04 -3.62449529e-04
      -2.66732823e-04 -2.11526771e-04 1.12267908e-05 -1.66174583e-03
      -3.18923994e-04 4.93945146e-04 1.53635847e-05 1.03332255e-04
      -3.33050033e-04 -1.30836022e-04 7.39845098e-04 -1.08190507e-04
      -3.81398451e-04 -6.47499459e-04 -2.74550577e-04 3.16484045e-04
      5.15880762e-04 -3.18182312e-04 6.20866544e-04 8.70215648e-04
      -8.50394252e-04 4.85352852e-04 -1.76333459e-04 -2.52944039e-04
      5.23053284e-04 -3.89455992e-04 -5.67541632e-04 -8.60667438e-04
      -7.40068965e-04 -8.29914992e-04 1.34865069e-04 1.02845428e-04
      3.79832258e-04 3.28378112e-04 9.67187370e-05 2.49311823e-04
      1.33698049e-03 4.76278394e-04 7.67680642e-04 1.88346850e-04
      2.41207890e-04 1.77569818e-04 -1.78493082e-03 -9.20930644e-04
      1.97758272e-04 4.95310815e-04 4.86909641e-07 -2.94210240e-05
      -3.05752736e-04 1.08826098e-04 -1.84240329e-04 -4.15760267e-04
      -1.91674847e-03 -1.50828608e-04 -1.19146942e-04 -3.16144491e-04
      8.96533777e-04 -1.47372966e-05 -3.14297783e-03 6.14249322e-04
      -5.61303692e-04 9.32153023e-04 -5.04138588e-04 7.43746466e-04
      1.03760431e-04 -2.64050323e-04 -1.11672220e-04 3.61389946e-04
      -1.82945165e-04 -2.94876227e-04 2.12242972e-04 -7.13430345e-05
      -2.38880864e-04 -1.59280738e-04 1.31895576e-04 4.76805988e-04
      1.60067482e-03 1.07789958e-04 -8.04476731e-05 8.22168891e-04
      -6.52202114e-04 2.95027159e-04 3.67142056e-04 6.99974131e-04
      -3.88667162e-04 1.62393309e-03 1.18965208e-05 4.87134559e-04
      -6.07604685e-04 -2.78578082e-04 -6.24311215e-04 1.20988901e-04
      1.22699910e-03 -1.02099031e-03 -1.53313542e-03 -1.11653528e-03
      9.13198746e-04 -2.16825902e-05 -2.04959419e-03 1.95240520e-03
      1.45209476e-03 1.41505341e-04 -3.28510541e-05 1.32008514e-04
      -7.15159578e-04 -1.16934098e-04 3.97104130e-04 6.55227399e-04
      8.13585721e-05 2.17977329e-04 -1.22925601e-04 4.84328993e-05
      1.29988446e-04 9.95193041e-05 7.71536783e-04 -4.93283151e-04
      -1.38440882e-05 -3.12309567e-04 -6.13092052e-05 1.20337165e-04
      2.97988481e-05 7.06557403e-05 1.32718601e-03 -4.91106883e-04
      3.09864437e-04 -6.53265524e-05 1.74957881e-04 4.47527389e-04
      -5.58337852e-05 -1.32723129e-04 1.65565390e-04 3.81688471e-04
      1.66824044e-04 -5.28124001e-05 4.52674931e-06 -2.10357626e-04
      -1.53214118e-04 7.29065141e-05 -3.42727057e-04 -5.08184952e-04
      1.02871447e-04 3.51450173e-04 2.72016070e-04 7.49788072e-04
      3.02493921e-04 -7.34493427e-04 9.41577775e-04 2.56936532e-04
      -1.00497785e-03 -8.62077111e-04 -4.61962831e-04 -1.40137598e-03
      -6.01168780e-04 -2.08507015e-04 -3.53051553e-04 7.82125921e-04
      1.60836708e-03 -8.80484076e-05 -4.82668547e-04 3.78276454e-04
      -8.64545698e-04 -1.17217620e-04 -5.65837363e-05 9.30634327e-04
      1.91953495e-05 3.35157056e-05 1.26439903e-04 -3.34323449e-05
      -8.98543629e-04 -1.33231108e-04 2.07221275e-03 -2.13313979e-04
      -1.23831490e-03 -4.03287355e-04 6.83587801e-04 -1.52388209e-04
      -5.27449592e-04 -1.66606304e-04 -8.58378262e-05 -1.94485780e-04
      1.07816269e-03 -2.47589400e-04 -1.32750138e-05 1.62587559e-04
      1.75678520e-04 -5.02737821e-04 2.67710944e-04 2.42831607e-04
      -1.36147122e-04 -7.33503897e-04 3.22411288e-05 -2.43120780e-03
      1.95469373e-04 1.31309513e-04 -3.08060815e-04 4.29707958e-04
      5.45059622e-04 3.14122095e-04 3.44624044e-04 6.73707400e-05
      4.52206295e-04 5.08436933e-05 3.69843729e-05 -7.91720988e-04
      9.92206391e-04 7.94991327e-04 3.27956805e-04 -2.38671736e-03
      6.36888028e-04 4.28168598e-04 1.11975893e-03 1.01617619e-03
      -4.14023467e-04 3.60888189e-05 -7.68022874e-05 1.58825843e-03
      5.35232248e-04 -9.49356647e-04 -3.04466416e-03 -1.63103585e-04
      9.05363006e-04 1.57781440e-04 5.80939814e-04 -3.18695063e-04
      7.58429931e-04 5.34806575e-04 5.14386222e-04 2.24292307e-05
      -4.26694925e-04 2.80072873e-05 1.66368191e-04 -1.19755081e-04
      7.55806221e-04 1.73395500e-04 -2.45054951e-03 -1.71435851e-04
      -8.05926858e-04 -2.90936849e-04 3.59077589e-04 1.52660723e-04
      6.94860719e-05 4.27224695e-05 6.76581185e-05 -2.31404829e-05
      1.36778923e-03 -4.24116239e-04 2.25326017e-04 3.19501502e-04
      -1.66673027e-03 2.17581139e-04 1.37831096e-03 -1.97089161e-04
      2.74927588e-04 -7.28415500e-04 2.77068611e-04 -3.42199259e-04
      -2.05053620e-05 1.79027658e-04 -4.18557102e-05 -1.02203048e-03
      1.83848591e-04 -1.48719977e-04 3.56019045e-05 -1.62542474e-05
      -1.00392084e-04 2.97048158e-04 2.15420296e-04 5.09654346e-04
      -4.41368145e-04 -1.41082099e-03 9.04460685e-05 -2.29134879e-04
      1.27342471e-04 -4.68984392e-04 1.33909041e-03 7.11503963e-04
      -9.38745332e-04 1.42468125e-04 6.44962827e-04 -9.20754450e-04
      -2.10915459e-03 -1.08253211e-03 1.63946941e-03 1.45123014e-03
      9.93827009e-04 -9.18025034e-04 6.17117621e-05 1.12635118e-03
      -2.35096714e-03 2.04385418e-04 1.54690491e-03 -1.91563508e-04
      -5.82212291e-04 8.17305704e-07 -1.73148175e-04 -1.92319290e-04
      1.96861825e-03 6.18797960e-04 -5.24870877e-04 -1.11569720e-03
      8.30607547e-04 1.40503224e-04 -4.85883618e-04 -1.70587417e-04
      5.00579248e-04 -3.49999173e-05 5.39446366e-04 2.05627031e-04
      -1.68515265e-03 9.75885923e-05 1.74623812e-04 2.21687587e-04
      -1.58286351e-03 -3.93005175e-05 -1.01134239e-03 1.69974938e-03
      6.99258526e-04 -3.08653165e-04 3.09040304e-04 1.25037576e-03
      3.25877743e-04 8.75941842e-05 3.16399004e-04 -9.79582430e-04
      3.07580049e-04 7.24271085e-05 1.54015914e-04 -4.46355734e-05
      -3.47174137e-05 1.89822938e-04 4.59151197e-04 7.89155136e-04
      -5.67117182e-04 -1.99720426e-03 1.89647733e-04 6.49116526e-04
      -1.10537061e-04 1.45599959e-04 -3.64092324e-04 6.87989013e-05
      -3.41045228e-03 -3.15274607e-04 1.48531384e-04 4.38197312e-04
      1.52631896e-03 7.18142139e-04 -6.45609689e-04 5.99319173e-05
      8.54299520e-04 5.81029512e-04 -3.46355315e-04 2.40153255e-04
      -9.68877983e-04 1.16136333e-04 2.96010439e-05 2.31759986e-04
      -4.93112428e-04 4.32879344e-04 -5.25590498e-04 -8.47325937e-05
      5.14138490e-04 -2.25295575e-04 4.68209386e-04 5.28973876e-04
      -1.35298190e-03 -5.61011366e-05 1.76306494e-04 3.89418477e-04
      2.11660474e-04 1.40725315e-04 -7.59114162e-04 -3.11865268e-04
      -1.87453546e-03 1.71670123e-04 3.28181835e-04 2.82961293e-04
      2.09864369e-03 -2.35647385e-04 1.23439892e-03 -4.33947425e-05
      9.41119157e-04 1.60080229e-03 -1.74671513e-04 -8.96938494e-04
      -1.38777483e-04 -3.20055929e-04 -4.93940315e-04 -7.72258674e-04
      3.76957789e-04 -6.34989192e-05 4.48014689e-05 -1.63890945e-04
      2.78363092e-04 -1.07889837e-05 8.51738514e-05 4.75357287e-04
      -3.50065704e-04 -1.95626472e-03 3.99237673e-04 -6.10931529e-05
      2.61756155e-04 -4.42517397e-04 3.94634437e-04 7.09490909e-04
      7.53830769e-04 -1.32242893e-03 -6.08306254e-05 3.51974275e-04
      8.71997967e-04 -1.55585985e-05 -1.04170853e-04 -1.95128878e-03
      -3.06265429e-04 -8.26516829e-04 -8.12953687e-04 -1.07828608e-04
      -6.40011451e-04 -3.59694153e-04 8.08931887e-04 6.33565476e-04
      -2.24793702e-03 -2.31560873e-04 1.95763510e-04 9.23685220e-05
      1.17482524e-03 9.77187156e-05 9.15930104e-06 1.99886947e-03
      1.56520866e-03 -9.25683198e-05 1.62241668e-06 1.35360940e-04
      6.72109536e-07 4.74289918e-05 1.83464304e-04 1.74295725e-04
      2.91306031e-04 4.11400833e-05 9.75629810e-05 -9.74115828e-05
      -9.16638412e-04 -4.76853718e-04 8.42447480e-05 -7.32976187e-04
      2.41164491e-03 1.08707603e-03 1.29346139e-04 -1.24641883e-04
      -4.96789755e-04 7.00722230e-05 -6.27862246e-05 -1.44848297e-03
      9.25736913e-06 -1.59581432e-05 2.70192813e-05 2.23668729e-04
      -3.82480386e-04 4.74389453e-05 1.23249658e-04 8.07872741e-04
      -8.57435109e-04 -3.66556400e-04 -1.94228924e-04 1.18357898e-03
      5.26915974e-05 -3.12238699e-04 -4.39680502e-04 -1.19244993e-04
      -1.88909762e-04 -3.30573239e-04 1.56380207e-04 4.00960183e-04
      -1.06054358e-03 -7.33920664e-04 9.54650983e-04 -3.34729819e-04
      -1.30885426e-04 -3.67403729e-04 5.28887496e-04 -1.30404870e-03
      7.14577573e-06 -2.28446399e-04 1.22256775e-03 4.80005780e-04
      6.45832042e-04 2.43197966e-04 1.16897781e-05 -2.01800460e-04
      1.06873608e-03 2.64877046e-04 -5.31232799e-04 8.19751178e-04
      1.24597666e-03 -6.19514904e-05 -3.00857006e-04 2.10702929e-04
      -1.81455922e-04 4.74294284e-05 -6.21148327e-04 -2.02020878e-04
      -1.17846997e-04 -2.02481126e-04 1.77727197e-04 -1.11771205e-05
      -4.43382814e-05 -3.91454814e-04 -1.83437282e-04 6.22911553e-04
      -5.04366879e-04 6.20902483e-06 -6.88839427e-05 -2.96059268e-04
      1.60714349e-04 -2.33882602e-04 2.38950452e-04 -5.73772064e-04
      1.34457499e-04 1.42212040e-04 1.19205077e-04 -2.14602158e-04
      -4.01740719e-04 1.34244459e-04 -3.10423027e-04 1.10006542e-03
      -3.98467790e-04 -1.26677391e-03 -3.36263183e-04 1.37261231e-03
      2.35766594e-04 -4.20969591e-04 -3.41307692e-04 -6.25580797e-05
      -3.26755777e-04 -2.99047912e-04 3.73651448e-04 1.69583771e-04
      6.55469834e-04 -3.74137511e-04 2.24421499e-04 -1.15300354e-03
      1.56474486e-03 -8.90192285e-04 -1.91644393e-03 3.07219045e-04
      -6.58947567e-04 1.07103748e-04 -7.14982662e-06 -9.40661703e-04
      -4.48941835e-04 4.36430455e-05 -2.66812101e-04 -3.40015249e-04
      1.96519960e-03 -1.09933149e-04 5.21878654e-04 -1.01811916e-03
      1.17280509e-03 -5.48732001e-04 -9.06912464e-06 -6.46100962e-05
      -7.86621997e-04 -8.12288636e-05 1.91989839e-05 2.91554024e-04
      1.57789828e-03 7.50677951e-04 -1.24709579e-04 -2.32089864e-04
      -5.17389330e-04 -8.42163863e-05 -7.87874043e-04 1.11785880e-03
      1.33765989e-03 5.10407786e-04 1.71731299e-04 1.23361708e-03
      -6.55221129e-06 3.23825370e-04 3.65156069e-04 -1.26435189e-03
      2.31855141e-04 1.77233062e-06 -5.61787674e-05 1.13042413e-04
      -5.86032926e-04 3.22882959e-04 -7.59677321e-04 7.99492227e-06
      -2.11957769e-04 9.15280310e-04 1.95377143e-04 -1.05407042e-03
      1.01868893e-04 3.22726009e-05 -1.91374696e-04 -5.31865633e-04
      -1.63285309e-04 -1.97598551e-04 -2.77908839e-04 2.93253979e-04
      4.14009701e-05 -9.73925708e-05 -2.60715224e-05 -3.81104765e-04
      2.36820453e-03 -4.94626060e-04 2.07005680e-04 1.85124378e-03
      -3.83835984e-04 -9.38897720e-05 -5.25140029e-04 1.09891687e-03
      1.06213405e-03 -7.96090608e-05 -6.31249102e-04 9.84052313e-05
      -9.90465851e-05 -2.99901760e-04 -9.06584668e-04 1.57946619e-04
      9.84328144e-05 -6.54248346e-04 -3.25981528e-05 1.16380834e-05
      -4.97652618e-05 -9.57131197e-05 -2.84939539e-04 -2.10216633e-04
      -2.05598120e-03 2.86410104e-05 -9.32579715e-05 1.31098612e-04
      1.58458977e-04 2.80585286e-04 -9.19646060e-04 -9.16612771e-05
      -6.52621733e-04 -8.61903303e-04 -1.32905145e-04 -1.49989675e-04
      5.14613756e-04 1.63567514e-04 -3.68514011e-04 2.83293979e-04
      -5.31375699e-04 4.17636300e-04 2.80841836e-04 -3.06888775e-04
      -3.89892870e-04 -9.13705153e-05 -3.81492195e-04 -5.15826250e-05
      5.84719586e-04 -4.56596099e-05 6.70347712e-04 -4.41453711e-04
      1.24860113e-03 -6.44906948e-04 5.99188905e-04 1.44765057e-04
      -1.70272717e-03 1.90150726e-03 -1.99345784e-04 6.52999908e-04
      1.38896948e-03 -6.47520181e-04 -1.16678979e-03 3.65086511e-04
      4.33083856e-04 -3.29759496e-04 -6.92798465e-04 -1.59248814e-03
      6.60137332e-04 -7.11815956e-05 -1.62457337e-03 1.30074285e-03
      1.99919290e-04 -3.76896554e-04 1.36892690e-04 -2.15342618e-04
      -5.43091039e-04 2.30391321e-04 -1.05462666e-03 1.09466293e-03
      -2.84862326e-04 5.90905120e-06 -2.60349800e-04 -2.08836791e-04
      3.92275193e-04 -3.60100712e-05 7.50956242e-05 2.41763730e-04
      4.73539665e-04 -1.11124267e-04 5.03509436e-05 2.57926513e-05
      4.15430317e-04 3.54209158e-04 -5.24461866e-05 -8.42087786e-04
      1.06089923e-03 -1.13272166e-03 -4.19734133e-04 1.70661404e-03
      -1.57388538e-04 4.39631403e-04 2.47544667e-04 -1.55870977e-04
      7.10535751e-05 9.69033572e-05 2.72316120e-05 1.43336831e-04
      1.53572837e-04 -2.53241742e-05 3.95893847e-04 -1.21888495e-03
      -1.78901246e-03 1.39784336e-03 4.41568089e-04 4.55796689e-04
      2.97462975e-04 8.42432564e-05 -6.17715355e-04 3.16394908e-05
      -1.30691321e-03 1.43764808e-03 1.22788886e-04 -7.51792046e-04
      -1.94237782e-06 -2.75734055e-04 1.41990953e-03 2.77307954e-05
      8.65466660e-04 9.54046671e-04 6.61931816e-04 1.65362714e-03
      -9.09280148e-04 -1.14572258e-05 -4.10471665e-04 1.14011695e-04
      6.28385809e-04 3.97332537e-04 9.13471376e-06 2.05311095e-04
      -1.83869604e-04 3.57253564e-04 1.51369110e-04 8.84197012e-04
      9.09229741e-04 -2.31708967e-04 1.54339548e-04 2.74617414e-05
      2.13466934e-04 -1.26862287e-04 -6.58390081e-06 -3.43773900e-05
      1.05361640e-03 -1.03045924e-04 3.20004416e-04 -4.07233711e-05
      1.10186124e-03 2.06361437e-04 -9.93603608e-04 -9.30375711e-04
      -6.66658627e-04 -4.49681800e-04 -6.75209158e-04 -1.77189987e-03
      -2.03751842e-04 -4.23344427e-05 2.39895235e-04 -1.27568969e-03
      4.02888545e-04 5.80960550e-05 -2.26359225e-05 -6.34118041e-05
      1.90942410e-05 2.17737397e-05 -1.59623189e-04 -5.29594719e-04
      -2.13833852e-03 -9.22397376e-05 6.03967055e-04 -1.33113004e-03
      3.95774259e-04 -3.86622909e-04 -8.44986003e-04 9.62083112e-04
      3.97696014e-04 -2.79361295e-04 -1.57264658e-04 6.42216532e-04
      1.27218175e-03 2.80897919e-04 -3.09587835e-04 -7.82591989e-04
      7.84295727e-04 -1.89457973e-03 -1.57366018e-03 -6.82499900e-04
      9.09608905e-04 1.20751341e-04 4.43848374e-04 1.94635103e-03
      -1.24151516e-03 4.98741749e-04 5.70040102e-05 2.48407479e-04
      -3.95452109e-04 -1.82133532e-04 2.11964507e-04 -4.14485403e-05
      -6.33796561e-04 -1.74308283e-04 -2.49951525e-04 6.42006926e-05
      1.93677100e-04 -1.89684324e-05 -7.16980430e-05 7.45366342e-05
      -2.36477950e-04 3.98083976e-05 -1.35096107e-05 1.35580252e-04
      8.91754986e-04 1.68686922e-04 2.30852887e-03 3.14053672e-04
      6.52062241e-04 9.18886391e-04 -5.12800936e-04 -1.07710285e-03
      -3.73829127e-04 1.26798579e-04 -3.97100754e-04 -1.21950859e-03
      2.90696480e-04 -1.84495701e-04 -1.36544390e-04 -4.20985889e-04
      1.31750101e-04 -4.52442546e-05 -6.62559032e-05 -4.14258335e-04
      1.39237929e-03 1.24161283e-03 -3.40433326e-05 -9.11190640e-04
      4.71384847e-04 3.32203053e-05 -4.15832357e-04 -6.52002811e-04
      -1.28910597e-03 7.26540748e-04 1.41383658e-04 -7.81939714e-04
      -1.01021701e-03 1.00409387e-04 1.55629183e-03 1.57240764e-04
      2.44505447e-03 -6.96463976e-04 -7.49538944e-04 -4.81083989e-05
      4.63363103e-04 -5.03356452e-04 1.34350674e-03 1.94904569e-04
      -7.73250184e-04 1.39521813e-04 2.61500446e-07 6.23260130e-05
      1.81512244e-03 7.07663821e-06 -4.30481305e-04 -4.01613303e-04
      5.21193375e-04 1.21635039e-05 4.59206858e-05 -3.16106365e-04
      -2.63457507e-04 1.25255800e-04 -1.74180590e-04 6.28383597e-04
      3.50272079e-04 -1.29152002e-04 1.74935834e-04 7.06685169e-05
      -6.94904418e-04 1.84911303e-04 2.82697787e-04 3.58581077e-04
      -1.44602254e-03 -1.97408997e-04 -5.14004380e-04 -2.13827763e-04
      -7.11787798e-05 -1.02858743e-04 1.20329692e-04 -6.22753112e-04
      -5.87189970e-05 4.71943713e-05 1.13826909e-05 -2.25947675e-04
      3.60627513e-04 7.00405071e-05 3.27469133e-05 -1.10716722e-03
      -7.54751614e-04 2.97945249e-03 9.07430331e-06 -9.56653501e-04
      -2.17364635e-04 1.51237109e-04 -1.77156136e-04 -2.04699769e-04
      1.30794954e-03 2.32987673e-04 1.46893741e-04 4.84090815e-05
      -3.62718245e-04 5.74740989e-04 -1.50868995e-03 -1.39665185e-03
      -4.20934346e-04 1.22208102e-03 2.20150012e-03 -6.31039205e-04
      -5.36954438e-04 7.48400125e-05 -1.98985683e-04 -3.12054151e-04
      1.00068643e-03 1.00962898e-04 -1.34511734e-04 7.02208781e-05
      4.05494357e-04 -1.56857874e-04 1.52405107e-03 -8.38084554e-04
      1.22372329e-03 1.30419139e-04 4.13396156e-05 1.52239838e-04
      6.43023232e-04 3.99422606e-05 -8.23165465e-04 4.38753166e-04
      -1.96616119e-03 -2.25042299e-04 -1.90252231e-05 2.21391470e-04
      -1.39184331e-03 -5.01920178e-04 -1.43471465e-04 8.64032365e-04
      -4.35768394e-04 1.75634763e-04 -7.69407343e-05 -1.42847607e-03
      -2.16185916e-04 -1.12082649e-04 -1.65059522e-04 -2.26595061e-04
      -6.10498246e-05 2.67727271e-04 2.67255782e-05 -1.94824344e-04
      1.95564848e-04 -1.58246738e-04 1.49564919e-04 -9.72720503e-04
      1.42939365e-03 -1.44675979e-03 1.79675626e-05 -6.04227826e-04
      2.63150781e-04 -5.26999720e-05 4.57477639e-04 -1.54208567e-04
      1.59804325e-03 9.70017165e-04 -6.05416601e-04 -7.44599500e-04
      6.18118793e-04 -6.66004722e-04 4.62482974e-04 -3.64652486e-04
      -1.54075411e-03 -2.82732421e-04 -5.11369028e-04 -2.43077855e-04
      -4.88040474e-04 1.68887389e-04 1.86289090e-03 1.22095458e-03
      3.92205839e-04 3.07132606e-04 -1.60016571e-04 6.06684480e-05
      5.53675112e-04 2.03672855e-04 1.00294186e-03 1.28141139e-03
      2.74672377e-04 -6.54032512e-04 1.48005944e-04 -2.05246033e-05
      -5.80318912e-04 6.31718867e-05 -2.77796760e-04 1.84933902e-04
      -6.13527891e-06 -3.30288400e-04 -9.41489852e-05 7.37509181e-05
      1.26719766e-03 1.33385009e-04 -5.79689222e-05 6.47131645e-04
      -2.62230373e-04 -1.28170504e-04 -4.27560735e-04 -3.91340909e-05
      4.73307213e-04 4.88163914e-06 -1.91276675e-04 -1.78338517e-03
      3.03452864e-04 1.80356932e-04 5.07775185e-05 1.82601521e-04
      -2.80542969e-04 -2.46898958e-06 1.95868066e-04 5.94672281e-04
      8.69536365e-04 -2.87461001e-03 -2.00717004e-05 -9.82698984e-04
      -1.31654262e-04 -7.96524910e-05 -9.02452332e-04 1.79135427e-03
      -1.12117152e-03 3.06897942e-04 4.53214998e-05 -2.65115057e-04
      1.30071864e-03 -5.54666331e-04 3.96385934e-04 -1.24875573e-03
      -4.64779208e-04 5.76458755e-04 -1.70665362e-03 7.27529463e-04
      -1.02892900e-05 1.31034452e-04 1.67777203e-03 5.86324371e-04
      2.54793529e-04 3.75134958e-04 2.15334239e-05 1.36732255e-04
      -1.29865424e-04 -3.75987089e-04 6.88818167e-04 1.92493622e-04
      7.21257238e-04 -2.47943808e-05 -1.95376240e-04 2.27436351e-04
      -1.10060093e-04 1.42436838e-04 2.86417257e-04 -1.27127278e-04
      1.70645595e-04 -2.94831756e-04 2.10927115e-04 -2.06833938e-04
      5.89050469e-04 -5.50676814e-05 -4.76297428e-05 1.59716597e-04
      -7.35208683e-04 4.42687451e-04 -1.38044910e-04 -5.12114668e-04
      -4.58667637e-04 -1.69315055e-04 -7.50786785e-05 -1.34540803e-03
      -5.22233204e-05 -3.04815214e-04 -5.53337522e-05 -3.67935776e-04
      -2.07188481e-04 1.03367202e-04 2.73301775e-05 1.09768480e-04
      -3.00864456e-04 -2.49428354e-04 6.34048018e-04 -1.64617493e-04
      6.93358888e-05 -1.24399172e-04 1.46739976e-05 3.42415966e-04
      -1.91882486e-04 -7.83963420e-04 1.80159695e-04 -9.88979125e-04
      4.61707910e-04 -3.89689958e-04 -5.06182667e-04 1.60862994e-03
      2.39478555e-04 -2.29288038e-04 4.45645972e-04 4.88512997e-05
      1.69308693e-03 4.36584465e-04 9.43527673e-04 -1.89989703e-04
      5.31257479e-04 4.85445082e-04 -2.42023234e-05 2.10291510e-05
      -4.61657153e-04 -6.62860111e-05 7.32092303e-05 -1.12542335e-03
      -1.22720026e-04 2.11226870e-04 1.35429960e-04 6.89703666e-05
      1.09136796e-04 1.70595304e-05 5.98727434e-04 -1.41649100e-04
      -2.26111035e-03 5.09669771e-05 -4.61391552e-04 1.69126324e-05
      1.02693494e-03 1.84419114e-04 -4.39516516e-05 -5.28177363e-04
      -8.08131765e-04 -5.85679605e-04 -5.23641720e-05 -8.45029484e-04
      1.59222182e-04 -3.92689748e-04 2.85825692e-04 -1.39889750e-03
      -1.01699734e-04 1.00847981e-04 -4.19546996e-05 1.80157440e-05
      -2.09008707e-04 -8.71528682e-05 4.36491799e-04 -1.05985871e-03
      -1.16941819e-05 4.84023942e-04 3.51002469e-04 -9.55547963e-04
      -4.49411455e-04 2.74376594e-04 1.38420495e-04 -7.46734368e-05
      1.80245333e-04 6.64077292e-04 3.70658439e-04 -8.08497716e-04
      7.09062617e-04 1.30618020e-04 1.15803606e-03 7.39313196e-04
      -2.06604716e-03 6.64811698e-04 -1.14283036e-03 -8.52252473e-04
      -6.75528543e-04 4.18282085e-04 6.18404592e-05 -3.19821338e-05
      9.14471457e-04 -4.39313386e-04 -3.08827584e-04 -1.07001732e-04
      4.64838522e-04 4.52650798e-04 2.72853277e-03 -1.11188926e-03
      -1.34015142e-03 1.72142129e-04 -1.77975846e-04 1.75451118e-04
      3.29618306e-05 -1.17844778e-04 -5.05806471e-04 4.49256440e-05
      -1.32792210e-03 4.53583139e-04 2.74735416e-04 4.70772007e-04
      1.03524164e-03 -1.76170361e-04 5.82409906e-04 2.30074802e-05
      7.38001021e-04 -1.57724437e-03 4.20386525e-04 -1.99161164e-04
      2.88892334e-04 -2.62875634e-04 -1.16608499e-04 2.56943196e-04
      4.65618505e-04 -5.34531973e-05 1.42502067e-05 -7.05411439e-05
      -1.21532503e-04 9.33979245e-05 -6.33414311e-04 -2.01829112e-04
      1.45356124e-03 3.57305864e-04 4.93840780e-04 -2.04153228e-04
      1.31522920e-05 3.66034743e-04 -4.41360084e-04 -4.43814701e-04
      -8.84298584e-04 -2.59678724e-04 -1.04485574e-04 5.71334793e-04
      -2.19039692e-04 -4.75201057e-04 7.49127299e-04 1.39773032e-03
      -1.88805152e-05 2.55281077e-04 2.15825676e-05 -3.04327026e-04
      -1.17853039e-03 -1.98621026e-04 -7.27961538e-04 -1.87785353e-03
      -6.33135147e-04 2.89738848e-04 -1.51089276e-04 -1.23853912e-04
      -9.38173383e-04 1.90065504e-04 4.98129266e-05 6.57301338e-04
      8.22326750e-04 -3.61924962e-04 -1.03715443e-04 -2.46025244e-04
      6.41824852e-04 1.43687343e-04 -3.38843151e-04 -3.12601653e-04
      -1.14804343e-03 1.52343482e-05 -4.17372183e-04 1.08451686e-05
      -1.48076436e-03 -1.78524337e-04 1.07502111e-03 -7.27661827e-04
      5.55804523e-04 -2.91644625e-04 -8.53521706e-05 7.15474889e-04
      -1.29371430e-04 3.06152826e-04 -7.62025156e-05 1.01465464e-03
      -2.63333292e-04 2.45847914e-04 5.79788029e-05 -2.05849254e-04
      -1.56011869e-04 -1.60431635e-04 -2.42825248e-04 3.79381410e-04
      3.64277046e-04 9.71910020e-04 1.84715085e-04 1.08926371e-03
      2.66581454e-04 -1.18098389e-04 1.12903293e-03 1.03985285e-03
      -1.85751554e-03 7.10097956e-04 2.01235162e-04 8.02824332e-04
      9.54477640e-04 3.71786999e-04 9.16860299e-04 -1.39639399e-03
      -1.05566788e-03 2.62663030e-04 1.09822594e-03 -1.95389177e-04
      1.87793444e-03 -9.29887465e-05 -1.18864584e-03 1.63030426e-03
      7.97273678e-05 -1.58680428e-04 4.91428538e-04 3.63093015e-04
      -2.91280868e-03 2.02409385e-04 -6.19589176e-04 -1.16795697e-03
      -3.62004008e-04 4.75256849e-04 -5.06952420e-05 5.75739366e-04
      3.60045175e-04 -1.08620217e-04 -7.60297844e-05 3.37708407e-05
      1.34765974e-03 2.09153528e-04 -2.07593243e-04 -5.72487734e-05
      -5.21423644e-04 5.51923185e-05 -2.33487389e-03 -2.08712387e-04
      2.80636246e-04 -6.90928544e-04 -1.05201412e-04 2.83755339e-03
      6.05374284e-04 3.64735548e-04 2.31390732e-04 2.86867707e-05
      1.06145635e-04 -1.72356682e-04 -5.37367996e-05 2.94341095e-04
      4.58893483e-04 3.43177875e-04 -1.65677629e-04 9.49074631e-04
      -1.57765439e-03 1.57000235e-04 -1.28186977e-04 -2.22246759e-04
      -1.15560181e-03 -2.61844252e-04 -6.85099221e-05 8.32660997e-04
      5.91892924e-04 1.28456115e-04 8.34744133e-05 3.40171333e-04
      -9.70166991e-04 -2.58023792e-04 3.28741444e-04 -8.75947066e-04
      -4.05034795e-03 3.02807712e-05 -1.33031362e-03 1.20901363e-03
      5.53826219e-04 -1.66002865e-04 1.80014316e-03 -9.50884132e-04
      1.74091512e-03 -3.42370076e-05 1.22045429e-04 2.21537339e-05
      6.07159513e-04 -2.41377216e-04 2.06975592e-03 3.91725800e-04
      1.91620726e-03 -1.43413854e-04 2.74712511e-04 -9.20786260e-05
      -1.10142009e-05 3.60685735e-05 1.23624865e-03 2.00671580e-04
      7.91524479e-04 -2.38286040e-04 2.49022909e-04 3.82541730e-05
      -9.05100838e-04 -3.99776109e-05 -8.24290793e-04 6.24564243e-04
      1.52843155e-03 5.20255417e-05 3.59402853e-04 2.30618083e-04
      3.02043598e-04 -4.96313305e-06 4.16032097e-04 -1.44907995e-03
      -8.47551710e-05 -2.88714771e-04 -6.78260767e-05 -5.83074638e-04
      -1.50792417e-04 5.87146751e-05 -1.19617733e-04 -4.07104410e-04
      -1.07318396e-03 -1.07550435e-03 3.58249890e-05 -3.05901049e-04
      -2.56110186e-04 -1.67891878e-04 2.27778204e-04 -1.69888866e-04
      -6.00484782e-05 -6.29829767e-04 2.62767018e-04 2.45593419e-05
      1.38374255e-03 -1.51600933e-03 -3.13214172e-04 -1.04539946e-03
      -1.91441854e-03 1.24729457e-04 -1.91620551e-04 9.88413813e-04
      2.28838122e-04 -1.01942438e-04 -5.52385580e-04 1.12019910e-03
      -8.96065612e-04 2.97335850e-04 -3.89587804e-04 4.53577813e-05
      7.24906640e-05 -3.67450964e-04 1.68578490e-03 3.54554824e-04
      1.23147562e-04 2.01212111e-04 1.99263523e-04 -5.09874255e-04
      -2.31285987e-04 5.73109173e-06 6.02040556e-04 -2.38149762e-04
      -1.02026865e-03 6.99497978e-05 -7.15067363e-05 1.98191560e-06
      -4.78567599e-05 -8.81897358e-05 9.47551685e-04 -2.30017860e-04
      -7.63693024e-05 5.27399461e-05 2.25984259e-04 -1.60887581e-03
      -4.53547364e-05 3.59927042e-04 4.40697011e-04 8.57816311e-04
      -2.23855954e-04 1.33309644e-04 -2.19594531e-05 2.07270627e-04
      -5.06050477e-04 -3.42608080e-04 1.51584982e-05 -1.02756312e-04
      1.81104185e-03 8.22050148e-04 -3.81584337e-04 5.04110474e-04
      4.08294436e-04 -4.74191474e-04 -3.79378298e-06 -3.51533490e-05
      7.52107724e-07 4.26171406e-04 2.70840159e-04 -1.83684158e-03
      1.70638470e-03 -5.25677693e-04 -5.05261647e-04 -1.77017611e-03
      1.00688449e-04 -3.71452101e-04 -9.87452106e-04 1.11330673e-03
      -1.11770707e-04 -5.49878205e-05 1.04472530e-03 8.62719666e-04
      -6.64302497e-04 1.56224967e-04 -5.43613685e-04 -6.07557959e-05
      -7.76658708e-04 2.82756628e-05 -2.29923156e-04 1.15555699e-03
      -3.13444580e-05 -1.63657300e-04 3.54346295e-04 -7.80232949e-05
      3.77275021e-04 1.85368379e-04 -4.41349948e-05 -5.90865375e-06
      -1.46764738e-04 -8.03486182e-05 2.49052333e-04 -2.25275835e-05
      1.31249591e-03 -9.84110957e-05 -1.05297542e-03 1.13524334e-03
      8.66656541e-04 4.46992868e-04 -1.43832003e-04 -1.52160868e-03
      -5.41244153e-05 1.86195430e-05 2.17733964e-06 -1.09140696e-04
      6.46499248e-05 -4.50701074e-04 -2.39781748e-05 3.39797087e-04
      -8.96045385e-05 -1.72715227e-04 6.55257736e-06 7.18982847e-05
      1.18396466e-03 3.12991411e-04 1.35951210e-04 5.19531488e-04
      -6.14256642e-05 7.27945517e-05 1.50019870e-04 -7.38496368e-04
      -4.67015343e-04 -1.17453339e-04 6.94054033e-05 -2.97815539e-04
      7.84859236e-04 -1.21288227e-04 6.03180844e-04 -3.83110996e-03
      -4.44221572e-04 -1.39173018e-04 -1.35127443e-03 1.55351649e-03
      8.60418950e-05 -4.74163608e-05 -9.46130953e-04 1.00846461e-03
      4.26025690e-05 -3.99611657e-04 4.09366447e-04 -1.29438704e-04
      7.49873230e-04 -1.52183318e-04 1.57048379e-03 1.97863803e-04
      4.10326029e-04 -1.41504701e-04 -4.79446142e-04 -5.88078547e-05
      -8.15082632e-04 1.10009598e-04 6.46380009e-04 1.43233672e-04
      -2.49686325e-03 1.15781811e-04 -9.40505779e-05 -1.72121087e-04
      1.25531759e-03 2.33824932e-04 1.92234744e-04 6.22167718e-04
      1.18738855e-03 -4.74751025e-04 9.32314106e-06 2.10867147e-03
      3.59706610e-04 -8.55019534e-05 1.54036374e-04 3.20329983e-03
      -9.16414356e-05 -1.53051136e-04 -1.64136090e-05 2.14460611e-04
      1.93471374e-06 -2.94356956e-04 -2.92629993e-04 5.10561513e-04
      -2.88767624e-04 -1.46502256e-03 2.13914682e-04 -3.19608866e-04
      -4.01828802e-05 1.30155968e-04 -6.90673623e-05 -1.18067500e-03
      -1.53656758e-03 -2.76197284e-03 -2.04069787e-04 3.03594104e-04
      2.32333387e-05 -5.55421248e-05 -8.83285888e-04 3.12665157e-04
      -1.52619279e-04 2.02267943e-03 -1.00030215e-03 1.22487848e-03
      1.27086928e-03 2.32508843e-04 -4.03140002e-04 9.84434970e-04
      -1.17593008e-04 -1.43178288e-04 -8.70843869e-05 1.45733342e-04
      -3.06870461e-05 -3.35112883e-04 -1.42334343e-03 3.43646680e-04
      -1.78019889e-03 -2.54980027e-04 4.58968832e-04 -1.23016012e-04
      -6.75069808e-04 1.94421727e-06 -1.92335909e-04 3.96308315e-05
      -1.12585863e-03 4.90626786e-04 2.58963060e-04 -2.92510114e-04
      -1.17411524e-04 -3.61834856e-04 -1.99701346e-04 2.80741049e-04
      5.93447301e-04 1.32415489e-05 2.26369157e-04 -3.70264286e-03
      8.17436594e-05 -2.12445902e-05 5.60413580e-04 1.56499865e-03
      1.90588267e-04 1.53006011e-04 -1.43693078e-05 2.37795641e-04
      -1.79707320e-04 -1.15983050e-04 -2.08011479e-04 -3.01670399e-04
      1.20533071e-03 -4.67811100e-04 -1.89543265e-04 2.26189289e-03
      1.02912809e-03 6.66874839e-05 1.13775092e-03 4.50369087e-04
      6.38340076e-04 -1.02708396e-03 -1.51582295e-04 -1.27955200e-03
      -6.61667320e-04 -7.16204115e-04 -7.58382783e-04 4.44704405e-04
      -1.11841096e-03 -4.10594017e-04 -4.51371074e-04 1.88992976e-03
      6.93263661e-04 -1.91812214e-05 -2.00505703e-04 -8.37196014e-04
      -4.26071143e-04 -2.01406525e-04 -1.41124087e-06 7.38567032e-04
      7.36832444e-04 -2.55022896e-04 -1.19878014e-03 -1.60344515e-03
      2.46573880e-04 2.47266202e-04 1.17282136e-04 -7.25587306e-04
      -1.09256245e-04 -7.25228092e-05 5.50314086e-04 -5.32925769e-04
      1.46695401e-03 2.04203490e-04 4.97494009e-04 1.38404313e-04
      -4.99970512e-04 3.58931458e-04 -1.90727075e-03 -3.34032484e-05
      -9.06544970e-04 1.36526389e-04 7.22630706e-04 6.38718077e-04
      4.40313335e-04 4.81901196e-04 3.11814802e-04 2.30894264e-04
      -1.80352363e-04 -1.31497058e-04 1.97063509e-05 -4.66627534e-04
      1.04549566e-04 -2.89670366e-04 -1.85617770e-04 1.11391921e-04
      1.79737119e-03 1.22041802e-03 5.11211692e-04 1.20413734e-03
      7.84835196e-04 2.17007531e-04 1.67137268e-03 -3.26466194e-04
      -3.01856361e-03 -1.11749407e-03 -7.13241403e-04 -1.09556341e-03
      4.67771373e-04 2.58755230e-04 1.66974161e-04 -3.48345900e-04
      4.83521377e-04 1.55919360e-03 -8.42105728e-05 1.11478020e-03
      -1.84660358e-03 -1.77407783e-04 1.20947044e-03 1.25709036e-03
      -1.10881357e-03 3.11868178e-04 3.26509180e-04 3.33671225e-04
      -2.36310507e-03 -4.77550702e-06 6.56280434e-04 -9.37062898e-04
      -1.15721859e-03 -8.01358983e-05 -1.63092193e-06 3.48388508e-04
      -3.99761164e-04 -9.35108765e-05 4.44321427e-04 2.64235841e-05
      2.41355709e-04 -3.06515663e-04 -9.78038588e-05 -5.50498953e-05
      1.14474713e-03 -3.16974707e-04 -9.03082488e-04 -6.53613009e-04
      -6.49908674e-04 6.47739042e-04 6.60883961e-05 1.39149185e-03
      3.20284773e-04 -4.32482426e-04 1.61883596e-04 -1.18947786e-03
      -4.83453128e-04 -4.65197227e-05 -6.84539846e-05 -3.19720828e-04
      7.76220440e-06 -3.01665132e-04 2.95261823e-04 -1.44317833e-04
      2.04757787e-03 -1.17889990e-03 1.08356362e-04 1.04587583e-03
      4.42347664e-04 -1.49395157e-04 5.94437472e-04 9.85344650e-06
      1.78943714e-03 2.98043073e-04 1.09308530e-04 -2.08187921e-04
      -1.89960795e-03 -2.46403624e-06 2.48982135e-04 -1.38052215e-03
      -1.56502647e-04 -5.27403841e-04 3.48414178e-04 6.43679872e-04
      -7.38553819e-04 2.38595181e-04 -1.48034224e-03 -4.97264031e-04
      1.75574818e-03 1.35223992e-04 -5.26673568e-04 -1.86238132e-04
      1.82241737e-03 -2.36094755e-04 1.81277725e-03 -9.02599350e-05
      2.93137156e-04 -4.55284287e-04 1.07911910e-06 -5.68434189e-04
      -5.84841800e-05 2.00323793e-05 2.08385572e-05 2.58814136e-04
      2.07699690e-04 2.30476828e-04 1.99992119e-05 -1.95349436e-04
      -5.85618371e-04 -6.63038300e-05 -2.78407731e-03 -2.93855934e-04
      3.69205256e-04 -5.01040558e-05 2.26109216e-04 5.85652469e-06
      -2.80273438e-04 -4.99478774e-04 2.99714331e-04 1.06103354e-04
      9.51550101e-05 9.56267686e-05 -1.23414837e-04 -3.22903179e-05
      2.11978986e-04 2.68478208e-04 5.46058363e-05 -2.64627597e-04
      1.84558204e-03 2.69691064e-03 -4.43705590e-04 -6.22587104e-04
      1.42109902e-05 -8.88368450e-05 1.96181514e-04 2.22728966e-04
      -1.50324299e-03 -2.14507710e-03 2.68850890e-05 -1.09325381e-04
      1.77704717e-03 -3.06750735e-04 7.75451306e-04 -1.18030887e-03
      -1.65440224e-03 8.75085127e-04 -1.55687798e-03 1.31218543e-03
      -1.05637533e-03 -3.29570088e-04 1.97437126e-03 2.16344814e-03
      -6.05030393e-04 1.78187867e-04 -2.47875985e-04 8.28414850e-05
      -5.62043570e-05 -1.63419652e-04 3.10158503e-04 -2.00217566e-03
      2.12556054e-03 4.27089893e-04 1.26368963e-04 -7.83334326e-05
      -5.29682788e-04 7.53878121e-05 2.00321680e-04 -4.05354629e-04
      8.97479360e-04 -1.57101560e-04 2.35282700e-04 9.59914814e-07
      9.86530329e-04 2.68051139e-04 -5.59867767e-04 -1.46451406e-03
      -1.07774773e-04 -1.35575116e-04 4.37637427e-05 1.30557700e-03
      -1.61533142e-04 -2.76857550e-04 -2.80197914e-04 -8.72638717e-04
      -3.79055069e-04 -4.93126048e-04 -1.32878031e-05 8.70196818e-05
      -1.18628574e-04 9.63890561e-05 7.57412228e-04 5.71766759e-06
      1.69884949e-03 -2.74455827e-03 1.62147451e-04 1.52568216e-03
      2.37765726e-05 7.13135116e-04 8.84769310e-04 9.71541507e-04
      -6.57184806e-04 -5.07572258e-04 7.21884426e-05 -5.12794999e-04
      -1.26255641e-03 -8.92375014e-04 1.76519656e-03 -2.06997385e-03
      -2.17305729e-03 -3.18223574e-05 3.94603034e-04 1.13896537e-03
      -6.83357939e-04 3.32174313e-05 1.09374023e-03 3.72494862e-04
      -6.40142316e-05 3.24693479e-04 -2.62439309e-04 -1.19265576e-04
      -1.43675323e-04 -3.25674424e-04 2.16133209e-04 3.28503898e-04
      3.57164681e-04 9.85192237e-05 -3.72501527e-04 -4.95285312e-05
      -7.66477388e-06 -5.35726795e-05 6.28650771e-04 -1.06088162e-04
      -6.87182997e-04 2.13099818e-04 2.97125836e-04 2.40672362e-05
      -1.07771346e-04 9.01703606e-05 7.20593496e-04 -1.47124229e-04
      1.24058934e-05 -1.00751163e-03 -2.64118076e-04 -7.30285756e-05
      6.48452033e-06 -6.47559209e-05 -8.14473606e-05 1.02528627e-03
      -4.95171873e-04 5.97048675e-05 7.57903908e-05 -3.65055021e-04
      -1.78336952e-04 -2.74012837e-05 -4.60450421e-04 1.12168083e-03
      2.61887035e-05 -2.84562790e-04 1.96978770e-04 1.03549601e-03
      -6.40198341e-05 3.95667274e-04 -4.82553703e-04 -2.93704827e-04
      -9.76996031e-04 -7.39459530e-04 3.28428403e-04 -5.69268130e-04
      -8.62633344e-04 6.30136696e-04 3.11398791e-04 1.06782583e-03
      -2.07111123e-03 1.57276518e-03 -4.71631880e-04 -5.20177884e-04
      5.70281642e-04 9.01494786e-05 1.61545782e-03 9.34437558e-04
      -2.09990446e-03 1.24438220e-05 -5.69579715e-05 -6.26262801e-04
      8.15863314e-04 4.99966081e-05 1.12149597e-03 1.23741152e-03
      -6.31013245e-04 4.99461952e-04 2.39154208e-04 -1.12684691e-04
      -7.84482327e-05 2.78273510e-05 1.97573143e-04 -3.06998350e-04
      -1.35452789e-03 1.43138866e-04 4.83308861e-04 -9.56888616e-05
      1.24455325e-03 1.19124816e-04 9.16196150e-04 6.12535980e-04
      2.15094595e-04 -1.71171338e-03 -1.71732245e-05 -2.93570850e-03
      4.05908759e-05 2.90602300e-04 1.42541816e-04 -9.82209807e-04
      2.39069093e-04 -9.45491920e-05 -5.32478116e-05 -4.09336819e-04
      2.11406586e-04 -1.67001836e-05 2.79083441e-04 -1.27430586e-03
      -2.22820527e-04 1.08453773e-04 4.72616284e-06 1.28527265e-03
      6.54685500e-05 1.66814003e-04 -1.34678296e-04 3.18731734e-04
      -1.17509929e-03 1.17046840e-03 4.71303611e-05 2.47213553e-04
      2.25293246e-04 -1.52115710e-04 4.68323356e-04 -4.24395635e-04
      2.58093001e-04 -9.25917993e-04 -9.39799997e-04 8.70015298e-04
      1.03589369e-03 1.28045504e-04 1.76009082e-03 2.09995997e-05
      -1.99620659e-03 -1.62844022e-04 3.03214299e-04 3.82904807e-04
      1.27151888e-03 -2.37474771e-04 -1.65345124e-03 2.09278404e-03
      -6.31429255e-04 -3.52761068e-04 -2.71418859e-04 -1.23305465e-04
      5.91961143e-04 8.87965871e-05 3.25081724e-04 -8.99379884e-05
      -2.01755640e-04 5.23913804e-05 1.60977579e-04 5.04985182e-05
      1.22610980e-03 3.48668022e-04 -1.98244343e-05 1.78248854e-04
      -6.10668038e-04 -1.07961409e-04 -4.24216327e-04 2.15039426e-03
      -2.75744416e-04 3.50152666e-04 1.41105666e-05 1.15794409e-03
      -2.80045759e-04 -2.89969234e-04 2.57530119e-05 2.79818341e-04
      3.26399197e-04 -1.95891436e-04 2.79073109e-04 -1.30569870e-05
      1.92537045e-04 1.17673294e-03 -2.02616211e-04 3.64115636e-04
      -8.90925294e-04 3.69746849e-04 7.68958998e-04 -3.07641854e-03
      -1.00936461e-03 3.95414711e-04 -2.67454616e-05 -1.15252356e-03
      -1.40866835e-03 4.47554194e-04 -1.30185916e-04 -1.74387044e-03
      2.90452474e-04 1.67349877e-04 -9.72183421e-04 2.22251896e-04
      -6.09009294e-04 6.51407026e-05 7.44100660e-04 -1.17592991e-03
      3.77829594e-04 4.87245561e-04 -1.34123708e-04 9.09415121e-06
      4.33299749e-04 3.93478374e-04 -2.79099157e-04 -3.66824650e-04
      1.31681794e-03 -1.93014523e-04 -1.48852312e-04 -1.51249274e-04
      1.29111446e-04 -9.61146361e-05 -6.47092602e-05 -1.71339241e-04
      1.04747794e-03 5.63288631e-04 4.47035825e-04 -8.25621246e-05
      -1.62925594e-03 -2.61682988e-04 -1.11701561e-03 5.69018070e-04
      -6.98404911e-04 -2.12134304e-03 -3.07898066e-04 7.23287638e-04
      3.98126540e-05 -2.63167516e-04 2.53629463e-04 2.89770105e-04
      6.08339556e-04 5.67085051e-04 -7.72063795e-05 -4.19856631e-04
      4.93544212e-04 7.85837910e-05 2.10148173e-05 -6.22689840e-04
      1.70924736e-03 -1.01097522e-03 3.04883451e-06 3.42071813e-04
      6.20495630e-05 -1.16043033e-04 2.23988973e-04 -1.19807338e-03
      2.62261077e-04 9.21340776e-04 1.32860569e-05 3.55661148e-04
      1.15625362e-03 5.44402224e-04 -8.20580055e-04 -8.22467438e-04
      -8.86898371e-04 5.30335674e-05 -4.96264780e-04 1.24184543e-03
      -1.10686969e-05 -3.72965122e-04 2.30863108e-03 4.66700789e-04
      -6.73864997e-05 2.24473828e-04 2.77689778e-05 2.67641532e-04
      8.21623835e-04 1.93618835e-04 1.03825449e-04 -9.70117631e-04
      -1.19375228e-03 -9.62869235e-05 2.16744796e-04 4.75261368e-05
      2.03319039e-04 9.37961740e-05 8.54420723e-05 3.51673989e-05
      -3.56170232e-04 -3.46558256e-04 3.24068533e-05 -2.85247166e-04
      -8.13166145e-04 -7.36613365e-05 -9.88853630e-04 1.16262131e-03
      -4.94773441e-04 6.92248752e-04 -1.77509006e-04 -2.27339962e-03
      -2.79312197e-04 -2.58712127e-04 7.66871199e-06 5.41065878e-04
      -1.34779999e-04 -8.51162258e-05 2.19128124e-05 -3.04303103e-04
      8.23048103e-05 -4.75384557e-04 3.91539623e-04 7.65580262e-05
      -4.24594735e-04 4.97520785e-04 2.76556442e-04 2.99637875e-04
      -4.19103089e-05 -9.56751464e-05 5.31204278e-04 1.37559848e-03
      2.90002383e-04 2.28859717e-04 1.18458076e-04 -6.39645383e-04
      -5.19065943e-04 -3.43442458e-04 1.41722220e-03 -9.28524474e-04
      -3.39621096e-04 1.13252310e-04 -1.24395738e-04 -1.78182265e-03
      -4.09609114e-04 -3.94333678e-04 -1.41692508e-04 2.51397910e-03
      5.21383830e-04 -3.03495064e-04 -1.52926863e-04 4.15037415e-04
      -1.10130257e-03 -1.01833801e-04 7.54626177e-04 -6.75783725e-04
      -1.04250235e-03 3.98881151e-04 1.08188229e-04 5.19545923e-04
      4.37900308e-05 1.28624612e-04 -3.92210088e-04 -1.27072577e-04
      -1.76230387e-04 1.07287087e-04 4.57575603e-04 1.58015653e-04
      3.19329323e-03 1.97359244e-04 -1.06813022e-04 1.72441057e-03
      -9.49424226e-04 -1.37694242e-05 1.33427253e-04 2.89969053e-03
      4.36374015e-04 4.05412429e-04 -3.20797932e-04 5.33004524e-04
      2.86143040e-04 2.31321494e-04 -9.11717598e-06 -3.84082610e-04
      -1.77306647e-05 6.10085321e-04 -3.31715681e-04 2.40091191e-04
      -1.14293944e-03 -2.05540494e-03 5.52863698e-04 -1.38919742e-03
      -6.20151055e-04 2.23278883e-04 -1.48819512e-04 5.41293353e-04
      -2.89497984e-04 -9.07673326e-04 -2.33124774e-05 -1.36350084e-03
      -6.47700799e-04 -6.76408643e-04 4.34552610e-04 -2.19899288e-04
      -1.62276858e-03 1.08979142e-03 4.26520768e-04 -1.11139358e-04
      -8.45001250e-06 2.19055975e-04 -9.85085149e-04 3.40763247e-04
      2.94499972e-04 3.83396575e-04 7.91779457e-05 3.30968498e-04
      1.57603354e-05 -4.23622532e-06 -4.83375916e-04 2.87602365e-04
      -3.83301551e-04 6.60041842e-05 -3.24349618e-04 6.33343821e-04
      1.17744676e-05 -7.79739185e-06 -1.13166236e-04 -9.08646500e-04
      1.17073557e-03 5.43126407e-05 1.23053585e-04 -3.72271577e-04
      2.25508097e-03 -2.05755467e-04 1.47905643e-03 -1.28724996e-03
      -3.42108280e-04 7.87361118e-04 1.20417808e-05 -9.96829840e-05
      4.94803651e-04 -5.93629447e-05 -7.24362442e-04 3.29067960e-04
      -5.98648388e-04 4.34381150e-07 1.93281405e-04 -7.81477720e-05
      -4.66995916e-05 3.01933789e-04 4.85479861e-04 -4.80556570e-04
      -1.83994195e-03 1.64212484e-04 4.94014355e-04 3.10659874e-04
      -1.92070627e-04 6.41114602e-04 -1.43128578e-04 8.27986922e-04
      1.71310603e-04 -1.13162829e-03 6.58459248e-05 -1.37958530e-04
      -3.26310983e-04 1.83873693e-04 4.85992641e-04 -2.19211215e-03
      -9.70012567e-04 2.05677366e-04 8.51881166e-04 4.32352419e-04
      -1.58324605e-03 -5.53794205e-04 -5.70507196e-04 8.61293462e-04
      -1.18948647e-03 -8.94224377e-06 -3.85952386e-04 2.15014123e-04
      2.28496574e-04 -1.46969440e-04 1.48616999e-03 1.27560191e-03
      3.55673546e-04 1.87108206e-04 1.48676801e-04 -2.23087322e-04
      3.08639865e-04 -5.11489488e-05 8.50702490e-05 1.13319045e-04
      -2.97203427e-04 -1.94457840e-04 1.44915157e-05 -2.89250427e-04
      1.82050676e-03 -2.28707970e-04 5.90078125e-04 -1.20477902e-03
      5.52435406e-04 -5.59387030e-04 2.97715917e-04 -2.61957437e-04
      9.40431957e-04 -2.22784311e-05 -3.25110566e-04 3.44304019e-04
      -3.67406494e-04 1.56882990e-04 6.16499165e-05 -1.47030412e-04
      -7.85943994e-04 6.29857459e-05 -1.19191327e-03 -4.32677043e-04
      5.12276078e-04 -9.74264578e-04 3.38424637e-04 3.34319891e-04
      -2.15041437e-04 -8.23430484e-04 1.49039930e-04 5.68896357e-04
      -6.97396812e-04 1.00790046e-03 3.00602289e-04 -9.18370148e-04
      1.15254545e-03 -4.83003620e-04 8.28515767e-05 5.94435005e-05
      -8.77103012e-05 6.75722258e-04 3.10309726e-04 -1.50073646e-03
      -3.08542832e-04 -1.28315587e-04 4.10831155e-04 -3.59332189e-04
      4.34424612e-04 1.21396741e-04 1.44727819e-04 -5.98180981e-04
      -8.14205967e-04 -3.00548651e-04 1.36369036e-03 -1.13801763e-03
      2.32310570e-03 1.94990702e-04 1.55125730e-04 3.04994919e-05
      -3.08057970e-05 1.79001130e-04 6.63481653e-04 1.51898757e-05
