<?xml version="1.0"?>
<opencv_storage>
<my_svm type_id="opencv-ml-svm">
  <svm_type>C_SVC</svm_type>
  <kernel><type>LINEAR</type></kernel>
  <C>1.0000000000000001e-01</C>
  <term_criteria><epsilon>2.2204460492503131e-16</epsilon>
    <iterations>1000</iterations></term_criteria>
  <var_all>16128</var_all>
  <var_count>16128</var_count>
  <class_count>2</class_count>
  <class_labels type_id="opencv-matrix">
    <rows>1</rows>
    <cols>2</cols>
    <dt>i</dt>
    <data>
      -1 1</data></class_labels>
  <sv_total>1</sv_total>
  <support_vectors>
    <_>
      3.06715257e-03 -3.77430522e-04 8.35753279e-04 6.57582597e-04
      5.30870922e-04 -2.55791732e-04 1.03054964e-03 -1.04835466e-03
      1.79288944e-03 -1.55850226e-04 -2.14194624e-05 -2.81642104e-04
      9.32663504e-04 2.01155737e-04 -2.51727142e-05 -1.29702152e-03
      -2.02610949e-03 8.20013665e-05 -2.25304189e-04 3.99704149e-04
      4.81122552e-04 -3.65066117e-05 -6.74722309e-04 -3.01427906e-04
      -7.71397899e-04 7.24670645e-06 5.10279824e-05 1.63986289e-04
      -1.15764572e-03 5.70901379e-04 1.17238052e-03 5.01507544e-04
      -1.84154569e-03 2.63625610e-04 -2.46472831e-04 1.21651916e-03
      -3.22905507e-05 -9.99544718e-05 3.16122372e-04 -1.09880231e-04
      -2.28902791e-04 -6.01604042e-05 3.17906088e-05 2.74639489e-04
      1.67716134e-04 -5.98012812e-05 1.17048672e-04 5.31406957e-04
      -1.87558495e-03 -6.78308657e-04 -7.64294411e-04 2.62395130e-04
      -8.28546996e-04 2.83087546e-04 1.33515772e-04 4.38953430e-04
      3.15198937e-04 1.06222997e-03 7.38216040e-05 -2.54468992e-04
      -1.72590872e-03 -2.62971211e-04 4.14166658e-04 -6.55845273e-04
      -1.25157333e-03 1.06287305e-03 -2.51537684e-04 1.02844759e-04
      2.80370470e-04 -1.22389276e-04 3.04576679e-04 -1.27828168e-03
      -8.39777989e-04 5.75089580e-05 -1.24733429e-04 4.14907117e-04
      -1.91911112e-03 3.27124028e-04 1.31116671e-04 -3.35904973e-04
      1.72426610e-03 5.26792428e-04 2.22401708e-04 -1.91377054e-04
      -8.08869518e-05 -4.24401187e-05 6.30579540e-04 -1.36140778e-04
      1.69812434e-03 -1.13488502e-04 -5.63254107e-05 1.69066698e-04
      -4.11868852e-04 3.55650205e-04 -2.62829242e-03 -1.41334580e-03
      1.15333218e-03 -1.03761442e-03 3.56545119e-04 -1.27363706e-03
      3.78301076e-04 -3.67628352e-04 -4.87575831e-04 1.06227107e-03
      -2.50478188e-04 -1.08930108e-04 1.03497790e-04 4.60648516e-05
      -4.09695749e-05 -1.23108446e-04 -1.27580657e-04 6.36350960e-05
      -2.28396500e-03 -6.62539562e-04 2.38190405e-05 -4.08576976e-04
      2.28074772e-04 -3.37331527e-04 8.52708938e-04 7.75337743e-04
      -6.66756358e-04 -5.96060825e-04 -1.02965001e-04 2.62092450e-04
      2.95591261e-03 6.14054588e-05 3.28205060e-04 3.41378734e-03
      -1.28542702e-03 4.73108434e-04 1.19097927e-03 8.53468140e-04
      1.24247384e-03 2.20430793e-05 -3.09433672e-04 3.54851334e-04
      -8.17095803e-04 -8.25619136e-05 7.39253519e-05 1.66818627e-05
      -5.93127334e-04 7.71731357e-05 -7.60680356e-04 4.11367568e-04
      -7.73343618e-06 9.13040203e-05 2.21815499e-04 2.16158296e-05
      -3.53324685e-05 -2.79519227e-05 -1.09712833e-04 -1.19735487e-04
      -2.61069526e-05 -3.97363532e-04 1.70724907e-05 -1.99136430e-05
      1.10151304e-03 -2.19660506e-04 2.93684890e-04 -3.30072100e-04
      -1.14139321e-03 2.01281207e-03 4.74903965e-04 -7.02294521e-04
      5.57428575e-05 -5.61319575e-05 6.10831019e-04 -2.76099355e-03
      7.45332291e-05 1.22078127e-05 2.17900470e-05 2.48337950e-04
      -1.53675443e-04 -2.49380770e-04 1.91426530e-04 -1.61626042e-04
      -7.10762106e-04 2.25779964e-04 9.38960759e-04 -1.25449977e-03
      -2.68639094e-04 2.24265910e-04 7.76845904e-04 -7.68779602e-04
      8.00220470e-04 2.27342753e-04 -5.85298054e-04 -3.25448229e-04
      -8.48946744e-04 7.33577413e-04 5.69170050e-04 4.67951322e-04
      -1.03661965e-04 3.34032491e-04 -4.17457282e-04 -1.13868482e-05
      -8.14741885e-04 -1.10882116e-04 2.75356206e-03 3.22935339e-05
      -2.98042258e-04 -3.35896970e-04 4.99749285e-06 -4.27898303e-05
      -1.17598669e-04 7.30797328e-05 1.41864095e-03 -2.19674985e-04
      2.91874079e-04 3.44752742e-04 4.66158264e-04 4.31743363e-04
      -9.00017505e-04 6.61460508e-05 -9.55665717e-04 -2.03773161e-04
      -7.99468544e-04 3.01867804e-05 -6.81649472e-05 3.55904353e-06
      1.24035170e-03 -5.96860133e-04 -2.15150695e-03 -5.91982505e-04
      1.20405911e-03 1.21832290e-03 2.95876729e-04 -2.15870189e-03
      2.57913838e-04 3.65510990e-04 1.08918772e-04 -1.61330320e-03
      -7.17313815e-05 2.32940620e-05 1.96951914e-05 1.59399176e-04
      1.09548222e-04 4.65709236e-05 3.01646884e-04 3.19165440e-04
      -1.44054508e-03 -1.64090749e-03 -5.78055682e-04 3.46809719e-03
      -2.91902688e-04 6.25710119e-04 6.63114188e-04 1.05406204e-03
      2.15195981e-03 4.18250245e-04 2.46781216e-04 -1.52670115e-03
      -1.23234757e-03 -2.79082567e-04 -2.85609555e-03 1.87967112e-03
      -4.54366746e-05 -2.77683837e-04 1.39331748e-03 4.54806053e-04
      1.77344622e-03 3.89925881e-05 -1.84565410e-03 -1.91413658e-03
      8.17481632e-05 2.03407602e-04 5.62522735e-04 4.27480671e-04
      -4.89994767e-04 -1.55020287e-04 -2.23618560e-03 -1.14834448e-03
      -1.75515201e-03 1.66745696e-04 -1.74440764e-04 1.87288824e-04
      1.98059177e-04 -4.04154307e-05 -2.97537736e-05 1.58948504e-04
      2.55495147e-03 -2.98227620e-04 2.11382910e-04 5.74851038e-05
      1.77571282e-03 -3.59278522e-04 1.26211974e-03 -6.67254266e-04
      8.69576063e-04 1.78494421e-03 -2.12298575e-04 -1.04163273e-03
      4.89879923e-04 1.89673345e-04 -2.17890178e-04 -1.01154658e-03
      2.66204326e-04 1.62847413e-04 -6.06374742e-05 -4.92111314e-04
      4.81067371e-04 1.14053946e-04 1.67400693e-04 6.10735093e-04
      3.00723803e-03 -2.80551059e-04 -9.35974458e-05 -7.39823969e-04
      -5.01324947e-04 1.29230844e-04 -1.86131871e-03 4.91043204e-04
      -1.55921967e-03 4.19604155e-04 2.41668153e-04 -3.53065989e-04
      -1.46955648e-03 2.56228261e-04 -8.11023579e-04 9.52766568e-04
      -1.22908456e-03 6.78795681e-04 -1.18106464e-03 -7.90672726e-04
      1.16170535e-03 -2.48373162e-05 -3.07453622e-04 1.29851594e-03
      -2.75766593e-04 5.50307996e-05 4.91717248e-04 4.11108864e-04
      8.25951574e-04 4.27553314e-04 1.79976376e-03 -1.06102659e-03
      -1.24466454e-03 8.52302401e-05 -2.81891058e-04 3.40273800e-05
      5.63572743e-04 8.42477821e-05 -3.82213708e-04 -2.19037393e-04
      -1.91971194e-05 6.45588880e-05 -4.61854461e-06 -1.93625950e-04
      -3.26925842e-03 1.24601182e-04 3.62101011e-04 1.89842845e-04
      -2.13988358e-03 2.08423054e-03 -2.75125145e-04 -1.47479575e-03
      -3.83027946e-04 -2.48788769e-04 -5.85311354e-05 -1.30243774e-03
      4.12929512e-04 1.70357147e-04 4.53623325e-05 -1.53361441e-04
      -1.81240292e-04 -3.86449865e-05 -6.71447924e-05 -9.29080299e-04
      1.69019063e-03 5.20695583e-04 3.98037460e-04 1.19648175e-03
      -4.44895588e-04 -2.75523234e-05 -9.12038784e-04 -2.52400030e-04
      7.85834680e-04 1.40627718e-03 4.05138155e-04 -1.30030746e-03
      -1.25757034e-03 7.55278452e-04 7.90538325e-04 2.61156238e-03
      1.65086915e-03 -1.38092891e-03 1.25297217e-03 -1.13700458e-04
      -9.19136277e-04 2.97544146e-04 -1.24111644e-03 2.65964016e-04
      -5.86575363e-04 1.48012850e-05 -3.77112628e-05 1.57301693e-04
      5.81036438e-04 -1.68852144e-04 3.54500342e-04 1.64515153e-03
      1.62319606e-03 2.13017076e-04 5.16357250e-05 -8.75458718e-05
      -7.26397382e-04 2.13897019e-05 1.32290166e-04 -2.85563176e-04
      -1.99597562e-03 2.76099629e-04 -3.29834846e-04 -1.82870121e-04
      -1.31582690e-03 -3.81528458e-04 1.47877494e-03 9.46639688e-04
      1.83280313e-03 -9.55228810e-04 6.30388749e-05 -1.39230024e-03
      2.98831274e-05 -4.58425493e-04 -1.64438257e-04 2.08735612e-04
      6.28514856e-04 -4.38240037e-04 6.52818926e-05 5.85840666e-04
      -1.72352829e-05 -3.88341832e-05 -4.22684621e-04 1.01453415e-03
      -1.01531870e-04 -6.92670059e-04 -9.68871405e-04 2.12697731e-03
      6.80641446e-04 -9.67371088e-05 -1.58392685e-03 -1.70213298e-03
      -2.95392633e-03 1.29558588e-03 1.08721324e-05 4.55599569e-04
      -3.06174305e-04 -1.71214470e-03 4.10438166e-04 3.38713522e-03
      2.35231579e-04 -1.33910438e-03 -1.69863005e-03 -5.28846111e-04
      -5.14728425e-04 -3.03903817e-05 1.97365345e-03 3.23126849e-04
      -2.61312263e-04 -3.52346367e-04 8.64368048e-05 1.19269520e-04
      -3.52369738e-04 2.96723272e-04 6.25230372e-04 -7.66869518e-04
      6.64625331e-05 -3.13798868e-04 -4.35115682e-04 -2.16894492e-04
      7.23678153e-04 9.09503287e-05 6.43487263e-04 7.79746188e-05
      -5.92133671e-04 5.42178692e-04 -8.58448984e-05 -2.50207755e-04
      6.88330270e-04 3.62865074e-04 -9.75821633e-04 -4.45933052e-04
      1.31058902e-03 2.47912109e-03 8.12042999e-05 -8.02377064e-04
      -1.67300459e-04 -1.20209057e-04 3.35042976e-04 -1.26285281e-03
      -1.81027892e-04 -3.07600101e-04 8.81216765e-05 7.26847575e-05
      -1.55874252e-04 -2.85647373e-04 -6.23939093e-04 1.91410421e-03
      -7.65494187e-04 -1.94024551e-03 8.48108466e-05 5.54174985e-05
      2.57358071e-04 1.61986172e-04 -7.80678063e-04 8.95357400e-04
      4.16223978e-04 1.66703935e-03 2.95954931e-04 -5.36744192e-04
      -4.04285936e-04 4.85795899e-04 1.62212993e-03 -1.58391753e-03
      1.09142892e-03 -1.50441454e-04 -1.36245927e-03 8.44899216e-04
      7.44447287e-04 6.06137655e-05 3.26813933e-05 1.16794661e-03
      -3.65192624e-04 1.58553856e-04 2.47121236e-04 3.59066558e-04
      -2.36635911e-03 -4.54829024e-05 -2.06448557e-03 5.40104404e-04
      -1.59423333e-04 3.81665923e-05 6.96520321e-04 3.88353277e-04
      -7.85133278e-04 -1.13025242e-04 1.28939377e-07 -3.75431468e-04
      2.88028939e-04 7.74539294e-05 6.00486354e-04 -6.23195607e-04
      1.65823731e-03 -1.76876478e-04 2.13598530e-03 -3.88140354e-04
      1.41984760e-03 7.71768318e-05 -7.92946026e-04 -2.39203408e-04
      2.01977862e-04 1.40157019e-04 -5.11475315e-04 -1.75510091e-03
      -7.35222478e-04 -1.24983693e-04 8.62160741e-05 4.40104981e-04
      -3.16701131e-04 -7.20412500e-05 -4.55537083e-04 1.40784413e-03
      8.94159894e-04 -1.08091801e-03 1.98963739e-04 -1.17680558e-03
      -4.44924699e-05 -2.83334870e-04 1.80112000e-03 -1.30015702e-04
      -1.32132659e-03 -1.49799103e-03 3.50887072e-04 1.06562197e-03
      -8.27264681e-04 6.78835844e-04 -4.75252309e-05 4.95394808e-04
      2.56154774e-04 8.95440695e-04 -1.09589973e-03 -3.64558509e-05
      -5.30558929e-04 7.12276495e-04 -1.01327628e-03 9.20333958e-04
      2.44275056e-04 -3.49632501e-05 -5.48536191e-04 -6.42775965e-04
      -1.47691637e-03 4.55741130e-04 2.04873364e-03 -1.22091535e-03
      -4.54860419e-04 2.23789306e-04 1.78062055e-05 4.77056485e-04
      2.73989601e-04 -2.37512839e-04 6.96552452e-04 -1.77582697e-04
      3.54478034e-05 -5.47951029e-04 5.32562379e-04 -3.77465549e-05
      -4.45869286e-04 -1.09712375e-04 1.11289387e-06 -8.09331133e-04
      3.26649839e-04 -2.90147669e-04 -4.77098016e-04 5.83500427e-04
      -2.34263920e-04 7.21691758e-04 5.33679791e-04 -2.36480567e-03
      1.77929644e-04 -4.35823567e-05 6.48103378e-05 6.70931884e-04
      4.86368663e-04 4.16781404e-05 -5.63711837e-05 1.56145834e-04
      -4.78706905e-04 6.41369668e-04 -1.75549823e-04 -1.39045168e-03
      8.58813117e-04 5.71349578e-04 -8.89104092e-04 1.23232487e-03
      2.90408148e-04 -1.37726936e-04 4.02201549e-04 2.30137899e-04
      -1.03286759e-03 4.66592261e-04 7.39174488e-04 4.50921334e-06
      1.35680090e-03 -6.74490002e-04 -1.45696977e-03 1.07502169e-03
      1.13379164e-03 -8.16505519e-04 -1.12933537e-03 2.42362544e-03
      -5.96240570e-04 4.92144209e-05 -3.35275581e-05 -3.41953244e-04
      -1.84986624e-03 2.15448512e-04 1.32686633e-03 -4.86291421e-04
      1.88619480e-03 5.97569218e-04 3.84984422e-04 2.55129620e-04
      -3.34890246e-05 2.68336265e-07 -2.15594599e-04 1.55567162e-04
      1.44938892e-03 1.17458112e-05 3.16711987e-04 -1.42118733e-04
      -1.68845803e-03 -4.00798192e-04 -4.42611752e-04 -1.30908797e-04
      -1.25879073e-03 9.27031098e-04 -4.73941851e-04 8.13835941e-04
      -1.44998936e-04 -3.67995410e-04 -6.67237919e-06 1.42181685e-04
      1.47595623e-04 1.54958998e-05 4.90323109e-05 -1.57148752e-05
      5.89949414e-05 8.68928764e-05 -4.05619619e-04 5.70181990e-04
      -8.61291424e-04 9.15721932e-04 -2.57692882e-04 1.27212110e-03
      -2.55871477e-04 1.08717242e-03 -9.19574697e-04 -1.40808232e-03
      -1.49368867e-03 -3.28044669e-04 -4.92258187e-05 4.45757294e-04
      -7.12617591e-04 -6.61774320e-05 2.82022695e-04 1.27928924e-05
      -1.06900465e-03 -5.59579523e-04 -3.09950835e-03 7.75259512e-04
      8.03381379e-04 -6.25568267e-04 6.03984401e-04 1.39850902e-03
      8.51059507e-04 1.67919628e-04 -5.43988717e-05 -5.21424343e-04
      -9.33314790e-04 -1.43964746e-04 7.71182473e-04 -9.01518157e-04
      1.58879848e-03 1.10105218e-04 -4.70600935e-04 1.52813358e-04
      -7.37490831e-04 -9.90657281e-05 -1.93460030e-04 -5.31194164e-05
      -6.90861256e-04 -3.96422605e-04 7.37415439e-06 1.43086960e-04
      1.26448483e-03 2.63339840e-04 2.38165050e-03 -1.66499522e-03
      1.52896653e-04 5.99980529e-04 -2.71963709e-05 -2.33023238e-04
      9.71322152e-05 -2.75784871e-04 1.81704105e-04 -1.72292732e-03
      8.91000127e-06 -2.38230088e-04 -9.83944265e-05 9.51759168e-04
      5.53088321e-04 -2.28568199e-04 -2.19080597e-04 9.62666236e-04
      1.22544658e-03 2.03903555e-03 -2.88469251e-04 -5.56144980e-04
      1.66963582e-04 3.21032538e-04 -1.73672728e-04 -7.22047916e-05
      -1.43129131e-04 3.22557258e-04 -3.38152546e-04 -4.59337491e-04
      -2.11636745e-03 -6.93587936e-05 -7.54126755e-04 1.36234460e-03
      -1.28560467e-03 -1.82670285e-03 -1.05241127e-03 1.91373809e-04
      9.27349203e-04 4.24063865e-06 -2.12862469e-05 -6.79307966e-04
      1.29122380e-03 -3.70638765e-04 8.18132612e-05 1.45578088e-04
      2.56372546e-03 4.43601719e-04 -9.39818041e-04 -1.83008568e-04
      6.03090390e-04 -5.67590396e-05 -1.24729821e-04 -7.76616944e-05
      -5.30641468e-04 1.42142992e-04 -5.92834549e-04 3.06932518e-04
      1.10201666e-03 -5.04651071e-05 1.63859731e-04 5.12873667e-05
      5.82877838e-04 2.39873683e-04 -8.94482015e-04 2.55095278e-04
      1.31154177e-03 -1.32959231e-03 -6.36665034e-04 1.13092095e-03
      -1.04832009e-03 -9.91699053e-05 -5.46275289e-04 -1.21718296e-03
      2.36073629e-05 -3.79092293e-04 2.92977948e-05 -2.03697855e-04
      -4.71551757e-04 1.85172714e-04 -2.24532778e-06 1.10424287e-03
      5.74723526e-04 1.55433183e-04 -4.99474991e-04 -1.51347858e-03
      -7.39612442e-04 3.22751701e-04 -2.56125553e-04 -6.87140506e-04
      -1.42239849e-04 3.22256819e-04 1.64314144e-04 1.56686816e-04
      6.89728360e-04 1.07969984e-03 1.53293600e-03 5.78820647e-04
      1.25336065e-03 9.39958263e-04 -1.02588313e-03 1.03469960e-04
      9.33327479e-04 -1.80876988e-04 1.10386442e-04 2.29242863e-03
      -2.54895160e-04 -2.44567462e-04 2.16780027e-04 -3.31413794e-05
      -6.56308664e-04 2.02790034e-04 -1.33744744e-03 -4.41011158e-04
      -5.45941235e-04 2.26655175e-04 -1.77521346e-04 -8.05764284e-05
      -2.76084727e-04 2.49432360e-05 2.79485917e-04 -1.04451261e-04
      7.92643172e-04 -3.94855379e-05 -1.90897554e-05 2.13198087e-04
      -1.39723916e-03 -5.66899078e-04 -3.71009693e-04 7.44421151e-04
      -8.65010894e-04 -2.25136569e-03 -1.23542245e-03 5.75118931e-04
      1.36496103e-03 -1.73312495e-04 -4.94313019e-04 -1.27205474e-03
      3.11862153e-04 -1.75682690e-05 -3.55033517e-05 -3.86627711e-04
      -3.08129645e-04 -2.06718949e-04 3.81408667e-04 3.31553339e-04
      4.19318822e-04 1.00044254e-03 -4.74134606e-04 8.60832224e-04
      4.54043329e-05 1.27843305e-04 -2.33550945e-05 -3.17890401e-04
      -1.15302144e-04 -1.02111859e-04 9.19068407e-05 1.93671882e-03
      2.69186188e-04 6.21362589e-04 3.75248841e-04 -1.01576594e-03
      9.08068323e-04 1.18125661e-03 1.11389265e-04 1.10797293e-04
      6.84014405e-04 4.57303649e-05 -5.14785606e-05 -1.03249354e-03
      1.89252634e-04 3.20591964e-04 3.67475353e-04 3.79040030e-05
      -5.63773443e-04 1.36052040e-04 -1.91512867e-03 2.38885288e-03
      -2.64066068e-04 -2.30119826e-04 -6.69343717e-05 -2.82696798e-04
      2.74503313e-04 9.86310260e-05 6.48807763e-05 1.00920450e-04
      -1.88107521e-03 9.83433711e-06 6.99422089e-04 -2.14292377e-04
      2.18188667e-04 6.07839320e-04 -1.30441692e-03 1.71053020e-04
      -9.71235509e-04 -2.47128331e-03 -2.60107307e-04 -8.81808752e-04
      2.80359527e-04 1.18417975e-05 4.40833464e-05 1.99673139e-03
      -1.25207487e-06 4.92426218e-04 -3.93498449e-05 -7.70152896e-04
      3.46382178e-04 -2.04158001e-04 -6.85843333e-05 4.30065033e-04
      8.22897826e-04 -1.48301595e-03 3.32462252e-04 -8.08488287e-04
      -1.66495374e-04 -2.55182822e-04 1.07997551e-03 -1.28052576e-04
      5.03828225e-04 2.49930803e-04 4.61910327e-04 1.37844778e-04
      9.44675849e-05 -9.78735741e-04 -9.18342383e-04 2.20085634e-03
      5.78959123e-04 -1.39491353e-03 2.80424394e-03 2.24103429e-03
      -1.31939392e-04 -2.28194214e-04 -1.88522192e-03 -1.61015896e-06
      2.65684270e-04 -1.18105585e-04 2.25424432e-04 -4.26680548e-04
      3.17608472e-04 -1.57467221e-05 -7.68037338e-04 -8.40943831e-05
      -1.92553492e-03 -4.02208854e-04 6.64944761e-04 -5.46261763e-05
      -2.87826726e-04 4.45538171e-06 -6.98699616e-04 -6.82292957e-05
      1.68247975e-03 3.65911779e-04 -4.12987210e-05 -1.72880493e-04
      -9.74277325e-04 3.26575653e-04 8.14730010e-04 -2.34071107e-04
      1.58715891e-04 7.72018684e-04 7.95737506e-05 -1.80358801e-03
      1.28387896e-04 6.76359690e-04 -2.84150417e-04 -9.10097559e-04
      -6.78664655e-05 5.79191372e-04 1.31057153e-04 -6.18176127e-04
      1.02493948e-04 -6.62145976e-05 -2.47009244e-04 9.69111512e-04
      2.95128068e-03 1.19073514e-03 -4.97624103e-04 -1.97991286e-03
      4.93829339e-06 1.26252824e-04 1.20033925e-04 5.76036749e-04
      -2.99977278e-03 -9.80128651e-04 3.80714482e-04 -3.04866876e-06
      1.10574672e-03 -6.87150459e-04 -1.30088965e-03 2.01512594e-03
      -1.46115854e-04 1.19028591e-04 -6.70860056e-04 3.14874761e-03
      1.38422207e-03 -1.47424880e-05 -2.57522659e-03 -5.63524372e-04
      9.68247768e-04 2.89008749e-04 1.63683100e-04 4.65085468e-04
      1.33991695e-03 -3.45449022e-04 5.13736450e-05 1.42683845e-03
      -2.78647803e-03 -1.00782956e-04 -3.55985539e-04 5.13122650e-04
      -7.57385060e-05 -2.66187126e-04 5.41160174e-04 5.25480427e-04
      2.78845779e-04 -2.09217920e-04 -2.48879660e-04 9.17831858e-05
      -2.01664912e-03 -5.54293874e-05 1.29896647e-03 8.35596642e-04
      2.34096995e-04 -4.47322527e-04 6.81642210e-04 -1.72755576e-03
      -1.60091600e-04 2.22536299e-04 4.90116945e-04 2.45498348e-04
      6.35902106e-04 8.09451449e-05 -9.28894660e-05 -1.80367788e-04
      -7.05401704e-04 -2.53824022e-04 -1.21526420e-04 -1.10165554e-03
      -9.04805784e-04 -2.85528367e-03 7.47193757e-04 -3.36823607e-04
      -3.94315284e-05 -1.55658316e-04 1.83267612e-03 -1.05639815e-03
      1.43578509e-03 5.84674453e-05 6.06934365e-04 1.51892775e-03
      -1.19821623e-03 -7.32394183e-05 -1.02640747e-03 6.36335230e-04
      -1.58127339e-03 1.20691606e-03 -7.16578797e-04 -2.44832161e-04
      -3.83643899e-04 4.45434503e-04 1.14545366e-03 -2.95089046e-03
      8.07092816e-04 3.02727974e-04 6.00090832e-04 -1.85817058e-04
      -1.93044508e-03 1.76098882e-04 2.29977042e-04 -5.64926770e-04
      4.53847315e-04 2.38979439e-04 3.34403703e-05 1.23895836e-04
      -4.14306123e-04 -2.04347249e-04 5.84845082e-04 -6.62857376e-04
      -2.62171752e-03 1.47204610e-05 -2.82014167e-04 -4.07368294e-04
      1.23334792e-03 1.08236978e-04 2.30220961e-03 -1.14714773e-03
      5.15286694e-04 -1.15641498e-03 -4.92473373e-05 9.07430309e-04
      -8.30642937e-04 3.00710235e-04 6.67780871e-04 -1.99373439e-03
      6.65547850e-04 1.83924523e-04 1.30039571e-05 1.02372003e-04
      4.83381358e-04 1.13483300e-04 8.03461648e-04 -1.00441556e-03
      1.38498168e-03 -4.31913895e-06 -5.28967706e-04 4.87466226e-04
      1.00878009e-03 9.34904238e-05 -5.21918235e-04 2.13715504e-03
      -2.29546591e-03 3.25945052e-06 -2.56632309e-04 1.02914346e-03
      1.80316065e-03 -9.33692208e-04 4.79796698e-04 6.82685699e-04
      2.27844669e-03 1.98106212e-03 -5.11631195e-04 -1.16254715e-03
      -6.37506746e-05 -9.57504380e-04 7.55348010e-04 -5.84538269e-04
      -1.51325704e-03 1.64552403e-04 9.57150362e-04 9.33271876e-05
      9.93047579e-05 4.71686435e-05 5.61702298e-04 7.32216111e-04
      -1.08302222e-03 -9.63948667e-04 -1.19887773e-04 -6.38775964e-05
      -3.40556981e-05 -7.77060341e-05 3.19775922e-04 1.13037961e-04
      -1.29504164e-03 1.99629183e-04 -7.72416024e-05 -2.29287398e-04
      -3.57452285e-04 -5.96341597e-05 6.11034120e-05 -9.62338236e-04
      -5.94213525e-05 -6.54932577e-04 -5.62539615e-04 5.42581838e-04
      -5.77676517e-04 -4.60291485e-04 5.35792569e-05 -1.01351889e-03
      2.11531398e-04 -1.07349861e-05 -1.93560536e-05 -6.94372575e-04
      4.63550590e-04 -2.98974395e-04 -3.00900923e-04 -1.26864947e-03
      1.83493725e-03 -1.98751222e-03 1.53217479e-04 4.97352041e-04
      1.33302878e-03 -1.84032237e-04 -3.26519403e-05 1.16207730e-03
      2.73774567e-05 1.36690144e-03 5.47488220e-04 1.04622112e-03
      -1.22319136e-04 6.22422609e-04 1.24137368e-04 1.43773577e-05
      -2.26342748e-03 -1.63861929e-04 -1.24977978e-05 1.36358081e-03
      1.04725501e-03 -2.78525840e-04 -3.57034645e-04 1.76253321e-03
      1.81041996e-05 -4.32170433e-04 -2.08660480e-04 -1.04448773e-04
      1.14799943e-03 -6.54203768e-06 6.67850662e-04 5.78895095e-04
      2.02148198e-03 2.54904327e-04 6.89006003e-04 -8.93177566e-05
      3.27268586e-04 1.11471063e-05 7.04097329e-04 -7.42196789e-05
      -6.06014975e-04 -8.59135471e-05 2.72720616e-04 -2.86703580e-04
      -6.04266184e-04 -3.33972450e-04 -9.88062355e-04 -1.19781424e-03
      -2.34332780e-04 9.31861287e-04 -4.39022260e-04 5.63416048e-04
      3.79129633e-04 -5.44066075e-04 6.61229657e-04 3.57078476e-04
      -3.71761096e-04 2.59983703e-04 -1.14761657e-04 3.74506664e-04
      -1.14258211e-04 3.46247252e-05 -3.49490554e-04 -2.95083271e-04
      -7.83106720e-04 1.65348384e-03 -3.15415498e-04 1.15568016e-03
      -9.61381447e-05 -5.35348081e-04 -2.13100764e-04 5.49353892e-04
      1.59363728e-04 -2.93627055e-03 -4.78983828e-04 -6.48383575e-04
      -6.26256748e-04 7.75339780e-04 -6.18114369e-04 -9.14547651e-04
      1.39109255e-03 -5.88108960e-04 -2.22144066e-04 5.03435906e-04
      1.80382456e-04 -2.76739389e-04 2.10423046e-03 -1.42757804e-03
      -3.80980928e-04 -5.21242910e-04 4.84649761e-04 1.38099233e-04
      2.36058477e-04 6.95684066e-05 -9.69689107e-04 1.24874874e-03
      -1.48424960e-03 1.48253486e-04 5.13583254e-05 -1.41741139e-05
      5.49752382e-04 -6.14523888e-05 2.43250703e-04 4.69333791e-05
      1.16821084e-05 -4.05872124e-04 -1.26399507e-04 -2.27444150e-04
      2.29446660e-03 3.30124865e-04 -1.70407165e-03 -3.91142501e-04
      -1.18345092e-03 -1.02535181e-03 5.14007988e-04 1.98140834e-03
      2.89524705e-05 3.42848361e-04 -7.55189685e-04 4.60378535e-04
      3.46779096e-04 -3.92367772e-04 -4.85526216e-05 7.56843729e-05
      -1.49606552e-04 2.12657484e-04 -3.46600456e-04 9.84565122e-04
      2.17933441e-03 2.38864520e-03 -2.34381165e-04 -2.72910763e-03
      -3.11580079e-05 -1.08706602e-03 5.72842313e-04 7.09530432e-04
      1.55683805e-03 -1.11382082e-03 -4.45210433e-04 6.80500001e-04
      -9.03879292e-04 5.59158764e-07 -6.84471743e-04 -3.13611492e-03
      -2.76859413e-04 1.18097500e-03 2.48293654e-04 -8.79283936e-04
      -2.47633259e-04 -5.45746661e-06 -3.64175678e-04 4.20892320e-04
      7.47142243e-04 -9.01883119e-04 4.37794224e-05 5.11445804e-04
      -5.98280982e-04 5.09461621e-04 5.28798904e-04 -5.46343566e-04
      3.80655139e-04 1.52305447e-05 -2.25672164e-04 1.45646438e-04
      -2.92091918e-05 3.26165609e-05 -2.97339866e-04 -3.23717075e-04
      -7.72350293e-04 -4.33881723e-05 1.48000327e-05 -3.14780656e-04
      8.70863092e-04 -1.11675603e-04 -1.17407180e-03 -2.69445678e-04
      5.97456587e-04 -5.49604709e-04 7.64378638e-05 1.03389561e-04
      -4.52961831e-04 1.89696493e-05 4.98819281e-04 -7.19149481e-04
      -2.76032224e-04 -3.05262191e-04 1.35214621e-04 3.18850398e-05
      2.16983652e-04 3.09075316e-04 -2.49903242e-04 -9.00449581e-04
      -6.95362047e-04 1.10538024e-03 2.25984826e-04 4.05088533e-04
      -4.45377140e-04 -2.44273670e-05 5.75423997e-04 -1.25260849e-03
      1.49642618e-03 -1.48850109e-03 6.66099309e-04 7.42593489e-04
      6.00574276e-05 -1.17346768e-04 -4.04844992e-04 2.34751264e-03
      7.33381370e-04 -1.78439589e-03 3.35235120e-04 1.52369577e-03
      3.51040624e-04 3.32110911e-04 2.21117618e-04 2.44921097e-03
      2.49562156e-03 2.51267600e-04 2.87409057e-04 -1.05479106e-04
      -1.02114410e-03 4.75158195e-05 1.63196423e-03 1.06866856e-03
      -1.24590215e-03 2.07419012e-04 -8.42490863e-06 -1.10403649e-04
      -2.73746933e-04 7.64682482e-05 -5.42698486e-04 1.44529736e-06
      1.79756107e-03 1.58813025e-04 -7.54953129e-04 -2.42315771e-04
      -1.38318830e-03 -6.63026760e-04 -2.12289975e-03 -1.38447049e-05
      1.13186776e-04 5.93310542e-05 -2.91309028e-04 -7.07420870e-04
      2.59914697e-04 1.13365182e-04 -3.89856054e-04 5.81709901e-04
      -1.58713243e-04 3.59191326e-04 2.26904362e-04 1.24845828e-04
      -4.49207611e-04 -2.57578591e-04 -1.04758765e-04 -7.55308196e-04
      -8.14770465e-04 8.49659264e-04 -6.40162252e-05 2.67764903e-04
      -1.77617316e-04 -1.39380820e-04 -2.21625273e-03 2.54511742e-05
      6.04238419e-04 3.10917152e-04 -2.17613619e-04 4.25604929e-04
      9.57722252e-04 -7.99737230e-04 5.19771012e-04 -1.95355969e-03
      -3.84456507e-04 -1.00469158e-03 -3.10075993e-04 1.39754231e-03
      -1.59627685e-04 -1.00991083e-05 -1.03474362e-03 1.36653881e-03
      1.23879034e-03 6.34735392e-04 1.79284270e-05 2.79105123e-04
      1.96263893e-03 -4.19403543e-04 1.33927027e-03 8.87163740e-04
      -1.16354250e-03 -1.17418713e-04 -1.73879511e-04 -3.17687285e-04
      -9.99705153e-05 4.98431427e-06 2.74759282e-06 2.53608683e-04
      8.11026082e-04 -1.06432788e-04 5.53073151e-05 -1.41909331e-04
      -1.20916695e-03 -7.36544971e-05 4.83363343e-04 -1.04586466e-03
      1.56235241e-03 -2.26594580e-04 5.27270662e-04 2.59871711e-03
      1.07807507e-04 -5.97908394e-04 1.94309599e-04 -3.19003360e-03
      1.89513186e-04 -1.18752258e-04 -7.66643134e-05 -2.25083175e-04
      1.79788458e-05 -9.37159421e-05 -6.80811179e-04 -4.34417336e-04
      1.79131411e-03 8.00626411e-04 3.37123929e-04 -1.97106111e-03
      3.53665178e-04 -4.52109176e-04 2.54034356e-04 -6.94098999e-04
      -6.54885604e-04 1.30859949e-03 2.90766566e-05 -1.06488478e-04
      -1.72623619e-03 -1.65067357e-03 1.84110680e-03 -1.97608839e-03
      -1.52838137e-03 1.80391798e-05 -3.73998028e-03 1.94039498e-03
      -3.40890110e-04 -1.38790259e-04 2.38055945e-03 2.07359041e-03
      -7.66582496e-04 -2.27105382e-04 2.23435069e-04 -5.66425559e-04
      -3.41268117e-03 4.18995623e-04 -5.64786023e-04 -6.11239375e-05
      -4.82142990e-04 -5.54601022e-04 8.90424417e-04 -8.59529391e-05
      -1.74506233e-04 -3.49389011e-05 5.50948724e-04 -4.04115533e-04
      -1.49720663e-03 4.39068941e-08 1.09698689e-04 -6.14620629e-04
      -1.31220254e-03 -1.86868594e-04 -2.49011395e-03 -1.88492984e-03
      2.13989802e-03 5.29431365e-03 -6.55057374e-04 -2.31752383e-05
      -3.05003370e-04 -3.37881618e-04 -9.05368070e-05 -2.76810402e-04
      7.84024887e-05 -8.46549228e-05 -1.87653059e-05 3.81859340e-04
      -4.20077966e-04 7.93653380e-05 -2.06033743e-04 1.53205634e-04
      -6.49668800e-04 -3.26380279e-04 -3.81675374e-04 3.18988622e-03
      3.55751865e-04 -2.84321985e-04 -7.85265642e-04 1.03359118e-04
      7.56716006e-04 -3.56850032e-05 2.55404186e-04 7.07980420e-04
      2.78192339e-03 8.46830430e-04 -1.20582944e-03 1.42474333e-03
      2.23984104e-03 -1.92760944e-03 -9.99036594e-04 1.78737030e-03
      1.80335122e-03 -1.44248610e-04 2.78757443e-03 -9.15671815e-04
      -1.06689171e-03 1.26107931e-04 -7.80940318e-05 -6.10715942e-04
      -1.87707797e-03 -1.15530187e-04 -4.09350905e-04 3.74324823e-04
      -1.17403676e-03 2.79490450e-05 -5.46475116e-04 4.78950155e-04
      -7.20144249e-04 -1.09435568e-05 6.94706978e-04 -6.51312352e-04
      6.99865705e-05 3.05444672e-04 -2.22040089e-05 -1.93035870e-04
      -1.44434825e-03 -2.76389241e-04 5.17842942e-04 1.04056473e-03
      -2.30886717e-03 -6.52014394e-04 -1.16203621e-04 -2.52271740e-04
      1.67026796e-04 -4.17091942e-04 1.82323187e-04 -1.32075395e-03
      5.41426234e-05 2.73520476e-04 -3.81139034e-05 5.86117894e-05
      6.30027615e-04 -1.27738749e-05 -1.80219155e-04 -4.61402815e-04
      8.38292704e-04 -1.10550108e-03 -3.38362850e-04 -7.81543422e-05
      9.63856146e-05 3.12389784e-05 -5.50220357e-05 3.80439742e-04
      -1.95365516e-04 9.67044791e-04 -3.97585594e-04 5.41007263e-04
      2.60869041e-03 -1.64766854e-04 2.20846431e-03 -1.36438666e-05
      -1.93326594e-03 -1.45619595e-03 -4.24280879e-04 4.98365553e-04
      -5.31353056e-04 7.15619972e-05 -7.49886502e-04 6.03744702e-04
      2.87052069e-04 2.69159762e-04 2.55966588e-04 2.59889930e-04
      1.53561472e-03 2.30012025e-04 -6.47186476e-04 -2.78980797e-03
      -1.47155122e-04 2.35394662e-04 -1.43257203e-04 9.14897828e-04
      4.16804920e-04 1.66041718e-04 -6.33058604e-04 -1.26216223e-03
      -1.00616948e-03 -1.82729622e-04 2.82136025e-04 -1.07167602e-04
      2.82137631e-03 -2.62396759e-04 -5.92974073e-04 1.26184570e-03
      3.09234089e-03 1.01972686e-03 -3.64998959e-05 -4.79148992e-04
      2.49092729e-04 -7.77186360e-05 9.57870579e-05 -1.93760323e-03
      -2.82784040e-05 2.17551380e-04 -2.49670720e-05 2.60610046e-04
      8.84481196e-05 -2.47124903e-04 -3.88572953e-05 5.82594890e-04
      -1.23956800e-03 -1.29435514e-03 2.12725354e-04 1.09363034e-04
      -5.59408567e-04 3.48403555e-05 1.87315338e-04 1.09148095e-03
      1.04252525e-04 5.74252685e-04 1.17930933e-03 6.46685658e-04
      -9.82213649e-04 -1.06972293e-03 -5.89556817e-04 1.61782897e-03
      -1.18173484e-03 9.37138568e-04 5.87286893e-04 9.94654620e-05
      -3.96289543e-04 1.39759853e-04 -7.63182354e-04 1.39590423e-03
      -4.31230059e-04 -1.56312410e-04 8.76936945e-04 -9.92931818e-05
      -5.95946331e-04 -1.87589234e-04 5.48371347e-04 -9.13012773e-04
      -1.02283107e-03 9.67820990e-04 -5.18949200e-05 -5.25433745e-04
      1.06117062e-04 1.59439587e-04 2.80696258e-04 1.05478952e-03
      3.01622844e-04 4.52820241e-05 -2.44206371e-04 -2.78840802e-04
      -1.98870315e-04 -1.65961595e-04 -3.05441936e-04 -1.96981546e-03
      1.71292084e-03 2.04207259e-04 -3.74501542e-04 -3.33915988e-04
      2.03920154e-05 6.95252893e-05 -3.06867529e-04 -2.56870710e-03
      3.15695885e-04 6.15663070e-04 2.41600632e-04 -2.91314558e-04
      -6.42274797e-04 -2.24491392e-04 -1.53644607e-04 2.74072547e-04
      -8.88750772e-04 -1.80763062e-04 -8.66505376e-04 1.07676978e-03
      1.58218946e-03 2.73189886e-04 -3.63076193e-04 7.18616648e-05
      -1.71951833e-03 1.15747226e-03 -1.73575841e-04 7.16283801e-04
      1.30728458e-03 6.52062998e-04 -8.27005424e-04 1.61097606e-03
      2.87149087e-05 -2.06999262e-04 1.04807143e-03 1.21324742e-03
      2.79779546e-04 -1.10058892e-04 -2.77876854e-04 9.58855730e-04
      5.21178765e-04 2.89509859e-04 4.93397354e-04 -3.41462641e-04
      -1.53191434e-03 -4.68405313e-04 -3.33361240e-04 3.06126574e-04
      7.73215492e-04 5.92516044e-05 -5.85069320e-05 2.45445317e-05
      -5.13747451e-04 4.58859613e-05 -2.52550264e-04 -2.66008021e-04
      -1.01320678e-03 1.07398053e-04 -2.89950345e-04 3.28767812e-04
      -1.38968683e-03 -4.01031430e-04 2.53469072e-04 4.06691324e-05
      -1.68240536e-03 -9.97063820e-04 -9.45331703e-05 1.81229273e-03
      -2.95802281e-04 -2.54186889e-04 1.28470681e-04 3.28497612e-03
      -9.92794303e-05 4.43844212e-04 -6.51089358e-05 2.03322576e-04
      -5.06475681e-06 -3.68234701e-04 -7.12188048e-05 -2.07660400e-04
      2.00600087e-04 -2.31681435e-04 -7.51670741e-04 -1.99889671e-03
      1.21303357e-03 7.76589004e-05 -7.24099635e-04 8.50363693e-04
      8.13035585e-04 1.03237107e-03 -6.29271846e-04 4.22407000e-04
      4.54172521e-04 -1.02102943e-03 2.28268298e-04 -9.84925427e-04
      1.48139754e-03 -1.62593136e-03 -1.26865425e-03 -8.00006965e-04
      4.58516530e-04 -5.15362422e-04 -1.43162499e-03 -7.04806647e-04
      1.14530814e-03 6.82906320e-05 1.17642172e-04 -2.48233147e-04
      1.36898179e-03 5.59889362e-04 1.25175214e-03 -1.40229729e-03
      2.91864475e-04 -1.47701314e-04 -1.21950150e-04 -3.88979592e-04
      2.50267010e-04 4.16443909e-05 6.55082476e-05 2.29992802e-04
      1.00683258e-03 -5.92240773e-04 2.67670694e-04 -1.88832113e-04
      1.38968125e-03 6.64469144e-06 8.75746133e-04 1.51359243e-04
      -3.01378401e-04 2.65361555e-03 9.16245684e-04 -8.70922056e-04
      -4.89274855e-04 2.39323068e-04 4.56209731e-04 1.47436210e-03
      4.62200696e-05 1.96189762e-06 -6.22285515e-05 3.97875148e-04
      1.68796541e-05 -2.25719443e-04 1.00770230e-04 -7.90433958e-04
      -1.71723485e-04 -1.42547389e-04 1.22467231e-03 -8.88612063e-04
      -1.52864902e-06 -6.02483233e-05 -7.59908697e-04 -8.30241828e-04
      -2.30319006e-03 -8.11368925e-04 4.23331105e-04 -3.16843914e-04
      1.40275841e-03 -2.94995960e-04 -1.13658526e-03 -4.88841732e-04
      9.77549818e-04 -1.09342835e-03 6.13583310e-04 8.92476703e-04
      2.00759314e-04 3.18330363e-04 -1.63703132e-03 -1.01421494e-03
      -8.87041155e-04 2.54077138e-04 -2.76101928e-04 2.54239945e-04
      -1.21782220e-03 -6.38463825e-05 1.81989759e-04 -1.55598600e-03
      4.63569857e-04 -1.26268438e-04 1.51591710e-04 1.46759912e-05
      -3.50258779e-04 0. 7.04548802e-05 -4.18716780e-04 5.96344064e-04
      -3.87259235e-04 1.47396361e-06 -1.53026835e-04 4.93467132e-06
      2.43008079e-04 3.50586430e-04 -1.53799861e-04 -7.94543419e-04
      -2.22521462e-03 3.51744646e-04 2.93761399e-03 2.24283882e-04
      3.42111489e-05 1.93384054e-04 6.90376211e-04 2.28485558e-04
      -1.19183365e-04 -4.24717582e-05 4.96719731e-05 3.55185359e-04
      -1.80212111e-04 -2.54325423e-05 -1.03547412e-03 2.38406642e-07
      -5.15208638e-04 -2.84822949e-04 -1.90765294e-03 3.53319847e-05
      -1.40012678e-04 1.17818557e-03 3.02983308e-03 -8.62745859e-04
      -6.92698586e-06 2.41257352e-04 -5.15895837e-04 8.19136563e-04
      7.38587405e-05 -2.98398081e-04 2.25655339e-03 -1.27892138e-03
      7.51901127e-04 4.52525092e-05 2.71521625e-04 -2.68609525e-04
      -4.92674881e-04 -3.31497518e-04 -4.30796342e-03 -8.20868532e-04
      -1.07780135e-04 -4.42681718e-04 2.36600259e-04 7.91859813e-04
      7.68035025e-05 3.52336094e-04 -8.67053401e-04 9.87145933e-04
      1.30338958e-04 3.63246036e-05 1.23132791e-04 -6.31645016e-05
      1.17586467e-04 -5.15350199e-04 6.12814736e-04 1.76795607e-03
      1.32257526e-04 3.78128694e-04 -2.95835081e-04 -1.74995931e-03
      1.19652264e-04 3.47052628e-05 4.62962256e-04 1.25659327e-03
      2.95907282e-03 1.41943907e-04 -1.78358983e-03 2.39971952e-04
      -4.10463719e-04 -4.07450163e-04 1.72351638e-03 5.41417045e-04
      1.57170070e-04 1.02733487e-04 1.25905033e-04 8.35869650e-05
      3.56223871e-04 4.74839653e-05 6.51679584e-05 1.49385561e-03
      9.47761175e-04 1.86769848e-05 -1.31969713e-03 -4.32115157e-05
      5.88648894e-04 -1.39744440e-03 6.51032140e-04 -4.46104648e-04
      -2.86106695e-03 -5.17360924e-04 1.84622535e-03 9.24101449e-04
      -7.16718729e-04 -1.49369997e-03 1.23879849e-03 -5.55877457e-04
      1.81566691e-03 -1.40943448e-03 -1.16924837e-03 -6.11151336e-04
      -2.30967154e-04 -2.45466200e-03 1.65057054e-03 1.72087294e-03
      -6.69787696e-05 2.82823516e-04 5.14748535e-05 2.01527867e-03
      4.50981577e-04 3.00957501e-04 2.13303068e-03 -1.00962340e-03
      2.38417866e-04 1.87631653e-04 2.86227907e-04 4.96299355e-04
      1.94137992e-05 5.78638632e-04 -3.90923698e-04 1.19298275e-04
      -3.49217065e-04 2.07051533e-04 1.97776244e-05 -1.02511869e-04
      -4.72506275e-04 -3.15783807e-04 2.07358593e-04 -1.78363029e-04
      1.10419455e-03 -9.10332310e-04 -4.91629413e-04 1.34328700e-04
      -2.86782655e-04 -3.88596149e-04 -7.69637350e-04 -2.79731641e-04
      -2.77011190e-04 -6.05482528e-05 3.16806661e-04 2.22051429e-04
      5.31125079e-05 -3.12405682e-05 9.77838412e-04 -5.21713227e-04
      2.19368516e-03 -3.05199384e-04 -1.79444766e-03 -6.26505178e-04
      -1.31662819e-05 1.27611263e-03 1.07991730e-03 -1.18488772e-03
      -6.30770461e-04 1.35131253e-04 -9.44148574e-04 4.36996459e-04
      -1.92838663e-04 1.58840418e-03 -3.27391643e-03 -8.33613041e-04
      -3.92399402e-03 1.00615411e-03 7.36089482e-04 -8.68998759e-04
      6.28650523e-05 1.57509255e-03 2.86088744e-03 8.83525703e-04
      -8.89590650e-04 -3.41037521e-05 -7.41528696e-04 -3.09759844e-03
      -2.47509743e-04 -1.15448318e-03 2.20872415e-03 -1.09430600e-03
      -4.13109752e-04 -1.74118075e-04 -5.63163136e-04 -2.76551349e-04
      -2.46492095e-06 1.73613254e-03 1.22383390e-05 1.22403761e-03
      -3.23347194e-04 -4.67586447e-04 2.82254350e-05 -6.90255663e-04
      -3.25205299e-04 -1.96664478e-03 -1.74499920e-03 -6.05874520e-04
      2.57905573e-03 -1.86451769e-04 1.39122328e-03 -1.21998077e-04
      -5.87428338e-04 -4.27080231e-04 3.57386714e-04 1.06347230e-04
      1.57862785e-04 -1.19572738e-04 3.75866482e-04 -3.01851833e-04
      -1.93292493e-04 1.82168907e-04 -1.08031346e-03 1.15711661e-03
      3.82555882e-04 9.34729032e-05 5.07000550e-05 -3.95870185e-04
      -5.66122937e-04 1.13919564e-03 2.04779929e-03 5.33770258e-03
      9.21125640e-04 -9.84443250e-05 4.29491949e-04 -3.51214287e-04
      -6.71487593e-04 4.76178975e-04 -3.97904823e-03 -1.25129765e-03
      -3.60621314e-04 -1.43962924e-03 -9.76503012e-04 -6.57910074e-04
      5.72527875e-04 7.45045327e-05 -3.50942160e-03 9.58273886e-04
      2.83598405e-04 -3.35048622e-04 -2.53199018e-04 1.08192900e-04
      -5.43769092e-05 -3.18013976e-04 -9.29433620e-04 -7.78715883e-04
      -4.21062956e-04 -3.40275234e-04 -3.94205883e-04 -6.16191246e-05
      -1.50361026e-04 -5.68691030e-05 -3.65491665e-04 6.77832926e-04
      -2.38418375e-04 -1.60544892e-04 2.33430765e-04 8.78958555e-04
      3.01374588e-04 -1.25851051e-03 3.43149557e-04 -6.91193345e-05
      -1.54109241e-03 -1.47356486e-05 1.61289901e-03 -1.19990327e-04
      -4.68613362e-05 1.80521456e-04 1.39060570e-03 -4.08333035e-05
      2.75571132e-04 -1.17192787e-04 1.85357640e-04 -2.71425175e-04
      -1.39021940e-04 -1.87114958e-04 -7.01665413e-04 8.21771682e-04
      4.17199498e-03 1.09899906e-04 1.80662272e-03 -8.51227029e-04
      -7.52199092e-04 9.47823981e-04 -2.59920809e-04 2.28858925e-03
      -7.98158522e-04 8.38719599e-04 7.80491624e-04 9.29984730e-04
      -3.82049999e-04 4.46228631e-04 -6.14788209e-04 8.14246014e-04
      4.28678584e-04 5.87834453e-04 1.66640544e-04 4.84757649e-04
      -7.10058608e-04 -7.98306701e-06 -1.58474222e-03 -2.08483241e-03
      -8.13027495e-04 1.14211801e-03 2.59815599e-04 4.75760200e-04
      -1.15308620e-04 9.89227439e-04 -9.67489730e-04 5.01658127e-04
      5.24801901e-04 -2.60925328e-04 3.70583468e-04 -2.56570696e-04
      6.53435127e-05 2.74000020e-04 4.38546878e-04 1.12568063e-03
      -2.46802811e-04 2.41644608e-04 -1.47362662e-04 -9.26801062e-04
      -3.60530365e-04 8.70723918e-04 -3.76351352e-04 1.24462415e-03
      2.76994100e-03 -3.18369130e-04 2.50138342e-03 1.14331488e-04
      1.06469153e-04 5.86492533e-04 -6.92040048e-05 -2.29176076e-04
      -3.25993140e-04 4.35606817e-05 -1.90726641e-05 -4.18967131e-04
      -1.13108821e-04 -6.95395574e-04 7.67756501e-05 6.11742667e-04
      2.43752892e-03 -1.56512207e-04 1.73787994e-03 2.80263426e-04
      -1.80398187e-04 -1.23577323e-04 -3.41591635e-03 -1.17926195e-03
      1.19169953e-03 2.87292525e-04 -6.54555843e-05 -2.05523381e-03
      -2.25329830e-04 -3.01321875e-03 -2.28906982e-03 -1.23768032e-03
      -3.44171043e-04 -1.06938882e-03 -1.24228327e-03 3.01848794e-03
      3.90931891e-05 -3.19719053e-04 3.08241579e-04 -5.58238185e-04
      -3.12621152e-04 2.29826517e-04 2.61411624e-04 -4.56626673e-04
      2.23126568e-04 -1.45447534e-03 1.04958506e-03 5.59667998e-04
      -6.48953253e-04 1.12367379e-04 -3.91667272e-04 2.24475749e-04
      -8.18447297e-05 -4.47744824e-04 3.14906269e-04 3.22495005e-04
      1.28068161e-04 7.59454560e-05 3.18411272e-04 1.53709704e-03
      6.23381289e-04 -1.15683986e-04 -3.34467099e-04 -8.37954110e-04
      -1.63723412e-03 5.42781054e-05 4.55172238e-04 -3.20188585e-04
      2.38803641e-05 1.25746708e-04 -3.61024635e-04 2.26236894e-04
      -3.89477296e-04 -1.11762756e-05 3.20520194e-04 3.98585340e-04
      1.98114285e-04 1.48661609e-04 4.26095969e-04 5.20519388e-04
      -3.69775633e-04 -1.34921254e-04 -1.31935661e-03 -1.46093778e-04
      -4.40746226e-04 2.75159022e-04 1.75555109e-03 1.01999682e-03
      -1.68500046e-04 -2.66405463e-04 1.09417655e-03 -4.55466215e-04
      4.24590573e-04 -7.10783759e-04 -2.29204394e-04 1.69993110e-03
      -1.15557201e-03 4.08385415e-04 9.61593410e-04 3.57297176e-05
      -3.90468515e-04 -2.69228476e-03 3.85153195e-04 8.87321774e-04
      -7.33591267e-04 1.76808157e-04 -1.99227507e-05 1.82523124e-03
      2.63096754e-05 -1.37586356e-03 -7.22970581e-04 2.95416714e-04
      -3.36942787e-04 -1.61253083e-05 -8.06163516e-05 2.21154231e-04
      2.01431358e-05 -6.72339520e-04 -3.55294353e-04 3.40967614e-04
      1.52421708e-04 2.62852322e-04 4.81311909e-05 4.32740257e-04
      1.16159526e-05 1.56758621e-03 -1.15393363e-04 -6.26476685e-05
      6.88253727e-04 -1.41866229e-04 -6.28286740e-04 -3.48115893e-04
      2.92590528e-04 -4.01125901e-04 -1.34262280e-03 5.44628012e-04
      5.88962517e-04 -7.97442844e-05 -2.19304402e-05 -2.24925479e-05
      -2.22611881e-04 3.65516287e-04 -3.25053144e-04 7.11638131e-04
      -7.77488691e-04 6.09095616e-04 1.16481457e-03 -2.79098109e-04
      7.79028051e-04 -1.16219767e-03 -3.18411388e-04 -7.03915779e-04
      1.74549074e-04 4.01175930e-05 -3.35170043e-04 -1.54772296e-03
      -8.21388268e-04 -6.64753548e-04 3.15534184e-03 -1.59403507e-03
      -3.83440492e-04 9.04433022e-04 2.28889738e-04 2.41556685e-04
      -1.76225585e-04 -1.00695330e-03 3.40096973e-04 5.84329362e-04
      3.84892075e-04 3.32962343e-04 -1.05826955e-04 9.91789624e-04
      -3.55801661e-04 -2.29625544e-03 -2.07094057e-03 2.13565701e-03
      3.60112084e-04 -2.96331622e-04 2.41615140e-04 -3.41653707e-04
      1.46071441e-04 3.36002937e-04 -2.80752778e-04 -2.03237263e-03
      -8.88721625e-05 2.50212295e-04 2.71917495e-04 1.75536983e-03
      -2.47987700e-05 -1.03596144e-03 2.76455568e-04 5.89242030e-04
      9.35014570e-04 -9.01035964e-05 1.95292325e-03 1.18141084e-04
      -1.21164565e-04 1.16471422e-03 -7.99963425e-04 3.38844809e-04
      -3.77600263e-05 6.02336586e-05 -2.72321631e-04 5.75519050e-04
      -4.70639585e-04 5.83499968e-05 6.35382778e-04 7.83792231e-04
      5.68171788e-04 -8.60211672e-04 -2.93015983e-05 -4.83092736e-04
      1.63419129e-04 2.03465315e-04 9.94087663e-04 -1.92120817e-04
      -1.32498471e-03 1.83850323e-04 5.11521182e-04 -1.49918278e-03
      -1.54716615e-03 2.32028845e-03 -2.12108996e-03 -9.41395119e-04
      8.87144648e-04 1.53406151e-03 3.32378957e-04 1.11568766e-03
      2.62571033e-04 -5.69718613e-05 7.81603972e-04 -8.70720891e-04
      -4.06456180e-04 2.78479536e-04 6.78359065e-05 -1.33056985e-03
      -4.43698431e-04 -9.81312478e-04 -1.77937595e-03 1.28970423e-04
      -1.20553887e-04 1.19428805e-04 -1.05574560e-04 -1.62649492e-04
      -1.13091337e-04 -3.84564846e-05 4.90986393e-04 5.54666331e-04
      -5.22601709e-04 1.34616494e-04 3.53813608e-04 2.07959139e-03
      -1.62983517e-04 -1.60965731e-03 -2.12257239e-03 -6.43544015e-04
      1.18293928e-03 -1.21791374e-04 1.80972647e-03 2.86867609e-04
      1.98424881e-04 3.39267281e-04 -1.63466309e-03 -2.93370016e-04
      -2.70911696e-04 2.99180683e-05 -2.61985173e-04 1.09968008e-04
      -5.98113838e-05 1.37795330e-04 7.72406813e-04 -5.21101028e-05
      -1.03751908e-03 4.44528123e-04 -5.95244746e-05 -8.91067612e-05
      6.90716086e-04 -3.66763677e-04 1.50859705e-03 -1.94797420e-03
      -1.41990068e-03 6.03131601e-04 7.98737892e-05 8.23108305e-04
      6.57111173e-04 5.23408526e-04 7.07992003e-04 1.94583903e-03
      -1.19850249e-03 1.82196579e-03 -9.62578983e-04 1.04766968e-03
      -1.80665404e-04 1.66233152e-03 6.41911407e-04 1.26898056e-03
      4.64356504e-04 4.62023629e-04 -4.84320364e-04 3.57164157e-04
      -1.99857575e-04 -1.61666947e-03 4.94949345e-04 2.31703487e-03
      2.37095373e-05 -3.29600472e-04 -3.80937563e-04 -1.13626542e-04
      -1.55800037e-04 5.90108917e-04 1.68877581e-04 2.15899805e-03
      5.07033255e-04 1.69494640e-04 -3.82105645e-05 4.59413015e-04
      2.48235156e-04 -1.48182781e-03 -1.18059234e-03 -1.44228828e-03
      -1.14116678e-03 -2.88715266e-04 -1.52838056e-03 1.51072658e-04
      -5.52124984e-04 -5.83357760e-04 -5.06460667e-04 3.87807086e-05
      -1.90466933e-04 -6.24817621e-05 -4.84168850e-04 2.59579276e-04
      2.07362726e-04 1.53845667e-05 1.48523104e-04 -2.41539543e-04
      -3.80835379e-04 1.44240097e-04 -2.21474748e-03 1.42994904e-04
      -3.94123839e-04 1.00232312e-03 -4.19487988e-05 2.30359170e-03
      -1.10854488e-03 -7.27066363e-04 -1.51960109e-03 5.08464873e-04
      8.11407517e-04 1.37707579e-03 -2.18968862e-03 3.59117286e-04
      5.07929770e-04 3.06497735e-04 5.95124322e-04 7.32819972e-05
      -4.89530619e-04 1.87358703e-03 2.16759322e-03 1.19961461e-03
      2.96922924e-04 7.95731758e-05 -4.02638136e-04 1.55076641e-03
      -5.67452575e-04 -6.07601425e-04 -1.14736520e-03 1.06741244e-03
      -5.13488136e-04 6.06800204e-05 9.39391393e-05 1.15097057e-04
      1.24319791e-04 4.53094166e-04 -1.19327189e-04 9.45545209e-04
      -4.09243745e-04 -7.51061307e-05 2.06586061e-04 -1.23079066e-04
      3.60904087e-05 4.27089341e-04 -1.53580055e-04 -1.69883703e-03
      -4.57329937e-04 -6.48205460e-04 -1.96373370e-03 -2.39555986e-04
      1.89468075e-04 -5.84257941e-04 1.90678387e-04 4.16066468e-04
      5.85104208e-05 5.16211658e-05 -6.16878679e-05 5.20325499e-04
      4.34424059e-04 4.45516140e-04 -1.41231169e-04 -1.94155320e-04
      5.20395930e-04 -4.90865030e-04 6.08134782e-04 -2.05476608e-04
      8.57346968e-05 -6.85376057e-04 -1.42904231e-03 1.08558673e-03
      1.52992073e-03 -3.19664774e-04 -2.40604649e-03 -2.00956548e-03
      1.71136533e-04 1.25309336e-03 -1.95703167e-03 -1.91819784e-03
      -3.00805131e-03 -2.57596164e-03 -1.99167640e-03 1.63694192e-03
      -3.77813674e-04 -6.78045835e-05 -2.46115588e-03 -2.21605296e-03
      -1.21191179e-03 -1.36968651e-04 -3.16777478e-05 6.69554342e-04
      7.74695131e-04 4.94243461e-04 1.87061308e-03 2.17554579e-03
      6.43005114e-05 2.11271603e-04 -2.65165436e-04 -2.30636229e-04
      -8.73004683e-05 1.80140574e-04 -4.93643514e-04 4.62508295e-03
      5.80013322e-04 4.57900387e-05 3.48022208e-04 1.88640435e-03
      -2.60063855e-04 1.35710044e-03 -9.85200168e-04 1.04187930e-03
      1.35333883e-03 4.84818534e-04 -3.18298349e-03 4.66985279e-04
      -6.16636607e-05 -1.70798921e-05 -1.92576740e-03 2.34959312e-04
      -3.84792686e-04 -8.53264646e-06 3.43198662e-05 1.89367827e-04
      -4.34476737e-04 -1.21151772e-03 -3.61067196e-03 9.36696248e-04
      2.22721207e-03 -8.68477800e-04 -2.90489872e-03 3.64154512e-05
      4.14199196e-04 1.38592639e-03 5.68790245e-04 3.60852969e-03
      9.65480634e-04 -1.00894563e-03 1.42406672e-03 2.28465884e-03
      2.97462993e-05 4.90076374e-04 -1.15809636e-03 -2.39124801e-03
      1.96998939e-03 2.37649845e-04 2.01589498e-03 -1.60274591e-04
      -2.27858487e-04 1.31831068e-04 -9.99267679e-04 1.70663651e-03
      -1.27011654e-03 4.34206711e-04 -5.36806125e-04 -7.13197980e-04
      5.07409917e-04 -4.20468714e-05 5.94501966e-04 -1.07736990e-03
      -4.94840380e-04 -3.50851857e-04 3.08337767e-04 -2.25531112e-04
      9.03473338e-05 -5.65951457e-04 -6.30014110e-04 1.01689645e-03
      1.55753354e-04 6.94419723e-04 -2.53712613e-04 -1.83112104e-03
      1.51663655e-04 4.75600653e-04 1.63834877e-04 -1.06755993e-03
      -1.14038889e-03 3.00280430e-04 1.97595614e-03 6.49030044e-05
      3.10554024e-04 7.02383331e-05 8.75195605e-04 1.47022933e-04
      8.84646550e-04 3.56021337e-05 1.41306606e-04 -2.77289764e-05
      1.70404746e-04 -1.43841680e-04 -2.11970299e-03 -1.62509701e-03
      1.41642278e-03 5.16639375e-05 1.56072504e-03 4.61024101e-05
      7.78058165e-05 -1.54736568e-04 -9.54761636e-04 -2.89386022e-03
      2.97713699e-03 3.25095025e-04 -1.73475652e-03 4.57746792e-04
      -1.33277244e-05 -1.01211306e-03 2.11430015e-03 -2.44478672e-03
      -1.75542932e-03 -1.29561275e-04 -1.51346423e-04 -1.13598624e-04
      -1.66701007e-04 -3.76567733e-03 -9.69732573e-05 2.56745290e-04
      -2.25640324e-04 1.90307430e-04 -6.12178468e-04 1.24148023e-03
      -5.57340682e-04 2.63797794e-03 -4.80887829e-05 -9.05996130e-05
      -2.56059779e-04 -2.38318651e-04 3.93467868e-04 6.60522084e-04
      2.24944961e-04 -2.65036564e-04 -1.66080317e-05 3.06115928e-03
      -6.30417082e-04 -2.84439229e-05 1.48066058e-04 1.28967548e-03
      -9.04913104e-05 -9.47600463e-04 -1.17991702e-03 6.49698952e-04
      5.24935836e-04 -2.27099634e-04 4.56379021e-05 2.68731674e-04
      -6.65615444e-05 -3.58280580e-04 1.61984737e-03 -1.50163585e-04
      -3.12214921e-04 -1.92958796e-05 -5.65700284e-05 -3.81490798e-04
      -8.19106863e-05 9.38217563e-04 3.58072648e-05 2.14360375e-03
      -1.11742149e-04 1.42465185e-04 -1.62012991e-03 2.92337034e-04
      4.11037850e-04 -1.24904176e-03 -2.21143430e-03 2.55723065e-03
      7.29611551e-04 5.33690327e-04 1.60740034e-04 1.15140167e-03
      -6.97320647e-05 3.72815266e-04 -1.95567426e-03 -4.71605163e-04
      -5.23152819e-04 6.65418571e-04 1.13934954e-03 -3.85333056e-04
      8.25403084e-04 3.20282695e-03 -2.39031482e-03 -4.62098920e-04
      -6.99822151e-04 -8.15751671e-04 -6.86745625e-05 1.00651814e-03
      -4.85337776e-04 1.06109795e-03 2.84419628e-04 -4.02438425e-04
      -5.70689910e-04 2.10003869e-04 4.08566848e-05 2.54140061e-04
      1.21710422e-04 4.70260566e-05 9.52029659e-04 -3.19434679e-04
      5.84904919e-04 3.40603176e-04 -3.84507257e-06 -1.52713014e-03
      -3.26177251e-05 -6.38758997e-04 -1.19378115e-03 -9.11519048e-04
      1.65228487e-03 4.51586558e-04 1.11769361e-04 -4.83115960e-04
      -1.75298206e-04 4.85740195e-04 8.12014623e-05 4.55771806e-04
      -4.11851128e-04 -1.26847990e-05 -6.20100298e-04 9.46621076e-05
      2.90455268e-04 1.48674342e-04 2.05324250e-04 -1.23816228e-03
      -3.02779226e-04 -9.38042722e-05 1.54387543e-03 9.04424291e-04
      -6.79268094e-04 -8.31697835e-04 -1.54335663e-04 7.04148319e-04
      5.48085896e-04 1.22049023e-04 -6.34186261e-04 -1.71202037e-03
      -1.44624256e-03 1.16607582e-03 9.95415496e-04 -8.89941875e-04
      3.35986493e-03 4.77215799e-04 1.01000175e-03 -1.61028793e-03
      -6.48149929e-04 1.30779168e-03 -2.19440553e-03 -2.26934590e-05
      -6.80440164e-04 7.40395117e-05 1.30196553e-04 -5.91972843e-04
      -1.38140158e-05 -1.67039005e-04 -3.83470842e-06 5.73925827e-05
      -4.06930048e-04 -1.19906035e-04 7.74630621e-07 -2.82679975e-04
      1.73282115e-06 -4.64737648e-04 6.43253326e-04 -2.45991233e-03
      4.56036825e-04 1.55125337e-04 -3.76297598e-04 1.79268245e-03
      -3.71632690e-04 -1.62723137e-03 -2.53201299e-03 -9.20391933e-04
      -2.12514657e-04 5.35964864e-05 3.79611389e-04 1.25516264e-04
      3.82110447e-04 -3.35998397e-04 2.82230228e-03 5.78237348e-04
      8.33660815e-05 8.81572923e-05 -1.54218782e-04 2.32311446e-04
      -1.34022033e-04 -8.74291291e-04 2.37641414e-03 1.50698746e-04
      -6.59379933e-04 4.06806648e-04 1.70078024e-03 -2.13206687e-04
      3.88384142e-05 -1.86273523e-04 -2.77622929e-03 4.22345562e-04
      4.03724174e-04 -3.75672826e-04 1.08536868e-03 1.27657154e-03
      1.50087668e-04 2.40341455e-04 -1.57175135e-04 6.49574504e-04
      2.29633748e-04 -3.03498207e-04 -1.01587502e-03 -4.88650519e-04
      3.34498560e-04 1.10266893e-03 5.29956771e-04 -1.84796087e-03
      4.42047640e-05 -4.29320899e-05 -1.98536345e-05 2.59273947e-04
      6.20199600e-04 -2.71575438e-04 5.82557288e-04 1.62158965e-03
      1.99931219e-05 1.27258972e-04 -3.13495184e-05 -1.09401811e-03
      4.09243730e-05 -2.64419592e-04 9.51751310e-04 -8.19360605e-04
      -1.73263368e-04 -6.59918733e-05 -2.50061887e-04 -8.19422494e-05
      6.81336969e-05 6.67792512e-04 -8.50981334e-04 -8.83789733e-04
      1.40141565e-04 -2.94970028e-04 -2.62248504e-04 -8.64030080e-05
      1.58651441e-04 -1.36978662e-04 8.58191052e-04 4.58086724e-04
      5.36997977e-04 4.63310898e-05 -1.57964620e-04 -8.10902740e-04
      2.79090542e-04 6.81527163e-05 -1.43839617e-03 -5.09383935e-05
      -7.14830472e-04 -5.39758650e-04 9.63622297e-04 -3.69715679e-04
      1.50834196e-04 1.31966022e-03 -4.57663264e-04 1.20262976e-03
      -5.79112093e-04 2.00371709e-04 -5.97137085e-04 5.77873958e-04
      4.22617042e-04 -9.56149190e-04 7.25428748e-04 -5.46807423e-04
      1.14808892e-04 -7.33635796e-04 -3.76128824e-04 1.32011611e-03
      5.01570874e-04 -4.29705426e-04 9.04151530e-04 7.55361922e-04
      -1.74995526e-04 3.41642270e-04 4.36417002e-04 8.20057874e-04
      6.53297757e-04 -1.69093919e-03 -2.25471263e-03 -4.74549684e-04
      -7.20181051e-05 -3.43796768e-04 2.71361805e-05 3.15427140e-04
      1.05672851e-04 -1.16038008e-03 2.70775316e-04 -7.87991565e-04
      -9.92514309e-04 -2.86185037e-04 2.17904468e-04 -9.14605916e-04
      5.98767016e-04 -5.16117492e-04 -1.12032704e-03 -4.62006312e-04
      -4.87293059e-04 -1.68139290e-04 1.74181373e-03 -1.64649973e-04
      -2.45352916e-04 8.57396284e-04 1.31964870e-03 7.19633477e-04
      -1.87116297e-04 9.30843453e-05 6.84810293e-05 -1.52665179e-05
      -5.27982193e-05 8.39089451e-04 -3.25122033e-04 1.45186880e-03
      4.04555904e-04 5.86809881e-04 1.02430163e-03 -5.58587082e-04
      1.26614861e-04 -1.86752965e-04 9.25849716e-04 -1.19609386e-03
      1.42969773e-03 3.61184735e-04 -4.09617351e-04 -9.76044219e-04
      -2.59429245e-04 -1.59444136e-03 8.30983801e-04 2.16353405e-03
      -1.47549307e-03 -5.36251491e-06 1.41702686e-03 4.93454922e-04
      -1.31457797e-04 -1.56149530e-04 3.26993596e-03 -3.81331076e-04
      4.38691874e-04 -2.57499545e-04 -8.41562724e-06 1.23724656e-03
      4.11860907e-04 -1.98218579e-04 1.74097659e-03 -4.58092050e-04
      4.65692458e-04 -2.41474205e-04 -1.96040884e-04 2.93062458e-05
      9.81821577e-05 3.89734516e-04 2.62303191e-04 -1.13650423e-03
      -4.32348606e-04 1.46411476e-04 -8.40602952e-05 -2.61233305e-03
      1.01568025e-04 2.77631771e-04 -3.47166875e-04 1.34921412e-03
      2.00108695e-03 2.76746923e-05 -8.97407299e-04 -4.15841787e-04
      -9.97316209e-04 -7.02861056e-04 2.04913129e-04 -3.91618843e-04
      4.70470724e-04 8.02561117e-05 3.97293479e-04 -3.38195998e-04
      3.24783003e-04 -2.15635853e-04 -8.90816737e-05 -3.47942277e-03
      1.20996789e-03 -3.45615787e-04 1.69127074e-03 4.16105941e-05
      -6.85981649e-05 6.67724758e-04 -3.89329297e-03 3.32593278e-04
      -5.73655634e-05 -4.23852500e-04 -5.87063900e-04 -1.12234335e-03
      -2.38052642e-04 -3.64757201e-04 1.00785471e-03 1.19679433e-03
      -8.57260369e-04 2.34269784e-04 -1.20535515e-04 1.52110111e-03
      -4.59255854e-04 1.02287962e-03 7.97960151e-04 5.90213458e-04
      2.66255985e-04 -1.42896461e-04 2.14610714e-04 -2.13134545e-03
      2.31086960e-04 7.14218986e-05 -9.73148795e-04 -7.58490583e-04
      8.57450243e-04 -3.36321464e-05 1.66715647e-04 1.27118445e-04
      1.11587733e-05 -4.74033994e-04 -9.33666015e-04 -1.41979475e-03
      1.35485534e-04 3.60659527e-04 -8.58342246e-05 3.12506291e-03
      -3.54964897e-04 -3.04248359e-04 -9.80482320e-04 1.17138191e-03
      -7.66989018e-04 1.65643592e-04 1.54554393e-04 5.17469016e-04
      -1.35230264e-04 3.83454113e-04 2.51176942e-04 -1.99283022e-04
      -6.08823961e-04 9.22203526e-06 -3.17710685e-04 -3.63279059e-06
      2.56391097e-04 -1.28885993e-04 -6.74477292e-07 5.83243636e-05
      6.80015713e-04 -4.73719760e-04 8.71661468e-04 6.98757358e-05
      -3.76471347e-04 9.83468373e-04 -5.21850074e-04 -3.17192846e-03
      -2.06391676e-03 1.88813152e-04 -1.13343529e-03 -9.31670540e-04
      2.53216043e-04 1.86496146e-03 2.05393787e-03 -1.18374848e-03
      -2.65621988e-04 -5.46458061e-04 -5.19373396e-04 -1.89761363e-03
      -7.01517623e-04 -1.23090937e-03 -7.32334680e-04 1.37340778e-03
      -3.04517336e-04 -1.97436530e-04 4.77421854e-05 -1.19150791e-03
      -1.27179374e-04 1.07025867e-03 -1.49385340e-03 -1.19109824e-03
      2.35763378e-04 -3.06376533e-05 3.86520085e-04 3.85961699e-04
      2.20463899e-05 7.01221928e-04 4.43769881e-04 6.23718486e-04
      -1.89147759e-04 2.33439991e-04 -4.56948212e-04 6.54878793e-04
      2.29025565e-04 -1.04776747e-03 -1.18146965e-03 4.02284495e-04
      2.92524986e-04 2.51402846e-04 -8.20721034e-04 -2.55634106e-04
      8.96308193e-05 2.52592989e-04 -1.05274923e-03 -2.88468669e-04
      -3.00808577e-04 -6.66522392e-05 -2.98751664e-04 2.32120015e-04
      6.02241016e-05 4.19729098e-04 9.28057125e-05 1.05871190e-03
      1.36155658e-03 -5.49317338e-04 -6.13010372e-04 -2.45598465e-04
      4.47304221e-04 4.27943072e-04 -2.36765351e-04 -3.10085336e-04
      8.40460125e-04 4.65182355e-04 1.14186003e-03 3.45381792e-03
      1.49089971e-03 5.82503504e-04 -2.43606031e-04 2.47648940e-03
      -7.37598108e-04 1.21262087e-03 -1.66502199e-03 1.90842271e-04
      2.06207798e-04 -4.48742940e-04 -9.66802239e-04 9.92916059e-04
      -4.30248387e-04 3.55310243e-04 -3.74949195e-05 1.94422901e-04
      8.01313860e-08 -4.52971522e-04 -2.78480747e-03 -8.95752339e-04
      -6.39630962e-05 3.49200505e-04 7.16543058e-04 -3.39300343e-04
      -1.66447251e-04 1.23250968e-04 -1.31475390e-04 1.01683091e-03
      -1.75363457e-04 1.43010140e-04 -3.03004083e-04 -1.93441869e-04
      1.85644003e-05 6.15864876e-04 9.24515538e-04 9.81371850e-04
      1.03555166e-03 8.51375735e-05 -3.57058109e-03 -4.42977791e-04
      4.94281587e-04 -1.88978956e-05 1.11304235e-03 -8.32180158e-05
      -2.83438421e-04 0. 2.33248473e-04 2.42308888e-05 7.94165753e-05
      -1.25585182e-04 5.03519492e-04 1.05748500e-03 1.73746166e-03
      3.49283800e-04 9.80468212e-06 4.29094689e-05 2.76152976e-04
      6.56282191e-06 -1.86409371e-03 6.09475130e-04 -1.10877177e-03
      -3.41007195e-04 -1.31398125e-03 -1.51886535e-03 -9.13118478e-04
      1.94490235e-03 1.25646323e-03 7.61371746e-04 2.57215259e-04
      -3.70898517e-04 -8.02521026e-05 8.25941854e-04 -1.17293966e-04
      -1.79849716e-03 1.22464087e-03 1.16508151e-03 5.00844544e-05
      5.86838694e-04 -9.00828527e-05 -1.08167750e-03 4.24810161e-04
      -2.04496365e-03 -2.01966008e-03 2.49112112e-04 1.08251290e-03
      -2.42889699e-04 4.72572632e-04 -1.74558561e-04 -8.42686131e-05
      -2.98775558e-04 1.01043508e-04 2.03446764e-03 -1.22269586e-04
      1.97405985e-04 1.52971377e-04 -1.22017955e-04 -7.50946274e-05
      -4.79025721e-06 -6.71238755e-04 -5.87603718e-04 -1.53350207e-04
      1.73140157e-04 -2.34767469e-03 4.76241112e-04 2.62948452e-04
      2.40206951e-04 6.08026530e-05 1.07062340e-04 4.52847526e-05
      -1.06696272e-04 -1.89548387e-04 -3.07020033e-04 -1.24829341e-04
      5.87748480e-04 9.91497538e-04 -5.48387528e-04 6.10894291e-04
      -3.47935100e-04 -7.55104760e-04 2.39516114e-04 1.77148424e-04
      -1.21211153e-04 -7.02564721e-04 1.83831947e-03 -2.10477330e-04
      4.60929994e-04 1.09462409e-04 1.05576718e-03 -2.09591025e-03
      1.28877652e-03 -3.14274745e-04 -2.95680226e-03 6.47219131e-04
      4.92658641e-04 2.77608167e-04 -1.99636430e-04 -4.31409222e-04
      1.55012618e-04 -1.28407276e-03 1.71346459e-04 2.04812561e-04
      -6.17692946e-04 -2.27181547e-04 5.52433950e-04 -2.89826945e-04
      1.21035986e-03 1.25527522e-03 -9.90073662e-04 3.20826512e-04
      -3.07355105e-04 -1.09304929e-04 -3.06935428e-04 2.05029937e-04
      7.68540660e-04 1.64319586e-04 5.60515386e-04 1.35934504e-04
      1.64758443e-04 2.18938629e-04 2.40006280e-04 -2.38513981e-04
      -2.50222773e-04 5.72698249e-04 1.47315895e-03 -1.50737981e-03
      -9.53475464e-05 -9.52967908e-04 -2.77696527e-04 -2.06709505e-04
      5.75177837e-04 3.59284197e-04 -6.02142245e-04 -4.62939963e-04
      -1.20866680e-04 1.81815645e-04 -4.67180682e-04 5.28842465e-05
      5.77685423e-05 2.23855115e-03 3.37663246e-03 -9.53038805e-04
      1.56720689e-05 7.74144195e-04 1.08528628e-04 1.28806845e-04
      -9.68866399e-04 -2.15921598e-03 -2.36155652e-03 1.30285509e-03
      3.62659011e-05 -9.63710714e-04 1.92832071e-04 -7.20940181e-04
      -4.78240370e-04 2.31515523e-03 -1.60170323e-03 4.66058613e-04
      -1.38562289e-03 3.40581802e-03 -1.06256001e-03 1.43918078e-04
      6.18814258e-04 1.62380619e-03 2.01891852e-03 3.36230965e-04
      1.09534820e-04 -3.46082728e-04 7.91159749e-04 4.82222385e-04
      1.58113660e-04 -1.91822706e-03 -4.27123188e-04 -3.88972585e-05
      1.81644937e-04 1.10715973e-05 6.15882804e-04 4.20630022e-05
      3.67247441e-04 -5.04277530e-04 6.15499390e-04 1.54521083e-04
      6.66845823e-04 -2.19497146e-04 -2.87342514e-03 2.48118129e-04
      -1.58273417e-03 6.02504704e-04 2.19313923e-04 -8.31278681e-04
      -1.50238324e-04 -1.17963029e-03 -7.95205870e-06 5.91195887e-04
      -9.99019467e-05 1.01579841e-04 1.09195446e-06 6.22793043e-04
      -8.64123431e-05 1.23506266e-04 1.15262155e-05 -7.80370829e-06
      -1.53537203e-05 -4.40635631e-04 1.49060739e-04 1.98606416e-04
      -1.61201111e-04 -1.18433498e-03 6.21184765e-04 2.55246938e-04
      -3.55261873e-04 -1.92377437e-03 -1.94628758e-03 -1.38364511e-03
      1.81947878e-04 -2.77201412e-04 1.42059405e-03 8.09940684e-04
      3.06087383e-03 -1.73928402e-05 -1.58019923e-03 -1.48131454e-03
      7.96169916e-04 -8.97908350e-04 5.01001196e-04 -7.14773414e-05
      -2.49050674e-03 1.87820243e-03 9.43568710e-04 1.00881422e-04
      -6.75492192e-05 -3.14573059e-04 -6.38638332e-04 -2.65658193e-04
      1.39505044e-03 -4.21484147e-04 7.08972104e-04 1.35176771e-04
      -3.91630689e-04 1.58920302e-05 7.84682197e-05 1.04710838e-04
      -2.34961626e-04 3.06502101e-04 -3.33031081e-03 -2.13901934e-04
      1.41956654e-04 1.62392476e-04 2.67778593e-03 -2.13840089e-04
      1.43491896e-03 -1.41991617e-03 9.37257253e-04 -1.54135597e-03
      -8.38148815e-04 7.11124856e-04 -6.28856593e-04 2.23190087e-04
      2.38465600e-05 2.10918672e-03 4.26472834e-04 -6.34784286e-04
      -1.38258285e-04 -6.97592099e-04 -1.32639936e-04 -8.97430582e-05
      -5.06390352e-05 2.29110569e-03 1.35216222e-03 8.17722233e-04
      -2.62990710e-04 -4.83369076e-04 -1.24221828e-04 -6.32586249e-04
      -2.99072592e-04 -5.16645552e-04 -7.55591551e-04 -4.60069510e-04
      7.06775681e-05 -1.28745532e-03 5.23196708e-04 -2.46719155e-05
      -7.13458925e-04 3.47842905e-03 2.15638452e-03 -1.62469834e-04
      -3.15248442e-04 8.98736878e-04 -8.73606303e-04 4.61924355e-04
      1.46081133e-04 -2.32100763e-04 -9.72692855e-04 3.17454891e-04
      2.23868415e-06 -3.34747107e-04 -9.41134931e-04 4.18119962e-05
      -2.38225027e-03 1.53213902e-03 -5.18404122e-04 -3.80278536e-04
      5.26638651e-05 3.12178716e-04 -2.64356990e-04 1.03957929e-04
      -1.92693751e-05 6.68498324e-05 -2.68031959e-04 1.61276272e-04
      -6.41870938e-05 1.67412116e-04 -1.75021403e-03 -5.54176455e-04
      -4.21080331e-05 1.09985971e-03 7.36914400e-04 4.61460178e-04
      -2.12997067e-04 -7.42361997e-04 -4.27491686e-05 4.20261240e-05
      -2.51786696e-04 5.65122580e-04 1.27898611e-03 1.53291854e-04
      -5.92299075e-05 3.07505601e-04 -3.77262593e-04 9.11367315e-05
      -5.51453093e-04 1.73344836e-03 -1.70430995e-03 -6.80138182e-05
      5.74075857e-05 8.63974856e-04 -6.15552475e-04 -9.83717982e-05
      -7.48829858e-04 -4.71935258e-04 1.81219762e-03 -7.86134333e-04
      7.02793070e-04 1.27882219e-03 2.32843435e-04 -1.05467753e-03
      8.71117460e-04 -8.49075674e-04 -3.06528935e-04 8.39675136e-04
      3.26408510e-04 -8.89117218e-05 -1.94804952e-03 5.78360283e-04
      -6.68370398e-04 -5.90114563e-04 5.55170933e-04 -8.09640260e-05
      1.28868152e-04 3.41282692e-04 9.26681503e-04 4.63247590e-04
      4.07834479e-04 -9.87357576e-04 -8.38820823e-04 -1.14765489e-05
      1.32550384e-04 2.95164591e-05 -8.39990040e-04 2.36602591e-06
      2.13634747e-04 4.95978922e-04 1.35097315e-03 -5.47968491e-04
      5.25360287e-04 -5.57905378e-06 -1.13645778e-03 -1.58528404e-04
      -1.24410586e-03 6.57676486e-04 4.31475870e-04 -1.69059273e-03
      -6.31945732e-04 -1.98074663e-03 4.97571833e-04 -2.46552576e-04
      6.62104751e-04 -1.13527072e-04 2.94474477e-04 -4.13774018e-04
      -1.91803774e-05 -2.03883646e-05 -1.13593000e-04 -2.61545967e-04
      1.00536377e-03 -7.70085957e-04 5.06753917e-04 -1.01924277e-04
      -4.47842700e-04 -6.57626777e-04 4.80295392e-04 2.25113368e-07
      4.52202774e-04 5.35623694e-04 -4.85324475e-04 -7.85281998e-04
      1.40831035e-04 2.17058021e-03 1.80885312e-03 8.45180068e-04
      9.17302968e-05 2.94304366e-04 1.37111288e-03 -4.90689592e-04
      -1.01876422e-03 -3.69917921e-04 -5.92733908e-04 -8.14031500e-06
      -3.59388650e-05 -2.13109097e-03 1.04056171e-03 1.67726786e-04
      -1.69559426e-04 -3.05538153e-04 9.55381372e-04 -7.13961481e-06
      -2.95138103e-03 -1.96622001e-04 1.73429435e-03 -3.58224555e-04
      9.58447854e-05 -3.18231905e-04 1.09462613e-04 5.32036756e-06
      8.78747742e-05 3.24759865e-04 2.15973635e-03 3.07663984e-04
      5.98671140e-05 6.22025400e-05 7.38273899e-04 2.44074705e-04
      2.29374273e-03 -1.37926918e-03 -2.02528154e-05 1.41706885e-04
      1.38750707e-04 4.62526310e-04 3.97524826e-04 -1.42950725e-04
      2.22669943e-04 -1.05311919e-03 1.36302522e-04 -4.04750346e-04
      8.97245482e-05 -1.29844320e-05 2.07304511e-05 -9.22192976e-06
      6.70134104e-05 -9.24804073e-04 -1.16922823e-03 -6.03975612e-04
      5.96176833e-04 1.10455533e-03 4.92121500e-04 -2.44992640e-04
      7.66880403e-05 -5.10287296e-04 -1.74763263e-03 -5.09728678e-04
      4.80599265e-04 -9.16598947e-05 3.78306519e-04 -2.51242192e-04
      9.29102942e-04 5.37671498e-04 -1.38010480e-03 1.63474644e-03
      -3.81871912e-04 1.41455399e-04 2.90499680e-04 -4.84223165e-05
      -4.23640740e-05 -3.74038180e-04 -8.77546729e-04 9.93204420e-04
      -1.51252243e-04 -1.91697145e-05 -1.49772258e-03 2.60728732e-04
      1.15422567e-03 -1.37866021e-03 -1.36751484e-03 -3.09316019e-05
      1.06068488e-04 4.83836251e-04 5.62135596e-04 4.35420006e-05
      2.17592766e-04 -1.68866609e-05 -2.99265201e-04 2.89700285e-04
      -3.40676313e-04 -3.52834875e-04 1.07485816e-04 5.86632348e-04
      -4.07246989e-04 -1.01005717e-03 -1.38568191e-03 -5.36666310e-04
      -3.63416591e-04 -9.13746713e-04 -3.94053175e-04 -2.65307317e-04
      4.52471722e-04 2.78600445e-03 -1.22908270e-04 -2.65146955e-04
      -1.36898088e-04 1.91514220e-04 1.56788694e-04 2.95903446e-04
      4.22638986e-04 -9.72156937e-04 1.65257114e-03 1.02825451e-03
      -8.11819518e-06 2.36426271e-03 -3.72132694e-04 5.04412281e-04
      -8.43717717e-05 -1.54050486e-03 -1.81142276e-03 4.42554854e-04
      -1.92360138e-04 5.41574846e-04 1.17943261e-03 -1.41455705e-04
      -2.79818982e-04 8.72495351e-04 -5.23969611e-05 1.00464781e-03
      -6.67385000e-04 -1.41659393e-06 5.40265697e-04 4.30706161e-04
      2.34499970e-03 -1.34790246e-03 -9.99906566e-04 -2.08255136e-04
      3.13211458e-05 -3.49185197e-04 1.14270160e-03 1.32927016e-04
      1.36907923e-03 -2.43183007e-04 -7.23907724e-04 3.23270971e-04
      -1.65333928e-04 -2.64464703e-04 -1.91034356e-04 4.15714239e-05
      8.04891024e-05 -1.61817079e-04 -3.17150407e-04 -2.16056331e-04
      -4.70773521e-05 5.07130335e-06 1.58052274e-03 -7.17326475e-05
      -1.96716678e-03 1.29516702e-03 -4.25617560e-04 1.36180417e-04
      -5.16107655e-04 -1.04690343e-03 4.38548013e-04 2.21747512e-04
      -1.96938898e-04 -4.07837797e-04 2.60157802e-04 -2.31625909e-05
      3.73395619e-06 7.85178796e-04 -4.39863681e-04 3.09343945e-04
      -8.58930813e-04 -2.88873649e-04 -5.42223046e-04 7.40493706e-04
      7.24355807e-04 -5.20553847e-04 2.33396844e-04 1.68503175e-04
      4.96025139e-04 5.60482265e-04 1.98598416e-03 1.83472148e-04
      -2.86791037e-04 -2.25759068e-04 -7.80462171e-04 5.20650065e-04
      -1.17262884e-03 -2.36296840e-03 -7.30359810e-04 5.27042779e-04
      8.81223823e-04 2.81306077e-03 -1.75008154e-03 -1.01256373e-04
      -6.79751218e-04 1.01705466e-03 -1.45627360e-03 -3.26025147e-05
      -5.68064337e-04 -1.36263232e-04 1.50702510e-03 -3.30530078e-04
      -1.90325000e-03 3.06141505e-04 -1.33463065e-03 2.41909162e-04
      -1.98639158e-04 1.94988330e-04 7.91855738e-04 9.58643159e-06
      -9.57427255e-05 1.37376657e-04 -2.93819525e-04 -5.17523324e-04
      3.89484376e-05 5.26882941e-04 1.10836350e-03 -1.07630280e-04
      -8.64428061e-04 -4.26398299e-04 -1.45382946e-04 1.90955494e-03
      -9.17242316e-04 -1.41638413e-03 -1.66027730e-05 3.77591758e-04
      2.45563770e-05 -5.74278354e-04 1.00210909e-05 3.90897185e-05
      -3.48148169e-04 -4.61864809e-04 4.88833582e-04 -2.01479008e-04
      6.89580163e-04 1.35704890e-04 2.02556577e-04 5.26478922e-04
      -5.68546180e-04 9.76390089e-04 4.81389085e-04 6.33789517e-04
      -4.99803980e-04 -2.07106024e-03 1.48822422e-04 -4.18598851e-04
      5.43990813e-04 -5.44192502e-04 1.21141376e-03 5.76678431e-04
      7.99453410e-04 -1.66526050e-04 1.29996228e-03 -4.06297244e-04
      2.52724596e-04 1.23615016e-03 4.08044725e-04 -2.48260699e-06
      -3.65573884e-04 -3.45090590e-03 9.26862122e-04 -3.49974813e-04
      -2.73068203e-04 -2.44565832e-04 1.33067323e-03 -6.40669241e-05
      1.33815600e-04 -7.58394017e-04 -5.12804312e-04 1.38280229e-04
      -7.22126744e-04 4.66450292e-05 5.81267697e-04 -2.98400983e-06
      -1.25428167e-04 -1.82147167e-04 -2.45116488e-03 -6.28305934e-05
      4.26003797e-04 7.57956441e-05 1.40214269e-03 3.25387082e-04
      6.66686741e-04 -7.04009377e-04 -2.92405812e-03 8.40318971e-04
      4.71875464e-05 1.66766753e-03 7.91525294e-04 -5.85230417e-04
      6.25279965e-04 -1.65600993e-03 -2.13750667e-04 -4.04860730e-05
      1.65743681e-04 -3.06152884e-04 2.91678589e-04 2.78319087e-04
      -2.90505122e-04 -9.00212108e-05 1.26138824e-04 2.50594494e-05
      -6.62365172e-04 8.24672636e-04 -3.99754761e-04 -1.15828458e-04
      -1.62163714e-03 1.38216151e-03 2.57886224e-03 4.71812964e-04
      -1.62407508e-04 6.06460031e-04 5.55480772e-04 -4.99435409e-04
      4.10970417e-04 -6.93313777e-04 7.26675207e-04 -4.16301191e-04
      -1.87168154e-03 -8.58616258e-05 3.96855496e-04 2.41645932e-04
      -7.87668105e-04 -1.37939351e-03 -2.70991412e-04 2.22518385e-04
      -5.84579597e-04 1.49943284e-04 -1.02660432e-03 -5.08334670e-05
      2.74168351e-03 6.10581765e-06 1.67901756e-03 3.82969709e-04
      -3.25530185e-04 -2.94712430e-04 -1.98025693e-04 -9.28965601e-05
      -8.06523458e-05 1.83100419e-04 1.97534682e-03 -2.23085066e-04
      -3.55764641e-05 -1.49596715e-04 -2.12879640e-05 5.79410735e-05
      -2.60030327e-04 -1.35716968e-04 5.68811847e-05 -7.64177414e-04
      4.21538891e-04 -2.65555340e-03 -4.28051630e-04 -2.78183928e-04
      8.40673529e-05 -1.16229385e-04 3.13475721e-05 -3.50265065e-04
      1.18791424e-04 4.32226632e-04 -2.29249286e-04 -2.42932492e-06
      -3.65923566e-04 9.27522429e-04 2.92826397e-03 -2.10343581e-03
      9.67683518e-05 -1.13356195e-03 -6.80468569e-04 -5.68542513e-04
      -8.67557654e-04 3.11968499e-03 -6.43031730e-04 -1.26036385e-03
      -9.98603573e-05 4.75338020e-04 2.43992801e-03 9.33902847e-05
      8.35323532e-04 1.30351391e-05 -1.43905799e-03 1.51839608e-03
      -2.05151248e-03 8.51823715e-04 -4.86520265e-04 4.78983216e-04
      -1.70191022e-04 -6.25208020e-04 5.83250832e-04 -4.75254317e-04
      -1.34206552e-04 1.15081522e-04 -9.96156159e-05 2.92308105e-05
      3.01089050e-04 -6.01297652e-04 1.92652026e-03 -6.74772164e-05
      -8.17856635e-05 -1.81851981e-04 5.34254417e-04 -7.05408020e-05
      -1.68417493e-04 4.96736247e-05 -3.91376874e-04 -4.04631341e-04
      -7.04623817e-05 -1.94242632e-04 1.61721581e-03 -3.24758090e-04
      1.02179439e-03 -1.17511826e-03 -1.21358829e-03 1.38426386e-03
      -4.30288492e-05 2.11975351e-03 2.43523813e-04 -1.54517111e-04
      -1.45760250e-05 -1.07715500e-03 1.70321029e-04 -2.34807740e-04
      -2.75151888e-05 -7.10705499e-05 -4.49977873e-04 -1.01528931e-04
      -1.14550901e-04 7.43516739e-06 1.88962003e-04 1.65545207e-04
      -7.63400094e-05 2.23748712e-03 -1.97413770e-04 1.60833632e-04
      1.23419426e-03 -6.51944254e-04 -2.24792049e-03 8.50835815e-04
      -1.68046990e-05 4.01987665e-04 -2.39537773e-03 9.58573422e-04
      -2.03015617e-04 -6.46370347e-04 1.44294882e-03 -4.23027406e-04
      -9.66579420e-04 2.07640883e-03 -1.70051213e-03 -1.02164624e-04
      1.54087343e-03 8.79400992e-04 1.34747606e-05 3.04685568e-06
      -2.99624313e-04 -5.83113942e-05 -8.62829329e-04 -8.28386401e-05
      9.55942960e-04 1.97474612e-04 2.99777021e-04 1.76293091e-04
      -3.01732565e-04 2.95836915e-04 -8.16018146e-04 -5.88818366e-05
      2.24713702e-04 -6.82174359e-05 1.48710806e-03 4.08650521e-05
      3.02906352e-04 1.04452083e-05 2.07847552e-04 -3.54172487e-04
      -1.27155893e-03 8.67134368e-04 -1.46010378e-03 -4.06669657e-04
      -7.97029934e-04 8.41985631e-04 -3.43299558e-04 -4.29362815e-04
      -1.04521103e-04 2.72480829e-04 -5.54827973e-04 1.18478980e-04
      5.15638421e-05 3.16357218e-05 3.07827519e-04 1.97583358e-04
      3.81536403e-04 1.08324073e-03 -6.32902720e-06 5.36883948e-04
      -3.63441330e-04 6.81806705e-04 -7.48402206e-04 4.20950702e-04
      2.94348778e-04 -6.27792324e-04 -1.22319977e-03 -5.16651548e-04
      1.04691775e-04 -5.65167516e-04 1.25384599e-04 3.73505172e-04
      -9.30025344e-05 -1.24013342e-03 3.82685044e-04 -8.93701392e-04
      5.48401149e-04 1.12811278e-03 3.82971717e-03 -8.13025545e-05
      -3.29637690e-03 -1.15039223e-03 3.19146115e-04 -1.53083005e-04
      6.04118904e-05 6.16891775e-05 -3.66166321e-04 8.84303736e-05
      -1.53841291e-04 -1.85005728e-03 6.27159956e-04 7.15170063e-06
      -4.81960014e-04 -7.20447060e-05 3.48329602e-04 -6.34578100e-05
      -9.96010844e-04 8.82567983e-05 2.24019052e-03 -2.73256301e-04
      -1.85629047e-04 1.95942659e-04 -2.05061701e-03 2.15646560e-05
      -1.32527179e-03 1.01014005e-03 -1.37043349e-03 2.53038947e-03
      4.88030812e-04 8.47263902e-04 9.11174575e-05 3.39342441e-05
      -3.51166207e-04 -6.71830785e-04 2.33367944e-04 -3.03664710e-04
      -7.95699671e-05 -6.19073689e-05 1.52655848e-04 -9.97167081e-05
      2.48620519e-04 4.17831441e-04 5.94824523e-05 -8.09271471e-04
      -3.23972024e-04 1.84922339e-03 -4.75170455e-05 6.60773658e-05
      -8.07930599e-04 -1.38144009e-03 -7.02326128e-04 1.49587321e-03
      -3.39555438e-04 -1.13897549e-03 9.21912899e-04 -1.20793679e-03
      1.29202043e-03 1.40525156e-03 2.07744678e-03 4.95948188e-04
      -3.44526838e-04 -1.79968227e-03 1.56691193e-03 -1.61888980e-04
      9.91979978e-05 -3.08734621e-03 -7.09525120e-05 1.52790424e-04
      1.56239519e-04 1.95271074e-04 9.92816640e-04 9.94663133e-05
      -1.09660754e-03 -2.93487130e-04 -1.27260992e-03 1.19614342e-04
      -4.83557931e-04 -6.95330236e-05 4.73602529e-04 7.53759523e-05
      -1.84881152e-04 -4.90030070e-05 1.78307135e-04 1.15832860e-04
      1.09022236e-04 -4.99512389e-05 1.69012474e-03 6.19190570e-04
      1.39973577e-04 2.56248859e-05 -6.28041395e-04 -9.65910382e-04
      -1.46366248e-04 -2.14224029e-03 3.93698807e-04 -3.06249509e-04
      2.47699318e-05 -1.47024635e-03 -7.70325278e-05 1.91093888e-04
      2.38392953e-04 -2.08862839e-04 -4.11371118e-04 2.56269384e-04
      -3.80004611e-04 -1.53402216e-03 1.06324675e-03 7.69749982e-04
      1.88131264e-04 1.38442192e-04 7.01470359e-04 -1.94585606e-04
      -3.50189453e-04 -1.44451135e-03 2.33086618e-03 1.07658608e-03
      1.50961147e-04 -6.26052148e-04 -8.68010902e-05 7.22927914e-04
      1.46201137e-03 8.45138973e-04 -2.81480933e-03 -1.91821181e-03
      -1.18104636e-03 1.03333930e-03 8.79583939e-04 5.90534648e-04
      1.96391076e-04 -1.11151673e-03 3.37327452e-04 4.97834873e-04
      -2.49968405e-04 7.32500193e-05 -1.28782401e-03 1.42171863e-04
      2.64284643e-03 -1.39389085e-05 2.47371593e-03 1.03087994e-04
      2.87660194e-04 -3.52172705e-04 -3.24827270e-04 -7.51104380e-05
      -9.94082366e-05 8.11947612e-05 -2.07034568e-03 4.14311566e-04
      -6.11160242e-04 2.00603186e-04 1.55719230e-03 1.11020534e-04
      4.02706850e-04 -2.47336167e-04 -6.12726202e-04 6.46875196e-05
      4.97791334e-04 7.65817880e-04 -1.21996658e-04 -5.29157114e-04
      -4.72774875e-04 4.22303769e-04 9.79462056e-05 -8.76201811e-05
      7.38107919e-05 6.34706885e-05 3.14802346e-05 -1.07305081e-04
      -9.70788024e-05 7.74012413e-04 -1.02460443e-03 -1.43094361e-03
      -4.02617879e-04 1.10168231e-03 5.16880536e-05 -1.60350992e-05
      -9.48473520e-04 -4.51953791e-04 1.05148880e-03 -7.18429568e-04
      9.23985644e-05 1.06183032e-03 -1.14899398e-04 1.61604804e-03
      -5.51239937e-04 2.54302286e-04 -1.66718080e-03 1.33679554e-04
      -1.08245248e-03 -1.04283891e-03 2.31019640e-03 1.44772974e-04
      2.85414211e-03 6.83506660e-04 -5.61545545e-04 -5.14737039e-04
      -1.13464754e-04 -4.09731787e-04 -1.88429304e-03 6.31734219e-05
      2.19720230e-03 2.21026712e-04 7.06445135e-04 -7.33519701e-05
      2.87095154e-05 5.78466788e-05 -5.38434724e-05 2.53261805e-06
      2.20619622e-04 5.10747661e-04 -5.53687394e-04 4.44330944e-04
      -1.52407010e-04 -5.87698945e-04 2.01409240e-03 -1.21801104e-05
      -2.32687546e-03 4.36240312e-04 -1.12363792e-04 1.93774665e-03
      4.50553285e-04 -1.26498577e-04 -2.18294663e-04 5.01984381e-04
      1.04628073e-03 -1.82918378e-03 4.63249133e-04 -5.92400283e-05
      2.34830550e-05 -1.96036854e-05 -4.99752678e-05 7.46734950e-05
      -6.06065791e-04 1.03784772e-03 -3.79150006e-04 -7.98416499e-04
      -1.33727081e-04 -7.88210658e-04 5.68588475e-05 1.21330442e-04
      -3.53309704e-04 4.41278185e-04 5.40106324e-04 5.69323311e-04
      1.86868245e-04 5.10305632e-04 3.30561888e-04 -4.40487929e-04
      -9.34886266e-05 -4.27741092e-03 3.29157134e-04 -1.00627844e-03
      -8.50305427e-04 1.50431844e-03 -3.74882395e-04 -1.42210483e-04
      -3.27052519e-04 2.62068212e-03 4.26337909e-04 1.69115428e-05
      -6.07779424e-04 3.57485522e-04 8.80444248e-04 1.44408550e-04
      9.06151836e-04 -7.19449599e-04 -1.65593126e-04 1.04836239e-04
      4.36975562e-04 5.91875054e-04 -5.80266678e-05 1.61587261e-04
      1.36581861e-04 -7.54879846e-04 1.28113828e-03 1.81016276e-05
      3.31231597e-04 -3.04815301e-04 -4.56610089e-03 -4.51662607e-04
      6.12982374e-04 4.57927817e-04 -1.40441325e-03 5.48275129e-04
      -1.85857338e-04 -1.47273846e-03 1.15044262e-04 3.84704414e-04
      4.54589230e-04 -3.20234889e-04 -9.56420117e-05 -2.88918964e-04
      1.04126470e-04 1.03948376e-04 1.45014992e-05 -3.06599162e-04
      -1.54091613e-05 -2.37409811e-04 -4.21508652e-04 1.46157516e-03
      2.82429595e-04 -6.77583274e-04 6.06712478e-04 -3.52899486e-04
      3.98798060e-04 -1.21128140e-03 2.30320566e-03 -8.38506327e-04
      -5.52351936e-04 1.31884721e-04 1.13495335e-04 -8.06933967e-04
      5.74225094e-04 6.00674073e-04 -8.06182914e-04 1.25746417e-04
      6.40981481e-04 -1.00873981e-03 6.61654398e-04 6.06968533e-04
      1.33504125e-03 3.01540131e-03 -4.69048333e-04 1.33374910e-04
      -6.82793558e-04 -3.25319153e-04 -1.02142349e-03 3.69824789e-04
      -1.87753831e-05 -2.70487799e-04 -6.73973991e-04 3.57726618e-04
      -7.66707293e-04 6.08382397e-04 -6.85253035e-05 2.25291024e-05
      3.43058462e-04 -1.81949130e-04 5.88814146e-04 -3.83658713e-04
      2.17142879e-04 -1.80099087e-04 1.94827537e-03 -1.09748551e-04
      9.61800106e-04 -3.81223566e-04 -8.24681018e-04 -1.29675015e-03
      -6.92084664e-04 2.80658598e-04 -6.34350814e-04 6.55772456e-04
      8.20778601e-04 -1.66098657e-03 -3.49286565e-05 2.41760528e-04
      9.01841704e-05 3.28651251e-04 -9.10451636e-05 -2.30646565e-05
      6.86174681e-05 1.63612553e-04 1.89004268e-03 -2.18135980e-03
      -4.38475217e-05 -2.44028843e-03 -5.01671515e-04 -9.70293968e-06
      -4.38549643e-04 -2.15745904e-03 1.19781634e-03 -2.15968263e-04
      3.15653539e-04 7.04193779e-04 9.32606403e-04 -1.92479456e-05
      -1.82647011e-04 1.17021927e-03 -9.38357494e-04 -2.70186370e-04
      -2.66399514e-03 6.94308896e-04 1.49717182e-03 1.62111377e-04
      8.14219879e-04 1.17671280e-03 3.25369154e-04 -1.71940716e-04
      -9.16061545e-05 -3.82691913e-04 4.53994464e-04 -4.59288625e-04
      -6.25872053e-04 5.60036788e-05 1.14670943e-03 4.26493410e-04
      4.21826408e-05 3.94106200e-06 1.01428850e-05 2.45415402e-04
      -9.58691890e-05 7.01971749e-06 -4.39085452e-05 1.08041779e-04
      9.49158202e-05 6.90831439e-05 -4.87906917e-04 -5.53184422e-04
      -1.57889779e-04 -1.36153758e-04 -3.26484675e-04 7.07077968e-04
      -2.70136865e-04 3.43603757e-03 4.04165185e-04 2.11211693e-04
      -3.32495547e-04 -2.26806989e-03 3.39080027e-04 2.06182856e-04
      1.93497399e-04 -2.68145290e-04 1.57121947e-04 1.02710961e-04
      -2.32220162e-04 -1.56795126e-04 -2.15167832e-03 2.69990461e-03
      -2.66625022e-04 7.62038748e-04 -2.44472147e-04 6.50224392e-04
      1.37120180e-04 2.38751480e-03 -2.77325162e-03 -1.50596467e-03
      2.02244482e-04 7.84844800e-04 -2.10868008e-03 -8.38891865e-05
      6.92847418e-04 -1.33990275e-03 -2.47291289e-03 2.08034320e-03
      5.84090420e-04 2.12826789e-03 1.09034835e-03 -8.54027894e-05
      4.52670502e-05 1.45928108e-03 -6.21526677e-04 1.50605294e-04
      2.78043735e-04 -8.06338154e-04 -1.68823358e-03 9.02393294e-05
      -2.46708078e-04 -8.75018828e-04 -7.56527705e-04 4.59637435e-04
      -5.43440809e-04 1.52095396e-04 -2.71616562e-04 -2.23350144e-04
      -5.10410406e-04 -2.16667671e-04 2.14930595e-04 8.98209109e-05
      2.10051803e-04 2.93640449e-04 4.67997714e-04 4.50751919e-04
      -3.85593507e-04 5.28371544e-04 -8.16151733e-04 -3.89195920e-04
      2.98019459e-05 -2.42634839e-03 -1.05512634e-04 -1.68177721e-04
      1.06350903e-03 -4.28622094e-04 5.92502292e-05 -3.93771945e-04
      -1.98958296e-04 5.91565680e-04 3.04510875e-04 -2.19587877e-04
      -7.78099173e-04 1.16955591e-04 9.29047470e-04 9.06326342e-04
      -3.21767235e-04 1.24515744e-03 -5.18412387e-04 4.87395504e-04
      1.11740886e-03 2.35824892e-03 1.53092633e-03 -1.07639318e-03
      -3.76974291e-04 -9.93212219e-04 -1.34795078e-03 -8.67127499e-04
      -3.34891491e-04 -4.89853846e-05 -3.28861480e-03 -2.34698621e-03
      -6.74473064e-04 6.13467651e-04 8.25240219e-04 5.44254959e-04
      3.82441853e-04 -4.84528573e-04 3.88699438e-04 1.16643801e-04
      -1.84178338e-04 -1.80246698e-05 6.23491767e-04 2.45595467e-04
      -1.30468886e-03 -1.53394754e-03 1.34633633e-03 -2.74671911e-04
      5.44421237e-05 9.67910528e-05 -5.56907908e-04 1.47594736e-04
      -4.46151273e-04 5.20114554e-04 4.84925084e-04 -1.44350517e-04
      1.87434358e-04 8.48453201e-05 5.19010027e-05 2.23577794e-04
      2.32489911e-04 -8.36460618e-04 1.67418341e-03 7.38241069e-04
      -4.16367897e-04 -1.06255803e-03 -5.88089461e-04 -2.33308223e-04
      -7.69441074e-04 3.14134522e-03 -4.18362499e-04 -2.06262644e-04 0.
      -3.21305211e-04 2.10652463e-04 -8.00735143e-05 1.60931610e-04
      6.98064570e-04 4.62457392e-04 -1.61673734e-03 -9.72779235e-04
      2.19011167e-03 -2.75868777e-04 9.58818418e-06 2.52913625e-04
      5.46884025e-04 -1.35816971e-03 4.92937688e-05 3.82975471e-04
      8.33991799e-04 1.85701321e-03 2.95891514e-04 6.79332647e-04
      -9.40851285e-04 1.04054599e-03 1.64061273e-03 -3.73042189e-04
      2.37481855e-03 8.99860286e-04 -5.37563232e-04 -1.68594450e-03
      1.38687703e-03 -2.28354638e-03 4.97299654e-04 6.23001717e-04
      -3.96018761e-04 9.73980059e-04 -1.29162596e-04 -3.53931886e-04
      -2.45814474e-04 -1.55743386e-03 4.48523388e-05 -1.54392459e-04
      -1.17454685e-04 -2.49231205e-04 -1.37852869e-04 -2.45885574e-04
      8.14888481e-05 9.80289653e-04 -1.37580908e-04 3.90716130e-04
      1.69177292e-04 -3.10393516e-03 1.25596896e-04 2.87458970e-04
      3.57634592e-04 -2.65998906e-03 -1.67177204e-04 2.76219682e-04
      1.81122072e-04 2.87421426e-04 1.58503666e-04 -8.77015642e-04
      1.22039800e-03 -5.44605209e-05 4.16804454e-04 -1.02000435e-04
      -1.04920042e-03 2.10166589e-04 -6.36309327e-04 1.19675962e-04
      -1.22148509e-03 8.69296200e-04 6.33724150e-04 -5.47868374e-04
      3.13363038e-03 -1.20543045e-04 8.48763972e-04 4.50858119e-04
      1.04180980e-03 -2.71312916e-03 1.24545733e-03 5.36509091e-04
      2.23625684e-04 1.52798055e-03 -4.31954337e-04 -9.78132128e-04
      -1.98812247e-03 1.70807252e-04 2.92345620e-04 -5.69293858e-04
      1.99400051e-03 -6.00145373e-04 -4.29321190e-05 2.36312437e-04
      -2.65833177e-03 6.70311856e-04 -8.49887074e-05 -1.43396974e-04
      5.06060431e-04 1.22697756e-03 3.55084165e-04 2.33786850e-04
      2.52140802e-04 -8.04098439e-04 -1.61453485e-04 9.07093709e-05
      1.80644874e-05 -3.41038016e-04 -4.56404305e-05 3.48191475e-04
      -4.62750148e-04 -4.71250125e-04 7.11197281e-05 1.81923911e-04
      2.06446144e-04 1.82090956e-03 2.32785882e-04 -7.76263594e-04
      1.76766916e-04 -1.27596909e-03 -3.34492739e-04 -5.10960992e-04
      8.27946758e-04 2.08533544e-04 1.96957786e-04 5.88161056e-04
      3.72238085e-03 7.88344732e-06 1.63917168e-04 -5.41647460e-05
      -7.19979016e-06 2.62706075e-04 -2.28005505e-04 -1.35744287e-07
      8.92745156e-04 -9.18521488e-04 -2.33268458e-03 2.07276054e-04
      -9.10815783e-04 -1.68474129e-04 1.07257780e-04 -3.11592885e-04
      1.92862772e-03 6.60523190e-04 -3.25440080e-04 6.39329010e-05
      7.93220941e-04 1.70703119e-04 -1.57338264e-03 -6.86907151e-04
      -3.08718812e-03 1.45934662e-03 1.52548291e-05 3.19412234e-03
      -1.62340584e-04 5.81273169e-04 -3.18975362e-04 -2.02263752e-03
      1.78368087e-03 6.98458694e-04 -2.18248504e-04 1.92759602e-04
      -1.04476792e-04 -3.55700729e-03 -1.27819103e-05 9.80946585e-04
      -1.33551302e-05 4.19263408e-04 -7.86867822e-05 2.77571671e-04
      3.60089703e-04 -5.14615152e-04 2.29998636e-06 -3.89812078e-04
      -2.17920693e-04 -9.41745355e-04 5.56208892e-04 7.90583203e-04
      -7.45836878e-04 2.55128974e-03 4.23662685e-04 -6.97341864e-04
      7.67538266e-04 1.41552894e-03 1.46936494e-04 2.05455392e-04
      -3.36003886e-03 5.90824675e-05 2.85064161e-04 6.94513292e-05
      -2.39952281e-03 2.96378770e-04 -4.63787728e-05 6.72792012e-05
      8.81443702e-05 -3.55506309e-05 2.93636782e-04 -3.88045475e-04
      2.60946457e-04 -4.67445760e-04 -3.65001906e-04 3.81925274e-05
      -1.10952579e-03 -2.80855078e-04 -1.98789727e-04 -5.67492913e-04
      1.18018524e-03 5.08435594e-04 2.37990185e-04 2.89278280e-04
      1.67761964e-03 1.71959610e-03 -3.86406376e-04 -2.54978705e-03
      -1.74292887e-03 2.09898525e-03 1.54461467e-03 1.00662548e-03
      -2.55962892e-04 8.87014554e-04 -1.64450350e-04 -2.77221855e-03
      8.18314264e-04 1.24079583e-03 1.14728973e-04 -6.77786229e-05
      3.46068555e-04 1.46487018e-03 -4.73377528e-04 -4.19607433e-03
      -6.87531487e-04 -1.41563965e-03 -4.52100503e-04 -1.42312667e-04
      3.02002183e-04 -3.28639901e-04 6.07540460e-05 -7.09924352e-05
      4.08088032e-04 -4.97317698e-04 -8.19431036e-04 1.44710983e-04
      1.91140614e-04 -3.11647396e-04 -6.07039896e-04 7.76866393e-04
      1.10351376e-03 7.21821503e-04 1.65691611e-03 -7.40700634e-05
      -2.17058533e-03 -4.86219709e-04 -1.24639715e-04 3.08995019e-04
      1.09457076e-04 1.41241355e-04 -8.96889032e-05 -5.76708080e-05
      7.98325636e-05 -4.65479272e-04 3.06493428e-04 -2.19421214e-04
      -2.20034752e-04 1.12153776e-03 -1.21096068e-03 5.61569119e-04
      -2.28896388e-04 -1.38069838e-04 4.03352788e-05 1.28088531e-03
      -1.68743252e-03 -6.00594445e-04 -2.14036831e-04 -9.05372872e-06
      2.28561275e-03 -1.36095705e-03 -7.74775515e-04 -6.40510058e-04
      2.91182101e-03 2.27436377e-03 2.59781955e-04 7.77047244e-04
      -4.41945391e-04 -1.57940621e-03 -1.05681043e-04 -2.95800250e-03
      -1.49260263e-03 4.94182575e-04 7.60997427e-05 2.81415618e-04
      1.34813046e-04 -1.43636707e-05 1.75064371e-04 2.42267991e-03
      -1.08147867e-03 -1.30175857e-03 3.14591569e-04 4.29691223e-04
      -3.60444159e-04 -7.99475587e-04 -2.66297982e-04 1.34066635e-04
      -1.18404329e-04 -3.13684257e-04 -2.93615187e-04 -5.48639626e-04
      1.71225358e-04 -4.17210656e-04 -3.60692822e-04 5.61296940e-04
      -6.71570015e-05 1.41502568e-03 8.36042804e-04 7.59954390e-04
      -8.80003092e-04 -3.13923985e-04 1.38495903e-04 1.02007820e-03
      -2.06514983e-03 6.38755664e-05 -4.93435888e-04 -1.07171982e-05
      2.85779155e-04 3.44555447e-04 -3.93747934e-04 7.35905545e-04
      -1.33479619e-03 -1.29127281e-03 -7.10643071e-04 1.09744736e-03
      5.45992109e-04 -2.89941847e-04 3.10457603e-04 -8.57393170e-05
      2.17719446e-03 -3.61185987e-04 2.27889651e-03 -8.13940424e-04
      5.10227459e-04 1.42492680e-03 -5.65034279e-04 6.91473193e-04
      -1.01225567e-03 2.83755665e-03 1.30742916e-03 -7.76484143e-04
      4.10556167e-05 -7.30744156e-04 -7.27752398e-04 1.95858045e-03
      -9.55923635e-04 2.43162867e-04 2.82140711e-04 2.93808844e-04
      1.28749394e-04 4.44325793e-04 -3.48727743e-04 1.28848874e-03
      -1.68603292e-04 -9.10909264e-04 -4.54378925e-04 -5.22378468e-05
      -5.60658518e-04 -9.44873755e-05 1.17584423e-04 1.17467833e-03
      2.65156792e-04 -1.61755946e-03 -1.65834499e-05 -2.60853878e-04
      -1.59543008e-04 -1.80016342e-03 -1.12433536e-05 -2.10405514e-03
      -1.50293275e-03 -1.04136718e-03 -1.98860094e-03 -5.25729498e-04
      1.28190441e-03 9.63759376e-05 -7.04087070e-05 -4.14343696e-04
      9.70544119e-04 4.25202714e-04 -2.11824823e-04 3.09806237e-05
      -5.46348456e-04 -2.02825220e-04 -1.00578283e-04 9.43253341e-04
      -8.51546763e-04 -1.52982003e-03 -8.15600040e-04 7.46162317e-04
      8.91689779e-05 3.21018626e-04 -1.36066737e-04 1.77848409e-03
      7.81835755e-04 1.24908829e-05 2.89487117e-03 -3.28649621e-05
      8.37854051e-04 -1.98758417e-03 3.70112859e-04 1.09987333e-03
      6.46499975e-04 -1.48549012e-03 -1.16380956e-03 -1.54412992e-03
      1.31346774e-03 -2.11286373e-04 2.63050228e-04 1.08583376e-03
      8.41151050e-04 -3.41452821e-03 -5.45964867e-04 9.16830031e-05
      1.68731451e-04 3.97996162e-04 -3.94714589e-05 4.64778015e-04
      5.27445809e-04 -3.44939006e-04 3.13379162e-04 2.48941924e-05
      -2.30549231e-05 7.55275018e-04 1.70394254e-04 -3.34557844e-04
      5.88333896e-05 1.07064808e-03 -3.52444622e-04 5.62804707e-05
      -3.91085137e-04 -2.51047174e-03 -1.62472526e-04 -1.16222061e-03
      -8.32473306e-05 1.81864784e-03 2.33936822e-03 -3.60930630e-04
      7.52632099e-04 6.36050943e-04 1.06206702e-04 7.49192026e-04
      -5.25139447e-04 -2.30181569e-04 3.57587924e-05 -1.50073838e-05
      3.06992966e-04 2.64200071e-06 -1.99323578e-04 -6.21143437e-04
      -1.99972955e-03 6.21770043e-04 8.83739034e-04 -5.08864410e-04
      3.79736093e-03 -4.19368618e-04 -7.36003276e-04 -6.97765572e-05
      1.70211343e-03 3.16456752e-03 -3.52207018e-04 -9.39196325e-05
      -1.30272354e-03 -4.21039207e-04 1.20821751e-04 -1.60421303e-03
      -1.41296128e-03 -1.49757368e-03 1.61073403e-04 3.90670873e-04
      -2.14815518e-04 1.77630282e-04 -4.53721950e-05 3.39159742e-04
      6.27198140e-04 -7.03799073e-04 -2.72816687e-05 3.47852678e-04
      -1.08258064e-04 7.22101424e-04 -3.31611809e-05 -3.32185416e-03
      2.11139748e-04 2.05710312e-05 -1.88948470e-04 3.91998357e-04
      -2.49930628e-04 8.22044603e-06 -1.73501277e-04 -2.90133117e-04
      1.75481080e-04 2.25185836e-03 -6.51912240e-04 -2.41894653e-04
      7.85098018e-05 3.52423219e-03 1.15935341e-04 -2.05174927e-03
      -3.99393975e-05 -8.40444525e-04 1.74413295e-03 -6.96186835e-05
      -3.93842711e-05 2.22811170e-04 1.82662872e-04 -1.30024637e-04
      1.19092257e-03 4.94409120e-04 -3.75815609e-04 -2.45216343e-05
      3.62284656e-04 -1.38965688e-05 -4.47045022e-04 -1.02060416e-03
      4.91836807e-04 7.81241339e-04 3.92555754e-04 -4.01861820e-04
      1.51775486e-03 -3.79486475e-04 -9.19004611e-04 1.02853391e-03
      -1.26297656e-03 3.07232537e-03 -6.67257700e-04 3.15385773e-06
      -1.35015906e-03 4.64478362e-04 1.54954367e-04 -2.17004353e-03
      -1.69542129e-03 1.75945228e-03 -1.80802913e-03 -4.69900231e-04
      -6.96367992e-04 1.07771382e-04 1.87698781e-04 -1.84300728e-03
      -2.38785008e-03 1.37731922e-03 -3.35086457e-04 3.06471848e-05
      2.62122659e-04 -7.87627825e-04 3.68123438e-04 3.85322259e-04
      -3.07604962e-04 1.43311117e-04 -1.91255385e-04 5.89289339e-05
      -8.72514138e-05 2.04225391e-04 0. 5.79180851e-05 -4.84654913e-04
      -1.39843207e-03 4.39310097e-04 -9.57761513e-05 -2.50182115e-04
      1.93965152e-05 -3.83041741e-04 -6.19784114e-04 1.81033232e-04
      1.12022832e-03 -8.92104290e-04 6.30159164e-04 -1.01881125e-03
      -5.03229094e-04 1.32843154e-04 4.09309112e-04 2.39247852e-03
      -3.73790477e-04 -6.47112392e-05 3.82478283e-05 1.77711074e-04
      1.55725575e-04 1.37081035e-04 -2.62996386e-04 -8.16592074e-04
      2.04304908e-03 -1.13157835e-03 4.39732743e-04 7.93643296e-04
      -4.77199937e-04 5.63461334e-04 1.53365219e-03 -1.05351582e-03
      1.31798466e-03 1.15375136e-04 3.32701806e-04 2.80083099e-04
      -6.01911510e-04 -5.91161603e-04 -2.25964599e-04 1.96337071e-03
      1.50801649e-03 2.59090502e-05 6.83363236e-04 2.14908016e-03
      -1.15446055e-04 5.72890625e-04 -3.23769753e-04 -8.36743216e-04
      2.30733378e-04 1.47997693e-04 -9.95325739e-04 -9.54208444e-05
      -7.37016613e-04 -2.73334997e-04 2.55027274e-03 5.20936097e-04
      3.94200906e-04 1.13243517e-03 -3.35529301e-04 -4.42853256e-04
      -3.90801666e-04 6.42149971e-05 7.25741920e-05 -1.42946010e-04
      1.24627817e-03 7.16022274e-04 -6.65574218e-04 -4.93385460e-06
      -3.61632020e-03 -6.82411832e-04 -1.25938968e-03 1.02174556e-04
      -1.54954393e-03 3.39711769e-05 3.14080447e-04 -1.33712636e-03
      1.18799762e-04 -4.12848458e-04 -8.45627103e-04 1.37661328e-03
      5.85318834e-04 3.43372958e-04 2.52854981e-04 9.95196533e-05
      5.04935218e-04 -1.56377078e-04 -6.03814202e-04 -6.88231376e-04
      8.80147913e-04 2.44064303e-03 3.68994224e-04 6.33724965e-04
      -7.17370349e-05 -2.52258644e-04 -1.75741781e-03 -9.34784621e-05
      6.61553568e-05 3.63062107e-04 -7.37228547e-04 -6.20784762e-04
      -6.27669971e-04 6.83506543e-04 1.25469686e-03 -1.76553580e-03
      2.64332350e-03 -2.48711114e-03 -8.60086002e-04 1.05873996e-03
      -1.44820660e-03 4.48381150e-04 -1.74124981e-03 9.13129479e-04
      2.39767926e-03 1.21966696e-04 3.00604821e-04 -1.55462680e-04
      2.18679546e-03 -5.00500610e-04 6.79257209e-04 2.59372918e-03
      -1.04364916e-03 -1.18773176e-04 -2.26134580e-04 -1.35963593e-04
      -6.63473766e-05 1.80654533e-05 3.68806766e-04 2.05792225e-04
      -1.17094583e-04 -4.31044260e-04 -4.81546100e-04 2.02679234e-06
      1.53909228e-03 -6.11495998e-05 9.47899709e-04 -1.36468920e-03
      2.75210594e-04 1.57360791e-03 2.06110082e-04 -3.02252593e-04
      -2.61643203e-04 -1.22725076e-04 2.05182616e-04 -1.72007573e-03
      3.22360924e-04 -4.69200641e-05 1.36528461e-05 -1.09837485e-04
      -4.77373396e-04 -3.04510904e-04 -1.09489635e-03 -5.15038519e-05
      1.98989618e-03 -2.09056772e-04 -2.31768383e-04 -1.97358290e-03
      4.04207822e-05 -6.02491084e-04 -1.91693820e-04 -1.31225085e-03
      2.14828388e-03 2.57768785e-04 -6.84285551e-05 -8.03408155e-04
      -1.44133659e-03 -1.48996152e-03 2.27876590e-03 -1.68182445e-03
      -1.35923794e-03 -7.55667163e-04 -5.74869919e-04 1.39387022e-03
      -1.83188560e-04 -1.21239602e-04 1.00728683e-03 4.52804286e-03
      -6.84570638e-04 -2.83137430e-04 9.23482934e-04 -6.06137153e-04
      -1.79123122e-03 5.82136709e-05 1.82495482e-04 -1.17520627e-03
      -1.61738135e-03 -1.55411544e-04 4.97324891e-07 -2.43592091e-04
      1.08680353e-04 2.86522791e-05 3.71992792e-04 -5.73394413e-04
      -2.13191379e-03 -2.26430086e-04 9.08332222e-05 -3.34949145e-04
      -8.30614415e-04 -6.80318626e-04 -1.38678311e-04 -5.77777042e-04
      2.08052006e-04 3.70745803e-03 -3.76475073e-04 3.53092502e-04
      -2.46227108e-04 -5.09167381e-04 1.60127354e-04 -1.26833201e-03
      -9.20461898e-05 5.11232611e-05 -2.66583356e-05 1.58577182e-04
      -1.23211226e-04 7.87532423e-04 2.73742800e-04 2.36803619e-03
      -4.08400781e-04 -9.19544138e-04 2.91562465e-04 6.88864966e-04
      -3.88671499e-04 -8.99073377e-04 -9.74542520e-04 -6.29079062e-04
      5.40338078e-05 -1.51433225e-04 4.42373057e-05 4.07040468e-04
      1.72308355e-03 5.52692567e-04 -4.33982525e-04 1.96848623e-03
      -8.94828059e-04 -2.03823275e-03 8.69604759e-04 8.92540440e-04
      1.62912428e-03 3.02235596e-04 4.09905007e-03 2.20300909e-03
      -2.24876963e-03 -2.51466845e-04 8.74638790e-05 -2.72352423e-04
      -1.40660268e-03 -8.99815059e-05 -2.47622398e-03 -4.80890682e-04
      -1.99806434e-03 -3.05908034e-04 6.12417280e-05 5.68296164e-05
      -6.38418442e-06 -6.38401398e-05 3.07493319e-04 -5.75440354e-04
      -1.14197831e-03 3.73193034e-04 7.46246442e-05 -8.05717864e-05
      1.55544514e-03 5.83951187e-04 -8.87911574e-06 1.28894171e-03
      -7.87746627e-04 5.70698932e-04 1.20061210e-04 -2.53526377e-03
      1.18550006e-03 -1.25218343e-04 -3.64749540e-05 -2.62238877e-03
      1.73385692e-04 1.30342407e-04 -2.96775852e-05 -1.74985849e-04
      3.99073324e-04 -1.44846024e-04 -3.65141459e-04 6.05141802e-04
      -9.62589518e-04 -1.80660433e-03 2.04090291e-04 4.99297399e-04
      -9.06751739e-05 -2.86178590e-07 3.18179547e-04 2.36726832e-04
      -1.50904153e-03 2.56394548e-03 -5.83348738e-04 -4.86499193e-05
      1.20700477e-03 -1.99718866e-03 2.28606630e-03 3.27627966e-03
      -1.26991491e-03 -2.37993593e-03 -1.57802668e-03 -2.07687076e-03
      -7.57952628e-04 -6.54841133e-04 -5.26641903e-04 2.49808957e-03
      9.79111530e-04 9.40159225e-06 1.91468454e-04 1.71646388e-04
      1.80945022e-03 9.50520844e-05 -2.71412893e-04 -2.24402337e-03
      2.16312171e-03 -1.02862257e-04 3.98993987e-04 9.89916734e-05
      3.36499099e-04 6.19242019e-06 9.29563339e-06 -2.23405033e-04
      -2.75820773e-03 1.66611499e-04 5.55866107e-04 8.80140651e-05
      -9.88694490e-04 -5.21223119e-04 -1.39875815e-03 7.27488004e-05
      2.68636970e-03 2.37333402e-03 -7.78224421e-06 -5.09021862e-04
      -4.24175902e-04 3.14689578e-06 4.04712300e-05 -2.49269791e-03
      -3.38870275e-04 -8.83157700e-05 -6.51615919e-05 -2.23321171e-04
      1.02951008e-05 -1.78955612e-04 3.59444064e-04 1.76272111e-03
      4.99539543e-04 -6.92887115e-04 1.82835283e-04 7.20134994e-04
      4.60507044e-06 1.76221321e-04 -9.93608148e-04 1.68665824e-03
      1.75667810e-03 -7.89599493e-04 9.81300487e-04 9.26028413e-04
      -5.59624459e-04 6.67110493e-04 -8.41686851e-04 1.47103064e-03
      -3.81253303e-05 -4.55969828e-04 -1.05990919e-04 -3.27940186e-04
      4.29444190e-04 2.87025381e-04 6.12574571e-04 -2.76258128e-04
      -8.70529329e-04 7.53885834e-04 5.62161615e-04 -1.52279936e-05
      3.10504489e-04 -1.13312133e-04 -1.81712070e-03 -7.57094895e-05
      5.41733461e-04 5.14721673e-04 4.24942642e-04 5.59020518e-05
      -9.10635936e-05 1.25905106e-04 1.33552542e-03 2.65214330e-04
      -6.04788729e-05 -4.09287692e-04 1.70098399e-04 -4.86601639e-04
      -1.15636818e-03 -7.13938280e-05 6.40485610e-04 8.28787597e-05
      6.05874287e-04 -1.07947628e-04 -2.29990517e-04 3.34368204e-04
      1.85812183e-04 -1.12893147e-04 -1.37381884e-03 -4.68466140e-04
      -3.27719492e-04 2.15787877e-04 -2.24761661e-05 -1.73772190e-04
      1.21992234e-04 -1.31836510e-04 -2.44293362e-04 -1.24869592e-04
      -8.01402843e-04 6.92982168e-04 -7.70759594e-04 -1.94032281e-03
      7.63706339e-04 -1.21629804e-04 1.57186296e-03 2.52676080e-03
      -2.40199268e-03 1.16310152e-03 1.55848742e-04 7.20565498e-04
      2.94689216e-05 -3.34125332e-04 -1.06076489e-03 9.19324346e-04
      1.85917073e-03 -1.15278934e-03 -3.93757917e-04 2.14420143e-03
      1.27813677e-04 2.41103102e-04 -9.28032241e-05 1.27531006e-03
      3.58279613e-05 5.97511302e-04 1.90210805e-04 2.76472099e-04
      -1.24899368e-03 -2.80048145e-04 2.14559797e-04 1.59805568e-04
      8.03543197e-04 1.68500745e-04 -4.17281291e-04 6.16395846e-04
      -1.55547619e-04 -6.00202657e-05 -3.96383693e-04 -2.30074453e-04
      -2.72788748e-04 -2.08826023e-04 -4.16976865e-04 1.94110544e-04
