<?xml version="1.0"?>
<opencv_storage>
<my_svm type_id="opencv-ml-svm">
  <svm_type>C_SVC</svm_type>
  <kernel><type>LINEAR</type></kernel>
  <C>5.0000000000000000e-01</C>
  <term_criteria><epsilon>2.2204460492503131e-16</epsilon>
    <iterations>500</iterations></term_criteria>
  <var_all>16128</var_all>
  <var_count>16128</var_count>
  <class_count>2</class_count>
  <class_labels type_id="opencv-matrix">
    <rows>1</rows>
    <cols>2</cols>
    <dt>i</dt>
    <data>
      -1 1</data></class_labels>
  <sv_total>1</sv_total>
  <support_vectors>
    <_>
      -4.74701781e-04 -3.06293281e-04 -1.81743642e-03 -1.60195015e-03
      8.05921372e-05 -9.31366685e-06 2.53714831e-03 -2.99119652e-04
      -2.90342490e-04 -7.70566032e-07 1.83223601e-04 2.35230196e-04
      -3.88353219e-04 1.18972581e-04 1.88139197e-03 -9.15029377e-05
      1.14042289e-03 1.20433593e-04 1.71605352e-04 -5.46587944e-05
      2.24609728e-04 -1.63052232e-06 6.66661845e-06 1.54505629e-04
      9.22531530e-04 -8.98925646e-05 1.81196636e-04 5.80644737e-05
      -3.06840753e-04 3.89951201e-05 -2.38089371e-04 9.04779823e-04
      -2.04234384e-04 6.91270863e-04 5.80006221e-04 -3.16674123e-05
      -7.68162499e-05 -5.41945792e-06 2.46431242e-04 -1.07910787e-03
      -5.59019827e-06 -1.38255156e-04 -2.41848247e-05 8.07094548e-05
      3.75699274e-05 2.05517266e-04 -3.47163550e-05 -2.43804549e-04
      2.11234181e-03 -1.02691725e-03 -2.69061798e-04 4.34745714e-04
      1.25954262e-04 -1.12255075e-04 -3.13501281e-04 -6.90263405e-04
      -1.96749484e-03 6.40064594e-04 2.68447795e-04 -1.94579348e-04
      -6.54794625e-04 -4.27790539e-04 -2.66634219e-04 -6.45444437e-04
      -2.42015440e-03 -4.05219937e-04 -4.94367792e-04 -1.38552359e-03
      4.03820559e-05 -5.69446856e-05 3.30970087e-03 -6.65002444e-04
      -1.20871712e-03 -3.09236248e-06 5.61311317e-05 1.24206344e-05
      -2.51608308e-05 5.90641430e-05 1.87211775e-03 -8.89736461e-04
      -1.04375428e-03 -2.98010302e-04 -5.49097895e-04 -2.06216035e-04
      -6.60821155e-04 6.09957970e-05 3.26396985e-04 -7.82853749e-05
      1.08546042e-03 3.43259148e-06 1.41084194e-04 -1.31315992e-05
      -3.89040913e-04 -2.85466958e-04 7.44292571e-04 -5.07997938e-05
      -1.74378249e-04 1.54545892e-03 2.48054625e-04 2.08337465e-03
      -1.55783171e-04 -1.19926342e-04 -1.36267146e-04 1.48201908e-03
      -1.51539134e-04 1.20197925e-04 -1.08018998e-04 -4.11233268e-05
      6.05682253e-05 5.10865975e-05 3.13043070e-04 7.19881675e-04
      -1.15553080e-03 -6.60437741e-04 -2.37498200e-04 8.84007779e-04
      -2.70710356e-04 2.36069187e-04 1.25599420e-03 -1.30242421e-04
      1.66888442e-03 -4.88615828e-04 6.24441327e-06 4.52531589e-04
      -1.08116807e-03 3.43016785e-04 -5.96875267e-04 -2.54525314e-03
      -1.48605055e-03 -8.79208790e-04 1.14544469e-03 1.69215177e-03
      -8.71374912e-04 2.39910849e-04 -7.96648237e-05 1.14247712e-04
      -7.97339017e-04 1.83443233e-04 3.87661275e-05 5.09842139e-05
      -4.34661109e-04 1.66198079e-04 3.08594288e-04 1.07615849e-03
      2.87096791e-05 9.13010226e-05 1.58012088e-04 -1.07265420e-04
      -2.16014916e-04 -7.55571600e-05 -2.24227333e-05 6.85837149e-05
      1.66061427e-03 2.11577681e-05 3.64457119e-05 -4.22827798e-05
      -2.16269353e-03 -2.72767327e-04 -2.12215309e-04 -7.06243387e-04
      1.01680344e-03 1.84458520e-04 -1.72021435e-04 1.01479913e-04
      1.89252911e-04 5.66679992e-05 -8.31530633e-06 8.05973192e-04
      -1.72307176e-04 8.04214142e-05 -3.50800947e-05 2.03581410e-04
      3.20739840e-04 8.40252105e-05 1.15058312e-04 7.89076381e-04
      -1.54417823e-03 1.26367924e-03 -5.06688957e-04 5.51565900e-04
      -2.32188424e-04 -4.47516068e-05 8.24627234e-04 -1.45307928e-03
      -1.04340469e-03 -3.62930296e-04 1.13376911e-04 -1.15643597e-04
      1.03567657e-03 -7.36304966e-04 -1.07158232e-03 1.04704977e-03
      -6.53228417e-05 -1.18703744e-03 -1.15570729e-03 1.38879649e-03
      3.09823692e-04 -9.31869909e-06 -1.09096814e-04 7.39533978e-04
      1.60752493e-03 3.67245302e-05 1.02394377e-04 -5.35940744e-05
      4.90754319e-04 -1.31767170e-04 -1.23006629e-03 -4.97937668e-04
      -7.07560568e-04 3.99994198e-04 5.31363243e-04 2.68976408e-04
      -5.76998456e-04 8.84534711e-06 4.33851965e-04 2.41184767e-04
      5.87848714e-04 -1.12340735e-04 1.11871173e-04 -1.66956364e-04
      1.13730348e-04 -1.69370847e-04 -1.30780041e-03 5.92707598e-04
      -1.66663958e-04 4.29325650e-04 -1.87621081e-05 -1.42613030e-03
      3.40403465e-04 -6.26774126e-05 -2.32633756e-04 1.18830486e-03
      1.41962315e-04 -7.81020353e-05 -2.76830469e-05 1.65011879e-04
      8.06757162e-05 -2.90692609e-04 -1.66934376e-04 3.10929085e-04
      -5.72354184e-04 -6.75210264e-04 -2.01897681e-04 8.69425494e-05
      -3.74396564e-04 2.55200121e-05 1.81290496e-04 1.55809801e-04
      1.46599501e-04 -5.64790156e-04 -1.89633909e-04 -5.31728554e-04
      6.59950601e-04 -4.34100977e-04 4.66339610e-04 1.15027593e-03
      4.27192223e-04 -2.88478594e-04 -7.22675119e-04 -1.00850035e-03
      7.35883659e-04 -2.75312574e-04 1.88976599e-04 1.70558749e-03
      3.56942794e-04 -9.37761724e-05 1.98754991e-04 1.98420355e-04
      -4.30279542e-05 -4.77989670e-04 1.24903000e-03 4.92130755e-04
      5.69248805e-04 -1.66890954e-04 -1.46929364e-04 1.00100318e-04
      1.07069463e-04 3.61427010e-05 -9.18187470e-06 -3.81246646e-04
      -1.00281392e-03 9.63293860e-05 2.23608207e-04 2.56754516e-04
      6.47618261e-04 1.84644930e-04 3.64828738e-04 -1.95408502e-04
      3.65462874e-05 -2.48745811e-04 1.40027347e-04 -1.18622149e-03
      1.92707623e-04 -8.39707063e-05 -1.06465711e-06 -1.01028150e-03
      -1.12377333e-04 1.18463526e-04 7.36981701e-06 7.33083434e-05
      -1.34545655e-04 8.87747447e-05 1.41760655e-04 1.38244766e-04
      -4.93857253e-04 3.03267327e-04 -2.72200792e-04 -2.55737395e-05
      2.07610312e-04 -2.06966346e-04 7.69429258e-04 -5.55277744e-04
      -2.98369210e-03 7.85999000e-05 -3.91023990e-04 -6.69428937e-06
      9.69921181e-04 9.25714907e-04 -5.23645664e-04 7.17360643e-04
      1.74601306e-03 1.10167824e-03 -3.60757957e-04 -9.05881112e-04
      -8.98984435e-04 1.54486828e-04 -1.64015673e-03 -1.47944654e-03
      2.59448949e-04 3.27412243e-04 1.51146902e-04 1.61298813e-04
      2.22801158e-04 1.61763630e-04 2.07529357e-03 1.71022810e-04
      -1.99994010e-05 1.88353471e-04 1.73650362e-04 1.82154818e-05
      4.39810538e-04 6.96324641e-05 -2.29883488e-04 7.96081531e-06
      -1.70937881e-06 1.03417959e-04 1.27771709e-04 1.06036801e-04
      9.00191488e-04 1.92770123e-04 7.28740066e-04 -1.27058150e-03
      2.98060389e-04 6.75224655e-05 -2.93097954e-04 1.10290432e-03
      -3.57633544e-05 1.89888509e-04 -3.28022346e-04 -5.78100095e-04
      1.98560647e-05 -2.63739465e-04 -4.62108910e-05 4.45084792e-04
      5.38936292e-04 2.46020412e-04 2.06752506e-04 9.11744661e-04
      -1.96621520e-03 -2.59863213e-04 2.06161203e-04 -3.10393334e-05
      2.60603876e-04 3.63268518e-05 1.11663877e-03 1.54992071e-04
      -1.23113696e-03 -1.83320488e-03 -2.08462210e-04 -3.38305632e-04
      -1.80928706e-04 8.54794751e-04 2.73023325e-05 -1.87101704e-03
      1.47459586e-03 -2.40882649e-03 1.42636977e-03 -3.71785827e-05
      -2.98280967e-04 1.11045025e-04 4.70873667e-04 1.31825532e-03
      5.22729766e-04 8.62312663e-05 2.28224308e-04 2.75163165e-05
      -2.81336647e-03 -8.87505303e-05 2.28098972e-04 5.39893634e-04
      9.22797335e-05 -3.10840056e-04 -6.34596727e-05 1.56256167e-04
      2.97242543e-04 -4.18179516e-05 1.57469054e-04 1.95760411e-04
      4.36708739e-04 -1.33357928e-04 2.70764376e-05 -1.13206388e-05
      -1.06904027e-03 -9.06401401e-05 -6.65473111e-04 -4.20498982e-05
      6.87101972e-04 4.84900025e-04 5.05056581e-04 -1.20357948e-03
      -4.68263424e-05 1.35688082e-04 1.43225741e-04 -1.08923658e-03
      7.30208703e-05 9.91840425e-05 -9.92357673e-05 1.89365412e-04
      5.21835718e-05 1.70136453e-04 8.60164728e-05 -4.77255002e-04
      2.05649273e-03 3.98856559e-04 -4.99515329e-04 -3.59506899e-04
      -3.85261519e-04 -2.78990046e-04 -1.01026875e-04 -1.50497758e-03
      -1.09318807e-03 -1.10108766e-03 -1.86871970e-04 -5.10078607e-05
      1.03403686e-03 -7.94348656e-04 4.57733477e-05 3.38865281e-03
      1.46124978e-04 -2.19032299e-04 5.44187729e-04 3.58778285e-04
      4.62230179e-04 -7.26975429e-07 1.39030849e-03 -1.37446669e-03
      -8.85550471e-05 -8.87550123e-05 4.72340835e-05 5.67255665e-06
      -8.72853620e-04 1.84833145e-04 -3.90417175e-03 4.24732752e-05
      6.74913812e-04 -2.89059331e-04 -2.94746511e-04 1.20748387e-04
      -1.53994668e-04 -2.46730883e-06 -3.60730948e-04 5.29187273e-05
      1.40630256e-03 2.19498324e-04 -2.63395516e-04 -1.64030542e-04
      2.52938538e-04 2.29520490e-04 -1.10325101e-03 5.16729138e-04
      8.44263821e-04 7.33846566e-04 1.09052926e-04 -4.44003032e-04
      -1.49094980e-04 -4.56038033e-05 2.93031830e-04 -3.51043738e-04
      1.52447228e-05 -8.17448381e-05 -1.68120769e-05 5.09210149e-05
      -6.07563088e-05 -5.35818363e-05 -3.22504929e-04 3.36756086e-04
      6.71512506e-04 -6.79466466e-04 5.86740614e-04 1.51612432e-04
      4.24772297e-05 -1.11842957e-04 1.35882670e-04 -1.99494403e-04
      2.37816465e-04 3.27615038e-04 -1.46246690e-04 -6.80326426e-04
      2.04152660e-03 -2.39451605e-04 -8.67258292e-04 3.95756506e-04
      -1.73299329e-03 -5.16962551e-04 -6.00833737e-04 -8.96996411e-04
      6.26690016e-05 1.31577603e-04 2.08141375e-03 1.35165983e-05
      -5.46803640e-05 -7.11939792e-05 -1.71206775e-04 1.21604033e-04
      -1.77070906e-03 5.91246062e-05 -4.09436354e-04 -1.38881698e-03
      7.46554724e-05 8.50354409e-05 2.39139292e-04 5.50152254e-05
      -4.23602105e-05 9.55718060e-05 2.76441191e-04 -2.86283990e-04
      2.51350779e-04 -3.82681574e-05 -5.30281919e-04 -1.12320440e-05
      -2.67079682e-03 -4.84593002e-05 1.27978600e-03 -3.11666721e-04
      -1.02719503e-04 6.62368024e-04 -2.13638879e-04 -9.80462995e-04
      -1.72257278e-04 -2.09408579e-04 6.16608828e-04 4.50801599e-04
      -3.84747691e-05 -1.46435457e-04 8.43603848e-05 4.42441989e-04
      -1.91600135e-04 9.19807353e-05 -1.92080755e-04 -5.31779719e-04
      -5.80673216e-08 1.14014454e-03 7.40376418e-04 1.07567396e-03
      1.54990950e-04 7.18641895e-05 -1.37227325e-04 3.06834845e-04
      1.29057153e-03 -7.31579727e-04 -2.64195667e-04 7.92825158e-05
      1.50162540e-03 4.76664020e-04 2.21712817e-05 1.42943556e-03
      -3.52044881e-04 1.92579883e-03 4.95871878e-04 -7.57538772e-04
      -8.85574787e-04 1.20155428e-05 2.23321986e-05 -7.93291663e-04
      -7.84715812e-04 8.90999872e-05 8.69160285e-05 2.88634146e-05
      1.56255008e-03 8.09101766e-05 1.28196401e-03 -1.52712906e-04
      -1.51197554e-03 -1.06483567e-05 -3.21909291e-04 -1.82089876e-04
      4.82255309e-05 1.10534282e-04 5.24212337e-05 1.74234388e-04
      -9.21366300e-05 1.71094107e-05 -2.85352202e-04 1.59180869e-04
      -4.35084919e-04 -2.32129707e-04 -5.92104159e-04 -2.08301557e-04
      -1.12070287e-04 2.00826046e-03 -2.07105593e-04 -9.16795689e-04
      -2.38860724e-04 -1.33931928e-04 -3.99120036e-05 9.71192494e-04
      4.17555493e-05 2.20314600e-04 1.29530090e-04 2.96045269e-04
      1.77322640e-04 1.55978560e-04 1.01263053e-04 -6.71815942e-05
      -1.51060161e-03 4.47290397e-04 1.88886450e-04 2.26020260e-04
      -5.62053930e-04 3.41227191e-04 -2.50577941e-05 3.02461529e-04
      7.43603858e-04 -3.88335466e-04 -1.28076877e-04 -1.28311522e-05
      -5.80491149e-04 3.24034510e-04 1.98924053e-03 -2.29153852e-03
      2.00313446e-03 1.09358120e-03 6.80532830e-04 -1.33269257e-03
      -8.53177917e-04 1.43942423e-04 1.13319862e-03 -1.16365717e-03
      -1.12756353e-03 -1.71666732e-04 4.46483500e-06 2.60362995e-05
      -1.06635969e-03 1.53090674e-04 -9.03953740e-04 1.15110015e-03
      -1.25811377e-03 -3.52789764e-04 1.39356038e-04 2.90589785e-04
      -1.42181278e-04 1.94257900e-05 -1.96364606e-04 -2.53183447e-04
      -8.33408209e-04 5.55766164e-05 -9.96049275e-05 3.21020561e-05
      2.44682678e-03 -1.10509776e-04 9.56589007e-04 -2.95762293e-04
      9.09166411e-04 7.62554992e-04 -4.55663481e-04 2.00810772e-03
      -7.38381859e-05 6.66034466e-05 1.30763088e-04 -5.62826113e-04
      9.67285596e-05 2.82546398e-06 -5.15715474e-05 2.01010756e-04
      -1.97486588e-04 -3.43814172e-05 -1.42808873e-04 5.84488385e-04
      5.12844090e-05 3.90752160e-04 -8.18251356e-05 1.07497058e-03
      -5.21813403e-04 -2.98966188e-04 6.20382780e-04 -2.55430583e-04
      -9.75896197e-04 -2.57223292e-04 3.09369614e-04 -2.42020513e-04
      -5.35449828e-04 -5.22777373e-05 -2.25543138e-03 -3.82656057e-04
      -2.93174002e-04 3.13518278e-04 -6.06466085e-04 3.73143499e-04
      -1.30204496e-03 -8.76669292e-05 -1.75652604e-04 1.26480486e-03
      2.30950827e-04 3.73199233e-04 8.58838903e-05 1.44539299e-04
      3.89123656e-04 -3.55899596e-04 3.67052766e-04 1.28968980e-03
      -2.28192745e-04 -1.99423666e-04 -3.28248971e-05 1.02519472e-04
      -3.84356070e-04 -1.92854168e-05 2.74466620e-05 1.38086762e-04
      -7.70205632e-04 -1.25306993e-04 3.95492680e-05 1.88641163e-04
      8.94296216e-04 1.27031613e-04 -5.33229788e-04 -1.13218150e-03
      2.86434588e-05 -3.56447941e-04 3.02496686e-04 -1.23118213e-03
      -1.77921116e-04 -3.88135290e-04 3.64723004e-04 9.88915417e-05
      1.73352266e-04 1.75344496e-04 1.82462645e-05 1.39982003e-05
      -1.48959385e-04 6.88674263e-05 -2.91535951e-04 -1.00047968e-03
      1.79363019e-03 5.71734097e-04 -1.19700788e-04 1.85376650e-03
      -7.64799770e-05 2.67015974e-04 -1.45798273e-04 6.30913244e-04
      3.92875343e-04 6.53657422e-04 -2.92902696e-05 2.39150526e-04
      -1.95575901e-03 6.94393821e-04 -5.62396774e-04 -1.96118024e-03
      1.85344170e-03 1.19465194e-03 -2.12527229e-03 -4.60213283e-04
      1.05854578e-03 2.51101610e-05 -8.58159445e-04 9.65811312e-04
      -1.60274981e-03 3.55807191e-04 -9.46077489e-05 -1.20499804e-04
      -8.40120658e-04 2.66339717e-04 7.48957857e-04 8.79527433e-05
      3.74552794e-04 -1.03709419e-04 -3.57421726e-04 9.17084035e-05
      -8.21605936e-05 -2.05023258e-04 3.29712668e-04 8.26675678e-05
      2.28142017e-04 -2.26000033e-04 -9.47011722e-05 3.91774520e-05
      -3.01524036e-04 9.33917836e-05 -1.53588981e-03 3.68226429e-05
      -3.34690529e-04 -1.02077308e-03 7.46380174e-05 2.53899302e-03
      7.38923118e-05 -2.71948753e-04 8.13812730e-05 8.86936556e-04
      -4.99126327e-05 4.46106395e-04 -2.77420422e-05 -3.62114479e-05
      -1.24202183e-04 -4.26280967e-05 -3.81688325e-04 4.96398483e-04
      -5.04744472e-04 7.47948710e-04 3.54976306e-04 -1.95901321e-05
      -3.01674991e-05 3.48098802e-05 -5.11609833e-04 1.56131235e-03
      -2.21716808e-04 -1.08304339e-04 3.18296516e-05 -7.71226696e-05
      -1.87481486e-03 -5.90454205e-04 -1.37591898e-03 1.45027740e-03
      -8.74688965e-04 -1.10567792e-03 4.72920627e-04 9.83280595e-04
      5.55964827e-04 -2.13344538e-04 1.40551466e-03 -5.52398094e-04
      -9.48296336e-04 -4.06889943e-04 -2.89883727e-04 1.77155071e-05
      1.53895817e-03 -2.56381929e-04 1.96911674e-03 5.20581380e-04
      -1.60746032e-03 -2.68038071e-04 3.09323310e-04 -2.59388580e-05
      -3.13883851e-04 0. -5.94343692e-05 -7.30342144e-05 9.74353752e-04
      -3.91480397e-04 -1.39948706e-05 -1.57759001e-04 3.12998192e-03
      -1.19015887e-04 2.53814971e-03 -1.53394125e-04 1.07291865e-03
      -7.45919184e-04 -2.93860096e-04 4.98160429e-04 -3.73976509e-04
      -2.10526967e-04 -2.80573586e-04 -1.23627950e-04 -6.55692565e-05
      -2.83242000e-04 -2.18347104e-05 -1.20646632e-06 -2.48757977e-04
      1.32189882e-06 -4.02776612e-04 -2.27243552e-04 5.51199773e-04
      -5.17284614e-04 -2.67616764e-04 -1.49364525e-03 3.65388260e-05
      -8.33564118e-05 3.28266673e-04 -5.54831895e-05 1.29935227e-03
      -1.68781134e-03 2.07651847e-05 -7.04719569e-05 1.11892261e-03
      -1.71713752e-03 -1.50402030e-03 -8.36369989e-04 -7.81874813e-04
      -3.57026700e-04 -2.73258745e-04 -3.72570328e-04 2.16925677e-04
      -8.89052608e-05 -3.29632778e-04 1.87292491e-04 7.08768144e-04
      -6.76914278e-05 1.35342067e-04 1.31790424e-04 -3.44846747e-04
      1.34682166e-04 -1.29128282e-04 -6.64887950e-04 7.78642250e-04
      -8.34759267e-05 -2.27838900e-04 6.51613518e-05 1.10102497e-04
      4.21382974e-05 -2.55396968e-04 -6.82019163e-05 2.16921297e-04
      2.13754502e-05 2.37406530e-05 -2.59710185e-04 -2.04071286e-03
      6.43587773e-05 -1.99220865e-03 -1.08715380e-03 6.66363107e-04
      6.52585819e-04 2.81029148e-04 -3.95075651e-03 -5.66550952e-05
      -1.13274182e-04 9.82591228e-05 8.76621052e-04 2.87962554e-04
      3.80065612e-04 2.84924463e-05 3.28903814e-04 5.83319888e-05
      6.50697912e-05 -9.07309732e-05 1.52388166e-04 1.77487789e-03
      4.84827993e-04 1.85872384e-04 4.22057812e-04 2.14144547e-05
      -1.09736378e-04 4.62766591e-04 1.72513165e-03 1.74632459e-03
      5.78408071e-04 1.55801245e-04 -6.45555265e-04 1.10886525e-03
      -7.48093822e-04 2.17519904e-04 -4.57857532e-04 -3.93087830e-04
      1.78991875e-04 6.30898052e-04 -8.47744697e-04 -4.31803172e-04
      1.29732391e-04 -8.86204478e-04 2.71456520e-04 -6.52807939e-04
      1.33586844e-04 4.28987732e-05 -1.24324674e-06 1.27064355e-03
      -1.57549191e-04 -6.74081675e-04 3.10211995e-04 1.33645663e-03
      1.84485471e-04 5.67337556e-05 -8.43989328e-05 2.96762097e-04
      4.34273097e-05 -1.62364813e-04 -1.62451727e-06 -8.54685786e-04
      1.47296392e-04 5.86395799e-05 -1.27237538e-04 -6.09495852e-04
      -8.71154552e-05 4.98247624e-04 -8.26959324e-04 1.23732665e-04
      4.16821887e-04 2.96390353e-04 -9.26316483e-04 -1.02571767e-05
      2.52181519e-04 -2.35929310e-05 -6.43391279e-04 2.20452319e-04
      2.17650304e-04 1.86702400e-05 -1.67371312e-04 9.48457382e-05
      -3.75537638e-05 2.16667017e-04 9.79219330e-04 -6.95668496e-05
      3.48867703e-04 1.39620373e-04 1.21607771e-03 -1.23927093e-04
      4.65929130e-04 1.25901465e-06 1.13534588e-05 -4.29530955e-05
      -1.34087692e-04 1.23399996e-05 4.93300380e-04 -2.23516859e-03
      6.67177083e-04 1.98608672e-04 -7.69043167e-04 -6.34973228e-04
      -1.37732728e-04 -1.80809863e-03 -6.25902205e-04 1.68739483e-04
      8.68040443e-05 -1.53036707e-03 1.60440500e-03 1.16462936e-04
      2.21864593e-05 2.73411337e-04 6.81971724e-05 -7.91572907e-04
      -2.25828349e-04 -1.12618890e-03 1.28341804e-03 6.32005860e-04
      4.01460478e-04 -2.08975966e-04 -5.62800524e-05 -3.11028329e-04
      -6.84428524e-05 -1.78838658e-04 3.65854590e-04 1.19403715e-03
      -8.96137062e-05 -3.93623748e-04 -1.08744833e-04 2.32950784e-04
      1.83230048e-04 -1.63551784e-04 -3.68235196e-04 -1.61046060e-04
      -2.49058154e-04 -4.65009129e-04 1.80835940e-03 -3.99297205e-05
      -2.76351493e-04 1.27940322e-04 -7.79755297e-04 -2.03565680e-04
      3.99027311e-04 9.93644426e-06 2.01310875e-04 -1.38518415e-04
      5.95570673e-05 9.98174146e-05 -3.99023906e-04 -8.47264346e-06
      1.83299149e-03 -1.99117465e-04 -9.57976328e-04 9.40144600e-05
      -1.74887507e-04 -1.86478574e-04 2.49910838e-04 6.07783441e-04
      -1.18169130e-03 1.17205374e-04 1.48444378e-03 6.77930308e-04
      -2.43727860e-04 -4.80098621e-04 5.69315394e-04 -1.38557027e-03
      1.14222919e-03 8.75185011e-04 -4.92238149e-04 -1.36782695e-03
      1.38861666e-04 -2.78941967e-04 1.37743074e-03 -5.77759754e-04
      1.05896746e-04 -2.46378477e-04 -1.85319819e-04 -2.59304652e-03
      3.07624287e-05 2.35410756e-04 -5.94627727e-06 8.92116688e-04
      1.78936258e-04 1.03417406e-04 1.27192005e-04 5.34292776e-04
      4.58333307e-05 -4.69353894e-04 -6.46427407e-06 9.71123809e-04
      -1.31545621e-05 2.19621375e-04 -2.12944888e-05 -1.48304412e-03
      4.56488233e-05 1.61591845e-04 2.65892886e-04 3.06372967e-05
      -2.51329155e-04 3.14634060e-04 3.38963728e-04 -2.15206877e-04
      -7.31580826e-07 6.39025893e-05 1.09443942e-03 2.79323780e-04
      1.31263718e-04 -8.74632678e-05 1.33205933e-04 -8.16308020e-05
      -6.93582697e-05 -3.61753366e-04 5.59413747e-04 -1.99415372e-03
      1.25767896e-03 1.26567524e-04 3.24081338e-04 9.53166746e-05
      6.34739816e-04 -2.58735206e-04 1.65978272e-03 3.87270498e-04
      -1.23758614e-03 -1.79853640e-04 -3.90291767e-04 -8.47014540e-04
      -1.71696665e-05 1.05199078e-03 -8.16038868e-04 -2.22384953e-03
      -4.79809009e-04 6.92362082e-04 -3.77707562e-04 -1.05001433e-04
      -9.89452819e-05 4.27850115e-04 -2.66254036e-04 7.40957214e-04
      -1.44096812e-05 1.21826387e-03 -9.95353621e-05 -1.22737663e-03
      1.58757539e-04 2.09348160e-04 -5.33365761e-04 -6.36324985e-04
      3.03459878e-04 6.90187444e-05 3.72167531e-04 -5.34652463e-06
      4.22337398e-05 -6.34575554e-05 1.38266514e-05 -1.43573282e-03
      3.23437009e-04 -8.66000337e-05 -4.87173238e-04 8.24583811e-04
      -1.70541200e-04 5.14462125e-04 -1.23036793e-04 -1.96023757e-04
      -1.03903015e-03 -6.80360681e-05 5.80862572e-04 3.70616093e-04
      -8.49169883e-05 -7.44950230e-05 4.19407879e-04 -4.99789370e-04
      -5.56426276e-05 -1.89822786e-05 2.88186799e-04 1.98910275e-05
      1.26083425e-04 -3.30233219e-04 1.00560277e-03 1.10225310e-03
      1.84807298e-03 -3.88231390e-04 1.73592576e-04 -2.85245245e-04
      -5.12268380e-05 1.02955135e-04 -1.45207136e-03 6.13104494e-04
      1.04561553e-03 -8.58570784e-05 8.72868550e-05 -1.24871742e-03
      7.13286281e-04 2.83501897e-04 -3.78081721e-04 -5.11302438e-04
      1.34533306e-03 4.70896775e-05 -1.38510717e-03 -3.42719053e-04
      -1.15937706e-04 -1.35003700e-06 3.28772265e-04 2.10619488e-04
      -7.24518395e-05 1.79794559e-04 -1.67827297e-04 -1.60284620e-03
      1.57398288e-04 -1.07084296e-03 6.30931114e-04 5.46029420e-04
      3.88041459e-04 -2.37257453e-04 1.09924447e-04 -5.96388272e-05
      7.46318765e-05 5.34730279e-05 -3.91013200e-05 -4.39533207e-04
      -2.43932573e-05 -6.07518587e-06 9.54955249e-05 -1.93106872e-03
      -2.03429925e-04 -1.41550685e-04 -2.19555819e-04 -7.07116618e-04
      6.36366080e-04 -2.23987139e-04 -4.24412661e-04 -9.58517339e-05
      1.94515829e-04 2.08529600e-05 1.28466776e-03 -1.92922205e-04
      -5.39942594e-05 2.55644482e-05 3.37200676e-04 -4.06660802e-05
      -2.09715436e-04 -6.11839932e-04 -4.90947976e-04 8.83467801e-05
      9.25047148e-04 3.99876910e-04 -3.02569795e-04 4.15301882e-04
      -8.73632598e-05 9.82838916e-04 2.09167440e-04 5.48282638e-04
      -2.22171526e-04 6.07634429e-05 1.24135418e-04 9.24327396e-05
      1.87833808e-04 6.16910751e-04 9.17907688e-04 -6.73661134e-06
      2.09309813e-03 5.70398930e-04 1.78028748e-03 8.37221683e-04
      -8.57918803e-06 -9.51276219e-04 -1.34651514e-03 -1.11699814e-03
      1.34231377e-04 8.65786060e-05 4.03668564e-05 1.45384774e-03
      2.58846238e-04 1.32623070e-03 1.36645845e-04 -2.94101570e-04
      -4.18526208e-04 -1.81561933e-04 1.28197964e-04 -1.88402599e-04
      -3.12651878e-06 3.11862445e-04 -1.23969745e-04 -9.54434043e-04
      -1.01373669e-04 -3.00729480e-05 1.25060440e-04 -2.10658577e-03
      9.67299929e-05 6.94891205e-04 1.07822334e-03 -5.31585014e-04
      -1.46274501e-03 4.58774972e-04 -2.14705407e-03 -7.59153336e-05
      1.38308184e-04 1.11614398e-04 1.88546092e-05 -2.03336996e-04
      1.11838555e-04 1.43479614e-04 1.39885815e-04 -3.44542277e-05
      1.23296326e-04 -2.57877691e-04 8.21258931e-04 1.47225813e-03
      -1.89642038e-03 -9.71124333e-04 -1.36217487e-03 1.22729298e-05
      -1.15651623e-04 -5.51181438e-04 3.99738987e-04 2.04942492e-03
      5.84156602e-04 -2.93521975e-06 4.52395587e-04 -1.10309091e-04
      5.95016405e-04 -2.20834409e-04 -1.00943411e-03 2.54344684e-03
      -9.88553278e-04 5.22941176e-04 2.49519991e-03 5.45888557e-04
      9.78626922e-05 1.45273516e-03 -8.25612224e-04 2.27316469e-03
      -4.73630469e-04 -1.46344668e-04 1.90030813e-04 2.22070783e-04
      -7.14778362e-05 6.10213552e-04 1.24423206e-03 7.52506545e-04
      -1.82668009e-04 9.76050796e-05 1.12832997e-04 1.15460440e-04 0.
      1.72229393e-05 -8.13941442e-05 6.13124794e-05 3.85484600e-05
      -1.44016349e-05 -1.48406834e-04 -6.70578447e-04 7.44500212e-05
      1.41587298e-04 2.93507066e-04 -6.07353213e-05 2.55417312e-03
      2.76263076e-04 3.01652146e-03 -3.44246000e-05 1.90811494e-04
      1.58318580e-04 8.14970292e-04 1.77487032e-04 -4.45282240e-05
      1.45465223e-04 3.15415964e-04 1.12783280e-04 9.09457958e-05
      -4.25176957e-04 -1.12511264e-03 -2.10001203e-03 -2.97629915e-04
      -9.86379237e-05 1.21805281e-03 5.57232997e-05 -4.65766469e-04
      -8.62976594e-04 -2.66101491e-03 -3.92555026e-03 -4.55241796e-04
      -2.83109373e-04 -5.84163237e-04 -3.46329529e-04 -4.21665864e-05
      -3.42694880e-03 -2.18715821e-03 -9.50982911e-04 -3.02893226e-03
      -3.90481116e-04 -2.65091122e-03 2.71752127e-04 -1.31952256e-04
      -5.17319240e-05 -4.15582536e-03 -9.97442054e-04 -2.63074820e-04
      -1.35862530e-04 -9.31276663e-05 1.94649259e-03 4.55380941e-04
      2.77613732e-03 -9.38166631e-04 1.33792334e-03 -2.71465746e-04
      -1.86754783e-04 1.31684792e-04 -2.38205539e-05 7.48702078e-05
      7.65448785e-05 9.28998907e-06 1.22568174e-03 -3.47838475e-04
      2.48515804e-04 -9.20152670e-05 1.83533574e-03 -1.00400583e-04
      1.30986003e-03 4.40030766e-04 -1.46879698e-04 -1.92887068e-03
      1.67894308e-04 -9.41961072e-04 4.32915695e-05 -3.75874733e-05
      4.42456076e-04 -2.31858250e-03 -1.80606992e-04 -9.78280150e-05
      -3.74910960e-05 3.23587883e-05 2.02501265e-04 -5.87786853e-05
      1.12426421e-03 4.25844191e-04 -1.26996849e-04 -3.81603208e-03
      1.27417428e-04 6.02449290e-04 2.32402992e-04 6.55335723e-04
      2.11811101e-04 2.66760588e-03 -5.37382299e-03 1.36975572e-03
      1.39418480e-04 1.42410351e-03 6.32833922e-04 8.04461364e-04
      2.17033527e-03 4.26018238e-03 1.62142504e-03 -1.93178747e-03
      -4.74872126e-04 1.11334526e-03 -1.37534837e-04 -1.62320299e-04
      -3.33397088e-06 1.06432789e-03 -1.86937104e-03 -3.41673527e-04
      -1.74563374e-05 2.36906752e-04 -2.17514648e-03 1.85985482e-04
      6.00597064e-04 3.25577857e-04 7.52347521e-04 -3.38723708e-04
      4.42982382e-05 -1.95010085e-04 1.82763441e-04 -8.43911112e-05
      -5.46960160e-04 -2.39127490e-04 -9.59076686e-04 2.27101264e-04
      1.01117570e-04 1.09287248e-04 -5.74534293e-04 2.21981809e-05
      -1.66864821e-03 -2.46526761e-04 -1.04416169e-04 1.18957891e-03
      -1.89412440e-05 1.67924387e-03 -1.21337674e-04 3.60364473e-04
      7.31219334e-05 1.84631336e-03 2.84522903e-05 4.47797393e-05
      1.86296402e-05 -1.68910028e-05 -7.57831585e-05 5.64042675e-05
      3.17680533e-04 -7.72622472e-04 -3.10008851e-04 1.30918037e-04
      2.63093389e-04 1.64256955e-04 -7.25736027e-05 1.56741560e-04
      -2.90204451e-04 4.84291348e-04 -7.25467165e-04 1.12535886e-03
      -2.74433347e-04 8.33648010e-05 -8.71869619e-04 7.45889673e-04
      -2.13673949e-04 4.78954898e-04 1.08377205e-03 1.00075407e-03
      1.76547270e-03 -1.28920760e-03 -3.98182194e-04 -2.71988392e-04
      -1.17057550e-03 -6.64983701e-04 -1.57962408e-04 1.42770732e-04
      2.64493865e-04 6.60980644e-04 -1.59991940e-03 1.48976023e-05
      7.66998099e-04 -8.14739979e-05 -1.26216924e-04 2.02681258e-05
      5.80837484e-04 -8.35911051e-05 3.80277284e-04 -8.90641331e-06
      -2.36083593e-04 2.15747961e-04 -1.72626611e-03 -1.83101569e-04
      -1.27017920e-05 1.03817467e-04 -6.22615451e-04 1.57005255e-04
      -1.09272113e-03 2.30932550e-04 2.18795583e-04 -1.38236035e-04
      4.61298805e-05 5.25602314e-04 -3.70312511e-04 -1.36274411e-05
      -5.22731461e-05 -6.27388654e-04 -5.68099713e-05 -9.80905606e-05
      -4.34159156e-05 -9.55484438e-07 1.57307994e-04 -1.33813955e-04
      6.41684979e-04 1.61255908e-03 5.92527271e-04 -4.96799243e-04
      4.19756019e-04 3.97841650e-04 -1.29018823e-04 -2.08640704e-04
      4.16320283e-04 1.81556819e-03 -6.18070189e-04 5.33016690e-04
      1.16195166e-04 -2.03595380e-04 -3.46041983e-03 -2.03688702e-04
      5.94529323e-04 1.10479351e-03 1.49805006e-03 3.28065071e-04
      1.51243422e-03 3.91026470e-06 -7.11717992e-04 2.03234027e-04
      -1.99005473e-03 -8.27312761e-04 7.37286289e-04 -3.41951061e-04
      3.73861985e-05 5.54250764e-05 -6.13092328e-04 3.31660958e-05
      -9.24644468e-04 -1.28739269e-03 -1.94387503e-05 1.91487532e-04
      -2.76024948e-05 5.21241636e-05 1.97894129e-04 -5.11518465e-06
      -2.36669468e-04 -2.04154188e-04 8.21623136e-04 -2.02738840e-04
      9.18472506e-05 3.66362801e-04 -7.45505677e-04 2.10839644e-05
      -1.00823108e-03 2.22900671e-05 -4.18148091e-04 2.01697330e-04
      -1.95949222e-04 5.18562039e-04 -1.07685242e-04 3.78808909e-04
      1.16626352e-05 2.33976170e-04 8.84567780e-05 -4.33708308e-04
      2.46470372e-05 1.80576360e-04 -5.53412610e-05 5.08813770e-04
      -3.37167410e-04 -7.28240819e-04 3.77835386e-05 -7.35600421e-04
      -1.34024303e-04 7.80980554e-05 -2.08417288e-04 2.11031627e-04
      3.69516347e-05 2.03043208e-04 2.51311547e-04 2.42449553e-03
      1.08353037e-04 2.46018695e-04 6.38874422e-04 -9.78554483e-04
      -2.61017442e-04 1.18264335e-03 -4.36999428e-04 9.29325979e-05
      -5.59942739e-04 1.87531114e-03 -1.46154908e-03 -3.20874824e-05
      3.35458230e-04 1.56541017e-03 -2.43356088e-04 6.26152105e-05
      -1.56490860e-04 7.09269807e-05 -7.67707766e-04 -1.00425183e-04
      -1.15467375e-03 2.26807757e-03 -3.61157116e-04 -2.07634701e-04
      -2.15937587e-04 -1.25009930e-04 1.25064602e-04 -1.79155286e-05
      -4.42575256e-05 2.06643032e-04 -1.68102997e-06 3.09745112e-04
      2.99350886e-05 -6.91714304e-05 -8.02375551e-04 -5.66341187e-05
      -1.07226102e-03 -3.45550769e-04 9.18504957e-04 -1.20537251e-03
      -3.09647476e-05 1.40676496e-03 2.56570675e-05 -3.84179410e-04
      5.85892005e-04 6.48953137e-04 -1.80894465e-04 1.26185318e-04
      8.84586916e-05 -3.67903194e-05 1.62235505e-04 -2.15351247e-04
      1.10063353e-04 1.08302815e-03 -1.09809444e-04 7.81411800e-05
      3.94027942e-04 -2.34025516e-04 8.52561279e-05 1.67775681e-04
      1.70566869e-04 -9.15150275e-04 -7.78385089e-04 -7.56103313e-04
      -3.01856169e-04 1.03723090e-04 8.15071689e-05 -2.63310823e-04
      2.95377831e-04 1.70773463e-04 -1.61879498e-03 1.79568247e-03
      -6.59740064e-04 -1.65488571e-03 -1.41917611e-04 2.31742131e-04
      3.00074765e-03 4.17592091e-04 1.40148995e-03 2.22012328e-04
      6.39909529e-04 2.91329285e-04 -1.90421042e-03 3.68773675e-04
      -1.81930867e-04 1.65328186e-03 8.69209820e-04 1.84435487e-06
      1.02435464e-04 1.17811273e-04 -6.11835912e-06 4.01032848e-05
      -2.86544615e-04 -4.75868961e-04 -1.31714321e-03 -1.12828056e-04
      -2.64038041e-04 1.32513174e-04 4.31412162e-04 1.99839706e-04
      1.26186246e-03 -4.88326012e-04 -1.03739440e-03 -6.66259730e-04
      -1.52688997e-04 -2.18673667e-04 -2.50495767e-04 -7.58366368e-05
      -6.80432597e-04 -1.92192441e-03 9.29437010e-06 -3.91307578e-04
      -8.71915690e-05 -1.08721128e-04 2.47737160e-04 -9.39065794e-05
      7.29905267e-04 3.64451931e-04 -8.14573956e-04 8.72872333e-05
      9.58119417e-05 -4.97332949e-04 -1.30904926e-04 1.36339353e-04
      -1.15173822e-03 3.57344165e-04 -2.17598135e-04 -5.69426687e-04
      7.16034338e-05 -3.70716771e-05 7.36015907e-04 4.00317891e-04
      6.10807911e-04 1.18931720e-03 -2.20859493e-03 5.16382453e-04
      7.75615626e-04 -1.96421897e-04 1.25960927e-04 -1.45490587e-04
      1.08763680e-03 -3.46000161e-05 6.78198296e-04 -3.61996754e-05
      -9.23733242e-05 4.54080946e-05 7.72336498e-04 -6.87615538e-05
      -1.27542985e-03 1.78178001e-04 4.48210631e-04 -6.08128357e-05
      1.72617278e-04 3.50212125e-04 5.06401557e-05 -7.08773441e-05
      1.80120813e-04 3.47400142e-04 -3.71292292e-04 -1.91585728e-04
      -1.15992523e-04 -2.58876127e-04 7.45771686e-04 -1.64696306e-04
      2.52138765e-04 -8.48913478e-05 8.72958160e-04 -2.17510431e-04
      -1.57016271e-04 -1.27643091e-03 2.06673838e-04 1.31421664e-04
      -7.30965112e-04 -3.96934629e-04 -9.43187406e-05 -4.44673969e-05
      1.30848202e-04 1.61470871e-05 1.99471360e-05 -7.51926855e-05
      -1.07736167e-04 2.18497516e-04 -1.36635697e-03 -7.38478266e-04
      4.83955409e-05 -9.23461164e-04 -2.64594837e-06 4.68328835e-05
      -1.14997471e-04 7.57124391e-04 -4.50250664e-04 -4.05759318e-04
      2.75405560e-04 7.40802730e-04 1.33627304e-03 4.95249464e-04
      9.88856307e-04 -5.32843347e-04 -9.10528106e-05 2.58682948e-03
      9.74569120e-04 -2.07182384e-04 1.21092412e-03 -3.01797758e-04
      -6.72837021e-04 1.26516412e-03 7.60100549e-04 -5.09776408e-04
      2.81171553e-04 -1.28872722e-04 -3.42714338e-04 -1.73069420e-04
      4.13522794e-04 4.03209619e-04 -4.25066886e-04 1.72229320e-05
      1.47203362e-04 2.47766229e-06 -2.52374994e-05 1.54072404e-05
      1.84692020e-04 -2.42381400e-04 -1.05526189e-04 -8.57505656e-05
      2.56605505e-04 3.25945877e-07 2.36162115e-04 7.32337139e-05
      -6.46984379e-04 -8.15483072e-05 -8.35782499e-04 -5.95406280e-04
      2.26042161e-04 1.55013555e-03 2.19379712e-04 1.27412495e-04
      4.40751974e-05 6.28599082e-04 -2.33283296e-04 3.72190756e-04
      -3.03043344e-05 5.70700195e-06 8.89768125e-05 1.33364680e-04
      -5.66369599e-05 7.13216257e-04 -1.95845932e-04 -5.04704309e-04
      -1.49463958e-04 -1.53379084e-03 -1.93359941e-04 -1.66928134e-04
      -3.00863670e-04 -8.45349161e-04 -1.15630729e-03 3.51281691e-04
      2.03636271e-04 1.33170252e-04 -5.95340331e-04 -3.95946205e-04
      -1.22622680e-03 -5.70671458e-04 4.01153835e-03 -1.00759719e-03
      3.30807903e-04 -9.15014767e-04 -6.15997997e-04 -9.56632866e-05
      3.64688458e-05 5.70766453e-04 2.71496130e-04 5.98136743e-04
      2.41836868e-04 3.74093099e-04 -1.74414556e-04 1.22347032e-04
      -9.73845599e-04 6.66986743e-04 8.66192102e-04 1.48406718e-04
      -2.25033698e-04 6.06986177e-05 -1.86482848e-05 1.30456965e-05
      2.94290512e-04 -3.33555043e-04 -2.73557147e-04 -6.28167254e-05
      -4.92128529e-05 1.88226855e-04 4.87343932e-04 -1.47394749e-04
      8.81428306e-04 1.18248638e-04 3.14145960e-04 -9.25201573e-04
      -1.91362487e-04 -1.83492457e-03 -1.34224814e-04 1.33722177e-04
      -1.19802862e-04 -8.51514284e-04 -7.69984326e-05 -2.25985150e-05 0.
      3.23018321e-05 -6.67584800e-06 -1.49502666e-04 3.27748385e-05
      2.33323648e-04 1.56524926e-04 8.80724168e-04 -3.46265500e-04
      -9.53392533e-04 -2.51204765e-05 -1.97162313e-04 1.19915791e-03
      3.41873492e-05 -9.95129230e-04 1.98453126e-04 1.88087419e-04
      -8.91100557e-04 -7.44237041e-04 -2.46979034e-04 -5.51351288e-04
      4.70533036e-04 -2.12292233e-03 -9.16707853e-04 1.54798327e-05
      2.49837246e-03 -1.31966919e-03 -4.36961534e-04 -1.74810784e-03
      4.57879715e-03 -2.34258268e-03 -1.82630727e-04 -1.27866471e-04
      -1.77635069e-04 1.11802598e-03 -5.62136738e-05 -1.08350381e-04
      7.61399860e-06 4.67271893e-04 -2.64887873e-04 1.19451804e-04
      -1.36996896e-04 -8.25378011e-05 -1.62990068e-06 -8.96191050e-04
      -1.86961188e-05 -4.78831615e-04 -1.99939983e-04 -5.07981640e-05
      -2.51793332e-04 5.07285772e-03 2.89541757e-04 1.11147447e-03
      -1.61417166e-03 -1.30748854e-03 -7.77065638e-04 7.55263318e-05
      5.80795621e-03 -1.33407273e-04 -1.99249844e-04 -9.55337891e-05
      4.39591752e-03 -5.93441830e-04 -7.43717654e-04 5.69379372e-05
      -1.70395288e-04 -2.44393759e-05 1.35904309e-04 2.85835617e-04
      -2.18942785e-03 -2.38293738e-04 -2.36652908e-03 -3.90787754e-04
      -1.13973895e-03 1.68475744e-04 6.52390663e-05 -3.57104364e-05
      -6.33711054e-04 -4.53438464e-04 1.50341343e-03 -9.99468903e-05
      -9.27641871e-04 6.94179675e-04 1.13273459e-03 1.22896599e-04
      -3.66781699e-03 -1.86985161e-03 -1.12461182e-03 -5.86149166e-04
      -6.37705962e-04 2.26037606e-04 -2.39400906e-05 -5.44164795e-04
      -8.07962730e-04 1.10891601e-03 -1.64786834e-04 -1.59346542e-04
      1.76211091e-04 2.06565857e-03 1.89139813e-04 -9.31383343e-04
      -1.18875259e-03 1.15353160e-03 1.63080738e-04 -3.68346926e-04
      4.05198225e-05 3.89815221e-04 2.44555831e-05 -8.18525878e-05
      1.58261872e-04 1.21569447e-03 2.13303042e-06 -8.43238158e-05
      -1.63344026e-04 4.20516543e-03 3.86385567e-04 2.32630572e-03
      1.35441381e-03 -4.09003434e-04 -2.82111019e-03 1.04167426e-04
      -1.88547920e-03 5.35065665e-05 -1.02114442e-04 -1.21861369e-04
      -1.74224214e-03 -1.33039821e-05 2.99069216e-04 0. -2.91985343e-05
      -1.05971194e-04 -3.09429888e-05 -8.61444059e-05 -1.61893654e-03
      8.78816471e-04 -3.17490805e-04 7.79031107e-05 -2.38414900e-03
      -1.84057317e-05 -3.40916478e-04 4.08100139e-04 -3.55127821e-04
      -9.13274125e-05 -8.18455010e-04 -4.36226292e-05 4.41282493e-04
      7.60713534e-04 3.91212379e-05 1.64256676e-03 2.18135305e-03
      1.21980731e-03 -3.36840225e-04 2.06535857e-04 -2.38808658e-04
      6.68747933e-04 -7.06354112e-05 -8.20587564e-04 -3.12346197e-03
      3.77841643e-05 -7.18839816e-04 -2.53057719e-04 3.71328315e-05
      6.08471863e-04 -1.00697071e-04 -2.47388333e-03 -2.20911531e-03
      -2.64473259e-04 -2.11919236e-04 -2.78045220e-04 4.69956140e-05
      1.79564566e-04 0. -1.34847342e-05 -1.47678729e-04 5.38782100e-04
      -4.43973040e-05 1.19862081e-04 6.39525897e-05 5.81948261e-04
      -1.47862025e-04 -3.67295434e-04 2.76093575e-04 -2.22434144e-04
      1.57954812e-03 3.77989491e-04 1.14186166e-03 4.88461868e-04
      -3.58154284e-06 -2.44038223e-04 1.60883108e-04 2.66863586e-04
      1.12193513e-04 2.70943601e-05 -1.03814738e-04 2.97001883e-04
      1.40014643e-04 5.40582405e-04 6.59044366e-04 8.35411425e-04
      -6.80635640e-06 -2.24619202e-04 2.09450140e-03 6.09618961e-04
      5.92952885e-04 -1.52419484e-03 1.02377533e-04 -1.53151155e-03
      -1.03204604e-03 -6.30338182e-05 1.41615572e-04 6.56271586e-04
      4.68282931e-04 -6.59704034e-04 1.55861746e-03 -9.56558972e-04
      1.19436695e-03 7.70914310e-04 4.43368685e-04 6.81449228e-06
      -8.44597816e-05 4.63006960e-04 2.27076840e-03 -6.95005610e-06
      -3.04155692e-04 1.23096601e-04 3.47503490e-04 4.59147268e-04
      2.71758763e-04 -4.70933242e-04 3.45950568e-04 2.06009950e-04
      6.61288323e-06 -1.79287272e-05 -1.08169690e-04 -7.42488555e-05
      -3.20915096e-05 6.66484237e-04 -9.30695114e-06 -3.14488774e-04
      3.62243154e-04 4.46799640e-05 -3.25077097e-04 -3.82286496e-04
      6.58229110e-05 1.49822631e-03 2.29781857e-04 -3.03982379e-04
      -2.55338848e-04 6.32570082e-05 -6.57545112e-04 -1.67941980e-04
      1.17406802e-04 -4.52237495e-04 1.50279282e-03 2.28592209e-04
      3.31467774e-04 3.90834794e-05 -8.92972457e-05 9.69962712e-05
      -1.08889326e-04 4.49864543e-04 -2.71719211e-04 1.72072745e-04
      1.76285903e-05 -2.43197952e-04 -8.95093894e-04 6.49656504e-05
      7.12997498e-05 8.28540069e-04 -1.43994659e-03 -1.73798576e-03
      -1.58356794e-03 2.08400132e-04 -1.60341221e-03 -1.31854857e-03
      9.41178296e-05 2.43413160e-04 -9.10962845e-05 -7.82295610e-05
      3.67806992e-04 4.52694629e-04 2.48883909e-04 -9.40656057e-04
      -1.06206544e-05 2.72273348e-04 6.43700187e-04 -1.60946875e-04
      1.74965651e-04 1.15653755e-04 2.50238751e-04 -9.68682929e-04
      -8.43768357e-05 6.88286382e-04 7.68470345e-04 4.14702838e-04
      1.38418778e-04 6.67498825e-05 1.33728045e-05 2.60020061e-05
      3.55942539e-05 1.21277066e-04 -4.32354311e-04 1.47093378e-03
      2.20973714e-04 4.51995329e-05 1.58457144e-04 -1.79872834e-04
      -6.19337879e-05 -1.41491310e-03 -4.34391783e-04 -7.72753207e-04
      8.66213348e-04 3.77338656e-05 -1.66242127e-03 9.28534355e-05
      -3.72468377e-04 1.95690927e-06 6.59283614e-05 1.19132274e-04
      -4.38720454e-04 -1.50681863e-05 3.72917966e-05 1.95680317e-04
      2.30021869e-05 2.41350645e-04 6.37054851e-04 6.91075460e-04
      -1.35517446e-03 -4.74610453e-04 4.59980482e-04 2.67196738e-04
      -1.47295345e-04 7.89101978e-05 1.99912829e-04 -2.35431595e-03
      7.69896200e-04 -1.66911617e-04 6.84794330e-04 4.58478695e-04
      6.24643115e-04 7.83635769e-05 -7.99387402e-04 8.17726308e-04
      -7.20976270e-04 -1.05147669e-03 -1.77221710e-03 -2.23732190e-04
      -2.53481237e-04 -1.01403019e-03 1.81677387e-04 1.88170886e-03
      5.90998272e-04 2.59370107e-04 2.91080010e-04 -3.26205773e-04
      2.79835484e-04 -1.29106431e-03 -7.22846191e-04 9.15678393e-05
      4.63038828e-04 -1.90355549e-05 -3.93526680e-05 1.10305358e-04
      1.08972185e-04 -1.18446464e-04 1.61766438e-04 -1.00803576e-04
      -1.52540932e-04 4.41708486e-04 -2.74054153e-04 6.95590188e-06
      1.39991811e-04 1.44044228e-04 8.54525482e-04 -2.81792803e-04
      -1.25131418e-03 -1.41995115e-04 -5.37697269e-05 -7.90846389e-06
      2.72488251e-04 -6.33825548e-05 -4.46135760e-04 -5.44195238e-04
      -2.63487862e-04 3.69190748e-05 3.17910424e-04 4.14358692e-05
      -2.07880570e-04 4.15355607e-04 -2.53657694e-04 1.14683271e-03
      7.78942544e-04 -3.58978082e-06 -8.74834135e-04 8.05118543e-05
      2.64664501e-04 1.24216065e-04 6.66905195e-04 -9.82593861e-04
      -9.08439048e-04 -9.28724257e-05 1.05696532e-03 1.32890034e-03
      8.79786327e-04 1.36135175e-04 8.48702184e-05 -8.40842375e-04
      8.19207984e-04 6.96479765e-05 -3.30371811e-04 -6.17356738e-04
      3.25729576e-04 -1.39018361e-04 1.53194391e-03 4.26936400e-04
      -1.01319703e-04 -3.77954020e-05 4.14818438e-04 -3.75251140e-04
      -1.75820271e-04 7.11467583e-04 -6.69437635e-04 -6.29247588e-05
      2.80731329e-04 1.93239393e-04 -2.76000384e-04 2.50756391e-04
      -1.70495005e-05 8.51050936e-05 -1.82232019e-04 -9.51305032e-04
      1.80640753e-04 -1.23761449e-04 1.81548285e-06 -2.26922508e-04
      -9.30313981e-05 4.49334533e-04 -3.65893007e-04 1.17541647e-04
      2.57876905e-04 -2.05148070e-04 -1.40413933e-03 -6.97110372e-05
      -1.58306968e-04 5.58421270e-05 -1.46205668e-04 7.42620468e-05
      -3.68342327e-04 -4.13035013e-05 -1.15275063e-04 3.28111491e-05
      3.45945919e-05 -8.06266544e-05 -3.81249614e-04 1.79792847e-03
      -2.38930969e-03 -5.11773280e-04 1.01537653e-03 2.57211854e-04
      2.55907653e-04 -3.42614396e-04 5.08395548e-04 -1.75891980e-03
      -5.38259163e-04 2.27979705e-04 -2.84730544e-04 2.25666235e-03
      2.96737591e-04 -7.10278226e-04 2.16202391e-03 6.22780295e-04
      1.31209003e-04 1.69697218e-04 -1.86510326e-04 3.03581706e-04
      5.72649478e-05 8.91322969e-04 -5.04686497e-04 1.03611555e-05
      -1.85474870e-04 -1.04692066e-04 2.10453538e-04 1.76526676e-03
      -6.66212054e-06 1.57568580e-03 9.14930657e-04 -1.39818760e-03
      -8.80401640e-05 -2.84319132e-04 1.78616960e-04 -1.21099925e-04
      -1.58971161e-05 -1.18648670e-04 -1.77337148e-04 -9.44513245e-04
      -1.27563108e-04 2.92690587e-04 -7.76417219e-05 1.16812043e-04
      -1.52874112e-04 1.26341626e-03 3.41295730e-04 3.47339723e-04
      -1.29729067e-03 6.59947109e-05 -2.65530660e-04 -4.61754717e-05
      1.30155269e-04 -5.59672189e-04 -1.03410613e-03 -2.34001331e-04
      -8.61426524e-05 -5.26753247e-05 3.10952055e-05 1.41137745e-04
      -3.84798150e-05 -1.05307554e-04 8.31797777e-04 -6.43030566e-04
      1.92751631e-03 3.20438092e-04 5.60742628e-04 -3.45595356e-04
      -3.21507250e-04 -8.49071948e-04 -2.34717372e-04 -3.25429464e-05
      1.75042555e-03 -2.82385503e-04 -5.16377739e-04 -2.74676387e-03
      5.73484285e-04 2.21449620e-04 -1.56144064e-03 1.78182882e-03
      -5.97135397e-04 -1.00658799e-03 -6.81765261e-04 2.15040738e-04
      5.39472567e-05 3.43108876e-03 3.74412350e-03 2.79540662e-04
      2.45818490e-04 -4.58332397e-05 1.47493673e-04 2.65739858e-04
      -1.21926887e-05 -4.60354320e-04 4.34076600e-03 -8.70117510e-04
      -7.33432753e-05 -1.09413450e-04 -1.45525584e-04 2.52919417e-04
      6.70514055e-05 3.94206381e-06 3.19735263e-04 4.97166009e-04
      2.08927711e-04 2.67089817e-05 -2.10880011e-04 5.30407415e-04
      2.75049184e-04 1.40112964e-03 6.92106027e-04 -1.08726730e-03
      -1.46236108e-03 -1.25046863e-05 -1.27659878e-03 5.25097894e-05
      -1.69289386e-04 -7.59575341e-05 4.74859407e-04 -1.67415434e-04
      -2.08173617e-04 -1.40383499e-05 2.31620306e-05 -1.62121782e-04
      -1.01476995e-04 -8.84159672e-05 3.87517466e-05 4.03683998e-06
      -1.43992214e-03 5.07733785e-05 -1.68926897e-03 2.41083646e-04
      1.01550679e-04 -8.90864831e-05 -5.56377752e-04 8.67346709e-04
      -1.56977668e-03 -2.48947879e-04 2.55081133e-04 -1.59182737e-03
      -1.53894909e-03 -1.27022678e-03 -1.85653381e-03 -1.73404301e-03
      -2.79019168e-03 -1.92694284e-03 -2.79377238e-03 1.77472044e-04
      -2.83132395e-04 -3.98428238e-04 -2.76946183e-03 -1.17341027e-04
      -1.40418997e-04 -2.06247903e-04 -1.33972526e-06 1.83738628e-03
      2.78468015e-05 2.11781752e-03 -3.08759138e-03 1.33501235e-04
      -4.27486637e-04 -1.90695326e-04 1.16910094e-04 3.47326895e-05
      9.82712299e-05 2.26496031e-05 4.66384256e-04 6.27998321e-04
      -2.97591789e-04 1.56039634e-04 5.31488477e-05 3.74128204e-03
      1.35058450e-04 -1.73368119e-03 -3.05674010e-04 -5.88208095e-05
      -3.04241851e-03 2.23106661e-04 1.92844437e-03 -5.64518632e-05
      -6.98293734e-05 2.17330962e-04 -4.27775027e-04 -1.01529753e-04
      -2.95315585e-05 -1.93762662e-05 1.44966922e-04 -6.57927070e-04
      3.40667553e-04 -2.32244987e-04 -9.07702488e-04 1.61269272e-03
      -8.14986357e-04 5.45454386e-04 5.89580857e-04 9.57090233e-05
      3.71136528e-04 6.96185394e-04 7.87001976e-04 2.53442628e-03
      -1.77798123e-04 4.01812111e-04 1.69448811e-03 1.15543092e-03
      1.78733957e-03 -6.04531611e-04 1.53269072e-03 3.59310216e-04
      -1.29393477e-03 5.87906572e-04 7.12947280e-04 -1.62348006e-05
      -7.46337173e-04 -6.95823808e-04 2.91946577e-04 -1.30961067e-04
      2.03034331e-04 8.30898352e-05 -4.70319283e-05 -5.13744075e-04
      -1.55417336e-04 -9.81165911e-04 1.41345881e-04 -6.34552620e-04
      -5.04196651e-05 -2.37916629e-05 -2.86738010e-04 -1.35317867e-04
      6.77861999e-06 -1.45170261e-05 7.60545736e-05 -3.19671840e-03
      6.07872826e-05 1.67979801e-04 -1.21995974e-04 -7.24200392e-04
      -2.33948478e-04 -1.11424737e-03 -1.97480619e-03 1.53682078e-03
      2.44751968e-03 4.01883532e-04 4.93242592e-03 1.58672963e-04
      1.08704917e-05 4.71520354e-04 1.46146258e-03 -5.23746363e-04
      -1.60789990e-04 2.08809179e-05 2.12588930e-04 -3.52209958e-04
      -3.41039529e-04 1.66165715e-04 7.27619117e-05 1.49174966e-03
      -5.92784316e-04 3.65279644e-04 1.14620074e-04 2.55314750e-04
      1.68712431e-04 -2.15115244e-04 1.88524276e-03 -9.77792777e-04
      3.81719117e-04 3.81434249e-04 7.14107882e-04 -3.38447792e-03
      -2.06800789e-04 -1.00475200e-03 5.08478261e-04 -1.15419738e-03
      4.31536057e-04 3.12612043e-04 -7.99966729e-05 9.04454559e-04
      2.89816759e-04 1.07200118e-03 2.11578572e-05 1.32096291e-03
      -2.79985223e-04 3.14145524e-04 -2.65666575e-04 -1.86222233e-03
      -2.19610723e-04 1.59280130e-03 1.77022256e-03 -2.59347435e-04
      -1.65556310e-04 -3.15831247e-04 3.17795566e-05 -9.42228871e-05
      3.46240518e-06 2.95743288e-04 5.27771423e-04 -1.26306550e-03
      1.82960757e-05 3.78070836e-04 -3.11561707e-05 -7.70131592e-04
      -2.23811614e-04 8.10173282e-04 8.98537808e-04 1.45485450e-04
      -5.34721999e-04 -8.21317444e-05 -1.12531718e-03 2.38691737e-05
      2.29668440e-04 9.19099330e-05 -5.48686192e-04 3.72067443e-04
      -1.09438086e-04 3.79440280e-05 -1.64527897e-04 -2.77531508e-04
      -4.55715963e-05 9.28209101e-06 1.45847080e-04 -2.12391678e-04
      -3.92049318e-03 4.25030667e-05 8.13329010e-04 -1.53261150e-04
      1.41793324e-04 -4.54074587e-04 -2.21017329e-03 1.56017800e-03
      -5.38028951e-04 1.94826222e-04 2.42789421e-04 5.73799596e-04
      -6.48612913e-04 1.45540130e-03 9.35524586e-04 -7.06029532e-04
      1.09150412e-03 -4.34442845e-05 1.37010196e-04 1.07214891e-03
      1.85691359e-04 9.24498308e-04 2.02498841e-03 1.06516949e-04
      8.23610753e-04 -4.78043985e-05 2.11948602e-04 1.30207452e-03
      -3.51624505e-04 6.29793562e-04 -2.22906499e-04 -4.96758264e-04
      9.28519949e-05 -2.59929337e-04 -6.56909033e-05 -1.47779079e-04
      -3.30364346e-05 6.81980673e-05 3.70939779e-05 4.33247711e-04
      2.04711512e-04 1.67264283e-04 -6.29903952e-05 -7.07874482e-04
      6.99822849e-05 2.53607082e-04 1.88296050e-04 -2.06907556e-04
      -1.71081861e-03 -1.96640933e-04 -1.83130568e-03 -8.24743402e-05
      -2.03953270e-04 3.70977825e-04 -2.57738080e-04 -1.22610309e-05
      1.87750848e-04 1.79082417e-05 1.27691659e-04 -5.75193611e-04
      5.70180018e-05 4.84998134e-04 7.45955214e-04 5.67799070e-05
      8.21686117e-04 2.91562410e-05 -2.97907717e-03 -6.24203603e-05
      6.42917235e-04 -5.91604505e-04 1.09006313e-03 1.59034191e-03
      -1.68298394e-03 -1.97821428e-04 2.69392440e-05 -1.10181211e-03
      -1.00513070e-03 8.03905306e-04 -1.23511651e-03 9.98555683e-04
      -6.07590249e-04 4.72018990e-04 -4.54099529e-04 1.34926158e-04
      -2.03950531e-05 6.47047302e-04 1.68991613e-03 2.41781701e-04
      4.50735133e-05 1.23154387e-04 3.07073729e-04 2.96104117e-03
      -9.24404740e-05 -1.66976487e-03 2.43478012e-03 -8.74898862e-04
      -2.10656697e-04 6.97187716e-05 -6.48497080e-05 8.05677410e-05
      -2.40170357e-05 3.45287990e-04 6.85909545e-05 -1.78177189e-03
      -1.08374028e-04 7.23193662e-05 -1.71027805e-05 -1.72625732e-04
      3.43157044e-05 1.63702865e-03 1.18503645e-04 6.92354341e-04
      5.05837997e-05 5.24280658e-05 4.74321947e-04 -1.80229414e-04
      1.87482845e-04 -5.60979861e-05 -4.13370639e-04 5.82755929e-05
      1.98842699e-05 0. 1.58286304e-04 7.06688079e-05 1.66351547e-05
      -3.72050912e-04 -8.30680510e-05 -9.55364958e-04 -2.40001874e-03
      1.12384456e-04 -2.08456026e-04 1.84705947e-04 -2.94414349e-04
      1.16445735e-04 -9.24491687e-05 -1.04119116e-03 -5.33374608e-04
      -1.22985075e-04 1.96158842e-04 -1.08237460e-03 -1.00866891e-03
      -3.40691098e-04 4.11074987e-04 -3.36985424e-04 -4.43724683e-04
      4.60783078e-04 -1.21258992e-04 -3.18857637e-04 7.31273496e-04
      2.58406450e-04 1.14237168e-03 1.63866545e-03 -3.25462679e-05
      4.80135350e-04 1.75380163e-04 -2.54951214e-04 1.32268760e-04
      6.42069033e-04 9.49200403e-05 -3.11239884e-04 3.08996787e-05
      5.13159939e-05 3.42199237e-05 5.96609789e-05 -8.98912640e-06
      2.07297620e-04 4.00047429e-04 6.93290262e-04 3.59944184e-04
      -1.33774171e-04 -1.23267469e-04 -5.71596087e-04 -4.41226402e-05
      5.84960741e-04 -1.77237511e-04 -7.03231664e-04 9.46937944e-05
      -5.91005555e-05 4.73549269e-04 -1.19860291e-04 -3.68918612e-04
      2.80564651e-04 5.16514920e-05 3.18882776e-05 1.74273446e-04
      4.59566581e-05 1.71606807e-05 -1.98895577e-04 -8.68581337e-05
      -2.89009098e-04 -3.69869289e-04 -5.13591804e-04 -3.18823586e-04
      -6.83094375e-04 -1.59603509e-03 9.12346150e-05 -3.59929487e-04
      -5.14778774e-04 -5.46880532e-04 1.14585832e-03 -6.15770987e-04
      3.67268716e-04 8.64112284e-04 -3.44385247e-04 -3.29788250e-04
      -2.38493813e-04 -6.80256286e-04 -5.15989203e-04 1.13657885e-03
      -3.54677468e-04 -2.05199956e-03 -1.96594046e-05 -6.86198109e-05
      -1.71622809e-03 1.95150613e-03 -3.18046194e-04 4.36117494e-04
      -1.17437630e-05 -2.89938562e-05 -1.08726777e-03 8.12240251e-06
      4.95635206e-04 -1.77548430e-03 1.09734526e-03 -1.57831557e-04
      -4.02045032e-07 6.01976499e-05 -1.65813995e-04 -9.74794239e-05
      -2.14270636e-04 2.35867439e-04 4.66920377e-04 -3.55765194e-04
      -2.66272167e-04 -9.58532473e-05 1.11677521e-03 -3.65514861e-05
      -1.16779353e-03 -3.80781305e-04 -1.14278322e-04 -3.09994182e-04
      -1.65082063e-04 -6.11651456e-04 2.53981067e-04 -4.23251709e-04
      9.89348555e-05 -8.00820242e-04 2.38192733e-05 6.11573851e-05
      -5.85400312e-06 -7.90978011e-05 -1.82812815e-04 7.76616216e-05
      2.40209556e-04 -7.80330447e-05 6.80672645e-04 1.35941140e-03
      -6.36691266e-06 5.56310930e-04 2.56705360e-04 2.50690151e-04
      6.70953363e-04 1.03024265e-03 -3.69870540e-04 1.30330608e-03
      3.04712186e-04 4.12399240e-04 -3.13748278e-05 -1.82981210e-04
      1.62449607e-04 -4.99690534e-04 7.67510151e-04 5.13624691e-04
      -4.26275539e-04 7.27634935e-04 1.04870391e-03 -2.23800434e-05
      -8.64704780e-04 1.87424570e-03 1.21648912e-03 2.07697813e-04
      -1.92842999e-04 -4.58687246e-05 -2.30391437e-04 1.41403769e-04
      -1.07511191e-03 2.57553940e-04 -5.43771719e-04 1.83084892e-04
      -1.91628831e-04 -1.47101338e-04 7.00064411e-05 -3.25675574e-05
      8.55333565e-06 1.76024580e-04 -2.54522078e-03 2.55941821e-04
      -1.79726612e-05 3.71187343e-05 -6.88252854e-04 1.30052664e-04
      1.61562138e-03 5.92829485e-04 -4.75641922e-04 -7.02460238e-04
      1.15329756e-04 -9.63931598e-07 2.09176171e-04 -5.35963300e-05
      1.68702536e-04 4.06281644e-04 -1.05695726e-04 -5.49240394e-05
      -8.79217987e-06 1.32864719e-04 8.77506754e-05 -1.65501886e-04
      2.88399115e-05 2.98344996e-04 2.47115444e-04 -7.74016022e-04
      2.44163966e-04 -5.54350088e-04 -2.94506666e-04 2.35970598e-04
      1.74583329e-05 -4.95542772e-04 -1.43065467e-04 -9.47056047e-04
      2.56931147e-04 -1.93459957e-04 -3.27108515e-04 -6.44961779e-04
      -6.82747399e-04 1.37545494e-03 -3.55729338e-04 4.02315083e-04
      -1.54623733e-04 6.26212277e-04 1.85809296e-03 3.81307560e-04
      -6.00284780e-04 1.55147735e-03 -1.68200131e-04 -3.23233602e-04
      5.44927425e-05 8.25991992e-06 1.03765319e-03 -1.38370364e-04
      -1.33393297e-03 1.83715500e-04 1.50992139e-03 -1.59901625e-04
      -1.09661312e-04 -2.01200062e-04 3.23940738e-04 -4.85456949e-05
      1.64496698e-04 -4.91923856e-05 3.31242016e-04 2.47946038e-04
      4.41467710e-05 -4.19290591e-05 3.99740925e-03 2.17616122e-04
      -1.77402384e-04 3.26601497e-04 1.13083224e-03 -1.76036065e-06
      -5.03394722e-06 -2.71544995e-04 -3.48351568e-05 -6.47166235e-05
      -4.34039568e-04 -1.02058612e-03 -2.84356531e-04 1.40686549e-04
      3.23742934e-05 -1.31707639e-04 -1.39909534e-04 2.45113406e-05
      1.02618309e-04 1.67278980e-04 -9.18226026e-04 -2.56603630e-03
      -1.50349253e-04 -6.16307661e-04 2.98745552e-04 9.43215418e-05
      4.27669111e-05 -2.89958948e-03 2.82079587e-03 -4.19769822e-05
      -2.56083324e-04 -6.57348079e-04 -1.26508108e-04 -1.09099798e-04
      -1.30293600e-03 -2.22661975e-03 -2.18483573e-03 3.20955925e-03
      3.41887499e-04 2.09245621e-03 -1.02383527e-03 4.56730835e-04
      -1.51198602e-03 3.86851723e-03 -3.48844100e-03 1.26404833e-04
      -1.31558452e-04 -6.46322005e-05 -3.75875039e-03 -3.01389286e-04
      -2.78528570e-03 -7.35455309e-04 1.26108192e-04 4.26472601e-04
      2.45814765e-04 1.11971851e-04 -2.19090271e-05 8.88022769e-05
      3.32633936e-04 3.61762970e-04 -2.86886003e-03 3.35116201e-04
      -1.09189037e-04 -1.88247548e-04 -1.28682749e-03 -7.72541898e-05
      -6.62663835e-04 -2.65067647e-04 3.13341065e-04 2.94211961e-04
      1.20104696e-05 8.04524519e-04 3.18518694e-04 2.02137424e-04
      9.14084812e-05 1.88090035e-03 4.84482705e-04 -2.96725542e-04
      -4.84036100e-05 -6.61893646e-05 -5.51118392e-05 -6.16046163e-05
      3.30769864e-04 -5.58484899e-05 -1.54786103e-03 -1.01588201e-04
      -3.88401502e-04 1.11333713e-04 4.12441063e-04 5.06360200e-04
      3.44698565e-05 4.64652170e-04 -3.60696251e-03 2.25809822e-03
      -2.47108459e-04 -2.38318316e-04 2.84579373e-03 8.15637119e-04
      2.89693102e-03 9.78050288e-04 6.64830848e-04 -1.39977108e-03
      -9.36113007e-04 -2.61318218e-03 2.54731713e-04 2.06253564e-04
      1.08009750e-04 -9.22625350e-06 1.75953377e-03 -4.63001343e-04
      6.14368328e-05 -3.64177649e-05 4.70138941e-04 -1.66126178e-04
      8.12082842e-04 9.35524527e-04 5.20969799e-04 5.34907565e-04
      -1.98753278e-05 9.72377311e-05 -3.44375760e-04 5.77526844e-05
      3.56103905e-04 5.40993526e-04 1.00300845e-03 5.97741855e-05
      9.69342800e-05 8.02904469e-05 8.82611843e-04 1.79199606e-06
      2.46561365e-03 1.28200452e-03 -6.95066235e-04 -3.74404853e-03
      1.36769391e-04 -4.12051100e-03 -2.53930310e-04 1.07130341e-04
      -5.82430657e-05 -8.48444412e-04 2.49394769e-04 -2.47354968e-04
      -2.14067331e-05 -1.03789265e-04 3.31756637e-05 -7.33774732e-06
      -6.83680555e-05 6.47773923e-05 -1.91180399e-04 -5.76071907e-04
      -5.68633433e-04 -2.81667546e-03 -1.29360284e-04 -4.14741429e-04
      4.50281863e-04 -4.81376948e-04 2.98054074e-03 8.57603678e-04
      1.64193825e-05 -2.28848861e-04 1.32476620e-03 1.59288000e-04
      1.51412503e-03 4.16668132e-04 1.19368359e-03 -1.57671107e-03
      -1.32435327e-03 -1.35965878e-03 1.42421154e-03 1.09444358e-04
      -8.64702743e-04 -2.38879584e-04 1.81196455e-03 1.93032218e-04
      -1.83905548e-04 -1.23289661e-04 -1.14442094e-03 9.22038744e-05
      -1.41235034e-03 6.11176831e-04 1.12880650e-03 -2.07695499e-04
      8.95040939e-05 -6.45635155e-05 3.08482617e-04 -1.50424312e-05
      2.25715194e-05 3.07206996e-04 3.00823740e-04 -3.99626333e-05
      -1.98938331e-04 1.01895428e-04 1.39728223e-03 -6.33559976e-05
      -9.61722166e-04 1.40408170e-03 1.37933006e-04 3.53473384e-04
      1.29940614e-04 -2.44224048e-03 -5.18059860e-05 3.64097541e-05
      1.79383478e-05 -4.09714936e-04 -1.94915701e-04 -3.37772042e-04
      -3.13466953e-05 9.46077998e-05 -2.52106547e-04 -4.23687794e-07
      2.08856309e-05 2.01193546e-03 9.32119321e-04 1.04925747e-03
      -1.10745808e-04 -6.09583767e-05 1.97298923e-05 2.82897745e-05
      -4.70870000e-04 1.29934074e-03 1.35362920e-04 4.33029520e-04
      -2.73748563e-04 -9.35316166e-06 9.39114543e-05 -6.20069040e-04
      -1.85332273e-03 -3.91590438e-04 -7.39666211e-05 4.06271894e-04
      -1.85541605e-04 -1.11856998e-03 5.63990674e-04 2.13214138e-04
      -2.20445078e-03 -2.36775982e-03 1.34066015e-03 -4.76218993e-05
      -2.04154712e-04 3.86094645e-04 1.88460297e-04 -1.16445219e-04
      -1.47643569e-03 -9.35311022e-04 1.15605246e-03 1.70011903e-04
      1.93134489e-04 3.70115436e-06 6.55657961e-04 -1.61697481e-05
      -3.30204784e-04 -2.57368192e-05 8.30381876e-04 -4.06726205e-04
      -4.66635654e-04 5.47211457e-05 8.39451212e-04 9.02417378e-05
      1.67858059e-04 4.30259301e-04 2.48577795e-04 1.19080453e-03
      3.60469043e-04 -7.65417761e-04 -1.36803268e-04 -2.50377227e-04
      -8.91275122e-05 -2.15965812e-03 -3.00491774e-05 4.55238878e-05
      -1.77425736e-05 -1.74620000e-04 2.60045017e-05 1.18182897e-05
      1.02938648e-04 -8.35816434e-04 -1.03853003e-03 2.69809226e-03
      -1.34109141e-04 -8.13363818e-04 -4.16940980e-04 2.02807350e-04
      3.67990906e-05 -3.02819990e-05 4.54102556e-04 5.89382544e-04
      1.37162133e-04 1.11696520e-03 -7.58140159e-05 2.04254306e-04
      4.19914286e-04 1.40860316e-03 -1.82565447e-04 -2.74073973e-04
      3.40032828e-04 3.72615323e-04 1.12749857e-03 -1.19169208e-05
      4.81607858e-05 1.35714188e-03 -2.48799217e-04 1.04476248e-05
      8.70921649e-05 2.43998933e-04 -9.29933041e-04 3.40565603e-04
      7.49054365e-04 -1.19645549e-04 -5.02752373e-04 2.91293109e-04
      3.94681847e-05 4.67847531e-05 -1.46684106e-04 -2.42461988e-06
      3.59922706e-04 -5.91877033e-05 -9.62834223e-04 6.81986421e-05
      -2.09413920e-05 2.07084493e-04 1.11052778e-03 7.61610645e-05
      6.19154889e-04 5.98586746e-04 -6.29588787e-04 1.87298271e-03
      3.21805783e-05 2.49117642e-04 -5.92293072e-05 -1.16725954e-04
      1.17204827e-05 -3.58853140e-04 -6.21694426e-06 -1.01734389e-04
      1.37291900e-05 8.47912379e-05 2.31356928e-04 1.60281401e-04
      1.57078575e-05 -2.23252951e-04 -1.34604436e-03 -1.27804093e-03
      1.93492073e-04 -2.71124695e-03 -1.14028044e-04 7.35947178e-05
      5.12956816e-04 -4.27254330e-04 -2.62146263e-04 -5.70051838e-04
      -3.90849455e-05 3.19008162e-04 1.45065133e-04 -1.14973343e-03
      -1.80317234e-04 1.02553307e-03 -6.57452329e-05 8.08450626e-04
      4.66306403e-04 2.43521790e-04 1.00048992e-03 6.85497303e-04
      1.46051135e-03 1.14738371e-03 -1.30841124e-03 -2.70314369e-04
      -2.19887479e-05 1.28996428e-04 -9.15405748e-04 -2.16331464e-04
      6.39927574e-04 5.37344495e-05 -1.10293669e-03 1.02362290e-04
      -2.62548740e-04 -1.18320138e-04 1.39428827e-04 -4.31946028e-05
      1.33393432e-05 6.48012618e-04 -6.53297699e-04 -8.56179895e-07
      2.97789688e-06 1.26550702e-04 3.08676157e-04 -7.76709858e-05
      1.23255292e-03 4.91678657e-04 -4.79026727e-04 -1.38813618e-03
      -9.64446081e-05 -1.05568266e-03 -8.02077775e-05 -3.66721406e-06
      6.66768465e-04 1.18186371e-03 3.34110984e-04 1.98515932e-04
      4.37728377e-05 2.51413585e-05 2.96929247e-05 9.57641605e-05
      -1.38756266e-04 2.54427927e-04 -5.07275166e-04 1.00760162e-03
      3.47823458e-04 -1.54652761e-03 2.00630137e-04 -2.44746130e-04
      -1.04783416e-04 -1.65281282e-03 9.87174688e-04 -8.09767691e-04
      -5.27266588e-04 -1.42005338e-05 9.72602109e-04 -1.48689651e-04
      -9.41705803e-05 -2.09710584e-03 -4.07596826e-06 -1.54955161e-03
      -1.30507757e-03 1.21586712e-03 -1.66972139e-04 3.23450688e-04
      9.27988149e-04 -3.29288800e-04 -9.44264757e-05 1.26703409e-04
      -3.02401546e-04 -6.03742883e-05 -3.75463802e-04 7.56812151e-05
      1.65811594e-04 -4.52252687e-04 3.32423573e-04 -3.49580601e-04
      -6.66752167e-05 -2.38330627e-04 -3.24284512e-04 1.29227221e-04
      -2.58999324e-04 2.75702536e-04 1.20370439e-03 8.45629620e-05
      -1.37556257e-04 -2.32806749e-04 6.41036895e-05 -2.48463330e-04
      1.53809990e-04 1.57942483e-03 6.99385069e-04 -5.43672824e-04
      3.90467787e-04 -1.46611757e-03 -3.32410709e-04 4.20289027e-04
      -3.10068867e-06 -5.03882766e-05 2.14853455e-04 -3.48772883e-04
      9.40581085e-05 3.08943912e-04 -2.50668993e-04 -6.67081331e-05
      -2.64243194e-04 -7.07625702e-04 1.23189180e-03 5.07748453e-04
      1.30868997e-04 1.85709607e-04 3.48507252e-04 -1.75386289e-04
      -1.16362949e-04 -4.68016427e-04 8.29479017e-04 4.09802044e-04
      4.36950300e-04 7.85138051e-04 -1.62036147e-03 -3.40115599e-04
      -1.05515926e-03 6.53138326e-04 1.02010695e-03 -5.82490640e-04
      1.83047916e-04 1.98153150e-03 -8.60584958e-04 -2.28366862e-05
      -2.12517552e-04 -6.24862558e-04 -3.97606142e-04 -7.84445438e-05
      3.40492661e-05 2.69167249e-05 -6.79063145e-04 6.94909177e-05
      -2.76091363e-04 1.92340463e-04 1.40795644e-04 -3.13704630e-04
      -8.95344056e-05 -1.14115915e-04 1.48159006e-05 -3.40596671e-05
      1.92508276e-04 -1.40761649e-05 7.97056186e-04 -1.18327545e-04
      2.40181806e-04 -4.14042966e-04 -2.68747797e-03 -2.51374237e-04
      -5.39969362e-04 -6.64292951e-04 2.57722044e-04 1.05430619e-04
      2.41614922e-04 -5.09234844e-04 -2.45003059e-04 -3.67731809e-05
      -1.03231054e-04 -6.22139079e-04 -6.12232761e-05 1.96314257e-04
      -4.89577214e-05 1.23804173e-04 -1.35962218e-05 2.41794114e-04
      -8.79547297e-05 2.95573380e-04 1.02177855e-05 -3.09626135e-04
      -8.32267906e-05 2.60346744e-04 5.15530468e-04 -3.58874204e-05
      -6.10819727e-04 -1.55216432e-03 1.27995934e-03 3.23189568e-04
      9.51603652e-05 7.47396494e-04 1.20234641e-03 7.34189700e-04
      7.19588352e-05 1.69992039e-03 9.93354479e-04 -3.27770860e-04
      -1.36040500e-04 -8.48674797e-04 2.66290474e-04 -2.97237304e-04
      5.07836870e-04 5.66108618e-04 1.03159901e-03 2.24595249e-04
      2.66170227e-05 1.37744632e-04 1.33875199e-03 2.75924394e-04
      9.27773130e-04 1.24360644e-03 4.06380277e-05 -1.69879946e-04
      3.98449192e-04 1.62467666e-04 -1.62734956e-04 1.02247020e-06
      -3.20391875e-04 -3.59068712e-04 -1.17870152e-03 3.30090465e-04
      2.29634214e-04 -3.12089280e-04 5.59905369e-04 2.23016468e-04
      2.27670791e-03 8.38555861e-04 -2.96970713e-04 -3.37365229e-04
      -4.07034386e-05 -2.66226823e-03 -4.68195358e-04 1.73138062e-04
      1.89141661e-04 -1.09927473e-03 1.76950402e-04 5.68927717e-05
      -4.28794920e-06 2.44904513e-05 -2.94457888e-04 -2.01371455e-04
      -1.52392677e-04 3.78549448e-04 1.05529162e-03 -1.50893276e-04
      -2.80519074e-04 2.72250676e-04 -3.13141820e-04 4.74942181e-06
      1.72921893e-04 -1.05429406e-03 -1.68665731e-03 3.48891655e-04
      -1.03665523e-04 -5.34025428e-04 -1.34738372e-03 -8.00687820e-04
      -1.42827441e-04 6.30015158e-04 -1.01405964e-03 -4.69421648e-04
      1.12056485e-04 1.90297968e-03 -8.94577606e-05 4.13728449e-05
      3.57757235e-04 3.34356306e-03 -6.52653107e-04 7.63977368e-05
      1.92352854e-05 -1.33942434e-04 -2.17442313e-04 -2.17471770e-05
      -1.54986326e-03 1.04737119e-03 -4.91684419e-04 2.04373893e-04
      1.02089623e-04 -1.61283460e-04 -9.56617077e-05 -2.13382918e-06
      1.07328829e-04 -5.06761484e-04 -1.96106220e-03 -2.89316871e-04
      -3.24170323e-05 -3.80072335e-04 -9.47656517e-04 2.80455279e-04
      -5.74052101e-04 -5.02765652e-05 8.08978279e-04 3.76714888e-04
      -1.62031774e-05 1.58052717e-03 2.22201270e-05 1.52647845e-04
      -2.54361541e-04 3.13653378e-03 4.07164916e-04 -1.24238402e-04
      2.83045974e-05 8.25913157e-05 9.95335286e-05 1.48811421e-04
      -1.21045305e-04 7.12504669e-04 1.05758768e-03 -5.81678585e-04
      -2.05177945e-04 2.14664894e-03 -1.09208166e-04 -3.24636872e-04
      -3.14738456e-04 5.78089559e-04 -2.83804722e-03 7.46076257e-05
      3.75711563e-04 -7.24936195e-04 -1.22085924e-03 -1.44251785e-03
      -5.78173262e-04 -8.87371076e-04 -5.16438522e-05 -1.05661085e-04
      -9.59973666e-04 -6.01774198e-04 1.52128236e-03 -2.51753838e-04
      2.51837162e-04 -8.28105491e-04 -4.73688211e-04 -1.79499169e-04
      5.27765915e-05 1.55428963e-04 -1.22499198e-03 1.38817966e-04
      1.58449961e-03 -1.72130612e-03 -1.23698774e-04 1.11243498e-04
      -1.00693636e-04 -1.42293196e-04 8.18913904e-05 8.55299459e-06
      3.09491297e-04 5.80421074e-05 1.48590584e-03 1.13042857e-04
      -1.89696526e-04 -9.11972675e-05 -5.12942020e-03 5.02029725e-04
      -1.47445733e-03 1.75199274e-03 -7.59230716e-06 5.22518181e-04
      -1.92286607e-04 -1.82348420e-03 -2.61896930e-05 4.82939686e-05
      -3.58094811e-04 1.34777511e-05 -9.46478322e-05 -7.65810764e-05
      3.12422853e-05 -8.95928169e-05 2.78316875e-04 -2.55542545e-04
      -1.19509801e-04 -1.13275356e-03 3.17934342e-03 9.81490710e-04
      -1.32867921e-04 1.72561104e-03 2.18364177e-04 5.33157494e-04
      2.14984131e-04 -1.34562829e-03 1.31275912e-04 9.18776263e-04
      2.93104640e-05 7.63973512e-04 1.07664010e-03 1.43971076e-04
      1.33135915e-03 -9.64315259e-04 4.95360058e-04 -8.69016920e-04
      -4.42792196e-04 2.78743682e-04 1.85376219e-03 -2.50276265e-04
      3.53098498e-04 -6.52087969e-04 6.56091783e-04 -3.20934378e-05
      -2.22802300e-05 -1.79392635e-04 3.62585473e-04 3.27298294e-05
      -6.48030429e-04 1.35618335e-04 8.86916969e-05 3.30465904e-04
      -9.69490211e-05 -1.57295392e-04 -3.66645749e-04 1.95676475e-05
      6.62264893e-06 4.67415557e-05 -6.41958672e-04 -8.29294004e-05
      -3.38646896e-05 -3.59715887e-05 -2.99189735e-04 2.81890156e-04
      -1.54350942e-03 7.21929420e-04 -7.04810256e-04 -8.11317368e-05
      5.05811360e-04 1.36884826e-03 -1.35130147e-04 -8.38199121e-05
      -1.33273046e-04 -9.45297536e-04 1.22519414e-04 -4.52172098e-04
      -3.58995894e-05 -1.18388802e-04 1.97584784e-04 -1.19543169e-04
      -2.11437815e-04 1.11069414e-03 3.22171720e-04 1.89463783e-03
      -3.86778644e-04 9.29157948e-04 1.98110545e-04 -2.47706019e-04
      -7.97846878e-05 -5.17831300e-04 3.89710738e-04 6.07245194e-04
      -2.34317209e-04 -5.24972915e-04 -1.47198630e-03 -8.77999817e-04
      -2.77258659e-04 6.83432678e-04 1.49270589e-03 7.38645147e-04
      -9.27344256e-04 -1.51759002e-03 -1.43481710e-03 -3.91025620e-04
      2.78063060e-04 -9.57064680e-04 3.96556570e-04 1.09606473e-04
      -3.15758807e-04 2.21566981e-04 6.19618804e-04 -3.13044031e-04
      -1.04717945e-03 6.89614564e-04 5.07756136e-04 -8.44867245e-05
      -9.71946138e-05 3.34311335e-04 -1.55565474e-04 5.66616254e-05
      7.76905727e-05 -4.62329881e-05 6.11765718e-04 3.84262858e-05
      1.38967604e-04 1.58272655e-04 1.01403421e-04 -1.13822214e-04
      -9.66253749e-04 -5.45255898e-04 5.59615786e-04 -7.28374289e-05
      -3.93919880e-04 6.30818657e-04 -1.05614752e-04 8.90054507e-05
      3.48736212e-04 -1.39326684e-03 2.78565767e-06 7.30518295e-05
      -6.64794788e-05 -1.38376026e-05 1.58424722e-04 2.87104864e-04
      -3.01618857e-04 -8.50028242e-04 1.67705351e-04 6.25965477e-04
      2.53037782e-04 1.16913952e-03 -2.06542434e-04 -3.55043827e-04
      1.85571316e-05 4.88207617e-04 -8.95192381e-04 -5.71861281e-04
      1.62399519e-04 3.59289203e-04 3.39070466e-05 5.87958260e-04
      9.02409782e-04 6.49125956e-04 -1.46636693e-03 -1.08425936e-03
      -1.24405941e-03 -7.35014793e-04 2.85459071e-04 1.37142306e-05
      5.74521488e-04 1.92995032e-03 1.88073187e-04 1.66813814e-04
      2.47353717e-04 -1.62364100e-04 -1.08979375e-03 -1.11935457e-04
      5.96673461e-04 -1.75877158e-05 1.42100721e-03 3.86249420e-04
      1.14357666e-04 -2.71840283e-04 1.33908543e-04 -1.97872432e-05
      1.61333111e-04 -1.62597105e-04 3.17426771e-03 -3.18916107e-04
      4.04694001e-05 -1.55248854e-04 -8.92830503e-05 -2.85972405e-04
      7.66243727e-04 4.57885093e-04 1.03270099e-03 -8.99786479e-04
      -1.80532632e-04 1.94270746e-03 -4.44205580e-05 2.09128222e-04
      -1.17354502e-04 -1.56602554e-03 -1.52026230e-04 4.70458908e-05
      -4.99369598e-05 -3.81142454e-04 -2.75966828e-04 4.44302714e-04
      3.70437163e-04 -1.45332160e-04 -2.78499996e-04 7.84071861e-04
      -7.30596803e-05 -7.65098725e-04 -4.80667804e-04 -2.46426120e-04
      -1.11283589e-04 -4.22334648e-04 -2.15727618e-04 -8.97929829e-04
      -1.81084779e-05 -1.02707907e-03 3.39492399e-04 1.18618307e-03
      -3.06846428e-04 -1.14373781e-03 1.59675939e-04 4.45730664e-04
      8.93365723e-05 -7.28399900e-04 -3.81930120e-04 1.55515576e-04
      -1.46573337e-04 8.04848445e-04 -1.19501958e-03 9.33360061e-05
      2.25913594e-04 8.16531829e-05 9.74968250e-04 1.72451342e-04
      2.88398680e-03 8.33294995e-04 2.05709468e-04 1.23551465e-04
      1.03455051e-04 6.64002655e-05 4.32960078e-05 -2.03090585e-05
      -2.47927004e-04 2.61984620e-04 -5.68143791e-04 -2.44365394e-04
      -1.60013064e-04 -1.88171703e-04 -2.63739820e-03 1.91903091e-04
      1.91023469e-03 -1.35693490e-05 -3.66271182e-04 1.70358544e-04
      1.22695841e-04 -1.04418735e-03 -2.54499064e-05 -2.13329768e-04
      1.77065580e-04 -4.22646444e-05 1.38988456e-04 -1.46518651e-04
      -3.83850165e-05 -1.17124102e-04 -6.40236904e-05 -9.05043416e-05
      -2.27072323e-05 6.74807758e-04 5.11945924e-04 -1.82271167e-03
      4.67736943e-04 5.78826257e-05 2.16904285e-04 -1.65516933e-04
      -2.01992254e-04 1.90996347e-04 -4.80113027e-04 -3.55733180e-04
      1.41425786e-04 1.59074043e-04 -7.46440084e-04 2.89385731e-04
      -4.28043451e-04 -2.43377028e-04 -1.68327196e-03 -2.20150891e-04
      -9.39537480e-04 -9.43445892e-04 -9.80468350e-04 -1.51001586e-04
      8.43780523e-04 -1.36098708e-03 -4.28290718e-04 -7.78423200e-05
      -6.40714861e-05 -1.22345245e-05 -7.38043673e-05 6.64193503e-05
      9.62247665e-04 -2.20692426e-04 -5.18076064e-04 -8.86614725e-05
      -3.49308742e-04 -2.41038695e-04 3.17441678e-04 7.22563243e-07
      6.42153609e-05 -4.33796842e-04 4.65629768e-04 -2.08883095e-04
      -8.18310000e-05 1.14870163e-04 -7.80924864e-04 2.77110114e-04
      -1.72579341e-04 -7.54968321e-04 7.75875873e-04 2.73830316e-04
      -5.20919457e-05 1.89910177e-03 -5.19652749e-05 -1.29803142e-04
      -4.57913666e-05 2.29799392e-04 -3.76439675e-05 1.94807246e-04
      -9.06231435e-05 5.04800009e-05 -7.07446598e-05 -1.85427871e-05
      2.63663416e-04 2.99784559e-04 -1.48418092e-03 7.90970225e-04
      -4.74244771e-05 1.14920828e-03 3.37510923e-04 2.81143642e-04
      7.89178710e-04 -7.32693414e-04 3.50596174e-03 -5.60406130e-04
      2.71042172e-05 -8.30043209e-05 9.36201133e-04 -7.18310985e-05
      -2.39628251e-04 -4.14816488e-04 -1.77442131e-03 -1.21513882e-03
      -2.97950446e-05 2.74467078e-04 -1.37553201e-03 1.92523912e-05
      -2.54928891e-04 -2.53634015e-03 -5.78835257e-04 1.21937119e-04
      9.47063163e-05 9.10010131e-05 2.37181885e-04 4.42725403e-04
      2.04841397e-03 -1.23562306e-04 -3.69233167e-05 1.38491479e-04
      -9.63861312e-05 2.25896147e-04 3.31130548e-04 -6.51111914e-05
      -1.33761132e-04 1.83829790e-04 2.19817087e-03 -1.70529995e-04
      6.82835453e-05 -3.07628034e-05 7.92965759e-04 1.51396322e-04
      -1.62163423e-03 1.97002853e-04 2.08996440e-04 3.51075694e-04
      1.14522933e-04 9.14926932e-05 2.18071626e-04 -1.96921319e-04
      1.35763359e-04 1.52189552e-03 -1.55179980e-04 -6.40725411e-05
      -5.16572327e-05 1.59950461e-04 2.81437155e-04 -2.61181522e-05
      -4.65290905e-05 8.31051380e-04 -3.66760010e-04 -1.60929660e-04
      -1.19437471e-04 -1.31811027e-03 2.63618538e-04 -8.11151622e-05
      3.68834517e-05 -1.05135376e-03 1.48222374e-03 -3.73738440e-04
      5.02589428e-05 -1.86948426e-04 8.40502616e-04 2.24491105e-05
      -1.60932913e-03 1.62481726e-03 4.40386648e-04 -9.40120954e-04
      4.41732373e-05 7.72208674e-04 7.24983518e-04 -2.45048723e-04
      -2.13359162e-04 1.25918654e-03 2.53829639e-04 1.15737843e-04
      -2.24219366e-06 1.84713965e-04 5.23675990e-04 -2.15365202e-04
      8.75310681e-04 -1.61654572e-03 -1.22053339e-03 5.38142485e-05
      2.30041886e-04 -1.10995334e-05 4.86077661e-05 2.13520639e-06
      -7.91487982e-05 2.91140226e-04 5.12826489e-04 -3.13482306e-05
      3.06986913e-05 -4.94639316e-05 3.14912968e-03 6.80669564e-06
      -8.27191616e-05 7.07756961e-04 8.56505067e-05 1.10988622e-04
      -2.37453642e-04 -7.59858871e-04 -2.79078580e-04 1.51524990e-04
      1.10088862e-04 5.62379602e-04 -7.32637563e-05 -7.15293863e-05
      8.54895188e-05 -2.80101040e-06 -3.72393115e-05 -2.77328334e-04
      1.01489575e-04 7.40750984e-04 -2.59864517e-03 -1.42614869e-03
      -3.88412474e-04 1.20974873e-04 -9.45180509e-05 -5.22243827e-05
      9.83129605e-04 1.84799064e-04 -8.74944380e-04 3.56161589e-04
      -2.08825382e-04 -5.19159250e-04 1.22445356e-03 -1.09031994e-03
      -8.10204947e-04 -5.36095060e-04 8.19836714e-05 -3.05387512e-04
      -7.99051311e-04 -1.16003898e-03 4.75152221e-04 -3.22714797e-04
      5.99559746e-04 1.35125651e-03 2.04018666e-04 -3.30245530e-04
      2.87555013e-04 1.71418636e-04 -9.78546101e-04 -5.58520696e-05
      -6.92664122e-04 9.19968821e-04 -2.86516442e-05 -1.15980351e-04
      -4.56173038e-05 -7.74174405e-05 1.61478005e-04 1.05748470e-04
      -1.87728481e-04 -1.45241516e-04 -3.06267728e-04 2.23059236e-04
      -4.53254215e-05 -3.64008192e-05 -4.83950716e-04 2.04987460e-04
      6.14906894e-04 -7.94897322e-04 -2.71213285e-05 6.90684188e-04
      2.97802180e-05 -1.10200245e-03 3.47274879e-04 -3.82220933e-05
      3.54247895e-04 -1.10025937e-03 -1.54778372e-05 -7.69766120e-05
      -2.17496090e-05 4.89574813e-05 -3.46230780e-04 -6.71172675e-05
      -1.30419154e-04 2.28378733e-04 -1.11507026e-04 6.44294079e-04
      3.18494596e-04 1.06910488e-03 3.77522170e-04 -2.94013211e-04
      9.01812804e-04 -5.72346791e-04 -1.74763228e-03 2.00560651e-04
      -5.61536035e-05 -7.95697269e-05 9.20079183e-04 7.19271135e-04
      -2.89324729e-04 7.36546644e-04 -1.59547559e-03 6.35521952e-04
      5.60289554e-05 4.67930658e-04 4.80542731e-05 2.05516815e-04
      2.24235235e-03 -1.51174236e-03 1.75568939e-03 -2.48835277e-04
      5.98067891e-05 -2.11954102e-04 9.12949792e-04 3.01339693e-04
      1.48250384e-03 -9.72458583e-05 -2.18903690e-04 3.90669084e-05
      -1.64901630e-05 -4.05934079e-05 8.38409644e-04 1.13013984e-05
      -6.48370115e-05 2.85490241e-04 -1.05750712e-03 1.72674103e-04
      1.62988872e-04 -8.88731229e-05 7.76006491e-04 -3.47832683e-04
      8.20415968e-04 4.72518703e-04 -1.06987101e-03 1.23306888e-03
      3.01144064e-06 3.02843458e-04 -1.19557742e-04 2.95655685e-04
      5.58419677e-04 -1.05637230e-03 4.76312744e-05 -5.35228392e-05
      2.72156321e-05 3.06683069e-05 4.38464267e-05 -7.38510425e-05
      -3.90798959e-05 4.80013317e-04 -1.76375953e-03 -1.96840591e-03
      6.96581556e-05 -1.20984530e-03 2.92707497e-04 -1.83229160e-04
      6.69890898e-04 -4.69423132e-04 -8.01236660e-04 -1.31680397e-03
      -6.73154209e-05 2.40428111e-04 -6.47835841e-04 1.47604092e-04
      -2.69444805e-04 4.20615223e-04 -1.77813193e-03 -1.09286560e-03
      -7.76933099e-04 -1.25479838e-03 -3.00998043e-04 2.37647298e-04
      2.74455268e-03 -9.58155259e-04 -1.71761887e-04 -2.54242295e-05
      -3.31136152e-06 -7.10135864e-05 -1.72275060e-03 1.20295503e-04
      4.73801483e-04 4.59819799e-04 5.61804278e-04 -3.60768958e-04
      -3.02392262e-04 -1.06372790e-04 1.27551408e-04 -3.09531424e-05
      -1.85404351e-04 -1.81523588e-04 9.41933686e-05 -1.96117093e-04
      3.84976243e-04 -7.99015106e-06 1.33834430e-03 -1.88746824e-04
      -1.58029201e-04 4.03675891e-04 1.12677510e-04 -1.70268514e-03
      -4.19265816e-05 -9.79208970e-04 -6.72392780e-05 -1.11196741e-05
      5.92449331e-04 -1.15944119e-03 1.83232551e-04 1.32634101e-04
      -1.51220129e-05 -2.70317505e-05 -2.49377754e-05 1.92317748e-04
      1.79938899e-04 -3.41796462e-04 2.41951784e-03 1.26256992e-03
      6.18113409e-05 -1.20343815e-04 -7.28662068e-04 -1.88409918e-04
      8.45981413e-04 -1.67846156e-04 2.66724062e-04 -4.30252810e-04
      6.61723097e-05 4.06234249e-05 7.44337682e-04 -1.02995393e-04
      -2.26118384e-04 2.16192938e-03 7.95451284e-04 -4.03912793e-07
      -4.25331848e-04 1.11907197e-04 1.76600777e-04 3.66315289e-05
      3.41974664e-03 5.10489917e-04 -8.40919092e-04 2.53787613e-04
      1.47753512e-04 -2.27822584e-05 -1.45053270e-03 3.05752357e-04
      -6.99258759e-04 -1.51306309e-03 -3.17856000e-04 -2.73847691e-04
      -2.30208403e-04 -2.19945432e-04 1.15898354e-06 8.06684875e-06
      5.20405520e-05 -1.20894736e-04 1.62528828e-03 -5.85257367e-05
      -2.85178074e-04 1.69539882e-04 -2.05598818e-03 1.78082031e-04
      -6.40169892e-04 -2.87085335e-04 -2.78601743e-04 1.17407099e-03
      6.76923810e-05 -1.77834096e-04 2.55730090e-04 -1.19275304e-04
      2.23463503e-04 6.08453236e-04 -6.70121008e-05 9.86665036e-05
      -6.39906357e-05 -6.73305331e-05 9.30726128e-06 -1.11497189e-04
      -1.27739346e-04 2.04564087e-04 -6.85750449e-04 9.04509579e-05
      3.74420197e-04 -5.53054211e-04 -4.20122669e-04 -9.94573347e-05
      4.32848319e-04 -6.39253587e-04 8.36575578e-04 3.83788079e-04
      1.01837511e-04 -5.62283501e-04 1.11638044e-03 -2.69256816e-05
      -1.01147010e-03 6.83042919e-04 -3.74333285e-05 -1.87597121e-03
      -1.38626274e-04 -3.13932134e-04 -2.47950782e-04 1.15130999e-04
      -4.57613118e-04 2.89802614e-04 -3.18861741e-04 -2.03906064e-04
      -5.51315490e-04 2.75859406e-04 -3.46748639e-05 -1.06564112e-04
      -6.61103113e-04 -8.04935116e-04 -7.38977687e-04 -3.49248992e-04
      3.31568299e-04 -5.26522454e-05 1.75771624e-04 1.31212830e-04
      -3.85468680e-04 2.02250289e-04 -7.96074513e-04 -2.17473367e-04
      -2.58872256e-04 -4.44178178e-04 -8.44636175e-04 1.80395975e-04
      1.20492338e-03 -6.79119432e-04 1.13995935e-04 1.86124211e-03
      5.71607845e-04 2.54693121e-04 -3.44779663e-04 -2.41108239e-04
      -5.14347805e-04 8.30974721e-04 -1.59812538e-04 -4.00292811e-05
      -8.35212268e-05 2.04430631e-04 4.62934440e-05 7.12225119e-06
      -2.31327984e-04 -5.88293129e-04 -1.46687299e-03 -1.32379544e-04
      2.93235644e-04 1.72243197e-03 -4.35994734e-04 1.34584756e-04
      2.90439784e-04 1.43960537e-03 8.97173013e-04 -4.70111350e-04
      1.13266324e-04 3.18239938e-04 2.01859907e-03 3.40909173e-04
      1.67505241e-05 8.45656497e-04 1.13576534e-04 7.18985917e-04
      6.35126547e-04 -7.15387170e-04 -7.10188411e-04 9.19672893e-05
      -1.25120895e-03 2.37961227e-04 -1.33916584e-03 -1.73150038e-04
      -2.54830607e-04 -2.27880897e-04 1.55440182e-03 -1.80211093e-04
      1.31548999e-03 -5.76994731e-04 -6.04615256e-04 2.07079211e-04
      -1.67930062e-04 -7.54479333e-05 2.00132740e-06 1.86442267e-04
      1.91932253e-04 7.88065081e-05 -3.46283457e-04 -1.50753505e-04
      7.73708089e-05 2.29023441e-04 -1.29540148e-03 -4.61335694e-05
      8.11046804e-04 -6.11289986e-04 1.52382694e-04 2.46527628e-03
      2.13217892e-04 3.98354969e-05 -2.30195583e-04 1.05920590e-04
      3.09008552e-04 4.00194345e-04 2.48820434e-04 2.35906118e-04
      -3.16436017e-05 -6.61776576e-05 1.82773627e-04 9.93714129e-05
      -3.46479443e-04 1.03754841e-03 -2.25838530e-03 8.26500414e-04
      1.10746885e-04 5.28484408e-04 -2.80967040e-04 -8.62904271e-05
      8.06774478e-05 9.93689988e-04 -4.72285377e-04 -5.87411669e-05
      -4.69750339e-05 -9.09048656e-04 -1.22170430e-03 1.34806993e-04
      3.84875428e-04 -2.65482580e-04 1.15462358e-03 2.40697269e-03
      4.20038035e-04 -1.11529708e-03 -1.80731367e-04 3.05085414e-04
      4.52517270e-04 -1.31315179e-03 -2.20974907e-04 -1.09696070e-04
      -2.91378412e-04 -9.57562952e-06 -1.06814387e-03 -1.14296497e-04
      -1.90681720e-04 8.31371173e-04 3.84966261e-05 -1.96434208e-04
      -8.13019233e-06 9.91505876e-05 -2.18360292e-04 -1.70701496e-05
      3.76366283e-04 -5.59986293e-05 -9.59278259e-04 2.76992883e-04
      1.19935263e-04 1.63481775e-04 1.54370198e-03 -1.93789965e-05
      1.22165878e-03 1.20153993e-04 -8.15396124e-05 -9.38751211e-04
      -4.38459450e-04 -8.21422494e-04 -2.27929486e-04 -1.36158225e-04
      -4.13677801e-04 -3.46777379e-04 2.27336714e-04 4.10640932e-05
      -6.79441437e-05 8.58104540e-05 6.32442097e-05 1.70401792e-04
      2.12207509e-04 7.47656857e-04 -4.20784199e-04 1.39311643e-03
      1.86300647e-04 -1.11091897e-04 -4.35180846e-04 -6.16369944e-05
      3.93061375e-04 -5.08242345e-04 -5.95211517e-04 5.26877375e-05
      9.19418744e-05 3.09592375e-04 6.29288188e-05 -6.33970019e-04
      -1.35466922e-03 1.14127775e-04 -1.24395976e-03 -5.78204752e-04
      9.69185901e-04 -5.19543755e-05 -6.57497949e-05 -5.89423289e-05
      1.12956169e-03 2.64127506e-04 -7.01617857e-04 2.90500175e-04
      -2.56668827e-05 1.97337809e-04 -2.62141490e-04 -1.39549447e-05
      1.50145672e-03 8.48278170e-04 -7.77227688e-05 -3.30914103e-04
      1.42079109e-04 7.82902571e-05 -1.34466522e-04 -5.29420904e-05
      -2.75071332e-04 -8.29000346e-05 -1.29980408e-05 1.23417733e-04
      -1.49755026e-04 -1.47065817e-04 4.40151111e-04 9.44637286e-05
      -1.52143475e-03 -9.12006188e-04 -1.05208084e-04 4.12281428e-04
      -2.21520473e-04 -4.14976326e-04 -1.27454856e-04 -4.73294895e-05
      -3.28481517e-04 -2.19625625e-04 2.07249846e-04 -3.83322185e-05
      -3.44816217e-05 3.42203537e-04 1.24110447e-04 5.45862204e-05
      -2.90396361e-04 -1.36038684e-03 1.77119102e-03 -8.60791944e-04
      2.59889086e-04 1.04293984e-03 -2.97752034e-04 4.36943606e-04
      1.05278923e-04 7.15265458e-04 1.07982929e-03 1.30017730e-03
      2.00862880e-04 1.31138935e-04 -1.00703281e-03 3.99639481e-04
      -1.95036782e-03 -6.58830279e-04 8.93240387e-04 9.81202116e-04
      -1.98683818e-03 -7.92871288e-04 3.01968626e-04 9.69312714e-06
      -1.68907263e-05 9.63935337e-04 2.58012617e-04 -8.29034907e-05
      -2.52724800e-04 -1.08019107e-04 -5.04505413e-04 2.66464835e-04
      1.59982475e-03 7.31073378e-05 1.05572908e-04 -1.50570908e-04
      -3.71441361e-04 1.96079389e-04 -2.21353315e-04 -2.08659054e-04
      2.67284049e-05 -8.49619246e-05 1.89781189e-04 -3.71484311e-05
      -2.02138981e-04 3.62703249e-05 -6.85155974e-04 5.73298486e-04
      -9.01111634e-04 -5.22176037e-04 1.05096558e-04 -5.51272358e-04
      -1.83983822e-04 2.01981049e-03 -7.35316062e-05 4.68307699e-05
      -2.01968418e-04 5.64782422e-05 5.57533485e-06 2.68027507e-04
      5.74137994e-05 -5.42720256e-04 -9.09559385e-05 1.41934390e-04
      -1.73567765e-04 -1.38756850e-05 -4.03381622e-04 1.21270923e-03
      -1.06201594e-04 -3.47737776e-04 2.28805642e-04 -2.24896823e-04
      3.99614510e-04 1.28247915e-03 -4.43079567e-04 1.70749609e-05
      8.66869741e-05 7.97951798e-05 -1.93979242e-03 -1.38239085e-03
      -8.15663196e-04 2.14097765e-03 8.17777473e-04 -4.19515971e-04
      -1.62982207e-04 6.16655918e-04 6.10317395e-04 -2.10741317e-04
      8.17817927e-05 -3.39114747e-04 -3.24479683e-04 -5.46945201e-04
      -9.00183513e-05 5.00687456e-05 9.32645635e-04 -1.83126860e-04
      1.62209803e-03 -3.03156034e-04 7.34644855e-05 -8.30068675e-05
      3.64541949e-04 -9.75711591e-05 -2.94560334e-04 -8.91978852e-05
      2.67651340e-04 -2.64825940e-05 -5.01704926e-04 -4.97401576e-04
      -1.08782360e-05 -4.56617126e-05 2.79996987e-03 1.40969409e-04
      2.75625335e-03 -8.08528974e-04 -3.86258849e-04 -2.07862188e-03
      5.11510880e-05 -4.35181602e-04 9.78219396e-05 -2.02562253e-04
      3.82112994e-05 3.63350322e-04 -1.75942725e-04 3.43461055e-04
      -4.51770247e-05 9.29055605e-05 -1.40980934e-04 -1.73023131e-04
      -2.14338550e-04 -3.38764949e-04 8.34731036e-04 -3.49614333e-04
      -3.87110340e-04 -1.20407261e-03 -3.22760228e-04 -2.71628523e-04
      -1.35577779e-04 -4.51955450e-04 1.57865591e-03 -5.41095273e-04
      9.63964485e-05 -6.81240228e-04 1.14270393e-03 -9.60919890e-04
      -1.11289811e-03 -1.28784901e-04 -2.06993442e-04 2.69428157e-04
      -4.09456843e-04 -9.05956898e-04 7.49053142e-05 6.78384968e-05
      -1.31701143e-03 1.96536910e-03 3.14276607e-04 1.69827908e-04
      8.32285004e-05 -3.98757766e-05 -8.06711672e-04 -9.44818967e-05
      -3.10846168e-04 7.80824703e-05 4.75575886e-04 1.41466619e-04
      6.79483492e-05 3.25920206e-04 1.31104043e-05 4.21382974e-05
      -2.53781589e-04 -4.91031205e-05 3.87500215e-04 -1.49417261e-04
      9.92836649e-05 -2.24301140e-04 -6.48145564e-04 -3.46384099e-04
      -1.55452103e-03 -3.39295308e-04 1.45024505e-05 5.92081808e-04
      1.59853691e-04 -3.01415054e-03 9.63687271e-05 2.29710480e-04
      -9.74789509e-05 1.75185909e-03 1.63054938e-04 -1.73569293e-04 0.
      -6.01731881e-04 -2.02038336e-05 1.51240602e-04 -2.00002978e-04
      8.33731829e-05 1.30530598e-03 7.79853028e-04 3.71564784e-05
      3.72408016e-04 -5.75639606e-05 -8.42894515e-05 1.36198636e-04
      8.14248051e-04 2.26612180e-03 -2.73391692e-04 -9.85282677e-05
      -2.44120238e-04 -1.96873341e-04 1.62517084e-04 8.20011657e-04
      -1.79357827e-03 1.49378378e-03 -5.53671271e-04 -5.34932224e-06
      -1.56374054e-03 -9.24705237e-04 1.91234780e-04 -1.17377820e-03
      -9.56663629e-04 -7.87946221e-04 -1.38831383e-04 1.52942466e-05
      -1.43470432e-04 -6.66778942e-04 6.43200110e-05 4.86896693e-04
      -2.33600425e-04 1.77450397e-03 7.16953873e-05 -1.13509981e-04
      1.87905371e-05 5.72169782e-04 -4.93178159e-05 -5.87806862e-05
      6.26081455e-05 -8.42717127e-04 1.48799591e-04 -2.63513502e-05
      -1.44881677e-04 6.02115237e-04 -1.03374605e-05 8.21259862e-04
      -1.46789593e-03 -5.98720682e-04 -3.85769788e-04 -3.58532387e-04
      3.54854972e-03 -5.94222438e-05 -1.00254816e-04 -1.33046895e-04
      -1.24255603e-03 1.09675988e-04 4.26492392e-04 0. 1.88529724e-04
      7.61485644e-05 -4.89076374e-05 -3.66114073e-05 9.91029781e-04
      -4.68122133e-04 5.04585565e-04 -5.57390566e-04 2.20047450e-03
      -1.40324155e-05 2.27014578e-04 1.10988680e-04 4.14696871e-04
      -2.79613101e-04 7.35106994e-04 5.90398849e-05 3.51233248e-05
      -1.12582336e-03 3.21256703e-05 -4.60227602e-04 -2.51695717e-04
      2.13193754e-03 1.13082780e-04 -1.40098948e-03 -1.79909007e-03
      -1.42873963e-03 -1.91002066e-04 -1.08060287e-03 4.51088388e-04
      -2.99198960e-04 1.61808071e-04 7.67240199e-05 3.10450967e-04
      -1.60096213e-03 -4.22534613e-05 1.80247531e-04 1.31822855e-03
      5.22633898e-04 4.39456053e-04 -2.06497989e-05 2.50347093e-05
      6.52538263e-04 -3.86610845e-05 -1.54164882e-04 2.73558508e-05
      -4.90699953e-04 1.94213120e-04 -1.30956090e-04 -2.39732457e-04
      -1.95905869e-03 2.14952815e-04 -1.78836053e-04 2.63560796e-04
      -5.32079954e-04 -2.48184777e-04 2.79873260e-04 1.98979117e-03
      -8.01492861e-05 -1.77884780e-04 8.57461055e-05 7.07149331e-04
      -5.20749782e-05 2.99202919e-04 -1.21820904e-05 6.36487530e-05
      1.71687701e-04 3.51638737e-05 5.50880432e-05 3.36129771e-04
      1.11559429e-03 -9.50119400e-04 -2.26851698e-05 -1.07870364e-04
      -1.23650636e-04 1.31525274e-04 -4.44335592e-06 1.15762907e-03
      -4.33787645e-04 1.39195399e-04 -1.30925211e-04 4.78244707e-04
      6.80668687e-04 -1.25380862e-03 4.60672745e-04 -8.48804557e-05
      -1.03848509e-03 7.39141324e-05 8.33298080e-04 -7.86162505e-04
      -9.66708700e-04 -9.13272379e-05 -1.60239183e-03 4.21046163e-04
      -1.21122808e-03 3.78059165e-04 -3.02887231e-04 -1.69475155e-04
      -1.71750679e-03 7.46831211e-05 -2.79807165e-04 -2.75991799e-04
      1.15349167e-03 4.36749484e-04 5.77773208e-05 7.28208470e-05
      -3.45051260e-04 3.33219032e-05 3.06635135e-04 -2.40679787e-04
      6.29502174e-04 1.68260260e-04 1.16507499e-05 -6.94645350e-05
      -9.17945174e-04 -5.08459852e-05 -2.78122188e-05 -3.72866052e-04
      4.89025202e-04 -7.55545334e-04 2.75159691e-04 2.50536762e-03
      -4.02034959e-04 -3.09287949e-04 -2.10843704e-04 1.33376603e-03
      7.06072315e-05 -3.73704243e-05 1.23267691e-05 1.55990521e-04
      -8.94846671e-05 -1.80120569e-05 1.66928119e-04 4.23398975e-04
      7.35819223e-04 5.61496941e-04 -1.41555487e-04 1.24706700e-03
      3.12360789e-04 4.38662537e-04 -2.54889863e-04 1.34446390e-03
      1.29083509e-03 -7.38992007e-04 1.20286073e-04 -1.30745512e-03
      -1.36277115e-03 -9.72612819e-04 1.67137841e-04 7.65582256e-04
      -8.89632793e-04 -1.49834692e-03 9.44603293e-04 1.23101904e-03
      -1.49240965e-04 -3.97566873e-05 -1.31306137e-04 -1.33807934e-03
      3.22900800e-04 -1.71251479e-04 6.57939527e-04 -2.27850935e-04
      2.06955519e-04 7.01646932e-05 9.60895035e-04 4.81883581e-05
      -9.23190091e-04 7.85145676e-04 4.61052550e-05 -1.22139551e-04
      5.05259522e-05 -2.09919017e-05 -2.38835026e-04 -1.15547155e-04
      -2.05165474e-03 -2.60816960e-05 -3.70487687e-04 -1.27429463e-04
      3.64584994e-04 -4.34235408e-05 1.78972713e-03 -6.09216862e-04
      4.39549884e-04 6.58927456e-05 3.28035589e-04 3.07827606e-03
      6.19877246e-05 -4.61908930e-04 -1.55737594e-04 1.32653536e-03
      -1.71525942e-04 -1.41607292e-04 -6.66996639e-05 1.21899735e-04
      2.75006081e-04 1.61382428e-04 -2.41719375e-04 5.53928840e-04
      -1.24500273e-03 2.18410231e-03 -3.76441691e-04 1.07027206e-03
      -4.28545987e-04 1.81499956e-04 -1.09831209e-03 -7.72649888e-04
      -1.61498715e-03 6.70838112e-04 2.02547562e-05 5.99399900e-05
      -1.65878260e-03 4.53775341e-04 -1.66760886e-03 6.64060295e-04
      1.17715716e-03 1.65157043e-03 1.97001296e-04 -2.26874719e-03
      -3.65993386e-04 1.12432499e-04 7.50610780e-05 6.33519550e-04
      -2.50881683e-04 3.50988557e-04 4.40194184e-04 1.37151263e-04
      -1.56479562e-03 1.16370436e-04 6.30143506e-04 -5.89930569e-05
      2.08161713e-04 2.96944869e-04 -3.56039323e-04 2.34808358e-05
      -2.05368691e-04 6.37808917e-05 -9.67746819e-05 -2.46005288e-06
      -8.28981691e-04 -1.26635277e-04 3.31883202e-04 -1.82966367e-04
      -1.86320767e-03 -2.51549442e-04 1.22736819e-04 4.52776294e-04
      -6.83181221e-04 9.44969303e-04 -2.89619580e-04 -1.08238717e-03
      -2.93057907e-04 -3.28702699e-05 2.12187879e-04 1.29573105e-03
      2.04700904e-04 -1.01374113e-04 -9.73318583e-06 6.58910130e-06
      -3.68113513e-04 -3.92171496e-05 -4.19020274e-04 -1.69602572e-05
      -1.16446383e-04 1.06884072e-04 3.73263640e-04 -5.21227077e-04
      -7.62110039e-06 1.11138541e-03 1.04777142e-03 -7.89300771e-04
      -1.88520153e-05 -1.28161570e-04 -8.87870647e-06 2.70476194e-05
      -6.49211113e-04 1.44928737e-04 3.09478928e-04 1.19233481e-03
      -1.37975230e-03 2.09368556e-03 8.82616558e-04 2.32889876e-03
      5.33566577e-04 -6.04401830e-05 -1.34202174e-03 -9.91227804e-04
      -6.10708026e-04 -4.58695285e-05 -1.28552332e-04 1.32736168e-04
      1.47040875e-03 7.61900665e-05 2.50243116e-03 -5.33436425e-04
      -4.48368461e-04 -3.15430399e-04 -2.77650106e-04 -1.47919578e-04
      -1.10770692e-04 1.71629435e-05 1.34426562e-04 1.64111145e-04
      -9.94008500e-04 -3.16539990e-05 1.63248347e-04 -7.78213143e-05
      -2.73877243e-03 6.48960267e-05 4.96081600e-04 6.23200845e-04
      -1.28083955e-03 1.72092963e-03 1.61972457e-05 -1.06197700e-03
      6.34329699e-05 -9.22335603e-05 3.84383922e-04 1.84405508e-05
      -3.82566177e-05 3.65101114e-05 7.13796398e-05 -2.76301053e-05
      2.95156260e-05 2.02354902e-04 -1.74751665e-04 1.60201016e-04
      1.04737468e-03 -2.64200824e-03 -4.22936544e-04 -3.90656860e-05
      -6.06282674e-06 2.68773350e-04 -3.83964012e-04 -2.82772147e-04
      2.16007684e-04 7.62738404e-04 1.41906305e-04 -4.73167347e-05
      -5.72736375e-04 4.92586114e-04 5.82586426e-06 -1.52643661e-05
      2.67062057e-03 8.18758926e-05 -1.09106128e-03 2.28074146e-03
      5.79633088e-05 9.91786292e-05 1.40252232e-03 -5.84011286e-05
      8.24083458e-04 -3.10696574e-04 1.98892041e-04 4.27962688e-04
      1.22788223e-03 -1.03514270e-04 1.63359186e-06 8.93714314e-04
      7.48198363e-04 2.23003895e-04 3.78901568e-05 5.19285531e-05
      -5.84089412e-06 1.61891185e-05 -7.64041470e-05 -4.07277548e-04
      6.60673250e-05 2.71732890e-04 2.27496930e-05 -5.69087570e-05
      -3.96840856e-04 3.91298963e-05 -4.58566123e-04 4.48516585e-05
      -1.40607986e-03 1.00521743e-03 5.96272817e-04 9.78013314e-03
      1.61639546e-04 1.03890488e-04 -1.76670175e-04 9.62623511e-04
      2.75044702e-04 -2.51485442e-04 5.56088235e-05 2.49881014e-05
      1.51267290e-04 5.38435124e-05 -4.18550888e-04 -2.95403530e-04
      -2.59843864e-03 3.32486525e-04 -7.59121103e-05 3.99862853e-04
      -2.08011450e-04 -3.96083400e-04 -1.47538567e-05 -2.37021409e-03
      -3.71442619e-03 -1.03052263e-03 -2.54834042e-04 -6.88956934e-04
      -1.16413552e-03 -5.04116004e-04 -4.61697485e-03 -2.44060974e-03
      3.58426681e-04 -2.85562989e-03 -1.07374322e-03 -2.53407517e-03
      -3.85363615e-04 8.95563135e-05 1.52190434e-04 -3.65809281e-03
      -9.27723129e-04 -6.11554773e-04 6.50273141e-05 2.68594944e-04
      8.96947517e-04 2.44616269e-04 -3.43233514e-05 -5.43488015e-04
      8.73115670e-04 6.27365444e-05 -3.24554276e-06 1.21989024e-05
      2.29889483e-05 -1.75709974e-05 8.43686212e-05 -1.21651465e-04
      2.06048207e-04 -1.50182983e-04 -1.24442697e-04 -2.66635416e-05
      1.37810106e-03 -1.60148833e-04 1.67594559e-03 -5.59384680e-05
      1.31026574e-03 -1.97843416e-03 1.41554759e-04 4.79668088e-04
      -1.53560410e-04 8.00918860e-05 2.03116491e-04 -2.38233642e-03
      -2.83018628e-04 -4.69838924e-05 -1.26145795e-04 -1.50477399e-05
      1.44640755e-04 -3.52027309e-05 1.11044117e-03 8.20673085e-05
      -1.37968501e-03 -1.98967080e-03 -4.68039070e-05 7.17563904e-04
      -3.16201535e-04 6.16569072e-04 6.36429701e-04 2.80816085e-03
      -4.67466190e-03 1.89730187e-03 1.68205297e-04 1.64165592e-03
      1.28634472e-03 6.44921674e-04 2.26667663e-03 4.08505229e-03
      1.03466003e-03 1.04923187e-04 1.59472504e-04 1.32846471e-03
      -5.61022956e-04 4.61984973e-06 9.22403182e-04 2.14979309e-03
      -1.93311973e-03 -2.89255317e-04 -3.30935254e-05 1.64599332e-04
      -2.98560597e-03 1.04019447e-04 -1.12029607e-04 9.61108482e-04
      8.69378622e-04 8.47485135e-05 1.35911949e-04 7.07687432e-05
      1.31402077e-04 -8.34491366e-05 -1.31111505e-04 -2.88662326e-04
      -1.49798149e-03 -2.73861660e-04 -1.22540267e-04 1.33723050e-04
      -2.65237293e-03 -8.10437487e-05 -9.26578941e-04 -8.10455531e-05
      2.33728453e-04 1.06828741e-03 -1.61220290e-04 -4.97903384e-04
      -5.51915618e-05 3.69753652e-05 -8.95425546e-06 3.19729559e-03
      1.48451640e-04 -8.14549785e-05 2.16834760e-05 -1.85379278e-04
      -4.78841539e-05 2.62424786e-04 2.22146700e-04 1.08268454e-04
      -3.52034287e-04 1.38003333e-03 2.39071684e-04 -3.24157212e-04
      9.57774319e-05 1.28013533e-04 -2.89870979e-04 -5.43049304e-04
      -1.61128375e-03 -9.30137030e-05 4.15893155e-04 4.48599982e-04
      -3.19919665e-04 7.78157380e-04 -1.36005965e-05 -5.07113116e-04
      1.53157290e-03 1.30543427e-03 1.38494279e-03 -1.43347704e-03
      -4.83340031e-04 -1.01182435e-04 -1.81393186e-03 -3.20981699e-03
      8.56949846e-05 1.55495960e-04 7.61867705e-05 5.26724252e-05
      -1.70371996e-03 -1.31972420e-05 1.37392164e-03 -8.17995577e-04
      2.79179745e-04 1.16585383e-04 3.32617810e-06 1.31006906e-04
      -2.28834961e-05 2.56922303e-05 -2.61590554e-04 2.88691721e-04
      -1.77135644e-03 -1.83385288e-04 1.20069017e-05 2.94572019e-05
      -8.17720254e-04 1.83693293e-04 -3.80908197e-04 -3.21298983e-04
      4.91814164e-04 1.21664401e-04 3.42991261e-04 4.92840772e-03
      -8.30326244e-05 -9.56303629e-05 -1.23413149e-04 -1.37640128e-03
      -3.21340776e-05 -8.85647241e-05 0. 1.53131987e-04 5.22088521e-05
      -1.36152303e-04 2.88535142e-04 1.60167820e-03 1.84834353e-04
      8.81021959e-04 1.90645791e-04 -2.24058807e-04 -1.02413207e-04
      -2.36917564e-04 9.90945555e-05 1.02053361e-03 -3.83602273e-05
      -5.86405768e-05 1.67941747e-04 1.00108009e-04 -2.82382569e-03
      8.09896912e-04 1.52099237e-04 1.33179696e-04 3.39966879e-04
      -7.41920012e-05 9.66939668e-04 9.21216095e-04 -3.39927821e-04
      2.21687398e-04 -2.30764458e-03 7.47391954e-04 1.28929806e-03
      2.19678986e-05 5.14361127e-05 2.83365691e-04 -1.74531562e-03
      3.52361822e-05 -6.51349605e-04 -9.06207075e-04 4.08094638e-04
      1.98807538e-04 -2.05960227e-04 -2.32260172e-05 -2.05040014e-05
      6.58878853e-05 -9.90552871e-05 6.12268122e-05 5.90945885e-04
      1.54686804e-05 3.50063237e-05 4.17708623e-04 -2.09870841e-03
      -1.75864101e-04 -2.91189249e-03 -8.69482174e-04 -1.78734423e-03
      7.78280024e-04 3.86818952e-04 1.22573087e-03 -1.90880150e-04
      1.93082713e-04 2.40455876e-04 -5.49968914e-04 2.60429893e-04
      7.89250989e-05 4.01158104e-05 1.27469946e-04 8.99073639e-05
      1.63479242e-04 1.75885478e-04 -3.39072867e-04 -4.30142594e-04
      1.61640323e-03 -2.55298626e-04 1.06408603e-04 3.13392375e-05
      8.08919140e-05 1.81904688e-05 2.48100259e-04 2.43735057e-03
      2.28974805e-03 -1.78060392e-04 -5.81752511e-06 -7.36943679e-04
      -8.46785668e-04 6.67002605e-05 4.22277895e-04 9.75991075e-04
      7.37292808e-04 -4.99454967e-04 2.25656433e-03 -1.10066368e-03
      1.07234046e-04 5.66562929e-04 1.05955859e-03 -1.06818066e-03
      -1.58029725e-05 -1.31703651e-04 2.65975861e-04 -8.03340401e-04
      -1.93187283e-04 2.64003989e-04 1.52976881e-03 7.57934933e-04
      -3.05763708e-04 3.48787144e-05 1.73008302e-05 7.36202637e-05
      -1.03494349e-05 -1.02972081e-04 7.49357605e-06 -2.91035627e-04
      1.84447621e-04 2.63918511e-04 -2.57892476e-04 -1.82288943e-03
      -9.54842326e-05 -5.83181507e-04 -3.85232328e-04 1.98411653e-04
      -1.49595283e-03 5.48768090e-04 3.45372857e-04 9.28751397e-05
      -6.88926884e-05 -7.12297624e-05 8.43084475e-04 -1.18472519e-04
      -3.11299023e-04 3.01108576e-05 -2.71537225e-04 3.59065220e-04
      1.56379887e-04 3.93317678e-05 2.95049715e-04 -9.62317747e-04
      -2.32193652e-05 -3.29036207e-04 5.55206061e-05 -1.12100839e-04
      2.35628482e-04 8.24971125e-04 -8.14380881e-04 -1.59850856e-03
      1.16026902e-04 -1.62388169e-04 8.61321553e-07 -1.41420669e-03
      3.32204916e-04 6.60359859e-04 1.18410715e-03 1.15260261e-03
      2.18195841e-03 6.30786308e-05 -1.20041182e-03 7.62732408e-04
      -2.19299749e-04 6.57939643e-04 -2.66959425e-03 1.30835699e-03
      -6.69796602e-04 3.21641535e-04 4.05287661e-04 -4.21320001e-04
      9.23711777e-05 9.56499891e-04 1.12996658e-03 5.76439139e-04
      7.97769462e-05 2.65941344e-04 -5.74029691e-05 -2.75913859e-04
      -6.17229671e-05 -3.00039683e-04 -7.08853113e-05 -1.48531294e-03
      5.27688862e-05 -7.76523666e-05 2.14493324e-04 4.56868991e-04
      3.49389215e-04 1.11105549e-03 2.57559237e-04 3.79348021e-05
      -3.33259493e-04 -4.05985804e-04 -3.09022464e-04 -5.53721504e-04
      6.79393852e-05 -5.03875315e-04 1.00366742e-04 -1.51631230e-05
      -1.51893022e-04 -6.63837200e-05 -2.67643976e-04 8.32388741e-06
      1.46991879e-04 6.22846012e-04 1.72879736e-04 -3.10478470e-04
      -1.36194355e-03 -1.66583603e-04 -1.61198113e-04 -1.87176731e-04
      3.07033697e-05 -1.25654938e-03 -8.40438530e-04 -2.02016556e-03
      1.77118753e-04 -1.52366716e-04 -2.67739902e-04 6.43028063e-04
      4.10238281e-04 8.64666130e-04 1.16117613e-03 -3.93365714e-04
      -6.06490823e-04 -2.49475444e-04 -3.14890203e-04 5.94493526e-04
      7.99963309e-05 -6.51758965e-05 -3.74680167e-05 6.30127557e-04
      1.61955802e-04 3.11662443e-04 1.81831303e-04 1.94891400e-04
      3.05255089e-04 -9.50529065e-04 -1.14338310e-03 1.40070784e-04
      1.67616061e-04 -5.89127922e-05 4.24368045e-05 2.12747706e-04
      -3.70790876e-05 1.56653423e-05 -3.92273614e-05 -6.64441672e-04
      -8.75068508e-05 -1.21975150e-04 3.50404916e-05 2.95467071e-05
