<?xml version="1.0"?>
<opencv_storage>
<my_svm type_id="opencv-ml-svm">
  <svm_type>C_SVC</svm_type>
  <kernel><type>LINEAR</type></kernel>
  <C>1.0000000000000001e-01</C>
  <term_criteria><epsilon>2.2204460492503131e-16</epsilon>
    <iterations>500</iterations></term_criteria>
  <var_all>16128</var_all>
  <var_count>16128</var_count>
  <class_count>2</class_count>
  <class_labels type_id="opencv-matrix">
    <rows>1</rows>
    <cols>2</cols>
    <dt>i</dt>
    <data>
      -1 1</data></class_labels>
  <sv_total>1</sv_total>
  <support_vectors>
    <_>
      -1.26623875e-03 3.54537653e-04 3.20408697e-04 1.20035431e-03
      5.11128630e-04 -2.46304135e-05 -3.64956562e-04 -1.61382637e-03
      1.78552218e-05 -8.62200322e-05 -9.07074646e-05 9.66811058e-06
      -6.51406415e-04 6.22115185e-05 4.51422820e-04 1.70545376e-04
      -3.76857643e-04 6.25520697e-05 -1.38321790e-04 -5.98301485e-05
      1.05317871e-04 -1.32307568e-05 1.82887045e-04 2.29594116e-05
      -1.84426404e-04 2.89878571e-05 1.86206853e-05 -1.77501188e-05
      4.81410680e-05 2.83051977e-05 -1.12503779e-03 6.25293236e-04
      -4.97863919e-04 5.76174702e-04 1.52315901e-04 -4.02601261e-04
      -3.10497388e-04 4.02497062e-05 1.83398697e-05 4.18723095e-04
      -5.30973302e-05 5.08962730e-05 -3.92471084e-05 -9.25870845e-05
      5.55655461e-05 -3.41560190e-05 3.64025873e-05 -2.34234292e-04
      -5.24550094e-04 5.49731310e-04 1.41920373e-05 7.44661025e-04
      -3.67331086e-05 1.10985065e-05 1.51951579e-04 -6.88702741e-04
      2.90307042e-04 1.45009180e-05 4.57962960e-05 -5.27899610e-05
      4.64462093e-04 -1.84660457e-05 8.18175380e-04 3.24226363e-04
      -5.05333119e-05 -1.15679017e-04 -1.85304772e-04 1.11462618e-03
      -1.15315852e-04 -7.02792167e-05 4.20079217e-04 -9.76504089e-06
      2.50714656e-04 2.21981856e-04 1.29068969e-04 1.16204596e-04
      -7.78274203e-04 -2.95857571e-05 -2.18428113e-03 -9.61519163e-06
      3.42042447e-04 -9.78312164e-06 -1.05752661e-04 -7.96718232e-05
      -1.87779719e-04 -1.73578737e-05 5.17090120e-05 7.63540884e-05
      2.51754595e-04 1.27989944e-04 -5.48076205e-05 4.70517043e-05
      3.04021034e-03 2.76971055e-04 -6.47321576e-04 -4.65578778e-04
      -1.18986156e-03 -2.99841864e-04 -1.93955726e-04 -1.79857816e-05
      -4.27082023e-06 1.11712026e-04 1.24691142e-05 1.06757542e-03
      -3.97385593e-05 1.56966926e-04 -1.91245726e-05 -4.91276369e-05
      2.04958400e-04 -2.01721632e-05 -1.12503025e-04 -1.44278994e-04
      2.60749948e-05 4.27311577e-04 1.71642503e-04 -5.64856164e-04
      -4.97066721e-05 1.93443193e-05 5.62649104e-04 -4.17209812e-04
      4.93935833e-04 2.00330236e-04 -1.61666918e-04 -3.42764455e-04
      4.03055077e-04 2.26443881e-04 -8.03939125e-04 -1.00353768e-03
      -6.87683874e-04 3.86807405e-05 -3.34758341e-04 -2.13586216e-04
      -3.56449222e-04 1.47583678e-05 5.00001886e-04 1.39748282e-03
      3.57176352e-04 -2.92310633e-05 -1.70661631e-04 -1.71544852e-05
      8.83717032e-04 -1.53942368e-04 -3.69981601e-04 2.83814850e-04
      -9.16400924e-04 -3.24927896e-05 -1.03202081e-04 2.65746985e-06
      -1.14648683e-04 -1.18924771e-04 3.90607820e-05 -1.23682723e-04
      2.39383444e-04 3.46954948e-06 1.70342919e-05 -1.90897608e-05
      1.28969201e-03 -3.86882857e-05 -9.73302114e-04 -6.72329625e-05
      1.13984192e-04 -4.86444660e-05 -7.64282522e-05 1.95773144e-04
      -1.26852698e-04 -1.23007616e-04 -1.36668445e-04 -2.77418847e-04
      -8.33487065e-05 -2.84655325e-05 -7.25948041e-07 -4.04855200e-05
      -1.94947261e-05 -8.89545554e-05 -1.56429178e-06 1.21336081e-04
      -4.02129896e-04 -4.63676522e-04 7.13455156e-05 -7.23473349e-05
      1.19942277e-04 -1.44108810e-04 -2.72289122e-04 -4.17352887e-04
      -1.82379881e-04 6.17265701e-04 -4.43284371e-05 -2.63650963e-06
      1.22486264e-03 1.24957414e-05 5.54800965e-04 -2.04313081e-04
      -2.21749087e-05 2.62602727e-04 1.83892989e-04 8.77263607e-04
      8.59303284e-04 5.58166066e-05 1.04946934e-03 1.44976215e-03
      4.82132513e-04 7.26184371e-05 2.18358095e-04 2.65697716e-04
      2.22238596e-04 -9.44010208e-06 -5.35940308e-05 -1.87260666e-04
      -5.86533104e-04 2.34134368e-05 -4.13286580e-05 -6.36454279e-05
      -1.18478478e-04 3.55529555e-05 -1.21692457e-04 -4.96055654e-05
      -8.21448557e-05 -2.24497144e-05 5.70758493e-05 -8.47728224e-05
      -1.13055750e-04 2.10547933e-05 -8.96929763e-04 -1.66726095e-04
      -5.14603977e-04 -1.05531991e-03 6.59614307e-05 -1.00438425e-03
      -6.82575273e-06 9.61675978e-05 -7.01599638e-05 4.20672819e-04
      1.45553146e-04 3.91694193e-05 -8.00145335e-06 -3.06032016e-05
      3.16291698e-05 9.31944014e-05 -1.40172982e-04 1.12363312e-04
      -3.06453003e-04 6.04658388e-04 2.78663556e-05 -9.18597507e-04
      -1.55186237e-04 8.77520069e-05 -2.39566543e-05 -2.41744037e-05
      -1.09030202e-03 1.04745532e-05 -8.50015495e-05 1.05243198e-04
      -2.10828497e-04 1.98954172e-06 5.82234235e-04 -2.96778890e-04
      -1.21663057e-03 2.22224509e-04 -4.98009787e-04 1.15971128e-03
      -8.15799111e-04 1.35167618e-04 2.57224514e-04 9.64695239e-04
      -8.93410353e-04 -4.42161981e-05 8.05654636e-05 -6.60755686e-05
      -7.09549582e-04 5.83804649e-05 7.18246680e-04 -6.08270566e-05
      -2.08272933e-04 1.39533426e-04 -2.61668145e-04 -2.51034417e-05
      -4.12538320e-05 -4.79541304e-05 2.57073170e-05 -7.80901246e-05
      -7.27718871e-04 -6.64386753e-05 -1.28841799e-04 8.01515052e-05
      1.29938254e-03 5.34349820e-05 -3.18488273e-05 1.22714700e-04
      4.99240356e-04 9.82958125e-04 -2.31727594e-04 -3.00024287e-04
      6.93115271e-06 -4.14645438e-05 3.15844372e-05 1.17431197e-03
      2.58353448e-05 -8.25842926e-06 0. -4.45236728e-05 -4.95116510e-05
      8.85238478e-05 -5.98659462e-05 -4.90849721e-04 9.55952491e-05
      -9.48791916e-04 1.82342745e-04 1.65035890e-04 -1.19239601e-04
      -2.79563501e-05 1.92633044e-04 -1.46193517e-04 1.87501358e-03
      -6.73316594e-04 -1.21879923e-04 -1.00459583e-04 -3.28600960e-04
      -2.32677252e-04 -6.71367976e-04 -1.18727548e-04 -1.72197144e-03
      -2.77851243e-04 6.21029409e-04 5.35632367e-04 2.06502489e-04
      -2.17860998e-05 1.49395270e-03 2.88988720e-03 -2.33243365e-04
      1.04204031e-04 4.64541336e-05 -6.75796400e-05 -1.84828765e-04
      1.58342027e-05 -2.04582559e-03 3.89291527e-04 -4.49776038e-04
      3.28918177e-05 -1.66614889e-04 4.32086490e-05 6.25747180e-06
      -3.24545022e-06 -5.22711198e-05 -7.72726708e-06 7.74229004e-04
      -4.32719062e-05 -7.31245236e-05 -9.79927572e-05 -2.48686899e-03
      8.85259760e-06 3.83604725e-04 -7.39257448e-05 -3.17135506e-04
      -7.93654763e-04 -3.53209143e-05 -4.26710685e-05 -5.89216070e-05
      -7.88835750e-05 -1.17548889e-05 1.49128481e-03 6.88680957e-05
      6.79673758e-05 1.20081522e-05 -5.54676056e-08 -9.16802965e-05
      -1.33843578e-05 -7.02095131e-05 1.09771667e-04 -2.22367322e-04
      -7.46614940e-04 -2.82378518e-04 1.23859791e-03 4.02044825e-05
      -6.21800291e-06 -2.34200794e-04 3.30286159e-04 7.62032694e-04
      2.29233818e-04 -2.36955253e-04 8.19252600e-05 1.19902979e-04
      -2.69055949e-04 -2.92201821e-06 -5.81626024e-04 4.78033035e-04
      8.22084548e-05 -1.02549745e-03 -4.68232029e-05 1.00328459e-03
      -1.16624433e-04 1.10783440e-03 9.19829705e-04 2.90887314e-04
      -8.03336588e-05 6.55243493e-05 -2.70190940e-05 8.32554884e-04
      -1.79977924e-05 -3.68647561e-05 1.52362365e-04 -4.59244213e-04
      -1.07023225e-04 -2.47056755e-06 4.82061187e-05 -6.36728219e-05
      6.83853432e-05 -3.20876832e-04 -1.27531603e-04 5.11292426e-04
      -8.59722968e-06 -1.12699599e-04 9.05494089e-05 6.39871068e-05
      -9.59617610e-05 5.44124632e-04 1.66842990e-04 -7.29568070e-04
      -2.75818340e-04 -1.20257217e-04 -2.69703654e-04 -3.47942259e-04
      -8.86982307e-05 -1.75056150e-04 4.02392383e-04 3.76690805e-05
      2.02755298e-04 -7.62869968e-06 6.74508265e-05 -1.16010364e-04
      -1.48816747e-04 9.46130895e-05 1.02941252e-04 -9.80917015e-04
      1.64779800e-03 -2.64894887e-04 7.84975826e-04 -1.25968581e-04
      1.05412415e-04 -2.61544599e-04 -1.28349336e-03 -3.56922916e-04
      -1.32320856e-04 -8.92082389e-05 -2.05423494e-04 3.96738295e-04
      9.55027936e-05 -2.03847041e-04 -1.53087755e-03 -2.21064547e-04
      7.15229311e-04 -4.96740140e-05 -2.97246588e-04 2.38476823e-05
      1.85629207e-04 8.51648452e-04 6.42702624e-04 -2.37041517e-04
      -1.12823109e-04 -2.57070569e-05 3.06080947e-05 -3.55838361e-04
      -2.62990012e-04 -3.61352068e-05 5.78542182e-04 -5.39128436e-04
      -2.00832928e-05 3.37008154e-04 -4.33014065e-05 3.85225430e-05
      4.43903918e-05 1.94029533e-04 8.57976484e-05 -3.44451226e-04
      3.24322937e-05 1.23767502e-04 -7.49114188e-05 1.11477752e-03
      -9.75375883e-07 -6.96173345e-04 -2.00207040e-04 -2.51480640e-04
      -5.22397400e-04 5.32996492e-05 1.51496474e-03 -2.84791554e-06
      -2.31205777e-05 -2.05288845e-04 5.81255648e-04 1.32208239e-04
      -9.09741138e-05 7.50592017e-06 -9.36015131e-05 4.95549430e-05
      -1.28719694e-04 2.18981895e-05 4.62010648e-04 -7.45749741e-04
      -1.07716676e-03 -2.38140165e-05 1.21269150e-05 1.43395213e-04
      1.52366547e-05 -6.49618814e-05 -7.46873557e-04 -1.13090361e-03
      1.10158238e-04 -8.71571956e-06 3.43359425e-04 -1.26766856e-04
      3.13126424e-04 6.22104446e-04 -6.20003731e-04 1.85130187e-03
      -2.68632401e-04 6.31969597e-05 -4.87199810e-04 2.85316819e-05
      6.00762614e-05 -4.59218863e-04 -2.38857509e-04 1.03181934e-04
      -1.07997010e-04 -1.21655110e-04 -1.66185084e-04 -3.48356611e-04
      1.15469375e-04 4.67073492e-04 9.24648426e-04 -2.22125818e-04
      -1.30737681e-04 -1.74086163e-05 -3.17093072e-04 -5.76378297e-05
      -2.42199258e-05 5.93034456e-05 -2.76185252e-04 -1.53315210e-04
      -6.67865834e-06 -7.76102388e-05 -1.42174526e-04 3.01943184e-03
      3.13801866e-05 -4.38599964e-04 1.51507384e-05 -1.06248946e-03
      6.48297835e-04 1.27520412e-04 1.71319977e-03 5.29888239e-05
      8.84755354e-05 1.54744601e-04 -9.67136657e-05 -1.38487303e-04
      4.49496983e-05 3.59416299e-05 -1.68209444e-04 3.49741240e-05
      -2.88816909e-06 -7.36440998e-05 -6.30325289e-04 -3.58450256e-04
      3.42299027e-04 -1.58294628e-04 3.28214926e-04 2.71010736e-04
      -1.16137453e-04 3.69448593e-04 -4.99702466e-04 -8.57930398e-04
      1.77639551e-04 -1.06120737e-04 -2.25567273e-04 -7.11770146e-04
      6.32654293e-04 -1.34623391e-04 -2.35786242e-03 -1.45739084e-03
      7.01906916e-04 4.71359323e-04 -1.80328614e-04 -1.04003225e-03
      -1.35514449e-04 -1.50888623e-03 -4.20469005e-04 1.05132302e-03
      8.73109730e-06 2.32315913e-04 -1.69149105e-04 -1.73642684e-03
      7.73090323e-06 -4.57433489e-05 1.48434847e-04 1.73726788e-04
      3.00102722e-04 5.26416152e-05 9.55157157e-05 -2.34666761e-04
      7.01802719e-07 1.22412952e-04 1.92126463e-04 2.47625780e-04
      1.33281152e-04 1.37709110e-04 9.93280337e-05 -1.13949750e-03
      1.13952679e-04 -1.05748267e-03 -3.89979657e-04 -4.21988516e-04
      -8.76899227e-04 8.60987893e-06 1.68720726e-03 -1.81745447e-04
      -3.74107840e-05 -1.69952982e-04 9.52107948e-04 -8.74355919e-06
      6.98673684e-05 -6.80898447e-05 7.89175683e-05 2.62009598e-05
      -6.48415953e-05 2.49111210e-04 4.27056686e-04 7.78024027e-04
      2.07869802e-03 -2.91269156e-04 -8.21799389e-04 -2.88369600e-04
      -7.05937709e-05 8.17401960e-05 -7.16106559e-04 6.50125497e-04
      6.90941233e-04 1.35016831e-04 6.48431305e-05 -1.50658612e-04
      2.06346798e-04 3.57388053e-05 1.17255608e-03 1.36777782e-03
      3.92642833e-05 -5.84861205e-04 -1.99997186e-04 -2.05158009e-04
      -4.91052269e-05 -4.94297943e-04 2.43205373e-04 2.57477979e-04
      1.30984394e-04 -1.93233267e-04 8.38984124e-05 1.58542569e-03
      -1.59240328e-04 3.13471392e-04 4.94771637e-04 -1.48756793e-04
      1.41460652e-04 -1.42288947e-04 -1.06819651e-04 4.53352659e-05
      -5.66981325e-05 7.38585586e-05 -5.34704777e-05 8.62408138e-04
      -8.65946004e-06 1.07190295e-04 2.88819374e-05 3.51786759e-04
      -2.36437736e-05 -1.34640140e-03 -3.87642976e-05 -1.19050987e-04
      -2.76838953e-04 2.31156355e-05 7.53725006e-04 -1.93252214e-04
      -2.36061333e-05 -1.03324448e-04 1.15844817e-03 4.42388518e-05
      -1.38859268e-05 -1.39207905e-05 -1.26216735e-04 -2.98877538e-04
      1.14615410e-04 -4.67331301e-05 5.49905933e-04 -1.58631289e-03
      4.45326819e-04 7.92591236e-05 -1.05572038e-03 -1.58386101e-04
      2.59583408e-04 -9.41917051e-07 8.24298331e-05 -8.10917118e-04
      -1.72514789e-04 -1.56911905e-04 -2.39972389e-04 7.12053088e-06
      4.01688827e-04 4.16250405e-04 -1.25412596e-03 4.07713669e-04
      -4.62815224e-05 -2.68501404e-04 4.19448115e-05 7.59801129e-04
      -2.27484023e-04 -6.54352654e-04 -8.56921601e-04 3.87692911e-04
      -2.55373860e-04 1.32429181e-04 9.75143339e-05 5.37324871e-04
      1.96219535e-05 1.10359499e-04 3.88105866e-04 -1.10114906e-05
      4.42638848e-05 1.66751095e-04 -2.41413018e-05 -1.21578654e-04
      1.66397585e-05 1.13606227e-04 -3.10767973e-06 1.52891080e-04
      9.09212977e-05 4.81011375e-05 3.69957088e-05 -1.76606094e-03
      -9.64414066e-05 4.24207916e-04 1.41859200e-04 -2.74011545e-04
      1.05144083e-03 -4.06789448e-04 -9.83263948e-04 -7.57862799e-05
      1.81800540e-04 -1.09802990e-04 6.38798811e-04 2.17343302e-04
      1.59851811e-06 0. -8.98232829e-05 -1.66282058e-04 1.00471196e-04
      3.27876878e-05 1.59545671e-04 -1.88462043e-04 8.68694508e-04
      -2.16308836e-04 6.61703642e-04 -6.24843451e-05 3.21590996e-05
      -8.58417654e-04 -9.15133278e-04 -7.19465781e-04 -2.00660565e-04
      6.64174950e-05 -1.24667989e-04 -9.23316475e-05 5.26508193e-05
      2.67801397e-06 1.62811251e-03 6.43307867e-04 -3.85324412e-04
      3.04377667e-04 1.00481790e-03 9.54611533e-05 -6.95104927e-06
      1.93023516e-04 3.50874354e-04 2.18353205e-04 1.00684163e-04
      5.10199134e-05 -3.19351057e-05 7.41901866e-04 -4.02449150e-05
      4.62350610e-04 7.50564155e-04 9.80760888e-05 -7.87510580e-05
      4.72380998e-05 -9.90608241e-05 4.40784730e-04 3.84091582e-05
      -2.57758311e-05 -4.20363904e-06 2.33437313e-04 2.84897633e-05
      4.97871442e-05 -6.85230625e-05 -3.38523154e-04 -1.15920491e-04
      2.06988290e-04 1.43438316e-04 -3.53158044e-04 -1.44517573e-03
      -5.06156030e-05 -1.24633673e-03 7.62995478e-05 -9.64023711e-05
      9.81386911e-05 5.26467513e-04 6.72881879e-06 -1.34994465e-04 0.
      -2.91052056e-05 7.08861262e-05 -1.54079054e-04 1.91027706e-04
      2.38385081e-04 -8.66131741e-04 -4.66716621e-04 3.29283648e-05
      -1.39608409e-03 -1.71647727e-04 -1.42142726e-05 3.52576550e-04
      -6.01648702e-04 -1.34602582e-04 -6.36248151e-04 -7.84845033e-05
      1.09243978e-04 -4.74747467e-05 1.41889584e-04 -1.00134777e-04
      1.17051159e-03 1.18924002e-03 1.66487036e-04 -2.96612416e-04
      6.50128815e-04 -3.38335056e-04 6.93570983e-05 -3.17871512e-04
      4.10174864e-04 -1.18213386e-04 -1.84715827e-06 -1.69681044e-07
      -1.82080024e-04 -1.92596592e-04 -1.26575891e-04 -5.94549812e-04
      2.53026723e-04 -9.03230917e-04 -3.71673013e-05 2.00326012e-05
      5.79753021e-07 -3.01938198e-05 0. 5.92498945e-05 5.56895720e-05
      -6.41223567e-04 1.08142820e-04 -2.22517861e-04 8.88637442e-05
      -1.13730537e-04 -1.13212118e-04 -8.88557988e-04 1.82998701e-05
      7.27162478e-05 8.61510052e-04 -1.44278238e-04 1.14550232e-03
      -8.23530900e-06 2.95274458e-05 9.46756190e-05 5.71944518e-04
      5.66310009e-05 3.86060681e-04 0. -2.45843490e-04 7.57085072e-05
      3.10234551e-04 -6.56804914e-05 1.03183871e-03 -8.74302641e-04
      -2.14795742e-04 -5.54259677e-05 1.92034160e-04 -6.28029084e-05
      -9.19311715e-05 5.13644482e-05 7.27319130e-05 -4.31166176e-04
      -1.61370008e-05 3.00952161e-05 1.07136182e-03 -1.08437112e-03
      -8.10750469e-04 8.32671009e-04 -7.51474581e-04 1.85126334e-03
      -1.73256885e-05 5.82291803e-04 -1.79342736e-04 4.55703499e-04
      -2.94369529e-05 2.96753016e-04 1.07829703e-03 3.40278988e-04
      1.67551436e-04 -5.93689083e-06 8.23608789e-05 6.21243322e-04
      9.57299271e-05 -2.99239164e-05 7.73454725e-04 -2.77761166e-04
      4.70156265e-05 -2.08551373e-05 6.18358245e-05 6.70607824e-06 0.
      -1.61362826e-04 2.68707827e-05 -2.04781782e-06 -6.63469764e-05
      -1.64365410e-04 4.54989240e-05 -5.92402648e-04 4.12007212e-05
      -4.96834808e-04 -4.18235868e-05 -3.01762280e-04 -6.34199896e-05
      7.20442913e-05 -1.18304335e-03 1.00568992e-04 2.17587312e-05
      2.02043466e-05 -1.51150060e-04 -2.29086058e-04 7.51135594e-05
      4.15634095e-05 -5.17930639e-05 -5.50916811e-05 -1.52830089e-05
      -1.02115919e-05 4.46242739e-05 -1.52706972e-03 -1.52429217e-03
      -8.83081666e-05 6.71740563e-04 1.11525085e-04 -4.82017058e-05
      3.14873432e-05 1.15035735e-04 -9.57159966e-04 -2.41284200e-04
      7.30129104e-05 1.72228156e-05 1.29733802e-04 5.76363993e-04
      6.92039554e-04 -8.35171726e-04 6.68145600e-04 -1.20597779e-05
      -2.88814335e-04 3.57822806e-04 -1.62451906e-05 -2.32387629e-05
      6.22203050e-04 5.36323118e-04 3.20422550e-04 1.03453400e-04
      -5.81561508e-05 7.37549926e-05 -7.21546705e-04 8.23106020e-05
      3.19384329e-04 2.62114872e-06 1.35241426e-04 5.99656014e-05
      3.30153853e-07 2.92061504e-05 -1.32586327e-04 0. 7.35368376e-05
      1.44936103e-05 4.42425033e-07 -4.44406869e-05 1.23803635e-04
      -8.40803332e-05 6.69892179e-04 -2.66016377e-05 -1.33363216e-03
      -3.64896609e-04 1.81916868e-04 8.82035180e-04 7.56169811e-06
      -1.29935809e-03 1.99293820e-04 5.57010535e-05 1.67920953e-04
      -2.03278405e-03 1.02768121e-04 3.77313663e-05 2.35088628e-05
      -1.47790299e-04 -8.15102539e-05 2.91714023e-05 1.13825117e-04
      -3.95605137e-04 1.10457046e-03 7.24114594e-04 -1.40556003e-04
      7.60375755e-04 -1.57435774e-04 -1.88599821e-04 -9.00915184e-05
      2.96896440e-04 -1.04193727e-03 1.99943868e-04 -1.71681633e-04
      -1.44638339e-04 -2.66782264e-03 1.25206774e-04 6.78997429e-04
      1.78121636e-03 5.43812930e-04 4.77826892e-04 1.02147787e-04
      -4.32383502e-04 -1.12927658e-03 -1.67106147e-04 8.53186357e-04
      2.93462130e-04 -6.83945429e-04 2.32356819e-04 -1.71670428e-04
      4.77782451e-05 -2.58572745e-05 -1.39203512e-05 3.32809257e-04
      3.41061765e-04 -3.55087686e-04 -6.95227891e-06 -2.14102431e-04
      3.95095703e-05 -1.35316106e-04 1.44187707e-05 1.43254612e-04
      4.63905999e-05 1.16907016e-04 -2.22123330e-04 -3.59283877e-05
      2.22197908e-04 -1.20710640e-03 1.52548106e-04 -5.95316116e-04
      -2.78907508e-04 7.29731983e-04 1.71444379e-04 2.67533160e-05
      -3.43491277e-03 3.31555697e-04 5.99583427e-06 5.04376694e-05
      -4.65993508e-04 3.53730356e-05 -1.38803307e-05 -2.23496900e-05
      -5.61753113e-05 -1.37896510e-04 -4.97333822e-05 4.29394713e-05
      2.24208110e-04 -8.65232316e-04 3.43024352e-04 1.50179359e-04
      9.15598474e-04 -2.21374401e-04 -2.27234996e-05 2.64308241e-04
      6.72203896e-05 1.74016424e-03 2.76776060e-04 6.95513227e-05
      -3.55629105e-04 8.28585355e-04 -2.45291812e-05 -3.73541377e-04
      1.48545520e-03 -1.21628772e-03 -7.58959577e-05 -5.05083008e-04
      -8.87046626e-05 5.32502076e-04 -7.33280758e-05 -1.17432838e-03
      5.95051388e-04 6.90633373e-04 1.80120172e-04 -2.88382780e-05
      8.27781259e-05 -1.41199111e-04 2.05635879e-04 1.18958566e-03
      6.59129291e-04 3.52551142e-04 -9.72091948e-05 1.67822582e-05
      -2.07101388e-04 -6.06633075e-05 -3.53828655e-05 -4.03012891e-05
      -1.38670381e-04 -4.13640577e-04 4.85012206e-05 -1.00766076e-04
      5.43758688e-05 -1.38411310e-03 9.41046164e-06 -4.23510297e-04
      3.15748213e-04 1.14920091e-04 3.73122457e-05 6.50001675e-05
      1.41356280e-03 8.01447095e-05 -1.78432252e-04 -1.45701677e-04
      -2.25545882e-04 -2.54127139e-04 -4.70425657e-05 1.99188853e-05
      -4.99379894e-05 -4.52997847e-05 1.55255795e-04 1.25866718e-04
      -1.66829443e-04 5.51183766e-04 -9.78479395e-04 3.81863560e-04
      -6.68805500e-04 -3.44201864e-04 -4.88367477e-05 -2.10988757e-04
      1.00314640e-03 4.10821347e-04 -7.34589412e-04 1.78870454e-04
      2.68615695e-04 2.26198696e-04 3.77197954e-04 2.47609336e-04
      -2.86451512e-04 6.21732441e-04 7.39960873e-04 -4.29487909e-06
      -9.26174762e-05 6.15842699e-04 -1.15505463e-04 -2.58924760e-04
      -5.56066050e-04 5.17284905e-04 4.53719222e-05 7.01566341e-06
      8.84994297e-05 -6.48492933e-05 3.29639384e-04 1.96581357e-03
      -4.02363221e-04 -6.60692691e-04 -2.49163975e-04 2.82134806e-05
      2.59302597e-05 3.84479172e-05 -6.62341336e-05 1.78336013e-05
      7.09519445e-05 2.34333667e-04 7.14426715e-05 -9.46284927e-05
      6.34559910e-05 -6.58856996e-04 5.27027223e-05 -4.01835976e-04
      2.75461352e-04 -4.53940767e-04 3.74700030e-05 -1.32844085e-04
      -1.80092480e-04 -1.38706513e-04 2.66402203e-04 -3.42920575e-05
      2.17381457e-04 4.87332072e-05 1.89472485e-05 3.89738670e-05
      -4.49658401e-05 -6.48400892e-05 7.02098396e-06 -2.49133736e-04
      2.68127216e-04 -9.47668741e-04 2.54734594e-04 -3.99368611e-04
      -7.03756930e-04 -2.29997386e-04 6.21798856e-04 4.03243088e-04
      -2.25960481e-04 9.21204919e-05 -1.90199280e-04 1.77949041e-04
      9.65540530e-05 -3.63776664e-04 -2.83880159e-04 -2.51925667e-04
      1.61992051e-04 -5.65171300e-04 -1.57529284e-04 -2.29950281e-04
      -2.24199766e-06 -1.68201863e-04 4.69569204e-05 7.84388278e-04
      -7.18258554e-04 -9.15723358e-05 7.12169131e-05 -4.46770224e-04
      -3.80988649e-06 -2.37172339e-04 1.44399282e-05 1.42998295e-04
      3.29186470e-04 -5.81426430e-05 -3.63613217e-05 -1.51051310e-04
      -4.28355270e-05 -1.24630358e-04 4.10730463e-05 4.16597068e-05
      6.74823095e-05 -8.49069693e-05 -1.04855957e-04 -1.17954376e-04
      -1.32855421e-04 -9.63956525e-04 3.57978861e-05 -3.24240245e-04
      -1.43395237e-05 -1.12157846e-04 1.45750865e-03 1.50977125e-04
      8.47773685e-04 2.11949693e-04 -9.45965221e-05 -2.58364802e-04
      -1.28238447e-04 -3.81629390e-04 5.15559259e-05 3.43245338e-05
      -7.99768095e-05 -2.36387801e-04 6.37667035e-05 2.61215493e-04
      -1.58055089e-04 1.15574308e-04 3.27777304e-03 -1.83985321e-04
      1.92744483e-04 -9.81452031e-05 2.20628281e-04 -4.56108741e-04
      -2.79809319e-04 2.64027854e-04 8.89854156e-04 -3.33673059e-04
      -2.85847200e-04 -1.04621274e-03 -5.27999538e-04 3.37839854e-04
      -5.14717598e-04 2.20739108e-04 -2.39687011e-04 5.21829177e-04
      -4.54488239e-04 -1.53210749e-05 2.03668933e-05 3.25272122e-04
      -1.52186141e-03 3.63973813e-04 -2.07986977e-05 2.14742991e-04
      -2.63126043e-04 1.21396646e-04 -1.13366106e-04 1.44579227e-03
      -5.33548999e-04 -6.05450768e-05 7.52554624e-05 1.69645034e-04
      -1.12248279e-04 6.96941497e-05 0. 2.46651733e-04 -1.53808401e-06
      -2.18766669e-04 -4.82719734e-05 7.82200004e-05 9.17275102e-05
      6.40825368e-04 -1.15091352e-05 -1.01780010e-04 -1.42167104e-04
      -5.92044729e-04 8.60215281e-04 -1.07507651e-04 -1.03157677e-03
      3.68737565e-05 -1.50194523e-04 -1.71783089e-04 8.89511139e-04
      1.51723769e-04 -8.97081263e-05 -1.39894300e-05 -1.54664711e-04
      -8.38458163e-06 6.33884920e-05 5.44954237e-05 1.32229134e-05
      5.72681311e-04 3.96777556e-04 5.48327807e-05 -1.16919796e-03
      -4.56457419e-05 1.06716769e-04 2.57683685e-04 -3.83756764e-04
      2.69174052e-04 1.57430750e-05 -8.55454491e-05 4.06834952e-05
      3.93755501e-04 -2.38809676e-04 -8.26991454e-05 -5.99078950e-04
      -2.09726029e-04 -2.16877743e-04 -3.76570038e-04 8.34516948e-04
      2.21624476e-04 -3.35661425e-05 -1.57735034e-04 -1.94587652e-03
      -1.96700330e-05 -2.18174318e-04 -1.28512867e-04 -1.31069228e-05
      5.69970929e-04 -1.20106970e-05 -2.28981138e-03 -1.16562727e-03
      2.38866560e-04 -1.09229368e-04 7.02459583e-05 5.29202989e-05
      6.07680995e-05 0. -1.04025137e-04 -7.85223601e-05 4.08149208e-05
      1.70645726e-05 2.04699954e-05 -7.66035664e-05 6.75189600e-04
      1.24864637e-05 8.53885198e-04 1.27160005e-04 3.83411563e-04
      -4.40719363e-04 -6.73931136e-05 1.39611319e-03 -6.10148054e-05
      2.15114378e-05 2.95099017e-04 1.14913571e-04 -3.48447429e-05
      2.67961121e-04 9.28037207e-06 7.87460613e-06 1.10877581e-05
      4.48751125e-05 -1.19462329e-05 2.13624255e-04 -4.05905448e-04
      5.56117448e-04 1.09079898e-04 -1.09891850e-03 7.11279936e-05
      -1.84914068e-04 -1.49798507e-05 3.22260894e-04 8.15473497e-04
      6.17190788e-04 -1.26646526e-04 -2.78608368e-05 3.48513713e-04
      -2.78122607e-04 1.86399207e-04 3.21011990e-04 -2.83324538e-04
      1.45201542e-04 -3.57297598e-04 9.32009774e-04 -1.82824457e-04
      2.24789619e-05 -5.54690894e-04 2.26615742e-03 1.16047042e-03
      -5.23825365e-05 3.69331683e-05 2.21544702e-04 -5.53414575e-04
      -4.40770418e-05 3.60947044e-04 8.46523850e-04 -1.32122237e-04
      -4.15091999e-05 -5.65959235e-05 -5.61143861e-05 -4.52242239e-05
      6.44854754e-06 -1.62922574e-04 -1.27749532e-04 3.75747826e-04
      -6.82617683e-05 6.69261135e-05 -3.38018472e-05 -1.08078832e-03
      -7.08651132e-05 -5.69906377e-04 -1.78630275e-04 -2.38704015e-04
      1.70350343e-03 3.77848701e-05 -1.25767096e-04 3.65702908e-05
      -6.89871813e-05 -4.25891572e-04 1.89834536e-04 -1.09807108e-04
      -2.30982114e-05 3.48534995e-05 -4.76929199e-05 2.53942944e-05
      -1.19566112e-05 -1.95913293e-04 -1.24322629e-04 -3.21983302e-04
      1.29918533e-03 3.07534414e-04 -1.38847996e-03 -7.48466482e-05
      -1.93058630e-04 -2.12408457e-04 -5.67090428e-05 1.92548367e-04
      9.34031210e-04 -2.29071535e-04 -2.18423273e-04 -3.97569151e-04
      1.42966281e-04 3.47335765e-04 -2.57573766e-03 1.81545224e-03
      1.74781110e-03 5.23658819e-04 4.40380070e-04 4.09693930e-05
      -7.40564574e-05 1.91035832e-03 1.49644038e-03 2.04135460e-04
      3.19332263e-04 1.59733376e-04 2.84012422e-05 9.65715371e-05
      7.90569684e-05 1.36095914e-04 1.40546821e-04 -1.16402807e-04
      -4.94914071e-04 1.02501930e-04 1.05250372e-04 -2.33165192e-04
      2.35088628e-05 1.70560510e-04 1.60869444e-04 -1.46332989e-03
      -1.27649779e-04 -2.41147609e-05 -1.94879067e-05 3.01827153e-04
      -8.75230944e-06 5.75758677e-05 6.47358393e-05 -3.05017456e-04
      -1.11008773e-03 4.82384821e-05 -1.58132578e-04 -2.11063689e-05
      -2.35829284e-04 2.12344705e-04 4.29630280e-04 5.79165644e-05
      8.39518325e-05 -2.44266248e-05 7.41604117e-06 -1.67405306e-05
      -1.29418886e-05 2.28612189e-05 6.69523433e-05 -1.98260834e-03
      -3.83381825e-03 2.22119852e-04 1.38447256e-04 2.81379995e-04
      1.18747339e-04 4.30290063e-04 1.13876699e-03 -3.15293483e-03
      -1.10241503e-03 3.42205603e-05 2.63712194e-04 8.44468104e-06
      -1.41394295e-04 3.32069932e-04 6.36042096e-04 -1.46637647e-03
      -5.76778955e-04 -9.98918433e-04 -6.78281998e-04 3.01404634e-05
      7.01058016e-05 -6.36823534e-04 -4.35139518e-04 6.61130529e-04
      -3.62927713e-05 -1.68623053e-04 1.22331068e-04 -5.82609384e-04
      1.39426413e-06 -3.30019323e-03 1.69235296e-04 2.82084395e-04
      8.13565202e-05 5.41434099e-04 2.02322160e-04 -6.42877858e-05
      4.40162112e-05 -1.22413461e-04 -3.10164905e-04 9.57964585e-05
      1.56730326e-04 8.41788060e-05 2.39575329e-05 1.71082225e-04
      6.64197751e-06 -7.43405370e-04 -4.88638703e-04 8.79151223e-04
      8.72036151e-04 1.24787621e-04 2.34061643e-03 8.53680976e-05
      1.41590383e-04 9.55730720e-05 6.99127966e-04 3.25830115e-05
      2.66201168e-05 0. 1.77336842e-04 -3.19900573e-05 -5.08574485e-05
      -1.48193765e-04 2.29447556e-04 7.38981453e-06 2.42317838e-04
      -6.51541122e-05 1.02081452e-03 -3.71107126e-05 -1.71302920e-04
      -9.91037668e-05 4.21729579e-04 -4.27010789e-04 2.23524170e-04
      5.17861045e-05 2.54054175e-04 8.96135170e-04 4.94118081e-04
      -9.86365019e-04 5.65990049e-04 1.46506075e-03 -1.02793369e-04
      -5.90091920e-04 -1.42627652e-03 -5.66297094e-05 -5.83572692e-05
      -1.22569749e-04 1.84646901e-03 -7.91291968e-05 1.67224498e-04
      1.81168216e-05 7.21497054e-05 -1.15034854e-04 -1.96797817e-04
      -1.61808046e-07 -5.64990914e-04 -1.90484046e-04 -1.79598923e-04
      -1.61316566e-05 -1.98420981e-04 1.35256603e-04 -4.46135091e-05
      6.26909678e-05 -2.97289953e-04 -5.08449957e-05 5.20070425e-05
      -3.58687139e-05 -2.72386606e-05 4.85613891e-05 -2.81876164e-05
      4.23989899e-04 -1.09234497e-04 -1.63184552e-04 2.79271946e-04
      1.32607238e-04 2.22293038e-05 -2.73332378e-04 -1.23779173e-04
      -2.15972614e-04 -3.59612575e-04 9.45282081e-05 2.06919780e-04
      -7.41534177e-06 -8.17968466e-05 5.67043680e-05 1.24217055e-04
      6.05869500e-05 3.97495955e-04 -1.39554773e-04 -1.38846075e-03
      -1.14677896e-04 1.20703051e-04 6.97350197e-06 2.11425911e-04
      2.05601144e-04 5.18198758e-05 1.16483355e-03 -4.60910815e-04
      -1.93107757e-04 2.17469904e-04 1.49753439e-04 -8.61057197e-05
      9.96525167e-04 -6.92535075e-04 1.88462567e-04 7.04777849e-05
      -2.29800120e-04 -7.73327600e-04 -4.19764110e-04 2.63985185e-05
      -4.74675944e-05 1.39598254e-04 6.44900079e-04 -2.27885848e-05
      -1.57149668e-06 -3.40988627e-05 2.34701380e-04 -2.11809129e-05
      -4.74493369e-04 -1.51225846e-04 -1.90626000e-04 1.18879136e-04
      -2.37162076e-05 4.98032496e-05 8.85232512e-05 2.57685372e-07
      -4.26390361e-05 -1.25166234e-05 4.31702938e-04 -5.17190310e-05
      1.14431663e-04 7.59349350e-05 2.88905401e-04 -1.39278118e-05
      1.67114567e-03 1.01274950e-03 2.59707071e-04 -6.08246250e-04
      7.74012151e-05 -1.48403912e-03 -5.67386742e-05 1.49222076e-04
      -9.22232994e-06 -1.20503340e-04 1.94161592e-04 9.18922524e-05
      6.54179312e-05 -6.08000628e-05 6.47915440e-05 2.68639240e-04
      -3.52746829e-05 -6.80770700e-06 4.52812936e-04 -1.01660786e-03
      -1.16711381e-04 3.48563597e-04 2.69845877e-05 -8.01979550e-05
      -1.79970433e-04 4.84857665e-05 8.16441971e-05 1.07269290e-04
      -2.57887499e-04 3.25345871e-04 -1.66243306e-04 -3.63588042e-04
      -2.72583420e-04 -3.72925919e-04 7.25159131e-04 7.49321043e-05
      3.49989190e-04 -4.52033681e-04 3.66656081e-04 1.76676040e-05
      -1.08514237e-03 -3.60225036e-04 1.17094012e-03 -1.15444873e-05
      -1.74736560e-04 1.73801978e-04 2.03199088e-04 1.63831894e-04
      -1.82545074e-04 -3.56117525e-04 -9.11909272e-04 1.48573730e-04
      -5.87453178e-05 5.41707523e-05 1.42617806e-04 3.60665872e-05
      1.53840243e-04 3.45789122e-05 5.18710120e-04 -3.66658060e-04
      2.15130585e-05 2.06242803e-05 3.03102977e-04 7.96936947e-05
      -1.44742674e-03 4.92909574e-04 -8.26484640e-04 9.82576981e-04
      5.20833419e-05 -2.83272035e-04 -6.99967422e-05 1.48930267e-04
      2.57811800e-04 -1.13671890e-03 -5.32268896e-05 1.22119614e-04
      1.12193447e-04 -3.32984237e-05 -1.35902337e-05 -2.56897038e-05
      1.46015000e-05 1.67154853e-04 -7.34562345e-04 8.27609503e-04
      -7.36994116e-05 -1.33067748e-04 -1.69080595e-04 4.27837549e-05
      -1.55632180e-04 3.37350619e-04 7.10107910e-04 9.61736368e-05
      3.16674908e-04 1.95320768e-04 -4.25019134e-05 -4.00236488e-04
      1.81116906e-04 -2.59046355e-04 2.29436482e-04 3.19882354e-04
      -4.58100258e-04 5.78652252e-04 -4.14690992e-04 -5.60262270e-05
      -2.92464276e-04 -6.10816584e-04 -6.21852290e-04 2.57244450e-04
      -8.51371005e-05 7.65066652e-05 5.81150125e-05 1.39250027e-04
      1.43587578e-03 -3.55721975e-04 -9.12412594e-04 8.62824163e-05
      -8.15976382e-05 -7.75827866e-05 1.22876489e-04 -7.84404648e-08
      -1.17947347e-04 -2.03353426e-04 -2.81913497e-04 7.19862801e-05
      2.75858565e-05 2.53267681e-05 1.29897046e-04 3.11508265e-05
      -4.66886413e-04 2.12754312e-04 -1.42658566e-04 1.14534993e-03
      4.81914176e-05 -1.61777585e-04 4.92622530e-06 1.54162350e-04
      9.86350860e-05 4.53379093e-04 -2.06123936e-04 1.36177900e-04
      -1.51164859e-05 -1.24232029e-04 -1.80953139e-04 5.61035667e-05
      -1.32719470e-05 -1.42753444e-04 -4.45476762e-04 -1.07338734e-03
      -4.00284589e-05 1.16807013e-03 -1.72886066e-04 2.83613161e-04
      2.49982259e-04 6.20118750e-04 8.24871822e-04 4.44562247e-05
      -1.26963816e-04 1.95110828e-04 -1.14876812e-03 -1.37889278e-04
      -3.33839416e-04 2.16736618e-04 -6.27016474e-04 -9.78021781e-05
      -2.71489524e-04 -1.63362361e-04 -1.52662484e-04 6.73651957e-05
      -5.20850183e-04 -9.47999535e-04 2.77386571e-04 2.97068938e-04
      3.48944704e-05 9.68137683e-05 3.58437741e-04 9.18616206e-06
      6.14488672e-04 8.01163143e-04 -6.18196616e-04 2.08128564e-04
      -6.88262808e-05 -1.33887652e-05 3.11564218e-05 -5.24119423e-05
      5.20467329e-05 -7.67606034e-05 -4.54329391e-04 -5.66673152e-05
      2.06731384e-05 -2.31786726e-05 -3.24812456e-04 -4.48466453e-05
      6.55627809e-04 2.92671757e-05 2.32598715e-04 -1.72460452e-04
      1.61104015e-06 1.90571391e-05 7.05623606e-05 -5.81557397e-05
      1.26049519e-04 -2.38356093e-04 9.32977127e-06 -1.00517034e-04
      3.90517089e-05 1.96092165e-04 7.17191688e-06 1.51014128e-05
      1.59209929e-04 -4.74760076e-04 2.28803977e-03 -2.32288352e-04
      4.55762129e-05 5.72747784e-04 -4.69612605e-05 2.36061042e-05
      1.74071974e-04 -4.59170878e-05 4.21565201e-04 -5.03107614e-04
      6.83334656e-05 1.19588534e-04 -4.32109431e-04 -4.08940221e-04
      -3.98842472e-04 -5.16052125e-04 -1.90309089e-04 -3.87950655e-04
      -5.10596728e-04 4.42680466e-04 -4.31195003e-05 -1.08574859e-04
      2.81656603e-03 -7.37913128e-04 -4.67135425e-04 1.14770795e-04
      -2.01801377e-05 7.80453556e-05 7.72218162e-04 1.00533063e-04
      9.79731441e-04 -7.49253202e-04 -5.22290822e-04 3.98489647e-05
      -8.87855786e-05 1.27545543e-04 -4.70676496e-05 0. -6.46482586e-05
      -2.40040135e-05 8.64663627e-04 -4.97516303e-05 1.30229470e-04
      3.08464405e-05 3.43506748e-04 -1.28253581e-04 2.57617998e-04
      1.54930050e-04 -7.42540346e-04 3.28163587e-04 -2.44993629e-04
      4.61405929e-04 -1.17481126e-04 8.12256258e-05 -1.92197607e-04
      -2.19896508e-04 -4.41217271e-05 -4.66841411e-05 -7.81878989e-05
      -2.94311085e-05 6.61650774e-05 -3.23337554e-05 6.48065034e-05
      -1.91798565e-04 3.82942264e-04 -1.09122053e-03 -9.67904562e-05
      -1.75858804e-04 5.83223527e-06 -1.58359853e-05 4.24852275e-04
      -6.21523650e-04 2.86443683e-04 -1.20280532e-03 5.95701458e-05
      -2.65889888e-04 3.28556198e-04 -1.75560621e-04 2.78743013e-04
      -2.97454855e-04 4.11983347e-04 -4.11190005e-04 6.77718606e-04
      4.12923255e-04 3.24166584e-04 6.74177045e-06 8.40365014e-04
      2.82523199e-03 -2.33231949e-05 1.23721344e-04 9.92856221e-05
      8.52210578e-05 1.15907518e-04 3.56190467e-05 1.02509535e-03
      1.09920907e-03 -9.15785378e-04 -1.37313080e-04 -2.75186339e-05
      -7.51385014e-05 -2.00513328e-04 -5.00182723e-05 2.28461708e-04
      2.86294904e-04 1.18398442e-04 -1.02179722e-04 8.29916899e-05
      8.49890694e-06 -1.33874535e-03 -8.52297599e-05 1.26314501e-03
      3.58255988e-04 -1.82954725e-04 -2.56405910e-04 4.24775608e-05
      -2.15622946e-03 -8.19622801e-05 -6.12521908e-05 3.35554301e-04
      -1.57744958e-04 -8.74280522e-05 2.41370417e-05 -1.01937940e-05
      1.65872079e-05 2.81414796e-05 1.75797345e-06 -1.16517651e-04
      2.77089508e-04 1.06383231e-04 4.96780616e-04 -2.54866245e-05
      -1.22814346e-03 -2.60787288e-04 -1.75573456e-04 1.39400014e-04
      7.43698212e-04 -1.20181928e-03 -4.76547779e-04 -2.65839044e-05
      -1.46975624e-03 -1.24628237e-03 -5.75912309e-05 -5.89499075e-04
      5.94471465e-04 3.90047717e-05 -4.45314763e-05 1.10801746e-04
      8.68264833e-05 2.66358838e-04 3.61901366e-05 6.09742128e-05
      1.19373645e-03 7.22148980e-04 -6.43372041e-05 7.44746503e-05
      1.12696718e-04 1.41024962e-03 1.48122390e-05 1.40803959e-03
      7.60349678e-04 -3.14902980e-04 1.27210908e-04 5.83763685e-05
      3.89397901e-05 1.22716156e-04 5.44639042e-05 -1.79114104e-05
      1.37988318e-04 -2.53335247e-03 1.45513395e-05 -1.23570295e-04
      3.72461982e-05 -9.57920041e-04 3.26722111e-05 1.18228176e-03
      -1.35361624e-04 -8.66685063e-04 -1.17702270e-03 -7.15146452e-05
      3.97065858e-04 -6.40914095e-06 3.21316838e-05 1.51174201e-04
      8.87784059e-04 5.51527773e-05 -8.05313466e-05 0. 1.38572417e-04
      -1.97609224e-05 -1.43222525e-04 2.56003288e-04 8.43587797e-04
      -1.16916012e-03 -4.28223895e-04 7.86981691e-05 -7.68956030e-04
      9.49959795e-05 -1.01265896e-05 4.34622561e-05 3.43440857e-04
      -9.64967126e-04 -9.18764796e-04 1.49684029e-05 -8.64140922e-04
      -1.45693682e-03 3.14748817e-04 7.78635382e-04 6.04777015e-04
      4.53861780e-04 5.93082048e-04 -3.74393741e-04 1.44073635e-03
      -1.12987138e-04 4.01266225e-05 -2.88379175e-04 -6.25502027e-04
      -6.92415459e-04 -4.05838000e-05 8.69650248e-05 1.09257424e-04
      -1.47814211e-03 8.83920220e-05 -1.27754628e-03 5.60870511e-04
      -2.05419492e-05 -1.85685421e-04 -1.36043353e-04 -1.90404535e-04
      -4.72573811e-05 -1.10072351e-05 -3.94929666e-05 -3.84477062e-05
      -5.81240980e-04 -1.03177066e-04 -6.90995075e-05 9.58368546e-05
      8.90121955e-05 1.42263059e-04 -1.15272612e-03 -4.57380287e-04
      8.01293645e-04 8.80495412e-04 -4.14973256e-05 1.02920574e-03
      -5.16945802e-05 6.75096599e-05 -2.98313862e-05 4.70519037e-04
      -3.39156337e-04 -5.87116774e-05 0. -4.70861269e-05 -1.95282355e-05
      -5.36115003e-05 -5.74969221e-04 -1.54000256e-04 1.01543404e-03
      9.69215587e-04 1.74128199e-05 -7.67675054e-04 -2.24977339e-04
      -1.90515872e-04 5.51975332e-04 -1.61320972e-03 2.61020940e-03
      1.10149477e-03 2.38938475e-04 -3.01117485e-04 4.70373605e-04
      2.59735476e-04 -1.03030121e-04 -1.69115060e-03 -4.09362518e-04
      -1.67844375e-03 -1.74309884e-04 -5.80282125e-04 -6.41265433e-05
      3.70351918e-05 -1.67319318e-03 -3.26286681e-04 -3.54775693e-04
      -4.35571797e-04 -7.32505287e-05 -3.18283739e-04 -8.26917858e-06
      -1.00743397e-04 -1.27163352e-04 -1.18628913e-03 6.69833244e-05
      1.05009756e-04 9.67081269e-06 6.13947632e-05 -3.75733944e-05
      -3.48704521e-06 7.74399305e-05 3.21278349e-05 3.94063798e-04
      2.16013359e-04 8.60092041e-05 -9.43771956e-05 5.46984724e-04
      -1.27434032e-04 6.03642198e-04 -1.09606284e-04 -8.45239174e-06
      -1.12734364e-04 -5.19634232e-05 1.73836124e-05 3.20329891e-05
      1.54651825e-05 -2.95199825e-05 -5.39121065e-05 -1.49543721e-05
      1.44805799e-05 -7.75306034e-05 -7.62417985e-05 -2.12056184e-05
      8.85142981e-06 -1.30657194e-04 -4.14983195e-04 5.17671404e-04
      -9.84217739e-04 -2.45297502e-04 5.97994542e-04 -1.03736973e-04
      -1.09231050e-05 7.79710477e-04 -3.77208838e-04 4.45361901e-03
      9.97452298e-04 -1.80538642e-04 2.38397828e-04 5.81927656e-04
      2.33661740e-05 5.51038363e-04 -2.88859301e-04 -2.43016388e-04
      -6.31262446e-05 5.84844383e-04 6.98400312e-04 -9.21005194e-05
      -1.83281547e-04 -1.37280696e-03 7.72822241e-04 -3.26365298e-05
      2.42574333e-05 1.20410215e-04 -1.15695611e-05 7.40323158e-04
      1.18676828e-04 -3.70727881e-04 -1.49565371e-04 -9.54036019e-04
      -8.01571587e-05 -5.05785611e-05 3.37530546e-05 3.33193566e-05
      -1.39207905e-05 7.67967431e-05 -1.68792212e-06 -1.67923834e-04
      1.23672857e-04 -1.57936665e-04 -2.51810925e-05 -1.30769316e-04
      5.66238632e-05 3.19065904e-04 -1.46917562e-04 1.61910721e-04
      6.27825677e-04 -1.84873192e-04 1.64206652e-03 -3.68864639e-05
      -4.11524125e-05 1.42138349e-04 1.52693858e-04 8.58455460e-05
      -2.10364873e-04 7.27876704e-06 9.43802734e-05 8.24849849e-06
      -6.70324953e-05 3.05143985e-05 -3.00903339e-04 -5.62611734e-04
      6.87739346e-04 2.36726875e-04 9.01078922e-04 -3.90069945e-05
      -1.86977646e-04 8.17326654e-05 -2.61391688e-04 -4.63568489e-04
      5.41071204e-05 -4.06435778e-04 1.50956912e-04 -2.56638275e-04
      -2.32485923e-04 -5.32724895e-04 -7.37216615e-04 -1.23139599e-03
      -1.29685970e-04 -3.51888710e-04 3.92089220e-04 4.05429571e-04
      -4.55143199e-05 -1.40398464e-04 5.73385507e-04 1.43018016e-03
      9.48690358e-05 -1.58607654e-04 -2.15276168e-06 4.57851820e-05
      4.66397832e-05 7.30221916e-04 -1.28660945e-03 6.03556517e-04
      7.46719670e-05 2.99515086e-05 -2.48332479e-04 -1.20183300e-04
      1.93838951e-05 2.54026992e-04 -3.17541235e-05 -5.53185237e-04
      -6.52233284e-05 -1.07316984e-04 1.56360751e-04 -4.18393844e-04
      -1.70238840e-04 5.41758141e-04 2.91513075e-04 -5.70518605e-04
      -6.32226525e-04 5.53389800e-05 -2.28378398e-04 -1.11123445e-04
      1.07281718e-04 -3.54685581e-05 9.27437140e-05 7.92849460e-05
      -3.84984567e-04 3.54465265e-05 1.39081021e-04 1.60403273e-04
      2.72384696e-05 4.15642899e-05 7.69957842e-05 -1.30743091e-03
      1.51978747e-03 8.67001290e-05 -1.09870409e-04 8.98384042e-06
      2.48313969e-04 -5.54946135e-04 5.80831140e-04 1.10579096e-03
      8.12329585e-04 -9.19176164e-05 8.11169048e-06 -7.92608073e-04
      2.23807547e-05 -7.66743833e-05 -9.41402279e-04 -4.69596038e-04
      5.71074255e-04 -4.50275955e-04 -5.61881578e-04 -4.94198466e-04
      1.83466327e-04 -1.06278481e-03 -5.12268976e-04 1.15932443e-03
      1.86907972e-04 2.26190677e-04 2.06637778e-05 -6.48426649e-04
      1.05229898e-04 3.81459628e-04 -7.13057932e-04 3.29062081e-04
      -4.54614928e-06 -3.27848575e-05 -8.27869917e-06 1.41399374e-04
      -5.82801549e-05 -2.58271029e-05 -3.10359057e-04 1.05690374e-03
      -3.64133994e-05 1.98805239e-07 -1.06799525e-04 6.69294968e-04
      -3.58999750e-06 5.65758732e-04 6.73510513e-05 4.01173238e-05
      6.86192361e-04 -4.21324185e-05 -2.82409281e-04 8.69811411e-05
      -7.06260562e-06 6.27334593e-05 9.61089463e-05 1.64560624e-04
      1.03662453e-04 -2.87867115e-05 -1.17678421e-04 -4.12190238e-05
      -4.72366301e-05 -2.82022684e-05 2.07224861e-04 -2.03165342e-03
      9.94966831e-04 -9.25513086e-05 4.40747361e-04 -2.75568193e-04
      1.09760738e-04 1.71852982e-04 -1.42502467e-04 -1.31856918e-03
      -3.31781892e-04 -2.34481806e-04 -3.55355121e-04 5.40038454e-04
      2.03983829e-04 1.03207910e-03 2.71263707e-04 8.28460325e-04
      6.98941178e-04 1.97586181e-04 3.57541285e-04 3.09161805e-05
      -9.66265361e-05 8.25321476e-05 -2.47079617e-04 -1.29085092e-04
      -1.63985576e-04 8.32189908e-05 9.36847027e-06 -3.79305828e-04
      -1.68412895e-04 -2.69768434e-03 -6.95705239e-04 5.34879684e-04
      1.76761358e-04 -9.27549918e-05 9.22822728e-05 -2.11888138e-04
      1.08676340e-06 2.17026769e-04 -1.14182243e-04 -1.13444508e-03
      5.75256199e-05 -3.59424666e-05 3.34000360e-05 6.01262029e-04
      -1.10323272e-04 -1.89733371e-04 -1.49926331e-04 5.98506595e-04
      1.68910643e-04 -4.21000514e-05 8.70484335e-04 3.97347103e-05
      -1.20683562e-05 -1.47876475e-04 7.67869991e-04 -1.01454680e-04
      9.30156311e-05 -3.48704521e-06 1.36798790e-05 -6.29916758e-06
      9.19032973e-05 4.85876808e-05 1.69715437e-04 -1.48168846e-03
      4.31126136e-05 2.29880228e-04 1.28358335e-03 1.07075706e-04
      3.56577584e-05 -8.26901814e-05 6.44334650e-04 -1.56791508e-03
      -2.15660490e-04 1.18081720e-04 3.24651279e-04 -7.66982703e-05
      -1.08028871e-04 4.42548306e-04 3.68925015e-04 2.16060100e-04
      -7.52350606e-04 7.05053390e-04 1.08465552e-03 3.56697245e-04
      -9.05926427e-05 5.30703866e-04 2.41766986e-03 -1.21291712e-04
      -2.88385549e-04 2.57372194e-05 -1.80204788e-05 -1.66954691e-04
      1.34090573e-04 -1.61762128e-03 -6.34500175e-04 -1.95843138e-04
      -9.08297807e-05 -4.93326334e-05 6.24237728e-05 1.54272901e-04
      3.90874811e-05 -6.98579679e-05 3.27639791e-05 -7.27636158e-04
      2.92773457e-05 3.91908106e-05 3.10196151e-06 -3.80012585e-04
      6.82348691e-05 2.65563758e-05 -4.80665854e-04 2.56874628e-04
      4.49362327e-04 1.10164969e-04 1.65871228e-04 -2.62214453e-05
      3.43243737e-05 9.64086666e-06 1.10205379e-03 -1.14262730e-04
      -1.01652382e-04 -4.99665621e-05 8.98739563e-06 -7.74180735e-05
      -3.48263929e-05 2.67796122e-06 2.49899866e-04 -1.31753949e-03
      -1.51423109e-03 5.58921092e-05 3.91506357e-04 -4.98157868e-04
      3.90271671e-05 -7.51059735e-04 -4.81410621e-04 1.72243442e-03
      -4.24452912e-04 6.43579369e-06 -4.46158025e-04 1.16582308e-03
      1.87254132e-04 1.86872770e-04 -5.49427990e-04 1.03158969e-03
      1.15236104e-03 2.64224160e-04 -3.13431839e-04 2.52422964e-04
      -6.06036447e-05 1.53203902e-03 1.25039674e-04 -5.00986760e-04
      -2.59695225e-04 2.08708007e-04 -1.11695561e-04 4.70051949e-04
      3.10178904e-04 3.32459225e-03 2.07803515e-03 -3.46717716e-04
      7.74569489e-05 8.68392963e-05 -9.11879761e-06 -1.41887140e-04
      -8.71692373e-06 -3.66112916e-04 1.15383828e-05 -1.17912202e-03
      5.17321241e-05 -3.68880101e-05 -8.79996151e-06 -1.05029228e-03
      -1.44637102e-04 8.16080312e-04 1.07703017e-04 7.71703431e-04
      -4.10890440e-04 -1.17043028e-05 3.99899174e-04 -3.69514760e-06
      -1.44473350e-04 9.68437871e-06 1.65393401e-04 3.53236355e-05
      -5.13698760e-05 -8.62467914e-07 7.80569317e-05 -4.64310915e-06
      -3.07157970e-05 -1.86407342e-04 4.48495790e-04 -7.63084216e-04
      -5.16978151e-04 -2.18479254e-04 -1.02672464e-04 -2.95842212e-04
      3.91513749e-05 -1.69105668e-04 -1.14195724e-03 -4.23777936e-04
      -3.20093706e-04 -4.17675503e-04 -4.50668391e-04 -1.34281616e-03
      -1.93037326e-04 -1.29244465e-03 -8.16200394e-04 2.18345481e-03
      -6.95074385e-04 4.89875500e-04 1.32819428e-03 5.46749681e-04
      -7.31402542e-05 5.71264361e-04 2.62747961e-03 5.46704105e-04
      1.64374462e-04 2.97813476e-05 2.02543131e-04 2.94177822e-04
      -5.02738258e-05 4.10049863e-04 5.00152993e-04 -5.21904440e-05
      -5.14705571e-05 1.57772156e-04 -2.20302885e-04 -3.98376360e-05
      -2.04690741e-06 2.07127567e-04 4.16331110e-04 -6.23663946e-04
      5.79597036e-05 8.40286375e-05 -3.87432010e-05 -1.27633801e-03
      -4.73024229e-05 6.50935632e-04 4.76898596e-04 -2.99857435e-04
      -5.34460240e-04 6.37338962e-05 -1.44549483e-03 -5.82050052e-05
      -4.74903827e-05 1.94771317e-04 1.99853862e-03 1.14911643e-04
      -2.05171411e-04 5.02068106e-05 1.20555989e-04 4.85203091e-05
      6.87268766e-05 -2.78177722e-05 2.25331241e-04 -1.97827304e-03
      -1.49744633e-03 1.33294976e-04 -6.98196236e-05 1.00425154e-04
      -4.85748296e-06 1.72567568e-04 4.65165096e-04 -5.07578114e-03
      -1.04995817e-03 -2.74409176e-05 1.66499871e-04 -1.13524104e-04
      -6.35633769e-04 -1.02383739e-04 4.74895292e-04 4.10823377e-05
      2.95155623e-05 -6.60807360e-04 -1.68057426e-03 1.69326711e-04
      -3.04803951e-04 -3.01727996e-04 -3.20661510e-03 3.17984988e-04
      -3.48293222e-04 -4.23371639e-05 -5.25536125e-05 1.25491957e-03
      1.61972421e-04 8.95412813e-05 -2.80504843e-04 7.36637157e-04
      8.88410286e-05 1.71799456e-05 1.94393724e-04 -3.03134748e-05
      3.75747913e-06 -1.87171958e-04 -1.20749290e-04 1.23538985e-03
      2.08385518e-05 1.89147722e-05 -1.98540831e-04 1.34904985e-03
      7.81238923e-05 -4.80471674e-04 -1.76377507e-04 1.06021331e-03
      -1.53538014e-04 1.03546110e-04 -4.02343314e-04 3.09914867e-05
      -2.06961820e-04 -1.40978242e-04 -9.33528529e-04 -9.02748288e-05
      3.91952199e-05 0. 4.73286163e-05 1.07967469e-04 -7.04252670e-05
      6.26136098e-05 -6.19946106e-04 1.12582138e-03 2.78576743e-03
      2.76711198e-05 4.52439272e-04 1.70729676e-04 -2.34631763e-04
      -8.47716059e-04 -3.39685976e-05 5.81580796e-04 1.39645033e-03
      -1.38429255e-04 5.30259975e-04 -2.97074905e-04 -1.20229750e-04
      -1.34261511e-03 -6.25541143e-04 -7.64515426e-04 -3.43096675e-04
      1.75190929e-04 3.72822193e-04 -6.50598449e-05 -1.12858674e-04
      -1.04731380e-03 1.45517103e-03 -1.83805963e-03 -1.87932703e-04
      -1.71723674e-04 2.58707842e-05 -8.65880342e-04 -3.36085650e-04
      -7.82527961e-04 -6.45954686e-04 -6.71882299e-04 -1.70750529e-04
      -3.85000385e-05 4.12064583e-05 2.35568532e-05 3.81168174e-05
      -4.24438476e-04 -6.96021525e-05 -3.72371462e-04 -2.72886409e-05
      8.99479783e-05 -3.52790448e-05 -2.35941683e-04 -3.30342409e-05
      4.36166505e-04 -3.39647813e-04 -3.27044458e-04 5.65710478e-04
      -4.33952191e-05 2.24407343e-03 2.48765118e-05 6.11621435e-05
      -2.44932540e-04 3.80440848e-04 2.87083894e-05 -5.35912877e-05
      -4.64074801e-05 1.02091421e-04 -2.68679596e-05 -6.50776565e-05
      1.14838760e-04 -1.64798941e-04 1.10651010e-04 2.88739312e-03
      -3.97307420e-04 1.42925477e-03 -1.65491670e-04 -5.19425448e-05
      2.57008476e-04 1.30577781e-03 -9.46473854e-04 -1.71926877e-04
      6.08087721e-05 -1.42302626e-04 -4.19838179e-05 2.91488541e-04
      2.90771801e-04 -3.43816093e-04 5.36770443e-04 -2.97010614e-04
      -6.35640390e-05 -2.19466034e-04 2.27873432e-04 2.50381981e-05
      3.68513254e-04 1.52990306e-05 3.63557221e-04 1.43605808e-04
      -3.54980875e-04 6.12808290e-05 3.79001081e-04 -5.53742539e-05
      7.65361881e-04 -9.57034761e-04 5.39122208e-04 -8.07968900e-05
      1.71424705e-04 -1.08708038e-04 1.77442489e-04 0. 5.04115887e-05
      -1.99647300e-04 9.54941090e-04 -1.13098307e-04 1.17501686e-05
      6.77364515e-05 7.17786432e-04 1.29104796e-04 2.20659989e-04
      4.89152560e-04 2.15186847e-05 -7.80272356e-04 -6.15878525e-05
      -3.87768465e-04 -2.07862995e-05 -9.90307090e-05 -3.86202992e-05
      4.19811258e-04 -2.19825146e-04 1.05766012e-04 0. -1.28886139e-04
      -1.73126027e-04 -1.97335567e-06 -2.50300713e-04 -3.96444142e-04
      8.12081038e-04 -7.92814593e-04 -1.76062968e-04 5.03871008e-04
      -1.20912882e-04 -2.81714543e-04 -2.69375334e-04 -8.40763329e-04
      9.20458770e-05 -2.43563336e-04 -6.30146023e-05 -1.06420717e-04
      5.33391030e-05 1.38637566e-04 -2.89164105e-04 -3.70795256e-04
      -1.54060290e-05 -1.29113629e-04 4.99158108e-04 9.79653094e-04
      1.27385225e-04 1.78413451e-04 -1.25283760e-03 5.81656408e-04
      -9.89936409e-04 -4.28267704e-05 6.20991841e-07 -7.73245411e-05
      -7.17444986e-04 -4.23685524e-05 -6.61204336e-04 1.12149201e-03
      -4.90378996e-04 2.41965929e-04 3.51578201e-04 -9.35325152e-05
      -1.80184550e-04 8.93183242e-05 -3.90034256e-04 -1.89338942e-04
      3.17181366e-05 -8.43705493e-05 1.88132122e-04 5.55034021e-05
      -1.20821533e-04 -5.96317914e-05 -7.50267529e-04 -2.87261733e-04
      2.59669847e-04 4.95640234e-06 -2.29033962e-04 -2.97034596e-04
      2.21656646e-05 -2.57964770e-04 -2.65160779e-05 2.73586600e-04
      1.37699244e-04 9.00949381e-05 2.77463914e-05 -1.34114278e-04
      -1.09627043e-04 8.62014494e-05 2.39641959e-05 1.32593414e-05
      1.08051661e-03 3.56426783e-04 2.01615563e-04 1.49144413e-04
      -4.87891317e-04 1.63902791e-04 -6.81626610e-04 1.40113407e-04
      4.36303926e-05 5.41997688e-05 2.31030339e-04 -5.99786399e-05
      7.66030164e-04 -2.96961953e-05 5.51654433e-04 -2.36435328e-04
      5.41359695e-05 5.80446620e-04 -4.35220609e-05 7.85687647e-04
      -8.34264560e-04 2.03615185e-04 -2.55304458e-05 -7.49419152e-04
      6.94528630e-04 1.24724160e-04 2.90344702e-04 -5.95693964e-05
      -5.53952355e-04 -1.76588161e-04 -1.61415245e-03 2.29137542e-04
      -7.27875391e-04 1.25519218e-04 1.12377144e-04 2.01030052e-04
      4.00554243e-04 -2.36343185e-05 1.97007248e-04 -1.41772267e-04
      -2.98013707e-04 1.51978107e-04 1.73105247e-04 -6.43947060e-05
      -1.51131151e-03 6.90455781e-05 -4.48570281e-05 -4.36502814e-05
      -2.40385270e-04 6.66090520e-04 1.79686656e-04 6.95909184e-05
      -1.00608224e-04 -3.28027636e-05 5.39109096e-05 6.68939494e-04
      -9.43605701e-05 -4.98960253e-05 1.61086791e-05 -1.01155856e-04
      9.02828760e-05 6.92892500e-05 -5.83631117e-05 -5.63796020e-05
      1.20917248e-04 6.01683969e-05 2.66415125e-04 -1.32383662e-04
      2.59306573e-04 -2.09611331e-04 -2.76818813e-04 6.03015105e-05
      6.88923232e-04 2.08758633e-04 -7.02817924e-05 -2.15322783e-04
      4.88623082e-05 1.22849242e-05 9.07000795e-04 -2.89197749e-04
      7.18658557e-04 5.54135127e-04 -2.10489641e-04 4.03030455e-04
      -5.99092280e-04 7.80913688e-05 4.53477522e-04 4.53203218e-04
      -3.68351291e-04 -8.94602563e-05 -2.10086091e-06 -2.84040434e-05
      2.37654138e-04 -1.44871537e-05 -1.09857682e-03 5.86436712e-04
      1.02973694e-03 -2.96538783e-04 -9.07695212e-05 -9.79343240e-05
      2.17910885e-04 -6.40042417e-05 1.53714514e-04 2.40272257e-05
      1.88199128e-03 6.79267832e-05 -6.39203863e-05 1.89311413e-05
      -6.20074279e-04 -2.10203842e-04 -5.55081468e-04 -4.32779343e-04
      3.80167767e-04 3.74215830e-04 1.00527315e-04 -1.80111791e-04
      3.58892576e-05 7.27066144e-05 -4.41079355e-05 -2.56044732e-05
      -2.87546281e-04 8.87013884e-05 1.69892646e-05 -2.22509145e-04
      -3.77635988e-05 3.52345087e-05 1.17867246e-04 -3.00942993e-05
      -1.21586188e-03 1.84750970e-04 1.16627431e-04 2.72442121e-04
      -4.96276625e-05 -1.27346575e-04 2.70050747e-04 5.15060383e-04
      -4.46880469e-04 -3.07027280e-04 2.08096626e-05 -2.67499039e-04
      -5.60852233e-04 9.96480230e-05 9.26103021e-05 -1.02812366e-03
      9.90367262e-04 -4.27641527e-04 1.06149782e-05 9.76545489e-05
      3.35164601e-04 -2.14500124e-05 5.54209808e-04 -2.96072662e-03
      -1.23850943e-03 3.22720480e-05 -7.75054796e-05 2.66588995e-05
      4.47132741e-04 -1.44128499e-04 1.17245084e-03 -7.89732207e-04
      -3.10916046e-04 -3.57595090e-05 1.06173029e-05 1.25544439e-05
      3.15974350e-04 7.55420479e-05 5.59411710e-04 -5.32536906e-05
      -5.52280922e-04 1.23443897e-04 9.59168829e-05 6.76395503e-05
      -1.67062425e-03 3.42085041e-05 8.56978062e-04 2.44879775e-04
      5.95583770e-05 -2.43078845e-04 5.30466023e-05 4.33573645e-04
      1.34384856e-04 3.56191631e-05 9.78598691e-05 6.82359852e-04
      5.35131367e-05 -6.93022739e-05 0. 2.64844894e-05 -3.29370705e-05
      -5.52075981e-05 2.31971717e-04 6.96312127e-05 5.84105554e-04
      2.42228489e-04 1.59697738e-04 2.40626221e-04 -1.21661462e-04
      1.51516739e-04 -6.30945215e-05 8.94122204e-05 -4.39697556e-04
      2.98501182e-05 -1.37685220e-05 -1.83274926e-04 -7.26806233e-04
      -3.63621133e-04 1.88725753e-04 9.67120402e-04 2.83559551e-04
      7.96268636e-04 3.69821122e-04 -8.48688796e-05 -3.49694863e-04
      -8.37373009e-05 -6.10639050e-04 3.35656950e-04 -3.07740760e-04
      -8.66458358e-05 -2.27392069e-04 1.93930100e-04 4.00838006e-04
      -5.54716207e-05 2.83193332e-03 -8.86923226e-04 1.47425773e-04
      -1.66397644e-04 1.84761539e-05 1.99792539e-05 2.42861890e-04 0.
      1.20200002e-05 -4.52313034e-05 8.76210455e-04 -4.45401274e-05
      6.84804763e-05 -3.37012571e-05 2.67924188e-04 -2.79621554e-06
      -1.93691943e-04 -1.24063736e-04 3.18916864e-04 -1.06373616e-03
      -5.24556308e-05 -1.60894313e-04 6.31929797e-05 2.10985436e-05
      -1.50738575e-04 -8.20152287e-04 -2.54915532e-04 1.05027124e-04
      -3.95099742e-05 6.06080030e-05 -2.00775012e-05 3.16981459e-05
      -2.51282327e-05 1.51119035e-04 1.08323095e-03 -1.17849547e-03
      5.14079002e-05 -5.50907804e-04 -2.57967826e-04 -1.44955178e-04
      -7.90544320e-04 6.28361478e-04 2.15443061e-03 1.45734020e-03
      -1.49880536e-04 -5.12987841e-04 2.67342024e-04 -4.81840834e-04
      -1.07638631e-03 -2.22404976e-03 2.16471194e-03 9.63755883e-04
      2.13907377e-04 3.05599504e-04 4.49750194e-04 1.03305629e-05
      8.09780846e-04 1.04862812e-03 6.15907833e-04 2.76436222e-05
      1.24136830e-04 2.42815668e-06 1.02129742e-03 -2.63384663e-05
      1.23644667e-03 -4.51457454e-05 -3.43603577e-04 -3.98135817e-05
      1.54982001e-06 1.84592354e-04 1.21244382e-04 -1.92071457e-05
      5.46400297e-05 -7.30858228e-05 -6.22853753e-04 1.36488976e-04
      -1.95909568e-04 -8.29404380e-05 5.65174560e-04 -2.99090370e-05
      1.91301422e-03 3.44102067e-04 9.05318229e-05 -3.40552389e-04
      8.14894738e-05 4.57806542e-04 1.60974596e-05 -5.26174772e-05
      1.06495727e-05 2.95782520e-04 -2.42431008e-04 8.41918081e-05 0.
      -2.61614496e-05 -1.02343929e-05 1.64168450e-05 9.47752924e-05
      3.88708344e-04 -1.24196941e-03 -5.84918400e-03 -2.82917725e-04
      -2.05772158e-04 4.06343534e-05 -1.71768203e-04 5.83914458e-04
      9.23920481e-04 -3.61541333e-03 -1.98840676e-03 -3.60860759e-05
      -3.79035948e-04 4.60530682e-05 -1.30950284e-04 9.92875081e-04
      -3.86670901e-04 4.94314008e-04 1.69152903e-04 2.81545304e-04
      -2.50593235e-04 -2.23165116e-04 -2.48439392e-05 -7.42883713e-04
      -1.56263798e-03 -6.47620182e-04 -1.26921645e-04 -1.23327060e-04
      8.19385386e-05 -4.98826033e-04 1.16588351e-04 -2.46042502e-03
      -1.10959343e-03 -8.36067338e-05 3.00901502e-05 -6.75860283e-05
      4.41470474e-05 1.47171508e-04 0. -8.09774428e-05 -1.20624727e-05
      9.45841020e-04 -3.10906980e-05 1.87554324e-05 -5.91662829e-05
      1.49443062e-04 -1.37628531e-05 -9.91762383e-04 -5.25155920e-04
      2.47589516e-04 6.28966023e-04 6.59779034e-05 2.97595747e-04
      -1.53489425e-04 -1.05408235e-05 2.01910239e-04 -3.48941045e-04
      -3.51650851e-05 5.03156407e-05 2.04320968e-05 -5.11806866e-05
      7.24360652e-05 7.34980058e-05 -6.50292932e-05 -1.62224678e-04
      1.70682138e-03 2.54127110e-04 3.93377450e-05 -2.83670961e-04
      2.71558034e-04 -1.88778198e-04 6.70883819e-05 -8.89293005e-05
      1.28308765e-03 3.67208813e-05 -1.85571640e-04 6.52419578e-04
      6.71637070e-04 8.43528949e-04 3.49205569e-04 8.96288489e-04
      5.53437683e-04 3.88325221e-04 3.74553900e-04 3.53923038e-04
      1.02551724e-03 -9.61818005e-05 1.86686579e-03 -1.63212908e-03
      2.78911582e-04 -2.91304867e-04 -8.55642575e-05 -1.03735605e-04
      6.52419636e-04 -1.26429906e-04 1.98094733e-03 1.87785772e-04
      7.78074464e-05 -1.75496360e-04 4.33896384e-05 -4.18863528e-05
      -3.15263722e-04 3.25322508e-05 -2.52055052e-05 -7.01768586e-05
      -3.15412210e-04 9.11417010e-05 1.84127566e-04 1.72454762e-04
      -1.96100111e-04 7.50572508e-05 3.52554343e-04 -4.79063892e-05
      4.65577396e-05 5.17467095e-04 1.14819886e-04 -1.22439279e-03
      1.41168770e-04 -2.81441404e-04 -6.25018038e-06 7.78335962e-05
      -1.37058814e-04 2.91824267e-06 0. 6.56095435e-05 6.31172006e-05
      -1.33626949e-04 1.62176672e-08 1.94089793e-04 -5.01842645e-04
      -5.07937861e-04 -7.42751508e-05 5.10677673e-05 -4.91601859e-05
      -7.02063189e-05 -1.92472344e-05 1.49332714e-04 -1.21676351e-03
      1.42765894e-05 -5.45296134e-05 -5.09059813e-04 7.39079042e-05
      -4.22519370e-04 -5.17601555e-04 -9.55228752e-04 8.24959643e-05
      1.54071691e-04 4.78868431e-04 -3.90447589e-04 -3.36531783e-04
      -4.19286116e-05 -1.99601112e-04 -7.11480097e-04 1.07252912e-04
      -1.69494087e-04 -2.05811113e-04 -3.40804145e-05 6.35862001e-04
      5.29926874e-05 1.09721161e-03 4.71857871e-04 5.75722152e-05
      -9.51360271e-05 -3.69055597e-05 1.78894497e-05 5.71806449e-05
      -2.48491779e-05 -5.40912770e-05 -1.25462000e-04 -1.00802991e-03
      1.03451886e-04 4.29050197e-05 -1.67069637e-04 -4.26263374e-04
      5.57751991e-05 -7.76833098e-04 -9.93584326e-05 2.76301609e-04
      2.12151193e-04 1.61134594e-04 -1.09364984e-04 -9.14425837e-05
      -4.53737666e-05 -1.92636508e-04 1.87814105e-04 2.36786200e-05
      -2.15208820e-05 0. -7.82244606e-05 -1.70852960e-04 8.69956057e-05
      -1.00710713e-04 5.66540519e-04 4.56447713e-04 -1.55100046e-04
      -1.35382570e-05 -2.93131772e-04 1.54088513e-04 3.93463648e-04
      -4.74807894e-06 5.52079815e-04 -4.74143511e-04 4.60874609e-04
      -1.79827130e-05 6.41834049e-04 -3.88840650e-04 -2.85030750e-04
      -9.03653272e-05 -1.52410954e-04 -4.93635074e-04 -5.38676162e-04
      3.50319431e-04 7.91626459e-04 -3.92291768e-05 1.13475377e-04
      1.53766276e-04 6.38971163e-04 3.24285822e-04 -8.44477327e-05
      -6.02542539e-04 1.26863903e-04 -1.71747219e-04 4.56396665e-05
      -5.04264142e-04 -2.11095350e-04 5.01435890e-04 -5.08022895e-05
      -2.15953551e-04 2.26429484e-06 -4.21757250e-05 -3.03436791e-05
      3.73755116e-04 1.79169117e-04 6.03752909e-04 -6.12254080e-05
      -2.86391849e-04 1.29589152e-05 8.57105188e-04 -1.31641377e-06
      -2.77442479e-04 6.94645511e-04 -1.32533110e-04 -3.23458837e-04
      4.17471492e-05 1.02550013e-03 1.58328796e-04 -7.67747260e-05
      -1.49797372e-04 -8.31049256e-05 8.09186258e-06 -5.00561437e-05
      -5.28736018e-05 -7.00188029e-05 2.52798083e-04 1.45679995e-04
      -1.19786957e-04 -6.71711605e-05 -5.36989770e-04 -1.24428025e-03
      1.97597576e-04 -5.48253069e-04 -1.92009698e-04 1.34116257e-04
      -8.92938042e-05 -4.42951132e-04 -3.35839024e-04 5.79907210e-04
      -1.43770972e-04 3.34384182e-04 -4.80851100e-04 4.15330258e-04
      1.07057544e-03 -1.38298864e-03 8.30982754e-04 7.50854844e-04
      4.05652274e-04 -7.56769499e-04 -2.35456711e-04 -9.66485750e-05
      -6.87682477e-04 -1.03553373e-03 -9.55151554e-05 -9.66943408e-05
      1.53981950e-04 -7.11712983e-06 -2.87424991e-05 -8.22052425e-06
      -1.70141179e-03 -1.18860153e-04 -4.42084274e-04 2.77446234e-04
      -9.82698402e-05 4.21144759e-05 1.28826083e-04 -9.41610506e-06
      -4.45044978e-04 9.99164477e-05 3.96351330e-04 -4.32108463e-05
      1.80206480e-05 3.00980209e-05 1.09613687e-03 1.78847768e-04
      -9.89204156e-04 -2.24582909e-05 -3.47117690e-04 -5.92872093e-04
      3.83481929e-05 -1.87791986e-04 3.49626993e-04 -4.84881020e-05
      -2.02795301e-04 3.14837962e-04 1.13160306e-04 -7.66220182e-05
      -5.62187051e-05 1.19933909e-04 -1.13476763e-05 2.36783144e-05
      5.23484159e-05 7.93711632e-04 -1.39144936e-03 9.43749794e-04
      9.13486583e-05 3.78584402e-04 -1.25266917e-04 -1.06142477e-04
      -1.14105984e-04 5.88246679e-04 1.17762620e-03 7.42057236e-05
      -1.98245965e-04 1.86659308e-05 6.84940838e-04 -3.49602378e-05
      2.60421133e-04 -2.08991842e-05 -7.83982920e-04 8.72198725e-04
      6.31359217e-05 -1.06882968e-03 3.38701147e-06 -1.18779011e-04
      3.13207333e-04 6.19230093e-04 4.27722407e-04 1.49433894e-04
      -2.20944930e-05 3.11222720e-06 1.10363559e-04 -6.62735056e-06
      4.23138583e-04 4.25969512e-04 -6.47604989e-04 1.00185491e-04
      -1.33266905e-04 -1.96721361e-04 -7.47969752e-05 0. -4.20658034e-05
      2.04995085e-04 -5.82444132e-04 9.24719352e-05 -7.62210184e-05
      1.35857816e-04 -6.45130931e-04 -1.01119142e-04 5.26388350e-04
      1.66376092e-04 2.80321634e-04 1.64749959e-04 9.29637390e-05
      -3.26819514e-04 -8.98164217e-05 1.47785540e-05 1.00496327e-05
      -1.71098695e-03 1.00354933e-04 -1.71352542e-04 4.66589299e-05
      -1.79242270e-04 7.86357123e-05 -1.41657183e-05 2.03722648e-05
      3.40334780e-04 -5.74649835e-04 -1.61516538e-04 -2.05878700e-06
      3.96075775e-04 2.77463223e-05 -1.15131683e-04 -8.15527164e-06
      -2.98717379e-04 1.28141965e-03 2.20309394e-05 1.60662094e-05
      6.82265556e-04 7.42964679e-04 -3.00421147e-04 -1.75323614e-04
      -3.26920883e-04 -1.50792196e-03 3.04642948e-04 4.12974303e-04
      3.29022150e-04 -8.83153814e-04 -6.43241729e-05 9.43107661e-05
      7.37252063e-04 -4.81791882e-04 -2.55548439e-05 1.82294716e-05
      1.08329288e-04 4.90652106e-04 -8.91703676e-05 6.68503053e-04
      1.59826159e-04 -6.78519369e-04 4.64790974e-05 -6.39111386e-05
      -6.81085703e-06 -2.27248631e-04 -1.57636077e-05 -1.62614509e-04
      2.15835200e-04 6.86817279e-04 -4.00755198e-05 -5.50646582e-05
      4.61912641e-05 1.36313448e-03 3.59477766e-04 3.65093380e-04
      3.84854386e-04 4.27138817e-04 6.92099624e-04 -3.70777889e-05
      1.05915693e-04 -7.94816369e-05 7.70423503e-05 -1.77873691e-04
      2.75849889e-04 -5.21511392e-05 7.36199217e-05 2.61930854e-05
      -5.91006574e-06 5.19663627e-06 -2.17368543e-05 -1.66959857e-04
      -1.13435810e-04 -7.15354632e-04 -9.30936076e-04 -1.45415266e-04
      2.16642598e-04 -1.11409150e-04 -2.66109510e-05 -4.72344167e-04
      -4.80120252e-05 -2.06205237e-04 -7.80640548e-05 -1.57789837e-04
      3.16259917e-04 9.52515529e-06 -8.84700741e-04 -7.81830575e-04
      4.98115958e-04 -6.62766164e-04 -1.82955555e-04 1.74449000e-04
      3.36342404e-04 1.44212550e-04 1.49434156e-04 4.30793938e-04
      -3.11576208e-04 4.45175363e-04 7.44555246e-06 3.46966954e-05
      -1.48626964e-06 4.07049054e-04 -1.47859711e-04 6.86349405e-04
      5.19940106e-04 -6.45288164e-05 1.89044968e-05 -1.40666583e-04
      -3.93158516e-05 -3.33256437e-04 -1.60528743e-05 -1.74085639e-04
      2.92892510e-05 1.32351881e-03 -3.19759129e-05 1.81041381e-04
      -8.92599273e-05 1.46467250e-03 5.69878066e-05 1.50967343e-03
      -3.50959772e-06 1.11421723e-04 4.91795763e-05 -1.06784493e-04
      -1.11804530e-03 -3.55848897e-05 3.63723666e-05 5.79767038e-05
      -9.04318178e-04 -6.06995673e-05 -1.48375912e-04 0. -1.20444041e-04
      -3.11588774e-05 -7.92857463e-05 -8.16485335e-05 2.22017203e-04
      -1.42642739e-03 -2.32662162e-04 -4.34319463e-06 -1.34339905e-03
      3.29062546e-04 1.90874362e-05 5.20617286e-05 -3.66230292e-04
      8.69643991e-04 -5.94670710e-04 4.17156079e-05 -9.09212860e-04
      1.97897607e-04 -1.02274767e-04 2.04253534e-04 -2.45804607e-04
      2.01103248e-05 7.01423676e-04 6.16280187e-04 3.74029551e-05
      7.53190485e-04 -2.61354417e-05 7.50416657e-04 7.35893263e-04
      -1.32892310e-04 -6.43558742e-05 -5.57784806e-05 2.90953740e-05
      1.23566802e-04 -2.77692925e-05 7.25511985e-04 -4.77586902e-04
      3.03763110e-04 2.83011013e-05 -1.74606233e-04 -7.78757239e-05
      1.17826276e-04 1.70100175e-05 -1.27274485e-04 2.57059605e-06
      -2.11228640e-03 -4.32652769e-06 1.15000053e-04 -2.86161667e-05
      -1.59373030e-03 1.76102869e-04 -8.08249693e-04 6.77295029e-04
      -2.29133933e-04 7.30365224e-04 7.91093553e-05 6.46070621e-05
      -4.82816140e-05 -2.79566848e-05 -6.88648288e-05 3.19960673e-04
      1.08227441e-05 7.41231861e-06 0. 2.32293765e-04 2.03936770e-06
      -2.08795500e-05 -5.72360004e-05 1.25673483e-04 -8.34484235e-04
      5.93279947e-05 4.93255029e-05 1.48867184e-04 -1.12480111e-05
      -3.08720337e-04 -1.25280305e-04 -3.60654230e-05 -1.15351100e-03
      -1.92478168e-04 4.03319827e-05 6.96863863e-05 1.61728254e-04
      -2.16822198e-04 1.75950030e-04 8.34184233e-04 2.50546611e-04
      2.78350548e-04 -1.46876540e-04 6.05583700e-05 4.16362513e-04
      -1.88407503e-04 2.87435512e-04 8.63320427e-04 8.37237749e-05
      1.86752914e-06 5.24476782e-05 -2.76867850e-05 -6.07646070e-04
      2.80381006e-04 -4.24693048e-04 -2.43791699e-04 9.63732833e-04
      -8.07939723e-05 1.06394844e-04 -5.93814184e-05 -1.64921061e-04
      8.02465638e-06 -4.87725010e-05 1.18598939e-04 5.49219840e-04
      1.77466383e-04 1.29402659e-04 3.49696020e-05 3.26242036e-04
      -8.30030476e-05 -4.92385472e-04 2.10784347e-04 -4.10057371e-04
      -6.11878058e-04 -3.92711489e-04 -1.62423053e-03 -6.88720538e-05
      3.05479953e-05 2.34575532e-06 -7.26205471e-04 -5.44372451e-05
      1.10882997e-04 -1.47432056e-05 -2.08052108e-04 -1.43088808e-04
      -4.30375512e-05 -7.13736008e-05 4.23964928e-04 3.25319328e-04
      1.24878937e-03 8.79592699e-05 1.68867584e-04 1.17153322e-04
      1.26779370e-04 -1.97987392e-05 -1.42666657e-04 5.60050830e-04
      6.16993988e-04 2.30937003e-05 -3.59508907e-04 -7.95230153e-05
      -5.67267241e-04 -6.37887744e-04 -2.98879662e-04 -1.14143826e-03
      9.41370745e-05 -8.57174047e-04 -4.47552942e-04 -2.03761359e-04
      3.08572976e-06 -7.51151587e-04 2.78440741e-04 6.16874138e-04
      -7.08141088e-05 -5.01413488e-05 1.48109821e-05 1.49933982e-03
      3.64278312e-05 2.77147366e-04 -5.87594113e-04 -1.29031818e-04
      -3.98845332e-05 -1.57459028e-04 -1.20743418e-04 1.07324682e-04
      -6.25719549e-05 9.01879466e-05 4.33900532e-05 3.34989105e-04
      -8.44782153e-06 -1.68813815e-04 4.43066820e-05 -4.44567791e-04
      -4.79347955e-06 -1.54492489e-04 6.54049567e-04 2.68389878e-04
      6.47521869e-04 7.68357040e-06 9.95468232e-04 1.86459263e-04
      -1.64357043e-04 -1.57246177e-04 1.02761865e-03 1.01906508e-05
      -1.61686432e-04 0. -3.04574587e-05 -3.64163352e-05 5.40622314e-05
      8.25101597e-05 -2.81960150e-04 -7.72485437e-05 -5.63889393e-04
      -1.34473768e-04 -4.74556582e-04 2.42331487e-04 4.36145026e-04
      1.01223442e-04 -4.36552917e-04 2.30264777e-04 -8.07917677e-05
      -4.04328784e-05 -1.07949505e-04 -1.20771620e-05 -1.22415571e-04
      5.94952435e-05 -1.60930736e-04 -5.22413116e-04 4.33444147e-05
      -4.29473497e-04 5.80630876e-06 4.42261342e-04 -7.60291441e-05
      -3.04357382e-04 1.03567017e-03 1.93799468e-04 -1.61079970e-05
      2.36676551e-05 6.48744390e-05 1.07074215e-04 -3.98500924e-05
      -2.15992797e-03 -8.08188866e-04 4.95301036e-04 4.34018261e-07
      -2.24114730e-04 -1.46317470e-04 6.30915019e-05 -1.79424187e-05
      6.36954501e-05 -1.61970907e-04 1.84877455e-04 7.00546152e-05
      1.83472021e-05 -1.18147706e-04 -5.93693345e-04 5.38493441e-05
      6.59351761e-04 1.80577292e-04 -5.18387067e-04 -3.23727960e-04
      2.03834788e-05 9.79022938e-04 -6.94546397e-05 6.91957684e-05
      -3.60994338e-04 2.78538326e-04 2.17180495e-04 -9.19547310e-05
      -1.19229080e-04 -1.24623664e-04 1.09117711e-04 2.33386017e-04
      -1.09485500e-05 5.90516265e-06 1.14384631e-04 1.97430258e-03
      -1.56074952e-04 2.55745981e-04 1.73735811e-04 -5.96114587e-05
      -1.36949093e-04 -8.19321373e-04 2.94687343e-04 9.60641773e-05
      2.02037772e-05 -3.33766337e-04 3.14650562e-04 6.75770396e-04
      -4.71227308e-04 -3.23547720e-04 4.73485474e-04 -7.19805348e-06
      1.51555359e-04 1.49784354e-03 2.52149010e-04 -2.55887953e-05
      -9.06458823e-04 -1.50295906e-03 -5.07665427e-05 -1.41121971e-04
      7.64770230e-05 1.87599711e-04 -2.26570657e-04 -2.87895045e-06
      -5.34593069e-04 4.43135767e-04 -3.10623960e-04 -4.83237491e-05
      8.55088583e-05 3.05291614e-05 1.07772112e-05 -6.61837885e-06
      -6.41085217e-06 5.81752429e-05 -2.28630088e-04 2.43898205e-04
      7.60108378e-05 2.85910446e-05 -2.43557850e-03 9.06500645e-05
      -7.50063278e-04 4.09439934e-04 -4.50534193e-04 -2.98116720e-05
      6.62364328e-05 -1.31538225e-04 -8.06622775e-05 -1.71234409e-04
      1.08720262e-04 1.58027373e-03 5.30684520e-05 1.60731957e-04 0.
      -7.72491330e-05 1.57894465e-04 1.67721500e-05 3.16190381e-05
      -4.70196537e-05 9.81684207e-05 1.87797402e-03 1.31834095e-04
      2.76839710e-04 4.39989481e-06 1.62590877e-04 -5.27413038e-04
      -5.71611454e-04 5.41879388e-04 -2.52608239e-04 5.84790832e-05
      -1.97567206e-04 -7.31944165e-04 -2.31472528e-04 1.10980705e-03
      1.31935449e-04 -7.08926935e-04 3.12772929e-04 4.10986948e-04
      1.33921712e-04 -2.59396358e-04 -4.07300540e-05 -5.38895620e-06
      -1.67757353e-05 4.85858938e-04 3.19861429e-05 1.67422477e-04
      7.56118388e-05 -6.03918685e-04 -1.17990610e-04 -2.26982450e-03
      -4.84717428e-04 2.53012549e-04 1.39629163e-04 -2.06894365e-05
      -3.54181793e-05 -1.24796716e-04 4.62905846e-05 -1.55625239e-04
      -1.29810913e-04 1.23458123e-03 4.91889159e-06 -3.39197686e-05
      -4.53986140e-05 3.25170625e-03 1.10428104e-04 3.33395001e-04
      -1.03090669e-03 -7.89464219e-04 -3.88591463e-04 -2.03360891e-04
      1.70444907e-03 1.02590391e-04 4.67031859e-05 7.48212624e-05
      1.64419427e-04 -7.51678745e-05 6.38077545e-05 -2.18556161e-05
      3.23295062e-05 1.20846773e-04 6.04100096e-05 -2.10638915e-04
      -4.36478993e-04 -1.79588722e-04 4.48986015e-04 -6.45808977e-05
      -1.15210970e-03 1.35014634e-04 -1.37746407e-04 2.80742359e-04
      2.69682467e-04 -1.81352574e-04 5.39272442e-04 -6.36084806e-05
      3.41881459e-05 6.17190846e-04 1.88976352e-04 -4.07592830e-04
      -1.48058077e-03 -7.37761788e-04 3.76580778e-04 -3.03686480e-04
      -4.16184776e-04 -2.45897158e-04 -3.73492585e-05 5.06835873e-04
      1.44739100e-03 -5.17603010e-04 6.38755228e-05 -1.25087376e-04
      -7.98353067e-05 1.39282516e-03 -6.18913327e-05 5.05133394e-05
      5.71490382e-04 -9.53453186e-04 -2.04769414e-04 2.35906373e-05
      -2.37780478e-05 -2.36389969e-05 0. 1.29805834e-04 -2.00395036e-04
      -3.72608833e-04 -3.93000701e-05 8.61722874e-05 6.83358376e-05
      1.15484092e-03 6.61038503e-05 -1.01841858e-03 3.11057956e-04
      9.56758377e-05 -2.60475616e-04 -3.11519289e-05 7.18847616e-04
      -8.61632798e-05 -2.98060011e-04 -8.12342623e-05 -2.53049016e-04
      4.41640877e-05 6.96584902e-05 -7.53065760e-05 -1.65435922e-05
      -9.49939131e-05 -2.92345430e-05 -1.30179513e-04 -1.54858630e-04
      -8.33362283e-04 -1.84250588e-04 1.15083865e-04 -3.32344382e-04
      5.15487845e-05 -1.69131483e-04 -1.49852669e-04 1.68076469e-04
      6.00144267e-04 3.24886525e-04 1.26911737e-05 6.42331492e-04
      9.13188793e-04 1.16225288e-04 -1.33371010e-04 -1.44672010e-03
      5.36652165e-04 7.47028564e-04 -6.03855471e-04 4.17431380e-04
      3.09548690e-04 4.48741484e-05 -7.43032651e-05 1.63499231e-03
      5.25508774e-04 4.72178399e-05 7.25254722e-05 1.04626533e-05
      3.04066605e-04 1.66830825e-04 -3.39618200e-05 1.34426940e-04
      -1.22864789e-04 9.26154171e-05 -1.27045438e-04 -1.26277182e-05
      -5.32435042e-05 -1.27192534e-05 -1.63908146e-04 1.26835177e-04
      -1.03666121e-03 -1.07149954e-05 9.99342956e-05 2.69256943e-05
      4.49308500e-05 -1.26417377e-04 -2.60558416e-04 -4.02877020e-04
      -2.26155084e-04 -4.91183193e-04 1.56968090e-05 6.09586190e-04
      -1.77803799e-04 1.71564505e-04 -2.29908750e-04 3.51018389e-04
      -1.44640471e-05 1.33408685e-05 0. 5.30626203e-05 8.94183104e-05
      -1.07631015e-04 8.97583668e-05 2.58985674e-04 -4.64217039e-04
      -7.28039595e-04 2.79598142e-04 -7.72889398e-05 -2.44469265e-04
      2.06214667e-04 2.91315009e-05 -2.20646063e-04 -8.79812229e-04
      -1.28334868e-04 -4.59796411e-07 2.04215339e-05 -1.18803458e-04
      -3.43820953e-04 1.29341890e-04 -1.65150821e-04 -5.40344976e-04
      2.14622720e-04 1.09961307e-04 1.07810111e-03 -8.45074188e-04
      1.25610241e-04 -4.89713857e-05 4.53577697e-04 -5.70757315e-04
      7.81719282e-05 -7.11220200e-05 1.66522368e-04 -1.27439294e-03
      -1.08465181e-04 8.49500706e-04 4.16285358e-04 -1.88381207e-04
      -2.65799572e-05 -5.09972051e-06 2.81298253e-05 1.01191588e-04
      -3.82906364e-05 -4.60775154e-05 -8.77888087e-05 -1.21288083e-03
      -1.15448768e-06 -2.06412820e-04 6.68294088e-05 3.99570825e-04
      1.91762578e-04 -3.40955652e-04 -2.00487309e-04 1.79500101e-04
      8.77434155e-04 -4.60387237e-05 6.56047836e-04 -1.83600394e-04
      -1.23868493e-04 1.44917431e-04 1.30169629e-03 6.26869878e-05
      -3.40586485e-05 0. 7.03535698e-05 6.94663468e-05 4.85980399e-06
      4.32291781e-05 -2.51284655e-04 5.21025853e-04 -8.85926653e-04
      -2.57280917e-04 5.73180383e-04 -1.64606899e-04 1.12519498e-04
      -1.65288278e-04 -1.13903172e-03 1.57280231e-03 -4.21135512e-04
      -8.15328749e-05 3.67439876e-04 -4.95671004e-04 -1.69970677e-04
      -1.13607612e-05 -5.93103876e-04 -3.15290480e-03 -2.55123829e-04
      1.62587006e-04 -1.38346921e-04 6.23411092e-04 6.65283515e-05
      1.20432675e-03 1.78962050e-03 5.95787205e-05 1.02151171e-04
      8.23689916e-05 -1.27012114e-04 -1.01386057e-03 -2.46824166e-05
      -6.86442596e-04 3.22350097e-05 -2.57967331e-04 7.44241770e-05
      -5.29312965e-05 -7.17105504e-05 2.33102746e-05 -3.24545022e-06
      -7.92543597e-06 -3.11551344e-06 4.19659773e-04 -5.65406517e-05
      -2.02936208e-05 1.33138992e-05 2.39972665e-04 -1.20817322e-05
      3.84461513e-04 -6.64416293e-04 -7.80042319e-04 5.70454176e-05
      -1.80349685e-04 2.56190589e-03 1.14869188e-04 5.49401761e-07
      -2.63179663e-05 8.83656379e-04 9.01588137e-05 1.03773527e-04 0.
      7.20977623e-05 -6.40086364e-05 1.96517620e-04 1.02709026e-04
      4.68094862e-04 -4.82183677e-04 -1.47454196e-03 -7.41870099e-05
      1.21483614e-03 5.85040252e-05 -1.11755755e-04 -1.19859178e-05
      -2.84651935e-04 -4.63385368e-05 -1.04514031e-04 -3.07337788e-04
      -2.71574856e-04 4.01294965e-04 -3.61869228e-04 -2.84795300e-04
      -1.88907114e-04 8.15332518e-04 1.87256781e-04 -8.31708079e-04
      4.45269106e-05 5.99936931e-04 1.60270400e-04 3.37628881e-04
      -4.51710861e-04 2.70460936e-04 -8.45108734e-05 -1.46849226e-04
      3.42870517e-05 1.40207994e-03 -2.63586844e-06 5.89090050e-04
      4.30405053e-04 -2.19544221e-04 -8.04547599e-05 -3.11684707e-04
      1.16434014e-04 3.24921770e-04 -2.14355932e-05 4.24707396e-05
      -4.32387678e-05 -2.11201113e-05 8.34368766e-05 -6.18124977e-05
      -2.55313098e-05 1.27202435e-03 1.01207726e-04 1.05113594e-03
      5.37855740e-05 -4.39018477e-04 -5.24265517e-04 1.53507863e-04
      -1.17082661e-03 -5.64697802e-05 -9.81558478e-05 -7.87289391e-05
      7.62564538e-04 1.80300904e-05 -3.26936861e-05 3.83696279e-05
      2.24378484e-04 -1.56512033e-05 2.53195485e-05 8.18317712e-05
      -7.26493890e-04 -9.12768824e-04 -8.58256462e-05 5.73300604e-05
      -3.91894973e-05 -3.61943268e-04 8.47038100e-05 -5.63837639e-05
      -3.71062750e-04 -7.76588393e-04 -2.05954071e-04 1.17440750e-05
      1.91602623e-04 9.60898935e-04 -3.08835588e-04 -1.77749447e-04
      -1.78613176e-03 1.99678048e-04 6.32796728e-04 -3.55131342e-04
      1.78051450e-05 -3.67136927e-05 2.53710430e-04 7.95725209e-04
      1.25093316e-03 -7.76134082e-04 7.41970871e-05 -5.63666108e-05
      -1.26919389e-04 6.51769456e-04 -1.40475167e-04 -9.47344757e-04
      9.90557601e-04 -8.40839581e-04 1.94288550e-05 1.33423804e-04
      1.75028734e-04 -3.16979451e-04 -3.65552041e-05 2.19609195e-04
      -1.93404368e-04 6.38148747e-04 -1.16968986e-04 8.23259834e-05
      -3.86322135e-05 1.15584908e-03 5.83898618e-05 8.95471370e-04
      9.57271041e-05 -5.37393382e-04 1.95487039e-04 1.01276964e-04
      5.04827243e-04 -8.25033203e-05 -8.17503751e-05 1.24875660e-04
      4.52842185e-04 1.02391597e-04 -1.68272236e-04 6.40304934e-05
      -9.58484161e-05 -1.24626371e-04 -1.18381286e-04 2.09176957e-04
      -7.03665719e-05 -8.38318447e-05 -4.74377215e-04 -3.24192224e-04
      -2.70693999e-04 2.49032164e-04 -2.03209900e-04 2.44704916e-05
      -7.24943355e-04 -2.14576954e-03 -7.28615036e-04 -4.37489362e-05
      -1.48916261e-05 -5.15220636e-05 2.79573378e-05 -1.83863056e-04
      1.14322022e-04 1.24620172e-04 -4.44503356e-04 8.02846451e-04
      -6.73421484e-04 5.54607483e-04 1.22003716e-04 -2.18897098e-04
      3.07836104e-04 -5.67672309e-04 -1.58736380e-04 -1.72219792e-04
      -1.67437800e-04 1.13274524e-04 -7.48206730e-05 2.37740879e-03
      3.45967506e-04 3.62633182e-05 -1.59498901e-04 -2.42305367e-04
      -1.82432574e-04 -1.00101999e-04 0. -2.99316220e-04 -1.60147247e-04
      -1.54916619e-04 -1.45162150e-04 -1.26512197e-04 -5.45965559e-05
      1.93195895e-03 3.88357330e-05 -1.33970490e-04 -2.87717645e-04
      -9.28210444e-04 1.54671387e-03 2.14206579e-04 1.25299394e-03
      -8.70630101e-05 8.65386610e-05 -3.76657736e-05 -1.10305307e-04
      -1.37440045e-04 -9.53124545e-05 0. -2.95671634e-04 -1.12065363e-05
      1.00167963e-05 -1.79827402e-04 -4.47477069e-04 4.81166462e-05
      2.30426574e-03 8.88285722e-05 -3.29395756e-04 2.87491421e-05
      -8.76794438e-05 -1.28390384e-04 -7.76719244e-04 -1.92750327e-03
      -1.44559090e-04 2.55908235e-05 -2.44187308e-04 -3.72241157e-05
      4.07943648e-04 -1.40609103e-03 -8.33271130e-04 -1.88346149e-03
      -2.56342173e-05 8.07657139e-04 5.86904760e-04 -6.14448916e-04
      3.13500532e-05 -8.23918963e-04 -8.35093015e-05 1.07919669e-03
      -1.07320142e-04 6.97322830e-05 4.66543752e-05 -1.04113668e-03
      -1.63445220e-04 -5.14659274e-04 -2.43853556e-05 4.03179147e-05
      5.22383743e-05 -2.07868477e-04 1.86260950e-04 -1.07706903e-04
      2.09310347e-05 3.48800269e-04 9.58651071e-05 -5.88842122e-05
      2.29536236e-04 -1.06893021e-05 -4.76523237e-05 -3.78249999e-04
      6.82392929e-05 -6.42054947e-04 -2.32750550e-04 -9.20013234e-04
      -1.01604930e-03 -1.66617901e-04 1.65727444e-03 3.88713233e-05
      3.48512658e-05 2.46738073e-05 1.08553644e-03 -6.00268540e-05
      1.99127477e-04 9.72180169e-06 6.25074535e-05 3.08045892e-05
      6.72053793e-05 2.22092553e-04 5.42039925e-04 8.28490418e-04
      2.19657668e-04 -9.09176961e-05 -6.77180768e-04 -1.82720527e-04
      2.75744649e-04 4.68514889e-04 -1.22889440e-04 -2.23361378e-04
      9.82210622e-04 9.61798796e-05 -5.40756970e-04 8.58634448e-05
      -3.26726498e-04 -5.03900774e-05 7.50374340e-04 8.78733932e-04
      -9.67197411e-05 -1.27167645e-04 -5.64523216e-05 2.71512137e-04
      1.29132704e-05 -7.87507393e-04 -4.13438422e-04 2.44945200e-04
      1.49914093e-04 -6.18770064e-05 -2.23360112e-05 1.06515049e-03
      -1.98082242e-04 2.61832465e-04 8.65007401e-04 1.47887433e-04
      2.49034609e-04 -1.14131966e-04 -7.79693655e-05 -3.92159236e-05
      1.19341112e-05 -4.07335319e-05 8.24986855e-05 5.00023889e-04
      -6.74811745e-05 -7.33264460e-05 3.02464978e-05 -9.40989819e-04
      -3.23831540e-04 -6.17855345e-04 6.37339035e-05 -4.50013467e-05
      3.15607263e-04 3.07293230e-05 9.20331222e-04 -1.29009000e-04
      -2.07277684e-04 8.04618412e-06 -1.07058768e-04 6.45353575e-05
      8.30237768e-05 0. 4.99816742e-05 -6.59498619e-05 -2.84314920e-05
      -1.25325023e-04 7.31513719e-05 -1.20772573e-03 1.11214380e-04
      6.01249449e-05 -9.73421993e-05 -4.28544226e-05 -1.49012034e-04
      -1.51369721e-04 4.81762429e-04 -7.43820798e-04 3.65675834e-04
      3.20621839e-05 -1.29373308e-04 -4.47864149e-04 2.42277587e-04
      2.72770412e-04 -2.10130616e-04 -1.57291326e-03 -1.59425035e-04
      3.76167358e-04 -3.64853302e-04 7.22510522e-05 -1.00303223e-04
      -6.24455279e-04 -5.33529208e-04 9.05519773e-05 -1.28480926e-04
      1.22451165e-04 8.87509814e-05 2.68422998e-04 5.89941992e-05
      -1.88508551e-04 7.34601053e-04 -2.27880169e-04 1.36240851e-04
      7.90717968e-05 7.36655829e-06 9.03347827e-05 -6.73244358e-05
      3.94642120e-05 2.33873216e-05 -2.69899436e-04 1.62854034e-04
      7.65810764e-05 -4.68554426e-05 -1.62104750e-03 -7.35921858e-05
      7.53569242e-04 2.94956873e-04 -3.91216367e-04 1.91160478e-03
      -2.95656064e-04 7.23717909e-04 1.24553815e-04 2.36897875e-04
      -1.62554206e-04 1.80630072e-04 -9.76404845e-05 -1.78888498e-04 0.
      -5.22178489e-05 -1.98602884e-05 -9.49579335e-05 2.07574631e-04
      -2.33608313e-04 -2.58111628e-04 1.57712505e-03 1.05601364e-04
      -1.66773505e-04 -1.88764883e-04 -5.02266012e-05 -3.05708934e-04
      -9.36896016e-04 -3.23750981e-04 -4.61698539e-04 -4.33178648e-05
      1.91057363e-04 -7.73896696e-04 8.06793745e-04 -1.26506609e-04
      1.59974617e-03 -3.59727768e-04 1.68828890e-04 8.19011038e-05
      1.11010193e-03 3.52357660e-04 -4.89748600e-05 1.77614027e-04
      -4.44609723e-05 9.59338577e-05 -5.54137951e-05 -2.96782837e-05
      -7.68612808e-05 6.98358112e-04 -5.15513457e-05 5.90979471e-04
      4.67023085e-04 -2.04196593e-04 3.49965667e-05 -2.55910290e-05
      -1.76055357e-04 4.43845747e-05 -2.42772312e-05 6.61413651e-05
      4.57410679e-05 1.00770376e-04 -1.25800443e-05 -6.53219249e-05
      -1.88180468e-06 -9.43087216e-04 2.51201345e-05 -6.01130654e-04
      7.73418695e-04 -4.21315577e-04 -4.75601817e-04 -1.68920262e-04
      2.28834571e-03 2.62109039e-04 -1.16784631e-05 -5.21111651e-05
      -1.50392370e-04 -1.30967950e-04 -1.36984323e-04 2.81755842e-06
      -3.07277573e-04 4.99057605e-05 -1.19585537e-04 -1.62980752e-04
      2.30419260e-04 -1.08136493e-03 -9.42582265e-04 -7.70038023e-05
      -7.18848722e-04 -8.04767405e-05 8.03218936e-05 2.29553887e-04
      -1.85814060e-04 -2.53976992e-04 -1.14411618e-04 -8.28692573e-05
      1.78781367e-04 -3.49288224e-04 -4.02127014e-04 5.58246451e-04
      4.33197827e-04 -5.99984080e-04 -6.05714922e-06 2.24695279e-04
      -1.96005698e-04 -3.81246733e-04 1.00223471e-04 -3.98731732e-04
      5.18129964e-04 7.55232759e-05 6.84315746e-05 -2.85060032e-05
      -1.43665180e-04 -1.48261781e-04 -1.04552913e-04 -3.60141916e-04
      1.79086492e-04 -8.90284951e-04 1.54243709e-04 -1.56648908e-04
      1.48106701e-04 1.59163319e-05 0. 2.04582771e-04 8.39735731e-06
      -1.04206579e-03 -1.04002662e-04 1.58243609e-04 -2.14708980e-05
      -5.04423107e-04 -1.05138797e-05 -8.01563729e-04 3.19068437e-04
      -3.23946500e-04 1.52752106e-03 -1.14867044e-06 1.88759284e-03
      9.56840304e-05 5.32705008e-06 1.48299572e-04 6.52140181e-04
      -2.38879566e-05 1.09883513e-04 2.29083707e-05 -5.90169464e-07
      9.79592587e-05 1.70172396e-04 8.05222662e-05 4.09182743e-04
      -1.86874749e-04 2.30713529e-04 -1.36674353e-04 -9.38249228e-04
      -9.70202236e-05 -7.65237128e-05 8.05380987e-05 3.91823036e-04
      1.28132189e-04 -3.51723982e-04 2.17385677e-05 1.25413912e-03
      -8.30784789e-04 9.48680754e-05 2.73869286e-04 -9.92112793e-04
      9.69363202e-04 9.46883883e-05 5.16892585e-04 -4.71430511e-04
      1.93223430e-04 1.66026493e-05 2.12403815e-04 1.33125531e-03
      1.51139655e-04 -8.42148584e-05 -7.62350974e-05 -3.80946003e-05
      3.19462066e-04 4.99652488e-05 -2.57846084e-04 5.87720075e-04
      -8.15091422e-04 -1.49970554e-04 1.18334819e-05 3.43384891e-05
      1.07325737e-04 0. -1.11550224e-04 2.55329051e-05 -1.52671142e-04
      -1.20478886e-04 -8.22574148e-05 9.40105965e-05 -1.45557639e-03
      4.04390012e-05 -3.15446028e-04 -3.71406000e-04 -6.58643956e-04
      -5.22162241e-04 6.76334530e-05 2.91130366e-03 8.39188142e-05
      -4.37143717e-05 -1.09310276e-04 2.01598552e-04 -3.51440940e-06
      5.31682126e-05 -5.23224389e-06 -1.11451754e-05 -5.30115103e-05
      2.41544058e-07 1.69082505e-05 3.52333154e-04 -1.20419578e-03
      -1.10180001e-03 -7.35608119e-05 5.12840226e-04 -8.21952926e-05
      -2.95986065e-05 -1.27278850e-04 4.20278317e-04 -2.05275530e-04
      -3.94349947e-04 -3.17104082e-06 1.70384592e-04 6.53299387e-04
      -1.61224714e-04 6.38423429e-04 -1.54687418e-03 -3.66602530e-04
      2.61749054e-04 -5.84244903e-04 1.88991521e-03 1.72083586e-04
      1.20369543e-04 1.17958710e-03 1.30773277e-03 5.61016379e-04
      1.14400522e-04 6.25079410e-05 1.98217342e-04 -9.28894442e-04
      8.52927988e-05 3.30366398e-04 2.81276531e-04 -6.21854211e-04
      -8.18656335e-05 1.91303945e-04 1.78293212e-05 -3.59627884e-05 0.
      2.22263498e-05 4.08975757e-05 -5.47933334e-04 -8.30507706e-05
      -7.50152685e-05 -7.00498422e-05 -1.10582600e-03 1.50526350e-04
      -4.71337524e-04 -4.36762755e-04 3.79466568e-04 6.81368634e-04
      5.99343639e-06 9.66201151e-06 -1.08856329e-04 5.53265272e-05
      -5.58005813e-05 4.10978188e-04 -1.93343367e-04 -2.74116337e-05
      1.08676340e-06 -6.15455210e-05 1.58171650e-04 -4.68832422e-06
      -1.26776096e-04 -5.57158892e-05 -2.69482087e-04 5.82055480e-04
      -8.04659867e-05 1.35588727e-03 -5.19346795e-05 1.59883548e-05
      2.11376164e-06 2.59719847e-04 -1.60020916e-03 -6.44813001e-04
      -7.39250117e-06 1.12053771e-04 -2.01832992e-03 -6.69734960e-04
      -1.52638124e-04 5.21367067e-04 -2.22552940e-03 1.74439294e-04
      -4.76602028e-04 1.99290444e-04 -7.88432313e-04 -9.12014002e-05
      4.20334312e-04 -3.34260869e-04 -6.00401661e-04 5.16174587e-05
      -1.80117895e-05 8.94333789e-05 1.98483554e-04 -6.00014391e-05
      -4.12863825e-04 -8.49551816e-06 5.90470408e-05 -1.48879888e-04
      3.10005962e-05 7.47388622e-05 -2.59485736e-04 -8.99775114e-06
      -8.40902940e-05 -5.17307599e-05 6.26480149e-04 -1.52313121e-04
      1.18992182e-04 1.93024040e-04 3.75630683e-04 1.67787482e-04
      3.24489723e-04 -7.96066131e-04 2.88809184e-04 8.12636456e-04
      2.43451534e-04 -1.57546287e-03 1.27046214e-05 -6.26420933e-06
      -6.67290442e-05 -2.18874862e-04 -2.18105870e-05 -5.82938492e-06
      -9.80449840e-07 4.16335242e-05 1.30808243e-04 -7.35099820e-05
      7.90580161e-05 4.30882619e-06 -5.95695019e-05 9.22982057e-04
      1.86671910e-04 6.73273928e-04 9.51526163e-05 1.37382385e-05
      -4.40179101e-05 6.13768876e-04 6.72737428e-04 7.91748826e-05
      1.18288590e-04 4.13428177e-04 9.31734859e-04 -3.05647758e-04
      -6.46543704e-05 -4.78436297e-04 -2.25457922e-03 -4.80034214e-06
      -1.22475123e-03 3.96625110e-04 8.36403124e-05 8.85130285e-05
      -7.92942767e-04 7.28319937e-05 3.83381062e-04 1.26370593e-04
      -2.11086353e-06 3.38904320e-05 -1.84561868e-04 -1.00018697e-04
      1.71101092e-05 2.73158978e-04 7.70453789e-06 -5.28882993e-05
      2.15314052e-04 -2.28516947e-04 -1.34650123e-04 0. 1.85845376e-04
      -7.21156612e-05 1.49873915e-04 7.75404260e-05 7.00182791e-05
      -7.24263446e-05 1.91494671e-03 2.74916729e-05 -5.82357636e-04
      4.15256334e-04 -3.50662100e-04 5.54407132e-04 -4.68682047e-05
      9.98632866e-04 -1.66706798e-06 -2.23277948e-05 -2.73955948e-06
      8.36505555e-04 -1.14312723e-04 -1.19618389e-05 8.64135473e-06
      9.20892708e-05 1.44320627e-04 1.39369164e-04 7.61484989e-05
      1.01664962e-04 2.66018440e-04 -1.23331568e-03 1.10507106e-04
      6.32863841e-04 -2.18362009e-04 6.36588156e-05 -6.02284446e-04
      -1.95544399e-05 9.13173426e-04 -4.48864157e-04 3.54672520e-05
      -2.27996454e-04 -3.36833909e-04 2.17633802e-04 -1.90696199e-04
      -1.95448432e-04 1.36199233e-03 1.01503264e-03 2.92108998e-05
      -2.07092875e-04 6.63201499e-04 -1.68367056e-04 7.03988626e-05
      -2.66434163e-05 -1.31031920e-04 1.62978613e-04 1.12977497e-04
      2.26166594e-04 -2.77436338e-04 9.76183874e-05 2.15516891e-03
      -2.73733633e-04 -4.25268023e-04 -2.06308658e-04 3.74924421e-05
      1.75929119e-04 -3.06464499e-04 -1.01937940e-05 -2.90844531e-04
      2.48685355e-05 -3.49253911e-04 -6.42716041e-05 -1.76967427e-04
      4.97442015e-05 -7.76121276e-04 -1.22964149e-04 -3.59217200e-04
      1.91127983e-04 -2.87900300e-04 4.17450879e-04 -8.82155728e-05
      1.03176362e-03 -7.60567200e-05 3.18736595e-04 1.48306654e-05
      -1.75090114e-04 1.87953738e-05 9.23333864e-05 9.43744599e-05
      3.98303519e-06 1.16262156e-04 1.07560692e-04 -5.05548320e-04
      1.53737041e-04 -2.35496555e-03 -1.47411658e-04 -2.01103190e-04
      -3.48801055e-04 -2.61199428e-04 2.99707201e-04 2.99634528e-04
      6.68089895e-04 -8.20651112e-05 -1.87973987e-04 2.32380145e-04
      2.01833958e-04 -7.99896021e-04 -1.93166547e-04 -2.15412976e-04
      -3.48395464e-04 4.47935920e-04 4.79312002e-04 -5.01372037e-04
      -6.14322271e-05 -7.16913550e-04 4.65508128e-06 4.50836698e-04
      -2.47467752e-03 -5.05202974e-04 -4.65422854e-05 -2.34970030e-05
      2.24952619e-05 -4.85759258e-04 -8.70606455e-05 -9.06772155e-04
      -3.17673082e-04 -1.17076983e-04 -6.39356003e-05 -6.51789451e-05
      3.45158114e-05 -2.15174994e-04 -2.88011288e-05 -3.18287988e-04
      -4.32877205e-05 -1.71649255e-04 -1.60004929e-04 -8.02436552e-05
      -4.71903295e-05 -1.41559530e-03 1.09935922e-04 -3.22041073e-04
      -6.35880569e-04 -6.74870913e-04 2.07550451e-03 1.14880873e-04
      2.77519412e-03 1.43361918e-04 -1.50298874e-04 -3.43656226e-04
      1.04113060e-04 -2.83341942e-04 5.35346153e-05 5.26630829e-05
      3.40693041e-05 -1.79558774e-04 2.30394035e-05 -4.80944655e-05
      -3.62252977e-05 -2.31613594e-04 4.61258227e-03 7.44144709e-05
      1.17543596e-03 -9.41889011e-05 4.12419642e-04 -2.55248975e-04
      -6.11186668e-04 -2.60289497e-04 1.46519131e-04 -2.31450304e-05
      9.59653407e-05 -9.79516306e-04 -2.59905559e-04 -3.80464844e-05
      8.37054686e-04 -1.70981663e-03 -4.09406930e-04 -3.48665839e-04
      -1.01877551e-03 -1.34439233e-05 4.19932985e-05 2.32289793e-04
      -1.62843394e-03 -1.57751507e-04 -1.16463125e-04 1.89042752e-04
      -9.01525127e-05 -4.51255939e-04 -1.15371149e-04 -3.50717855e-05
      -3.34630546e-04 5.60645640e-05 -6.78341312e-05 1.81113064e-05
      8.66903883e-06 2.49515579e-05 6.33289455e-05 2.97426122e-05
      -8.10952042e-05 -1.01452955e-04 -1.14385242e-04 6.65228436e-05
      -7.72602725e-05 -4.40184493e-04 -1.24131657e-05 -8.60034197e-04
      -2.34157225e-04 4.03859332e-04 3.36671830e-03 -5.51991025e-06
      2.48577748e-03 4.39015930e-05 -3.52409006e-05 -1.72629589e-04
      -1.58340437e-03 -1.46859966e-05 -2.79569154e-04 3.12377051e-05
      -9.54256666e-06 -1.13558606e-04 -5.29654681e-05 -4.50623265e-05
      9.29721864e-06 9.84821818e-04 1.49328867e-03 -2.97496740e-06
      1.48490386e-03 -4.23644597e-05 3.70219583e-04 2.88027397e-04
      5.05607575e-04 5.04023628e-04 2.65330542e-04 -3.09490752e-05
      5.37431450e-04 -2.49217817e-04 9.08662769e-05 -1.72546206e-04
      -2.36774143e-03 -5.60084591e-04 -8.02725437e-04 -3.09925759e-04
      2.06691446e-03 2.42487426e-04 -2.77802610e-05 5.13606756e-05
      -3.04937363e-04 -1.98093607e-04 -2.37390006e-04 -1.63521603e-04
      -2.68444011e-04 2.12422834e-04 9.12254036e-05 -2.32195877e-03
      -6.94844697e-04 3.16426267e-05 -2.10336788e-04 6.48540663e-05
      2.61659334e-05 -9.56194071e-07 0. -3.17834906e-06 -1.15893054e-04
      4.11075540e-04 1.28201182e-05 1.51698268e-05 -4.93281259e-05
      1.76759950e-05 -1.20559689e-05 8.40232708e-04 1.45181675e-05
      5.27575263e-04 8.02773458e-04 -8.40644934e-05 3.98615422e-03
      -4.43552781e-05 -5.06418291e-05 1.99653485e-04 7.25431601e-04
      1.63022851e-04 1.47828441e-05 1.26619170e-05 1.40553617e-04
      -2.41839552e-05 4.25310136e-05 -5.83453802e-05 1.12820220e-04
      -9.75681614e-05 -2.95482110e-03 -2.39969348e-04 -9.74973140e-04
      -1.27250078e-05 -1.36415299e-04 -3.12988443e-04 2.44747935e-04
      1.19301396e-04 2.60663888e-04 -1.63685370e-04 3.47887224e-04
      7.54009350e-04 7.68062309e-05 -6.17694343e-04 -5.76056424e-04
      -1.08557707e-03 -1.08226544e-04 -2.72659527e-04 6.52609335e-04
      -2.63385853e-04 -1.70636151e-04 -8.63193709e-04 1.57203840e-03
      1.23202382e-03 -3.43779422e-04 1.45664046e-04 1.52651191e-04
      -3.20462656e-04 8.94560580e-05 6.67841348e-04 -3.44868371e-04
      -2.45134026e-04 -8.10019774e-05 -3.11107833e-05 -8.94872064e-05
      1.19547178e-04 -1.51881410e-04 -1.48489577e-04 -3.33891221e-04
      -1.51863351e-04 1.16227377e-04 -1.37342322e-05 -3.65902924e-05
      -1.27631216e-03 -4.16649236e-05 -1.67678430e-04 -1.87543745e-04
      6.48014320e-05 1.05290860e-03 8.31687648e-05 3.57092154e-04
      5.64491984e-06 -1.36349539e-04 -4.22653946e-04 2.40141002e-04
      -3.62132268e-04 1.43974157e-05 6.69332585e-05 -2.28843506e-04
      4.09320419e-05 -7.64827109e-06 -5.90090640e-04 -5.01329341e-05
      3.06856062e-04 3.27139744e-03 -1.26713130e-04 -6.68869121e-04
      2.44817580e-04 -3.09810275e-04 3.93239025e-05 -4.94594162e-04
      1.27113215e-03 9.32120485e-04 9.97076713e-05 -3.56801087e-04
      1.66707410e-04 -2.93951052e-05 1.73240245e-04 -2.66617467e-03
      8.33998783e-04 1.26139773e-03 5.59488020e-04 -3.36055760e-04
      4.78120230e-04 -4.63309188e-05 7.50348496e-04 2.30113370e-03
      -6.96378760e-04 7.38650997e-05 -4.41750599e-05 -7.17895455e-05
      -4.38696967e-04 2.06058277e-04 1.32549671e-03 4.61832897e-05
      -2.04416574e-04 -4.72606393e-04 1.38580494e-04 1.06321902e-04
      -1.83774930e-04 2.35088628e-05 9.23252373e-05 -3.66438981e-05
      -7.92299048e-04 -1.38072588e-04 -7.50149848e-05 -6.43073436e-05
      -2.57259060e-04 -1.06603393e-05 -3.11090145e-04 1.35376089e-04
      7.98612818e-05 -1.47269096e-03 4.26148472e-05 1.63290428e-03
      1.48774256e-04 -2.86890077e-04 2.10609753e-04 3.04897578e-04
      4.09472414e-05 -2.91324341e-05 -2.73347196e-05 -1.20947137e-04
      -2.67896303e-06 -1.45315817e-05 -3.03055393e-04 4.43591358e-04
      -1.31838559e-03 -1.76168128e-03 6.29809219e-05 1.62041848e-04
      2.51087476e-05 1.10498499e-04 2.13851454e-05 2.98847153e-04
      -2.32398580e-03 -1.04795315e-03 1.12912867e-05 2.55401217e-04
      6.97222305e-04 -1.51990680e-04 1.59335934e-04 3.13623588e-07
      -6.37545018e-04 -1.02084270e-03 -1.23541546e-03 1.76848436e-03
      -9.85928054e-05 3.39556391e-05 -2.52945640e-04 -2.76660750e-04
      1.68585553e-04 1.09405053e-04 -5.37517735e-05 -4.66517449e-05
      5.87400718e-05 1.72653654e-05 -2.94037373e-03 3.71654896e-04
      3.29773378e-04 -8.82145923e-06 3.21195141e-04 6.01956162e-05
      -2.07909019e-04 5.71137070e-06 1.20519951e-04 -2.60132743e-04
      -4.09735163e-04 3.81899335e-05 -2.65984010e-04 -9.13845361e-05
      3.80648358e-04 -2.84335656e-05 -2.65903655e-04 -4.53397050e-04
      -1.01517098e-05 3.29330156e-04 1.86039382e-04 3.65908653e-03
      -9.61188271e-05 1.27940861e-04 1.12660506e-04 2.12263945e-03
      1.55132991e-04 5.58036336e-05 -2.50785943e-05 5.42049520e-06
      -5.20727262e-05 -4.89857957e-05 -6.33107629e-06 5.13672479e-04
      -1.91740983e-04 -8.54198006e-04 -2.47691147e-04 9.33313800e-04
      4.97932451e-05 -3.33813914e-05 -2.14892658e-04 -2.40350040e-04
      -1.25521002e-03 8.21312497e-05 9.99784897e-05 -2.83174286e-05
      -3.21330706e-04 5.33121638e-04 -5.71437937e-04 1.38040286e-06
      1.09886983e-03 -2.41720598e-04 -7.47829734e-04 3.57853860e-04
      -4.61740128e-04 2.82321107e-05 -4.16050054e-04 1.94551295e-03
      -4.28915955e-04 1.03555583e-04 -1.25087754e-04 2.25419935e-04
      -5.71940909e-05 -3.18119135e-07 -3.72626731e-04 -6.00701605e-06
      2.36654247e-04 -1.39476397e-04 -2.11226652e-05 -3.25568544e-04
      2.81605782e-04 -1.40066768e-05 1.98121357e-04 -3.85921521e-05
      -1.38449805e-05 -1.10639507e-04 -4.80992312e-05 -4.38424831e-05
      -8.65429407e-04 -1.17414536e-04 1.10489054e-04 2.39152178e-05
      -2.23193245e-04 4.06580424e-04 -6.06777285e-05 9.50264104e-04
      -3.21728265e-04 1.00722718e-04 1.70858053e-04 2.77543677e-06
      -2.52836326e-05 1.10284542e-04 -7.41534177e-06 -7.78033500e-05
      2.14309403e-04 -4.64678087e-05 1.19635333e-04 1.88183185e-05
      -1.38258241e-04 -1.15924946e-03 -1.11277601e-04 1.01513004e-04
      -1.09525776e-04 4.85605269e-05 1.51045635e-04 2.22442046e-04
      9.20229359e-04 -6.08449220e-04 2.04396529e-05 -1.72104148e-04
      -6.60037505e-04 -6.87914071e-05 5.10835962e-04 -2.93754943e-04
      4.19781645e-05 -1.55462432e-04 -5.81741100e-04 -1.02449756e-03
      -1.21026696e-05 -2.49860663e-04 -4.10104782e-04 1.24792091e-03
      4.63463337e-04 -1.05421837e-04 -1.61248352e-06 -3.02229137e-06
      -3.16896039e-04 6.24362701e-06 1.76151327e-04 -2.49834702e-04
      -1.91323415e-04 9.69819812e-05 -1.41817611e-04 5.11151193e-05
      -8.04462761e-05 0. -1.74733970e-04 1.75140565e-04 1.10201864e-03
      -7.60395051e-05 3.88004082e-06 6.67300556e-05 3.19441824e-06
      3.56198034e-05 2.67685420e-04 3.17426486e-04 3.46554327e-04
      -1.59145216e-04 2.15390668e-04 9.19365266e-04 -1.60852956e-04
      9.37850709e-05 -9.78418757e-06 3.18703896e-05 3.20622930e-04
      6.35058168e-05 0. -6.68592256e-05 -8.73441968e-05 2.61216737e-05
      -1.48484105e-04 -2.80653971e-04 -3.67236964e-04 -4.33817506e-04
      -4.48096107e-05 2.10542115e-04 1.07388223e-04 5.82834618e-05
      1.85763609e-04 1.25422361e-04 4.36885457e-05 -4.08946857e-04
      2.99425428e-05 -3.92426504e-04 -8.75576283e-04 -5.58125495e-04
      6.32991723e-04 3.02191766e-04 1.51835557e-03 -5.74924750e-04
      -3.77055003e-05 -7.45173893e-04 4.01681551e-04 1.12567999e-04
      -8.82907712e-04 -5.04597265e-04 1.08921109e-03 1.01647740e-04
      -1.90440231e-04 -2.89536056e-05 9.17759244e-05 2.65091512e-04
      6.43767591e-04 2.38235385e-04 1.38383812e-05 1.76424976e-04
      -1.09086061e-04 4.19561802e-05 1.59663177e-04 -3.33482603e-05
      1.64170051e-05 7.03601036e-05 6.44634012e-04 -3.40815925e-04
      8.03831717e-05 2.81681096e-05 -2.49505567e-04 9.71240806e-05
      -1.05792121e-03 2.56599422e-04 -9.28232970e-04 6.39209175e-04
      1.22675017e-04 -2.26638606e-03 -1.11952486e-05 -1.67680957e-06
      3.30487615e-04 -1.48158113e-03 -8.67539929e-05 -1.02072983e-04
      3.91114736e-05 1.15636401e-04 7.82396019e-05 -8.92660610e-05
      -3.52237512e-05 -2.84431997e-04 -1.11247238e-03 1.11975276e-03
      -5.60762091e-05 -7.07967964e-04 -2.25601107e-04 3.19484359e-04
      1.78013070e-04 3.10995820e-04 1.35995774e-03 1.54885289e-04
      1.28073007e-04 1.12247966e-04 -2.26677919e-04 -2.15942346e-04
      1.10213808e-03 4.28128697e-04 8.31831640e-05 9.08394111e-04
      -3.03745328e-04 2.36565043e-04 -6.15666504e-04 -1.41232842e-04
      -3.60215694e-04 -3.57530138e-04 -7.42191449e-04 1.98543639e-04
      7.91469756e-06 1.99326329e-04 -1.56924914e-04 1.20277145e-04
      -2.43310395e-04 -2.86443625e-04 -4.58078168e-04 4.97192123e-05
      -2.85698072e-04 -6.04708075e-05 4.06809231e-05 -6.74285729e-06
      8.27701388e-06 -5.47536683e-06 -4.76729969e-04 1.13220331e-05
      5.71677492e-06 -2.57873853e-05 3.52098781e-04 1.63481876e-04
      -7.41013675e-04 2.74555321e-04 9.07319409e-05 7.42279924e-04
      5.18867855e-05 -1.17054593e-03 -1.28720756e-04 4.48669925e-05
      -5.74871920e-05 3.47541209e-05 1.40397360e-05 2.40923873e-05
      1.55775160e-06 -1.36468516e-04 1.00232799e-04 9.28506415e-05
      8.00789639e-05 -2.03483607e-04 3.03233363e-04 8.63248948e-04
      1.00394253e-04 5.81509899e-04 1.55941379e-04 1.86211153e-04
