<?xml version="1.0"?>
<opencv_storage>
<my_svm type_id="opencv-ml-svm">
  <svm_type>C_SVC</svm_type>
  <kernel><type>LINEAR</type></kernel>
  <C>5.0000000000000000e-01</C>
  <term_criteria><epsilon>2.2204460492503131e-16</epsilon>
    <iterations>1000</iterations></term_criteria>
  <var_all>16128</var_all>
  <var_count>16128</var_count>
  <class_count>2</class_count>
  <class_labels type_id="opencv-matrix">
    <rows>1</rows>
    <cols>2</cols>
    <dt>i</dt>
    <data>
      -1 1</data></class_labels>
  <sv_total>1</sv_total>
  <support_vectors>
    <_>
      -3.18437582e-04 -8.40089866e-04 6.01904176e-04 5.92967612e-04
      8.17517168e-04 -6.41285660e-05 -8.39418499e-04 -1.01267178e-04
      1.23834732e-04 6.36594545e-04 1.31328212e-04 -1.00796220e-04
      -1.34900922e-03 -3.78323894e-05 -1.90543709e-03 1.19381188e-03
      4.35734284e-04 -8.15245039e-06 1.83337295e-04 3.12658776e-05
      -3.89569293e-04 3.72131908e-05 -3.73195973e-04 -3.43511492e-05
      -1.30295684e-03 1.12084177e-04 -2.66883377e-04 1.40183765e-04
      -6.47396897e-04 1.79866503e-04 -4.25329781e-05 3.45153938e-04
      1.23603141e-03 -1.22746278e-04 -5.06731798e-04 4.59143484e-04
      7.20777552e-06 -9.55935757e-05 -3.70995433e-04 3.37229343e-04
      1.72172484e-04 2.02727548e-04 4.61816890e-05 -2.16770495e-04
      1.39250493e-04 -2.43955932e-04 -1.27653460e-04 -1.05901202e-03
      6.68854482e-05 5.86959999e-04 -1.42485864e-04 5.75407284e-05
      -1.50376363e-04 -1.51027722e-04 1.57695357e-03 7.10102497e-04
      -2.71828030e-04 4.19795324e-05 2.42199705e-04 4.67388309e-05
      6.37693438e-06 2.91659962e-04 8.70829506e-04 -5.80335909e-04
      2.21957779e-03 -5.03164018e-04 -1.71581260e-03 3.36336176e-04
      2.66962510e-04 1.91092811e-04 1.01962581e-03 -2.28098172e-04
      -9.64535400e-04 8.70110089e-05 3.02739994e-04 -4.04971543e-05
      -8.57444946e-04 -1.59903153e-04 1.21708924e-03 6.37587276e-04
      -7.80941162e-04 1.48647741e-04 -3.54552496e-04 7.53679851e-05
      -4.21471894e-04 2.97740971e-05 5.39406436e-04 -5.41091256e-04
      -1.31775299e-03 -5.84335030e-05 4.10596665e-04 -2.23317202e-05
      -1.01554244e-04 1.50411244e-04 -1.91688701e-03 3.44842883e-05
      2.04841599e-05 1.95018598e-04 -1.49528933e-04 -1.23480230e-03
      1.18548705e-04 -9.37827135e-05 1.88626233e-04 -8.44591937e-04
      2.98199040e-04 7.62926793e-05 4.80672970e-05 -2.35565472e-04
      -2.85985516e-05 1.57065209e-04 1.40429853e-04 -3.48578906e-04
      -8.09740741e-05 -5.46549039e-04 4.40930948e-04 9.46801563e-04
      -1.18020478e-04 -1.78718445e-04 1.01354683e-03 4.56263624e-05
      -6.83538557e-04 2.20720583e-04 -1.07035623e-04 6.28519803e-04
      3.73963732e-04 4.89235972e-04 4.56748967e-04 1.10921916e-03
      1.06455537e-03 4.10501525e-04 -1.16991589e-03 1.91796175e-03
      -5.44387265e-04 8.68519346e-05 -4.40895761e-04 3.59068334e-04
      9.57539305e-04 2.24647956e-04 6.55044161e-04 1.37821902e-04
      7.23448349e-04 1.28201966e-04 -5.68583724e-04 1.34043483e-04
      -7.33131310e-04 2.15310996e-04 -2.79095198e-04 -2.40952024e-04
      1.77663911e-04 1.13670198e-04 -1.69592138e-04 -5.24115108e-04
      -9.88249667e-04 1.14173090e-05 -2.18853875e-05 3.73724333e-07
      -1.68580294e-03 -4.97334913e-05 -3.22872336e-04 -4.62365657e-04
      5.56971412e-04 7.22039375e-04 -2.49017630e-05 -1.44921639e-03
      -2.26177639e-04 -3.60783539e-04 1.75069625e-04 1.63877296e-04
      -2.40774316e-04 7.65753502e-05 -1.68299302e-05 1.89083992e-04
      -5.43423193e-05 -4.73306718e-05 2.29813930e-04 -6.74575334e-04
      -8.51610326e-04 -4.57832473e-04 6.50065020e-04 -3.57502984e-04
      -1.27983993e-04 -4.26940751e-05 8.34267412e-04 -3.06006667e-04
      -2.68230593e-04 -7.52997352e-04 1.19416247e-04 8.42527021e-04
      1.00521742e-04 -4.67911479e-04 9.73308692e-04 1.97762041e-03
      1.44571229e-03 -1.76674570e-04 -1.66092231e-03 8.50614801e-04
      3.13174125e-04 -3.01704247e-04 2.97896971e-04 1.54246134e-03
      -4.77706752e-04 1.04229075e-04 9.96415201e-06 -9.95980517e-05
      -1.18903664e-03 6.32809169e-05 6.90574234e-04 -8.54869606e-04
      5.79477870e-04 1.57738250e-04 -5.77915534e-06 -4.38279967e-04
      8.45295363e-05 -5.21273141e-05 -4.06580861e-04 -5.30117715e-04
      -8.64827656e-04 5.03565752e-06 3.15732876e-04 1.93029264e-04
      -3.63435451e-04 -1.54207228e-04 1.80548159e-04 7.22068246e-04
      1.46508531e-03 3.89922847e-04 1.34700036e-04 1.62365579e-03
      -2.62556103e-04 -3.10400908e-04 1.73329245e-04 -5.28192439e-04
      2.52786325e-04 1.16185052e-04 6.29943497e-06 -3.89567722e-05
      -9.87986277e-05 1.37396899e-04 3.34259530e-04 1.42998819e-04
      7.04144695e-05 -1.10218953e-03 -3.17895523e-04 -1.41099666e-03
      1.43987143e-06 -4.47297876e-04 -2.12142913e-04 -9.82619356e-04
      1.02907699e-03 -2.72074569e-04 -5.97751714e-05 -1.11472757e-04
      3.01813794e-04 1.41379156e-03 -2.91527424e-04 -1.12645945e-03
      3.80439480e-04 3.90187080e-04 -8.61164372e-05 2.95244827e-04
      1.05158615e-04 -2.54198094e-04 4.47724364e-04 -5.12038823e-04
      3.46924528e-04 -4.01290199e-05 -6.58003191e-05 -2.96223938e-04
      2.32292619e-03 2.49196892e-04 1.16522688e-05 1.03423197e-03
      -1.41504081e-03 -3.34521261e-04 8.60146320e-05 -1.18072698e-04
      1.77175913e-04 5.93161458e-05 -5.40968438e-04 -4.04234706e-05
      -1.08824919e-04 8.44786118e-05 -1.79068011e-04 -1.58046227e-04
      -1.35285582e-03 6.97666621e-07 1.14067188e-04 -5.04234456e-04
      -6.57112803e-04 3.65295360e-04 -2.50655110e-04 1.97167741e-03
      2.59692140e-04 -7.01931276e-05 -2.20446731e-04 1.91537292e-05
      -1.09336521e-04 2.82814144e-05 -6.75103147e-05 -2.13346953e-04
      -1.12045003e-04 -2.19656402e-04 1.16918985e-04 -4.96188179e-04
      7.16324255e-04 4.81942770e-05 -5.20789821e-04 -7.52157182e-04
      4.01582045e-04 8.99195729e-05 -4.47582279e-04 -7.75366672e-04
      -5.72594057e-04 4.63607896e-04 -1.22516401e-04 1.64827463e-04
      5.24565752e-04 5.13375504e-04 -1.72380460e-04 -2.41130874e-06
      1.27810636e-03 -8.72845994e-04 -1.86488486e-03 -9.12563002e-04
      3.12869088e-04 5.33146267e-05 9.72665730e-04 -8.81070097e-04
      -1.00845657e-03 3.38391750e-04 1.50663356e-04 -2.05144170e-04
      -1.52899721e-03 -4.51882777e-04 -4.59282164e-04 -2.22509116e-04
      3.87190754e-04 1.01194295e-04 -1.15543880e-05 2.48844939e-04
      1.67177550e-05 -5.43133065e-05 4.87119600e-04 3.62163410e-05
      -1.05445273e-03 4.62859403e-04 2.47648295e-05 -3.61808052e-05
      9.96968825e-04 -2.61354056e-04 -1.72241562e-04 7.25856342e-04
      -8.05454329e-05 3.47319990e-04 1.57340284e-04 -6.06570757e-05
      1.35491791e-04 1.21644538e-04 -2.85659567e-04 -4.13908885e-04
      9.07140857e-05 -4.27456098e-06 8.83860703e-05 -1.35389389e-04
      5.58504486e-04 -8.80441003e-05 2.21594266e-04 -8.39732355e-04
      1.40606542e-03 4.04733524e-04 2.19591293e-05 9.03731445e-04
      -9.04302578e-04 2.82164576e-04 -6.13455079e-04 4.29329550e-04
      9.52846429e-04 1.94204622e-04 -5.85913476e-05 -6.86716812e-04
      -3.62719758e-04 -3.25014757e-04 1.30710332e-03 6.39866979e-04
      -6.36133918e-05 -3.47928202e-04 -1.51831817e-04 -1.53014343e-03
      -3.24553897e-04 -2.49450124e-04 8.16128275e-04 -2.36196356e-04
      1.01533043e-03 2.82881665e-04 4.41336779e-05 -5.76004386e-05
      2.17669658e-05 3.21236912e-05 1.59846004e-05 7.88566365e-04
      1.71013875e-03 -1.60331663e-04 -1.39720069e-04 3.50461603e-04
      3.62176543e-05 -4.44868856e-05 -5.69094962e-04 1.08496475e-04
      -3.58776917e-04 1.67955499e-04 2.23006587e-04 2.30995240e-04
      5.76227379e-04 1.20563273e-04 -1.76806585e-04 -6.14622084e-04
      -5.32787002e-04 -2.65021953e-07 6.58453675e-04 -4.06323990e-04
      -3.67413850e-05 1.79104478e-04 -2.92536861e-04 3.94583243e-04
      4.03684317e-05 -1.94895856e-05 -3.33910430e-05 -2.02056268e-04
      -1.32477246e-04 -6.85752593e-06 -5.82843844e-04 -2.50399869e-04
      -7.20820739e-04 -2.05857959e-05 -3.76990210e-04 -1.38091645e-03
      1.00693200e-03 7.86613964e-05 -2.98316445e-04 5.56210231e-04
      3.83149862e-04 5.23453578e-04 -1.70721236e-04 -1.75565729e-05
      -1.07131165e-03 7.27790233e-04 6.79184566e-04 -1.90324354e-04
      2.85877177e-04 -1.03521146e-04 -6.39053585e-04 9.08663904e-04
      2.06021068e-04 -3.35981968e-05 -6.45765031e-05 -5.56065752e-05
      -2.82066176e-04 -1.98554175e-04 2.86028982e-04 2.59753760e-05
      -2.75062688e-04 1.75742214e-04 1.03116361e-03 -7.42416887e-05
      -7.93808314e-04 2.36552791e-04 9.93563881e-05 2.72910576e-04
      9.85544975e-05 6.72162350e-05 5.60633373e-04 1.03771141e-04
      1.03528830e-04 -6.21730214e-05 1.00769015e-04 2.24759453e-04
      3.27942194e-04 6.03351182e-05 -2.84850888e-04 -3.43725609e-04
      -1.27469178e-03 -7.60925876e-04 -8.45614588e-04 -1.95869943e-03
      -9.42150073e-05 3.50617600e-04 3.79091653e-04 -5.51900128e-04
      -2.83448462e-04 -1.39377385e-04 6.53735915e-05 -3.07196387e-05
      1.92553664e-04 6.54792748e-05 -3.92612332e-04 5.69901546e-04
      8.09665304e-04 -5.36820968e-04 -3.57290905e-04 5.88574680e-04
      2.93739831e-05 -3.34688724e-04 1.59658422e-03 -4.09928325e-04
      2.37525557e-04 7.46403966e-05 -9.16194040e-05 -1.77391776e-04
      2.08876241e-04 -6.56416451e-05 3.86630243e-04 7.85735203e-04
      4.97379282e-04 -8.87071947e-04 -5.48355805e-04 -1.36987970e-03
      2.33877217e-03 -1.90032806e-04 -2.28625606e-03 -2.33442450e-04
      -2.37597385e-04 -1.62962329e-04 -1.76636531e-04 -1.74659246e-04
      -3.44371772e-04 -5.32201433e-04 1.23718579e-03 -5.79965592e-04
      6.03869034e-04 -1.59571238e-04 6.32568335e-05 -1.45910439e-04
      -1.28128391e-04 -3.78810219e-05 4.22531768e-04 2.97409220e-04
      5.26819495e-04 1.86040226e-04 -2.13635081e-04 2.30916208e-04
      7.88246340e-04 3.75731470e-04 4.42497054e-04 7.43637211e-05
      5.57106141e-05 4.56774666e-04 2.08727361e-04 -4.38507384e-04
      4.30471380e-04 -4.56662645e-04 2.25366093e-04 1.06472828e-04
      -1.92954831e-04 -2.48860633e-05 -9.31178074e-05 -1.69017476e-05
      4.35076858e-04 -2.85179878e-04 -7.59845061e-05 -1.30757177e-03
      5.74304140e-04 1.47511181e-03 -8.88554277e-05 5.03248157e-05
      4.08617459e-04 -3.86027648e-04 2.01950272e-04 -1.77627534e-03
      1.37538855e-05 3.43168475e-04 2.39063214e-04 -1.01590867e-03
      -7.97772736e-05 2.38127948e-04 3.66135413e-04 7.32994289e-04
      2.42593070e-03 9.01760126e-04 -8.33061131e-05 -4.65883029e-04
      4.76609246e-04 2.01032584e-04 -4.52270498e-04 1.71432868e-04
      -2.66033167e-04 3.26642796e-04 -4.35385329e-04 1.80271833e-04
      5.91989141e-04 -2.13867446e-04 -8.31345038e-04 4.02920356e-04
      -2.30172154e-04 2.80352921e-04 -8.92680910e-05 -2.34305306e-04
      -1.38128962e-04 -1.48643361e-04 -1.93691885e-04 -2.79614287e-05
      -8.96146870e-04 1.18809330e-04 1.78839007e-04 -3.09705792e-05
      -2.00520284e-04 -1.89870887e-04 2.06904602e-03 -5.90691634e-04
      -4.84052551e-04 -7.16321170e-04 -6.58935096e-05 2.32356993e-04
      -5.00692004e-05 -2.08652127e-05 1.03292207e-03 -2.47594522e-04
      -3.28271162e-05 4.36959235e-04 4.18395430e-05 -6.69724977e-05
      1.13938931e-05 -1.97570276e-04 4.20543423e-04 7.25506747e-04
      -1.30488293e-03 1.04611006e-03 3.44019994e-04 -2.80965090e-04
      6.99766155e-04 1.23260863e-04 -3.19632702e-04 1.31233857e-04
      -1.05788093e-03 -6.76661090e-04 1.79060371e-04 -5.37058804e-04
      -2.07558228e-03 3.26389891e-05 -1.31737627e-03 1.38741895e-03
      1.48184237e-03 -8.26896503e-05 9.41914739e-04 -2.49170465e-04
      -3.27568298e-04 -9.26509310e-05 -7.09761342e-04 7.03639002e-04
      1.53892222e-04 -3.85571730e-05 4.48131264e-04 -3.09185634e-05
      1.18696317e-03 -5.20993199e-04 -6.86183514e-04 -3.20149353e-04
      -4.99738497e-04 1.12280009e-04 -7.25066930e-05 -2.24084928e-04
      6.46767323e-04 -1.39891097e-04 -2.13508174e-04 -6.73647737e-04
      -1.29536272e-03 2.04648924e-04 1.19954602e-04 8.49000426e-05
      1.06074571e-04 -1.78472052e-04 1.34251197e-03 1.09179632e-03
      3.93032416e-04 -9.87441046e-04 5.65239752e-04 1.25274202e-03
      2.88804586e-04 -3.19480983e-04 -2.57817883e-04 -4.80182061e-04
      1.12417794e-04 -2.87758914e-04 -6.75305200e-05 -6.56557095e-05
      8.74294783e-05 -3.27866350e-04 -6.07969298e-04 4.52462031e-04
      -9.36901488e-04 -1.88868813e-04 8.00437992e-04 -9.96095827e-04
      2.03659409e-04 6.81364327e-04 6.34072640e-05 7.32228160e-04
      4.39673488e-04 2.99145206e-04 -2.63509399e-04 1.77163209e-04
      -8.71040102e-04 1.89303377e-04 -2.08020397e-03 -2.69650365e-04
      1.49548607e-04 -3.88307584e-04 -1.61801232e-04 9.13970580e-04
      -1.90218401e-04 8.82387321e-05 -7.43129523e-04 1.07602123e-03
      4.10697918e-04 -3.06573900e-04 6.83624763e-04 -6.37751218e-05
      6.50833594e-04 -1.38581367e-04 -4.21700330e-04 -1.11458171e-03
      7.73324398e-04 -6.92803451e-06 -2.94127676e-05 4.80975941e-05
      6.15522382e-04 -4.10252796e-05 -1.83123135e-04 -7.87722893e-05
      -1.25676033e-03 -1.27431151e-04 5.37608285e-05 -4.03789236e-05
      -3.38854152e-04 -2.93310004e-04 -6.75603631e-04 -1.27907982e-03
      -7.87904661e-04 7.11342145e-04 7.08718493e-04 9.20445818e-05
      2.33477011e-04 3.26639944e-04 2.32793827e-04 1.32024440e-03
      -9.45977445e-05 1.68758925e-04 -5.58682877e-05 -1.09982167e-04
      -3.13981640e-04 2.86634109e-04 -2.26804303e-04 -1.58457854e-03
      -1.39609468e-03 -2.06034732e-04 -2.49642675e-04 6.49583890e-05
      7.62253010e-04 8.03516887e-05 3.72828596e-04 -2.94229802e-04
      -5.93336648e-04 -3.90434143e-04 3.16733167e-05 2.45220755e-04
      4.39810625e-04 -7.75561552e-04 2.33122031e-03 1.08578941e-03
      1.60564191e-03 5.26416872e-04 -4.33777808e-04 -3.73385614e-04
      5.03887131e-04 1.42414265e-05 2.05566001e-04 4.29636129e-04
      3.08837014e-04 -1.55181551e-04 -9.21733445e-05 -2.15459004e-04
      -4.50017193e-04 1.82751086e-04 5.14284184e-04 -6.63120823e-04
      4.30203159e-04 -1.53161425e-04 6.79035264e-04 -1.41111639e-04
      8.15484382e-04 -1.60391239e-04 -1.81754745e-04 2.64756382e-04
      -3.07618757e-04 -1.63479763e-05 1.84131510e-04 -3.54900811e-04
      1.74860048e-04 -5.10495622e-04 -1.02957920e-03 -7.86412740e-04
      5.27724158e-04 4.00328136e-04 2.28326113e-04 8.56263039e-04
      -2.17708905e-04 2.56746949e-04 -5.85021568e-04 -2.88293697e-03
      2.51206278e-04 3.76207463e-04 -2.64945957e-05 2.08694139e-04
      2.00395458e-04 -1.89697486e-04 2.17875873e-04 6.36609388e-04
      -1.62395518e-04 -1.43304991e-04 1.60927069e-04 4.97592380e-04
      2.44721945e-04 -2.39093890e-04 -2.95931153e-04 2.81702843e-04
      -8.74103629e-04 8.96542479e-05 3.61860933e-04 9.90689965e-04
      -1.36890402e-03 1.37675903e-04 -1.09997205e-03 3.45519424e-04
      1.02375110e-03 -5.02167677e-04 -5.65639231e-04 -1.56126203e-04
      -4.19998250e-05 -2.62347690e-04 -4.62619530e-04 9.26325447e-04
      -3.64791449e-05 -3.29617469e-04 1.50680717e-04 -8.95303092e-05
      1.24019105e-04 -4.93447005e-04 -1.05787895e-03 1.47795130e-03
      -4.30817863e-06 -2.87346367e-04 3.33198928e-04 1.21067336e-04
      -7.23124249e-04 1.26515908e-04 -9.53825220e-05 8.59971042e-05
      -1.11195690e-03 -1.30057917e-04 2.52282363e-04 -3.08919029e-04
      5.29815734e-04 1.21057798e-04 2.25002121e-04 1.25717162e-03
      1.27403892e-03 -8.46942654e-04 7.11684988e-04 -6.07072434e-04
      1.58846015e-04 3.12717348e-05 3.20510851e-04 3.05330730e-04
      -5.51679230e-04 4.81874522e-05 4.69736442e-05 1.85951896e-04
      -4.85335768e-04 -1.74402070e-04 3.13460536e-04 -4.51786822e-04
      -4.91314800e-04 -2.18327943e-04 -1.44799546e-04 2.84689042e-04
      -7.03918515e-04 1.54640395e-04 5.26493939e-04 -7.48464518e-05
      3.41382140e-04 -4.04781720e-04 -2.16282788e-04 5.25433861e-04
      -1.31285822e-04 -1.70267100e-04 -9.95171358e-05 4.47776285e-04
      3.44910251e-04 -3.59396916e-04 -1.42099650e-03 1.77844684e-03
      -2.91110540e-04 2.70483695e-04 -1.64431415e-03 -4.28120809e-04
      1.28288360e-04 2.85499205e-04 1.28826330e-04 -2.53417202e-05
      -7.52309512e-04 -3.50209666e-05 3.37708407e-05 -1.26572954e-03
      1.55759731e-03 -6.49229041e-05 -1.23901436e-05 -1.52497945e-04
      9.28483787e-05 2.33915325e-05 1.46031292e-04 4.64650147e-05
      -4.78915550e-04 -1.90282226e-04 3.09544885e-05 3.94512346e-04
      -1.70813160e-04 4.83412296e-05 -1.14371406e-03 -7.29429012e-04
      -4.69448714e-04 9.28873895e-04 2.83092173e-04 1.10236078e-03
      2.43367231e-05 -1.92920343e-04 -9.46157597e-05 -1.99225848e-03
      4.54360234e-05 2.46794109e-04 -5.41755435e-05 -4.49253770e-04
      -3.69761074e-05 1.81719006e-04 1.22771235e-04 5.63460751e-04
      -7.57839589e-04 1.56564836e-03 -1.22790647e-04 6.82705140e-04
      2.17381603e-04 1.08469460e-04 1.96399444e-04 4.71951585e-04
      3.53771757e-04 7.41005118e-04 1.76917019e-04 -9.76772280e-04
      5.24749921e-04 -5.30294026e-04 2.65955750e-04 7.28483952e-04
      2.87992938e-04 3.61789498e-05 -5.89794829e-04 1.55357528e-04
      -6.75776857e-04 2.91263859e-04 -7.54107823e-05 3.70882743e-04
      -5.34256629e-04 -1.82383010e-04 -3.07514492e-05 -5.33869490e-04
      -8.28133139e-04 -8.25088937e-05 4.33412933e-04 -2.83009169e-04
      2.25478390e-04 -2.14061220e-04 2.15790264e-04 -2.49377976e-04
      -5.87626186e-04 2.02897400e-06 -4.95188833e-05 -2.63003130e-05
      -6.18816004e-04 1.62102864e-04 -4.66711354e-04 -1.28565021e-04
      -6.61280239e-04 2.01389805e-04 1.83475087e-03 2.18687361e-04
      -7.09579443e-04 3.50817310e-04 7.60230410e-04 3.44423956e-04
      -6.60344595e-05 7.01430326e-05 1.94895634e-04 4.08656837e-04
      -2.82439083e-04 -4.19811101e-07 -1.55113739e-05 1.12190071e-04
      2.54838757e-04 -2.41560716e-04 -2.63386697e-04 8.28823191e-04
      1.48949353e-03 -1.32922200e-03 2.86157680e-04 2.06446304e-04
      -1.57594724e-04 -4.08433669e-04 -1.77741531e-04 -5.96221653e-04
      3.07460112e-04 1.97946141e-03 -2.13869607e-05 -3.40851693e-04
      1.52951063e-04 -9.87683889e-05 -6.10312214e-04 -4.46906706e-05
      6.46504923e-04 8.25114432e-04 -1.81199645e-03 -7.50453793e-04
      -3.99634620e-04 -3.22182896e-04 -1.76526827e-03 9.43302235e-04
      -2.03497824e-03 2.04928801e-04 3.95123789e-04 -3.44718137e-04
      1.18724373e-03 -6.17092155e-05 7.48091086e-04 1.84622942e-04
      4.16662515e-04 -1.97270085e-04 -5.68702162e-05 -1.75352456e-04
      -5.45072835e-04 1.31412489e-05 1.68129972e-07 -1.05535910e-04
      -2.19854541e-04 7.47685772e-05 2.00265204e-04 -2.00813520e-04
      2.41232192e-04 -2.56517378e-04 -8.32644349e-04 -4.05815197e-04
      2.00765207e-04 5.11983468e-04 1.56941707e-04 -1.22790493e-03
      -1.78130882e-04 -3.87308188e-04 2.60846311e-04 2.42564653e-04
      -2.74872809e-06 -4.36022201e-05 5.98908919e-05 1.72534244e-04
      -5.35650979e-05 -7.07243817e-05 -2.64519564e-04 -9.71271220e-06
      1.24288688e-03 1.82267133e-04 1.08627057e-04 5.05906122e-04
      1.55286602e-04 -2.42822804e-04 1.06928055e-03 8.05215095e-04
      -8.43170274e-05 -3.67514498e-04 -6.79243894e-05 1.44421076e-03
      1.40349162e-04 1.13575545e-04 -4.30961634e-04 4.64144017e-04
      2.23306287e-03 -7.49181141e-04 -1.92242951e-04 -4.06504951e-05
      4.62066382e-04 3.01703898e-04 -2.02356209e-03 7.84477161e-04
      -2.07091027e-04 2.14020620e-04 -4.58203547e-04 4.56664682e-04
      1.18269143e-03 -2.71244280e-05 -9.41230333e-04 5.96020021e-04
      3.47796711e-04 -8.95167323e-05 -1.92904699e-04 3.12612712e-04
      1.51866741e-04 -6.61907688e-05 -1.73514840e-04 -2.35973159e-04
      -1.21370645e-03 3.27682792e-04 4.04201564e-05 5.05800126e-04
      -1.13845652e-03 7.37159935e-05 3.91264184e-04 4.36332688e-04
      5.61817833e-05 6.46893284e-04 9.97441093e-05 -9.31766175e-04
      -4.38686344e-04 6.14025557e-05 1.29779408e-04 -4.07767133e-04
      -2.15183623e-04 -1.47775150e-04 6.32279553e-05 -3.77495599e-04
      -1.00473648e-04 1.41859942e-04 -2.13269115e-04 -1.34724367e-03
      -1.62933988e-03 -4.57749760e-04 5.47771459e-04 8.60532688e-04
      -6.72450333e-05 -3.56353063e-04 3.36868310e-04 2.36356253e-04
      1.54189370e-03 -2.83560337e-04 -9.03446926e-06 -3.73297604e-04
      4.12024732e-04 -8.84919253e-04 9.85009712e-04 1.05296401e-03
      -1.13700808e-03 9.68039501e-04 -1.19821855e-03 -6.12490519e-04
      -6.93360111e-04 6.77410644e-05 -1.60553597e-03 4.96028399e-04
      1.38718897e-04 6.64261825e-05 2.62348418e-04 -3.16921913e-04
      4.76610498e-04 -1.86988109e-04 -1.92125631e-03 -4.19307435e-05
      5.02456387e-04 3.49792972e-04 1.23265461e-04 -3.39033228e-04
      -9.81446078e-07 1.50593434e-04 3.62179911e-04 1.06337822e-04
      -1.03726898e-05 7.16096838e-05 1.59051651e-05 -4.03195590e-05
      -1.16080279e-03 1.95800880e-04 5.50110766e-04 4.19987366e-04
      1.77114550e-03 1.05068344e-03 -3.98620432e-05 -7.90462036e-06
      1.11083420e-04 5.64727779e-05 4.86118253e-04 -3.44244821e-04
      4.18983473e-05 -4.17919364e-05 2.41917351e-05 -3.63992789e-04
      5.41146392e-06 -2.10782062e-04 -8.04254742e-05 3.90657660e-04
      1.53020650e-04 -5.29973069e-04 -3.45740955e-05 -3.05201975e-05
      1.13661040e-03 3.71138100e-04 -2.51106452e-04 -1.57938877e-04
      -2.29310725e-04 -6.88919507e-04 -3.04640798e-05 -4.53078334e-04
      -3.68212612e-04 7.10692475e-05 1.21167838e-03 9.23189451e-04
      6.54106552e-04 -6.86920714e-04 7.82830466e-04 -5.85307251e-04
      -3.39499064e-04 2.60835164e-04 1.40384102e-04 -7.92615290e-04
      -1.79275742e-03 -2.53305887e-04 1.00235024e-03 -3.17374564e-04
      4.34828144e-05 -3.85208230e-04 -3.96989577e-04 -4.52962704e-04
      -4.39527976e-05 6.59884186e-04 1.95252767e-04 3.55274591e-04
      4.87992547e-05 -9.66799689e-06 -8.58987856e-04 1.80486662e-04
      -5.05303266e-04 -1.60663156e-04 -2.89597840e-04 -1.77212751e-05
      -9.12777148e-04 1.00373523e-04 9.91287408e-04 -9.09153459e-05
      -1.73366023e-03 -2.03179196e-04 -1.77639267e-05 3.43779015e-04
      3.59649566e-05 -7.34476430e-07 4.25626349e-04 -2.54922896e-04
      1.30134240e-05 2.38734923e-04 1.63809207e-04 -1.62084310e-04
      -4.55812151e-05 -9.67610540e-05 -1.89744198e-04 3.89581808e-04
      1.78649172e-03 -4.15372255e-04 -2.92659621e-04 2.79405038e-04
      2.69044889e-04 -7.45856145e-04 -2.93385470e-04 3.63498344e-04
      1.61950197e-03 9.97952186e-04 -9.59256431e-05 -4.21772304e-04
      1.69903768e-04 8.65619222e-04 -7.14703579e-04 1.19935942e-03
      9.01304593e-04 -1.13692961e-03 4.99166956e-04 -5.47859527e-04
      2.89152435e-04 -7.81695780e-05 1.29564141e-03 -8.49814911e-04
      1.76226546e-04 5.50136701e-06 9.52662376e-05 -3.14377467e-05
      -8.32866586e-04 -1.53722009e-04 -1.18064148e-04 -1.30315791e-04
      -2.03712130e-04 -1.20950535e-04 -1.18350566e-04 -3.26578622e-04
      3.62590217e-04 -7.16737350e-06 -1.65033896e-04 1.17212861e-04
      2.88983952e-04 -2.22515562e-04 1.56425973e-04 -2.06603669e-04
      -1.32127793e-03 -7.75597582e-05 -1.11225883e-04 1.36119896e-04
      -2.62042769e-04 -1.62080061e-04 -1.37653609e-04 -8.06646072e-04
      -5.24764437e-06 -2.27113080e-04 2.29814614e-04 8.47367279e-04
      6.27566715e-06 4.74637018e-05 -6.61634840e-05 1.83441487e-04
      5.79982261e-05 9.50434332e-05 3.34321841e-04 -2.34989973e-04
      -2.60861649e-04 5.39109227e-04 -2.75916915e-04 6.57078403e-04
      2.16011715e-04 3.88440996e-04 4.05360683e-04 1.89117505e-04
      6.37585123e-04 1.28378067e-03 -2.23350489e-05 -2.59593216e-04
      -1.44075823e-03 -4.71652515e-04 -2.58088694e-04 1.20949594e-03
      1.92579522e-03 -5.10637008e-04 9.15023149e-04 1.84757018e-03
      7.88138597e-04 -5.42605594e-05 -1.49837171e-04 2.64263566e-04
      -2.67891970e-04 -4.58288589e-04 -1.98037000e-04 -1.92064821e-04
      -5.28532022e-04 -1.43908430e-04 -1.15734467e-03 -7.83699215e-04
      5.47420583e-04 -6.98193558e-04 3.22389678e-04 -3.02486646e-04
      8.08291079e-05 1.01674459e-05 -4.77951195e-04 -1.40367210e-05
      -3.60430946e-04 -1.53797882e-04 4.64238547e-05 4.88312753e-06
      -3.58815014e-04 2.33436265e-04 1.85295969e-04 -3.61152284e-04
      4.43428318e-04 1.47925050e-04 -6.14598684e-05 -1.33401190e-03
      1.35846843e-04 1.41365410e-04 1.13820985e-04 2.28760314e-06
      1.28417785e-04 2.19839232e-04 -4.99987327e-05 3.72453564e-04
      -1.24159269e-04 2.58538930e-04 1.28799918e-04 -6.02646440e-04
      4.11386078e-04 2.22454240e-04 -4.50325460e-04 8.62431654e-04
      -3.17840691e-04 -5.12634288e-04 6.86335188e-05 -1.70662504e-04
      -4.45849553e-04 -8.48349940e-04 2.73939659e-04 6.50415954e-04
      -2.32142818e-04 1.21375906e-05 -1.88466336e-04 7.44154502e-04
      -5.63841080e-04 7.68032216e-04 4.46234044e-04 5.47369011e-04
      -9.39470774e-05 4.15860239e-04 6.55298529e-04 9.30284441e-04
      1.19281649e-04 2.25608703e-04 -7.26852100e-04 -2.05631804e-04
      -1.26050226e-03 3.09663999e-04 -9.25460190e-05 -1.81311055e-03
      3.67193534e-05 -2.00293769e-04 -5.07907571e-05 3.23569053e-04
      2.49465724e-04 1.48639403e-04 7.58901442e-05 -4.25700331e-04
      1.56439870e-04 -3.08346003e-04 -3.59476217e-05 -1.21856159e-04
      -2.58117769e-04 3.83983243e-05 1.63719204e-04 4.79944050e-04
      -9.95338662e-04 7.90204213e-04 -4.57488641e-04 -2.89200712e-03
      -1.60225231e-04 3.06012080e-04 8.19591456e-04 9.10925621e-04
      1.25730847e-04 4.32588567e-05 1.26717190e-04 -1.12491551e-04
      1.82410600e-04 -9.03821638e-05 5.13576437e-04 3.90125002e-04
      1.90417271e-03 -4.05123748e-04 7.37188675e-04 3.16435122e-04
      -3.15653306e-05 2.19386056e-04 -3.58398800e-04 9.70225199e-04
      -1.64811529e-04 -2.38552946e-03 -7.47849626e-05 4.00018384e-04
      -3.69159738e-04 1.28065771e-03 -9.97735304e-04 -4.74528555e-04
      -3.92174319e-04 3.10868083e-04 -1.38509588e-03 -2.19976195e-04
      4.60516167e-04 9.23454427e-05 -2.10547849e-04 -3.32740485e-04
      -1.47058768e-03 -6.40573271e-04 -3.01068998e-04 1.48314182e-04
      1.21008349e-03 2.64959177e-04 5.31159807e-04 -1.73072025e-04
      -6.06311020e-04 -3.69868852e-04 -1.94324981e-04 1.04867118e-04
      2.74396240e-04 -2.69776974e-05 1.43948273e-05 -1.57432689e-04
      1.07319863e-03 -8.32837177e-05 2.19382346e-04 -7.52102715e-05
      -6.56822696e-04 4.14684619e-04 -1.31168199e-04 -8.81005952e-04
      1.07028778e-03 8.36890133e-04 4.40192001e-04 -2.05376156e-04
      -7.44598874e-05 2.56294035e-04 -5.92538097e-04 -2.72419071e-04
      2.79233238e-04 -1.85246958e-04 2.24875512e-05 2.37442626e-04
      7.80671107e-05 -3.89637898e-05 3.80795216e-04 3.29798786e-04
      2.20368442e-04 -9.59606899e-04 -6.47646884e-05 1.89391116e-03
      -2.38417444e-04 7.53309170e-04 -3.57440353e-04 3.83832230e-04
      1.01269537e-03 -1.33100688e-03 -4.89692145e-04 1.47487922e-03
      -3.44362226e-04 -9.28391702e-04 4.48915554e-04 -8.47640389e-04
      -2.31798040e-03 1.04170386e-03 1.31876883e-03 5.92932047e-04
      2.03695527e-04 -5.09106176e-05 -4.79181705e-04 -1.20114069e-03
      4.20977798e-04 2.00133887e-04 1.52291279e-04 -1.70616113e-04
      -1.12662592e-03 -4.54563298e-04 -8.72951423e-05 -1.89662934e-03
      -2.76483479e-04 1.14410614e-05 3.50912684e-04 -4.34145273e-04
      4.20828641e-04 -8.99406004e-05 -4.53689463e-05 6.46986300e-04
      -5.70082455e-04 -1.85600191e-04 3.00075364e-04 -1.07280437e-04
      -2.46622745e-04 3.03434237e-04 -2.07655830e-03 2.88398005e-04
      -9.87395411e-04 -5.12340148e-06 -1.59559291e-04 5.95101392e-06
      1.93761283e-04 3.80463054e-04 6.11677126e-04 1.21418468e-03
      -5.64119400e-05 -3.03257220e-05 0. 1.18292912e-04 1.15496923e-05
      3.44490654e-05 1.51257758e-04 9.10984352e-04 1.13209314e-03
      -1.51189417e-03 -1.41623037e-04 5.01731585e-04 4.00345511e-04
      -6.16154066e-05 2.29433848e-04 8.65685521e-04 4.83830190e-05
      5.72140561e-04 1.01219746e-04 2.79085827e-04 1.22650841e-03
      -1.11538984e-05 -1.51575505e-05 -4.44492267e-04 -1.30499050e-03
      1.31735187e-05 -3.12276552e-06 -9.75222501e-05 3.32498639e-05
      -3.48097732e-04 -3.20206775e-04 1.65850906e-05 -1.70114916e-03
      -8.13451770e-05 -2.35862462e-04 2.98263418e-04 5.51431673e-04
      -9.81125922e-05 8.76237755e-04 1.70101950e-04 2.39229223e-04
      -1.75679670e-04 1.03676930e-05 4.08489257e-04 -2.06333905e-04 0.
      -3.05912945e-05 -2.21373935e-04 -3.40692670e-04 4.21954937e-05
      -2.07162244e-04 6.98586446e-05 -4.70545085e-04 -7.44755307e-05
      6.17225160e-05 -1.06472828e-04 -2.87587231e-04 1.61048339e-03
      -2.48976867e-05 -1.10232714e-03 -9.43725245e-05 -3.27016925e-04
      9.31745235e-05 5.31597587e-04 -3.16909514e-04 7.75930021e-05
      1.31965178e-04 -1.45453450e-04 -2.60157503e-05 -3.22831271e-04
      -2.82850116e-04 1.49526319e-03 6.67741580e-04 7.61842748e-05
      -5.31797341e-05 -5.61311666e-04 2.07516496e-04 -5.85552834e-06
      3.05940746e-04 7.57541449e-04 -4.35428345e-04 2.97526072e-04
      -2.88017851e-04 1.62993543e-04 1.44998333e-03 -7.06425752e-04
      1.09141169e-03 -7.43605080e-04 -1.03866251e-03 1.85796805e-03
      -7.57060421e-04 -1.73793070e-03 -3.43815540e-04 2.87817791e-04
      -1.01510261e-03 8.76629842e-04 -2.89570831e-04 6.66165084e-04
      6.46122498e-05 4.06923682e-05 1.57842459e-03 -6.71654780e-05
      -6.53197814e-04 -4.63240431e-04 4.58542752e-04 -1.19760989e-04
      -3.98898876e-04 -2.30382560e-04 -1.46234495e-04 -7.57858870e-05
      1.46336490e-04 -4.52791195e-04 -1.57721480e-03 1.64071884e-04
      -5.12031547e-04 -5.58147767e-05 -3.83320381e-04 -1.75226349e-04
      -2.55950057e-04 3.80792946e-04 -7.65392848e-04 -1.30174260e-04
      -9.62355989e-05 3.65259359e-04 -1.43166049e-04 3.16565856e-04
      9.12834148e-05 4.67508682e-04 -3.30210722e-04 -2.22952891e-04
      1.70721091e-06 -5.28331730e-04 1.92626438e-04 1.54192356e-04
      -2.26373042e-04 1.43054849e-03 -1.70628467e-04 -8.41235684e-04
      7.58611248e-04 1.11579476e-03 1.33275753e-04 1.29648426e-04
      8.88462993e-04 1.89155445e-03 4.06909356e-04 -5.41464578e-05
      1.43865065e-04 3.28927941e-04 3.39555379e-04 -5.99816776e-05
      2.14287735e-04 -1.57465145e-03 -1.19422213e-03 7.47101265e-04
      -1.27101994e-05 4.52696142e-04 9.61836777e-04 -4.40965145e-04
      -2.76386680e-04 6.17408019e-04 -1.16732903e-03 4.78547270e-04
      -8.24542949e-05 4.04040969e-04 -3.56256904e-04 -2.52604223e-05
      -2.87493458e-04 1.01422274e-03 2.13014777e-04 -1.15032444e-05
      -2.92294601e-04 7.57640009e-05 6.70242516e-05 -9.47148146e-05
      -3.89505789e-04 -4.37130329e-05 9.56385222e-04 1.53003901e-04
      -2.03543150e-05 4.37052309e-04 -2.47132470e-04 -3.02406435e-04
      6.08251197e-04 4.69697465e-04 -1.95535878e-03 -2.47995980e-04
      1.79859911e-04 4.41998827e-06 1.26760133e-04 -3.25019006e-04
      5.71263197e-04 -5.74617705e-04 1.48049789e-04 3.92047950e-04
      3.95696297e-05 -1.75526475e-05 -3.79450357e-04 -1.68017723e-04
      -9.29827569e-04 1.27223553e-04 1.57071196e-03 9.80121316e-04
      -2.56510393e-04 4.07824438e-04 4.34796413e-04 -7.84888398e-04
      -2.88996525e-04 4.80475486e-04 2.86883762e-04 3.70533176e-04
      -5.79529500e-04 -1.17754680e-03 4.30720756e-05 -3.75622156e-04
      -2.89944786e-04 -2.24077492e-04 1.38410856e-03 1.63676101e-04
      2.30562000e-04 -9.65129933e-04 4.14504641e-04 9.75798685e-05
      -1.88289268e-03 4.10955690e-04 8.05347692e-04 -2.42372887e-04
      -1.61064832e-04 1.97360889e-04 2.88918847e-04 -6.35647972e-04
      7.19501668e-06 -7.11907633e-04 1.35000359e-04 4.98464156e-04
      -1.51492699e-04 -3.69897607e-05 -8.68545249e-05 -1.29227715e-06
      -2.82837398e-04 3.73455929e-04 -3.78577854e-04 1.44667501e-04
      -7.83976429e-05 2.65400158e-05 4.99638554e-04 -2.61611403e-05
      8.18504486e-04 -5.16214350e-04 -2.55774765e-04 -1.34259218e-03
      2.40718975e-04 -7.52527849e-04 2.96054437e-04 -3.14001009e-05
      -4.61097457e-04 2.66154766e-05 -3.27815476e-04 -2.52580707e-04
      -9.27833244e-05 -3.14763238e-05 4.03121841e-04 5.02152907e-05
      1.93130923e-04 3.20233880e-07 5.85918606e-04 9.55278985e-04
      -3.47834546e-04 1.45647931e-03 1.63055651e-04 -2.77942047e-04
      5.74219564e-04 -1.20641935e-05 -4.68657818e-04 4.95230488e-04
      1.14563853e-04 -4.55457252e-04 2.01430521e-04 -2.07464152e-04
      -6.50113972e-04 -1.27418622e-04 -4.50229796e-04 2.87395698e-04
      -3.00418295e-04 3.68193607e-04 -1.20822290e-06 -1.81862415e-04
      -3.52807925e-04 9.46924905e-04 -1.78285642e-04 -7.14309790e-05
      8.27177573e-05 3.33070057e-04 -1.45252809e-04 -1.21769248e-04
      1.09397020e-04 -2.04583062e-04 1.01178896e-03 -7.84803706e-05
      2.41313537e-05 -1.45145954e-04 -1.69166786e-04 6.01216598e-05
      -4.41569369e-04 3.23117070e-04 9.20416263e-04 -4.46966355e-04
      -4.22234065e-04 -4.25461731e-05 -3.97227705e-04 1.31546345e-04
      -3.02016706e-04 3.04232177e-04 9.98207979e-05 1.38033909e-04
      -1.75260153e-04 -1.65990344e-03 -1.09396082e-04 -3.57353914e-04
      3.85001564e-04 -6.44055312e-04 -1.52506967e-04 4.00926860e-04
      1.24717757e-04 6.86480489e-05 2.89344345e-04 -4.92088548e-05
      -3.44339700e-04 7.24679383e-04 4.28160100e-04 1.07749598e-03
      3.86229483e-04 4.19291726e-04 -2.73275044e-04 6.15625104e-05
      2.01719976e-03 4.12557594e-04 -1.67576130e-03 1.14203978e-03
      3.45919834e-04 -1.23223953e-03 5.16997010e-04 -1.27909775e-03
      -2.66566873e-04 -1.26951234e-03 -1.01551891e-03 9.87107633e-04
      8.09818797e-04 -2.72381410e-04 3.50461429e-04 -4.04079947e-05
      -9.02515196e-04 -1.12403312e-03 2.10333336e-03 -5.89113974e-04
      -7.34782880e-05 -3.77491699e-04 -2.32820120e-03 3.46362242e-04
      1.59322319e-03 1.94835942e-04 -7.98018184e-04 3.28463299e-04
      -8.22778093e-05 -3.61075101e-04 2.30088481e-04 -6.77022263e-06
      -9.65174113e-05 2.85390015e-05 -5.29233366e-04 -1.20662880e-04
      3.24058812e-04 1.43980316e-04 -6.34503594e-05 7.53555578e-05
      -7.19913340e-04 -1.42782449e-03 4.10211447e-04 2.77771294e-04
      4.36925795e-04 1.98608381e-04 -4.19243239e-04 1.20535762e-04
      -1.75944020e-04 7.38520001e-04 -1.72071050e-05 -1.04642721e-04
      -7.03110927e-05 1.44749807e-04 6.48293008e-06 -6.03596964e-05
      1.47823695e-04 4.15373914e-04 9.33716714e-04 -4.69212304e-04
      6.45412292e-05 2.70586321e-03 -5.28258213e-04 -2.96650600e-04
      -2.08889556e-04 4.60497133e-04 -1.47168408e-03 4.90457096e-05
      2.01105897e-04 2.80285050e-04 -2.77403014e-04 -2.22155562e-04
      -3.48977774e-04 4.92137624e-04 -8.63599184e-04 -8.10351339e-04
      1.43927720e-03 -4.78119735e-04 -6.33271295e-04 2.15104461e-04
      -6.70026988e-04 -1.16958446e-03 -1.19407217e-04 5.06008859e-04
      -3.91534995e-04 -1.87005164e-04 6.48718211e-04 3.38336889e-04
      2.91711389e-04 -7.30159169e-04 -7.15533330e-04 -1.19238117e-04
      3.44111395e-05 -9.85873485e-05 -5.13596227e-04 -7.30097163e-05
      -2.19105699e-04 3.38571408e-04 6.97681564e-04 -6.39813297e-05
      2.08524085e-04 1.04933453e-04 -9.88901156e-05 3.15912243e-04
      7.97495522e-05 1.36141898e-04 2.71911296e-04 7.95086264e-04
      -4.21027435e-05 1.00877357e-03 -2.25922326e-04 1.75805748e-04
      -1.62277516e-04 3.85733030e-04 -1.15128409e-04 3.78319855e-05
      -1.08046290e-04 -4.18401265e-04 -3.42134474e-04 -1.23381324e-04
      -1.86601828e-05 6.21191517e-04 -4.30372893e-04 1.22419397e-05
      -1.60096868e-04 -8.45242612e-05 2.78695166e-04 -5.14137428e-05
      3.51020019e-04 1.10486546e-03 -4.46693048e-05 1.39235763e-03
      -1.19416618e-04 -6.15681696e-04 3.02435801e-04 -3.68951209e-04
      -7.07453582e-04 6.04460979e-07 -1.32965593e-04 -1.07467815e-04
      6.49189227e-04 -3.11798940e-04 -1.53276706e-04 4.88581776e-04
      2.18934700e-04 -1.26274466e-03 2.85740207e-05 -7.00376637e-04
      1.47929063e-06 -2.95254547e-04 1.05134299e-04 -2.65498529e-04
      1.10963054e-04 8.44645489e-04 4.85080491e-05 6.58689078e-06
      6.38944985e-05 1.70323183e-04 -4.82547563e-04 1.04053972e-04
      2.03228938e-05 2.91529323e-05 4.44904872e-04 -4.42348071e-04
      -6.94308983e-05 2.33439103e-04 6.23419546e-05 -3.05642636e-04
      -1.29832348e-04 2.88873620e-04 9.68708191e-05 -3.48611240e-04
      -3.24827124e-04 -9.67519183e-04 2.59785011e-04 -2.57409789e-04
      -3.65014675e-05 -3.61541373e-04 2.49539822e-04 -9.85263250e-05
      -2.92489972e-06 2.24607356e-04 -1.48617954e-04 1.70927538e-04
      3.89509427e-04 -6.30056194e-04 2.04635295e-03 1.06476818e-03
      -1.95514600e-04 6.04215893e-04 -6.53199852e-04 6.26068413e-06
      -2.34064108e-04 8.08606856e-04 -8.55585909e-04 -1.39416102e-03
      -1.36923583e-04 -2.22513976e-04 -6.67237793e-04 2.60762317e-04
      -8.38660635e-05 2.17667664e-03 -1.01490901e-03 5.80607972e-04
      8.28990524e-05 2.11360646e-04 6.45760796e-04 -3.19815212e-04
      -1.25477882e-03 -1.36374298e-03 1.05860480e-03 1.81100753e-04
      -3.70934373e-04 4.61384567e-04 -1.75876869e-03 -1.97637448e-04
      7.62409531e-04 1.53088197e-03 5.43531387e-05 1.83484972e-05
      -1.97621295e-04 -2.15344946e-04 6.64534164e-05 -3.23035711e-05
      2.60272966e-04 -1.26093000e-04 -9.12337855e-05 -1.51503860e-04
      4.87009034e-04 -1.13846945e-04 4.19301738e-04 2.80408567e-05
      -1.24901111e-04 4.49406914e-04 -9.80111188e-04 -6.28945418e-04
      -4.78318325e-05 3.45922395e-04 4.24176716e-04 -1.98383030e-04
      2.16343193e-04 -4.70745181e-05 5.90522308e-04 1.43564437e-04
      -6.32507654e-05 -1.12008354e-04 -1.23911173e-04 6.30656796e-05
      8.51378252e-04 4.44706646e-04 6.26623863e-04 4.52304783e-04
      -7.59769289e-04 -1.49861284e-04 -1.68613886e-04 2.49722070e-04
      2.18992267e-04 -3.21372820e-04 -9.60080724e-05 -1.08641270e-03
      -2.63799942e-04 1.68702012e-04 3.34521726e-04 5.91490243e-04
      -5.69122611e-04 -7.03212208e-05 -6.04230736e-04 7.89939833e-04
      1.13924521e-04 -5.18877467e-04 4.27910505e-04 -7.39897951e-05
      -9.06850037e-04 6.86850923e-04 -1.53758840e-04 -1.56631833e-03
      3.97429103e-04 -4.91783605e-04 1.31164282e-03 2.40915877e-04
      -1.17609301e-03 8.12168582e-04 -2.61597190e-04 5.96890692e-04
      1.45389422e-04 1.32955931e-04 -6.58917124e-05 1.06359075e-04
      2.58601620e-04 -2.98211053e-05 -4.11824556e-04 4.01215249e-04
      -3.89883426e-05 -6.86624917e-05 4.32051776e-04 -3.90924339e-04
      -7.45225116e-04 6.40819664e-04 -3.30522307e-04 7.92750739e-04
      7.46043006e-05 -5.82852983e-04 -2.08156162e-05 1.57817645e-04
      -1.05787585e-04 -9.14759934e-04 -4.55743866e-04 7.48131424e-04
      6.55228068e-05 1.51644726e-05 -3.22608648e-05 -2.41964633e-04
      1.05756291e-04 -4.20186370e-05 2.89889518e-04 1.37241994e-04
      3.30501294e-04 -1.66236144e-03 9.74595387e-05 -1.97854810e-04
      -2.32481107e-04 1.15626527e-03 4.98776906e-04 -3.97783006e-04
      5.99424646e-04 -5.01022907e-04 3.06250586e-04 -7.69192047e-05
      -2.04769676e-05 4.49839688e-04 1.46592455e-03 8.04331270e-04
      -8.75846716e-04 -1.43662875e-03 1.18868321e-03 8.86071357e-05
      3.47697828e-03 -1.20274734e-03 -1.20943390e-04 3.82042897e-04
      -1.63247154e-04 -8.45003160e-06 -8.14870698e-04 2.93875579e-04
      -1.29846553e-03 -3.87689011e-04 5.90084295e-04 4.54722795e-06
      1.52907625e-04 1.43816233e-05 2.77624349e-04 9.71041736e-05
      -1.25355173e-05 -9.15086493e-05 -6.01269812e-06 -1.83124663e-04
      -1.07875778e-04 1.59267045e-04 -7.64123863e-04 5.55641418e-05
      2.20334143e-04 -8.38697888e-05 7.05398794e-04 -3.19920102e-04
      1.84105345e-04 -6.23824482e-04 -3.24020803e-05 7.81203489e-05
      5.86359820e-04 1.45694718e-03 -1.48709674e-04 -5.14480344e-04
      -5.44718569e-05 1.82045464e-04 2.01573566e-04 -5.01273862e-05
      1.13663271e-04 -1.16309524e-03 -1.07493845e-03 -1.21045811e-03
      -3.67446119e-05 1.22283702e-03 -2.98294355e-04 -1.01119229e-04
      -8.91184260e-04 1.33736161e-04 1.25763181e-04 1.32066617e-03
      -7.06825347e-04 6.80129800e-04 -5.19015477e-04 -2.87413190e-04
      -4.20308759e-04 -2.52331258e-04 -1.36620982e-03 -4.62008320e-04
      2.34585910e-04 7.17790506e-04 3.00658925e-04 -1.37678187e-04
      6.72121299e-04 5.17270237e-04 -8.46444891e-05 7.12984882e-04
      1.66952595e-05 9.84865837e-05 5.46913943e-04 7.40436590e-05
      -9.36609751e-04 -9.72287904e-04 -1.48990063e-03 6.14241057e-04
      -6.05215573e-05 -2.13094227e-05 4.37848503e-04 3.85337917e-05
      -1.11949150e-04 -4.65185702e-04 -4.84857534e-04 -7.96992481e-06
      -2.82384921e-04 -1.78196540e-04 1.01044890e-03 -1.88636682e-06
      6.74766954e-04 1.41431970e-04 -1.40585518e-03 -5.01847477e-04
      -2.34034189e-04 -9.56802687e-04 1.00831450e-04 -1.82092081e-05
      -8.94139012e-05 -6.87440624e-05 -6.10447842e-06 -1.30667868e-05
      2.48211320e-04 6.84445768e-05 -9.02447084e-07 8.81080268e-05
      -4.94220119e-04 9.14449221e-04 -5.94289450e-04 -7.99148693e-05
      4.13327565e-04 -2.74813530e-04 -3.14948964e-04 5.26299467e-04
      1.80824357e-03 -3.28998256e-04 -7.83027383e-04 -8.36763720e-05
      1.37110983e-04 -8.85905683e-05 9.54137300e-04 6.33577351e-04
      3.43605323e-04 3.55891563e-04 -1.59031153e-03 8.20897636e-04
      5.19461988e-04 -2.43727685e-04 6.24303415e-04 2.41655362e-05
      6.89833018e-04 -1.28007226e-03 7.48987659e-04 1.91145271e-04
      2.76676757e-04 -1.39778902e-04 -6.84050960e-04 -1.56041991e-04
      1.01356581e-03 -7.73613923e-04 -4.80475748e-04 2.57980020e-04
      -2.25313420e-06 -8.41299188e-05 -4.31068504e-04 -3.80309903e-05
      2.34418898e-04 6.80177414e-04 8.34716600e-04 1.71320480e-05
      5.47284028e-04 9.97751486e-05 9.09183174e-04 -4.27812010e-05
      -2.94117199e-04 -4.40418400e-04 -5.83341753e-04 -4.80007497e-04
      3.63683066e-04 -2.91622680e-04 -5.64935581e-05 -2.20266069e-04
      2.49941193e-04 1.14920188e-03 5.69660697e-05 -1.72956818e-04
      -1.16490708e-04 -5.71829842e-05 -8.26640280e-06 3.87433465e-05
      -5.41918445e-04 -2.38582536e-04 -1.00842351e-03 -7.50158724e-05
      3.31943680e-04 -9.45194275e-04 3.33356875e-04 -1.03312050e-04
      8.68483970e-04 4.17477539e-04 -3.30421826e-05 -1.05485681e-03
      -1.73469496e-04 7.29162362e-04 5.16357191e-04 -6.48695568e-04
      -4.80697694e-04 4.25687613e-04 1.10064331e-03 9.78155527e-04
      -3.56428820e-04 1.22381374e-04 -4.93240252e-04 1.78304705e-04
      -4.62818251e-04 1.14298356e-03 8.98654340e-04 -7.74516899e-04
      2.56847095e-04 3.54838499e-04 -2.22687217e-04 -2.41259477e-04
      6.43168751e-04 -1.15802977e-04 -1.16805558e-03 4.14653514e-05
      4.09007334e-05 3.89555971e-05 -4.01774189e-04 6.98186122e-05
      -3.34505719e-04 -3.73525138e-04 -1.93552609e-04 1.33693306e-04
      2.84130161e-04 -4.16434959e-05 6.11150521e-04 -1.28362677e-04
      -5.88758208e-04 -2.04921453e-04 7.54143228e-04 -9.93167516e-04
      -2.00981140e-05 6.23667205e-04 3.63891886e-04 9.82121037e-06
      1.55440775e-05 -5.89097326e-04 -2.15323482e-04 -2.41735703e-04
      -8.93860579e-06 -1.34682996e-04 -3.95159259e-06 1.33694528e-04
      -9.05416746e-05 -9.28846930e-07 1.44020480e-03 3.39654827e-04
      -5.60677028e-04 -7.37855502e-04 2.45862495e-04 3.96091113e-04
      4.23667021e-04 -9.76986019e-04 -1.05059170e-03 9.00769781e-04
      -4.92865802e-04 -6.84391358e-04 1.04043062e-03 9.54893949e-06
      9.14398639e-04 -1.60379545e-03 1.09710898e-04 -1.83821307e-04
      -7.75166729e-04 -7.00489109e-05 -7.23447767e-04 3.14376404e-04
      4.87076555e-04 1.10472098e-03 -1.73121598e-03 8.47410993e-04
      4.07539745e-04 2.42028487e-04 2.41895468e-04 -1.92661901e-06
      1.66253466e-03 -6.66730746e-04 2.37306213e-05 -1.52434470e-04
      2.46341544e-04 -1.97330388e-04 -7.73702850e-05 -2.11378167e-04
      1.96335212e-04 1.14306356e-04 1.01455697e-03 -5.22900897e-04
      -2.76984007e-04 -1.83189186e-04 -4.44670004e-04 5.68474970e-05
      -4.06989828e-04 -1.52468798e-04 3.67328554e-04 -5.19362402e-05
      2.12170286e-04 1.50216714e-04 -6.85117338e-05 -2.25054231e-04
      -5.18621586e-04 -1.91871091e-04 1.82826843e-04 6.40293583e-05
      4.02856313e-05 -1.10116271e-04 8.25782263e-05 -7.49254332e-06
      -2.33075698e-04 -7.55440560e-04 5.01951901e-04 -1.00490463e-03
      5.14797983e-04 -7.73465028e-04 -3.28007591e-04 2.64703995e-04
      1.74548186e-03 -5.04886499e-04 8.04571086e-04 -1.04729319e-03
      -3.24613793e-04 9.44357453e-06 5.19291498e-04 1.78084694e-04
      -1.66133716e-04 3.82323866e-04 1.62671285e-03 -3.52201198e-04
      8.93121352e-04 2.46943906e-03 1.91081726e-05 8.32907172e-05
      3.00335378e-05 2.32540231e-04 3.51459312e-04 -1.06504878e-04
      -4.27523482e-04 -3.47848632e-04 -1.17984752e-03 5.72802383e-04
      1.27547514e-03 -6.44201995e-04 -9.19120968e-04 1.23237414e-05
      -2.18915375e-04 3.33727803e-04 -2.47834541e-04 -2.52641970e-04
      -6.23924367e-04 3.22472712e-04 -1.11936743e-03 -1.84910474e-04
      -1.18408592e-04 -2.63178459e-04 5.55797305e-04 -2.04294629e-04
      9.16088989e-04 -5.81033761e-04 -7.80006405e-04 4.79209411e-04
      1.50162901e-04 -4.07682790e-04 4.75971574e-05 4.41514858e-04
      -2.77061685e-04 1.46692607e-03 -3.25565285e-04 -1.68032610e-04
      -1.45910280e-05 -7.75224471e-05 2.26149219e-04 -3.30814131e-04
      -1.75602487e-04 4.30276232e-05 -9.11955256e-04 2.83898462e-05
      2.70621793e-04 -1.26768730e-03 -4.95111570e-04 -8.24881135e-04
      -2.67117284e-04 1.08801166e-03 -1.32802082e-03 3.65801534e-04
      1.03378174e-04 -3.00220650e-04 7.13089830e-04 -4.53402521e-04
      8.50925222e-04 2.27835175e-04 5.11632243e-05 -7.39793992e-04
      2.50302081e-04 -1.90918497e-03 -3.07277078e-04 3.77724355e-04
      -9.29259870e-04 2.59846728e-03 -6.15937810e-04 7.97209286e-05
      2.49735807e-04 -4.04399412e-04 1.29111158e-03 4.81420808e-04
      -2.90235985e-05 -1.10899843e-03 -8.97347170e-04 2.03490981e-05
      -1.53901594e-04 8.62641973e-05 -4.28377418e-04 5.27757729e-05
      1.02912469e-04 9.89068649e-05 3.79516277e-04 -2.81708635e-04
      -5.36202337e-04 -8.18048211e-05 7.91686063e-04 -5.21392103e-05
      9.97505733e-04 1.02772517e-03 -5.99864579e-04 -2.21673239e-04
      -1.17613919e-04 1.66502094e-03 -3.98090197e-04 1.66616087e-06
      5.25967625e-04 4.88510879e-04 1.03052740e-03 1.78336355e-04
      1.10566332e-04 6.34134398e-04 -2.63018563e-04 -5.09310514e-04
      -1.46318009e-04 -1.66180282e-04 -8.54992250e-04 5.22721850e-04
      -1.42317431e-05 -8.13943698e-05 -9.56909789e-05 -4.30973567e-04
      3.45842622e-04 -6.64891850e-04 1.44635467e-03 -1.94835506e-04
      -4.52103792e-04 -4.36822942e-04 -1.87913456e-03 2.49334174e-04
      -5.00150258e-04 3.66376364e-04 6.88031956e-04 -1.44927762e-03
      9.56359261e-04 -1.06146117e-03 5.28619392e-04 1.79972718e-04
      -9.13534488e-04 1.16313784e-03 1.29782339e-03 2.13773783e-05
      -4.29173524e-05 4.05079591e-05 -3.05020396e-04 -1.77985756e-04
      1.99428629e-04 -1.01182389e-03 5.37256536e-04 7.27597508e-05
      -1.14550421e-04 4.76718211e-04 2.22630715e-05 0. 2.34303938e-04
      -1.35137409e-04 -1.49122754e-03 -3.41231702e-04 2.59176741e-04
      4.90816019e-05 7.41344003e-04 -2.66849354e-04 -7.84291362e-04
      4.24086320e-05 2.63646361e-04 -6.53552939e-04 -5.31522710e-05
      -7.04581384e-04 -1.07184278e-04 1.54710782e-04 5.08932164e-04
      6.21712592e-04 -3.79681296e-04 -1.04251536e-04 -3.02525677e-05
      6.24732114e-04 2.32413382e-04 -1.32505636e-04 -5.70964883e-04
      7.53702479e-05 -9.41685750e-04 2.16864282e-04 2.00899900e-04
      -1.69035760e-04 3.80226120e-04 1.93752217e-04 6.52707356e-04
      1.24171411e-03 9.85283623e-05 -5.67894487e-04 -1.34202157e-04
      8.16071988e-04 -1.42081000e-03 3.21370899e-04 -1.91235609e-04
      1.42075194e-04 1.16823858e-03 -3.48255970e-04 5.82353423e-05
      1.02714603e-06 -8.16677348e-05 -1.50802749e-04 -2.52310099e-04
      -4.39111900e-04 -8.30289209e-04 -7.06504652e-05 5.41577829e-05
      3.95737850e-04 -4.66480909e-04 -4.00826975e-04 7.92144623e-04
      -1.53685745e-04 -1.54120370e-03 2.79128901e-04 -1.95572138e-04
      -5.71031007e-04 -3.40993050e-04 -9.33428601e-05 -7.27799852e-05
      1.60019044e-04 1.74085400e-03 8.43838934e-05 8.12427752e-05
      1.96597786e-04 2.80357257e-04 2.69341108e-04 -5.71378390e-04
      3.17761704e-04 1.26421824e-03 9.00547311e-05 7.07313447e-05
      -1.84828707e-04 -6.14023593e-05 -4.19522548e-05 3.72386567e-05
      -3.21761821e-04 2.57427222e-04 4.86704172e-04 -1.58765557e-04
      -3.82930128e-04 1.68801111e-04 2.71302793e-04 8.94531477e-05
      -2.24034142e-04 2.34418883e-04 -5.14772255e-04 3.53889714e-04
      -8.27828830e-04 -1.13860631e-04 -6.71777434e-06 -9.31344519e-04
      7.67746998e-04 -4.22345212e-04 2.01434115e-04 -3.75214819e-04
      -2.52239581e-04 1.14867638e-03 4.13264759e-04 7.09729909e-04
      -1.04393845e-03 -3.36038560e-04 -6.39992068e-05 2.05098273e-04
      -1.30577188e-03 -6.43002786e-05 9.84685248e-05 -1.59601666e-04
      1.40620442e-03 3.98280012e-04 2.14347383e-04 4.93108178e-04
      -3.12976073e-04 -2.90303549e-04 2.05234828e-04 3.08992981e-04
      -3.77437071e-04 -3.74286792e-05 -4.19038202e-04 -7.36106449e-05
      -5.25797805e-05 9.92939313e-05 -3.44946493e-05 1.43895581e-04
      1.06980269e-05 -1.27435604e-03 1.95904722e-04 6.25635730e-05
      -1.48451873e-04 -1.29432010e-03 -2.23049574e-04 7.72104482e-04
      -6.23426982e-04 -7.79390568e-04 9.02692089e-04 5.55248562e-06
      -2.48537108e-04 1.44551304e-04 2.27063429e-04 1.75397014e-04
      6.90683810e-05 -7.79101265e-06 -1.20482851e-04 -4.08895630e-06
      2.63395323e-05 -2.66267132e-04 1.58553841e-04 -1.42252597e-04
      -6.73741917e-04 2.21995811e-04 8.80696811e-04 3.94307135e-04
      5.19363384e-04 6.40298007e-04 -1.27236606e-04 2.07551391e-04
      -5.52156416e-05 -1.20311149e-03 5.77645435e-04 -2.82021763e-04
      -1.00310805e-04 2.24838310e-04 1.78103473e-05 5.59603795e-04
      5.34109713e-04 5.85453701e-04 5.57477295e-04 -2.09640784e-04
      1.34180111e-04 -5.43207861e-04 7.55797199e-04 1.89291581e-03
      -7.40876887e-04 -6.51733135e-05 5.75694838e-04 -3.41269188e-04
      1.89538143e-04 -6.35468808e-04 1.50896285e-05 -1.71340536e-03
      -9.53824958e-04 -6.35801756e-04 -1.27677748e-04 4.58431314e-05
      9.09866867e-05 -4.54046502e-04 -1.10999754e-04 -5.61939123e-05
      -4.63926495e-04 -5.05962758e-04 2.26342876e-04 -2.20454371e-04
      3.50419985e-04 -1.64638041e-03 -3.00111773e-04 -4.19766264e-04
      6.93496084e-04 4.63729193e-05 1.03459891e-03 3.29549046e-04
      -9.87554900e-04 -8.38398482e-05 -1.86268098e-05 -4.40322212e-04
      3.05561407e-05 8.86548321e-07 -2.61091536e-05 6.32670635e-05
      -5.69213662e-05 -2.26161355e-04 -2.36539854e-04 -1.21705263e-04
      -2.21307026e-04 5.68795076e-05 1.18663185e-03 -3.04870453e-04
      1.70840081e-04 7.03523474e-05 5.26083808e-04 5.69882570e-04
      4.47621074e-04 6.02412911e-04 -3.98065786e-05 -3.62046907e-04
      3.05988040e-04 -3.51134862e-04 -3.62352264e-04 1.95185898e-03
      4.76470450e-04 2.47272372e-04 3.97898439e-05 -3.45000997e-04
      8.46147130e-04 3.03857989e-04 -4.08657972e-04 -8.33984290e-04
      -7.54126377e-05 -7.73959211e-04 -6.44980406e-04 3.87941182e-05
      2.42278125e-04 -1.41725270e-03 6.66112872e-04 6.25043584e-04
      7.93232466e-05 -4.05386236e-04 -1.36730669e-05 -2.83702218e-04
      1.41065029e-04 6.07374881e-04 -8.29955825e-05 -3.85504536e-04
      7.74626315e-05 1.36418571e-03 3.85873718e-04 7.23952835e-05
      8.49948119e-05 2.27815952e-04 -2.03034899e-04 -1.65551563e-03
      2.95003178e-04 -4.85045712e-05 -8.66046641e-04 -1.01462552e-04
      4.87998797e-04 -3.70054971e-04 -8.92219832e-05 4.30200103e-04
      9.21153187e-05 -2.06347890e-04 1.60360098e-04 -1.55886766e-04
      -4.93371335e-04 1.20751989e-04 -2.23239505e-04 4.30361746e-04
      1.70563304e-04 6.62302424e-04 -1.60538708e-03 2.24067684e-04
      9.79489414e-04 8.18320768e-05 1.34998088e-04 2.48902710e-04
      -8.75029480e-04 8.11442951e-05 1.00345432e-03 -1.40123069e-04
      -2.49845354e-04 1.69052146e-04 -6.04703557e-04 5.98460669e-04
      1.13743951e-03 -3.64496722e-04 9.05331224e-04 4.30445449e-04
      -2.51000747e-04 8.65263864e-04 3.76142889e-05 1.40193792e-04
      2.62284564e-04 1.67718754e-04 -3.44397558e-04 3.85619460e-05
      6.70600712e-05 -8.67779308e-05 7.81598210e-05 3.49367881e-04
      -5.82224049e-04 3.68253328e-04 2.71784374e-05 -7.88921534e-06
      6.74891853e-05 -6.21071027e-04 8.51530640e-05 3.18627950e-04
      1.87324564e-04 6.65969390e-04 4.02741454e-04 -2.32464241e-04
      1.60644588e-04 -2.20886339e-03 7.56467125e-05 -1.03852269e-03
      4.17168892e-04 3.71129863e-05 -1.12837052e-03 2.21459690e-04
      -1.72010565e-04 -2.78839376e-04 2.73287180e-04 -3.33793025e-04
      -1.62382727e-03 -1.55731104e-04 -1.92820473e-04 1.42900550e-04
      -4.70711166e-05 -1.22864192e-04 -1.16361909e-04 -1.60513315e-04
      4.12063528e-04 2.07583630e-03 -1.39064144e-03 -5.95454694e-05
      -9.13501193e-04 -2.03206626e-04 3.48865615e-05 4.89798374e-04
      1.35793816e-03 -6.38203521e-04 1.56006590e-03 5.03047158e-05
      -4.84174016e-05 2.34181434e-03 -9.65292915e-04 -1.35491102e-03
      5.27962402e-04 -2.01736647e-03 -1.43451427e-04 7.77862617e-04
      -6.48194691e-05 3.02164641e-04 -2.97968392e-04 -2.31692728e-04
      5.19511930e-04 7.03353027e-04 -1.89294471e-04 -1.80367657e-04
      2.41505055e-04 5.49580553e-04 3.92831367e-04 8.43313697e-04
      6.60028891e-04 -3.04733912e-05 -1.57694871e-04 2.03688578e-05
      1.52561886e-04 -3.16596357e-04 2.31586437e-05 5.21918992e-04
      2.38398599e-04 6.97441981e-04 -6.11673895e-05 -2.50110461e-04
      1.06646570e-04 -4.42168530e-04 -1.75413254e-04 1.95863089e-04
      -1.43122568e-03 2.31610902e-04 5.49342483e-04 -2.14224114e-04
      6.45176857e-04 6.35258184e-05 -3.48130969e-04 5.75092505e-04
      4.55484405e-04 -5.35132596e-04 1.34988179e-04 1.18002245e-05
      -3.79796184e-05 -2.71945610e-04 5.12959559e-05 -2.81200919e-04
      -1.16101139e-04 6.37821911e-04 -1.18413824e-03 -6.24353823e-04
      -4.31073713e-04 -2.70133110e-04 -2.55511695e-04 -1.60151409e-04
      1.33538432e-03 1.12633302e-03 -7.95537257e-04 -5.56275598e-04
      8.72732271e-05 -6.26267749e-04 -2.34696316e-04 2.27900906e-04
      -1.46876569e-04 1.15999684e-03 -5.96663100e-04 -5.67906827e-04
      -9.67249682e-04 -1.05371804e-03 3.53969052e-04 9.63984290e-04
      -5.18404238e-04 -8.06518772e-04 -5.43611066e-04 -1.83675525e-04
      -1.22334357e-04 -5.75993152e-04 1.12743117e-04 4.16506431e-04
      6.69517904e-05 4.14648064e-04 -4.17356787e-04 1.36418297e-04
      -1.34281827e-05 -3.31052928e-04 -1.78275513e-05 -8.93411379e-06
      -4.68823826e-04 2.86809256e-04 1.84488366e-04 1.51309869e-04
      1.80376592e-04 1.12777250e-03 1.78952454e-04 8.79915606e-04
      3.06067843e-04 5.69678203e-04 -9.94216767e-04 -1.62726617e-04
      1.63366960e-04 2.19499474e-04 1.69759660e-05 3.24671186e-04
      -3.10311007e-04 7.97754328e-04 -1.66646612e-04 -5.14085659e-05
      -3.44862638e-05 3.06479458e-04 3.74050171e-04 -1.61931268e-04
      -8.25020310e-04 4.58533148e-04 7.14369060e-04 -3.20269144e-04
      1.74034503e-04 -1.35998653e-05 1.01388941e-04 9.29742004e-04
      1.93242828e-04 -1.04823906e-03 -8.90743453e-04 -2.67451600e-04
      -6.33677875e-04 -6.75556774e-04 2.89935560e-04 5.53046761e-04
      6.42104540e-04 1.82306778e-03 -1.14459277e-03 -3.55664029e-04
      7.87404424e-05 -2.24457093e-04 1.49862142e-04 -8.66971852e-04
      4.39640389e-05 -4.27266466e-04 1.28128249e-05 3.52436327e-05
      4.26018902e-04 7.42174336e-04 1.80197836e-04 -2.57465399e-05
      -1.13144901e-03 -4.66063124e-04 -1.92989988e-04 -3.06390401e-04
      1.82099291e-04 -3.51955561e-04 -5.75752674e-05 5.97249775e-04
      2.85868136e-05 6.78118609e-04 -4.18364914e-04 -3.35974473e-04
      1.67926613e-04 9.44536587e-05 -2.46424723e-04 2.06891447e-03
      5.56018320e-04 -1.49087782e-03 8.84984038e-04 1.73010012e-05
      -1.69677299e-03 -1.71524312e-04 -2.91972378e-06 1.71240143e-04
      5.82963694e-04 -2.88511674e-05 -2.92550161e-04 -1.37995276e-05
      -9.26193534e-05 -1.82857329e-05 -2.20187751e-04 4.02643782e-04
      9.44766216e-04 1.08594762e-03 3.07395443e-04 -1.00589041e-05
      -9.08345566e-04 -4.49321902e-04 7.82358529e-06 -4.66222380e-04
      1.27711066e-03 -4.11509973e-04 1.09502836e-03 -3.68984271e-04
      -2.48623342e-04 5.30967140e-04 -3.90719128e-04 -6.52151066e-05
      -1.27434591e-03 -1.21732254e-03 -1.80525443e-04 1.54065230e-04
      -1.77590744e-04 -6.79950899e-05 9.41070903e-05 8.27430107e-04
      3.00355925e-04 -6.08060102e-04 -2.82543508e-04 3.08690302e-04
      1.00964542e-04 -3.33576580e-03 -2.51505349e-04 -8.49044649e-04
      2.28405537e-04 -8.49322125e-04 -3.32668824e-05 3.10663336e-06
      -3.14637320e-04 -3.88274551e-04 1.93868254e-05 4.07067651e-04
      -5.17945853e-04 -1.44636710e-04 2.97488907e-04 -2.93418125e-04
      -9.81949852e-05 7.11280329e-04 1.81291980e-04 8.70675722e-04
      -1.21678340e-05 6.72747265e-04 1.30208710e-03 6.73366303e-04
      1.02791775e-04 -3.86710599e-04 -8.70427830e-05 -1.81177777e-04
      1.41953817e-03 -3.70570022e-04 9.47020744e-05 -1.35341645e-04
      -1.80716361e-05 5.48952492e-04 -3.71273636e-04 2.32503749e-04
      -1.96395820e-04 -5.67542855e-04 -4.47932543e-04 1.70936291e-05
      1.84263231e-03 -3.57046723e-04 2.27967976e-04 -3.25382687e-04
      3.38504266e-04 1.60760188e-03 -4.50194813e-04 3.64078478e-05
      3.35755059e-04 3.26452391e-05 -5.26593125e-04 7.72699539e-04
      -7.18819327e-04 -1.67639239e-03 -1.63763133e-03 -5.71707205e-04
      -1.29651790e-03 7.98541703e-04 -5.94195490e-06 7.31436012e-04
      -5.82462962e-05 8.06831464e-04 -1.70246771e-04 -5.93868826e-05
      -1.32427231e-05 -4.02186095e-04 2.26259683e-04 1.00654236e-03
      -9.36926459e-04 2.15670225e-04 5.04110416e-04 6.00845902e-04
      -3.42367974e-04 -7.53272034e-05 2.12223384e-07 -7.41111347e-04
      8.68358620e-05 -9.23687359e-04 -5.37233602e-04 7.07220852e-06
      -1.81735901e-04 1.53581658e-03 2.64509668e-04 -3.35259945e-04
      -8.11184873e-05 -1.81105526e-04 6.51479757e-04 -1.00087500e-05
      5.30169695e-04 7.19792559e-04 -1.74189772e-05 -4.83296753e-04
      1.52487878e-03 2.19327791e-04 -8.72552919e-05 -1.21935718e-05
      -2.52396654e-04 3.07209441e-04 1.46268532e-04 7.18982075e-04
      -8.94614554e-04 7.37125578e-04 -6.65427360e-04 -2.74272956e-04
      6.95836206e-04 -9.59237877e-05 1.88303966e-05 -4.52145614e-04
      -1.46245711e-05 -5.83348854e-04 9.56005708e-04 -6.46561602e-05
      2.70207005e-04 -5.63755515e-04 8.24109651e-04 -4.08133579e-04
      1.93891515e-06 -1.00627134e-03 8.65755603e-04 4.37527284e-04
      1.73593056e-04 1.60266864e-04 -1.87015685e-04 1.36713882e-03
      -5.82273409e-04 -6.28807640e-04 4.96029796e-04 -8.85686677e-06
      1.06596977e-04 -1.28381408e-03 -1.83889730e-04 5.49651195e-05
      -8.71091092e-04 -4.66889003e-04 -2.08314217e-04 2.81359185e-04
      -4.07777465e-04 -1.00968828e-04 -8.06404860e-05 2.04322263e-04
      -1.79497336e-04 7.19908916e-04 9.41282779e-05 1.63055185e-04
      2.06837576e-04 3.50048154e-04 -2.67156902e-05 3.94462753e-04
      3.96836025e-04 1.02039718e-03 5.57794643e-04 -1.48420586e-04
      -8.89557996e-04 9.73178176e-05 2.47179560e-04 3.04885307e-05
      -6.90083136e-04 4.15530812e-05 3.22795240e-05 -8.95195917e-05
      2.66649440e-04 3.49756854e-04 -3.39889579e-04 -2.34160281e-04
      -2.26545075e-04 1.05012022e-03 -2.63820216e-03 -1.06490057e-04
      -2.61494541e-04 -3.93098453e-04 -8.97213104e-05 6.23499043e-04
      5.32500526e-05 5.83073299e-04 2.58621207e-04 -1.50832188e-04
      -2.69662967e-04 -1.40243705e-04 5.05873293e-04 3.57134122e-04
      3.42924730e-04 -1.92081556e-03 2.22122573e-04 1.06533128e-03
      2.11615828e-04 1.39138580e-03 1.43168218e-04 1.03978952e-03
      -2.82541965e-04 -4.08970780e-04 3.15071404e-04 8.65191469e-05
      -2.63840862e-04 -9.08857153e-04 1.60757350e-04 -1.81928262e-04
      3.86297324e-04 -2.98122410e-04 1.04655854e-04 3.23010259e-04
      -3.13911078e-05 -1.10517021e-05 3.72714203e-05 3.43965075e-04
      4.61664284e-04 1.18582160e-03 4.84007833e-05 4.31406806e-05
      3.33599346e-05 -1.22249464e-03 1.46721446e-04 -3.19495302e-04
      -4.43297671e-04 -1.26614282e-03 -2.39480752e-04 -5.49771758e-05
      -2.98946688e-04 -5.04446652e-05 -1.79541123e-04 5.02364768e-04
      -4.13267611e-04 -4.73193824e-04 3.85429972e-04 1.00287361e-04
      3.91675159e-04 -4.33648711e-05 2.23120602e-04 -8.11038306e-04
      -2.20655667e-04 -4.77305381e-04 1.22884009e-03 -1.96206718e-04
      7.26963435e-06 -9.39213714e-05 -2.17343651e-04 -3.94465722e-04
      1.25849922e-03 -1.23134756e-03 -1.35164463e-03 4.77858121e-04
      8.84308189e-04 2.04427182e-04 5.59031439e-04 2.86199851e-04
      4.67147001e-05 5.91981225e-04 -4.63332719e-04 -5.85940201e-04
      -1.99912116e-04 2.00481983e-04 7.05935508e-06 1.05310848e-03
      -1.61265512e-03 6.31584087e-04 8.30504796e-05 -3.06369504e-04
      2.49553472e-04 -3.67990084e-04 -4.19504941e-04 2.60518311e-04
      5.09630947e-04 4.27958759e-04 1.75861496e-04 2.54544750e-04
      8.11475911e-05 -8.09887424e-04 -4.08757660e-05 -2.12282175e-04
      5.68732503e-04 -1.63975681e-04 1.26666200e-04 3.13057244e-05
      -1.54996145e-04 -6.37832447e-04 -1.97283516e-04 -9.51918599e-04
      -1.34853995e-03 -7.46486126e-04 6.75808114e-04 3.24704160e-05
      -2.21563387e-04 5.27599885e-04 -4.32608322e-05 1.69331135e-04
      2.88628362e-04 6.29019924e-05 1.89305458e-04 -3.06281436e-05
      -1.40963617e-04 3.88474466e-04 6.88554574e-05 1.35492257e-04
      1.45039856e-04 -5.70710050e-04 -1.53005437e-03 -6.13099663e-04
      -3.68010020e-04 1.62550845e-04 -7.13920672e-05 3.50420363e-04
      1.15265918e-03 9.53419541e-04 3.04234389e-04 1.48629758e-03
      -9.74987983e-04 -1.68587110e-04 -7.37685041e-05 1.12636495e-04
      1.56749727e-03 -8.94522178e-04 1.00540393e-03 3.60705628e-04
      4.52163076e-04 -3.37248115e-04 5.47662057e-05 -6.44024578e-04
      -3.27217742e-04 -1.03277496e-04 -1.52377834e-04 -2.67783325e-04
      1.31093635e-04 4.70860396e-04 -7.07838990e-05 -1.77176888e-04
      1.29900093e-03 1.91633415e-04 -1.00279387e-04 5.56391547e-04
      -6.81283418e-05 -8.41775851e-04 -2.25299345e-06 3.85109655e-04
      -3.32142590e-05 -9.92040732e-04 5.06708631e-04 -1.64391022e-04
      -3.22905718e-04 3.89444613e-04 1.20811725e-04 -1.40815577e-03
      1.87582962e-04 -3.18821549e-04 -1.40981239e-04 -2.85283131e-05
      -1.52306317e-03 1.83176046e-04 4.46658203e-04 -1.35616239e-04
      1.06473442e-03 6.78390497e-04 -2.85555900e-04 2.03914533e-05
      -2.27223965e-04 4.30717482e-04 3.80381622e-04 -5.75296726e-05
      -4.19701275e-04 2.77327927e-04 -1.40964019e-03 3.98638454e-04
      -8.71447788e-04 5.24865522e-04 -4.08219239e-05 -2.44987546e-04
      -2.13205378e-04 4.17875242e-04 1.43841596e-03 -8.97258360e-06
      5.36035863e-04 5.86161623e-04 1.12931826e-03 2.60689791e-04
      -2.05180189e-03 1.33583439e-03 -1.08705403e-03 -8.81558866e-04
      6.36944489e-04 7.63927164e-05 -1.29322289e-04 -7.44911667e-05
      1.62468990e-04 9.11178722e-05 -2.43294606e-04 1.01709942e-04
      7.59828545e-05 -1.33326277e-03 -5.37218293e-04 -6.71242015e-04
      7.89686455e-04 -3.41240549e-04 -3.80406942e-04 -5.43600996e-04
      4.22842777e-06 3.78278346e-04 -4.06416402e-05 9.36013646e-04
      5.96776314e-04 6.05396017e-05 -1.84391145e-04 -6.54177848e-06
      -1.27006220e-04 1.47737656e-03 -4.07627900e-04 2.27098935e-03
      -6.78501790e-04 1.85182274e-04 -4.28064057e-04 3.88668210e-04
      -5.55281040e-05 -6.70179375e-04 -9.93833528e-05 5.17981302e-04
      -5.39305271e-04 -5.49813267e-04 6.30911745e-05 -6.25170724e-05
      1.40171702e-04 5.21978072e-04 3.73799528e-04 2.80718552e-04
      -9.01629624e-04 -4.71878127e-04 2.80958280e-04 5.79306972e-04
      -3.32249037e-04 -3.54272081e-04 -3.51951632e-04 -9.00709943e-04
      9.60789446e-04 5.32931415e-04 4.04920516e-04 5.71128439e-05
      -1.67415955e-03 -6.41751685e-04 -1.12301612e-03 1.01235718e-03
      1.52950373e-03 -3.71468515e-04 -4.07619285e-04 3.45681125e-04
      7.15225353e-04 1.53810682e-03 -1.94646054e-04 -1.59250238e-04
      -7.62046606e-04 1.62102690e-03 -2.14166357e-04 -3.66183609e-04
      -1.89377373e-04 1.32025874e-04 -4.44550329e-04 2.18349916e-04
      4.87674173e-04 8.83007888e-04 -4.42767050e-04 9.58097371e-05
      1.71007647e-04 3.53554089e-04 -3.25322944e-05 1.40657779e-04
      2.56185798e-04 -4.58594237e-04 3.19292129e-04 -1.81507476e-05
      2.43029499e-05 1.28511572e-03 3.03058856e-04 -8.59154388e-04
      -1.03217619e-03 6.89598208e-04 -2.13070773e-03 1.24193175e-04
      5.55697698e-05 3.59121274e-04 5.80244960e-05 8.71929980e-04
      8.71636090e-04 1.09324341e-04 4.65048761e-05 -5.88043222e-05
      -1.24557831e-04 -1.67609629e-04 -4.03304002e-05 -4.94521577e-04
      -6.71721064e-04 9.20912251e-04 1.60401512e-04 1.93589804e-05
      -4.09202941e-04 -4.95377695e-04 1.19251061e-04 2.70882971e-04
      -4.23157151e-04 -1.50147418e-03 -5.13388193e-04 -3.97575030e-04
      4.37786628e-04 3.94164643e-04 -4.45369960e-06 -1.49444200e-03
      4.81263472e-04 4.93428961e-04 -7.89232028e-04 4.47782280e-04
      3.83299659e-04 -1.07554032e-03 2.66764459e-04 1.79328909e-03
      9.19766549e-04 1.57512841e-03 1.33884514e-05 -1.40234799e-04
      -2.13496794e-04 -9.21701314e-04 -2.31540558e-04 1.33721321e-03
      -2.08618527e-04 -1.39320022e-04 1.26914922e-04 4.45527141e-04
      -9.08452421e-05 6.63831539e-04 -2.44652801e-05 -8.91749733e-05
      -1.25492850e-04 -1.22445158e-03 -5.22862392e-05 -1.00078476e-04
      2.43918883e-04 7.94794236e-04 -4.67294187e-04 -1.29921449e-04
      -8.26712931e-04 -8.20870628e-04 8.58681451e-04 -5.43516420e-04
      3.91389651e-04 -2.88680189e-06 -3.90030327e-05 1.91313098e-04
      -1.81013707e-03 9.70276742e-05 3.47675195e-05 3.80043275e-05
      1.54623990e-06 -2.13754523e-04 1.10791298e-05 -9.73396527e-05
      6.13730866e-04 9.55311931e-04 -5.52838974e-05 -3.08941002e-04
      -5.25727868e-04 -3.94928793e-04 -1.97417365e-04 -1.19978085e-06
      -2.54115468e-04 4.25668055e-04 -2.61228241e-04 -5.82451139e-05
      3.87138774e-04 -7.20517419e-04 -4.82626310e-05 9.83215432e-05
      -4.05245082e-04 -9.98864489e-05 -6.79375255e-04 8.10997793e-04
      -4.16146417e-04 -1.29994862e-06 2.80242268e-04 -7.55085144e-04
      2.15280990e-04 7.32540910e-04 -5.36866391e-05 9.66428779e-05
      1.30584704e-05 -5.55757142e-04 3.07795301e-04 -2.18694651e-04
      -8.85596790e-04 1.51650119e-03 1.41824185e-05 3.26083536e-04
      -1.65424033e-04 2.69687862e-05 -2.74860649e-05 7.94670996e-05
      -1.96503417e-04 4.27192164e-04 -7.09180080e-04 -1.21588855e-04
      -1.06884865e-04 -1.11118995e-03 5.15946303e-04 3.42592510e-04
      -4.83460375e-04 -3.81432037e-04 5.08821511e-04 1.81827985e-04
      -1.04281011e-04 -4.07186541e-04 3.69537593e-04 4.19290955e-05
      1.33149675e-04 4.76267160e-05 -1.34634553e-04 -5.99468440e-05
      1.32719317e-04 5.73333891e-05 7.39412826e-06 2.34995241e-04
      4.50209511e-04 9.76494848e-05 -1.66483468e-03 -3.43122345e-04
      9.64614504e-04 8.60778906e-04 -1.15682931e-04 1.78873393e-04
      -1.96636916e-04 9.95185183e-05 -1.27202715e-03 3.32114178e-05
      2.23480107e-04 2.83771747e-04 6.19616127e-04 2.27370329e-04
      -1.92890322e-04 -9.79248318e-04 1.80483948e-05 9.32213909e-04
      -7.71421837e-05 -2.84242909e-04 8.87276328e-05 -1.10435404e-03
      -3.62589344e-04 -1.43441232e-03 7.76062461e-06 3.85362073e-05
      -1.33820751e-04 4.89826838e-04 8.22854781e-05 1.19920056e-04
      -1.24944875e-03 6.58215082e-04 -1.54526220e-04 6.91066030e-04
      -3.80362580e-05 2.93257734e-04 9.57886641e-06 -2.25957279e-04
      1.80793111e-04 -4.26349055e-04 -9.26482098e-05 2.92459241e-04
      -2.88102251e-06 1.30227872e-03 -1.13969465e-04 3.18129227e-04
      1.15945571e-04 -1.33592589e-03 8.86958500e-04 -2.78590334e-04
      6.45163935e-04 -1.03950902e-06 -2.58283719e-04 -6.60044723e-04
      8.27834374e-05 -1.84711767e-04 1.42008779e-04 1.38091127e-04
      -1.22509271e-04 2.06095123e-04 2.57091451e-04 -3.06163565e-05
      -8.63283465e-04 -4.20838449e-04 2.09394214e-03 1.08953602e-04
      -1.21853198e-04 -8.94955010e-05 6.20186393e-06 -5.19939407e-04
      -8.92782526e-04 1.53457385e-03 -1.19541760e-03 8.32189035e-05
      1.75657493e-04 3.71649978e-04 6.03308494e-04 1.71233038e-03
      -1.03211391e-03 5.35692088e-04 5.81940636e-04 -4.59486007e-04
      3.57126119e-04 -9.16197168e-05 -2.33357554e-04 -5.24399220e-04
      5.18703077e-04 -6.85118663e-04 -6.06019494e-05 3.70609196e-04
      -2.56532716e-04 -6.10137067e-04 -6.17530759e-06 -1.35630311e-03
      -5.04357566e-04 1.43799218e-04 -2.02292998e-04 6.15045021e-04
      -1.63184654e-04 -3.15852492e-04 2.19176673e-05 -1.19856864e-04
      -1.42594858e-04 1.05040660e-03 3.03493842e-04 -1.19148361e-04
      -4.71576677e-05 3.68722016e-04 -4.23346100e-05 1.11562270e-03
      -6.52728602e-04 5.03878284e-04 5.01841481e-04 -2.34065999e-04
      -6.25996094e-04 5.34838655e-05 -2.65657320e-04 -4.01709374e-04
      5.54093218e-04 1.19366647e-04 -6.94319315e-05 -2.33140236e-04
      4.75658075e-04 -3.60439881e-04 5.00850554e-04 1.75226916e-04
      -2.49142540e-05 5.77476283e-04 6.83208782e-06 2.34458741e-04
      4.54137655e-04 -3.99164128e-04 4.15141585e-06 -9.06389323e-04
      -1.00111334e-04 1.50469178e-03 -9.13760232e-05 2.52003574e-05
      5.75681857e-04 -7.74668588e-04 2.43370407e-04 -9.95682669e-04
      -4.17490635e-04 1.60100564e-04 2.93633930e-04 -1.38694086e-04
      9.80718294e-04 -1.01007230e-03 -9.34978598e-05 7.25950289e-04
      5.84305031e-04 2.04693511e-04 5.54756145e-04 3.36338162e-05
      -2.02413910e-04 -6.33913325e-04 -1.24400831e-04 1.61614886e-03
      -5.21740003e-04 9.63486382e-04 -3.53918760e-04 -4.72459615e-05
      9.19419472e-05 -3.82721715e-04 2.81834400e-05 -6.70982117e-05
      1.11385831e-04 -7.24533980e-04 1.41093100e-04 -3.19720362e-04
      -1.72947606e-04 -1.53302890e-03 3.59292695e-04 1.20071077e-03
      7.80491915e-04 7.44864883e-05 -1.59260765e-06 1.00499674e-04
      1.78924587e-03 1.32110639e-04 -1.87213955e-04 -2.03901873e-04
      -3.31429706e-04 -1.53558540e-05 -1.30181088e-05 -2.52596710e-05
      -2.03608244e-04 -3.30367366e-05 2.52834307e-05 2.92227687e-05
      -2.94565689e-04 -1.11441442e-03 -2.43366440e-03 -3.77093034e-04
      -8.72006232e-04 1.72168129e-05 -1.56799419e-04 1.85938625e-04
      2.33171298e-03 -1.48821750e-03 3.19364080e-05 1.17132813e-05
      3.66056629e-05 1.18348165e-03 -2.20937218e-04 -6.80680911e-04
      1.98762660e-04 -1.01527199e-03 -3.42722778e-05 -1.46893179e-03
      -2.12977611e-04 1.73736727e-04 3.10826115e-04 -2.51847273e-03
      3.74945375e-04 -2.19435577e-04 -2.51082034e-04 3.03003850e-04
      1.61013479e-04 -3.05592461e-04 -2.02341995e-04 -5.72485005e-05
      2.12682018e-04 9.60448990e-04 -1.20961772e-07 -2.43450253e-04
      -2.46708107e-04 -2.91619683e-04 -7.77461100e-05 3.15512443e-04
      -8.90038427e-05 4.57591959e-04 -7.37628870e-05 1.32663787e-04
      3.67139546e-05 -5.65876486e-04 -1.78724527e-04 1.40923122e-03
      -1.26688730e-03 4.20579774e-04 2.10149083e-05 3.37584235e-04
      2.25446187e-04 -5.08762023e-05 3.30385548e-04 -2.47730728e-04
      2.54979241e-04 9.89413966e-05 8.36143299e-05 -8.40686189e-05
      -8.82803361e-05 1.55897549e-04 -4.22557923e-06 6.28950784e-06
      -2.13655236e-04 8.05589661e-04 -1.43038560e-04 -3.01909196e-04
      -1.61549298e-03 2.13690091e-05 -2.99964013e-04 -3.39306105e-04
      1.98175738e-04 2.03270596e-04 -4.44680009e-05 1.95742177e-04
      5.90833195e-04 1.38357386e-03 1.38957426e-03 6.16159057e-04
      5.65152557e-04 -4.31781256e-04 1.29725179e-03 -6.73182774e-04
      1.16404204e-03 5.07919118e-04 4.48437895e-05 1.71991228e-03
      -6.86534855e-04 -1.17169686e-04 7.66148150e-05 2.18992252e-04
      2.77976615e-05 6.96017014e-05 1.19275928e-05 -1.27713731e-03
      1.27802009e-03 -6.67779648e-04 -1.03209051e-04 -2.31320828e-05
      -2.42527909e-04 -5.19082823e-04 7.26550934e-05 -5.19106921e-04
      -1.46757608e-04 -8.45938805e-04 4.95183886e-05 -3.73076946e-05
      -1.17912263e-04 -3.74356809e-04 7.35851572e-05 5.66165952e-04
      -8.50544660e-04 -1.28924823e-03 -1.01962112e-04 3.59606551e-04
      1.27486966e-03 1.06369676e-04 -3.02305474e-04 5.60615270e-04
      4.26592305e-04 3.49521761e-05 2.96872575e-04 -1.00799743e-05
      3.25455505e-04 1.38871299e-04 -6.69587607e-05 1.22542522e-04
      2.86364724e-04 5.49129269e-04 -5.02387120e-04 7.79250040e-05
      9.52080241e-04 -1.90970037e-04 2.84569309e-04 4.96663197e-05
      -4.34996793e-04 -1.69744948e-03 -2.20202986e-04 2.35805725e-04
      4.66634927e-04 -1.13738084e-03 -8.99655788e-05 1.06423197e-03
      -1.11463328e-03 -1.63256098e-03 6.06744434e-04 -6.59703277e-04
      -3.18582497e-05 -2.36803608e-04 -2.86998275e-05 1.56851392e-03
      8.84022622e-04 1.44510414e-05 2.74624035e-04 3.36830068e-04
      7.61503761e-05 -2.32242441e-04 4.51535698e-06 2.91761593e-04
      -2.70701439e-05 -1.01210224e-03 2.92019948e-04 2.46677937e-05
      -1.32835921e-04 1.68188693e-04 1.17645141e-05 4.70752188e-04
      -8.44003880e-05 -5.59155189e-04 7.51245534e-05 -1.27580453e-04
      1.70928266e-04 1.62592938e-03 -2.72365141e-04 3.68696055e-04
      6.01629261e-04 3.80744546e-04 1.09951629e-03 1.68988627e-05
      -1.57444086e-03 -2.86885625e-04 -1.47100553e-04 5.35910076e-04
      -3.53669981e-04 7.22310797e-05 -2.30832709e-04 -7.89202477e-06
      -1.96559689e-04 5.21222421e-04 1.34842470e-04 -9.46929504e-05
      2.20330272e-04 -1.89991435e-04 -1.65150443e-03 -4.34244983e-04
      -1.23244908e-03 -4.24089740e-05 -3.02331522e-04 2.19886730e-04
      1.66124883e-04 -4.02782433e-04 7.08355452e-04 7.07703293e-05
      -3.37500504e-04 -1.56144059e-04 2.11185488e-05 6.59586629e-04
      -1.60431009e-05 -2.47476622e-03 -8.05179530e-04 2.86334456e-04
      -5.59151464e-04 8.86866765e-04 -5.26132644e-04 6.10135903e-04
      1.51070952e-03 -1.85683850e-04 3.93822673e-04 -1.69638472e-04
      1.49774696e-05 9.18456819e-04 3.78061901e-04 1.05037424e-03
      1.88883720e-03 -1.74939225e-03 1.52898574e-04 -7.20922617e-05
      -4.87536054e-05 2.41302798e-04 -3.27115340e-05 -1.44502017e-04
      -3.74135270e-04 -9.73570219e-04 -1.13055117e-04 -8.31131765e-05
      -1.88087797e-04 -8.63155001e-04 6.37539488e-05 1.86238391e-03
      -4.14548587e-04 4.06746229e-04 4.09133558e-04 -1.55667640e-05
      -6.76354539e-05 -8.56279876e-05 -5.15959342e-04 -4.82468167e-04
      8.86016933e-04 6.33973150e-06 1.12058378e-05 -1.31865309e-04
      -3.20672116e-04 -1.38173607e-04 -1.85795943e-04 4.75650559e-05
      -7.08070438e-05 1.17054558e-03 1.23171223e-04 -5.49731893e-04
      -1.33977085e-03 3.05340131e-04 2.26554243e-04 2.88257597e-05
      -8.46351788e-04 -3.58780642e-04 -5.37684646e-05 1.70418774e-04
      7.82370334e-05 -1.75487570e-04 1.45336916e-03 1.40684412e-03
      -1.87309738e-03 7.89900601e-04 -3.71383532e-04 -8.48102500e-04
      -8.38328793e-04 -1.58194656e-04 1.34794609e-04 8.24162678e-04
      1.16834301e-03 -9.90683293e-06 -7.50623585e-05 1.65353340e-04
      -2.98317118e-05 -8.67480063e-04 -8.90290685e-05 1.62510865e-03
      4.77396534e-04 -7.83949101e-04 1.48505336e-04 2.49347708e-04
      5.60105218e-05 -5.21471433e-04 2.21688588e-05 -4.02244623e-05
      -3.78319637e-05 -1.01258582e-03 2.77658866e-04 -1.51081535e-04
      2.98255443e-04 -1.50443532e-03 -6.47456734e-04 -1.73897110e-03
      7.45289086e-04 -3.99507699e-04 -4.37942217e-05 8.39381028e-05
      8.98644153e-04 -2.28619800e-04 -8.38099804e-05 -3.57735589e-05
      -5.93040546e-04 3.51483613e-05 1.37066876e-04 -6.14301462e-05
      -8.19155466e-05 1.09111927e-04 -4.04393359e-05 -2.15785898e-04
      1.06774119e-03 7.57724978e-04 3.76050011e-04 4.31951426e-04
      7.12173234e-04 -3.24501103e-04 9.94856600e-06 -7.46215112e-04
      1.09968030e-04 2.83527281e-03 -2.32238002e-04 -1.91005165e-04
      1.87657963e-04 -1.28847104e-03 -3.15823738e-04 1.16923067e-03
      -1.29622570e-03 -1.09601754e-03 -2.44618830e-04 1.32221857e-03
      5.69427721e-05 -6.66936336e-04 -6.95252966e-05 8.19313107e-04
      3.13767232e-04 7.10258668e-04 -7.11808461e-05 -9.16349600e-05
      -8.99924926e-05 -2.26431596e-03 2.47129705e-04 -2.48003693e-04
      1.97785324e-03 9.26283887e-04 -2.11502309e-04 -1.47229614e-04
      -1.03482664e-04 -3.35444289e-04 -1.56600159e-04 4.88315651e-04
      -2.20820493e-05 8.52600089e-04 3.89980385e-04 1.49361003e-04
      3.41028062e-04 -7.05871964e-04 -5.58469619e-04 7.92182691e-04
      3.00253683e-04 2.13546562e-04 -3.05525464e-04 1.76455593e-04
      -6.49338879e-04 -1.36784311e-05 2.99425563e-04 -7.31349355e-05
      6.95737777e-04 -1.43565267e-04 -1.26001338e-04 0. 1.06246473e-04
      -8.69977084e-05 4.57114511e-05 -1.69551509e-04 -1.42297213e-04
      -3.56778444e-04 -1.32926609e-04 1.78029892e-04 -1.66875345e-03
      -2.59319815e-04 2.58508138e-04 3.93802678e-04 1.63583012e-04
      3.32835887e-04 4.70869854e-04 -2.05993361e-04 -4.70444764e-04
      3.84531268e-05 2.73695012e-04 -5.40116045e-04 -9.07057896e-04
      1.21037208e-03 7.15473318e-04 5.68670148e-05 -8.17499997e-04
      -1.49274163e-03 4.33738642e-05 -8.59626598e-05 -8.40555178e-04
      1.36954489e-03 4.71628970e-04 -8.02079303e-05 -2.24914547e-04
      -1.03038189e-03 5.71683689e-04 -6.29738090e-04 1.39695301e-04
      -8.65832088e-04 1.03548366e-04 1.12517941e-04 -5.14097446e-05
      -1.49896223e-04 5.41520058e-06 1.78801463e-04 1.72261614e-04
      -7.54316454e-04 9.38523153e-05 -1.98700832e-06 2.23618161e-04
      -6.14175340e-04 1.18627431e-04 -1.07698038e-03 1.15489012e-04
      1.17689102e-04 -1.47934852e-03 -2.61178968e-04 3.13598168e-04
      -5.20768735e-05 1.50588312e-04 7.98112887e-04 -1.90312031e-03
      -3.24121327e-04 -1.40628108e-04 -7.08530160e-06 -6.84255647e-05
      3.14009550e-04 -2.89797226e-05 -6.74855983e-05 3.54029471e-04
      6.24233100e-04 5.74391684e-04 -4.88911232e-04 2.11195531e-03
      4.63529053e-04 -2.02456387e-04 2.07953504e-03 6.50402275e-04
      -1.35142822e-03 -1.40601594e-03 -1.07655476e-04 7.75618071e-04
      1.21600844e-03 9.00029554e-05 5.97762468e-04 -3.28719907e-04
      -2.14007660e-03 6.99006428e-04 5.12434228e-04 -1.64766668e-03
      1.07465358e-03 -2.24802789e-04 2.60406989e-03 7.02354824e-04
      6.98576914e-04 7.43910350e-05 -2.18313522e-04 -7.57884409e-05
      -1.75447064e-03 -3.04194720e-04 1.24575384e-03 -8.48255120e-04
      -1.97137182e-04 3.64324718e-04 -9.95540831e-05 4.03651648e-04
      5.78559630e-05 1.23706617e-04 4.53563000e-04 -4.11850604e-04
      1.03465107e-03 4.55705245e-04 -4.64201410e-04 1.99379592e-05
      -2.09590723e-03 6.82199061e-06 1.18207477e-03 1.82418560e-04
      4.95766697e-04 -1.37488139e-04 3.58650068e-05 5.00197988e-04
      2.31855374e-04 6.92280155e-05 -9.28712616e-05 -6.33789867e-04
      -1.19371485e-04 2.25591983e-04 -8.11103746e-05 -2.60722900e-05
      1.29491518e-05 -5.15284628e-05 -4.33094770e-04 4.57395305e-04
      9.20878840e-04 -1.27400632e-03 -1.49262982e-04 -1.43103313e-03
      -1.23470323e-04 -4.27897088e-04 3.43808555e-04 -1.57145760e-03
      -5.39415749e-04 -8.65735987e-04 3.65337997e-04 2.79342552e-04
      8.15406092e-04 -1.62747095e-03 1.79805560e-03 1.61966437e-03
      -1.81887229e-03 1.08242682e-04 -3.42120591e-04 -2.03587679e-05
      8.57400300e-04 1.71192325e-04 3.19921499e-04 3.34470213e-04
      3.52127652e-04 6.81578895e-05 -1.23540303e-04 -1.96291626e-06
      -4.89904545e-04 -5.39062952e-04 2.25689335e-04 3.69005196e-04
      7.93007435e-04 3.18385224e-04 3.51276208e-06 1.30643646e-04
      4.64650875e-05 -4.92762047e-05 -1.81152165e-04 -3.33843462e-04
      -5.88972936e-04 2.51091289e-04 -2.41108879e-04 1.85255085e-05
      4.93801257e-04 2.92224373e-04 2.49335286e-03 -5.11586491e-04
      7.08384778e-06 2.89831165e-04 1.32401983e-04 -1.51010032e-03
      2.82079302e-04 -2.22038052e-05 5.38849970e-04 -1.68395112e-03
      -2.49908306e-04 1.80805218e-04 3.47307177e-05 -2.67102820e-04
      -1.69879277e-05 -5.10161444e-05 3.43622232e-04 -6.35325632e-05
      4.71840089e-04 -1.18984061e-03 3.73677904e-04 -1.38885007e-04
      3.26152149e-05 -2.76809180e-04 5.00046648e-04 1.48164085e-03
      -6.23825006e-04 -5.50125726e-04 -5.35716254e-06 2.06240031e-04
      -1.07930251e-03 8.75937054e-04 7.57759262e-05 -5.03684103e-04
      -1.88271340e-03 4.24037804e-04 5.74822072e-04 7.64694763e-04
      -1.41516572e-03 1.99097762e-04 1.08938315e-03 -5.46101073e-04
      4.60444222e-04 -2.99234292e-04 1.28733751e-04 -5.29680459e-04
      3.95886927e-05 -3.28798575e-04 1.62375742e-04 8.73382032e-06
      -5.27296623e-04 -2.36658729e-04 2.07757505e-04 -4.26812825e-04
      -1.47817045e-04 -9.05985144e-05 -1.50893859e-04 -8.52823359e-05
      -1.02940528e-03 1.72534899e-04 -1.20765813e-04 2.14402789e-05
      -1.23896147e-03 -5.33690327e-04 7.03281665e-04 9.90592293e-04
      -1.16122467e-03 -2.58155284e-03 -1.17409390e-05 3.13765067e-03
      -1.18676595e-04 -8.22676870e-04 5.78995387e-04 1.92203315e-03
      4.37421375e-04 -3.24616471e-04 3.02618209e-05 -4.28185595e-04
      -2.03602001e-04 9.69466928e-05 1.75341469e-04 -7.65753910e-04
      2.51583348e-04 4.49525862e-04 4.81700699e-04 -1.36919552e-03
      8.11597711e-05 4.70529951e-04 1.18474057e-03 2.35139951e-03
      2.70849941e-05 -1.09510256e-04 -2.58677552e-04 -6.71585076e-05
      1.67357342e-04 -4.09444801e-05 1.57107424e-03 -1.50893268e-03
      -2.58823071e-04 8.32629681e-04 1.07853429e-03 2.34919527e-04
      1.50433858e-03 6.47118432e-05 6.03628519e-04 6.63087005e-04
      1.23073882e-03 -2.32799794e-04 3.39244696e-04 -9.59818426e-05
      -6.08489383e-04 -2.64835893e-04 1.04762893e-03 -6.21033134e-04
      4.36720962e-04 -5.45225048e-04 3.57983168e-04 2.42857059e-04
      5.55722450e-04 -5.86412934e-05 6.52634131e-04 -1.99393635e-05
      -7.03412166e-04 2.08100173e-04 2.96939368e-04 1.61923803e-04
      -1.20690081e-03 -1.73991924e-04 -2.12616310e-03 -4.97369212e-04
      -6.22883905e-04 -2.88652163e-03 5.25203650e-05 -1.55254721e-03
      -4.44324360e-05 5.20820031e-04 4.93152183e-04 6.53290714e-04
      1.28202810e-04 -1.25857361e-04 -8.32355145e-05 -1.48765015e-04
      -3.32866417e-04 -1.95280125e-04 -6.31535586e-05 -1.30569784e-03
      -9.25956469e-04 4.39193100e-04 4.05183295e-04 -1.05280837e-03
      7.14733964e-04 2.70866556e-04 8.47344170e-04 -9.07503345e-05
      -2.25300144e-04 -5.81878063e-04 -1.89998857e-04 -7.32923800e-04
      1.25275948e-03 -3.35644872e-05 2.28697248e-03 3.06453439e-05
      -9.94481146e-04 -1.54985045e-03 5.98432845e-04 6.33424381e-04
      4.55959700e-04 7.73967331e-05 1.68427045e-03 1.48966225e-04
      1.82439762e-04 2.78152846e-04 1.20080418e-04 -2.68678941e-05
      2.46124109e-04 -9.68031163e-05 -4.14188951e-04 -3.70085327e-04
      -3.43291846e-04 -3.48497881e-04 3.07116687e-04 -7.76278321e-05
      1.07084285e-03 -5.31562910e-05 3.41371167e-04 2.96020560e-04
      1.03609858e-03 -4.47941537e-04 2.17366105e-04 -3.70483642e-04
      6.54859701e-04 2.41221496e-05 3.83219303e-04 4.07113461e-04
      -2.17958179e-04 1.19895209e-03 -4.49339917e-04 -2.11064634e-03
      -3.49478505e-04 1.32341826e-04 -3.60041508e-04 -1.54445961e-03
      9.20565872e-05 1.41018900e-04 -3.04385576e-05 4.00264165e-04
      4.09758795e-04 -1.16382675e-04 3.22747626e-04 3.02674162e-04
      8.25186435e-04 -2.27040169e-03 1.11490219e-04 -2.21809154e-04
      8.77760060e-04 -4.36281989e-04 2.94017460e-04 1.29290961e-03
      3.36206431e-04 -1.17191696e-03 1.71176362e-04 -3.09069612e-04
      -1.96201121e-03 2.61997659e-04 -4.39698255e-04 7.49273691e-04
      -5.35645115e-04 4.35635244e-04 -1.00834854e-03 -9.09672235e-04
      -3.57228360e-04 -1.26888175e-04 5.28214034e-04 2.81981193e-04
      -1.23927210e-04 -1.23168953e-04 1.12892369e-04 1.30173168e-04
      6.00823958e-04 -1.10170702e-04 -2.97768362e-04 8.39671004e-04
      1.09720298e-04 -2.29371566e-04 3.86584492e-04 5.53471560e-04
      7.83785508e-05 -1.75468322e-05 -9.90092813e-05 2.03248390e-04
      -6.64414954e-04 1.74021523e-04 3.32047231e-04 -4.48817824e-04
      1.31624041e-03 -2.52241967e-04 2.31761066e-03 2.74251128e-04
      -1.50483858e-04 -1.26856045e-04 -2.79317610e-04 -7.03533820e-04
      2.07513862e-04 3.27806134e-04 6.52907300e-04 -2.32072198e-04
      -6.85718085e-04 -5.24063129e-04 1.05575389e-04 -5.65658032e-04
      -5.26853501e-06 -3.10844007e-05 3.69362897e-05 4.72651242e-04
      -8.77419778e-04 -8.40330904e-05 1.76915928e-04 1.65528225e-04
      1.47712044e-05 5.49532378e-05 7.77709356e-04 -1.08025176e-03
      -2.29350379e-04 -5.11764840e-04 -3.75409058e-04 -2.85697781e-04
      1.13365662e-04 5.72052726e-04 -1.02004048e-03 7.18591094e-04
      1.05503539e-03 -8.18996807e-04 -9.77487070e-05 -1.94099336e-03
      9.04088374e-04 -1.61385819e-04 9.48752422e-05 -2.48572702e-04
      -2.89371237e-04 3.73907707e-04 -1.79596191e-05 4.97806119e-04
      3.36770056e-04 1.72896252e-04 -9.21514700e-04 -4.38835938e-04
      2.67450785e-04 -1.59171715e-04 -9.79229808e-05 5.91845950e-04
      7.88224352e-05 1.07206888e-05 -3.14860517e-04 -2.68049498e-05
      -2.07125850e-04 1.25703926e-04 3.58068210e-04 -1.63601944e-04
      2.16318201e-03 1.95526038e-04 -1.25310209e-03 4.86241188e-04
      -5.74947393e-04 -2.40779738e-03 -7.78219983e-05 -1.38643954e-03
      -1.30928762e-04 -5.53482212e-04 2.03308315e-04 -1.74515625e-03
      -2.94613914e-04 2.05888093e-04 -1.28072918e-06 -5.23747527e-04
      2.10417857e-04 -1.99752641e-04 1.73289838e-04 -8.55273029e-05
      1.45754928e-03 3.77238379e-04 -3.27795569e-04 1.15339732e-04
      3.19701940e-05 3.98933335e-05 2.72639183e-04 4.20975557e-05
      -7.45157304e-04 1.20037887e-03 2.99890205e-04 -6.31011731e-04
      -1.42518751e-04 9.64799081e-04 1.28984882e-03 2.38845916e-03
      3.85556574e-04 -6.58272125e-04 -1.03638507e-03 9.22548934e-04
      -4.91713217e-05 -3.42141684e-05 2.01780116e-03 -1.81947637e-03
      6.95690687e-05 2.35946543e-04 -1.99201371e-04 -1.60768439e-04
      2.99163425e-04 5.64768561e-04 1.33905513e-03 -1.36726734e-03
      -4.06617008e-04 2.52464146e-04 -1.03903927e-04 2.73259036e-04
      7.85873490e-05 -6.30513023e-05 2.48810902e-05 -2.12075232e-04
      -3.04812827e-04 1.93258646e-04 1.93935019e-04 2.32105391e-04
      1.24046608e-04 1.31670211e-04 3.38812824e-04 9.57135635e-04
      4.05025290e-04 -8.31858022e-04 1.38244883e-04 -1.00723223e-03
      -2.33506871e-05 -4.21114419e-05 -2.10699844e-04 1.44429447e-03
      -3.09090741e-04 2.76062510e-05 -1.14393275e-04 -3.81562859e-04
      -4.31546126e-04 1.45299724e-04 2.28530756e-04 -2.43398754e-05
      8.94315963e-05 -2.34743254e-03 7.35791633e-04 -3.35982884e-04
      -1.79636132e-04 -1.26579369e-04 -4.51102358e-04 -1.03945304e-05
      -1.56779060e-04 -2.92632667e-05 1.51265567e-05 2.59494918e-05
      7.40295451e-04 7.20864628e-05 -1.05939724e-03 1.78572128e-03
      3.05880350e-03 3.81187157e-04 -7.34168862e-04 -2.50222627e-03
      7.74525834e-05 -1.10109040e-05 -1.12693320e-04 -2.43837043e-04
      8.76207050e-05 1.99176327e-04 1.28725718e-04 -2.16051936e-04
      -1.82048767e-03 2.08428624e-04 5.65481489e-04 3.82858452e-05
      2.05464705e-04 -8.97934478e-06 -1.41258017e-04 1.23127538e-04
      2.70836521e-04 -7.35512867e-06 1.35715280e-04 -2.54760416e-05
      7.77595487e-05 5.00699462e-05 -9.60256148e-06 -1.75942812e-04
      -7.56384034e-05 -5.32725069e-04 -5.99323947e-04 2.13120147e-04
      -6.64240157e-04 -1.21196295e-04 -4.42018820e-04 3.49874608e-05
      -3.50776507e-04 -3.22206615e-04 -5.69086289e-04 1.27429445e-03
      -4.33176348e-04 8.73901081e-05 7.06198916e-05 2.49362201e-04
      -1.13606700e-04 2.02769530e-04 -9.99700114e-06 -2.19944355e-04
      -6.30823895e-04 -3.20178187e-05 5.29259501e-04 7.88828242e-04
      3.79046163e-04 -4.79086775e-05 1.15325244e-03 1.75867393e-03
      -6.38201484e-04 -2.06376993e-04 -1.87998856e-04 -1.22282479e-03
      3.30249663e-04 1.13354006e-03 -6.54733856e-04 2.70383549e-04
      3.13640077e-04 -9.21299274e-04 1.29972282e-03 -9.53971641e-04
      -3.36001482e-04 5.34055289e-04 6.11138879e-04 4.67084668e-04
      7.01825309e-04 4.67402511e-04 -5.67614683e-04 -2.78652093e-04
      2.35862564e-04 3.57101555e-04 5.81725850e-04 1.22191105e-03
      9.79590346e-04 -2.82622204e-04 -3.66255001e-04 1.30057248e-04
      -2.57368229e-04 -8.17055206e-06 4.03325772e-04 -2.27965240e-04
      5.91750490e-04 1.86842823e-04 3.24794848e-04 -7.13804548e-05
      -2.93277507e-03 -2.61162553e-04 -3.67435219e-04 -1.58238545e-04
      -7.73861480e-04 3.28993279e-04 -7.55832298e-05 2.29191020e-04
      3.77567980e-04 1.73032735e-04 -3.26043046e-05 -1.41631893e-03
      1.28555621e-04 -6.48193818e-05 -9.81670091e-05 -9.87547755e-05
      -6.33836535e-05 1.69319101e-04 -3.65256477e-04 -7.35721318e-04
      -3.97905940e-04 -5.48544747e-04 1.23646896e-04 1.74355076e-03
      5.81214845e-05 -1.20614059e-04 -4.24444705e-04 1.87335303e-04
      4.73909196e-04 -5.47499629e-04 -1.98107591e-04 -1.05691736e-03
      1.14840770e-03 1.64662852e-04 1.46205974e-04 1.49084532e-04
      -1.16012699e-03 1.32551137e-03 -1.20007631e-03 -1.27502927e-03
      -4.53240646e-04 1.81448602e-04 1.10441695e-04 -1.24287128e-03
      -7.33092078e-04 1.52289926e-04 1.17233896e-03 -4.02269507e-04
      1.01367512e-03 1.08095432e-04 -9.73310205e-04 -2.37958011e-04
      4.61367657e-04 3.77883582e-04 1.76721922e-04 8.28398188e-05
      -1.24927377e-04 -9.55721134e-06 1.96945948e-05 4.39497708e-05
      -8.18463377e-05 2.76549836e-04 -3.26869864e-04 1.96000401e-04
      1.29518658e-03 -1.04905157e-04 6.91949856e-04 -3.49577778e-04
      3.89192748e-04 1.39453472e-03 1.44150617e-04 -9.87247680e-04
      -1.30368528e-04 -2.38655011e-05 -2.41921269e-04 -6.66930864e-04
      -1.25048799e-04 2.30913196e-04 6.53798343e-05 6.96670686e-05
      -2.10262151e-05 -1.88812177e-04 1.71833017e-04 2.70986959e-04
      3.44270520e-04 2.16929257e-04 -3.79615776e-05 1.01970078e-03
      9.17961006e-04 -4.48896579e-04 -1.73386070e-04 -1.48111823e-04
      -1.28180115e-03 -6.03919150e-04 -2.67973606e-04 -7.51553336e-04
      1.31680095e-03 1.81000851e-05 4.40804070e-05 4.74035915e-04
      -4.36197937e-04 2.53039500e-04 7.89711135e-04 1.86071877e-04
      2.49624456e-04 2.99815467e-04 -4.41605167e-04 -9.08341142e-04
      -9.27849498e-04 1.90067673e-04 3.49245820e-04 -1.17179021e-04
      -1.86124656e-04 -2.02867377e-04 1.63688976e-03 -4.15442657e-04
      8.30393285e-04 6.92836184e-04 -1.48315768e-04 2.50297628e-04
      -3.46033543e-04 -1.48467443e-04 -8.52039084e-04 3.21434345e-04
      -5.65121882e-05 -1.60875672e-04 9.70164765e-05 1.53899528e-04
      2.91312375e-04 -6.63574392e-05 1.26505166e-03 -1.04873802e-03
      -1.45052222e-03 1.95079338e-04 7.69848120e-05 -7.66628073e-04
      3.59168305e-04 2.91200355e-04 -2.07622041e-04 -6.02030603e-04
      3.85332183e-04 -6.41834689e-04 -3.48374633e-05 4.63970675e-04
      -3.14366363e-04 -3.44683067e-05 -3.33326490e-04 3.89036024e-04
      5.74532722e-04 -1.40787777e-03 -5.58966480e-04 -1.61213498e-03
      2.30418314e-04 1.75618174e-04 1.18311250e-03 1.22083735e-03
      6.28611364e-04 3.69087575e-05 -1.92614552e-05 5.37510146e-04
      -6.11393363e-04 -4.45435697e-04 1.36970624e-03 -4.71081818e-04
      7.61980016e-04 -5.04859956e-04 -5.27776356e-05 -1.44076577e-04
      8.84960114e-04 -1.28510917e-04 2.73600279e-04 -1.77138054e-03
      -7.43017372e-05 -4.99096874e-04 -8.68270363e-05 2.11341132e-04
      1.03019585e-03 5.54341008e-04 -1.23833641e-04 -4.13644360e-04
      5.63599111e-04 -2.79865412e-06 -2.18400237e-06 6.11559153e-05
      2.27080236e-04 -4.03593458e-06 3.70247551e-04 1.68415245e-05
      1.18740520e-03 -3.11672629e-05 1.98773312e-04 2.60826691e-05
      -3.61364888e-04 -2.84081296e-04 1.38596096e-03 5.88869560e-04
      1.24047755e-03 -1.93165056e-03 3.96134768e-04 -1.03445735e-03
      -5.65492199e-04 7.27831502e-05 -2.27881799e-04 -1.67646282e-03
      -1.68454993e-04 4.54024994e-04 -3.62774153e-05 2.76117171e-05
      3.17714497e-04 7.37342561e-05 4.15244809e-04 -8.30450619e-04
      -5.56693296e-04 -1.13784429e-03 2.17803841e-04 -1.45547919e-03
      5.00277209e-04 -3.46233428e-04 5.59591805e-04 -3.79833073e-04
      -5.24510746e-04 5.10167389e-04 -1.26646046e-04 7.97850953e-04
      7.16735492e-04 -3.02478235e-04 6.00210391e-04 5.42990048e-04
      1.59535988e-03 -9.15780955e-04 1.24868134e-03 -9.32367344e-04
      6.93613547e-04 -1.07711476e-05 -1.71160256e-03 -4.27185063e-04
      2.80978711e-04 -3.89748981e-04 1.43707017e-04 4.78151342e-05
      6.38571655e-05 -2.29157318e-04 6.19005470e-04 -9.61803016e-04
      3.75872507e-04 3.46764973e-05 3.34300566e-04 -1.58142328e-04
      4.25283688e-05 2.35056814e-05 -8.63563328e-05 4.59300471e-04
      1.04677922e-03 -1.59730058e-04 2.21915558e-04 -3.62592946e-05
      2.34946446e-03 5.99129125e-05 -3.22531239e-04 3.13080207e-04
      2.67136842e-04 -1.95188832e-03 6.92647591e-04 -2.42405222e-03
      1.87717698e-04 2.56720319e-04 -2.25382741e-04 -2.22727977e-04
      -2.66180054e-04 1.97547270e-04 3.32545205e-05 3.28957482e-04
      -1.88604929e-04 3.75346281e-04 6.32154057e-04 -3.48828617e-04
      -2.52746959e-05 -2.24710195e-04 -6.78827419e-05 -2.03752588e-03
      -8.39783897e-05 -5.28296587e-05 6.66820197e-05 -4.52123728e-04
      1.94565195e-03 -9.12302057e-04 -1.25186598e-05 1.97967849e-04
      -7.50996638e-04 1.28920088e-04 4.07537795e-04 9.16646270e-04
      2.17735558e-03 2.24898779e-03 -8.07344099e-04 1.16474705e-03
      2.21033988e-05 3.26673107e-05 1.63132980e-04 -3.06750328e-04
      4.82248521e-04 7.22681216e-05 1.89911952e-04 1.26726209e-05
      -2.10240902e-03 2.68674252e-04 4.13181493e-04 -2.89645931e-03
      -2.48379229e-06 2.59962893e-04 -1.33923255e-04 2.19046342e-04
      2.64215923e-04 2.59205372e-05 -3.93302500e-04 -8.37909320e-05
      6.03710127e-04 -2.99969397e-04 -3.48662608e-04 1.79696581e-04
      1.28776801e-03 1.57894610e-04 4.24503523e-05 3.50945455e-04
      -6.47060806e-04 -1.73749024e-04 -3.35629651e-04 -2.56908732e-03
      1.21023011e-04 1.58437033e-04 2.69712240e-04 9.29038448e-04
      3.44402564e-04 -2.65420036e-04 7.24358251e-05 6.67726490e-05
      2.21280119e-04 1.61368462e-05 6.12698961e-04 7.38252944e-04
      1.00092753e-03 -2.70288158e-03 -1.94091539e-04 4.86574845e-06
      -1.13036804e-04 8.76437756e-04 1.20668358e-03 5.91913762e-04
      -4.74425848e-04 -3.75304744e-03 -4.20298136e-04 1.43422527e-04
      5.68740652e-05 4.12557652e-04 9.59542987e-04 -4.19154763e-04
      8.06797994e-04 6.44467538e-04 -1.20685028e-03 -1.98362838e-03
      -3.92077025e-04 -1.33265974e-04 1.29703572e-03 6.65368454e-04
      -1.93160784e-04 3.66664644e-05 -3.64085485e-04 -9.16266436e-05
      5.55694918e-04 -3.67357788e-05 1.24140686e-04 -2.35701140e-04
      6.75204428e-05 -1.84669276e-04 1.03634789e-04 3.63043917e-04
      -5.79344691e-04 -6.37579869e-05 -1.61742137e-04 1.44944686e-04
      8.04411247e-04 -4.63351789e-05 1.61632997e-04 -2.32498751e-05
      3.24447843e-04 3.93987939e-05 1.92025665e-03 6.79256162e-04
      1.25005015e-03 -7.81101873e-04 -2.71918863e-04 -8.95907113e-04
      3.51446739e-04 1.89049533e-05 -2.01160292e-04 -4.45607846e-04
      -5.23561495e-04 -3.11083335e-04 6.43067397e-05 4.38907518e-05
      3.57359211e-04 -1.08018699e-04 6.44867367e-04 2.48072756e-04
      -1.67625304e-03 -1.85030431e-03 3.17248516e-04 -4.77392779e-04
      -2.94325553e-04 1.70703715e-04 -1.46190805e-05 4.62381693e-04
      -5.56621875e-04 -1.28275587e-03 2.87354138e-04 9.22124076e-04
      4.94807377e-04 -5.23406314e-04 -2.47706485e-05 1.56280224e-03
      -3.42197891e-04 1.70362564e-05 1.04922499e-03 -2.20303168e-03
      -1.29951385e-03 -1.35905691e-04 -2.64219218e-03 -3.40254337e-04
      1.60210463e-03 -9.49938549e-05 -8.11286445e-05 1.04889426e-04
      -2.16851367e-05 -1.85852958e-04 -2.16264790e-03 -1.74377346e-03
      3.36312223e-04 3.60838894e-05 -5.95545062e-05 -5.88391558e-05
      -5.39485191e-05 -2.58713226e-05 -2.38747118e-04 6.01535030e-05
      5.31683385e-04 7.73503587e-07 -7.19785457e-05 -8.54655991e-06
      2.97228689e-03 5.13223524e-04 1.72948756e-04 -1.05607300e-03
      -2.06234356e-04 6.55190233e-05 1.95098488e-04 -1.73697795e-03
      3.86963773e-04 2.57536129e-04 -3.00444342e-04 3.78465396e-04
      -1.66055892e-04 1.57174873e-04 -1.90556639e-05 -7.19575328e-05
      3.76167969e-04 1.72755797e-04 -8.49826683e-05 7.38557486e-04
      7.51785177e-04 -2.22843839e-04 -9.70357651e-05 5.31075115e-04
      -2.07233927e-04 -4.25932558e-05 3.21371102e-04 6.36051118e-04
      2.07614197e-04 -1.62282231e-04 5.88788498e-05 4.74731554e-04
      1.14341755e-03 7.99250774e-05 1.75409863e-04 1.63921400e-03
      -2.25164625e-03 -5.49753429e-04 -2.75151426e-04 -1.04571343e-03
      -3.98968114e-04 -3.41652427e-04 -5.95848600e-04 -4.48844658e-04
      5.50936442e-04 -1.29700406e-04 6.32493538e-05 -8.78864594e-05
      4.33247653e-04 -4.46272425e-05 9.58092351e-05 -2.37416156e-04
      -9.75398216e-05 2.53992825e-04 -1.80089351e-04 -2.60793877e-05
      -7.72105159e-06 -8.17610362e-06 -4.09587301e-05 -3.31312476e-04
      2.01244792e-03 3.79671168e-04 -1.46186969e-04 -1.51167305e-05
      -2.23398954e-03 1.20111050e-04 1.64224335e-03 6.78666867e-04
      2.66068091e-04 2.37561835e-04 -4.52896347e-05 -1.25078054e-03
      3.54930147e-04 -4.58861818e-04 -6.61300801e-05 5.69254509e-04
      1.28327621e-04 -3.66554741e-04 3.89889738e-06 3.97122989e-04
      2.24346149e-05 2.03061107e-04 -1.11583822e-05 -1.38363009e-03
      3.65128537e-04 -6.37522258e-04 -5.87643881e-04 -6.64511696e-04
      6.08788978e-04 -1.70758634e-04 5.54308179e-04 1.96602370e-04
      4.79424896e-04 -1.25119661e-03 1.00540878e-04 1.11557667e-04
      2.69684242e-03 2.30092730e-04 1.53783720e-03 1.09425781e-03
      2.09125550e-03 7.66333425e-04 -1.39644265e-03 -1.52246782e-03
      -8.84674897e-04 -6.74341718e-05 -1.41989754e-03 -1.50836678e-03
      6.08371571e-04 3.83811974e-04 -2.56359228e-04 -1.06135914e-04
      9.22632345e-04 4.45115002e-05 -2.51359976e-04 -1.48201361e-03
      -1.17915671e-03 -2.20077054e-04 3.63786858e-05 2.30286212e-04
      -1.27502171e-05 -1.18407106e-05 4.41499251e-05 3.61334067e-04
      -1.19749294e-03 -2.61510431e-04 6.47233392e-04 1.21889374e-04
      9.90529734e-05 5.12940809e-04 5.12683357e-04 -3.47991765e-04
      -3.84844287e-04 6.08914706e-04 3.76142416e-05 -1.08526892e-03
      -1.57477640e-04 -2.47053977e-04 5.84728259e-04 1.57249568e-03
      -1.24779515e-04 3.63556355e-05 -1.56237256e-05 9.76281372e-05
      -1.10008361e-04 7.81817871e-05 -5.04096854e-04 8.26075382e-04
      3.45470646e-04 -1.25555822e-03 -2.00251641e-04 -2.65676266e-04
      4.30912361e-04 1.12117741e-04 5.38977678e-04 1.52200658e-03
      -1.32128378e-04 -1.45455380e-03 1.27190171e-04 1.05546438e-03
      9.38067504e-04 2.64381379e-05 4.61512391e-04 1.28027762e-03
      7.01759011e-04 2.21462440e-04 3.60386650e-04 5.96265949e-04
      4.09809552e-04 -6.25628862e-04 -2.20214645e-03 -1.00625318e-03
      -3.97358526e-04 4.64814628e-04 8.35849642e-05 -7.34126661e-05
      -2.36386273e-04 1.14340022e-04 -1.33803848e-03 9.63802682e-04
      5.85190719e-04 2.19860958e-04 -5.51942539e-05 -2.35487474e-04
      -2.84392183e-04 -6.13374068e-05 1.80449788e-04 -5.13386505e-04
      6.78656972e-04 -4.66378333e-05 2.25525800e-05 2.95074657e-04
      2.52642622e-03 9.71198970e-05 1.57456507e-03 -2.88234878e-04
      -1.46728742e-03 -1.36992626e-03 -1.88831458e-04 -1.55535620e-03
      5.11337203e-05 -9.36035722e-05 1.39999727e-04 1.73204928e-03
      9.02479405e-06 2.21447001e-04 -7.34612840e-05 -7.46533842e-05
      7.54048888e-05 6.49210560e-05 -3.02380067e-04 7.15565257e-05
      -8.92454525e-04 -2.27525857e-06 4.81918978e-05 -1.09595840e-03
      1.50474219e-03 -1.92617910e-04 3.71271250e-04 7.54219422e-04
      3.97231670e-05 8.28403980e-04 -1.30162764e-04 -7.19831034e-04
      -2.66820309e-04 5.93940822e-05 -3.67164233e-04 8.90732626e-05
      1.25247135e-03 -4.91475454e-04 6.26595516e-04 2.75349419e-04
      -3.17273989e-05 2.17484907e-04 -1.12781767e-03 -8.07248929e-04
      -4.70074126e-04 -4.78530099e-04 3.14150457e-05 3.36837838e-04
      2.05770120e-04 -4.89196798e-04 -1.14383896e-04 -4.97610657e-04
      -2.68108764e-04 9.28432783e-05 -3.95386196e-05 1.04862680e-04
      -9.30413589e-05 -4.22050653e-06 -6.76956261e-04 -1.91769766e-04
