<?xml version="1.0"?>
<opencv_storage>
<my_svm type_id="opencv-ml-svm">
  <svm_type>C_SVC</svm_type>
  <kernel><type>LINEAR</type></kernel>
  <C>5.0000000000000000e-01</C>
  <term_criteria><epsilon>2.2204460492503131e-16</epsilon>
    <iterations>1000</iterations></term_criteria>
  <var_all>16128</var_all>
  <var_count>16128</var_count>
  <class_count>2</class_count>
  <class_labels type_id="opencv-matrix">
    <rows>1</rows>
    <cols>2</cols>
    <dt>i</dt>
    <data>
      -1 1</data></class_labels>
  <sv_total>1</sv_total>
  <support_vectors>
    <_>
      7.91892642e-04 -2.85954215e-04 3.76240605e-05 -1.35182729e-03
      -4.75302659e-04 -4.31686931e-05 1.11195433e-03 -8.71847325e-04
      1.09754782e-03 -3.87059612e-04 -5.74553451e-06 -5.40021138e-05
      -3.72820272e-04 3.91117472e-04 3.15712322e-03 -1.00103542e-04
      2.50485260e-04 3.31728923e-04 -4.67830891e-04 4.29915206e-04
      9.53977578e-04 5.54396793e-05 -4.24106780e-04 -2.48245196e-04
      8.72567471e-04 -2.20710208e-04 -2.01774848e-04 1.24234430e-04
      6.70182635e-04 2.26656703e-04 5.72467870e-05 -7.29729247e-04
      -4.92659106e-04 -6.09233684e-04 3.63330901e-06 -7.67405785e-04
      1.52634369e-04 -1.40220436e-04 1.18871185e-03 -2.35727173e-03
      -3.95060662e-04 3.91677575e-04 1.80123025e-04 -1.07566018e-04
      2.43633796e-04 2.70641922e-05 -4.86434379e-04 -6.29831222e-04
      1.10432261e-03 -3.86517291e-04 1.78750706e-04 1.47968705e-04
      1.72625703e-04 2.50225392e-04 -2.48292403e-04 -1.77950700e-04
      6.40768441e-04 -1.24126300e-03 -9.85099032e-05 1.82619246e-04
      -1.19487615e-03 -1.48739317e-04 1.21250085e-03 -9.14893812e-04
      -2.03755437e-04 1.04119999e-05 -4.31562949e-04 5.82678884e-04
      3.80428770e-04 4.41513885e-06 -4.21817764e-04 -2.31508235e-03
      1.32803468e-03 -5.38453867e-04 -2.72937788e-04 1.91312338e-05
      -1.76860113e-03 -9.49794339e-05 7.14343332e-04 4.23174533e-05
      1.53745851e-03 7.77752255e-04 1.61288306e-04 -4.00044868e-04
      2.86899682e-04 -1.14094684e-04 2.09572827e-04 -1.86886187e-04
      -1.64327049e-03 -2.37029904e-04 -3.47217487e-04 -1.34699685e-05
      1.25148555e-03 1.13354799e-04 1.85914745e-03 5.31168247e-04
      -1.20292752e-04 -1.59640287e-04 -1.15278957e-03 9.72060952e-05
      -4.85623896e-05 -1.36247079e-04 2.53621343e-04 1.69814180e-03
      -7.43128039e-05 -1.33789639e-04 -8.36201650e-07 -6.27169618e-04
      -4.96186512e-05 -1.44594873e-04 3.06481415e-05 -1.85011188e-04
      -5.86261391e-04 1.57979244e-04 2.84809794e-04 -1.05759909e-03
      2.05268268e-04 -2.01530915e-04 -1.12091366e-03 1.39485672e-03
      5.41504181e-04 -1.21745386e-03 2.52329308e-04 -4.30887798e-04
      2.95311147e-05 -7.21270975e-04 4.14491165e-04 1.98771060e-03
      -2.12737403e-04 -1.74212619e-04 1.58186152e-03 -2.82504945e-03
      -8.64026661e-04 -1.34734684e-04 -1.52643677e-03 4.75304463e-04
      -3.36934900e-04 -2.96789047e-04 -4.96417524e-05 -1.03592785e-04
      2.24155840e-04 -2.20029906e-05 -9.40158148e-04 1.30701833e-03
      7.01420358e-04 -4.46477097e-05 3.57193523e-04 1.55130663e-04
      3.77241871e-04 3.19920537e-06 7.47193058e-04 1.26843413e-04
      -8.14983156e-04 -1.87655649e-04 -4.64980199e-04 -1.88779188e-04
      -5.79804357e-04 1.11618848e-03 2.17677545e-04 1.24310108e-03
      2.15175678e-03 6.51746814e-04 -4.96184046e-04 -9.83928563e-04
      3.00731743e-04 3.42510320e-04 1.56200098e-04 -5.25760515e-05
      -4.08412961e-06 3.04394722e-04 6.20100764e-06 -1.21693673e-04
      -4.04071361e-05 -1.24064274e-04 -7.06077088e-04 -4.96635796e-04
      7.76507601e-04 -8.64116824e-04 -2.10990067e-04 -6.75427844e-04
      -5.60777145e-04 9.06629721e-05 5.88798430e-04 6.23876287e-04
      1.23979314e-03 -3.65434418e-04 -1.62369179e-04 3.46992194e-04
      -4.64807177e-04 8.59314750e-04 -1.02494785e-03 4.86726349e-05
      -1.23971561e-03 -8.55225371e-04 2.37020300e-04 1.50006311e-03
      5.68192154e-05 1.57961531e-05 1.48917094e-03 -1.57228648e-03
      -1.81381661e-03 -1.95390661e-04 4.43401368e-04 -2.43923932e-04
      -6.81143254e-04 3.39841681e-05 -2.04472235e-05 -4.35632013e-04
      8.36447347e-04 3.44410160e-04 -1.33423062e-04 -4.81782656e-04
      9.62153892e-04 6.29776696e-05 1.17037715e-04 1.68048966e-04
      -5.83858811e-04 1.45928687e-04 -3.13335971e-04 -3.77769029e-04
      2.48243357e-03 5.86401904e-04 -4.36767674e-04 7.71430612e-04
      -9.16209538e-04 -4.29492735e-04 -1.74693909e-04 -7.46178266e-04
      1.00882564e-04 1.99982343e-04 7.46648235e-04 -1.50122598e-03
      1.39155818e-04 2.17881738e-04 -1.48848660e-04 2.73110309e-05
      1.19072982e-04 2.77854240e-04 8.57041858e-04 -6.35937176e-05
      -1.68812019e-03 -6.29473303e-04 -6.95492083e-04 8.20748624e-04
      -5.77501371e-04 4.54021094e-04 -3.56375909e-04 5.86941169e-05
      2.91371456e-04 2.58982810e-03 1.13049224e-04 4.48421953e-04
      -1.90233586e-05 4.33488545e-04 1.13175192e-03 -1.94998435e-03
      1.69167819e-04 -3.71919168e-06 1.47962931e-03 -2.38426073e-04
      1.84126396e-03 -4.46560967e-04 -1.45673857e-03 -4.86749894e-04
      -7.75503693e-04 5.43329224e-05 -1.41153912e-04 5.60399603e-05
      -2.63280142e-03 1.28700442e-04 2.56035663e-03 4.70599713e-04
      6.74336276e-04 2.05887831e-04 -7.46886071e-04 2.54459446e-04
      -2.23799259e-04 1.34829315e-04 4.22915182e-04 4.36375740e-05
      1.35403196e-03 -3.41412640e-04 8.85947884e-05 -4.84665979e-05
      -1.66904903e-03 1.18914686e-04 3.00920306e-04 -5.46847587e-04
      5.64149464e-04 7.76385248e-04 1.15821480e-04 -9.81182675e-04
      -3.42814950e-04 8.94943878e-05 -8.38955282e-04 -5.25851676e-04
      -1.18856515e-04 -2.82347319e-04 -7.94103253e-05 -1.96564986e-04
      -5.38122316e-04 1.34459202e-04 1.88061764e-04 2.56401290e-06
      -3.33644188e-04 2.92444398e-04 -1.28228648e-05 -8.24285205e-04
      -1.20824079e-04 6.40164508e-05 -7.58146460e-04 1.49058993e-04
      -8.67349561e-04 -1.60775468e-04 1.93450047e-04 -4.52082895e-04
      1.86914604e-05 2.34270049e-03 5.61070628e-04 1.34116551e-03
      -1.32617436e-03 3.66596156e-04 -5.01174130e-04 9.86047322e-04
      1.38688492e-05 -9.07553331e-05 3.25061665e-05 -1.05776428e-03
      -4.89992788e-04 1.30592729e-04 -4.43091325e-04 -3.37878999e-04
      3.72268172e-04 1.42286110e-04 1.93354057e-03 6.22975407e-04
      -3.57229670e-04 -1.35281633e-04 8.68386851e-05 -2.36207678e-04
      -1.66434285e-04 5.25192991e-05 -3.79954763e-05 -1.69404433e-04
      3.06988164e-04 -4.47463419e-04 5.21789829e-04 1.89028331e-04
      -1.59075344e-03 5.56134153e-04 3.61589773e-04 3.52708856e-04
      -6.50395348e-04 -1.13135262e-03 -3.23267770e-04 -1.70689821e-03
      8.49204516e-05 -3.74875235e-04 1.29257212e-04 9.08800925e-04
      1.84060904e-04 -3.09682437e-05 9.24255164e-06 1.38876436e-04
      -2.34891311e-04 -2.54287239e-04 -1.86211430e-04 -2.19051493e-04
      -1.84331182e-03 6.03224791e-04 -8.73490935e-05 6.02958025e-04
      8.75561236e-05 2.10198428e-04 -2.34071253e-04 3.65069456e-04
      9.32135037e-04 1.66859839e-03 5.95159690e-05 -7.55424117e-05
      -1.79502094e-04 -3.79490317e-04 3.35629709e-04 1.95074407e-03
      3.78075591e-03 -3.05121590e-04 1.75130100e-03 -5.99602936e-04
      -6.19229613e-05 -4.66850106e-05 -1.51657336e-03 -6.66124921e-04
      6.31338102e-04 -1.99215981e-04 -8.47355550e-05 -4.59841722e-05
      1.32390892e-03 -9.17406032e-06 -7.29790481e-04 5.86639857e-04
      -9.32196795e-04 3.51007475e-04 -6.25231361e-04 -3.59790720e-04
      4.26178914e-04 -8.00131602e-05 -6.57361597e-05 -2.50578683e-04
      -3.38016078e-04 2.18855028e-04 -2.11074148e-04 -4.22066478e-05
      8.48914729e-04 -8.75205078e-05 1.20245176e-03 4.99876100e-04
      -1.24564988e-03 -2.54195905e-03 2.56626838e-04 -1.85260025e-04
      -3.25982168e-04 -3.86960863e-04 -2.56457017e-04 6.82801532e-04
      3.84386192e-04 -3.96164920e-04 -2.19259418e-05 -1.72218133e-04
      1.33176232e-04 -5.88987677e-05 1.33724505e-04 6.44387095e-04
      1.99100105e-04 -8.53823367e-05 1.60277603e-04 1.14414433e-03
      7.67911377e-04 4.31102562e-05 5.50136901e-04 -7.32549583e-04
      -2.05727550e-03 1.55518079e-04 -2.45413539e-04 -6.99935539e-04
      -1.49690663e-03 -2.16286804e-04 1.46047620e-04 1.35994551e-03
      3.00861982e-04 -1.67135586e-04 1.00696366e-03 1.11945742e-03
      -1.84031506e-03 -8.46692201e-05 1.92180870e-03 -4.24102560e-04
      -9.40913975e-04 -3.34649259e-04 5.24221832e-05 1.54677880e-04
      3.23721720e-03 -9.41475155e-05 -3.15680627e-05 -2.17999402e-03
      -4.99344431e-04 3.02016968e-04 2.55582825e-04 -1.85371755e-04
      5.57169085e-04 3.35077202e-05 -2.94236583e-04 4.30128275e-04
      1.24764614e-04 -1.11673617e-04 -4.47698432e-04 -2.40912894e-04
      2.51954451e-04 -2.95136997e-04 -3.43941734e-04 -3.41457111e-04
      -9.25160537e-04 1.83763308e-03 -8.71271550e-05 -1.22807547e-03
      -6.79498044e-05 -3.64472944e-04 3.21467611e-04 -5.67072020e-05
      -2.74601509e-04 3.27951391e-04 1.73071254e-04 -2.30018006e-04
      -2.72376288e-04 3.33483709e-04 9.11601383e-05 5.40262437e-04
      1.95976259e-04 -4.59923831e-05 -8.99433144e-05 -3.74053088e-05
      1.39708063e-04 3.26949776e-05 8.15311330e-04 -1.40493130e-03
      1.29776110e-03 4.04898834e-04 -1.03441867e-04 -4.44142905e-04
      -3.14069242e-04 3.93002003e-04 -8.99389444e-04 -9.49841633e-04
      3.87442240e-04 5.20511298e-04 -7.15264614e-05 4.07063751e-04
      1.00568368e-03 -1.03605766e-04 -1.05014141e-03 -4.61273657e-06
      -1.75270613e-03 -7.13203975e-04 -1.42160119e-04 9.37892037e-05
      -1.33158651e-03 1.97782647e-04 -5.28949749e-05 1.87427341e-03
      1.86106015e-03 1.56951137e-04 -1.77288039e-05 2.47008342e-04
      4.41362936e-04 -5.15446409e-05 -7.95499654e-05 -3.60479333e-07
      1.16867200e-03 -3.11394950e-04 -2.45694711e-04 1.54823192e-05
      -1.74132281e-03 -3.34868411e-04 3.48729111e-04 4.46551916e-04
      1.55871603e-04 -6.57643541e-04 2.71086203e-04 4.01398080e-04
      1.95909553e-04 3.54371761e-04 9.19977843e-04 2.62153288e-03
      4.66902857e-04 -1.35657083e-05 1.09752444e-04 4.53949069e-05
      1.93871267e-04 2.38338413e-04 -2.66741932e-04 -2.12134546e-04
      4.34242684e-04 -1.16753229e-03 -2.62934656e-04 -2.12098216e-03
      -1.07031468e-04 -7.64194847e-05 7.23544581e-05 -1.93943409e-03
      2.52482481e-04 -1.07393181e-03 -1.09836088e-04 -2.04755721e-04
      -1.38420844e-03 8.16704240e-04 7.82229981e-05 8.01276066e-04
      2.53533770e-04 6.58985460e-04 -1.55222963e-03 1.39712589e-03
      8.45186587e-04 -2.27651326e-04 -2.52120593e-03 7.86708784e-04
      -1.60959864e-03 2.39324363e-04 -5.26312797e-04 -1.75272697e-04
      1.98661303e-03 -4.16061812e-04 2.63394119e-04 -1.35573687e-03
      3.03958426e-04 9.41045873e-05 -2.68350443e-04 -1.28745116e-04
      8.75248632e-04 1.07864682e-04 -1.75686553e-04 -2.51667370e-04
      -1.85951509e-03 -1.84475735e-04 -7.02109537e-06 -2.97372230e-06
      7.49838364e-05 2.18644665e-04 6.73556991e-04 -5.73553087e-04
      8.45575647e-04 6.49902329e-04 1.67192284e-05 -4.50972671e-04
      1.16946921e-05 1.44566582e-06 -2.37453380e-04 -8.23037932e-04
      -9.38391531e-05 2.30853679e-04 -3.75467935e-05 3.66811786e-04
      -7.42299162e-05 -4.41684067e-04 -1.14878698e-04 9.96667426e-04
      -3.79278470e-04 -3.31598014e-04 6.84687926e-04 1.11152651e-03
      5.22497518e-04 1.68374376e-04 7.41986732e-04 2.93420017e-04
      3.60727563e-06 -2.09403969e-03 1.53352754e-04 1.19187648e-03
      2.87208328e-04 5.85310394e-04 -9.31186602e-04 2.03051037e-04
      -1.28245831e-03 -2.98888219e-04 -3.12376797e-04 1.08697328e-04
      -8.94360361e-04 1.38756703e-04 2.28371983e-03 1.75727915e-03
      -5.57253603e-04 -1.29285399e-04 1.27915278e-04 -9.47359149e-05
      1.08979824e-04 -1.72999411e-04 6.69039873e-05 -1.47528481e-03
      4.63125209e-04 9.57711964e-05 -1.75985289e-04 -4.77285590e-04
      7.26615544e-05 1.08017004e-04 -5.07418190e-05 -5.38138210e-08
      -9.40030324e-04 3.69855639e-04 -2.23520430e-04 -1.61737989e-04
      9.46933986e-04 -4.55099304e-04 7.02773978e-04 -1.76051122e-04
      -1.16756128e-03 -6.32980446e-05 -5.40761452e-04 2.61729554e-04
      9.19861704e-05 3.28803144e-04 -1.41081429e-04 1.41560612e-03
      -6.99255150e-04 -1.90915216e-05 8.94865952e-05 9.93676731e-05
      2.00252311e-04 1.85447618e-06 1.12045114e-03 9.68670647e-05
      5.25588344e-04 5.17827633e-04 -1.37867013e-04 -1.30595712e-04
      -4.37899755e-04 7.32031534e-04 -1.11379568e-03 -9.54624673e-04
      2.21542269e-03 2.84210546e-04 -3.78218654e-04 4.97653265e-04
      1.08253234e-03 -5.68621908e-04 -1.82034844e-03 -8.61892127e-04
      -5.34570660e-04 -5.16407366e-04 -7.93966115e-04 2.21181032e-03
      -1.48128113e-03 -2.54612387e-04 1.30909705e-03 -1.60787115e-03
      -4.22544836e-04 5.54155085e-05 4.63151577e-04 -3.07983020e-04
      3.02128086e-04 1.90194347e-04 2.17045518e-03 -8.03203671e-04
      2.71712022e-04 4.55949266e-05 -5.61586523e-04 8.35299070e-05
      1.40895369e-04 1.07827123e-04 7.19889184e-04 -4.12292924e-04
      1.08598091e-03 -1.30066940e-06 -2.77931744e-04 1.31757392e-04
      -4.79824172e-04 5.64416914e-05 -4.19130694e-04 9.82417725e-04
      -1.10601599e-03 -9.31484043e-04 -4.62769880e-04 1.39370910e-03
      4.13404254e-04 -1.67422200e-04 8.56824263e-05 2.80888577e-04
      -1.18707598e-04 -1.33454960e-04 1.46644612e-04 -6.89841108e-05
      3.45714419e-04 -6.47087640e-04 5.60298911e-04 4.13577473e-05
      8.22832808e-04 -3.12589254e-04 8.60873028e-04 8.23488343e-04
      3.59532743e-04 -3.96357733e-04 4.01095225e-04 2.66344345e-04
      6.85974548e-04 -8.62735265e-04 -2.61557609e-04 -1.17803551e-03
      -1.50516094e-03 -1.69526460e-03 4.65112505e-04 4.40882170e-04
      -2.03577010e-03 1.42832694e-03 2.23795796e-04 -5.18033805e-04
      -6.91176625e-04 -4.13440372e-04 -4.47963102e-04 -4.91912127e-04
      3.48316622e-04 2.23845273e-04 8.25375610e-05 4.03920480e-04
      1.83278730e-03 2.45920266e-04 -3.00814118e-03 9.42010549e-04
      4.15741029e-04 -4.84476797e-04 8.53364763e-05 -7.31590088e-04
      -1.09700102e-03 -1.96905985e-05 7.37779192e-04 2.59736378e-04
      -1.00732758e-03 -3.88940272e-04 -4.27361694e-04 3.61582715e-05
      1.35596259e-04 -3.33540724e-04 -1.36914791e-03 2.33546435e-03
      -2.59899505e-04 -1.30004701e-04 1.43318193e-03 -9.48153436e-04
      -3.95234994e-04 1.73123306e-04 -3.75669479e-05 -8.13658873e-04
      -1.89847429e-04 -2.50461366e-04 -3.96775649e-05 -7.32288056e-04
      -1.02763952e-04 1.60732930e-06 8.88797455e-04 -4.18957323e-04
      -2.18641741e-04 3.89434688e-04 3.01997905e-04 8.20557238e-04
      -2.35098094e-04 4.06763109e-04 3.71730275e-05 2.23766477e-03
      1.59910845e-03 5.49872406e-04 5.97990856e-06 1.76361494e-03
      -1.12657866e-03 1.71229083e-04 6.59151759e-04 -1.81218341e-03
      -3.53955576e-04 -5.95943537e-04 3.27193004e-04 1.90929649e-03
      -2.44086259e-03 -4.29783504e-05 -4.42385586e-04 1.65191770e-04
      4.16233815e-04 -5.49597782e-04 3.13025172e-04 -3.28013557e-04
      7.40866293e-04 3.65191983e-04 -1.80384924e-03 -1.33070382e-04
      -8.00980546e-04 3.85545165e-04 -1.32944479e-04 -1.23395788e-04
      -4.75183886e-04 2.20361271e-05 1.99077083e-04 -5.81041037e-04
      -2.78371910e-04 -2.70774588e-04 -9.90246190e-05 4.57236136e-04
      2.02459618e-04 -2.20269387e-04 1.79531623e-03 1.59445591e-03
      8.30177276e-04 -2.00689398e-03 -6.20918116e-04 -7.28802523e-04
      -3.11238546e-04 -1.70544445e-04 8.22942166e-05 -9.86657920e-04
      5.89310250e-04 2.25979253e-04 -5.29896024e-05 -6.22526451e-04
      1.85151759e-04 -1.15034134e-04 -5.77868661e-04 2.28477432e-03
      1.50669046e-04 8.73713143e-05 2.18715461e-04 6.40931714e-04
      1.67117818e-04 -1.67609178e-04 5.28173659e-05 -3.95798968e-04
      -5.33768849e-04 1.21149025e-03 8.56061524e-05 4.07679559e-04
      -3.49623064e-04 -7.49610655e-04 6.73757400e-04 1.27556000e-03
      -6.15796889e-04 8.84660170e-04 1.16871134e-03 -7.19343196e-04
      -9.05078850e-05 -6.11234964e-06 9.33267525e-04 -7.98336812e-04
      -8.48707452e-04 4.92270745e-04 1.60884592e-04 2.88126001e-04
      -1.74906605e-03 8.94355326e-05 -1.18501764e-03 9.28238733e-04
      5.84278168e-05 2.15090695e-04 -2.81532557e-04 -3.21545267e-05
      2.92780860e-05 -7.87985700e-05 2.47860589e-04 -5.11986509e-05
      1.06813316e-03 -9.48862726e-06 -4.96247667e-04 1.07638843e-04
      -7.75378896e-04 3.78737517e-04 -1.17896264e-03 3.94596049e-04
      -6.20756007e-04 -2.86347140e-03 -9.79997640e-05 7.07997999e-04
      3.87972657e-04 -5.53203827e-05 -2.70785560e-04 -1.78042988e-04
      7.01218814e-05 -5.43902512e-04 7.44262434e-05 7.24323094e-04
      2.50552141e-04 -3.53627620e-05 3.75289528e-04 8.01157439e-04
      1.44143985e-03 5.85700269e-04 5.19790803e-04 -1.71379780e-03
      -3.13338009e-04 1.65162943e-04 4.14401438e-04 2.41392947e-04
      -4.28124709e-04 -1.39774370e-03 -2.24157411e-04 -5.68712945e-04
      2.24827949e-04 -2.35300977e-04 7.62196432e-04 3.27135623e-03
      1.89833529e-03 -8.60440923e-05 1.70752493e-04 -4.88003570e-04
      3.75746196e-04 -2.93275632e-04 -7.40932825e-04 -1.83952536e-04
      -1.13247870e-03 3.23503955e-05 3.40463739e-05 -1.99924707e-05
      3.58448364e-04 1.88684658e-04 -4.00384684e-04 -2.20869450e-04
      -3.47164809e-04 2.40626629e-04 1.92732565e-04 3.64229461e-04
      2.64600094e-04 -8.00115522e-05 5.48258431e-05 -2.59303371e-04
      1.06774410e-03 1.62288969e-04 -4.29657171e-04 1.68592916e-04
      2.81790184e-04 2.22978211e-04 9.23251908e-04 -4.54750581e-04
      -2.13689054e-04 1.04249339e-03 -1.30838525e-04 3.79696663e-04
      5.24841482e-04 -2.32451712e-05 -1.13375419e-04 -1.78071053e-03
      -1.16402865e-04 4.49701300e-04 -2.08854071e-05 8.13425286e-04
      2.59260676e-04 4.80561866e-05 1.10603934e-04 7.00404227e-04
      1.89824990e-04 -2.54091516e-04 -1.19781704e-04 -7.34718749e-04
      4.67259088e-05 1.93755077e-05 -4.72524698e-04 1.00511068e-04
      -5.89345291e-04 -8.32576945e-04 1.63712830e-04 -9.96784889e-04
      -1.80321350e-03 1.96312394e-04 3.05676018e-04 9.86359199e-04
      2.83404090e-03 -1.26212556e-03 -1.81635353e-03 -1.37487135e-03
      -6.14960096e-04 -1.75783760e-04 -2.56911066e-04 1.04149792e-03
      5.75806305e-04 -5.37952757e-04 -2.81537767e-04 4.03576094e-04
      1.86690351e-03 -6.88132568e-05 -1.74106786e-03 9.25042026e-04
      -3.31933348e-04 3.95974028e-04 4.09499393e-04 1.83977769e-04
      4.55477217e-04 -2.75277434e-05 -2.39453191e-04 -3.97296622e-04
      2.52710329e-03 -2.31125654e-04 9.28130394e-05 3.99598212e-04
      -2.30721058e-03 3.30633804e-04 1.30024913e-03 1.33548165e-04
      6.61474623e-05 -1.76597247e-03 9.57059674e-04 -1.07172108e-03
      -3.31716146e-04 -3.75872769e-05 -1.55769128e-04 -1.45908166e-03
      -3.19875922e-04 2.97837250e-04 -1.44676073e-04 -4.14622009e-05
      -4.28605592e-04 -1.62670767e-05 7.12015142e-04 -2.64642644e-04
      -1.19634951e-03 -6.09689858e-04 7.63809134e-04 1.45690877e-03
      -1.83373661e-04 -1.38997100e-04 -1.13529712e-03 9.40815953e-04
      2.67013861e-03 -2.15878314e-03 1.40383272e-04 -1.29324108e-04
      -7.85225362e-04 3.79550562e-04 -1.74608873e-03 3.52502335e-03
      -2.04644730e-05 3.47591093e-04 -4.81904804e-04 4.77702473e-04
      8.09809426e-04 1.39421711e-04 2.71496596e-03 -1.64037760e-04
      1.70267059e-03 3.74935480e-04 1.89696148e-04 -2.58030748e-04
      -9.97930299e-04 4.32476401e-04 -1.82532624e-03 8.87852046e-04
      1.39246520e-03 -3.48950911e-04 2.62677786e-04 1.50801658e-04
      8.77043465e-04 -1.07132582e-04 -5.76376100e-04 6.75746298e-04
      -1.59712590e-03 -1.94558292e-04 -2.99738778e-04 1.12168447e-04
      -1.24196301e-03 -4.62383556e-04 8.49833828e-04 -1.15474104e-04
      7.39225885e-04 -1.91627839e-03 5.31889149e-04 -5.19163208e-04
      -3.43321823e-04 2.08534912e-04 6.73875038e-04 -1.38213299e-03
      -1.51835236e-04 4.53214598e-04 8.04887022e-05 -1.89297280e-04
      -3.71006172e-04 9.97222833e-06 3.03635985e-04 -7.48552440e-04
      -1.05293635e-04 5.12597151e-04 3.61353246e-04 -1.13738945e-03
      6.30513940e-04 -2.15461896e-05 2.59169203e-04 -1.50564744e-03
      -2.54743104e-03 -3.43127031e-04 4.49128391e-04 2.32152015e-04
      1.80319021e-03 -5.82210021e-04 -3.93922953e-03 4.84806066e-03
      1.22719706e-04 1.16452132e-03 -1.43738661e-03 -8.67102586e-04
      4.59025643e-04 -3.61509330e-04 2.14895327e-03 -1.79093005e-03
      1.01753540e-04 7.20763172e-04 3.50391929e-04 -2.16246226e-05
      9.02375905e-04 -5.45138610e-04 -6.26074907e-04 2.40609617e-04
      -1.22654135e-03 1.39392418e-04 -2.82707799e-04 -1.93274813e-04
      1.04452927e-04 -1.38684481e-04 3.25511792e-04 -6.15895900e-04
      9.14778793e-04 -5.74697682e-04 -3.80749290e-04 -3.12940865e-05
      -1.94967794e-03 -4.28671628e-05 1.57359045e-03 8.08722281e-04
      -1.11619954e-03 -8.97424587e-04 -5.17857436e-04 2.09651073e-03
      9.47117951e-05 -3.45221371e-04 -7.99059693e-04 1.01784477e-04
      1.02600730e-04 -2.60685425e-04 -1.24050966e-05 1.28256201e-04
      -1.00694115e-05 1.15732539e-04 8.41164088e-04 -1.05260639e-04
      -1.97950378e-03 -8.74630234e-04 4.70464642e-04 5.07225341e-04
      1.07057916e-03 9.06121393e-04 1.24382554e-03 1.70300924e-03
      -1.27052923e-03 1.24854257e-03 -2.29059762e-04 1.23288785e-03
      -1.01067545e-03 -3.90917616e-04 8.08607030e-04 -1.84392952e-03
      -1.82006217e-03 1.99797694e-04 1.39175111e-03 6.10636256e-04
      1.69981341e-03 1.04528110e-04 2.24517449e-03 4.41558426e-04
      -1.30088488e-03 2.76252016e-04 1.78416321e-05 2.86426221e-04
      -8.19206936e-04 3.05016380e-04 5.84778085e-04 1.32658856e-03
      2.00074239e-04 -4.34717958e-06 -4.07100626e-04 4.78682341e-05
      2.61384324e-04 1.39464551e-04 -5.22841110e-05 -7.17050803e-04
      -1.03738753e-03 -8.81679880e-05 2.64089904e-04 2.38410081e-04
      5.51750010e-04 -1.64324170e-04 -2.28033331e-03 -6.24417153e-04
      -3.06609989e-04 1.97162110e-04 -4.76808258e-04 1.84571440e-03
      -3.03075823e-04 1.23202044e-04 -3.77816788e-04 1.22824579e-03
      2.28482735e-04 3.43758165e-06 -2.20742004e-04 2.15791733e-04
      9.25737113e-05 1.69211798e-05 4.12999972e-04 -1.23221020e-03
      2.83761819e-05 4.55816480e-04 3.70547379e-04 6.21137966e-04
      7.59126444e-04 1.19559618e-03 -2.06707860e-03 -2.56969826e-03
      7.83744617e-05 -1.81691418e-03 1.82091797e-04 -1.12947181e-03
      -8.84817913e-04 -8.96324636e-04 3.29233066e-04 2.01910012e-03
      1.69897138e-03 -1.56700297e-03 -3.45164386e-04 -3.56355973e-04
      -6.91669004e-04 -8.23059236e-05 -2.95843405e-04 -3.96381394e-04
      -3.77156073e-04 1.34240559e-04 -3.91015987e-04 1.42806282e-04
      -4.75232548e-04 -3.29394126e-04 -4.48895444e-04 1.72175904e-04
      7.19779695e-04 6.09044801e-04 -3.43287567e-04 9.73892675e-05
      -1.65604171e-04 -9.73490023e-05 -3.19004670e-04 2.39376444e-04
      -5.21117414e-04 -3.18057253e-04 -2.56542135e-05 1.68349143e-04
      -5.11990220e-04 4.39077470e-04 1.69792213e-03 -6.54033211e-04
      -7.45909987e-04 3.42471263e-04 -4.45065787e-04 1.20150053e-03
      -6.19840648e-05 7.01264536e-04 6.21830579e-04 5.15595370e-04
      -2.01305156e-04 2.94957368e-04 3.69917302e-06 3.73018469e-04
      6.78109645e-05 4.23903766e-05 -4.78908478e-04 -3.26205598e-04
      -1.40733173e-04 -4.42736869e-04 2.01745730e-04 -1.59519754e-04
      3.40720580e-04 6.11108611e-04 1.87703947e-04 6.23782471e-05
      -3.79460951e-04 -3.45874549e-04 8.40298599e-04 8.48790340e-04
      1.64020079e-04 3.20192979e-04 -2.58662418e-04 -1.16174889e-03
      -4.34970425e-04 -1.57863789e-04 2.68079719e-04 -2.06976291e-03
      1.01149824e-04 3.07517912e-04 -7.85452547e-04 1.05070986e-03
      -1.10971036e-04 8.23849579e-04 7.70109647e-04 -3.46686604e-04
      9.19178245e-04 2.41363887e-04 -1.98658952e-03 -7.33284178e-05
      4.47819300e-04 -2.17579916e-04 6.16542093e-05 -3.62811115e-04
      3.80672427e-04 -2.19713293e-05 -6.06386922e-04 4.73415945e-04
      -3.03338660e-04 -3.26337351e-04 3.81801918e-04 -2.21228824e-04
      1.27074134e-03 2.77560641e-04 6.96332951e-04 6.57424564e-04
      -7.94957450e-04 -1.33686257e-03 -7.87222118e-04 -1.55865110e-03
      -6.67250642e-05 3.12324875e-04 -1.04776074e-04 -3.77127697e-04
      -1.48440531e-05 5.73406927e-04 -3.44670079e-05 -4.76393579e-05
      -1.85564888e-04 9.26682424e-06 1.39688593e-04 8.20779242e-04
      -4.73675696e-04 6.37845194e-04 1.82852338e-04 -1.94034225e-03
      -7.89672078e-04 1.23549762e-04 1.12411173e-04 6.71441143e-04
      1.97587069e-03 -1.43177240e-04 -1.58770708e-04 -1.07540955e-05
      -1.00093381e-03 -3.31399468e-04 3.06484220e-03 4.29181091e-04
      3.22852808e-04 -9.65748040e-04 -3.08566174e-04 9.52869246e-04
      -9.57266137e-04 5.68878721e-04 8.04723590e-04 1.32575107e-03
      -1.63490023e-03 -1.63112156e-04 -2.28275909e-04 -4.98286332e-04
      -5.58414395e-05 1.67412902e-04 -1.14793351e-04 3.18329153e-03
      -5.05239645e-04 -4.91075858e-04 -4.39083931e-04 2.59532990e-05
      2.06265366e-04 7.11946195e-05 7.66025260e-05 -8.33398099e-06
      -5.11487015e-04 -7.09783781e-05 -5.43198548e-05 -4.91329956e-05
      -1.09219993e-03 4.23538950e-05 -4.24729427e-04 -6.11120893e-04
      4.29188396e-04 6.84729952e-04 -4.12800000e-04 1.45983917e-03
      2.12514948e-04 7.17816220e-05 -6.27220492e-04 8.49517994e-04
      9.14418888e-06 -3.36396115e-05 1.29047723e-04 -2.73548558e-05
      -4.68976978e-05 -5.05370146e-04 -1.55144182e-04 -1.17485446e-03
      8.57434585e-04 5.64704649e-04 -8.82330205e-05 7.54233741e-04
      -5.40833047e-04 8.65891983e-04 8.74270627e-05 -6.48371133e-05
      1.61655538e-04 8.08730896e-04 -4.66695405e-04 1.97512098e-03
      -2.56309961e-03 -1.88066345e-03 3.09972711e-05 7.20242169e-05
      -9.34792974e-04 1.59959344e-03 9.52388684e-04 -1.99471554e-03
      2.36930116e-03 1.11688911e-04 -3.82166705e-04 4.96796914e-04
      1.60310781e-04 6.08223374e-04 -2.11063118e-04 2.53663922e-04
      1.70365977e-03 3.43487656e-04 4.56877286e-04 4.36698028e-04
      4.72931104e-04 2.68013217e-04 -3.31347292e-06 1.18038894e-04
      9.11181633e-05 2.02722076e-05 2.59325956e-04 5.16653934e-04
      -3.42079496e-04 -3.67811823e-04 4.07839034e-05 -2.37089102e-04
      -3.10479687e-03 -1.07056012e-05 5.69622731e-04 4.14648122e-04
      -1.99773838e-03 2.20747152e-03 1.20645973e-05 8.22570946e-05
      -3.93033522e-04 -8.95750418e-05 4.35644251e-05 4.25546488e-04
      -2.52809346e-04 -9.35423595e-05 8.31935031e-05 -1.88281585e-04
      4.73016466e-04 3.26111709e-04 7.11682369e-05 7.36567599e-05
      1.71711989e-04 -6.99069817e-04 -6.00396525e-05 -2.50872644e-03
      -3.91758251e-04 -3.52128933e-04 4.90582199e-04 -4.08273278e-04
      -1.18294498e-03 -1.14852432e-04 7.25974314e-05 3.71249393e-04
      5.87265065e-04 -1.12653454e-03 2.12855797e-04 -5.20567410e-04
      -5.14142972e-04 -1.70045206e-03 -1.31947314e-03 8.56923056e-04
      1.16740447e-03 -3.50941613e-04 1.12616934e-03 -4.16876341e-04
      -1.07531459e-03 7.25617647e-05 8.42226145e-05 2.03982127e-04
      -2.47239810e-03 3.86708707e-04 1.02414761e-03 3.29292584e-06
      -2.96943006e-04 -5.95248421e-04 5.03938645e-04 7.09510874e-04
      2.62365880e-04 -1.66999642e-04 -5.13739087e-06 2.58921267e-04
      7.18179392e-04 -2.48535252e-05 -1.75388777e-04 -1.09015076e-04
      -7.60209863e-04 -3.10648291e-04 1.22193407e-04 -3.79846533e-05
      -1.43239697e-04 3.32666468e-03 -2.35880667e-04 -1.76061888e-03
      2.02780211e-04 1.74111279e-04 5.16057889e-06 6.79991324e-04
      -1.62867145e-04 2.80643551e-04 -5.98160914e-05 3.96446849e-04
      -2.24650794e-05 -4.63498407e-04 -5.67265670e-04 7.18153722e-04
      5.97704602e-05 -2.34336854e-04 -5.18908455e-05 9.00771120e-04
      -8.32072401e-04 3.48554167e-04 -3.02838656e-04 3.70287482e-04
      8.97144026e-04 -1.83636730e-03 1.26801140e-04 -2.35897140e-04
      3.15838872e-04 -9.23506392e-04 -9.38287587e-04 2.79923459e-03
      2.52468255e-03 4.04351013e-04 -1.82552694e-03 -9.90466098e-04
      2.14469875e-03 -4.19471435e-05 2.56221835e-03 4.35550028e-05
      9.41048609e-04 7.27754959e-05 3.71104194e-04 -5.94809171e-05
      9.25154251e-04 1.86723682e-05 -1.56636792e-03 -1.89645798e-03
      -1.69957464e-03 9.74176073e-05 6.33769087e-04 3.96054296e-04
      2.60770594e-06 1.95876346e-05 3.97063501e-04 -2.76499777e-04
      -1.92773831e-03 6.27620975e-05 3.29951436e-04 -3.58141668e-04
      -1.00378157e-03 -2.72225065e-04 8.45650851e-04 1.30659877e-03
      -1.96026266e-03 -5.21064212e-04 6.52969247e-05 1.61847926e-03
      -2.07104022e-05 -3.14426987e-04 -1.85412471e-04 -2.81178718e-03
      7.68962665e-04 2.03393502e-04 -3.63576328e-05 4.34712158e-04
      -5.87475777e-04 -6.29042683e-04 -1.58715804e-04 6.71338639e-05
      -1.58888975e-03 -7.34136207e-04 5.62070745e-05 2.73974286e-03
      5.60661778e-04 2.65262177e-04 -1.84786390e-04 9.65989020e-04
      6.93865411e-04 -1.24960695e-03 4.04720777e-05 1.47842185e-03
      1.18453710e-04 2.60956149e-04 -5.29513491e-05 -1.48389977e-03
      -7.38126328e-05 -5.03524934e-05 7.95253960e-04 1.20639234e-04
      3.68531357e-04 2.48659780e-04 -1.66436483e-03 -3.34849792e-05
      -6.00982981e-04 -1.33097245e-04 -1.04884302e-05 2.23048934e-04
      -2.78887892e-04 6.10192074e-05 2.87929690e-03 -5.99558640e-04
      1.25581527e-03 5.80624270e-04 -1.51717657e-04 -8.40475259e-04
      2.65441558e-05 -1.78856935e-04 -1.11082825e-03 5.44033886e-04
      1.58899711e-05 -7.38379138e-04 -2.74231002e-06 -3.16097663e-04
      -9.58998804e-04 3.45216540e-04 7.18992029e-04 -1.17461663e-03
      9.56490869e-04 -3.68305278e-04 -4.59248869e-04 -3.36915728e-05
      -5.41701564e-04 4.25263250e-04 5.67661773e-04 -1.89845241e-03
      6.58611883e-04 4.68271719e-05 4.24013597e-05 5.48808966e-05
      2.10282131e-04 -2.51944759e-04 -6.57154087e-05 -3.69400768e-05
      3.93013412e-04 2.13205582e-04 -2.17072025e-04 2.60435720e-03
      -7.22465993e-05 1.54229361e-04 1.98075664e-04 1.55141810e-04
      -3.70879867e-03 1.77556183e-04 1.03503357e-04 -1.36589399e-04
      -1.48347579e-04 3.47851223e-04 2.01610193e-04 1.16226799e-03
      2.46410305e-03 1.14004500e-03 3.72813549e-04 -8.78327643e-04
      -1.48605055e-03 -6.20664388e-04 6.58343255e-04 -1.34497136e-03
      3.48439818e-04 -1.42071024e-03 1.04014028e-03 4.74324886e-04
      -2.53974984e-04 2.84885900e-04 -1.52559965e-04 -1.74677072e-04
      -1.06904576e-04 2.60397355e-04 1.97097077e-04 -4.71697567e-04
      -5.32864615e-05 -1.57650047e-05 -2.41860602e-04 -2.71037479e-05
      5.69446362e-04 -3.57634926e-05 -2.66280491e-04 -3.67012894e-04
      -3.79113015e-04 -7.37256269e-05 -8.50380515e-04 -1.93520484e-03
      -4.07760206e-04 8.48409894e-04 -9.08720904e-05 -1.47845218e-04
      5.38204913e-04 2.62350455e-04 -3.64002221e-06 -2.89697753e-04
      3.49905094e-05 -3.27967573e-05 3.54064832e-05 2.68024625e-04
      -1.67106991e-04 -2.33282437e-04 3.69190006e-04 5.63380076e-04
      1.35441567e-03 -1.85517326e-03 -3.91192996e-04 6.89745357e-04
      7.83506024e-04 3.91393289e-04 1.18929113e-03 -1.30712404e-03
      1.55576665e-04 4.39663738e-04 -4.16496732e-05 -1.11897965e-03
      1.86356693e-03 8.45420727e-05 -1.53219816e-03 1.09366013e-03
      1.93501583e-05 3.46578367e-04 -7.92655686e-04 3.88545595e-04
      5.83591231e-04 5.76979772e-04 -1.17772538e-03 1.29792688e-03
      1.02394808e-03 1.88072197e-04 -5.58261003e-04 -3.30391747e-04
      1.20234326e-03 2.20192538e-04 6.92706322e-04 -7.00696022e-04
      7.47180684e-06 -5.04716474e-04 -2.40984562e-04 2.17669716e-04
      -1.59846488e-04 -1.92070638e-05 5.54193219e-04 1.48645908e-04
      -3.67163302e-04 2.16590110e-04 -8.07088654e-05 -1.40375938e-04
      4.32080240e-04 -2.90426287e-05 -6.60625636e-04 -2.58413027e-04
      5.82202862e-04 -1.91556138e-03 2.01270893e-07 -1.27559135e-04
      -4.96018212e-04 -1.38895251e-04 1.68005936e-04 -1.13828733e-04
      3.85928142e-04 2.79754866e-04 1.39348587e-04 3.02021945e-04
      -1.94694818e-04 1.34807895e-04 -1.18823315e-04 -5.02138399e-04
      1.37381069e-03 -6.55437238e-04 5.40082285e-04 -2.70651828e-04
      -2.28880701e-04 -2.47765915e-04 -6.06379122e-04 1.88041048e-03
      -2.22599762e-03 -6.57957207e-05 5.41528105e-04 9.13641488e-05
      -1.04107452e-03 -6.22287916e-04 8.17522348e-04 2.38728695e-04
      5.96518279e-04 -3.59003752e-04 -4.82162941e-05 -2.68424419e-03
      -9.98636708e-04 6.90138491e-04 2.87563191e-04 -1.17362477e-03
      -1.22412434e-03 -8.02436844e-05 -2.51992285e-04 1.28019383e-04
      8.84078909e-04 -4.45314181e-05 -5.41043002e-04 1.24880089e-03
      5.03062212e-04 4.04976774e-04 -3.38305217e-05 -6.48518981e-05
      6.99159209e-05 -9.72056077e-05 4.19887474e-05 -1.33995973e-05
      -1.68673135e-03 -1.59849558e-04 1.17912517e-04 1.30378874e-04
      1.09160657e-03 1.42921963e-05 2.02349597e-03 2.43390197e-04
      2.51384074e-04 8.71350872e-04 2.33098879e-04 -8.40942783e-04
      5.98948100e-05 -3.93123082e-05 -5.95594502e-05 1.08417380e-03
      3.05172260e-04 -5.76763938e-04 -7.21546749e-05 3.39385180e-04
      1.93766115e-04 3.92514485e-05 -3.04923917e-04 -3.41065490e-04
      7.04334016e-05 -2.57062289e-04 6.93062393e-05 -9.93297203e-04
      -5.20026719e-04 2.56107829e-04 1.82099320e-05 3.90153669e-04
      -8.63655179e-04 4.48097271e-04 1.65698184e-05 6.79905352e-04
      1.87485141e-03 -1.47334751e-04 2.65914307e-04 -1.46553793e-03
      8.42048030e-04 -8.95967125e-04 -6.38374302e-04 -5.51920093e-04
      -1.11343653e-03 -6.08941889e-04 -2.38228659e-03 -5.04018681e-04
      -4.57136426e-04 1.50381966e-04 -4.37396026e-04 -9.04240529e-04
      -4.43733676e-04 -1.29202657e-04 9.57375916e-04 -8.58637504e-04
      3.19012324e-05 8.33427999e-04 2.53414510e-05 4.60555711e-05
      -6.21049185e-05 1.59825886e-05 1.06522301e-03 -4.24011407e-04
      -7.12780049e-04 -1.64738285e-05 2.33017927e-04 2.72679987e-04
      1.41601544e-03 2.18665431e-04 2.00251676e-03 -2.62347516e-04
      -2.61838693e-04 1.50709879e-03 2.51441757e-04 -1.03242428e-03
      -1.42018747e-04 -1.90682782e-04 1.30656292e-04 2.55285134e-03
      5.13618215e-05 6.76982163e-04 8.21820940e-05 -4.20103243e-05
      -1.21538920e-04 2.11945866e-04 2.83715664e-04 -4.10369859e-04
      2.88980169e-04 -1.76683906e-03 -6.43581909e-04 -3.72503884e-04
      7.56564405e-05 -2.12137340e-04 7.02561985e-04 1.22122408e-03
      1.63974590e-03 -1.14096585e-03 -2.85602116e-04 1.51882443e-04
      7.79019101e-05 3.49636772e-04 -4.87785583e-04 1.46850492e-04
      1.28933066e-03 1.96627714e-03 4.11302695e-04 4.05619940e-04
      2.57303996e-04 3.71524715e-04 -2.33639916e-03 -7.02216115e-04
      1.38469355e-03 -8.53782287e-04 -2.98059371e-04 4.09032131e-04
      -3.46267014e-04 -2.50930752e-04 -2.77309766e-04 -1.10621238e-03
      -9.15735145e-04 -5.98473234e-05 3.45513894e-04 8.48696654e-05
      3.41866253e-04 -1.35945747e-05 -7.55525136e-04 7.83705036e-04
      -4.68332815e-04 2.39649133e-04 1.72104526e-04 -5.48378557e-05
      -6.25117042e-04 1.56221067e-04 -1.56960334e-04 -1.13501679e-03
      -3.36759440e-05 -1.51808537e-03 7.99171321e-05 6.74880750e-04
      1.44199017e-04 1.96741210e-04 1.83284414e-04 1.55228609e-03
      4.69819934e-04 6.61771919e-04 1.86662492e-05 6.46843400e-05
      4.66697325e-04 1.57700721e-04 -1.74113138e-05 8.32730380e-04
      2.58992164e-04 9.89468419e-04 4.89943661e-04 9.24639404e-04
      -4.98697482e-05 4.54781257e-04 -3.65467393e-04 2.48819561e-05
      -2.83910893e-03 -6.24831533e-04 -4.37143317e-04 1.37012015e-04
      -1.92520372e-03 -5.58886153e-04 1.94612512e-04 1.12910196e-03
      -9.95918992e-04 -9.21650906e-04 3.20444349e-04 -5.45143499e-04
      1.06358132e-03 -1.51838205e-04 -1.51625383e-04 1.65112608e-03
      -5.57228050e-04 3.98094795e-04 3.51770141e-04 1.90065275e-05
      5.21265974e-05 5.48247248e-04 1.15697994e-03 2.72401189e-03
      -2.27772770e-03 5.24187271e-06 -1.59097603e-04 1.62111653e-04
      -1.26439874e-04 1.47227111e-04 2.44463998e-04 4.84543649e-04
      7.75006309e-04 2.83796078e-04 5.24930016e-04 -3.59248515e-04
      -9.99696786e-04 -1.58986048e-04 1.44331378e-03 -3.33342148e-04
      -5.63218957e-04 -4.28743573e-04 1.03751763e-05 -1.52865681e-03
      1.11900161e-04 -3.12254706e-05 -6.73116534e-04 1.45672553e-03
      2.23095722e-05 1.18613454e-04 -2.92179902e-05 3.20579740e-04
      -2.96000391e-04 -4.93912201e-04 -1.85191202e-05 4.95116867e-04
      -1.25903869e-03 -3.43776366e-04 2.04635013e-04 -1.86514703e-03
      -6.15264522e-04 5.38043205e-05 6.57164666e-04 6.49241207e-04
      1.34256424e-03 1.43349069e-04 -1.02111437e-04 -1.60437927e-03
      -5.04856929e-04 -7.13440008e-04 8.84926762e-04 -1.87599035e-05
      1.08244736e-03 1.47312414e-04 2.20063329e-03 4.21753153e-04
      -8.22766335e-04 -2.40605092e-04 -8.39391490e-04 2.01206468e-03
      1.20836438e-03 -7.20981392e-04 -2.70374876e-04 -3.86787840e-04
      -2.46859109e-03 -3.76883603e-04 2.19421624e-03 5.51036652e-03
      -6.61207596e-04 1.76312155e-04 3.24344117e-04 -4.77136549e-04
      -6.06368085e-05 -7.12229212e-06 -1.68414568e-04 -3.03661684e-04
      -6.44377549e-04 -1.48992751e-06 -1.44435799e-05 -2.30100777e-04
      -1.67371752e-03 -3.52681556e-04 -1.04157976e-03 -2.42658262e-03
      2.94558529e-04 -5.16762724e-04 -2.35564075e-04 -1.09357480e-03
      -5.78858126e-05 -3.08824907e-04 4.87236161e-04 -7.95856700e-04
      -3.23673186e-04 5.00906084e-04 -1.08746362e-05 1.94926979e-04
      6.00185362e-04 1.14640156e-04 -1.28315092e-04 -1.26578577e-03
      4.60180527e-05 1.48618140e-03 8.44983850e-04 -7.59580929e-04
      -2.90841679e-04 2.59623397e-04 1.30955526e-03 -1.93757250e-03
      2.23347032e-03 1.20235700e-03 4.37794311e-04 -5.31840022e-04
      -8.24056333e-04 -8.06223135e-04 2.58707791e-03 -3.80056188e-03
      1.32022740e-03 -2.21942319e-03 2.46019830e-04 -7.44239660e-04
      -8.13228427e-04 3.78217665e-04 4.39865194e-04 2.03779549e-03
      1.28867992e-04 -2.42822207e-04 -6.67655957e-04 2.20992355e-04
      1.94861658e-03 -4.46733786e-04 -1.30722285e-04 -7.81770330e-04
      -1.34388174e-04 -2.89191026e-04 -4.55982634e-04 -2.34126303e-04
      -1.69503219e-05 -5.83827896e-05 6.22058054e-04 -3.94709641e-04
      3.25277797e-04 1.10501940e-04 1.73877652e-05 2.52241007e-04
      -3.41880484e-04 1.81889904e-04 1.80429968e-04 -7.33933412e-04
      4.74591710e-04 7.97264511e-04 2.71068944e-04 8.77175553e-05
      -4.78907314e-04 1.32403977e-04 -3.20033345e-04 8.78773164e-04
      -4.05931532e-05 -3.92094546e-04 -9.49775495e-05 -3.63400002e-04
      -1.81012088e-04 4.80042218e-05 -1.01464007e-04 7.61682517e-04
      1.96814630e-03 2.30120798e-03 -5.60467597e-04 -1.40385306e-03
      -2.03730349e-04 4.78763453e-04 -3.12988326e-04 -1.69458368e-03
      -4.55111993e-04 -1.89780805e-03 2.16682965e-04 -9.12091273e-05
      1.75968721e-03 -4.70647385e-04 -6.36479468e-04 -1.80881732e-04
      1.94535474e-03 -8.04212003e-04 -5.20276430e-04 1.97176216e-03
      1.67948031e-03 -6.58898352e-05 9.11860901e-04 -3.38838762e-03
      -4.49963030e-04 3.80526530e-04 7.13920599e-05 -2.21859082e-04
      4.87889047e-04 -6.89763343e-04 -1.17879070e-03 -2.99330422e-04
      3.54462041e-04 7.81518902e-05 -3.76118260e-04 9.11218231e-05
      -1.09074812e-04 -2.40868958e-05 2.40886176e-04 -5.00788505e-04
      1.01693138e-03 -8.31987709e-05 2.33359984e-04 3.65900167e-04
      2.60814116e-03 -2.45561911e-04 1.89902401e-03 6.35480246e-05
      -3.50916118e-04 -9.60511505e-04 2.12528947e-04 -9.59863188e-04
      2.38696841e-04 -4.32853403e-06 -3.31975782e-04 3.51053284e-04
      4.37019880e-05 -2.73918908e-04 2.16506191e-06 -7.64010474e-05
      2.37255939e-04 9.98661126e-05 -3.36956786e-04 -2.49395125e-05
      -6.23002648e-04 7.33052497e-04 -4.60950308e-04 2.01160918e-04
      -4.47319908e-05 -1.53443252e-04 -4.30284650e-04 2.39323199e-04
      9.78760305e-04 4.19797361e-05 -7.19209085e-04 -1.05826324e-03
      -1.08568696e-03 2.22851901e-04 5.26291900e-04 -1.67579588e-03
      -4.19788965e-04 -6.91138339e-05 -2.21106427e-04 4.76625661e-04
      7.91849045e-04 8.95794074e-05 -8.34832535e-05 1.47340659e-04
      6.84164639e-04 -4.02029400e-04 -1.33291338e-04 4.38297400e-04
      6.73177492e-05 6.15563826e-04 2.33087642e-03 -1.69949629e-03
      1.05838303e-03 -1.39600539e-04 -4.44733741e-04 -2.30720063e-04
      2.76628009e-04 -3.53795731e-05 2.93430407e-04 -2.58498272e-04
      -5.85780712e-04 -1.92722873e-04 -4.92853287e-05 1.44671649e-04
      -1.70453586e-05 1.73821551e-04 -1.32670961e-04 2.41960399e-04
      1.12692374e-04 3.49880342e-04 1.50353691e-04 8.59080639e-04
      3.27829417e-04 3.13643031e-05 4.46276899e-05 6.67014392e-05
      -7.49043131e-04 -9.81251796e-05 -1.39479947e-04 7.36239872e-06
      4.81929077e-04 -7.80371265e-05 1.20716795e-04 -4.95032058e-04
      1.42886746e-03 1.50629014e-04 -7.03836777e-05 -3.52078001e-04
      -1.00148399e-03 -8.84035602e-04 -4.72105545e-04 1.43664176e-04
      -2.59739259e-04 1.20596599e-03 -3.36595665e-04 -4.23905469e-04
      -4.96459485e-04 -2.34434061e-04 -1.00287376e-03 -1.10361585e-03
      8.07264529e-04 7.17370072e-04 -1.21058698e-03 -5.31780533e-04
      5.16153057e-04 3.68932495e-04 -2.42622395e-04 6.39829959e-04
      4.30418469e-04 2.61929759e-04 7.16187700e-04 -1.83757264e-04
      -2.91247725e-05 3.91313486e-04 1.09847786e-03 4.26435407e-04
      4.15325107e-04 4.51825414e-04 -3.58431498e-05 -1.53800593e-05
      -5.40349807e-04 -4.83541553e-05 -1.65608057e-04 1.98176931e-04
      -1.04464183e-03 -1.41603523e-04 -2.69396114e-04 1.27146821e-04
      7.33319976e-05 -6.96958959e-05 1.35100796e-03 -4.26227489e-04
      -1.11499254e-03 1.55436690e-04 -4.77926747e-04 -3.10690695e-04
      2.83187313e-04 2.71118770e-04 -6.08174189e-04 -5.56358951e-04
      3.93644208e-04 1.27590494e-04 -1.04358849e-04 -3.30998009e-04
      3.27718531e-04 1.88680460e-05 9.29178146e-04 -9.32232360e-04
      -6.65755651e-04 -5.32814651e-04 1.34577946e-04 5.93377335e-04
      -7.97277607e-05 6.64193998e-04 -8.24117102e-04 8.04825628e-04
      -1.68072444e-03 -5.14496700e-04 2.08756770e-04 -2.47685413e-04
      -5.77384548e-04 -4.92375868e-04 -1.18943535e-04 1.22112909e-03
      1.46243256e-03 -4.87136393e-04 1.34589500e-03 -1.62243110e-03
      -1.54123351e-03 -7.12090521e-04 -1.02636521e-03 -4.63175646e-04
      1.85731566e-03 6.75113464e-04 -5.54052385e-05 1.20578610e-04
      -8.52979865e-05 6.41815423e-05 1.28809043e-05 9.30726819e-04
      1.52645865e-03 -3.61979153e-04 -4.09716449e-04 -1.76745409e-04
      3.14548612e-04 6.36648911e-05 6.15558471e-04 5.32411097e-04
      -1.67845178e-03 4.84880147e-05 4.17094212e-04 -2.22711992e-06
      -2.18179286e-03 7.78110098e-06 -1.03755516e-03 -3.29401460e-04
      -2.49252771e-04 -1.05324085e-03 -2.28967168e-04 1.06460403e-03
      9.44297644e-05 5.86697206e-05 4.58048198e-05 6.01005857e-04
      -5.25940151e-04 -6.40767030e-05 3.59290461e-05 2.05671997e-04
      -1.15021423e-04 -9.46188520e-05 -5.10150785e-05 -1.06426189e-03
      1.65553077e-03 -4.39956464e-04 -4.59079747e-04 2.86871043e-04
      -4.42773831e-04 -3.66467320e-05 3.25985544e-04 -1.17514934e-03
      1.11015874e-03 1.21642638e-03 5.17397304e-04 -3.11810989e-04
      8.80434818e-04 6.06897345e-04 -1.31496654e-05 -2.04979995e-04
      -2.41571083e-03 4.52551940e-05 1.94915873e-03 8.72240926e-04
      1.34187099e-03 -2.91614153e-04 -1.47305545e-03 1.07555627e-03
      1.52087887e-03 3.42458254e-04 7.17308198e-04 -4.18349344e-04
      -4.17568983e-04 -9.80943325e-04 1.60465646e-03 -2.20346818e-04
      1.86634003e-04 1.17602445e-04 -2.29690941e-05 1.46052073e-04
      1.13736991e-04 -4.49180698e-06 8.56198312e-04 3.81170161e-04
      1.59539725e-03 -4.66311321e-05 1.68197206e-04 -2.03146883e-05
      -3.39915138e-03 -4.02910926e-04 5.35047438e-04 6.30126160e-05
      8.90977506e-04 -1.06100563e-03 -3.01983877e-04 2.16054055e-03
      -5.40372625e-04 -8.50235592e-05 -7.10463355e-05 1.45077088e-03
      1.28600484e-04 3.87152890e-04 4.37886083e-05 -2.74754391e-04
      4.11217625e-05 1.73655208e-04 6.45020220e-04 -6.60242267e-06
      -1.28761423e-03 -1.20689347e-03 7.52500782e-05 -1.53856725e-03
      -1.45173166e-04 5.18120651e-04 2.40655485e-04 3.02720873e-04
      -2.40455451e-03 4.72836633e-04 -4.54240304e-04 6.43146748e-04
      2.94398924e-04 4.97913803e-04 -2.55418662e-03 -5.53027436e-04
      1.81257236e-03 -1.45447033e-03 -9.14125994e-05 -1.82818694e-04
      1.56773662e-04 2.32416307e-04 -7.23973499e-04 -1.00844295e-03
      -1.69542163e-05 -1.03442988e-03 4.43224053e-05 9.18637088e-05
      1.66959269e-03 -9.30740061e-05 -2.38493536e-04 -1.17085874e-03
      1.07322005e-03 1.86992591e-04 2.88945739e-04 2.71050783e-04
      -3.67046043e-04 1.29153432e-05 2.34615960e-04 -6.86645653e-05
      9.19490936e-04 -9.48401343e-04 2.60395085e-04 1.23594524e-04
      1.77583052e-03 -5.55648803e-05 3.74547992e-04 -2.09316961e-04
      -3.71181930e-04 8.30355741e-04 -1.58746479e-04 -3.37887293e-04
      5.35908748e-06 5.58278225e-05 -7.37304450e-04 -8.57767416e-04
      4.82737698e-04 -4.34251240e-04 1.14305352e-04 -2.39987887e-04
      -1.86292498e-04 2.98889820e-04 3.51549388e-05 7.74112181e-04
      -5.49804943e-04 3.07408365e-04 5.45106828e-04 1.22879268e-04
      -1.95747081e-04 1.44335412e-04 -6.77809760e-04 -9.50478832e-04
      -1.32301851e-04 -6.60832098e-04 -2.26673947e-04 4.21332516e-04
      5.55525126e-04 3.84534564e-04 -2.64772127e-04 3.87569162e-05
      2.62261392e-03 4.31925058e-04 -2.23248950e-04 9.60160571e-04
      -1.45906466e-04 -7.19437783e-04 4.75364301e-04 9.78677650e-04
      8.28056727e-05 6.62286940e-04 -1.84331348e-05 -2.47680669e-04
      -6.46897533e-04 3.17184677e-05 8.84067384e-04 3.53082753e-04
      1.10140420e-03 -2.29405541e-05 1.51180138e-04 1.84959848e-04
      8.26317319e-06 1.32947345e-04 -4.33608104e-04 -9.32385447e-04
      7.12130335e-04 -2.80608045e-04 -3.07410839e-04 1.98458642e-04
      -2.25013006e-03 7.49679981e-04 4.47687897e-04 -1.16493364e-04
      -3.73154209e-04 -1.63027114e-04 3.23701708e-04 -5.35446103e-04
      -1.93903252e-04 -1.60791984e-04 4.45931684e-04 -3.92233749e-04
      -9.83090024e-04 7.86181699e-05 -7.49225146e-05 -3.16211554e-05
      -3.10850271e-04 8.73582176e-05 5.20417409e-04 -1.47861603e-03
      1.84546795e-03 9.96250819e-05 -4.62766446e-04 3.40439205e-04
      2.63532245e-04 1.04968618e-04 3.29203933e-04 -1.52052287e-03
      2.26422868e-04 -4.57208283e-04 -1.56344307e-04 -3.93524591e-04
      -1.37366646e-03 9.30109236e-04 -5.81421133e-04 -7.76919129e-04
      2.03078162e-04 -2.12138682e-03 -3.56941076e-04 -1.10576884e-03
      -6.09007257e-05 -3.57024313e-04 1.25238427e-03 5.26485615e-04
      2.08903919e-03 -1.36434019e-03 -1.88956328e-04 2.05278993e-04
      6.65998261e-04 -1.32491099e-04 1.49276166e-03 -2.25579701e-04
      1.86300289e-03 -3.08517891e-04 -2.45320407e-04 -3.51992312e-05
      8.79276922e-05 -3.43227075e-05 1.57363844e-04 -8.62127563e-05
      1.79317128e-03 4.67446109e-04 -6.82642392e-04 3.41341714e-04
      1.19049987e-03 -1.49067811e-04 -6.17321988e-04 2.10239043e-04
      -9.34793090e-04 -2.69186171e-03 2.12355953e-04 -2.26208917e-03
      2.45747127e-04 2.53610888e-05 2.23910873e-04 -1.37626228e-03
      -4.31544777e-06 1.02819766e-04 7.48718230e-05 -1.18515025e-04
      2.31881466e-04 8.98855433e-05 -7.92465464e-04 -9.19361890e-04
      2.11867061e-03 2.59579218e-04 -1.01467979e-03 -1.35377969e-03
      7.96379245e-05 8.48286611e-04 4.98104549e-04 -2.25911336e-03
      1.20405899e-03 -1.43310914e-04 1.74813293e-04 8.13319231e-04
      1.76042737e-03 3.77879114e-05 2.72206729e-03 -2.32706335e-03
      2.09044199e-03 -3.79491015e-04 4.81865573e-04 7.31966924e-04
      8.09192134e-04 -4.17373885e-05 -1.60536217e-03 -1.67538156e-03
      -1.56964001e-03 1.28083304e-03 -7.59334944e-05 -4.12189227e-04
      1.06495409e-03 -4.81137744e-04 -1.36177486e-03 -1.60752679e-03
      -1.49703032e-04 -1.71897744e-04 1.67794511e-04 9.37352161e-05
      5.53132384e-04 -3.84883288e-06 -3.13073506e-05 -3.29917733e-04
      2.16528424e-03 3.22622451e-04 6.61871454e-05 7.93295912e-05
      2.27347668e-03 -4.43605153e-04 4.75537032e-04 3.14324978e-04
      -1.57024813e-04 -1.75206747e-04 -7.45429061e-05 2.07065744e-03
      1.26426312e-04 -4.71486746e-05 3.07149778e-04 -1.66775659e-04
      1.90142615e-04 -7.96068343e-04 1.26474726e-04 -3.61450220e-04
      -2.65340670e-04 -3.27697693e-04 -1.69019695e-04 -1.10655266e-03
      -2.20529572e-03 2.09591445e-03 3.47991416e-04 2.46133865e-03
      3.98785167e-04 -6.19293016e-04 -1.18364766e-03 -1.69501780e-03
      -9.80294310e-04 7.64032011e-04 -4.12467809e-04 2.47291173e-03
      -6.00199637e-05 6.93506619e-04 -2.22957740e-03 -1.65311317e-03
      3.65098822e-04 -1.82492181e-03 -5.11386024e-04 2.80651555e-04
      -8.76786362e-04 2.19372392e-04 -4.36421169e-06 1.85241736e-03
      -7.00723380e-04 -1.32593710e-03 -3.58415884e-04 6.20994397e-05
      1.19923928e-03 2.27343364e-04 -6.17616170e-04 -8.12496699e-04
      -9.69529618e-04 -4.51326981e-04 -4.92677907e-04 2.26116215e-04
      3.84768966e-04 -7.65869481e-06 7.22891244e-04 -2.60025467e-04
      4.95950826e-06 4.05840343e-04 7.48050952e-05 2.23887881e-04
      6.35883131e-04 -1.18962882e-04 5.29773475e-04 -5.93076285e-04
      2.06967365e-04 2.39561472e-04 -3.20303749e-04 3.82611208e-04
      2.47529038e-04 -1.69677893e-04 -9.57962402e-06 2.39392905e-03
      7.60603871e-05 9.26447974e-05 -1.05696534e-04 -4.00588848e-04
      5.37185879e-05 9.42914849e-05 1.21839030e-03 7.53539673e-04
      -1.34812354e-03 -9.17609723e-05 -1.94192689e-04 -9.26211360e-04
      -4.02594800e-04 4.47347877e-04 1.73323497e-05 -8.49341566e-04
      3.29398608e-04 -9.22417676e-04 -4.81132593e-05 -2.76998151e-04
      8.81609914e-04 8.49044882e-04 6.93804250e-05 2.23000854e-04
      1.06927811e-03 -3.30343260e-04 -1.08915905e-03 7.28635874e-04
      -2.24381249e-04 1.80304181e-04 -7.99160451e-04 5.24143543e-05
      -1.61711161e-03 -4.50226653e-04 7.54040811e-05 -1.20059973e-04
      2.36547273e-03 -3.12749326e-04 -9.62813443e-04 -1.43405620e-03
      2.40425928e-03 -6.96652394e-04 5.39542292e-04 1.30477638e-04
      -2.57977576e-04 9.91006236e-05 3.04904504e-04 -4.01572994e-04
      -1.38146128e-03 3.25509667e-04 5.08297759e-04 2.18150715e-04
      1.35769346e-03 -6.49283902e-05 -4.17922769e-04 6.14215736e-04
      6.03764893e-05 1.94787994e-04 2.92957760e-04 -1.39704673e-04
      -4.65380319e-04 2.86303693e-04 4.81460796e-04 -1.76727446e-03
      7.61635776e-04 -5.30645302e-05 -1.73641442e-04 2.13573847e-04
      -2.32092396e-04 -1.58565119e-04 3.61178187e-04 -3.72336508e-04
      -3.38826911e-04 -4.12429363e-04 5.97773062e-04 1.49164128e-03
      -7.64451033e-05 -8.00761278e-04 -1.60316320e-03 -1.30099303e-03
      9.23317275e-04 5.54374186e-04 1.12832255e-04 1.03385700e-03
      -3.16371916e-05 1.39485381e-03 -1.11913087e-03 -1.28561369e-04
      -1.80985560e-04 8.93955003e-04 -8.81753978e-04 1.44429086e-03
      3.49290814e-04 6.10274961e-04 -5.45700663e-04 1.19834964e-03
      -2.10236060e-03 6.72322116e-04 1.26952482e-05 2.22438393e-04
      8.57892792e-06 -5.61275927e-04 -4.45597252e-04 1.65280618e-03
      1.43176381e-04 -9.42987623e-04 5.34568622e-04 -4.47910774e-04
      -4.87806858e-04 1.42368835e-05 -6.51043301e-05 8.79981962e-04
      -6.85468025e-04 -4.14356618e-05 -2.29072990e-04 1.51348140e-04
      -7.04260485e-04 -3.36593541e-04 6.05225097e-04 -4.56379930e-04
      1.20596727e-04 8.40570603e-04 3.51188006e-04 -1.11630606e-03
      3.78001801e-04 -4.12696536e-05 -3.10350937e-04 9.57259617e-04
      1.44869855e-05 -5.17393462e-04 1.36734699e-04 -1.70770232e-04
      -8.39996428e-05 8.00303169e-05 -1.55458998e-04 5.68521151e-04
      -2.47492944e-03 7.08184147e-04 -5.25201496e-04 2.12775520e-03
      -6.80157857e-04 -9.31024901e-04 -7.80422473e-04 1.34374131e-03
      2.60470202e-04 4.37900890e-05 3.36705823e-04 1.72703352e-03
      -9.89801600e-04 -7.73862921e-05 -8.01467613e-05 -1.33929541e-03
      1.64109096e-03 -8.62181070e-04 1.63999957e-05 6.78696902e-04
      1.28245703e-03 5.66632370e-04 -5.87547605e-04 -1.61281822e-03
      1.13411486e-04 2.75510451e-04 5.76788734e-05 5.96478756e-04
      -4.48152365e-04 4.20918404e-05 -1.10075751e-03 1.28451618e-04
      -5.98230399e-04 1.48645267e-04 3.42820480e-04 -5.94818630e-05
      -3.84978222e-04 -1.68089653e-04 3.92197071e-05 -1.99765927e-04
      -7.77789915e-04 2.15309905e-04 -2.60594825e-04 -2.42725990e-04
      -1.41037628e-04 -2.42340830e-04 -6.35639066e-04 -1.13741111e-03
      7.64754659e-04 2.77458550e-03 3.08301329e-04 -7.53387925e-04
      4.68570797e-05 -1.06584434e-04 1.00924913e-03 2.10829065e-04
      -6.15816462e-05 3.37748643e-04 3.28488204e-06 2.49153709e-05
      -1.20175879e-04 7.07231811e-05 1.59437448e-04 -1.11029320e-03
      -2.87981355e-04 -7.31086084e-06 -6.50099304e-04 9.84030310e-04
      -2.13297739e-04 -3.29704373e-04 1.78243965e-04 6.87826541e-04
      8.49683944e-04 -6.19170198e-04 -2.46368116e-04 4.44938021e-04
      -1.68526662e-03 2.34514795e-04 9.61909303e-04 -5.45964867e-04
      2.25476502e-03 1.29359111e-03 6.66319029e-05 4.15023416e-04
      -1.45454344e-03 -3.79575911e-04 -1.16725988e-03 -1.24641659e-03
      5.52015554e-04 3.18315928e-04 2.58203072e-04 1.65975100e-04
      6.13989134e-04 -2.25923315e-04 -1.12871523e-03 -8.37931642e-04
      -8.93839751e-04 1.70343876e-04 -7.57691887e-05 1.87212616e-04
      7.99948641e-04 -9.48137967e-05 -5.79253319e-05 1.41072576e-03
      -1.44635094e-03 -6.08312257e-04 5.46309057e-05 -4.58841852e-04
      -1.33867655e-03 -2.16668690e-04 1.61232951e-03 1.83010800e-03
      -6.77052187e-04 -1.01504382e-03 1.50127991e-04 -7.02798890e-04
      2.65775288e-05 -1.21361154e-04 2.24368327e-04 4.39582189e-04
      -8.28044285e-05 -6.02341548e-04 8.01948136e-06 2.29302343e-04
      1.59229734e-04 -1.00706697e-04 2.21261333e-04 1.94008418e-04
      -1.51093444e-03 1.05308963e-03 -2.94423837e-04 -5.57119092e-05
      -1.12559763e-04 -6.37644029e-04 1.59984978e-03 1.45453447e-03
      -9.23059008e-04 4.06821957e-04 1.04180200e-03 -8.99213541e-04
      1.37875136e-03 -7.75220688e-04 1.17718603e-03 -1.62588165e-03
      -4.97080386e-04 -6.27731381e-04 -1.16689852e-03 -8.31510115e-04
      9.37077799e-04 -6.62797422e-04 1.43157609e-03 1.55540416e-03
      3.57123092e-04 -2.79152155e-04 3.62310209e-04 3.10364354e-04
      2.74136243e-03 1.16279931e-04 2.43619736e-03 1.85766560e-03
      8.82603053e-04 2.04593423e-04 -4.09049244e-04 -2.19828478e-04
      -1.10678766e-05 2.34882991e-05 -1.08284083e-04 -4.05674509e-04
      -6.92460890e-06 -2.06794095e-04 -2.63570655e-05 1.46500577e-04
      -9.63746221e-04 3.05033202e-04 2.10175687e-03 1.12777561e-04
      1.51916977e-03 -2.00573425e-03 -2.75060826e-04 -1.19834102e-03
      -7.76873931e-05 4.68880171e-04 -4.37842915e-04 1.07323669e-03
      -9.81083722e-04 -9.84723330e-04 9.31793602e-06 4.89789236e-04
      8.61207809e-05 1.94754597e-04 -9.47754525e-05 -5.60969871e-04
      -3.83357448e-03 7.14690483e-04 -2.76012317e-04 2.25871729e-04
      2.38679757e-04 1.05428233e-04 3.55611934e-04 -2.77502602e-03
      -2.11332386e-04 -2.21915994e-04 2.14227373e-04 -3.53296142e-04
      -8.17769032e-04 2.06960947e-03 6.52980816e-05 -2.18475913e-03
      6.35289529e-04 -8.74728721e-04 5.41638932e-04 8.89379764e-04
      6.45832857e-04 1.07245147e-03 -8.13986815e-04 1.71194575e-03
      1.70812593e-03 6.06408226e-04 4.26771003e-05 -9.75809962e-05
      -7.67872145e-04 -2.79132713e-04 -1.75789674e-03 5.14270971e-04
      -5.79588581e-04 -3.42894375e-04 -6.89370790e-04 3.67692352e-04
      -1.33147929e-04 6.08727132e-05 1.04128197e-03 2.56021158e-04
      4.14893206e-04 -3.61291633e-04 -1.37773546e-04 1.28990025e-04
      1.76614631e-04 -5.51738369e-04 1.15089456e-03 -1.29529653e-04
      -4.79039503e-04 -3.07088922e-04 2.32441918e-04 -1.41039630e-03
      -2.28103509e-05 1.27897976e-04 3.53294890e-04 -1.72650197e-03
      2.55965831e-04 -2.41476591e-04 5.00077767e-05 2.91077798e-04
      7.19153968e-06 2.75484545e-05 -2.56682601e-04 -5.93987294e-04
      -1.90292753e-03 -7.57553440e-04 4.11596382e-04 3.33851029e-04
      6.70489389e-04 -1.15044197e-04 -2.10491053e-04 -1.84696820e-03
      2.83230300e-04 1.87167345e-04 9.97541239e-04 -1.35368944e-04
      -5.23983617e-04 1.99403526e-04 2.13548611e-03 -4.82619042e-04
      -6.94206101e-04 3.87642591e-04 -1.22564525e-04 -1.67325907e-03
      -1.84759044e-03 -5.67787793e-04 3.40125029e-04 1.46120798e-03
      -9.10903793e-04 -4.92367602e-04 1.97970381e-04 -1.54087713e-04
      1.02286646e-03 2.12788495e-04 1.57875055e-03 -2.96859187e-03
      -9.69807967e-04 -2.77804415e-04 -1.88707618e-05 2.26837816e-04
      3.17732949e-04 -1.13274145e-05 3.45189095e-04 2.14019674e-04
      8.72488454e-05 -2.18477944e-04 -2.62152753e-04 -4.15116374e-04
      -1.30814093e-03 2.66516145e-04 2.19707304e-04 -7.59085407e-04
      -5.28815261e-04 -5.14752872e-04 9.80849611e-04 2.35281885e-03
      -1.81825031e-04 -3.03549197e-04 -5.90755837e-04 9.43748921e-04
      -9.86510859e-05 1.32100424e-04 -2.17620491e-05 -6.50304937e-05
      -2.74809245e-05 -3.41473788e-04 5.09083446e-04 -1.43399535e-04
      -1.15811790e-03 3.06286779e-03 3.11888842e-04 -7.22287688e-04
      2.89577642e-04 -8.49179632e-05 7.13202578e-04 1.46364770e-03
      -3.95739451e-04 1.04128453e-03 -1.58282361e-04 -1.08357963e-04
      -5.80584921e-04 5.04393247e-04 7.57749949e-04 -2.43889503e-04
      8.57933657e-04 1.05037959e-03 2.64632370e-04 4.22843295e-04
      5.73113386e-04 5.20351750e-04 -7.78090500e-04 7.07491534e-04
      -2.23737606e-03 2.27120705e-04 -3.59165657e-04 -6.42891609e-05
      -2.94977363e-04 1.17848896e-04 7.11825560e-04 1.12723478e-03
      1.24075694e-03 4.19051474e-04 -4.45150072e-04 4.10294218e-04
      5.23673370e-04 -2.55596406e-05 7.12114037e-04 -5.79417218e-04
      1.16441306e-03 5.75410435e-04 6.00862259e-04 -1.43150493e-04
      4.66302998e-04 1.48971769e-04 -1.55704177e-03 -5.72230783e-04
      1.31624879e-03 -3.28773225e-04 1.23843041e-04 -2.01561465e-03
      1.90985753e-04 1.46998009e-05 -2.95814534e-04 -1.77107938e-03
      -2.69834505e-04 -1.83680124e-04 1.46838109e-04 3.03722307e-04
      1.19228636e-04 2.13361491e-05 1.35046561e-04 -1.50366017e-04
      2.24026036e-04 6.72840397e-05 -5.15067542e-04 -3.07399052e-04
      -3.62709543e-04 -6.16986799e-05 -2.65392679e-04 -1.81835867e-03
      -7.10803841e-04 -1.15285651e-03 -3.16981284e-04 1.22069381e-04
      1.19451107e-03 5.32492239e-04 -3.52825329e-04 5.80746331e-04
      -9.93026188e-04 -1.10762485e-03 -1.74807722e-03 -8.38660111e-04
      1.72919699e-03 1.99899237e-04 5.25964890e-04 7.67344784e-04
      1.26571138e-03 8.39570712e-05 2.11326565e-04 2.76410283e-04
      -8.94628814e-04 2.47890537e-04 2.49319943e-04 -6.34487951e-04
      3.87350046e-05 -5.84303052e-05 -6.31927905e-05 -1.21039695e-04
      -3.41297447e-04 8.10597849e-05 7.10585504e-04 3.91191366e-04
      -8.06704338e-06 2.00280279e-04 -2.73769343e-04 -4.54950903e-04
      2.03597127e-03 6.73986433e-05 -9.40996979e-04 -1.20369380e-03
      -3.25681554e-04 3.46878171e-03 2.94060097e-04 1.05590596e-04
      -5.22678718e-04 1.11294094e-05 -3.60547449e-04 -5.54032507e-04
      -2.41018606e-05 3.35350807e-04 8.15887688e-05 3.35701188e-04
      -2.11461913e-04 -1.24265589e-05 3.97995784e-04 -8.01405520e-04
      8.16411339e-04 4.58437753e-05 3.23253596e-04 -5.64293237e-04
      2.36192238e-04 -7.37413880e-04 -4.52703156e-04 -1.25613366e-03
      -2.89343152e-05 -4.94846492e-04 1.74142449e-04 -1.61591289e-03
      3.79131874e-04 -1.05523318e-03 1.46858941e-03 1.14374387e-03
      4.74722678e-04 -1.46250275e-03 2.66005227e-04 -1.03063695e-03
      -1.56840251e-05 8.45716801e-04 3.65520827e-03 6.12134230e-04
      -2.15857040e-06 -4.13830538e-04 2.59603315e-04 9.68371096e-05
      1.30185985e-03 -4.67697464e-05 1.11563702e-03 -9.45510110e-04
      1.28868065e-04 2.76859122e-04 4.55858419e-04 -4.30460961e-04
      -2.27171360e-04 6.81578676e-05 1.24552753e-04 -3.68040841e-04
      4.05266444e-04 -6.89492008e-05 3.20928055e-04 1.10528425e-04
      -1.40747312e-03 3.41226638e-04 4.71333944e-04 3.83666513e-04
      1.76945468e-03 -1.48779189e-03 -7.91870349e-04 -7.89801357e-04
      -2.62850954e-04 1.83414391e-04 -2.50081997e-04 -1.80980889e-04
      -1.62734272e-04 -1.20840574e-04 -3.93534319e-05 -7.45984362e-05
      1.97582747e-04 1.36328948e-04 -8.10151323e-05 -5.49242686e-05
      3.44589062e-04 9.00218845e-04 -1.76994552e-04 -1.84738776e-04
      -6.91591296e-04 -3.01343807e-05 -6.52499031e-04 7.35521025e-04
      -1.22318743e-03 4.99173650e-04 -2.45098228e-04 -3.44454602e-04
      9.16454883e-04 -4.07560758e-04 -7.73284177e-04 -1.95213407e-03
      -1.39527058e-03 1.66243070e-03 -4.02378209e-04 -2.26780379e-04
      -1.15044029e-04 9.57276963e-04 4.99243499e-04 3.65703163e-04
      -9.97730298e-04 4.37013048e-04 4.21660261e-05 -4.65618970e-04
      1.19036704e-03 2.99119682e-04 -5.48509241e-04 1.94601540e-04
      9.80373705e-04 2.72830075e-04 -1.24785525e-04 2.13188163e-04
      8.17321707e-05 2.05239230e-05 -4.70293133e-04 1.96846784e-04
      -1.73336337e-03 2.01492861e-04 1.24515544e-04 -1.08289059e-05
      6.14381686e-04 4.51515603e-04 -6.38481171e-04 -2.72835343e-04
      -8.30816920e-04 -1.09082379e-03 -7.60744952e-05 -1.31913647e-03
      -7.15610258e-06 3.94126982e-05 -6.09598530e-04 1.27994141e-03
      6.57281606e-04 -5.45986753e-04 1.37797806e-05 1.01641534e-04
      1.06579091e-05 -2.22956543e-04 -6.18167833e-05 -9.96024581e-04
      1.56206812e-03 -1.19149860e-03 4.47963364e-04 2.20993956e-04
      5.48719312e-04 8.09799531e-05 -8.04949261e-04 3.09019495e-04
      1.55427016e-03 -7.22067372e-04 -7.42254371e-04 -1.58894423e-03
      2.42692680e-04 2.37325032e-04 1.15334359e-03 9.46611282e-04
      -2.52187648e-03 5.24735602e-04 -2.71861500e-04 -3.39417777e-04
      1.15721952e-03 9.49100067e-04 8.55543767e-04 -1.47227081e-03
      7.62457144e-04 -4.73981403e-04 -9.09274822e-05 -1.48649589e-04
      -1.28913054e-03 1.78346036e-05 -4.99094662e-04 9.91482288e-04
      5.79916523e-04 2.54455284e-04 -8.97470600e-05 4.96364082e-04
      -6.81893580e-05 -9.45687352e-05 -1.13541799e-04 -5.74991718e-05
      -1.13583577e-03 -3.33510747e-04 1.92511812e-04 1.82747317e-04
      -8.28434713e-04 -8.58201296e-04 4.04199614e-04 9.17448488e-04
      1.44617545e-04 -5.50186494e-04 -4.47172497e-04 1.85166893e-03
      -1.57013092e-05 -2.67970722e-06 -2.50055833e-04 1.20797590e-03
      2.19322043e-04 -6.77150019e-05 -3.30951411e-06 1.83643861e-04
      1.53799250e-04 3.65055166e-04 -1.05811057e-04 5.50921366e-04
      -2.01331149e-03 1.32790208e-03 1.91957792e-04 -1.48069381e-03
      2.50996236e-04 -3.93264607e-04 8.10519443e-04 5.66162169e-04
      1.80311894e-04 9.70554946e-04 -2.21120554e-05 3.03356472e-04
      1.69303079e-04 1.84622171e-04 5.16866858e-04 -2.39682104e-03
      3.34734679e-04 1.35369395e-04 -7.36092697e-05 1.06977415e-03
      2.10618382e-04 -3.90462548e-04 4.17988107e-04 -2.49105529e-03
      -6.60289254e-04 -2.90116208e-04 1.39005919e-04 -2.04153665e-04
      -1.88693847e-03 -3.62034596e-04 -4.84988937e-04 -6.42672021e-05
      -2.11065589e-03 2.59993947e-04 -9.25557033e-05 -2.30052581e-04
      3.67884859e-05 -1.15780596e-04 1.10776897e-03 2.73992744e-04
      3.13334953e-04 2.45838222e-04 1.92699008e-04 2.28925739e-04
      1.03084883e-03 2.33121798e-04 -2.37901695e-03 1.15748844e-03
      1.86478382e-03 1.29563315e-03 6.89958688e-04 1.85993034e-03
      2.31674130e-05 -4.11487825e-04 -8.10847196e-05 -7.39691837e-04
      4.83599979e-06 -1.44405363e-04 2.05293964e-05 1.20853525e-04
      -4.71454987e-05 -3.96978721e-05 -1.14345952e-04 9.14727512e-04
      -6.52566960e-04 -1.26114130e-04 1.31068722e-04 9.94456699e-04
      -1.47149913e-04 -3.80420417e-04 2.28229765e-04 -1.19741395e-04
      -6.88440108e-04 4.47510422e-04 1.49298605e-04 3.07823881e-04
      -2.96079263e-04 -1.43958809e-04 -9.52711780e-05 -3.77521239e-04
      1.27364299e-03 -9.51302354e-04 -1.44420785e-03 -1.53907447e-03
      -7.38762377e-04 1.29657157e-04 1.79864024e-03 -1.33005204e-03
      1.65329513e-03 2.73242767e-04 -1.71732521e-04 -2.89818301e-04
      1.28392552e-04 -3.58990874e-05 -6.66708802e-04 3.54108313e-04
      4.65912803e-04 -5.72942481e-05 2.41517686e-04 -3.79332138e-04
      2.35476225e-04 -6.93840266e-05 3.91810434e-04 2.76190665e-04
      -4.02218808e-04 -4.20695957e-04 3.33230710e-04 -5.01401548e-04
      1.80849282e-03 -3.25937232e-04 9.34388838e-04 -5.59770677e-04
      -9.54655232e-04 -3.08458955e-04 1.59870964e-04 -2.78483657e-03
      2.47369666e-04 -2.30836318e-04 -6.52259041e-04 1.49310054e-03
      -2.14191939e-04 -2.58527114e-04 1.95981193e-05 -1.20409022e-05
      -2.05989767e-04 1.24477428e-05 3.30226729e-04 9.49202280e-04
      -1.08297332e-03 -3.06580419e-04 -1.08022970e-04 -1.54042151e-03
      -6.78277458e-04 2.76997103e-04 -2.60025525e-04 7.63883698e-04
      1.33068347e-03 -1.83873833e-03 -1.53835979e-04 2.95260386e-03
      -3.53307900e-04 3.50835791e-04 1.17408068e-04 2.52534403e-03
      -1.32624374e-03 1.85487777e-04 1.03926752e-03 -1.01221155e-03
      5.96742961e-04 3.51129784e-05 4.22384561e-04 1.14148611e-03
      -5.01601782e-04 6.21659638e-05 -2.11004997e-04 1.18307573e-04
      -3.00908403e-04 3.49456299e-04 4.08801599e-04 1.36617618e-03
      5.78665116e-04 2.89424992e-04 7.45466095e-04 9.84900325e-05
      -5.12872881e-04 -2.46475156e-05 -2.05864082e-04 2.68213043e-04
      -9.85281222e-05 -9.27556448e-06 2.51075369e-04 1.63694393e-04
      1.53433916e-03 4.84357559e-04 9.22367733e-04 3.82371742e-04
      -8.09997728e-04 -7.01242883e-04 -6.56253193e-04 -2.65398441e-04
      1.21345307e-04 1.12134519e-04 3.26629961e-04 1.73760729e-03
      -1.15895964e-04 -3.54759715e-04 3.81335194e-05 8.24224389e-06
      -3.20410254e-05 -4.60429641e-04 -5.90259624e-05 8.99949635e-04
      -1.67959544e-03 -8.90909985e-04 1.95795277e-04 5.08348865e-04
      3.61029306e-05 -2.46740761e-04 -4.03595943e-04 -6.38686412e-04
      -1.09829905e-03 -8.09302786e-04 -2.83635076e-04 -6.88076077e-04
      -8.84855748e-04 -1.19897921e-03 -1.29981933e-03 2.35255458e-03
      -1.31627358e-03 -8.68861272e-04 -8.80086503e-04 -8.96974758e-04
      2.30431673e-04 2.54830200e-04 -1.07663880e-04 -5.07374469e-04
      -9.03673845e-06 -1.92719497e-04 5.06540062e-04 1.50717067e-04
      4.09620669e-04 -2.39292040e-05 -7.83199968e-04 -1.66612957e-03
      9.94863949e-05 2.38008099e-04 2.01658928e-04 -1.66805199e-04
      1.39732911e-05 -6.84455299e-05 5.10861806e-04 -7.35020585e-05
      9.34822892e-04 -4.45640035e-05 2.41771369e-04 -1.58154900e-04
      -3.83218611e-03 6.96890405e-04 -9.22921463e-04 1.83507474e-03
      -9.79125525e-06 1.02568942e-03 6.10487477e-04 1.01973035e-03
      3.04942630e-04 -1.77722060e-04 7.19260017e-04 4.45630394e-05
      -1.09539556e-04 -1.58159484e-04 5.62151145e-05 -3.67326429e-04
      -2.78894178e-04 -4.39421041e-04 -8.23782990e-04 9.18244987e-05
      -1.38208247e-03 8.31664889e-04 2.86612776e-04 9.26028180e-04
      3.72540788e-04 -1.23152364e-04 -2.39081070e-04 5.50775672e-04
      -1.02780708e-04 5.22149552e-04 2.71740399e-04 9.28704176e-05
      1.58115430e-03 5.18889516e-04 -1.27061061e-03 1.84934621e-03
      -2.34604999e-03 4.25881626e-05 1.08955184e-03 1.20456435e-03
      3.42461583e-03 3.64617823e-04 -1.78738777e-03 -4.68738348e-04
      8.81400367e-04 6.55710974e-05 7.28695304e-05 -2.19998896e-04
      1.65923178e-04 1.71473599e-04 -5.94972342e-04 -9.82019468e-04
      -6.90844463e-05 2.16266744e-05 -2.31944228e-04 -7.52913911e-05
      -4.24748840e-04 -1.69105057e-04 6.01205160e-04 3.10424773e-04
      1.27063133e-04 1.04315593e-04 -3.84459127e-04 4.48681734e-04
      -4.73775552e-04 -2.07215067e-04 2.37497711e-03 1.58192983e-04
      -3.75756936e-04 -1.31824391e-03 2.82656605e-04 -1.18339539e-03
      9.22177744e-04 -1.97744084e-04 3.56385397e-04 1.07862148e-03
      -1.74445217e-04 8.17082837e-05 5.27434640e-05 -1.39394295e-04
      -3.45014618e-04 2.30769991e-04 -5.07606193e-04 -8.44455848e-04
      1.27779844e-03 -1.32839230e-03 1.83485288e-04 1.35826864e-04
      -7.58096052e-04 2.75875384e-04 -7.09355110e-04 3.78118129e-04
      -2.96337157e-03 -8.65883252e-04 -1.08505155e-04 -2.49506044e-03
      1.45366788e-03 3.97247932e-04 4.69805294e-04 3.54295969e-03
      -9.32890034e-05 5.90027601e-04 1.17201847e-03 3.85162351e-03
      -1.44403602e-03 -3.44827276e-04 -1.49711501e-03 -8.63169262e-04
      -5.34875493e-04 1.69457882e-04 -9.00652260e-04 1.34595015e-04
      8.95564968e-04 1.09781657e-04 3.23472195e-04 -3.68295849e-04
      1.06902691e-04 2.54118549e-06 -2.25717959e-04 -2.56715372e-04
      5.52183228e-05 -3.85683743e-05 8.76834209e-04 -1.70540428e-04
      -1.92216085e-03 -2.23545881e-04 -2.65080802e-04 2.95008154e-04
      1.49729522e-03 1.37662981e-04 4.09532513e-04 -6.81278063e-04
      -2.24517449e-03 3.98243032e-03 -6.73573872e-04 2.72911554e-03
      -2.35827101e-04 6.19632774e-04 -5.91614225e-04 -4.02763922e-04
      -3.67971108e-04 -3.77105171e-05 4.04633378e-04 -1.33515950e-05
      -1.62958153e-04 7.05228667e-05 1.91878382e-04 5.00488386e-04
      6.32277166e-04 -5.19138586e-04 2.36851745e-04 -1.56451468e-04
      -1.53516768e-04 -4.52673616e-04 -1.38258474e-04 -6.48266112e-04
      7.47438520e-04 2.17662309e-04 -6.67136221e-04 -7.13526329e-04
      -3.65297892e-04 -2.28385860e-03 4.90435283e-04 -7.91966158e-04
      -2.28678947e-03 -4.40408272e-04 4.31489374e-04 3.19210580e-04
      9.12618474e-04 1.75515990e-04 2.97403079e-04 -2.05114295e-04
      1.15181284e-03 -3.55442717e-05 2.79734028e-04 -2.22588831e-04
      2.19292147e-03 1.16899282e-04 -1.62197917e-03 -8.30171484e-05
      -7.75094231e-05 1.34630463e-04 -3.71419097e-04 -2.47586086e-05
      2.71749683e-04 1.70620391e-04 5.96519094e-04 -1.23312464e-04
      1.48103968e-03 -3.69678630e-04 -1.27954307e-04 5.04871190e-04
      2.45651510e-03 1.48753215e-05 1.25901087e-03 -6.99482858e-04
      -6.26676891e-04 -3.72665148e-04 -7.56604859e-05 -7.52068649e-04
      1.35826893e-04 -1.67988968e-04 1.26591345e-04 -2.55999807e-03
      -3.83702805e-04 9.02535321e-05 2.94561702e-04 -2.63561378e-04
      -6.25675093e-05 1.74797489e-04 -2.52739759e-04 -2.01508775e-03
      -8.32448073e-04 -1.51667744e-03 3.15039128e-04 -1.69077452e-04
      8.60905217e-04 -5.36519918e-04 3.00219952e-04 1.52562570e-04
      1.02712272e-03 3.62938154e-05 5.39722532e-06 2.04145836e-04
      2.11511482e-03 -1.62083932e-04 -6.64168037e-04 -5.03019954e-04
      2.35340107e-04 -2.03575916e-03 -4.83082622e-05 1.29543862e-03
      9.67175001e-04 1.40773307e-04 2.47984353e-05 -2.99523957e-03
      2.00574961e-03 7.56698591e-06 1.83630909e-04 -1.23018210e-04
      -2.58794567e-03 -1.54202135e-04 3.46897985e-04 1.17565785e-03
      6.14679127e-04 3.06651520e-04 1.03105791e-04 -1.87815633e-04
      3.23429995e-04 -5.72544741e-05 -1.68559229e-04 -1.20690500e-04
      8.96726124e-05 -6.15713143e-05 1.40727134e-04 -2.06152559e-04
      7.57207163e-04 -7.06977953e-05 -2.43886636e-04 9.02184984e-04
      1.06967217e-03 -4.90924402e-04 -6.03339286e-04 -6.22073421e-04
      -1.64930621e-04 -2.22068906e-04 8.25892959e-04 -2.23237090e-04
      -1.64577883e-04 9.09527807e-05 -7.29343665e-05 -7.69650214e-05
      -1.31967599e-05 -3.61473940e-04 -4.33723646e-04 -4.31442604e-04
      1.48628058e-03 1.37137700e-04 7.39815994e-04 -5.83581976e-04
      -5.04093623e-06 -1.90247258e-04 -3.12735996e-04 1.14297715e-03
      -4.36720642e-04 -8.04414158e-04 -3.22716340e-04 -2.02170500e-04
      3.57432233e-04 5.39796951e-04 5.26894328e-05 -2.63718190e-04
      -8.02448310e-04 -6.59011188e-04 -1.45650015e-03 -1.61578879e-04
      -1.33388414e-04 -1.56250462e-04 -1.99892977e-03 1.01862929e-03
      -1.33673870e-03 -6.06149260e-04 2.94491445e-04 -1.66352795e-04
      2.98114121e-03 4.69653518e-04 -1.78710290e-03 -1.84485456e-04
      1.20649126e-03 8.24649251e-05 1.13920440e-04 1.39560085e-04
      7.62498181e-04 -1.57169541e-06 7.78048634e-05 2.73757440e-04
      7.00467790e-05 -3.19502346e-04 -2.91747419e-04 -1.52578883e-04
      7.21162884e-04 7.73326028e-04 5.52318350e-04 4.28808387e-04
      1.20447623e-03 -1.32310635e-03 -6.92893809e-04 2.89932219e-03
      -8.00611742e-05 3.23725137e-04 1.43366196e-04 -1.84323231e-03
      -1.25334293e-04 1.44964462e-04 -5.84006120e-05 5.35659165e-05
      -3.60312872e-04 2.22168528e-04 2.40928275e-04 -3.90839239e-04
      2.48064025e-04 2.65280693e-03 3.89426306e-04 -9.67107131e-04
      -6.05221605e-04 -8.56206680e-05 -6.13627606e-04 -3.27029265e-04
      -3.60087142e-04 1.39816117e-03 -7.95179767e-06 -3.15184065e-04
      -1.28914055e-03 -4.64337849e-04 -4.84751392e-04 7.21525983e-04
      2.04584235e-03 -5.45554096e-04 8.60028144e-04 5.69871336e-04
      2.28354969e-04 -2.44789291e-04 1.02571480e-03 7.31623964e-04
      -2.39858078e-03 -8.71219963e-05 1.80143019e-04 -1.88837221e-04
      -1.77290500e-03 -1.60281066e-04 -1.23980909e-03 3.26863897e-04
      -5.84488262e-05 2.30114340e-04 -8.09143273e-07 -4.18084179e-04
      5.26541844e-04 7.32447734e-05 -2.04154014e-04 -2.78873231e-05
      -1.08338916e-03 1.58828741e-04 -1.03534621e-04 -1.30038999e-04
      -1.05836743e-03 3.38812242e-04 9.52729824e-05 -1.06440144e-04
      -3.73960997e-04 5.23183495e-04 -8.07844743e-04 -1.20840908e-03
      7.20068965e-06 -7.16111244e-05 4.18056152e-04 -6.94841729e-05
      -1.12637463e-05 -1.14721886e-04 1.74776433e-05 2.86288559e-04
      4.76431451e-04 1.41900120e-04 4.41933080e-04 -2.49850709e-04
      -5.59262990e-04 -8.75548751e-04 -1.17285905e-04 1.33052689e-03
      -4.44780628e-04 1.50917855e-04 -8.50366778e-04 -1.19171548e-03
      1.59299598e-04 8.41807458e-04 -4.44698780e-05 1.19934266e-03
      -4.45977872e-04 5.85061207e-04 1.15665200e-03 2.13825074e-03
      -2.00188532e-03 -1.49406469e-03 -1.09357107e-03 -1.50986843e-05
      -7.78259302e-04 -5.00006659e-04 -1.42357009e-03 4.91130585e-03
      2.17056993e-04 -3.19652958e-04 1.41322438e-04 4.50181324e-05
      -8.55332997e-04 -5.39494795e-04 3.37967672e-03 3.58938647e-04
      -1.24507118e-03 -3.15294805e-04 -8.36591498e-05 -9.99376061e-05
      2.51529564e-04 5.26340636e-06 7.44389778e-04 1.24680155e-04
      -3.59500445e-05 -2.41090296e-04 -4.32462781e-04 2.29658144e-06
      5.06010780e-04 -1.84776418e-05 -2.11710087e-03 -8.60186119e-05
      -1.26968697e-03 1.85016007e-03 4.30257089e-04 7.36068236e-04
      1.19004369e-04 1.30835208e-04 -5.26864082e-04 1.24100619e-03
      -1.23382633e-04 1.44317266e-04 -6.69043584e-05 -6.08902628e-05
      2.69428681e-04 -3.20660911e-04 8.40519788e-05 5.58603031e-04
      2.53079430e-04 5.08885249e-04 2.11512554e-04 5.25258307e-04
      -6.08891540e-04 -2.12559426e-05 -6.30583148e-04 -9.13854339e-04
      1.99853777e-04 6.91211957e-04 -2.19794980e-04 6.67355780e-04
      -7.12290523e-04 1.70528761e-03 7.05260891e-06 -1.84965937e-03
      -8.02112685e-04 -2.94554804e-04 2.25554802e-03 -1.62058149e-03
      2.86627212e-04 -6.30659342e-04 1.88873254e-03 9.80373472e-04
      -7.21383200e-04 1.81957716e-04 8.20168570e-05 -6.50142320e-05
      6.94733462e-04 -1.26449173e-04 -7.51219159e-06 1.57852366e-03
      -2.83348281e-03 -1.44562669e-04 6.86272688e-05 -2.97526043e-04
      6.38295372e-04 -7.93576983e-05 -2.88583775e-04 -1.70446860e-04
      2.51918827e-05 -2.13831401e-04 5.44318988e-04 1.66737678e-04
      -9.60508652e-04 3.15989077e-04 1.25322747e-03 1.72998858e-04
      3.97587137e-04 -1.72579940e-03 -9.23218555e-04 -4.23350175e-05
      1.61113785e-04 -1.84815930e-04 -3.31348943e-04 -1.38602371e-03
      -9.87547392e-05 3.58143334e-05 -2.95173522e-05 4.11455985e-04
      -2.34840700e-04 -2.41123373e-04 1.85476310e-04 8.20395595e-04
      -7.28552230e-04 6.82162179e-04 2.62247369e-04 -1.37165844e-04
      -2.10271770e-04 -2.46909738e-04 6.87008898e-04 2.98516039e-04
      -1.74047163e-04 4.56438574e-04 -1.55291797e-04 7.51882268e-04
      -4.49861691e-04 -6.45360778e-05 3.88262939e-04 -5.12798688e-05
      -2.02616723e-03 -8.36448220e-04 -7.56659370e-04 2.31158847e-05
      2.06126529e-03 1.24956650e-05 -4.74869739e-04 8.99190898e-04
      -1.15664225e-04 9.04827539e-05 -1.83769473e-04 8.25945972e-05
      6.56699587e-04 1.86597947e-06 1.28987734e-03 -2.56947806e-05
      -2.37578759e-03 3.30776587e-04 -4.91340106e-05 9.29499802e-05
      4.78627830e-04 -9.76617594e-05 2.13586463e-04 -7.10893946e-04
      -1.36182178e-03 1.56041846e-04 -1.86772129e-04 8.03491712e-05
      -6.27780391e-04 -9.38940721e-05 1.05295691e-03 2.83547852e-04
      -2.31541321e-03 -1.62121444e-03 8.43084534e-04 1.49085151e-03
      3.33589996e-04 1.18809447e-04 -2.47980264e-04 6.05367008e-04
      1.31709050e-04 -1.25650913e-04 5.53933533e-05 -8.50872530e-05
      1.32187750e-04 -3.42334647e-06 8.75865808e-05 1.69960049e-03
      1.50800304e-04 -2.23107240e-03 6.74001232e-04 1.51760620e-03
      1.12708774e-03 2.72648438e-04 3.09724361e-04 1.48558116e-03
      -5.42709167e-05 -8.95928533e-04 -3.27191752e-04 -7.68615340e-04
      1.29245268e-03 3.20443505e-04 4.33376932e-04 -2.28945981e-03
      7.57309084e-04 4.46811377e-04 -1.27646665e-04 -6.97898649e-05
      -5.77569823e-04 -3.65486660e-04 1.32662465e-03 -7.20013122e-06
      -5.72700636e-04 -3.14207602e-04 3.06282027e-06 1.01821592e-04
      5.46713054e-05 -2.27804689e-04 9.34532436e-04 -1.37975824e-03
      2.56827776e-03 -1.16830324e-05 -3.62133636e-04 4.05585633e-05
      -1.04294435e-04 5.57219246e-05 2.21751572e-04 4.97466826e-04
      -2.72516336e-04 6.73655886e-05 -3.08610353e-04 -3.86692642e-04
      3.00405244e-03 -2.37742614e-04 -2.08694884e-03 -7.56933994e-04
      -1.05462561e-03 2.48043623e-04 -5.00863825e-05 3.64469917e-04
      3.17228347e-04 1.28499174e-04 8.06451309e-04 -4.07478568e-04
      -1.80455190e-05 4.17832634e-04 1.30684321e-05 -1.52474575e-04
      -5.17211483e-05 1.02231781e-04 -2.46874624e-05 6.11385985e-05
      -1.90987063e-04 5.47317439e-04 2.81537923e-05 9.59764526e-04
      -2.88389507e-04 -7.52887572e-04 -7.92070234e-04 -9.86031140e-04
      6.37196135e-05 1.81808567e-03 -3.44593805e-04 -1.36871869e-03
      -5.02729090e-04 3.41681007e-05 -6.89384120e-04 -1.45570288e-04
      -2.52386322e-03 1.78293569e-03 6.01912790e-04 5.08389785e-04
      -1.88627950e-04 1.47055718e-04 -1.22908480e-03 2.68564210e-04
      -1.71847513e-03 -4.46964405e-04 1.73628141e-04 -4.92176739e-04
      1.34010671e-03 1.04450475e-04 -2.96074955e-04 1.72968279e-03
      1.74336287e-03 -3.84804182e-04 3.85772844e-04 3.80939804e-04
      6.67626518e-05 -8.58023486e-05 8.65154376e-04 8.73834142e-05
      -7.73860491e-04 2.16503860e-04 -3.60147329e-04 -5.57862440e-05
      7.11425324e-04 1.75025718e-06 -7.35854323e-04 6.79050481e-06
      3.30541399e-04 -5.73345518e-04 -6.42424333e-04 -2.95118138e-04
      2.07412784e-04 1.63645760e-04 4.69678984e-04 1.23718160e-03
      6.64557505e-04 -2.06525583e-04 1.09524144e-05 -9.76069932e-05
      1.22330006e-04 1.54249312e-04 3.21470725e-04 -2.57587264e-04
      -6.39548874e-04 3.13880248e-03 1.88556776e-04 -1.59751042e-03
      3.18967184e-04 6.32811571e-04 5.24861643e-05 -1.49375375e-03
      -2.42121029e-03 -5.15044449e-05 1.84895383e-04 4.48188584e-05
      -6.48035319e-04 -5.20564965e-04 -2.71623110e-04 -3.58050107e-04
      2.56456574e-03 -2.78799067e-04 -9.44474654e-04 1.58955622e-03
      3.79868463e-04 1.02389189e-04 -1.70900440e-03 1.25291129e-03
      1.11100718e-03 1.30827568e-04 1.12839371e-04 2.40841546e-05
      -1.42447918e-03 -4.40690419e-05 1.41807436e-03 -2.81788176e-03
      9.52755508e-04 -2.30299876e-04 -4.29218926e-04 5.13584411e-04
      6.78658602e-04 -5.70780367e-06 -1.04658946e-03 -9.81423887e-04
      4.90292723e-06 -1.05741536e-04 -5.10158025e-05 -3.26649752e-04
      -5.80170599e-04 1.85555255e-04 -7.83093041e-04 9.75514195e-05
      -1.09369576e-03 2.64001836e-04 -1.96115492e-04 3.33548174e-04
      3.58751073e-04 1.28051193e-04 2.16512184e-04 -3.94285860e-04
      -2.98112282e-04 1.12222646e-04 3.12464290e-05 7.58647366e-05
      7.26042490e-05 -4.92706080e-04 7.32551620e-04 7.18097901e-04
      -1.56146020e-03 7.97411485e-04 -5.73288053e-05 -9.94418864e-04
      -3.64891865e-04 6.83226797e-04 9.60691308e-04 -1.10872228e-04
      2.34035379e-03 -2.22624489e-03 2.18341083e-04 9.40194353e-04
      1.31203647e-04 -5.34363033e-04 5.37628308e-04 -6.88520260e-04
      -1.11701351e-03 -6.95582887e-04 -4.80158109e-04 1.99346244e-03
      -3.51538823e-04 1.64838653e-04 1.80875300e-03 6.49147667e-04
      1.28474343e-03 -4.83749405e-04 7.29681051e-05 -5.96224330e-04
      1.19250920e-03 -4.25952312e-05 2.09650141e-03 -1.42317242e-03
      6.67226035e-04 5.21499314e-04 -3.89538123e-04 -2.88329262e-04
      5.24174364e-04 -6.38253623e-05 -7.33133464e-04 -1.26473969e-04
      -3.99684330e-04 1.92134059e-04 -6.31071962e-05 -1.81269366e-04
      -1.94338136e-04 -7.91117898e-04 1.87120610e-03 -7.52009568e-04
      -1.64125941e-03 4.55596135e-04 -6.44099026e-04 -4.88026039e-04
      -8.30719146e-05 3.51417868e-04 -3.11448646e-04 9.21908668e-06
      1.27352439e-04 -3.84158513e-04 1.35379960e-04 -5.36603475e-05
      4.16962517e-04 -3.35793418e-04 8.17774970e-04 8.14979838e-04
      1.08257623e-03 2.06613028e-03 2.90904631e-04 -3.86893959e-03
      -6.38568890e-04 -2.40405730e-04 -9.47480672e-04 7.47049751e-04
      2.19556806e-03 1.68325449e-03 1.01134836e-04 -8.86046982e-05
      -1.60543050e-03 -1.57963339e-04 -7.18367228e-04 -2.95432587e-03
      2.22557294e-03 -1.23716681e-03 -2.90418538e-04 1.17371674e-03
      4.53547633e-04 -2.47768068e-04 4.23593505e-04 5.94728801e-04
      5.36901643e-04 -2.57775246e-04 -3.14959558e-04 3.10223579e-04
      -1.72702817e-03 -1.77158217e-04 8.44213995e-04 7.10453780e-04
      6.83494785e-04 5.79430489e-04 -7.28554034e-04 -1.80824005e-04
      -4.76284011e-04 -2.97196839e-05 9.57307115e-04 -4.92173829e-04
      1.03061728e-03 -2.82637775e-04 9.09799637e-05 1.10967470e-04
      -2.76690954e-03 1.92270309e-04 8.03879811e-04 8.60545086e-04
      -4.47198894e-04 2.40544192e-04 -8.63879395e-04 -2.14063027e-03
      2.64261271e-05 4.33410518e-04 4.49439947e-04 -1.11848908e-03
      1.72474654e-04 3.16375925e-04 1.15421819e-04 9.91015040e-05
      -8.12926555e-06 1.34501752e-04 3.56733013e-04 1.14634633e-03
      -7.33127585e-04 -6.23957079e-04 -2.41210742e-04 1.87093858e-03
      2.00589770e-04 -9.84174781e-04 1.25512117e-04 1.41170959e-03
      1.84069431e-04 -2.04658238e-04 -2.07605408e-04 -2.86604697e-03
      -1.03610498e-03 -1.01473718e-03 1.20316213e-03 6.30125112e-04
      -1.72541291e-03 1.50734279e-03 -7.76369779e-05 -5.57330670e-04
      -1.89942730e-04 -3.11921438e-04 5.57274441e-04 -8.04886804e-04
      3.91842972e-04 -2.52592145e-04 -4.03305807e-04 2.40801266e-04
      1.58182171e-03 4.11558896e-04 -1.87597168e-03 1.62913383e-03
      -1.02372060e-03 -3.46904708e-04 6.18829043e-04 -9.53185372e-05
      -8.12800718e-04 1.32661044e-05 -2.19379843e-04 7.06851133e-05
      2.88633219e-05 -1.04822851e-04 -5.51773002e-04 3.99260462e-04
      -7.47673854e-04 -1.37089082e-04 2.62755831e-03 -3.95123316e-05
      -7.42784410e-04 -4.24711383e-04 1.61180657e-03 1.20725902e-03
      -8.82630338e-05 -1.02455087e-04 2.10620157e-04 -2.06879689e-03
      2.90310971e-04 7.76710804e-05 3.04248533e-06 -4.25112405e-04
      -3.85432941e-04 -2.63646962e-05 5.93572157e-04 1.24022504e-03
      -8.75492173e-04 -2.32179114e-03 5.25647134e-04 2.44377949e-03
      -1.50758482e-04 1.96188863e-04 -7.64922879e-04 1.06720719e-03
      6.24911627e-04 6.38738100e-04 5.30230864e-05 1.12956192e-03
      -2.14617467e-03 5.62819012e-04 -1.22657022e-03 -5.26994932e-04
      -2.06829421e-03 5.09518664e-04 -1.16285693e-04 8.32141523e-05
      -5.36547450e-05 -3.97644239e-04 9.04226385e-04 -2.75764993e-04
      -3.50639253e-04 4.68049344e-04 1.07673673e-04 1.08655120e-04
      2.21127775e-04 4.93927510e-04 -1.76426431e-03 -5.26484218e-04
      -4.66410565e-04 -4.84850079e-06 -3.19128390e-04 -1.98937749e-04
      -7.76317665e-06 -8.02149589e-05 7.30159882e-05 -6.31501665e-04
      6.07046124e-04 -6.56947168e-06 -3.07525188e-04 -2.69133714e-04
      -1.90964423e-03 4.68038888e-05 3.25615495e-03 1.83938548e-03
      1.48440842e-04 4.43017285e-04 -9.17066936e-05 -5.44239418e-04
      -1.10792171e-04 -2.01231451e-04 -1.63591118e-04 -3.14854993e-03
      3.63056133e-05 4.22417623e-04 -8.86221314e-05 -1.13943766e-04
      4.09041008e-04 -3.61269951e-04 -4.80360352e-04 -3.45529203e-04
      -8.90068332e-05 -9.19555023e-05 3.16116464e-04 1.46145921e-03
      6.31336530e-04 -2.16671397e-04 -4.25416685e-04 -4.20055818e-04
      -9.48707515e-04 1.90582313e-03 1.46720384e-04 7.43004726e-04
      1.31746999e-03 -7.70558021e-04 5.79154410e-04 1.08781073e-03
      -7.85871700e-04 1.17562292e-03 1.78447925e-03 1.93510205e-03
      1.74646720e-03 -1.63086137e-04 6.82790997e-04 2.11362424e-03
      -7.58311653e-04 -8.80292500e-05 -1.26509054e-04 -2.06563287e-04
      -2.68335012e-03 6.22673077e-04 -1.44510518e-03 2.05865968e-03
      -4.50702733e-04 1.93396088e-04 -1.53042682e-04 2.38413850e-04
      -3.09459952e-04 -1.07112122e-04 -6.82721729e-04 -2.32676510e-04
      3.71780450e-04 1.18145930e-04 -2.99013715e-04 -1.82390591e-04
      1.35457306e-03 8.57102496e-05 3.72100418e-04 -7.37813418e-04
      -9.92108951e-04 -3.03171459e-03 -1.22369151e-03 -5.45072136e-04
      1.37976342e-04 1.33106820e-04 -9.11120369e-05 -7.61475821e-04
      -2.51072081e-04 4.54227593e-05 2.38426328e-05 3.01376422e-04
      1.02534243e-04 -3.21427651e-04 1.78551854e-04 1.41998776e-03
      1.19912950e-03 -1.55179831e-03 1.42972116e-04 -5.97424805e-05
      -5.47891948e-04 3.63989529e-04 -5.22365794e-04 -5.66669449e-04
      5.24323026e-04 -1.07644347e-03 5.59950313e-05 -3.19037470e-04
      1.10563461e-03 2.42075475e-04 -1.09423406e-03 1.53716002e-03
      -1.90385629e-03 3.65334454e-05 1.01025228e-03 -3.45740264e-04
      -1.54882809e-03 -1.85777564e-04 1.27699086e-03 -1.94109845e-04
      -4.05007391e-04 1.04866616e-04 -2.00535178e-05 -7.26740909e-05
      -8.38480919e-05 -8.19788693e-05 1.00877415e-03 6.71177928e-04
      5.73443103e-05 -9.64253923e-05 2.95637728e-04 -5.69344447e-05
      6.16986608e-06 3.64566185e-05 -4.30453016e-04 2.86763006e-05
      -8.63111811e-04 -7.71182240e-05 -1.43816251e-05 -3.76602489e-04
      -4.29142150e-04 -3.45845066e-04 -4.09190776e-04 -1.45007484e-03
      3.65535467e-04 -2.60773988e-04 4.08218504e-04 2.06559990e-03
      4.19647869e-04 5.95159479e-04 -5.08105848e-04 -1.25730899e-03
      -3.58375104e-07 -2.59780878e-04 1.39580094e-04 -1.24435232e-04
      5.75266371e-04 2.09196602e-04 -1.92545485e-04 7.91187165e-04
      7.31112668e-04 1.58588577e-03 5.67243333e-05 -9.29193557e-05
      -4.71668900e-04 -3.55704215e-05 -1.03485328e-03 -8.04693962e-04
      1.31410384e-03 6.93169946e-04 1.40836361e-04 2.17179675e-03
      -1.36858074e-03 -1.34549628e-03 2.04128446e-03 -1.68894045e-03
      -7.29878084e-04 -1.16079545e-03 4.03582031e-04 7.85043085e-05
      -1.93292522e-04 -2.00460199e-04 -1.38669973e-03 1.41705677e-04
      1.98133508e-04 -2.93055200e-04 1.41053548e-04 8.17605978e-05
      1.98029121e-03 1.14602117e-04 -1.00332149e-03 1.77488045e-03
      -6.37138961e-04 -2.66166171e-04 1.33033420e-04 -3.16250703e-06
      3.04548506e-04 1.35377602e-04 -5.03312680e-04 -2.12792249e-04
      2.50562700e-03 -4.09910077e-04 5.57753781e-04 -3.09360803e-05
      -2.72150995e-04 6.31960756e-06 -4.62102529e-04 -4.05401021e-04
      6.87442895e-04 2.26109594e-04 1.44175965e-05 1.72138054e-04
      -2.41642105e-04 5.10775542e-04 2.13822510e-04 -5.47432806e-04
      -1.01487247e-04 -9.68981622e-05 -1.10030436e-04 3.60212434e-04
      -2.38680383e-04 -1.60400858e-04 5.76925486e-05 3.91305104e-04
      8.11227132e-04 -1.71124574e-03 -8.44553433e-05 2.34881020e-03
      -1.41068449e-04 -1.82379037e-04 -1.13990798e-03 -1.12177804e-03
      3.56146658e-04 -5.45735529e-04 2.66486430e-04 -6.07846945e-04
      -2.11909879e-03 -1.52210225e-04 -1.08860515e-03 3.58771929e-03
      3.05258145e-04 -3.30507959e-04 2.68597272e-04 7.33695342e-04
      -1.19533599e-03 -7.36136455e-04 1.00661255e-03 -1.83263910e-03
      7.97236920e-04 -1.47779749e-04 -2.40842055e-04 -3.17456230e-04
      1.20327249e-03 -1.76058733e-04 1.98129751e-03 -2.21124021e-04
      1.01030793e-03 -1.50907144e-04 -3.52308387e-04 -5.97261358e-04
      3.00426618e-04 2.49635214e-05 -1.25959805e-05 7.52437161e-04
      -1.32942630e-03 -8.00685724e-04 -3.41885956e-04 1.95585453e-05
      1.47194846e-03 -2.57456588e-04 -2.14675046e-03 -5.59003791e-04
      3.80004698e-04 -1.98467125e-04 3.27413181e-05 -2.02529685e-04
      1.81761076e-04 -2.10857601e-04 6.89340057e-04 1.56876958e-05
      2.39442277e-04 4.38826391e-04 1.05763982e-04 -1.11612906e-04
      2.64337810e-04 8.84188630e-05 1.20163750e-04 2.00403185e-04
      -6.90120680e-04 1.09198992e-03 3.72761773e-04 -8.27124750e-04
      -5.13329695e-04 3.41646897e-04 6.46823552e-04 -9.31862043e-04
      8.66773189e-04 -1.95439649e-03 4.11566609e-04 -9.57874581e-04
      -2.62370938e-03 1.01510552e-03 2.77012878e-04 3.31186317e-03
      3.32105294e-04 6.75002870e-04 -4.23364312e-04 -1.83516357e-04
      4.71173145e-04 -8.24546034e-04 1.50889647e-03 -6.28753449e-04
      -3.78282974e-04 9.86966304e-04 5.59684238e-04 1.29809065e-04
      4.31690103e-04 1.04971339e-04 1.69975078e-03 -1.52829348e-03
      -7.03128753e-04 4.14662150e-04 3.12858829e-05 -2.40867492e-04
      -1.46759616e-04 -7.75534281e-05 3.25551169e-04 -3.17671183e-05
      2.26327000e-04 -4.29730862e-04 -3.07960523e-04 -3.62900246e-05
      5.04940515e-04 2.12435712e-04 1.40411546e-04 1.04542778e-04
      -6.23550324e-04 -2.14441936e-03 -5.95125253e-04 1.30376720e-04
      -8.30371719e-05 -3.61701968e-05 -6.33434276e-04 1.73779274e-03
      -7.99440371e-04 -5.44507173e-04 -5.40920337e-06 2.87534622e-05
      -5.89730153e-05 5.45215968e-04 3.51953553e-04 -3.61370301e-04
      -2.48227594e-03 6.43326726e-04 8.98293729e-05 1.02194748e-03
      5.05458447e-04 3.72407143e-04 2.44263269e-04 -1.45439082e-03
      -5.90814452e-04 1.11394096e-03 -9.70301408e-05 -1.65657650e-04
      -9.82566969e-04 -6.03486784e-04 1.96783757e-03 5.89163974e-04
      -4.46561753e-04 2.03629117e-03 -4.68178419e-04 1.39485602e-03
      1.60956185e-03 -1.75656663e-04 -8.06032389e-04 1.09069480e-03
      -3.50681134e-04 -1.72795582e-04 2.45301373e-04 -1.08486038e-05
      -7.33872585e-04 1.40460441e-04 1.50366686e-03 1.70747784e-03
      -1.76050889e-04 2.62010784e-04 -2.73866171e-05 -1.27626045e-04
      -3.29963572e-04 -2.72988200e-05 -9.93579160e-05 -4.04549384e-04
      -1.29643746e-03 -4.08697786e-04 2.79535423e-04 9.02669344e-05
      2.62147631e-04 -4.61206509e-04 -3.87487863e-03 5.30492980e-04
      -1.72997732e-03 3.60322505e-04 -1.04402883e-04 -1.13692170e-03
      -2.02887328e-04 1.08856264e-04 3.63276813e-05 2.36779545e-03
      -5.96507789e-06 -4.30094369e-05 6.79605910e-06 -2.45403044e-06
      6.06478861e-05 7.28051455e-05 3.95539246e-04 -5.24337986e-04
      2.10026000e-03 -1.80931890e-03 -7.50547217e-04 -1.23012380e-03
      6.09776762e-04 1.48283187e-04 -1.35359517e-03 -9.35240241e-05
      3.03084101e-03 -1.32019236e-03 3.30052193e-04 -3.03590525e-04
      -3.34303972e-04 -1.19258766e-03 6.88293134e-04 1.06645958e-03
      -2.14561191e-03 1.24481332e-03 4.54319263e-04 3.73918389e-04
      -3.77972261e-04 -9.55560245e-05 9.91921406e-04 2.28076987e-03
      -4.83802840e-04 1.37318086e-04 1.63065910e-04 2.92994606e-04
      -7.76975881e-04 -9.90877015e-06 -2.50465050e-03 -1.25071476e-03
      1.05786754e-03 4.78800503e-04 2.72249541e-04 2.23317780e-04
      2.77372101e-06 1.07907086e-04 5.47104974e-05 -1.73623353e-04
      9.63658094e-05 -5.20778704e-04 1.12747635e-04 1.62045344e-05
      -8.27480515e-04 1.55607355e-04 6.57711935e-04 -2.54339393e-04
      3.21491010e-04 -6.21351413e-04 -1.08031463e-03 -3.64965689e-03
      2.60362169e-04 5.90555021e-04 8.51688310e-05 1.75127911e-03
      3.89924971e-04 -8.90604383e-07 -3.95534553e-05 -9.36536599e-05
      -7.19909323e-04 1.65193560e-04 9.95842784e-05 -8.56156053e-04
      3.98050761e-04 3.40217422e-03 -4.96744062e-04 2.46667350e-03
      -6.48378409e-05 3.69229499e-04 -7.77816313e-05 -2.45845784e-03
      9.43332678e-04 -1.62139814e-03 3.69631802e-04 1.02057657e-03
      5.69783966e-04 8.81385757e-04 -2.09716847e-03 3.95065435e-05
      -7.96148204e-04 -2.20651948e-03 -8.24429269e-04 -1.33329921e-03
      6.86290849e-04 4.88068676e-04 1.89960492e-03 4.21376200e-04
      -4.54199355e-04 6.89957233e-04 2.28721794e-04 -3.85472784e-04
      1.61939138e-03 -3.13324097e-04 -3.18607059e-03 -2.78350693e-04
      5.06901590e-04 1.66643455e-04 -3.99537475e-06 2.71196041e-04
      -1.53941131e-04 -3.15533944e-05 -6.29815913e-05 2.17212655e-05
      -5.64398128e-04 -4.47300096e-07 2.09759004e-04 9.45797001e-05
      9.87553038e-04 1.71456210e-04 4.06050858e-05 1.04416290e-03
      -4.51565924e-04 -1.98231210e-04 2.02857831e-04 -9.12377087e-04
      1.78924034e-04 -1.35507318e-04 2.09921418e-04 -1.09347235e-03
      4.49130675e-05 1.26592728e-04 3.73926523e-05 -1.28498810e-04
      -3.25921224e-04 1.30802928e-05 -7.02459292e-05 3.99129756e-04
      -1.14802923e-03 1.23859919e-03 1.46511709e-04 -1.25617266e-03
      -5.38351014e-04 1.13804410e-04 1.08907698e-03 6.95115479e-04
      2.67978525e-03 5.30347810e-04 1.62166718e-04 -6.98151765e-04
      -1.58302276e-03 1.52260531e-04 3.03134182e-03 -1.46513304e-03
      2.54335519e-05 5.16367436e-04 -9.16879915e-04 2.32541119e-03
      1.00802272e-05 5.38186054e-04 4.08105028e-04 -1.05961715e-03
      -2.30800943e-03 -1.43318888e-04 -7.16847484e-04 -3.26390698e-04
      3.86581698e-04 4.32226720e-04 -3.09721078e-03 1.60534470e-03
      -5.25841198e-04 -7.85621931e-04 -2.86445022e-04 -1.69706793e-04
      9.30696187e-05 1.38019677e-04 2.18088553e-05 -2.03290692e-05
      1.11966452e-03 -4.62844560e-04 -6.12248368e-06 -1.39897384e-05
      1.01057223e-04 2.67989002e-04 -1.47054787e-03 -5.97549588e-05
      -1.75816022e-05 8.13525112e-04 -8.13786028e-05 2.34523742e-03
      4.25171856e-05 -2.06812940e-04 -1.01587176e-03 1.78689067e-03
      8.29855970e-04 7.31635664e-05 1.34967733e-04 1.18666912e-05
      6.46446279e-05 -1.69763211e-04 -1.78479953e-04 -3.49175447e-04
      1.86409883e-03 -1.16668595e-03 -7.11984292e-04 1.48774148e-03
      6.88747023e-05 -2.77175597e-04 -3.34490091e-04 -1.17653946e-03
      1.81732199e-03 1.21153134e-03 -2.32472070e-04 7.75550143e-04
      -2.94159329e-03 -9.35558870e-04 5.29249897e-04 3.18658160e-04
      8.21670284e-04 8.39548535e-04 -5.22903923e-04 5.92658587e-04
      1.53755490e-03 2.20342059e-04 1.69903890e-03 -8.31946090e-04
      -1.49388483e-03 5.79498592e-04 -1.33057896e-04 -3.93711991e-04
      2.57044914e-03 3.91430047e-04 -6.76038559e-04 -2.52107304e-04
      -1.82393604e-04 5.25472336e-04 -2.52985512e-04 -1.22382553e-04
      -2.09361111e-04 3.18773491e-05 3.08524643e-04 -2.41375878e-04
      1.02088903e-03 1.50035950e-04 -2.94748548e-04 -1.14311297e-05
      -2.44261441e-03 -1.11191039e-04 -1.10881671e-03 6.96389106e-05
      -1.98936742e-03 2.07813969e-03 2.70872057e-04 6.02335494e-04
      -3.33316013e-04 -1.53563611e-04 -6.74170791e-04 2.19875551e-03
      2.58850690e-04 -4.07922140e-04 1.86368969e-04 -2.16018540e-04
      -2.32902981e-04 3.68167501e-04 2.15042339e-04 -3.53880052e-04
      1.91219244e-03 -2.30723619e-03 -1.55670477e-05 -1.57012546e-04
      -5.17559129e-05 -1.53013971e-04 3.63775653e-05 7.07920408e-04
      -1.54514622e-03 -8.14326806e-04 1.19228323e-04 9.95119568e-04
      -8.47581308e-04 8.75408354e-04 -7.75681037e-05 -2.57210736e-03
      -3.95056850e-05 -3.48596979e-04 -7.38880539e-04 1.45554834e-03
      1.10507593e-03 -1.45738712e-04 1.66061695e-03 -8.87880800e-04
      -5.54052123e-04 9.94414368e-05 -4.80402668e-04 -1.42104924e-04
      3.37687379e-04 5.23581330e-05 1.86752120e-03 1.16412435e-03
      -9.44428728e-04 -2.14745131e-04 6.10522809e-04 1.10724635e-04
      -1.21406323e-04 -1.69423831e-04 4.08689171e-04 3.88720451e-04
      9.23643878e-04 -2.87889678e-04 -1.24618207e-04 -2.89868738e-04
      -1.91442098e-03 6.80158439e-04 5.39740489e-04 -7.76046538e-04
      -1.63315819e-03 1.18578598e-03 -4.38568793e-04 1.52001609e-04
      -3.87337321e-04 -3.22016655e-04 1.65087215e-04 5.76937338e-04
      -1.78832750e-04 3.16034653e-04 0. -6.97744917e-06 -3.22532549e-04
      -1.58891999e-04 -2.31135404e-04 6.50578411e-04 8.09615769e-04
      -1.50334951e-03 1.93381013e-04 -8.00606853e-04 -1.61189455e-04
      3.29313152e-05 -5.77447761e-04 1.47549412e-03 3.03439389e-04
      -2.52561038e-03 3.04727379e-04 -1.28517364e-04 -4.27591760e-04
      -6.63864310e-04 -4.62502794e-05 1.12330180e-03 -2.08803196e-03
      -9.97928553e-04 2.15321733e-03 -4.48983890e-04 1.79066893e-03
      5.85936541e-05 2.45868112e-03 -2.61771143e-03 8.25751573e-04
      -3.36756384e-05 -3.05994938e-04 6.66252163e-05 3.39409010e-03
      -1.80143741e-06 -1.51459314e-03 -2.43049092e-03 -3.30482872e-04
      3.81145481e-04 2.06217839e-04 3.79209057e-04 -5.88972063e-04
      -7.67658348e-05 -3.14299803e-04 7.84603646e-04 -8.62539106e-04
      2.29453057e-04 3.30241310e-04 -4.85684199e-04 -2.33472005e-04
      1.07011991e-04 -9.02597851e-04 1.12368295e-03 -1.65958598e-03
      -1.10735353e-04 1.83744396e-05 2.88397609e-03 1.13335962e-04
      4.84304983e-05 -4.64912446e-04 -2.59418925e-03 -8.34713683e-06
      1.24152048e-05 1.03336744e-04 1.10685774e-04 1.70978572e-04
      -1.31859924e-04 4.08978776e-05 1.38347526e-03 1.45378028e-04
      -2.52105272e-03 2.92578741e-04 2.30511860e-03 2.25691489e-04
      3.60134640e-04 -7.65840523e-04 1.21954933e-03 -5.88888768e-04
      -1.09610753e-03 6.25841058e-05 9.64283536e-04 -5.52478305e-04
      -1.48560619e-03 7.58958486e-05 1.38731580e-03 1.86238973e-03
      -8.68926698e-04 -1.09966297e-03 -3.91754060e-04 2.52979342e-04
      -5.34186722e-04 2.84348673e-04 1.37900189e-03 -2.88528332e-04
      -4.88501450e-04 -2.30788010e-05 2.98160769e-04 3.92986898e-04
      2.18514397e-04 1.15187722e-03 -8.27208161e-04 2.13526801e-04
      -1.60402502e-04 -2.52131082e-04 -1.08591618e-03 2.26656950e-04
      4.99354828e-05 -4.83129930e-04 -4.42237186e-04 2.30866391e-03
      3.13049211e-04 2.93095625e-04 -4.33987967e-04 1.55405607e-03
      -1.46935243e-04 1.31248869e-03 -3.72058275e-04 -1.37042627e-03
      1.61705154e-03 1.41130615e-04 -3.16210766e-03 -3.89775174e-04
      3.60702652e-05 7.28413506e-05 -9.79998149e-04 -1.15674666e-04
      -6.09600575e-05 4.83137082e-05 -4.86777630e-04 -1.21672230e-04
      -6.52005692e-05 -3.00952408e-04 3.69846792e-04 -6.17006852e-04
      4.54415014e-04 6.91235298e-04 7.76191417e-04 -6.55659896e-05
      1.93257147e-05 -9.61211044e-05 2.52006197e-04 -1.59923977e-03
      -8.30376337e-07 -3.55884142e-04 -8.33710015e-04 -1.46934285e-03
      -1.19376078e-03 2.13442836e-03 2.45906436e-03 -7.23816280e-04
      9.22257896e-05 -7.59414048e-04 -2.83397530e-04 -1.82443333e-03
      -3.31089796e-05 1.18456164e-03 1.03389390e-03 -1.38139189e-03
      -7.45962490e-04 -1.65236561e-04 5.69415046e-04 2.54729600e-03
      -2.96663755e-04 4.96162684e-04 1.83838871e-04 1.76730764e-03
      -7.38377334e-04 -9.52291812e-05 -5.34089850e-05 -1.88861901e-04
      -1.68877450e-05 7.24966230e-05 5.87633331e-05 7.89506885e-04
      3.72030132e-04 3.52763658e-04 -1.29824562e-04 -4.22070181e-04
      -2.13896608e-04 9.42943007e-05 -2.32205773e-03 3.11634176e-05
      -8.78570136e-05 -6.81687161e-05 2.12316844e-03 -1.26644489e-04
      3.63984582e-05 -3.07094597e-04 5.27707394e-04 -3.46003450e-04
      3.02513683e-04 -9.89944692e-06 -1.21376324e-04 -3.62078456e-04
      2.59581630e-05 3.37213394e-04 1.18332333e-03 1.51070685e-03
      -2.84910575e-03 -3.42968793e-04 -2.44589034e-03 6.01679843e-04
      1.11020032e-04 1.19980396e-04 8.30350444e-04 1.14804413e-03
      -5.51812176e-04 -3.51375114e-04 -9.77686024e-04 1.59364240e-03
      6.09828334e-04 -2.05783872e-03 6.92583213e-04 -9.07081470e-04
      9.80420038e-04 -7.18552968e-04 1.99209759e-03 5.19028516e-04
      5.13602514e-04 -2.07582093e-03 1.64680229e-03 2.59358808e-03
      -2.54791841e-04 -6.62045029e-04 -6.29347982e-04 1.63731154e-03
      9.77409072e-05 -1.01932084e-04 -3.91565991e-04 6.38865749e-04
      -7.86345627e-04 6.87539650e-05 3.02719651e-04 -2.68402546e-05
      -7.27260922e-05 3.97599826e-04 6.21730069e-05 -2.38496391e-03
