<?xml version="1.0"?>
<opencv_storage>
<my_svm type_id="opencv-ml-svm">
  <svm_type>C_SVC</svm_type>
  <kernel><type>LINEAR</type></kernel>
  <C>1.0000000000000001e-01</C>
  <term_criteria><epsilon>2.2204460492503131e-16</epsilon>
    <iterations>1000</iterations></term_criteria>
  <var_all>16128</var_all>
  <var_count>16128</var_count>
  <class_count>2</class_count>
  <class_labels type_id="opencv-matrix">
    <rows>1</rows>
    <cols>2</cols>
    <dt>i</dt>
    <data>
      -1 1</data></class_labels>
  <sv_total>1</sv_total>
  <support_vectors>
    <_>
      6.72549068e-04 -2.29258396e-04 -7.07291649e-04 1.07964827e-03
      2.54702580e-04 -2.13173102e-04 -1.94716011e-03 -1.01003228e-04
      -3.36272089e-04 7.27568258e-05 8.07780962e-05 1.58728901e-04
      4.92081686e-04 1.86523233e-04 -4.35836671e-04 8.50081851e-04
      3.84433079e-04 -1.07970453e-04 -2.01210321e-04 4.07573185e-04
      -2.84717273e-04 2.36974774e-05 -5.48870536e-04 4.95594984e-04
      7.22219294e-04 1.10322053e-05 1.38266565e-04 -7.56191657e-05
      -1.45959915e-04 4.40448086e-04 -1.58278330e-03 2.95905164e-04
      -8.28057877e-04 -1.16825337e-03 -2.75449362e-04 -3.87481967e-04
      1.76432412e-04 -1.64880475e-04 1.60980431e-04 -1.29906251e-03
      8.48117561e-05 1.39379757e-04 8.32583391e-05 1.78419498e-06
      -1.60090160e-04 1.66974769e-05 1.83472759e-04 1.55800793e-04
      1.25170569e-04 -1.41446828e-04 -3.65109619e-04 1.64729645e-04
      4.29488602e-04 -1.92411862e-05 2.57850916e-04 4.24363941e-04
      9.35383316e-04 1.45559991e-03 -2.41117494e-04 9.10003320e-04
      -6.31567265e-04 6.05348498e-04 -1.02736673e-03 5.48673910e-04
      -2.39886402e-04 -1.56079055e-04 -1.72212766e-03 -1.25083840e-04
      2.83493369e-04 -4.57307498e-04 -1.32919068e-03 -1.20533141e-03
      -1.54165362e-04 -1.77773167e-04 2.70373392e-04 2.42580601e-04
      1.31981878e-03 5.60026092e-04 8.36405263e-04 -9.53469600e-04
      -1.57475809e-03 3.26224137e-04 -1.43804733e-04 -2.76961917e-04
      -3.88850400e-04 8.07765391e-05 -7.25756909e-05 -4.77566318e-05
      2.10752501e-03 4.12336580e-04 3.92917136e-05 8.00074922e-05
      8.01823859e-04 4.31894994e-04 2.80840031e-04 -7.63716962e-05
      -2.57396052e-04 -1.64772337e-05 -7.00902427e-04 1.43433968e-03
      2.13803112e-04 -7.28392799e-04 1.46370978e-04 1.99116315e-04
      1.95237910e-04 2.25025302e-04 7.23539488e-05 -1.47239261e-04
      -5.37668529e-05 -4.51004462e-06 4.04794409e-04 8.39861168e-04
      9.95015143e-04 -9.42855026e-04 -3.54374315e-05 5.21392736e-04
      1.61459422e-04 -2.48966942e-04 -3.62132414e-04 -1.83461560e-03
      9.63736966e-05 4.46686608e-04 4.89307917e-04 1.05817965e-03
      2.37057175e-04 8.75392056e-04 -1.45386066e-03 -7.97138317e-04
      1.66240716e-04 1.06539592e-04 2.09602440e-04 1.79445167e-04
      6.27106565e-05 3.52745032e-04 -2.47865729e-03 6.74710376e-04
      8.33411526e-04 2.09638092e-04 1.15243922e-04 2.44633382e-04
      2.80182081e-04 -1.48261650e-04 5.65386668e-04 2.70399149e-03
      5.10185026e-04 1.68268685e-04 -1.11212576e-04 -3.64842825e-04
      7.51637708e-05 -6.99054726e-05 1.22034013e-04 3.46503744e-04
      -1.28739397e-03 6.88378233e-04 -7.61230331e-05 3.57040612e-04
      -3.29313450e-04 1.12032380e-04 1.61409460e-03 8.72446108e-04
      -2.49983743e-03 -1.00848709e-04 -3.54358403e-04 1.59246544e-03
      -4.61579184e-04 2.31786471e-05 -1.07732334e-03 -1.46584678e-03
      1.89623839e-04 2.35828367e-04 9.32685725e-05 -5.39969415e-06
      4.94017549e-05 -2.05847129e-04 3.27640628e-05 1.89465558e-04
      -1.64792105e-03 5.78652718e-04 9.88573956e-05 -6.35639008e-04
      1.33716526e-06 -9.61018450e-05 -1.18101295e-03 -5.12253260e-04
      -9.71327419e-04 -1.54440536e-03 2.51290388e-04 2.37796685e-05
      3.68707173e-04 1.54519966e-03 1.53625151e-04 6.27337780e-04
      -2.90446379e-03 5.06270037e-04 -1.77530234e-03 1.48206681e-03
      2.59481254e-04 5.08043391e-04 -1.92283385e-03 1.78335491e-03
      5.24832052e-04 3.13721830e-04 3.75820091e-04 3.46978835e-04
      1.14305200e-04 7.09750457e-05 -4.51281579e-04 1.10292761e-03
      8.74618636e-05 -2.85810587e-04 5.44337789e-04 -7.80765695e-05
      -1.64059733e-04 2.14833053e-05 8.01831367e-04 1.59315896e-04
      1.78582355e-04 6.34682248e-04 -2.11323204e-04 2.95614154e-04
      -7.71259889e-04 4.16481664e-04 -1.01854384e-03 6.67505607e-04
      1.63267483e-03 -5.60340472e-04 1.51834814e-04 2.99558043e-04
      -1.96808760e-04 -8.40250286e-05 -7.91676226e-04 8.18113738e-04
      -5.28120399e-05 1.92914667e-04 -7.02730031e-05 4.41635930e-04
      -4.45483493e-05 4.27832601e-05 1.01282174e-04 1.09728577e-03
      1.83805838e-04 -1.96299469e-03 -1.01573227e-04 7.55455345e-04
      3.91901631e-05 2.81332817e-04 -2.81586824e-03 -7.51576794e-04
      -8.57565727e-04 4.70254919e-04 -2.39987567e-04 -5.08952071e-04
      3.45867622e-04 2.61740573e-03 -2.04409170e-03 -1.41945418e-06
      -2.68030562e-03 -6.73221191e-04 -7.10139691e-04 1.16462132e-03
      3.05683090e-04 -3.79589823e-04 1.26353872e-03 -1.02907442e-03
      7.48788530e-04 1.16566393e-04 8.98088838e-05 2.08104233e-04
      8.24571820e-04 9.26443172e-05 -1.40075033e-04 -1.33543988e-04
      9.53943701e-04 -1.60976328e-04 -4.00749006e-04 2.96595157e-04
      -3.85858584e-04 1.32916524e-04 6.29166607e-05 -1.92279636e-04
      -1.86024467e-03 -1.19244381e-04 6.42472121e-04 -1.05240208e-04
      5.33392653e-04 2.38825414e-05 -1.00435223e-03 3.74500814e-04
      -1.35368970e-03 8.67905619e-04 -1.01377908e-03 -7.70602317e-04
      3.77809862e-04 -5.35572995e-04 2.50124896e-04 2.32143502e-04
      1.68294682e-05 -1.44857826e-04 4.71032422e-07 1.05234142e-06
      -2.19315451e-04 2.42648632e-04 1.75278721e-04 4.19148942e-04
      1.95281859e-03 1.43722747e-03 -1.35720156e-05 -3.28869064e-05
      1.35159265e-04 3.92653863e-04 3.29153059e-04 -6.95322175e-04
      -3.49010545e-04 8.26519215e-04 -4.04052669e-04 -1.88083926e-04
      -5.54862258e-04 1.20804668e-03 1.10106252e-03 -1.55049830e-03
      3.37423000e-04 2.89229746e-03 -4.74470784e-04 1.00239258e-05
      -1.32742897e-03 5.07927383e-04 -2.14505359e-03 -2.54830084e-04
      -7.94868567e-04 1.33707203e-04 2.53826220e-05 -1.25421037e-04
      -9.43176274e-05 -1.62371161e-05 1.11584249e-03 2.50570185e-04
      -9.11981217e-04 -3.45911511e-04 3.16067075e-04 -1.03821649e-05
      -2.91554141e-04 1.06462314e-04 1.48000589e-04 2.77624320e-04
      5.76560378e-05 1.41348995e-04 -5.16686414e-04 3.57835757e-04
      -2.28158067e-04 -3.25426168e-04 9.60000558e-04 -4.49930230e-04
      2.93431425e-04 7.46084959e-04 5.17273264e-04 5.04930613e-05
      7.45312791e-05 -5.08299599e-05 3.25994915e-04 4.14413167e-04
      -3.56987031e-04 -1.68692990e-04 1.28742235e-04 1.82627628e-04
      1.05402498e-04 7.56315785e-05 1.92665611e-04 1.84049981e-03
      -1.19683472e-03 4.94300155e-04 5.45257681e-05 -1.70239698e-04
      -2.65883602e-04 -3.31894000e-04 -2.24285829e-03 -1.16387417e-03
      1.07215252e-03 -4.33452660e-04 -2.20720001e-04 -3.36393161e-04
      -6.83172257e-04 5.04372932e-04 3.62978462e-04 8.60199216e-04
      -1.07236311e-03 1.44972280e-03 -1.02427183e-03 1.03101414e-03
      3.31825315e-04 -1.46439852e-04 -3.83783574e-03 -3.12604207e-05
      -6.28631504e-04 5.63138397e-04 4.15345712e-04 3.33210512e-04
      -2.76517472e-04 1.52045308e-04 -1.88779624e-04 1.97033351e-03
      -1.25756068e-03 1.83009266e-04 -2.45024945e-04 -2.48693104e-04
      -6.51703231e-05 3.17684571e-05 2.55564577e-04 1.70732994e-04
      -2.76038598e-04 3.17996135e-04 -2.76473729e-04 -3.85852531e-04
      -1.93745806e-03 1.58933290e-05 1.32780254e-03 7.76227389e-04
      -1.98560243e-04 -1.60526554e-03 -2.94391648e-04 1.30425219e-03
      3.57255252e-04 -3.88740387e-04 -2.73324869e-04 2.72244972e-04
      6.59676953e-05 3.52287636e-04 -5.89670053e-05 2.76754552e-04
      -9.03183463e-05 -3.64773841e-05 4.06117542e-05 5.76212711e-04
      -1.18746515e-03 -9.77111282e-04 6.76817086e-04 8.24962335e-04
      -2.77744402e-04 3.46056331e-04 1.08457985e-03 -4.70680970e-04
      -1.67407282e-03 4.42249438e-04 -3.29087052e-04 4.78497212e-04
      6.66771608e-04 6.59202167e-04 2.70939083e-04 1.73928624e-03
      -2.51449179e-04 1.01538165e-03 -9.23843356e-04 2.30210531e-03
      -3.31506999e-05 4.34939255e-04 -2.13242741e-03 1.22446101e-03
      1.09833467e-03 -6.41513267e-04 -4.70766332e-04 -1.10818706e-04
      -2.41359900e-04 1.78048111e-04 -4.02375474e-04 -7.08904583e-04
      8.15693056e-04 -1.90820690e-04 -6.85602776e-04 3.82753409e-04
      2.80985172e-04 -3.13881901e-04 6.37185818e-04 -4.23167599e-04
      -5.79045562e-04 -1.07248219e-04 1.73377062e-04 -1.03537554e-04
      -1.69104221e-03 2.01021088e-04 -1.87266013e-03 3.24222958e-04
      1.65103434e-03 -3.66559194e-04 1.41294120e-04 -1.34695100e-03
      -8.31158031e-05 2.80298002e-04 1.07502055e-04 5.89609379e-04
      -9.31047325e-05 1.89757804e-04 9.95875089e-05 -4.12645240e-05
      4.77163776e-05 -5.95762758e-05 -2.24510659e-04 1.14803761e-03
      -1.58115092e-03 -1.78089249e-04 -3.08182120e-04 -4.45752492e-04
      7.82872448e-05 -3.50861781e-04 8.44002003e-04 -1.09904946e-03
      -3.23684741e-04 7.30827975e-04 -1.03647224e-04 4.19598655e-04
      -1.73166423e-04 1.15172972e-03 1.38042599e-03 7.34064728e-04
      -6.35499542e-04 -4.83319236e-05 3.75174510e-04 -2.42442096e-04
      -5.21895883e-04 -1.99648217e-04 -2.37496314e-03 -1.00292510e-03
      2.58981861e-04 2.95900274e-04 -8.28618704e-06 1.16472047e-05
      1.40358671e-03 1.84687175e-04 -2.56921136e-04 -5.75134298e-04
      -5.73812635e-04 2.66796444e-04 5.86374314e-04 -5.15981701e-05
      -5.76774066e-04 6.20884603e-05 5.59350010e-04 -1.16318108e-04
      1.02828408e-03 -1.98165639e-04 1.69948107e-04 -2.16534376e-04
      2.65951559e-04 -4.76736284e-04 9.92149813e-04 6.87988475e-04
      -4.28950530e-04 1.97143969e-03 3.37645906e-04 -3.42158106e-04
      -4.92496256e-05 1.66498474e-04 3.91150752e-05 4.36508650e-04
      5.11220424e-04 -2.19121692e-04 1.20018369e-04 -1.61064469e-04
      -1.14448078e-04 1.48656851e-04 3.27872025e-04 -1.67916995e-04
      -1.96104357e-03 4.01055702e-04 2.21006529e-04 -1.19896582e-03
      1.57763614e-04 -1.48311941e-04 -5.05310425e-04 -6.29702467e-04
      3.17323924e-04 6.05959794e-04 -2.06757381e-04 1.97883404e-04
      -1.26000354e-03 -2.66030023e-04 7.55929621e-04 1.87021447e-03
      7.09799700e-04 -5.21153386e-04 -1.01962744e-03 6.01827924e-04
      9.85582825e-04 -7.74245855e-05 4.58558090e-04 -6.00403699e-04
      3.89435503e-04 -4.86167643e-04 -7.24310521e-05 1.76428130e-05
      -3.93512513e-04 1.12201007e-04 7.19018281e-04 -2.31090802e-04
      3.74780502e-05 -6.16065925e-04 -3.22074120e-05 5.89077012e-04
      -7.86320015e-04 -3.86461397e-06 -2.31123573e-04 -2.15779219e-04
      1.02666637e-03 -8.15461681e-05 2.78202962e-04 3.47386987e-04
      3.94569142e-05 2.95165781e-04 1.95555313e-05 -3.26169014e-04
      -4.69939492e-04 1.31505891e-03 -2.15719891e-04 -2.85891409e-04
      7.33178109e-04 1.27127671e-04 -5.98881335e-04 1.88320957e-03
      5.84849695e-05 1.01267629e-04 1.12991656e-04 -4.96055836e-05
      6.79338118e-05 1.00020159e-04 -1.29483291e-04 2.79261061e-04
      -2.32001720e-03 -9.82574420e-05 9.66384425e-04 1.71112781e-03
      2.22520204e-04 -7.99490255e-04 -4.69034392e-04 -5.92806318e-04
      -4.66779398e-04 -7.30793108e-04 -3.06600377e-05 -5.71999000e-04
      -1.51880877e-03 -6.18799182e-04 1.95100103e-04 1.16113131e-03
      1.37209671e-03 1.92143125e-04 -1.15385687e-03 -1.88935734e-03
      -8.04135518e-04 1.12820184e-04 -1.07750064e-03 3.98648554e-04
      -7.91037513e-04 4.78573871e-04 6.59684010e-04 1.56583992e-04
      1.05430128e-03 4.55803471e-04 2.46014879e-05 1.44826469e-03
      -7.10306704e-05 -4.59214119e-04 -6.48118556e-04 -8.86722919e-05
      -2.14870510e-04 1.57275917e-05 2.79229513e-04 -2.77256345e-06
      4.50988853e-04 2.30823309e-04 -1.28500556e-04 2.45247036e-04
      -1.39579503e-03 1.49176092e-04 -1.47389306e-04 -8.10302328e-04
      -1.07423146e-03 4.04299208e-04 5.63078444e-04 4.51040163e-04
      -2.62455520e-04 -4.37715731e-04 -4.54629830e-04 -1.85371761e-03
      1.82860909e-04 3.18068924e-04 8.10707425e-05 1.49737689e-05
      1.24400991e-04 1.40310920e-04 3.72637674e-04 2.03067670e-03
      4.47312195e-04 -7.49933475e-04 -5.13587183e-05 -1.44588319e-03
      1.74181710e-04 2.79545406e-04 3.47458088e-04 7.19882664e-04
      -1.58075895e-03 7.28533894e-04 1.74403816e-04 6.86718093e-04
      -2.41345755e-04 8.59430758e-04 8.64821195e-04 1.44163816e-04
      -4.16700525e-04 1.04015111e-03 -3.35619872e-04 -2.56508845e-03
      -1.55449880e-03 -4.22663521e-04 2.69193988e-05 1.96286617e-03
      9.83966282e-04 1.81504001e-04 -2.35932195e-04 -2.58509506e-04
      1.52560917e-03 -5.01363829e-04 1.85797154e-03 -2.29878089e-04
      -7.44046265e-05 -5.78938576e-04 1.99378992e-04 -3.82791623e-04
      -2.85770249e-04 -3.34109136e-05 4.65908553e-04 1.42389894e-04
      2.96140988e-05 2.23333041e-06 3.21279003e-05 -4.44799989e-05
      4.29948675e-04 3.47322872e-04 -1.27422996e-03 -1.02115539e-03
      2.75852053e-05 -1.23393477e-03 1.86911362e-04 -1.07240817e-03
      -3.45024280e-04 -3.75725969e-04 8.93520948e-04 6.53551775e-04
      1.90188191e-04 -1.07525149e-04 -5.83975161e-05 -1.10862384e-04
      2.58541113e-04 -4.42706150e-05 -5.50584693e-04 5.68048563e-04
      -3.08432005e-04 5.81511122e-04 -6.97386393e-04 -4.99392394e-04
      2.95641366e-04 4.57380986e-04 -7.19812931e-04 -1.24422868e-03
      7.88143487e-04 1.23777869e-03 -4.35151014e-04 5.16629079e-04
      -6.33061456e-04 3.08991387e-03 -1.41013262e-03 1.08850969e-03
      -1.49940269e-03 -1.30184728e-03 -6.45107822e-04 2.48475373e-03
      2.87723145e-04 1.61067990e-04 -2.94635142e-03 -3.67140397e-04
      5.62416972e-04 -5.64386282e-05 4.04528619e-05 -1.07440253e-04
      -2.08344267e-04 -4.09338012e-04 -4.42451565e-04 8.51176097e-04
      -5.51923935e-04 -2.78854248e-04 -4.23212274e-04 -3.70537819e-05
      -7.18205229e-07 -1.46392325e-04 -9.96311719e-05 -3.05904105e-04
      1.24225183e-03 2.61824258e-04 -6.59912403e-05 3.38459322e-05
      1.74697244e-03 2.42952112e-04 5.37563581e-04 1.74596999e-03
      2.47393764e-04 1.16488105e-03 2.37491055e-04 1.19362288e-04
      -2.99510648e-05 -4.56190668e-04 -6.91877271e-04 1.73771300e-03
      -1.05486317e-04 2.30884936e-04 -2.43296890e-05 4.38499730e-04
      2.60921573e-04 6.16047328e-05 -5.74417762e-04 5.81490865e-04
      3.75954987e-04 4.18118259e-04 -5.34347841e-04 -4.84427786e-04
      -8.36312014e-04 -1.21842510e-04 -9.34918527e-04 -4.48697159e-04
      -1.21496653e-03 7.04423815e-04 2.88509298e-04 9.04804619e-04
      -3.00567888e-04 -3.32958007e-04 -1.72765541e-03 7.41465425e-04
      -1.52238485e-04 -4.11295448e-04 1.68642888e-04 1.92840770e-03
      -1.00831862e-03 3.30325332e-04 -2.12117843e-03 4.57218557e-04
      -9.91284847e-04 -1.87706872e-04 2.35531406e-05 -4.60160692e-04
      1.55537785e-03 -2.36558088e-04 1.05954532e-03 -6.78350392e-04
      -5.68887226e-05 -9.05740890e-05 -7.99533911e-04 -1.63703706e-04
      -8.65584181e-04 -5.31234509e-05 -8.98841608e-06 -3.30661132e-05
      -1.60872145e-03 -4.66377998e-04 -1.97107220e-04 1.56997994e-04
      8.05736694e-04 5.73952100e-04 1.10978656e-03 1.64905586e-03
      -7.46232807e-04 3.06348775e-05 -3.71731643e-04 -9.59429948e-04
      -3.14509925e-05 4.94924374e-04 -4.84057411e-04 1.03157642e-03
      3.18166713e-04 1.03114609e-04 4.40130789e-05 4.45451587e-04
      4.18654119e-04 1.90526498e-05 4.29150357e-04 6.32303199e-05
      -2.45977519e-03 -5.59212349e-04 2.12475687e-04 2.38992216e-04
      4.11525834e-04 -2.13101612e-05 -3.99054552e-04 3.65526706e-04
      4.64682555e-04 1.43497332e-03 -6.21802814e-04 2.27606346e-04
      1.63396151e-04 -7.46519829e-04 -9.86891100e-04 2.24248203e-03
      -2.11230805e-03 -8.81430678e-05 9.42057872e-04 -1.01850624e-03
      -1.77024936e-04 -1.22153178e-05 -7.89328187e-04 -9.20976861e-04
      -2.23597139e-03 -4.12068010e-04 -1.03439917e-04 -8.84059500e-06
      -2.32951745e-04 -7.88086982e-05 1.06117444e-03 -2.57471314e-04
      -9.35999211e-04 -9.86335072e-05 -1.57722723e-04 2.12051273e-05
      -4.56959329e-04 1.17809650e-05 -3.52161238e-04 -2.69216020e-04
      4.67468111e-04 3.07065966e-05 -8.28225893e-05 9.62331906e-05
      2.67349905e-03 -2.21187074e-04 -1.33639871e-04 -2.72234553e-04
      -5.16617089e-04 2.34874868e-04 -4.49237668e-05 1.38339575e-03
      -2.05477016e-04 -1.44926787e-04 -5.04676253e-04 6.35156583e-04
      5.48262848e-04 1.44653832e-05 1.69569867e-05 9.03750697e-05
      -1.60400188e-04 -1.07811909e-04 -6.26460678e-05 1.76576944e-03
      -1.93083630e-04 -2.69652985e-04 4.14533715e-04 -2.32752282e-04
      -9.75087532e-05 -3.06104106e-04 -3.05255853e-05 -1.52835244e-04
      1.53841247e-05 6.91187975e-04 -1.15905437e-04 8.45887465e-04
      8.39691958e-04 6.37195655e-04 6.05677895e-04 5.31536178e-04
      -3.87011736e-04 5.81828121e-04 1.24248338e-03 3.93869908e-04
      2.98279883e-05 -1.62531825e-04 -1.49319379e-03 -9.68748878e-04
      2.37194216e-03 2.90388871e-05 6.33529911e-04 -4.25239959e-05
      -7.14627618e-04 -8.41780566e-05 -8.34251521e-04 1.37820898e-03
      -1.22935069e-03 5.03357907e-04 -1.19865610e-04 -3.86410247e-04
      -4.40428645e-04 -6.07772454e-05 2.26450618e-04 1.65037345e-04
      1.77629711e-03 2.35185769e-04 1.90567342e-04 -2.67596391e-04
      -1.42340071e-03 -2.30827529e-04 -9.88698215e-04 3.68400448e-04
      2.53209029e-04 -4.74660512e-04 -2.69559328e-04 -2.16087233e-03
      -4.26943356e-04 2.91643111e-04 -1.79016773e-04 2.70646589e-04
      -8.58205094e-05 1.01035585e-04 -5.76805724e-05 8.19436173e-05
      -6.76151540e-05 6.41416176e-04 1.68176266e-04 1.67416781e-03
      -4.97240871e-05 -1.48277823e-03 4.53656743e-04 -1.54018542e-03
      1.02922502e-04 9.50773319e-05 1.06318788e-04 1.95708111e-04
      2.27551069e-03 -5.89341100e-04 -5.88142175e-05 3.67815868e-04
      -8.81061351e-05 -6.78380951e-04 9.91296256e-04 -1.52649009e-04
      -5.06565324e-04 3.72595794e-04 -3.44493281e-04 -6.58432764e-05
      -8.98096478e-04 -1.56849637e-04 -1.23877754e-03 7.54165987e-04
      1.28981730e-04 2.99132022e-04 4.41329961e-04 4.45293874e-04
      2.57887557e-04 1.22457714e-04 1.10218891e-04 1.12155534e-03
      1.09234371e-03 3.25697270e-04 2.46711046e-04 -4.03264625e-04
      -2.64477625e-04 -6.85509658e-05 -6.33441785e-04 -4.27378283e-04
      1.99637856e-04 -2.04772179e-04 2.51163088e-04 3.95130948e-04
      3.17952654e-04 5.87078357e-05 2.24054023e-03 -5.32286882e-04
      -8.46763782e-04 1.77654054e-03 -5.88369963e-04 -4.36687283e-03
      -8.46793642e-04 -4.63718898e-04 5.62485402e-05 7.10482767e-04
      -1.24189493e-04 -6.72707902e-05 -1.97212212e-05 -1.74195258e-04
      -2.53192760e-04 -6.47457491e-05 -2.25057229e-04 -9.88680404e-05
      -9.13371390e-04 3.05598223e-04 -1.13630604e-05 -9.09782131e-04
      -9.09426075e-04 1.55568545e-04 -5.20658796e-04 -3.80593032e-04
      -1.73583350e-04 1.50288455e-03 -3.77985125e-04 1.37730583e-03
      2.80661130e-04 8.70946911e-04 1.18916629e-04 1.74466334e-03
      -1.75366132e-03 1.61096337e-03 1.20691734e-03 -7.59462535e-04
      -3.91979644e-04 -2.67868268e-06 -3.64881016e-05 6.23658998e-05
      1.45563856e-03 -2.63602065e-04 -5.68007927e-05 5.79742657e-04
      -6.10599644e-04 1.07374661e-04 -5.07040531e-05 -8.68743111e-04
      -1.51750760e-03 1.56792608e-04 1.31763634e-04 -5.04818599e-05
      -2.92792392e-04 2.37948523e-04 -9.36042983e-04 -3.52473326e-05
      2.52506812e-03 -2.16186410e-04 -1.33070469e-04 5.94631885e-04
      -3.57418088e-04 3.16010264e-04 1.13001668e-04 -1.65221863e-03
      -1.11038203e-03 9.58343502e-04 -1.48266379e-04 -4.62504657e-04
      -3.74119292e-04 3.20402556e-04 -6.82802056e-05 1.04509084e-03
      5.27697208e-04 -2.89058135e-05 3.00736956e-05 -7.15959002e-04
      2.12746061e-04 3.48059111e-04 -2.90034368e-04 2.38345563e-03
      3.25731235e-04 -1.60563097e-03 -6.76136115e-04 -1.26998080e-03
      7.66084704e-04 -3.31224903e-04 8.29366672e-06 -2.48720666e-04
      6.14854565e-04 -6.89378416e-04 -4.27277933e-04 6.25729008e-05
      -1.41025835e-03 4.60515206e-04 2.71155010e-03 -3.09445531e-05
      3.43367778e-04 8.09925783e-04 4.41376433e-05 -8.10517464e-04
      -2.84099020e-04 -2.88281793e-04 -1.04118674e-03 -1.30805594e-03
      4.43824509e-04 -8.36433959e-04 6.25015819e-04 -1.25726670e-04
      -5.34177176e-04 -4.68856888e-06 1.23134861e-03 -6.50406073e-05
      -3.34457553e-04 6.18063495e-04 -2.33176586e-04 2.84146081e-04
      -2.34945037e-04 -6.35767865e-05 1.18469383e-04 -3.04124289e-04
      2.17242423e-03 -1.12101123e-04 1.90084302e-05 -1.78106726e-04
      -1.74798025e-03 2.62145331e-04 -2.56518513e-04 9.93021182e-04
      -5.49169781e-04 1.20499567e-03 -3.51042050e-04 1.28100230e-03
      -4.38234420e-04 2.75167287e-04 -7.67474587e-04 1.66764914e-03
      6.17522028e-06 3.64704028e-05 -1.94565888e-04 3.53264797e-04
      2.75914528e-04 4.70981555e-04 -7.05873477e-04 -2.07623380e-04
      -9.67527740e-04 1.26092069e-04 1.22465752e-03 -1.38062460e-03
      4.93934029e-04 -2.70682998e-04 3.61701910e-04 5.59012464e-04
      -5.15115273e-04 -1.05542666e-03 -2.39044930e-05 -2.60050524e-06
      -4.16947703e-04 8.86848662e-04 7.90307764e-04 -1.36906537e-03
      1.67831057e-03 1.73858926e-03 -1.23425410e-03 -1.49137503e-03
      -9.37269506e-05 -8.64959948e-05 4.97019209e-04 3.11469845e-03
      -1.99917296e-04 -4.90543491e-04 -2.74707400e-05 -6.11212861e-04
      -3.89139866e-04 -1.78044473e-04 -1.15932443e-03 -8.28903052e-04
      -2.70300137e-04 -1.00381018e-04 -3.54704069e-04 -1.49587460e-04
      2.41946516e-04 1.37494826e-05 1.18917895e-04 1.56688489e-04
      -9.48594679e-05 -2.55864492e-04 -1.00994686e-04 -1.84287637e-04
      2.53316219e-04 2.31275451e-04 1.70802022e-03 -5.45714342e-04
      -1.26992597e-03 1.45874778e-03 3.26745561e-04 -2.43001408e-03
      -1.54367342e-04 -4.85208118e-04 4.49256302e-04 -7.77056266e-05
      -1.40980032e-04 1.48312349e-04 7.32219924e-05 6.65651343e-04
      -1.33884954e-04 -3.34369455e-04 -6.75819523e-04 5.64047368e-05
      -9.01640393e-04 -1.61733432e-03 3.25376575e-04 1.12197711e-03
      7.43952332e-05 -4.94977401e-04 6.39811333e-04 -8.63413807e-05
      3.92532180e-04 3.22848180e-04 -5.83278670e-05 -5.48391370e-04
      4.83044103e-04 1.65258549e-04 1.36513088e-03 4.35143680e-04
      1.64421523e-04 1.09402451e-03 4.61549062e-04 1.60811032e-04
      -1.32285140e-03 -2.39797606e-04 8.85416637e-04 3.05860187e-04
      -3.12905409e-04 2.35668995e-04 -9.66348816e-05 -2.66097835e-04
      -3.15381703e-03 -6.28414709e-05 4.00434918e-04 7.56508205e-04
      2.30808917e-04 -3.29561444e-04 -5.66315503e-05 3.23642089e-05
      -1.52643333e-04 1.13177557e-04 1.98769383e-04 1.14256807e-04
      3.51811934e-04 1.31098699e-04 -1.71298554e-04 1.58320065e-04
      -1.26399926e-03 2.62126268e-04 1.01901614e-03 -8.57493578e-05
      -1.01285637e-03 -7.87085213e-04 -3.50429036e-04 -8.03044823e-04
      -1.60567972e-04 -2.04529642e-04 5.65013906e-04 -1.63492048e-04
      -2.06564175e-04 2.45431205e-04 -2.85099377e-05 -7.06199717e-05
      -2.59377033e-04 1.39161028e-04 3.13382247e-04 1.05697138e-03
      -8.42678943e-04 -1.73704175e-04 -3.00495623e-04 -8.61443870e-04
      -1.50979176e-04 -6.41911989e-04 1.07669027e-03 1.39963799e-04
      8.70028045e-04 1.17131486e-03 1.18640264e-06 -3.68138979e-04
      2.60840543e-03 4.84026987e-06 2.22653180e-05 -3.89840920e-04
      2.90583877e-04 5.08320300e-05 1.62161095e-03 5.94382291e-04
      -3.61805171e-04 1.26610932e-04 9.20006365e-04 1.11150986e-03
      -2.13363674e-03 -3.26002599e-04 -4.42562363e-04 4.67431353e-04
      3.26317968e-04 -4.19384596e-05 5.48906741e-04 8.82530003e-04
      -4.11294517e-04 3.52602627e-04 3.04217392e-04 8.51100485e-05
      -5.66065137e-04 -5.58498414e-06 -1.53082481e-04 -4.08120191e-04
      -2.98047453e-05 7.81095150e-05 1.52554203e-04 4.61723830e-05
      2.51239893e-04 -1.87163401e-04 -1.48201780e-03 2.61334004e-04
      1.69549850e-04 1.04195566e-03 -1.48132560e-04 1.35509681e-03
      -2.46759068e-04 4.64353107e-05 -6.96146395e-04 2.59696477e-04
      -2.26732038e-04 2.88990705e-04 -1.19289522e-04 1.18283126e-04
      -1.45965198e-04 5.79591942e-05 -4.34996240e-04 1.13041329e-04
      -6.81892037e-04 3.55732307e-04 8.23131122e-05 7.36911548e-04
      6.54437230e-04 -2.69843236e-04 -3.33809177e-04 -1.95626402e-03
      2.03038988e-04 -1.36708177e-03 -6.22359919e-04 -4.01441008e-04
      1.04079838e-04 2.23074501e-04 1.35876867e-03 -1.44163601e-03
      -7.10521068e-04 -2.42525293e-03 -2.46251526e-04 -1.08286459e-03
      8.85496556e-04 -3.65573826e-04 1.00837043e-03 -5.75923244e-04
      -7.76291359e-04 -3.21563799e-04 -2.45823088e-04 3.13834462e-04
      -1.04905351e-03 -1.17566378e-04 1.55152136e-03 -3.39939579e-04
      1.26453838e-03 -6.93220645e-04 -1.08092529e-04 -1.44711608e-04
      -5.22149057e-05 5.61790184e-05 4.80514253e-04 -3.58912366e-04
      6.62538107e-04 -4.35435686e-06 -2.03559430e-05 3.58107296e-04
      -9.70874331e-04 1.25572609e-04 9.74577852e-04 -2.34085514e-04
      4.43311408e-04 3.83916340e-04 -8.73638492e-04 -6.83098100e-04
      1.76313712e-04 -9.36312717e-05 1.83352204e-05 -1.65577186e-03
      1.14195915e-04 1.99633650e-04 -1.02594146e-04 -3.38409794e-04
      -7.97806060e-05 -1.48204708e-04 8.33273982e-04 -9.37677338e-04
      -1.31386460e-03 -1.41880038e-04 -1.72040513e-04 1.15382532e-03
      -4.30969551e-04 2.52707017e-04 3.78660014e-04 1.29056431e-03
      -2.47165386e-04 -3.67896107e-04 5.22323011e-04 2.17839057e-04
      1.28186785e-03 1.55843416e-04 9.43600549e-04 2.38260860e-03
      -2.59772060e-04 1.12949252e-04 -5.80464257e-04 -8.26074567e-04
      -7.68048994e-06 -2.26440330e-04 5.66979521e-04 5.38069653e-05
      -1.90867315e-04 1.42222794e-03 -1.06101274e-04 -1.94361113e-04
      -1.51600072e-03 1.05477273e-04 7.93193991e-04 -1.89009916e-05
      4.82871314e-04 -5.19570021e-04 -2.47596385e-04 9.47907392e-06
      4.09157859e-04 -1.41181648e-04 -3.80350284e-05 1.75551322e-04
      -7.66181154e-04 -2.99967476e-04 -1.06586167e-05 4.09286731e-04
      -4.35881666e-04 3.69420392e-04 -4.26861225e-04 -3.91673791e-04
      -9.37118137e-04 -1.24861440e-03 -1.27462306e-04 -1.42834760e-04
      5.56209707e-04 -1.72675413e-04 6.45082851e-04 3.49133305e-04
      -1.42427103e-04 -1.24382554e-04 -7.80450719e-05 3.14943492e-04
      -3.40218976e-04 9.39655656e-05 4.16143361e-04 -4.34826012e-04
      3.22231266e-04 -7.17672927e-04 1.05788342e-04 3.57222656e-04
      7.28156738e-05 -8.32286751e-05 3.76038981e-04 -3.66840395e-04
      -1.49653165e-03 3.98978795e-04 -4.97181842e-04 1.35644700e-03
      -9.54873831e-05 5.81691915e-04 1.07744278e-03 2.27528042e-03
      2.18091439e-03 -5.02953364e-04 -9.32785682e-04 7.70065235e-04
      2.96606391e-04 6.95077833e-05 1.95874157e-03 -1.32018013e-03
      -1.64650890e-04 2.87446368e-04 4.07195148e-05 -1.32041878e-05
      -1.21308246e-03 -8.43051657e-06 -6.77562144e-04 -8.89809395e-04
      -1.49357109e-03 4.90117745e-05 2.75918661e-04 -1.28510910e-05
      2.78444004e-05 -1.00861304e-04 -7.41863187e-06 7.94022781e-05
      4.70057043e-04 -3.67078435e-04 9.23417756e-05 -1.90134757e-04
      -1.06260763e-03 4.90336155e-04 -1.58643501e-03 -4.71741514e-04
      -1.37331581e-03 -6.69082374e-06 -1.91943778e-04 1.45056308e-03
      -4.54844354e-04 -1.75207664e-04 1.02935710e-05 7.23692123e-04
      -4.42823744e-04 -3.08429910e-04 0. -1.70612620e-04 -3.23058739e-05
      1.87736397e-04 8.54002064e-05 1.72495830e-03 -9.98163363e-04
      1.06383162e-03 -4.55574045e-04 4.15554678e-05 1.51522123e-04
      2.11258535e-04 -8.74746009e-04 1.92398892e-03 1.17378938e-03
      7.78638278e-05 -1.73466076e-04 1.65245787e-03 -3.61339218e-04
      -1.32928253e-03 -7.48280901e-04 1.54456007e-03 1.87774398e-03
      1.03160855e-03 -1.13711471e-03 9.43374296e-04 4.60399111e-04
      1.98552589e-04 -9.12027201e-04 -8.59817737e-05 -5.25544165e-04
      4.09032888e-04 -1.56431939e-04 3.16569407e-04 -9.04078479e-04
      1.03063605e-04 -1.20022765e-03 1.36208162e-03 3.69701302e-04
      -4.07622341e-04 2.54808347e-05 2.38813271e-04 -5.49778051e-04
      4.12449617e-06 -2.03150164e-04 4.96472421e-06 -1.87921614e-06
      -4.00099088e-04 1.90286228e-04 5.61465276e-04 7.61539559e-04
      6.42064742e-06 1.61634132e-04 3.45325725e-06 -4.90353559e-04
      6.29085116e-04 -3.15685204e-04 1.15020877e-04 3.39728256e-04
      6.63766928e-04 -1.97966365e-04 -6.67379762e-04 3.70549213e-04
      -5.29347417e-05 -2.67863707e-05 -9.79240140e-05 -1.28561180e-04
      5.57810126e-04 3.35753342e-04 -7.98041758e-04 -1.81523035e-03
      -8.56770843e-04 4.19803022e-04 3.79801902e-04 -4.65675548e-04
      6.89347289e-05 1.10214030e-04 2.87862622e-05 1.96060748e-04
      -9.39919555e-04 1.30325396e-04 1.49204716e-04 -4.57775226e-04
      -4.50445688e-04 5.50432131e-04 1.69798441e-04 -8.36534964e-05
      1.01365149e-04 -3.31464922e-04 -8.58746003e-04 -1.87684223e-03
      1.06689433e-04 -1.01505790e-03 -1.96998968e-04 8.53029720e-04
      1.32987596e-04 -4.98748068e-06 -6.38573663e-04 -2.04957119e-04
      -4.27012303e-04 -3.08026283e-05 4.21445366e-05 1.77843170e-03
      -1.34675807e-04 -3.29601135e-05 -2.33817103e-04 5.76992636e-04
      -1.69403284e-05 1.96922963e-04 4.96228713e-05 1.44612265e-03
      -1.75504159e-04 1.34337373e-04 -5.98643383e-04 1.19932811e-03
      1.49464031e-05 1.91524718e-03 -2.02496699e-03 8.40321823e-04
      -2.01737086e-04 -2.72097328e-04 -1.01656630e-03 -4.81566734e-04
      2.83172383e-04 -9.98870004e-04 5.98785409e-04 2.64462782e-04
      1.94601569e-04 1.24417842e-04 2.84759244e-05 -8.18960780e-06
      -2.47368171e-05 -2.80625303e-04 6.90586632e-04 -1.03255652e-03
      6.96554256e-04 5.53681139e-06 1.22130470e-04 5.69017720e-04
      -5.43030073e-05 -2.74776598e-04 -1.91640179e-03 -9.68211607e-05
      -7.37434253e-04 7.05538085e-04 1.03845130e-04 -8.20031448e-04
      1.32600428e-03 2.75074475e-04 1.72662456e-03 1.57223456e-03
      -1.04571169e-03 -6.63316518e-04 -9.54511866e-04 -2.18442199e-03
      1.47457715e-04 -9.02595290e-04 8.39987828e-04 1.35928136e-03
      -5.25744166e-04 3.42222367e-04 1.95056025e-04 3.02080880e-04
      -8.77101556e-05 2.51296588e-04 5.29229292e-04 -8.38484906e-04
      6.54801377e-04 6.46332628e-05 4.19409509e-04 2.06765850e-04
      7.66860685e-05 9.20631064e-05 -2.77001120e-04 -4.39274387e-04
      1.15245253e-04 7.18666843e-06 3.54851596e-04 1.00688869e-03
      -1.71375679e-04 4.62076801e-04 -5.04043652e-04 -1.00344513e-03
      1.87453011e-03 2.23817129e-04 1.44529005e-03 -1.32189298e-05
      6.88240325e-05 -7.97343964e-04 9.41033359e-04 1.72019194e-04
      -7.85552198e-04 -9.53214039e-05 4.68464394e-04 -3.49818671e-04
      1.87743994e-04 -7.63542543e-04 1.43300567e-03 -4.76056128e-04
      -3.49810609e-04 -7.47470011e-04 2.01177521e-04 -1.55694943e-04
      -8.36125168e-04 2.04249765e-04 -1.24949776e-03 9.88091459e-04
      2.41239293e-04 -2.36083739e-04 -3.83372535e-04 2.54657527e-04
      -4.80418210e-04 -1.77774776e-03 1.39111269e-03 1.86160859e-03
      -1.92146434e-03 3.08209012e-04 1.36195347e-04 -2.78829131e-04
      1.97854824e-04 5.42448775e-04 8.00652138e-04 -8.29980010e-04
      -1.91527201e-04 4.65563528e-04 -4.91607898e-05 -2.39240340e-04
      -3.05415510e-04 -1.20302953e-03 -1.59617048e-03 -9.12678443e-05
      1.70412066e-04 3.55008924e-05 4.74632361e-05 -2.50383891e-04
      1.46011400e-04 -9.99103795e-05 4.85849916e-04 -1.77937828e-03
      -1.54148991e-04 -2.20521222e-04 -1.31580600e-04 -6.55920376e-05
      -1.16892996e-04 -1.29491193e-04 -4.66367666e-04 1.06491323e-03
      -5.21102629e-04 3.76669690e-04 2.38412293e-03 -6.07904585e-05
      -3.68410838e-04 -1.14473776e-04 -1.08147529e-03 -3.86697466e-05
      1.28046100e-04 2.43356248e-04 -3.91052832e-04 3.68021982e-04
      -1.62363795e-04 8.46227049e-05 -2.32274368e-04 9.78022814e-04
      1.01507059e-03 -2.83004221e-04 -1.65460887e-03 -1.00464153e-03
      5.62487345e-04 9.16071585e-04 6.01760694e-04 1.29040959e-03
      3.98595526e-04 8.04816518e-05 -3.37921490e-04 7.59596078e-05
      -8.46018738e-05 -6.02425716e-04 1.29178795e-03 2.28829263e-03
      -9.73278307e-04 -4.85020573e-04 -8.58332496e-04 1.10827002e-03
      -5.85264817e-04 1.56239467e-03 -7.92679377e-04 2.86388749e-05
      3.33357711e-05 7.34590067e-05 8.20372225e-05 5.51272475e-04
      -3.07015114e-04 -6.39155973e-04 -5.31778962e-04 6.87938940e-04
      -3.20440507e-04 -2.98036350e-04 -1.56799069e-04 -1.50761844e-04
      4.35204529e-05 -2.64613831e-04 -2.04596887e-04 9.98087693e-04
      -3.43597232e-04 3.15261859e-04 -5.41084119e-05 -5.64305674e-06
      -7.59171089e-05 2.01203348e-03 1.69324252e-04 -6.34122582e-04
      1.19953998e-03 -5.60540764e-04 4.89506521e-04 -8.03603616e-05
      -7.68249884e-05 -1.86135381e-04 -1.24930276e-03 -2.27899334e-04
      -7.25191960e-04 -1.08551667e-05 -1.30649307e-04 -2.86716939e-04
      -6.72910971e-07 3.97072552e-04 3.26044363e-04 -1.30749878e-03
      3.27920454e-04 -4.12392139e-04 -8.13018472e-04 6.58313977e-04
      2.78090040e-04 -3.24667431e-04 1.32027129e-03 3.22091801e-04
      1.60179625e-04 5.61345814e-06 8.43246467e-04 9.77640622e-04
      -2.71032128e-04 -1.54277170e-03 -1.37170556e-03 1.96697796e-03
      -9.84126003e-04 -6.16387930e-04 -1.64833874e-03 2.06614150e-05
      3.03405774e-04 -9.78177413e-04 3.73229937e-04 3.89521563e-04
      8.12676153e-04 -3.31307499e-04 1.78197020e-04 -6.68000604e-04
      4.70930856e-04 -6.46054687e-04 1.55152672e-03 -8.93742661e-04
      -1.73316672e-04 4.59810224e-04 -1.36753360e-05 1.04521903e-04
      1.77981783e-05 2.39750792e-04 -6.36509794e-05 1.11614168e-03
      6.10394811e-04 -1.99548842e-04 3.91886308e-04 -2.25229058e-04
      2.58623535e-04 -1.22324179e-03 7.03203932e-06 4.23156307e-04
      -8.28641932e-04 -2.24402291e-04 5.70207951e-04 1.92868640e-04
      -3.66478460e-04 -1.39814423e-04 -1.58661918e-04 -2.06551369e-04
      3.00248008e-04 -1.12787668e-04 2.89583171e-04 1.86237987e-04
      -6.71777598e-05 -2.19777066e-05 1.83773728e-03 -2.83422443e-04
      8.18635453e-05 -1.35165028e-04 -7.45562313e-04 -3.54304328e-04
      -3.91643407e-04 -3.87139735e-04 6.96262752e-04 -3.19058046e-04
      1.18045998e-03 3.63988402e-05 3.18045990e-04 -1.10577221e-03
      9.33032192e-04 -9.15073440e-04 -8.90756899e-04 1.34265935e-03
      1.37596671e-03 -1.19161839e-03 2.96715135e-03 -1.01424882e-03
      -1.63218952e-04 -2.24031421e-04 1.78086490e-03 -1.26922200e-03
      -1.21854646e-04 -5.56206622e-04 6.46447370e-05 9.45522042e-04
      1.50548352e-04 -1.00673316e-03 -5.83688496e-04 -9.98447882e-04
      -3.08612071e-04 -3.12326534e-04 -2.22616116e-04 -1.34703019e-04
      -2.65591170e-05 -1.36559014e-04 7.17824878e-05 -6.45369990e-04
      -3.36135454e-05 4.87378384e-05 -1.56146532e-04 2.20321148e-04
      1.14953335e-04 1.63921228e-04 -6.12437201e-04 -1.34059379e-03
      3.05121386e-04 9.37437930e-04 2.51621794e-04 -1.28103755e-04
      -4.25208913e-04 -8.39655113e-04 2.66585127e-03 7.40884498e-05
      8.09175399e-05 8.89290168e-05 5.48818134e-05 3.58291436e-05
      -5.42388843e-05 -4.98297857e-04 -7.15477508e-04 -1.06579030e-03
      -9.39725025e-04 -5.90141426e-05 1.63265402e-04 -1.32648900e-04
      2.96842249e-04 5.22191112e-04 1.09187700e-03 -4.98725043e-04
      1.20888627e-03 -2.42574861e-05 7.08135951e-04 -2.10982762e-04
      9.18594655e-04 -1.61680905e-03 -3.83802602e-04 -2.08033787e-04
      1.46563601e-04 -1.14368810e-03 -1.20336525e-04 5.26663091e-04
      7.54255016e-05 -6.27472647e-04 1.37969805e-03 4.37338284e-04
      4.18635114e-04 -3.09563242e-04 -1.92546737e-04 -7.59282208e-04
      -5.94003592e-04 -2.66713789e-04 1.63956196e-03 6.84344093e-04
      2.66646268e-04 2.92372832e-04 9.31647664e-05 -6.01230597e-04
      1.55781163e-04 -3.83746141e-04 -1.35060123e-04 7.14336289e-04
      9.10787494e-05 -6.61591330e-05 -2.83409521e-04 -1.08775159e-03
      -1.30788234e-04 -6.42198196e-04 -7.79087932e-05 -6.18856342e-04
      -3.96404270e-04 -4.86146571e-04 4.38726158e-04 3.61335929e-04
      2.62577756e-04 -9.31906616e-05 -3.06207745e-04 -1.28982632e-04
      2.53817379e-05 -4.22741214e-05 -1.24874801e-04 2.95579113e-04
      4.66842321e-04 -5.81401924e-04 -4.28620173e-04 -1.11121242e-03
      -1.90954393e-04 7.24356505e-04 -4.06591222e-04 2.13385007e-04
      3.53326352e-04 -1.84276782e-04 -8.44650378e-04 -4.61011718e-04
      4.17017960e-04 3.32303258e-04 6.83085178e-04 1.22798351e-03
      -5.25619136e-04 5.02986251e-04 1.33467151e-03 1.38827891e-03
      -5.02863084e-04 6.49083813e-04 -9.95947339e-05 2.11323815e-04
      1.18477619e-04 -2.03065854e-03 2.41654716e-03 -2.25101627e-04
      -2.81023589e-04 -1.63328630e-04 -6.07132679e-04 -5.06090408e-04
      8.75461847e-05 8.50314624e-04 8.49461241e-04 -8.28533666e-04
      3.23847140e-04 2.23372379e-04 2.33106432e-04 2.79950036e-04
      5.89785668e-05 -6.26829569e-04 -3.45382170e-04 -9.47723311e-06
      -1.49008702e-05 3.28542112e-04 -7.10394306e-05 -2.35378102e-04
      2.85510623e-06 5.03846677e-04 -9.59119876e-04 1.88620936e-03
      1.89816137e-03 -4.67754609e-04 5.83775516e-04 -2.53845123e-04
      -4.32092085e-04 -9.36819008e-04 1.16158091e-03 -1.18934477e-04
      3.71626928e-04 -8.65372494e-05 -1.43330515e-04 -1.42254896e-04
      -7.85199591e-05 2.27184224e-04 -3.50048329e-04 -1.79443654e-04
      6.00728614e-04 -5.95504476e-04 -1.05133140e-03 -5.15882217e-04
      -6.13882439e-04 -3.15945304e-04 8.71422177e-04 -5.17725071e-04
      -1.02173537e-03 4.75943874e-04 5.49185315e-05 2.39098677e-04
      1.56960610e-04 -3.34841618e-03 1.62331411e-03 7.09984859e-04
      2.79801054e-04 9.46857210e-04 -4.60496318e-04 6.40850340e-04
      -5.84973546e-04 -6.75427087e-04 -1.90827559e-04 4.22386336e-04
      5.20194182e-04 -2.12113096e-04 -4.36808594e-04 4.60995914e-04
      6.21205661e-04 3.85821739e-04 3.79086414e-04 3.85892403e-04
      -5.97008446e-04 3.11184485e-05 2.34152485e-05 2.49539298e-04
      3.95955321e-05 1.08056411e-04 -3.63371364e-04 4.76935151e-04
      -1.81539988e-04 7.58360613e-07 1.75381792e-04 -1.00050715e-03
      -2.83466245e-04 1.61409087e-03 1.30136253e-03 7.96502049e-04
      -1.40943902e-03 2.83424219e-04 1.59636710e-03 -1.78775372e-04
      -9.24290216e-05 7.85854238e-04 4.62908065e-04 -1.40517886e-05
      1.19770833e-04 -1.17482879e-04 2.42635491e-04 3.29078975e-05
      -7.40575342e-05 -3.38710874e-04 -2.71136651e-05 -1.15624069e-04
      1.20147437e-04 -2.55023187e-04 1.08073313e-04 -3.56871082e-04
      7.40338059e-04 -1.70071935e-03 -9.73343325e-04 -3.42587620e-04
      -1.92898302e-03 -9.47383523e-04 -4.21509430e-05 -3.51040326e-05
      1.80167379e-04 -6.47184381e-04 -6.58851932e-04 -1.24562497e-03
      1.21016812e-03 1.04755000e-03 -1.50625565e-04 7.50267413e-04
      -5.98110084e-04 -1.01968231e-04 -5.11862454e-04 -9.75254748e-04
      9.76752490e-04 4.60684823e-04 -4.38724615e-04 6.93481474e-04
      2.00845971e-04 -1.03262230e-03 -3.88155649e-06 -1.21380889e-03
      -1.45836078e-04 2.48472701e-04 2.77078158e-04 7.40629184e-05
      1.64485464e-05 4.26671177e-05 3.26986774e-04 1.36954919e-03
      -1.07378000e-04 2.16577682e-04 7.73618449e-05 4.70908941e-04
      2.04500466e-04 -7.11958448e-04 1.90586608e-04 -1.45362923e-03
      -1.17345910e-04 3.96871066e-04 1.36972129e-04 6.16256921e-06
      -1.44156133e-04 4.37607028e-04 -2.68566655e-04 2.77526560e-04
      4.61524469e-05 1.77368620e-05 -1.80633549e-04 2.68687378e-04
      -1.11046276e-04 2.99576001e-04 6.38986414e-04 5.14975924e-04
      -1.80501537e-03 -2.30092890e-04 5.07737917e-04 -2.67477182e-04
      1.69134102e-04 7.88486970e-04 8.51411387e-05 -1.29920850e-03
      -2.13941574e-04 -1.87883401e-04 1.50196371e-04 2.82482273e-04
      -6.48883462e-04 7.33363850e-04 -4.47212165e-04 -2.78944336e-03
      2.73282436e-04 7.81006471e-04 4.33711866e-05 5.51183242e-04
      -4.98800131e-04 -3.32789525e-04 1.52236351e-03 1.06971514e-04
      2.17530469e-05 -3.77539283e-04 1.65026489e-04 -5.09279853e-05
      3.56867458e-05 -6.87498192e-04 -6.59734360e-04 -7.66279583e-04
      -4.80097835e-04 -2.60352826e-04 -2.47596272e-05 1.18587173e-04
      8.80165608e-05 -2.79099593e-04 -1.66889426e-04 -3.98876029e-04
      3.58914076e-05 1.74350644e-04 -2.18839414e-04 2.09975801e-03
      -2.29645462e-04 3.06974252e-04 2.39912042e-04 -4.04883496e-04
      -1.50639052e-03 1.00770820e-04 -7.99082976e-04 2.28491790e-05
      -7.10665627e-05 -8.87097995e-05 4.26138577e-05 5.24760166e-04
      -4.68060811e-04 -1.18015530e-04 -9.83929422e-05 3.31314164e-04
      -3.19246501e-05 -7.34519608e-06 -1.18309632e-04 8.55215825e-04
      2.69715954e-03 7.05502025e-05 4.52518201e-04 3.79114281e-05
      3.26830108e-04 -1.24856422e-03 9.92603949e-04 5.32709528e-04
      1.27778869e-04 2.63307185e-04 4.68533362e-05 -1.64919021e-03
      1.20570033e-03 1.36175263e-03 -1.72582490e-03 9.97133553e-04
      -7.80135102e-04 9.91067034e-04 4.75907378e-04 -3.04074842e-04
      3.99379176e-04 -1.01044902e-03 1.10322773e-03 1.38040155e-03
      4.67916805e-04 -2.70609016e-04 -7.91267448e-05 -3.99678072e-04
      -1.89098995e-04 1.15038347e-05 2.30751373e-03 -4.68875165e-04
      4.87000245e-04 -4.85188411e-06 -1.07397100e-04 -7.68782338e-05
      -1.20571880e-04 -4.26145329e-04 1.26537896e-04 -8.05103860e-04
      -1.15652383e-05 2.01545481e-04 -2.97042454e-04 4.85733442e-04
      -5.57234089e-05 -6.96126954e-05 6.75956107e-05 -2.10555459e-04
      3.25468718e-04 4.61041054e-05 -1.58536772e-03 -1.20548029e-04
      -3.86997592e-04 1.94636177e-05 -1.27769468e-04 2.20738235e-04
      8.14558225e-05 -2.80087661e-05 -1.41040378e-04 9.46322871e-06
      1.14253846e-04 5.71492419e-04 1.99942078e-05 -5.95412348e-05
      -8.63205176e-04 -6.55631477e-04 -3.48916801e-05 2.76379171e-04
      1.02390570e-03 -2.33480983e-04 -9.06191592e-04 -1.02456624e-03
      1.28037052e-03 -4.63974429e-05 -1.07913998e-04 -4.85254306e-04
      -3.39437543e-06 -1.61284464e-04 -8.32573452e-04 2.07339786e-03
      2.13985069e-04 -1.32531673e-03 1.21526560e-03 8.62833520e-04
      -1.25158476e-04 -1.32258679e-03 -1.38944923e-03 1.29136594e-03
      1.89782149e-04 -2.41791495e-04 -2.53280508e-04 1.60768235e-04
      1.23299207e-04 9.74521216e-04 -5.09028032e-05 -3.13472905e-04
      1.13175491e-04 -3.42776446e-04 2.75491213e-04 4.47914674e-04
      7.94042135e-05 6.06798742e-04 -1.92214153e-04 2.17922684e-03
      6.99633747e-05 -9.24101769e-05 -1.13355825e-04 -3.84945713e-04
      -1.25209088e-04 8.19737383e-04 -3.07552604e-04 -8.23002367e-04
      -1.03125651e-03 -3.14330537e-04 3.73914896e-04 -5.02030234e-05
      -5.02472867e-05 -7.22645782e-04 1.74868375e-03 1.90611026e-04
      4.01951664e-04 -1.52156223e-04 3.66924178e-05 -3.63561208e-04
      -9.75752528e-08 -2.51945632e-04 9.52886825e-04 5.85730479e-04
      8.43579532e-04 1.51288055e-04 3.52366711e-04 -5.35504718e-04
      -4.68309881e-04 -3.58409801e-04 -9.29524540e-04 -3.19960556e-04
      1.79703566e-04 -1.38936317e-04 -3.67164321e-04 -7.64819444e-04
      -6.28243506e-05 -8.91779724e-04 -2.33723666e-03 1.58691325e-03
      -1.82908465e-04 1.18462485e-03 -2.11255555e-03 -6.83631108e-04
      -2.02249124e-04 1.75953156e-03 8.33234633e-04 -2.16390286e-03
      7.88235688e-04 2.28263249e-04 1.05073450e-04 1.14657776e-03
      7.81726500e-04 1.22757687e-03 1.29406352e-03 3.56705830e-04
      -6.39990612e-05 -7.13781847e-05 -1.96127963e-04 -5.50916884e-05
      1.85011188e-04 2.32301201e-04 1.24187398e-04 -5.25080774e-04
      3.46284214e-04 -5.95109668e-05 -2.21316950e-04 -4.18944866e-04
      -2.06676035e-04 6.61837577e-04 4.50984284e-04 -4.79568378e-04
      1.00470672e-03 2.60587422e-05 -1.05955696e-03 -3.04970999e-05
      -2.96662969e-04 -9.77706746e-04 4.44367906e-04 2.26170901e-04
      2.25082931e-05 -3.27053822e-05 1.75840178e-04 5.49143942e-06
      -6.27463378e-05 -3.99362092e-04 -3.81817772e-05 -1.19836198e-03
      -3.84065293e-04 8.09231569e-05 -1.11315970e-03 -4.77221853e-04
      -1.82428368e-04 -5.95403777e-04 1.00454711e-03 3.24550812e-04
      -1.85159128e-03 -5.00088616e-04 4.64981073e-04 -5.16118133e-04
      2.00001687e-05 3.58058547e-04 -9.25378117e-05 -1.63863495e-03
      -1.74164097e-03 -8.09019199e-04 -5.64139744e-04 -1.47941973e-04
      7.24858692e-05 -7.72806117e-04 -9.08159709e-04 1.55179051e-03
      1.39097276e-04 -5.10603655e-04 1.11352347e-04 1.54976267e-03
      -8.82226595e-05 -3.48119531e-04 -1.67412753e-03 -2.95504433e-04
      -2.65606446e-04 -7.06946536e-04 2.00497481e-04 6.73030299e-05
      3.33257558e-05 -1.29479100e-04 2.32585135e-05 -6.62317441e-04
      -6.11966650e-04 3.78391669e-05 8.44479509e-05 1.62162445e-03
      4.09707689e-04 -1.02606148e-03 -7.91443337e-04 9.62761231e-04
      -2.25170574e-04 5.55286242e-05 -8.96675338e-04 1.68928338e-04
      -2.96382990e-04 -1.36295072e-04 1.60681910e-03 3.38310492e-05
      -5.02881303e-05 1.50552887e-05 1.93498199e-04 -3.86438915e-04
      -1.58919065e-05 -9.96997842e-05 5.08573081e-04 -1.15268107e-04
      1.85177079e-03 4.52395965e-04 6.55231997e-04 2.06997167e-04
      -1.05923806e-04 -4.81750874e-04 7.71024672e-04 -1.21985516e-03
      1.16742786e-03 9.90969362e-04 -2.81480752e-04 -1.83968121e-04
      8.98515515e-04 1.20453697e-04 1.62555627e-03 -7.00248231e-04
      -6.60077727e-04 7.46023608e-04 -8.72631717e-05 2.62169138e-04
      -4.90547856e-04 -1.26773410e-03 -9.98985255e-04 1.41680462e-03
      -4.15833842e-04 2.88223615e-04 -4.42704273e-04 -1.15167466e-03
      5.05347445e-04 -6.03926659e-04 -4.90486971e-04 -2.78599269e-04
      -3.78467841e-04 1.78774790e-04 -1.67531558e-04 -7.82669958e-05
      -5.59700652e-07 -5.25119656e-04 1.52958353e-04 -2.95666629e-04
      7.29165404e-05 1.52277771e-05 -5.47149721e-05 1.54336376e-04
      1.22377847e-03 -6.75930933e-04 -1.45466067e-03 -3.95807729e-04
      -2.12886531e-04 5.19796216e-04 8.70228396e-04 -2.05304241e-04
      -4.79258051e-05 4.97475448e-05 1.24794815e-03 5.06208569e-04
      -7.49385617e-06 -7.33508568e-05 6.78568322e-04 1.25437597e-04
      7.52314518e-05 -1.61834701e-04 -3.19486600e-04 7.00769073e-04
      -2.18790738e-04 -3.84832674e-05 2.21199240e-03 -2.67032388e-04
      3.91699607e-04 -1.73540302e-05 -5.36924308e-05 1.43691991e-03
      -1.85472437e-03 1.33279490e-03 1.35399844e-03 -1.09520322e-03
      1.53349218e-04 -1.07834185e-03 5.95463091e-04 4.49434010e-04
      -1.62942545e-03 -1.99477980e-03 -9.50536560e-05 -1.80743969e-04
      1.32166124e-05 1.04656807e-04 -1.77888316e-03 2.00793496e-03
      5.78356383e-04 1.44380654e-04 1.53674613e-04 -5.59923239e-04
      -2.51572579e-04 -6.84133440e-04 -4.97175613e-04 2.13672480e-04
      2.48479744e-04 -7.44285935e-05 -6.04620145e-04 3.03028908e-04
      -8.74735542e-06 -3.14611010e-04 5.78127627e-04 1.34721457e-03
      -6.75809919e-04 1.43636207e-04 -9.34605850e-05 1.10237265e-03
      3.34670593e-04 -7.81633251e-04 1.23101333e-03 6.62820705e-04
      2.96321785e-04 1.40384014e-04 -6.85084320e-04 1.19566917e-04
      -2.10624439e-05 4.09962900e-04 7.04331542e-05 9.06608839e-05
      -8.69318774e-06 6.71831731e-05 5.12445986e-04 1.82672127e-04
      1.14075992e-05 2.07275967e-04 8.89116345e-05 4.94246953e-04
      -1.20143953e-03 2.37102329e-04 -6.60468708e-04 5.75546233e-04
      -3.29050381e-04 -9.43698979e-05 -3.17882979e-03 -7.35126787e-06
      5.32818260e-04 1.81029260e-04 6.25200453e-04 1.25996783e-04
      3.45834211e-04 8.47798772e-04 6.31860807e-04 9.67180589e-04
      3.80756130e-04 -5.83245637e-05 1.44486572e-03 -1.28739991e-03
      2.13373598e-04 8.75569065e-04 1.15214323e-04 -6.47312263e-04
      -3.45703942e-04 1.70385450e-04 -4.65602170e-06 9.17342622e-05
      -1.35904062e-04 -1.78998488e-03 6.62312726e-04 6.13883894e-04
      -3.39639300e-05 -2.55265768e-04 2.82665249e-04 1.55324931e-04
      1.79974464e-04 4.65469260e-04 -5.83517947e-04 -4.78635138e-06
      2.92670866e-05 5.11528458e-04 3.27248563e-04 -6.96515664e-04
      -3.18182515e-06 -9.97418610e-05 -7.64441153e-04 4.72714688e-04
      -1.55295315e-03 2.22497663e-04 2.45820906e-04 1.27352585e-04
      -3.12623306e-04 7.18770374e-04 -2.38411245e-04 6.15956145e-04
      4.58240364e-04 -1.68297731e-04 1.26638421e-04 2.49944511e-04
      1.56473543e-04 -2.43323128e-04 1.06153451e-03 -1.04284627e-04
      6.34497264e-04 4.60139418e-04 -7.68993690e-04 -6.99040771e-04
      -4.96624503e-04 -1.35748438e-03 2.80717155e-04 -9.68268141e-05
      1.59399898e-03 -4.14364389e-04 -8.87320784e-04 2.78792635e-04
      -1.94732158e-04 -1.39933883e-03 4.54476685e-04 -9.20485472e-04
      -5.02615585e-04 -1.40240169e-04 2.84495527e-05 -5.43745584e-04
      -2.97398492e-05 9.34277137e-04 7.20270153e-04 7.22020108e-04
      -1.30733664e-04 -3.60947197e-05 -2.66097504e-05 -1.09761913e-05
      6.93190901e-04 -2.04254873e-03 8.52562138e-04 -3.30155221e-04
      3.93873459e-04 8.01923015e-05 6.96369971e-05 1.51730477e-04
      -1.72771135e-04 -2.14613188e-04 -2.51268066e-04 -6.41566061e-04
      1.53398844e-06 -1.44822756e-04 2.75661645e-04 -5.75951817e-05
      7.35603680e-05 1.14378973e-03 1.06034556e-03 -5.59133441e-05
      8.75134428e-04 1.82203628e-04 1.03733281e-03 1.72247601e-04
      3.21049010e-04 -3.79869089e-05 -3.75759933e-04 5.47046475e-05
      -5.98571380e-04 -1.30897251e-06 -1.30441094e-05 1.25139813e-05
      3.86837382e-05 4.43820638e-04 -1.09373103e-03 6.45371736e-04
      -1.84066652e-03 1.26011873e-04 -4.33991489e-04 2.23379029e-04
      -3.75738717e-04 1.01186475e-03 5.57176478e-04 -1.58489193e-03
      1.78592862e-04 -1.20493360e-05 -6.87411288e-04 7.40904477e-04
      -1.27428281e-03 -4.92309802e-04 1.25215272e-03 -7.66515383e-04
      1.91008235e-06 5.82587090e-04 -9.08403017e-04 2.60365399e-04
      -2.65284063e-04 3.28435126e-04 7.88701800e-06 8.62074667e-04
      -5.98680228e-04 6.09610404e-04 -8.20982023e-05 8.18743953e-04
      -1.30711502e-04 2.99194804e-03 -4.21329860e-05 1.47228948e-05
      2.75516679e-04 -2.85210088e-04 2.16754284e-04 1.98166745e-04
      -2.92066572e-04 1.80862407e-04 9.26196517e-04 -8.35913175e-04
      -4.67231730e-05 -2.14035535e-04 -2.88170759e-05 1.67024042e-03
      -4.39706870e-04 -1.52579043e-03 1.11832516e-03 1.72415384e-04
      4.96701570e-04 -2.67197611e-04 1.44038595e-05 -2.54376675e-04
      -3.51740455e-04 -5.06812416e-04 1.33575976e-03 -5.91757183e-04
      -4.34429588e-04 6.03498484e-05 -2.44649273e-04 -4.74118016e-04
      -4.84683769e-05 -8.74325458e-04 -4.52961140e-05 8.26558680e-04
      -5.84101363e-04 1.33298032e-04 -1.79513270e-04 1.33023525e-04
      5.65811315e-05 -1.08248030e-03 1.30539411e-03 -1.84658181e-03
      -4.59271832e-04 5.02770417e-04 -3.26156558e-04 -6.22812426e-04
      1.24393904e-03 -1.01520633e-03 -6.74158742e-04 -1.89378590e-03
      -1.90222097e-04 -6.20135455e-04 1.75766402e-03 1.16846431e-03
      7.51318817e-04 2.15618726e-04 -2.24397937e-03 8.42097739e-04
      1.17265394e-04 1.82341202e-04 -1.74654508e-06 4.59993433e-04
      4.49022598e-04 -3.04266414e-05 4.04823310e-04 -7.37809867e-04
      1.20182493e-04 -2.72607635e-04 1.16579358e-04 -5.12406754e-04
      -2.12693718e-04 -4.07981424e-04 3.46351939e-04 -2.05656909e-03
      9.76725860e-05 1.03151157e-04 1.54817099e-04 1.46944181e-03
      3.46868299e-04 4.05758183e-04 -5.99079416e-04 -5.46969939e-04
      1.59893127e-03 6.84792642e-04 3.27608403e-04 -9.88648317e-05
      6.46437475e-05 -1.99652553e-04 -3.09628464e-04 3.73244198e-04
      -2.22171991e-04 7.44824647e-05 6.01325264e-05 2.10415037e-05
      5.94934536e-05 3.26004141e-04 -6.35276665e-04 -1.40971062e-03
      1.70917239e-03 3.11545737e-04 1.72275875e-04 -2.33994346e-04
      2.06025405e-04 -7.62975193e-04 -1.74767454e-03 1.09433231e-03
      1.45999051e-03 -3.34819961e-05 -5.98049432e-04 -2.93175830e-03
      -2.09564732e-05 1.52330881e-03 -4.58485629e-05 -2.74556049e-04
      -9.28780006e-04 6.24562264e-04 1.13888842e-03 1.22083223e-03
      -3.29226023e-05 -3.16546648e-04 1.61119868e-04 -4.44355333e-04
      3.73388539e-05 2.17180233e-04 -3.91571899e-04 7.24330253e-04
      4.24938509e-04 5.09143283e-04 3.85457301e-04 -2.80306139e-03
      1.65143589e-04 -1.02467762e-04 9.63718121e-05 -1.69585721e-04
      1.45916692e-05 -2.90529162e-04 5.52659330e-04 1.33033399e-03
      7.12411129e-04 4.25266277e-04 2.36033247e-05 1.64852710e-03
      8.67426861e-05 3.43605265e-04 4.08915716e-04 -4.81379015e-04
      -9.09058326e-06 -1.73091408e-04 3.88456130e-04 -2.00608498e-04
      1.60930373e-04 2.08062920e-06 -6.37966325e-04 3.99494369e-04
      -2.50298908e-04 -7.55609217e-05 -2.35633779e-04 4.81576542e-04
      -1.98686452e-04 -2.56772793e-04 4.88196674e-05 1.10984372e-03
      -3.06320842e-04 -4.82086354e-04 5.85429545e-04 -1.50942185e-04
      9.38030644e-05 -5.55194798e-04 -6.70651498e-04 -1.17986451e-03
      4.94921333e-05 -1.51148124e-05 -9.91088338e-04 -2.53828615e-03
      8.92418087e-04 -6.63311745e-04 3.62019113e-04 1.23965065e-03
      1.26469252e-03 2.28463206e-04 -1.45988446e-03 5.40463428e-04
      1.00398844e-03 -1.86951121e-03 -1.06091436e-04 1.80243817e-03
      -3.48337606e-04 5.73978650e-05 2.23064955e-04 2.61637761e-04
      3.72669718e-04 -8.77952771e-05 1.00911187e-03 -1.73986424e-04
      -4.01468278e-04 -3.30718525e-04 6.29702117e-05 5.21382171e-05
      2.32541322e-04 4.28654865e-04 4.66959580e-04 1.29772141e-03
      -2.81871733e-04 3.44887783e-04 -3.45821900e-04 -1.46984457e-05
      1.53200108e-05 2.49235716e-04 -9.36494325e-04 -1.96360750e-03
      5.93613717e-04 7.27931256e-05 1.55051894e-04 2.36035004e-04
      3.17765400e-04 2.18784466e-04 -6.26399531e-04 2.05359393e-04
      2.33357554e-04 6.08596638e-05 -1.05565186e-05 -1.22352038e-04
      -1.47875457e-04 -1.85487996e-04 -4.93540647e-05 -1.44506525e-03
      6.16453646e-04 8.68098359e-05 8.38530032e-05 -8.35958490e-05
      -4.00149438e-04 -6.68648223e-04 -2.25927494e-03 7.68528436e-04
      8.47037940e-04 8.63454406e-05 -9.59567842e-04 1.08292952e-04
      1.74657587e-04 6.28626265e-04 -1.36961881e-03 6.44202111e-04
      -6.63777100e-05 -1.63736215e-04 1.40942328e-04 6.82194019e-04
      3.50912131e-04 1.77653474e-05 5.49918273e-04 -1.53970474e-03
      -4.10881999e-04 7.03993210e-05 3.50645743e-04 3.14540754e-04
      -1.13324953e-04 8.37231928e-04 -2.67028785e-03 -2.65055831e-04
      6.49233261e-05 1.06179628e-04 1.28858401e-05 -9.41780600e-05
      3.71484311e-05 2.45312112e-04 2.96046317e-04 -9.48768924e-04
      -5.62025700e-04 1.10273744e-04 -7.40032119e-05 -2.12656407e-04
      8.06642929e-05 4.55315836e-04 2.52073969e-05 -3.03424080e-04
      7.77637353e-04 -1.49511048e-04 9.48441913e-04 -5.92844590e-05
      1.28970147e-04 1.24206854e-04 1.90588750e-03 3.97493975e-04
      5.16174536e-04 6.02543741e-06 3.53011448e-04 -2.22225572e-05
      9.12047180e-05 7.78818721e-05 9.39334801e-04 4.97281508e-05
      -1.51226926e-03 -1.21204124e-03 9.01398656e-04 -3.79277189e-04
      -2.05719392e-04 -1.04335847e-03 -1.14793591e-04 -1.16545439e-03
      8.52294848e-04 8.99467632e-05 -7.59684073e-04 3.69145535e-04
      2.08845391e-04 1.63419594e-04 -2.45717179e-04 6.95425551e-04
      -7.98386638e-04 -6.36170909e-04 -5.36123407e-04 -5.63619600e-04
      6.11278811e-04 1.52913330e-03 -1.38695003e-03 2.14684056e-04
      -4.20192024e-04 2.96601240e-04 -3.31175652e-05 1.55452476e-03
      1.30622546e-04 -4.75875160e-04 1.75963598e-03 -6.66564505e-04
      -2.00808718e-05 -1.05319064e-04 -2.49238743e-04 1.59175936e-04
      -2.17560846e-05 3.30975163e-04 1.20913406e-04 -7.14845723e-04
      -3.59798723e-04 -6.54244388e-04 -6.70396694e-05 -1.26832607e-03
      -8.16280372e-05 1.27980777e-03 9.71137546e-04 -2.45883683e-04
      -1.25380699e-03 1.49311876e-04 1.26091437e-03 5.23031282e-04
      -1.50049935e-04 -8.90466690e-05 4.07112966e-04 6.54082920e-04
      -5.94547309e-04 -5.51144840e-05 -6.09857780e-05 7.27187362e-05
      -3.14897450e-04 5.35538536e-04 -1.08072895e-03 -1.32639357e-03
      -1.58060086e-03 -2.33813407e-04 6.43750391e-05 -3.67658853e-04
      2.81958259e-04 -6.27731060e-05 -4.21318895e-04 1.50872639e-03
      -9.65382555e-04 -5.61778179e-05 1.29556423e-03 4.74092143e-04
      -4.58938419e-04 -3.04510060e-04 1.80056307e-03 -1.47282798e-03
      -1.10626768e-03 6.28793787e-04 1.92286934e-05 -1.91425890e-04
      4.54107765e-04 7.29842635e-04 -1.36616896e-03 6.24780077e-04
      -6.27624759e-05 -3.09244409e-04 4.05706349e-04 1.28186075e-03
      -4.04261489e-04 -1.17841503e-03 2.31397149e-04 -9.22699226e-04
      1.04562096e-04 -4.72803542e-04 -1.17166412e-04 1.98651935e-04
      3.70967609e-05 8.08397483e-04 -1.52814458e-03 1.02080579e-03
      6.53953350e-04 -1.43399782e-04 8.45576360e-05 5.34614548e-04
      5.47657000e-05 3.43895779e-04 -7.68103928e-04 -4.89158672e-04
      1.32208341e-03 5.39632107e-04 1.39896525e-03 -9.25679400e-04
      -2.36201922e-05 9.20968814e-05 -9.32073861e-04 2.53079808e-04
      1.41020486e-04 -1.16280053e-05 1.66696133e-04 -4.26377141e-04
      1.93058964e-04 3.26152454e-04 -8.26502219e-04 -7.77831359e-04
      1.63559814e-03 -7.51189364e-05 -7.87392724e-04 -2.30910431e-04
      -1.51570726e-04 -1.12207548e-04 4.64618293e-04 1.24048244e-03
      1.86791993e-04 3.58394464e-04 -4.55882953e-04 9.73709484e-06
      3.43078224e-04 -2.67126336e-04 -3.51732655e-04 2.44705763e-04
      1.59450155e-03 1.18253916e-03 1.76098663e-03 -1.90738006e-04
      8.16363099e-05 -1.53060572e-03 -3.96411924e-04 9.33033698e-06
      -2.86362600e-04 -6.63419080e-04 -2.82822148e-04 -6.09881710e-04
      -3.08148446e-04 1.68021175e-03 -9.02259373e-04 2.56810483e-04
      -2.02419269e-05 -6.11326250e-04 3.30932671e-04 4.82734467e-04
      7.17574731e-05 -3.89693509e-04 1.38578587e-04 -4.02975042e-04
      1.11990244e-04 1.62713040e-04 7.42239281e-05 -1.53468584e-03
      8.67715105e-04 -1.87732058e-03 -2.05165459e-04 1.15229492e-03
      2.01384537e-04 3.77028278e-04 -3.22951564e-05 -3.05846479e-05
      -3.65859596e-04 -2.49201054e-04 -7.64148019e-04 -2.11889492e-04
      -3.15931247e-04 -5.04058517e-05 -3.91973736e-05 1.69129969e-04
      -1.81206255e-04 3.59056314e-04 -4.27202986e-06 1.27728694e-04
      4.48426727e-04 -4.60834766e-04 -3.47872206e-04 -8.67792187e-06
      -1.26594707e-04 3.55120923e-04 -2.11669918e-04 5.15089887e-05
      -8.62600427e-05 8.94097957e-06 -6.69896253e-04 2.46620411e-03
      -4.81977157e-04 -9.29148053e-04 1.01178756e-03 1.57137669e-03
      1.18507247e-03 -4.03900136e-04 2.99384323e-04 -2.44134208e-04
      -6.66987689e-05 1.50187849e-03 2.19825291e-04 -5.81049826e-04
      -3.63197847e-04 9.24029155e-04 3.51647381e-04 -2.85280490e-04
      3.92791961e-04 1.54235039e-03 -5.97196980e-04 -9.50179005e-04
      -2.14199579e-04 -1.80435978e-04 1.59090996e-04 -8.88402283e-05
      6.59070865e-05 1.40059667e-04 1.38097996e-04 2.87994335e-04
      2.04019962e-05 2.21199371e-04 -1.49719635e-04 1.65817881e-04
      -1.70398969e-04 3.71372007e-05 -1.17644544e-04 -8.00487061e-04
      1.35439786e-03 2.51493675e-05 2.28995297e-04 7.63992430e-05
      5.71905926e-04 -2.67933297e-04 -1.50575931e-03 5.07494915e-05
      6.49223657e-05 -8.46945259e-05 -1.98691967e-04 -7.23153862e-05
      1.39241223e-04 1.68241895e-04 -1.32024972e-04 -8.93280609e-04
      1.41767028e-03 -7.18628144e-05 -6.62665756e-04 2.44228984e-04
      7.71654668e-05 -2.15680979e-04 -7.41892785e-04 1.38321135e-04
      -6.73517352e-04 -4.02294769e-04 -4.21413552e-06 -1.07812742e-03
      -1.04850263e-03 5.38680004e-04 -1.05330918e-03 4.39092779e-04
      1.77463182e-04 -7.53842178e-04 4.70325904e-04 1.08499778e-03
      -5.15609827e-06 -3.80468788e-04 -1.10729330e-03 -1.62248223e-04
      4.43534460e-04 -4.50980151e-04 4.65713732e-04 -3.45070468e-04
      -8.26202013e-05 1.91855899e-04 -2.63683964e-04 -4.75365028e-04
      -1.61396762e-04 5.60595290e-05 5.55011502e-06 4.48935607e-05
      1.88825739e-04 -7.83909636e-04 6.49237918e-05 7.88619276e-04
      3.50424438e-04 8.37174302e-05 2.88242998e-04 5.11081307e-04
      -4.47254642e-05 2.79121683e-04 5.30749850e-04 -9.84993181e-04
      2.23740726e-03 -3.06716334e-04 2.07654084e-03 -3.44481756e-04
      4.86969628e-04 -1.77142938e-04 -7.84997130e-04 2.38700071e-04
      4.05350962e-04 -2.58303935e-05 -3.05086083e-04 -2.61199864e-04
      1.33363937e-04 -2.23738592e-04 -2.69432348e-04 -7.41968513e-04
      -4.71217150e-04 5.73286903e-04 -5.86025824e-04 3.80821963e-04
      2.06392666e-04 3.60208185e-04 1.91571109e-03 -9.36496712e-04
      4.45748650e-04 -4.54223482e-04 1.18707784e-03 -1.27849076e-03
      2.07996040e-04 -2.72685243e-03 -1.42511574e-03 1.27426314e-03
      5.91474876e-04 -2.86632887e-04 -1.43855403e-03 -1.29104906e-03
      2.41944785e-04 1.36258372e-04 8.92335374e-04 2.66032439e-04
      2.02417083e-04 -3.06892674e-04 -1.82192773e-04 -2.63153022e-04
      3.83888400e-04 1.25884122e-04 1.53484638e-03 5.03473508e-04
      -3.63468425e-04 -2.99079838e-05 1.58550421e-04 -4.60188749e-04
      -1.25506267e-04 -7.21926335e-04 7.32979621e-04 1.01110153e-03
      2.35384243e-04 -4.96475768e-05 -4.51118365e-04 1.10854344e-04
      -2.10826664e-04 6.00657368e-04 1.47698377e-03 -1.56720786e-03
      -2.03066142e-04 5.78306091e-04 -9.76378040e-04 1.37976406e-06
      2.55559076e-04 -3.06210063e-06 -7.34476489e-05 7.48793304e-04
      -8.18115877e-05 -1.73735680e-04 6.55166950e-05 2.44888477e-04
      -1.37391282e-04 -1.27165156e-04 2.12635583e-04 -2.79058632e-03
      1.83978598e-04 -5.11791623e-05 -5.41866699e-04 5.62589092e-04
      6.34590397e-04 8.49497679e-04 -1.51789666e-03 -1.63860351e-03
      1.42737955e-03 -3.19624174e-04 2.98093131e-04 1.21937759e-04
      5.13048610e-04 -1.80472212e-03 1.01128535e-03 -2.58387910e-04
      1.91826635e-04 -5.48871933e-04 -4.48119536e-04 -1.26570102e-03
      2.52281484e-06 -1.41249632e-03 2.56716394e-05 2.13780487e-03
      -3.23413435e-04 1.57899063e-04 -6.90887464e-05 6.17673970e-04
      -3.08750314e-04 -3.71491042e-04 7.27838837e-04 -1.01213064e-03
      5.88298019e-04 2.17247478e-04 3.48952861e-04 -2.73589430e-05
      1.04310653e-04 -1.17547737e-04 3.35831399e-04 -3.19464220e-04
      4.51604428e-04 4.09747940e-04 5.82668981e-05 -9.12592921e-04
      3.04014131e-04 -1.47521717e-03 6.06180052e-04 -1.23345375e-03
      2.10265908e-03 8.77954590e-05 9.77166492e-05 -2.18958914e-04
      -6.26950932e-04 -5.39129716e-04 1.04925988e-04 -5.84575755e-04
      3.77249962e-05 -7.54922439e-05 -1.46208753e-04 5.43215356e-05
      -2.34040839e-04 -1.14362825e-04 -3.06920447e-05 -5.90031850e-04
      1.87560986e-03 -6.42950414e-04 -1.01999659e-03 -9.47287335e-05
      2.30977108e-04 -9.36683682e-06 -1.33221038e-04 6.84679117e-06
      -6.82444079e-05 7.31425709e-04 1.42958516e-03 5.20643720e-04
      6.54761097e-04 -2.23551528e-04 2.35904226e-04 -5.12097846e-04
      7.85187935e-04 -5.73161116e-04 -1.03899278e-03 6.22579304e-04
      -1.43090932e-04 6.54719246e-04 7.38753879e-04 5.00913768e-04
      8.92124721e-04 4.71064151e-04 1.81951327e-04 -8.95989884e-04
      4.09818058e-05 1.18196673e-04 1.79331179e-03 2.54510087e-04
      -2.39572590e-04 5.29569283e-04 1.34255708e-04 -9.88692977e-04
      -1.25183706e-05 -9.26428591e-04 3.38341808e-04 -2.63298687e-04
      2.29699333e-04 3.88339424e-04 6.11100404e-05 1.97513308e-03
      5.61416149e-04 1.25976955e-03 4.64374869e-04 -8.81034997e-04
      -8.22143629e-05 -3.69950605e-04 -1.13759399e-03 -2.48261029e-04
      -2.48963945e-04 -2.96664148e-05 3.01127176e-04 -3.75793607e-04
      1.64906538e-04 -6.56478151e-05 2.88754120e-04 -5.35494357e-04
      -5.47902077e-04 1.03925471e-04 6.76043855e-04 7.26315368e-04
      -3.71311937e-04 7.05876737e-04 -1.57250138e-03 2.07912162e-05
      3.83633014e-05 -4.38690244e-04 -5.99415682e-04 -1.47706212e-03
      2.00238801e-03 2.60077039e-04 -2.98639934e-04 -6.18811580e-04
      2.25307915e-04 -2.22545513e-03 -7.91925646e-04 -2.74808059e-04
      -4.52360546e-04 1.06433546e-03 -1.03356491e-03 -1.00283383e-03
      -1.33001347e-04 -5.05830685e-04 7.77415757e-04 2.20219197e-04
      5.36679523e-04 7.38345043e-05 -3.79392412e-04 5.37101761e-04
      -1.64514742e-04 1.24326616e-03 -3.37537844e-04 -5.46076393e-04
      9.31815244e-04 5.10668731e-04 8.66429764e-05 -4.25425853e-04
      -2.27163138e-04 1.01436861e-03 2.22135830e-04 -7.63871067e-04
      -3.48378118e-04 6.03155582e-04 -1.17788943e-04 -9.73497299e-05
      -2.60349334e-04 5.86165697e-04 3.40544590e-04 -1.20341149e-03
      -1.62817258e-03 -4.05732862e-04 -8.63168971e-05 1.56337250e-04
      2.85852730e-04 -1.48232881e-04 -6.33300224e-04 -2.61321606e-04
      9.25328131e-05 1.49917847e-04 1.74909117e-04 3.01246881e-04
      5.83494984e-05 3.88129876e-04 -7.28607847e-05 -1.34163559e-03
      4.40436852e-04 -6.21870218e-04 1.55590381e-03 3.98299453e-04
      5.34311461e-04 -7.51729356e-04 -6.66611944e-04 1.96639507e-04
      2.35403422e-04 3.75887059e-04 -7.45156431e-04 -4.66114252e-05
      4.71196458e-04 -9.31152550e-04 2.05066008e-03 -2.51550600e-03
      4.06107894e-04 1.41377575e-04 2.03335471e-03 1.05603889e-03
      2.07922785e-04 -1.89128530e-03 1.20822957e-03 3.74151190e-04
      3.34064709e-04 3.38082231e-04 -8.52570665e-05 8.62054119e-04
      1.48667357e-04 -3.63998224e-05 5.35971543e-04 -1.40967825e-03
      1.24644343e-04 2.66940711e-04 -2.12937026e-04 6.09217968e-04
      -1.17132104e-05 -4.09080589e-04 -4.56107955e-05 -1.63795112e-03
      2.75699713e-04 -1.67081511e-04 -1.88275691e-04 -1.83348870e-03
      -1.38601012e-04 -3.37709062e-04 1.39303948e-03 3.04885471e-04
      -6.86278625e-04 6.51969458e-05 7.20744138e-04 6.25722343e-04
      -5.65050927e-04 -4.44058314e-05 5.67839365e-04 3.22558917e-04
      2.98187428e-04 1.58264756e-05 -3.38866703e-05 2.10621831e-04
      -5.02285839e-04 9.34701177e-07 -5.75727900e-04 5.76209975e-04
      -8.99447841e-05 -8.99812439e-04 -4.73720465e-05 1.48875915e-04
      4.04032005e-04 -7.15254646e-05 -8.19720211e-04 -3.40273662e-04
      8.80645995e-04 -5.10860991e-05 4.92513122e-04 -1.21629925e-03
      -1.72861517e-04 -6.49559428e-04 1.73630647e-03 -3.70649184e-04
      -9.52703587e-04 -5.54856611e-04 1.18247299e-05 -7.25305406e-04
      2.86317489e-04 6.58037141e-04 -2.88520707e-04 1.34933996e-03
      5.26761578e-05 2.70305172e-04 1.23921869e-04 4.16272378e-05
      -1.10451401e-04 1.00306177e-03 1.18139644e-04 -1.52580498e-03
      -1.91607251e-04 1.83829281e-04 -4.20951226e-04 -1.72229687e-04
      5.43981369e-05 -5.37769229e-04 4.52889770e-04 -9.51329785e-05
      2.11540377e-04 -4.04510036e-04 1.59296338e-04 -3.83067782e-05
      4.64008888e-04 1.54624309e-03 1.88880600e-03 -1.35188620e-03
      1.28821307e-03 -4.25590290e-04 1.07149757e-03 9.32047624e-05
      4.84184748e-05 -3.70853173e-04 -9.78466240e-04 -1.70262269e-04
      1.09043176e-04 2.82818128e-05 -2.46695068e-04 5.23446535e-04
      -7.94030348e-05 1.68286657e-04 7.02735793e-04 -2.05893093e-03
      2.10459088e-03 1.32986956e-04 -1.80145877e-03 -7.02127058e-04
      -5.12712431e-05 -2.78595486e-04 -4.39982512e-04 3.94958362e-04
      2.58940941e-04 1.18227217e-04 1.04244123e-03 -4.63574921e-04
      1.56996059e-04 -3.77107703e-04 -9.33528761e-04 3.48801317e-04
      1.15330028e-03 8.09119115e-07 8.38401553e-04 -1.68317684e-03
      -1.36183749e-04 -2.00098404e-03 1.15286617e-03 4.83338226e-04
      5.43393253e-04 4.24485683e-04 4.22068260e-05 -5.73693891e-04
      -2.85014132e-04 8.70069471e-06 6.00323605e-04 -1.86749536e-03
      4.44477155e-05 -1.22127077e-03 2.38784669e-05 -1.71336549e-04
      2.04134019e-04 3.06895381e-04 2.36980879e-04 4.95566172e-04
      -3.49960246e-05 5.54358761e-04 -1.17502575e-04 1.02696649e-03
      8.80224616e-06 -5.43734641e-04 1.75449578e-03 -3.89340217e-04
      -4.64755401e-04 -7.82111776e-04 -1.33149850e-03 -2.12499326e-05
      -4.23800120e-05 8.47189731e-05 7.38505041e-04 1.91968036e-04
      -8.26590986e-05 3.09831812e-05 1.33098452e-04 -4.68073908e-04
      -2.50412209e-04 3.74134950e-04 -9.31991555e-04 -3.54524876e-04
      -8.71899072e-04 6.05804453e-05 5.73190977e-04 -1.17864794e-04
      8.50071592e-05 4.81607334e-04 -1.27955267e-04 -6.38331636e-04
      8.92135213e-05 -7.65117584e-05 5.56622748e-04 1.41013460e-03
      7.74813350e-04 3.44646018e-04 -5.95428923e-04 -2.42482917e-03
      6.46429195e-04 -8.77516344e-04 9.98618925e-05 -6.51186449e-04
      4.77998292e-05 -1.81631942e-04 -9.18388541e-04 9.23920830e-04
      -3.90274974e-04 1.18704280e-04 3.12788412e-04 1.37244351e-03
      -1.45880156e-04 -6.55476528e-04 -1.11905474e-03 8.05499789e-04
      4.92899737e-04 2.17855748e-04 -1.54844631e-04 4.16296301e-04
      -3.45675980e-05 -3.24113847e-04 -4.46356680e-05 7.49445288e-04
      -1.93440967e-04 -1.78462360e-05 1.35327864e-04 5.04020172e-05
      3.36716679e-04 1.03268144e-03 -7.26808852e-04 -3.71914153e-04
      1.03526181e-05 -4.06951673e-04 -3.29595554e-04 1.28175321e-04
      5.82182081e-04 5.27318276e-04 3.22984211e-04 -2.00235023e-04
      1.62996766e-05 2.71694356e-04 4.53514403e-05 -3.03602283e-04
      2.48146061e-05 4.13579546e-04 1.31277158e-03 5.99423947e-04
      -8.28210381e-04 4.45149140e-04 5.41436311e-04 -3.59179481e-04
      3.19985062e-04 -3.16645310e-05 1.58826966e-04 -6.94776594e-04
      1.95470377e-04 2.69810571e-05 1.03978103e-03 1.07501680e-03
      -7.86171586e-05 -6.71866990e-04 -2.67955684e-03 2.71367840e-04
      1.16810690e-04 -1.34042534e-03 1.00761477e-03 3.88462940e-04
      -6.91520399e-05 2.34715262e-04 -1.50957122e-03 3.66618857e-04
      3.86232598e-04 3.16575781e-04 -3.12902353e-04 1.67059293e-03
      3.24318025e-05 1.84116361e-03 4.53676941e-04 -7.76072324e-04
      1.72785469e-04 -2.72376019e-06 1.76876609e-04 -6.76989439e-04
      -7.05260572e-06 -2.05094402e-04 2.83733301e-04 -1.03092671e-03
      1.13273018e-04 -4.21765086e-04 1.30737986e-04 -6.56859367e-04
      5.18838679e-05 5.06095588e-04 1.45853334e-03 3.37966863e-04
      -2.77027750e-04 -7.17436778e-04 -4.47597151e-04 3.85886175e-04
      -1.94312335e-04 -1.09861267e-03 -7.29972904e-04 -4.91603751e-05
      2.92565324e-04 1.98348771e-05 -6.04926958e-04 -4.89985512e-04
      1.13284441e-04 3.85260966e-04 -5.05516247e-04 -1.76007871e-03
      1.01208768e-03 4.98532143e-04 9.51549329e-04 -2.84872240e-05
      -2.23330455e-04 5.44024108e-04 -1.70066697e-03 8.39881890e-04
      3.82004393e-04 1.54711975e-04 6.44024403e-04 -1.13419141e-03
      7.91407481e-04 -5.34238789e-05 -3.08943185e-04 -1.98281647e-04
      -2.16458211e-04 -4.33953101e-04 -1.52230938e-03 -1.74004106e-06
      -5.58573811e-04 -9.18295176e-04 -5.25323208e-04 -7.45375233e-04
      3.41114821e-04 7.30611355e-05 1.69178849e-04 6.11979282e-04
      8.29154233e-05 1.73050619e-03 -1.56992057e-03 -7.27893668e-04
      -3.47399327e-05 1.66884456e-05 -9.78686949e-05 8.50707074e-05
      3.50598712e-05 3.16750869e-04 -1.64513549e-04 2.51157768e-03
      4.06255363e-04 6.93861730e-05 2.05910634e-04 -9.86288534e-04
      1.77706068e-04 -7.77247042e-05 -2.41091067e-04 6.09232753e-04
      -1.51648128e-04 9.25343993e-05 5.06366778e-04 -2.43767587e-04
      -2.79809319e-05 -5.42874623e-05 7.14821334e-04 1.60699601e-05
      -2.35989050e-04 -2.79385531e-05 -4.61177260e-05 -3.91882204e-04
      -1.53227302e-04 1.69081832e-04 1.14691583e-03 -2.50791200e-03
      2.05912907e-03 -4.67035570e-04 -1.38907274e-03 2.48984230e-04
      1.02173035e-05 8.88143608e-04 -1.60327676e-04 2.87013070e-04
      -2.57682899e-04 2.01572475e-04 1.23788789e-03 1.82114879e-03
      9.37329489e-04 -6.83788501e-04 -1.96060166e-03 -4.70185216e-04
      6.45910448e-04 -1.09771080e-03 7.66691111e-04 -1.13413413e-03
      1.37646231e-04 7.77007954e-04 -1.37894752e-03 1.18128269e-03
      3.01861204e-04 2.62222398e-04 1.60575801e-04 1.56686676e-03
      -1.08757682e-04 -1.89164456e-03 1.45345705e-03 1.33977889e-03
      1.02080070e-04 3.09230934e-04 9.47859007e-05 1.54811118e-04
      5.87924078e-05 3.19221843e-04 4.20569355e-04 -2.31521903e-03
      3.79561097e-04 -5.24280722e-06 2.41720874e-04 -2.82929308e-04
      -2.86008581e-04 9.38430603e-04 1.01378863e-03 -1.49106164e-03
      -1.65786943e-03 -2.12755025e-04 -7.67815800e-04 -4.41280456e-04
      -3.86735337e-04 1.12479611e-04 -8.36344669e-04 1.42631572e-04
      -3.11777367e-05 6.84759107e-06 5.85371781e-05 2.00594714e-05
      -1.74301138e-04 2.72454090e-05 6.70626061e-04 1.35562115e-03
      -2.25477293e-03 1.66779559e-04 7.00547069e-04 6.74966286e-05
      -2.84980226e-04 4.27366438e-04 1.08275784e-03 4.52682834e-05
      -1.31546741e-03 -2.13511776e-05 1.17463882e-04 2.83339159e-05
      9.84658487e-04 1.19727803e-03 -9.91598703e-04 1.02020940e-03
      2.08065100e-03 -1.24951138e-03 2.61444919e-04 3.55363998e-04
      5.54412662e-04 -9.11915733e-04 -8.35022438e-05 -7.49421306e-04
      -3.86173342e-05 2.85635615e-04 1.44476071e-04 1.66663108e-03
      1.97133952e-04 -2.13684957e-03 -2.79681466e-04 -2.99599924e-04
      3.27838352e-04 1.19426659e-04 5.01521688e-04 3.19767016e-04
      -1.68239239e-05 4.17119794e-04 5.07192686e-04 -3.56819452e-04
      -8.61867466e-06 1.55952250e-04 4.15511749e-05 -2.50679557e-03
      8.83105560e-04 9.50933550e-04 8.48468684e-04 1.03715411e-03
      -1.40896183e-03 -5.72161225e-04 -2.67358101e-03 -1.45258809e-05
      5.91310527e-05 1.05905638e-03 1.48434978e-04 1.81545009e-04
      -7.33173219e-05 2.77878053e-06 -9.03232212e-05 -1.30577064e-06
      2.66808114e-04 5.17752545e-04 1.09814538e-03 4.70391125e-04
      -3.35923512e-03 -6.47655572e-04 1.75572772e-04 -2.58686661e-04
      8.54523678e-05 -8.27577838e-04 1.34273650e-04 -4.67737409e-05
      1.14969723e-03 9.00655505e-05 4.61070944e-04 -6.05847687e-04
      4.52508655e-04 -3.33470263e-04 5.22904680e-04 1.02565729e-03
      -9.96151139e-05 -7.08273801e-05 9.92322108e-04 -6.99426921e-04
      2.21812970e-05 5.09419828e-04 -1.11451256e-03 -8.36793100e-04
      3.75736941e-04 2.35755477e-04 -3.18345876e-04 -1.08151196e-03
      1.64214638e-04 -1.71436789e-03 -7.74275570e-04 1.06968486e-03
      1.48139239e-04 2.21352137e-04 -1.72636719e-04 -8.88056587e-04
      9.83306963e-05 3.50398535e-04 2.85922666e-04 -1.05870957e-03
      2.33701576e-04 -1.20566619e-04 -4.55968373e-04 9.19341983e-04
      5.64144400e-04 -1.11150160e-03 1.36630295e-03 -1.02260232e-03
      1.49238296e-03 -1.27430641e-04 1.84826622e-05 3.17988481e-04
      -2.37008309e-04 2.40196969e-04 -1.19753473e-03 -2.04824737e-05
      -2.25241660e-04 3.62991741e-05 1.17737683e-04 -4.25068400e-04
      3.53912328e-04 7.55384508e-06 4.01595607e-04 6.98708638e-04
      1.01033156e-03 1.46006321e-04 -3.97048425e-04 1.38961288e-04
      9.11914540e-05 -3.77256743e-04 -1.39682670e-03 -4.11035697e-04
      1.13831530e-03 3.30491981e-04 -2.61757581e-04 -2.01877119e-04
      -9.00934829e-05 1.59062515e-03 1.94992099e-04 9.36536017e-05
      2.22412846e-03 1.07717980e-03 8.04321025e-04 -1.59684510e-03
      1.74598870e-04 2.43040291e-03 -3.07589560e-03 6.27833360e-04
      1.44207355e-04 8.55648886e-06 -4.50167834e-04 1.58191472e-03
      1.15387258e-04 1.34119275e-03 2.06795215e-04 -1.45217765e-03
      -3.23692584e-05 4.41271986e-04 2.46042327e-04 -7.43759520e-05
      2.72380767e-05 -5.73803438e-04 4.25072532e-04 -1.72083313e-03
      -6.46494082e-05 -3.27388814e-04 3.30705545e-04 -2.36537098e-03
      -1.90543928e-04 -1.54699455e-03 -6.01483858e-04 -1.00653013e-03
      1.69464352e-03 4.02050558e-04 -7.72552274e-04 -2.22167273e-06
      3.66056920e-04 -9.26531575e-05 2.11898284e-03 -2.07121542e-04
      -3.36817437e-04 -6.19328493e-05 4.74242290e-04 -5.24976858e-05
      -2.63991475e-04 1.07281216e-04 4.02647973e-04 -7.46075937e-04
      -1.08551001e-04 -2.08195182e-04 5.08646015e-04 -3.35090852e-04
      -2.40035079e-04 -9.89695196e-04 2.02767842e-04 1.55565888e-03
      -1.76977203e-03 1.90030114e-04 2.10727987e-04 -1.50962360e-03
      8.16386018e-05 6.74525392e-04 1.48585369e-03 -2.77178036e-03
      2.65845680e-04 -6.58200646e-04 6.38451427e-04 1.43776042e-03
      -3.51572991e-04 2.10439408e-04 -9.79192322e-04 7.58980634e-04
      5.50780504e-04 4.90853345e-05 1.84096862e-04 -1.22239511e-03
      2.92510056e-04 -9.59463825e-04 -5.46699564e-04 -1.85923220e-03
      -5.48205790e-05 -4.11548215e-04 2.07182209e-04 -4.95279673e-04
      1.23811609e-04 3.61366925e-04 6.23454223e-04 -1.34997186e-03
      3.37246456e-04 -5.02351439e-04 2.42235592e-06 4.75415075e-03
      1.80735835e-04 4.64614510e-04 1.70875608e-03 -1.49315048e-03
      -1.15082250e-03 3.11578915e-04 -1.03241450e-03 -3.67668603e-04
      -9.85902007e-05 -5.79011976e-04 5.65550698e-04 1.39919503e-04
      3.73490446e-04 8.60600558e-05 1.97718313e-04 -9.17629586e-05
      -1.47230356e-04 -2.97970430e-04 -5.09335296e-05 2.20675278e-03
      2.14080253e-04 2.95136851e-04 -1.84533570e-03 3.15941550e-04
      1.44309146e-04 7.97413988e-04 -8.00703070e-04 2.86316033e-04
      6.89234352e-04 -2.64085655e-04 -1.02912774e-04 -1.31439976e-03
      2.02788695e-04 1.43698882e-03 3.84529616e-04 -1.12108188e-03
      1.06441835e-03 -1.65949075e-03 -3.42150917e-04 -1.56488456e-03
      5.03258663e-04 -2.71572535e-05 -2.04208467e-04 1.15944247e-03
      -3.50131071e-04 3.42617830e-04 -1.35294758e-04 2.30091787e-03
      8.25216775e-05 2.18996243e-03 -7.69695998e-06 -6.13273645e-04
      3.07401024e-05 -2.25544878e-04 -2.11536986e-04 5.41423622e-04
      -1.66521204e-05 2.40940237e-04 7.55946749e-05 2.37740157e-03
      -4.29335283e-04 -6.35396136e-05 1.29835549e-04 -6.87990047e-04
      9.67624728e-05 -3.79441975e-04 3.38002719e-04 3.21151128e-05
      3.35415942e-04 -2.30828431e-04 1.15460844e-03 2.72655772e-04
      4.63243596e-05 -6.12775038e-04 -2.64197192e-03 -5.01134258e-04
      -6.32644078e-05 -1.29448716e-04 4.99949208e-04 3.73743445e-04
      -7.55630244e-05 -2.54805229e-04 6.95222872e-04 -1.73301646e-03
      1.58424990e-03 -2.53068574e-04 -1.15909928e-03 2.73864047e-04
      -5.12644299e-04 6.26290974e-04 -6.57169905e-04 -1.69718452e-03
      -1.73536726e-04 3.43659834e-04 -7.47575541e-05 -1.99932558e-03
      -3.17253609e-04 1.82044925e-03 1.59386941e-03 -2.76632578e-04
      1.60211395e-03 -1.11303630e-03 4.24908358e-05 -2.77859089e-03
      -3.00358632e-04 -2.34024366e-03 -3.15809064e-03 -3.59293568e-04
      1.52712339e-04 -2.00524191e-05 1.25616119e-04 -2.20028116e-04
      5.13745181e-04 7.24218029e-04 -3.59253230e-04 2.70565040e-04
      2.40385387e-04 4.68985119e-04 1.40644552e-04 1.66524100e-04
      5.52195488e-05 -8.84120411e-04 -2.92111159e-04 -7.03790749e-04
      -4.52573004e-05 2.32878898e-04 -2.78071646e-04 2.11475650e-03
      -4.48815874e-04 -2.34144507e-03 1.99848528e-05 -2.80352579e-05
      2.34307419e-03 -7.99180634e-05 1.36178581e-03 -1.20337696e-04
      -1.07313186e-04 1.46738093e-04 1.21836446e-03 -1.90119667e-04
      -4.70517225e-05 -7.43838609e-05 -1.92679712e-04 -2.48866389e-04
      -2.65169772e-04 -1.82861113e-04 5.31501952e-04 7.91189814e-05
      2.68165255e-04 5.80466876e-04 1.10793347e-03 4.54891822e-04
      3.81263613e-04 1.04681717e-03 4.33927082e-04 -1.64081881e-04
      4.92401829e-04 2.46768061e-04 -5.81019151e-04 -6.94163391e-05
      2.34985462e-04 -6.19346465e-05 5.33336017e-04 1.45004783e-03
      -3.09107942e-04 -5.74393664e-04 2.43021539e-04 1.79941300e-04
      -3.11440053e-05 -2.07459694e-03 2.55002727e-04 5.04736789e-04
      -1.00025849e-03 1.19422020e-05 3.74077848e-04 3.77990829e-04
      -2.64967122e-04 -1.00874466e-04 -1.58197677e-03 -4.28192106e-05
      3.25268018e-04 5.24020346e-04 -3.21251049e-04 -4.52676555e-04
      -7.74262298e-05 -6.24064473e-04 3.08446703e-04 1.07558852e-03
      -2.22629300e-04 2.00047743e-05 3.50029353e-04 -1.94130407e-04
      -6.25602624e-05 -8.44991475e-04 1.05065014e-03 -5.65772876e-04
      1.39585289e-03 -1.59891460e-05 3.67737957e-04 6.26943074e-06
      1.90843042e-04 -6.79503079e-04 7.31998356e-04 -2.24088944e-04
      -1.16164403e-04 2.04744618e-04 -9.92899732e-06 1.43152996e-04
      -1.24681799e-04 3.48468120e-06 -5.60398796e-04 6.73116767e-04
      1.79255544e-03 9.03611945e-04 1.89720886e-03 1.56876631e-04
      -1.40724180e-04 2.80374254e-04 7.46348000e-04 -1.03552733e-03
      -9.29376169e-04 -1.31020324e-05 -2.35109619e-04 -7.06135994e-04
      -1.08330722e-04 -7.57274043e-04 -1.54296833e-03 2.36789157e-04
      1.79647107e-03 7.28303683e-04 -1.92730897e-03 4.51203028e-04
      2.75265593e-05 1.04376173e-03 2.95679638e-04 7.91604631e-04
      4.53746587e-04 8.97689781e-04 -3.04483983e-05 -2.97163660e-03
      -1.47242863e-05 7.94677413e-04 -5.72196965e-04 1.16077636e-05
      3.34676530e-04 -5.75555059e-05 -6.29742281e-05 -3.75624368e-04
      8.18557237e-05 1.65263573e-05 4.07971820e-04 -5.98262821e-04
      -7.58613824e-05 1.51767163e-04 4.63946162e-05 -1.54254469e-03
      7.97897228e-05 -4.53099189e-03 4.97358560e-04 -1.46257121e-03
      2.82593519e-05 2.09558260e-04 -2.84461421e-04 2.95266393e-04
      4.09435859e-04 -6.44402346e-04 3.05279333e-04 -1.39779455e-04
      -3.31003190e-04 3.29562135e-05 -3.01471184e-04 5.08656318e-04
      4.36510134e-04 6.14978664e-04 9.41430975e-04 1.15039351e-03
      -1.07924850e-03 -1.13275892e-05 -5.40201203e-04 4.54801542e-04
      5.60341636e-04 8.36598338e-04 7.29665335e-04 3.79725912e-04
      -3.11494955e-06 1.90544481e-04 1.26557937e-03 -1.99886994e-03
      7.30010273e-04 -1.28211352e-04 4.59398783e-04 2.77741882e-03
      5.72386314e-04 -7.52034364e-04 5.22046816e-04 -8.42510257e-04
      2.36635751e-05 -1.49592385e-03 1.13899109e-03 -8.57683262e-05
      -1.96412264e-04 1.82149350e-04 -3.58906509e-05 6.42115832e-04
      -2.23682015e-04 2.82883970e-03 -1.85869564e-03 5.18671935e-04
      -6.31415169e-05 1.30394808e-04 -2.31400743e-04 -3.10858653e-04
      1.66325292e-04 4.35687980e-04 -4.69522405e-04 2.76674808e-04
      4.11182700e-04 -4.19924327e-04 9.32034436e-06 -7.61877600e-05
      2.43427465e-04 -1.87998940e-03 3.35541117e-04 -9.21532977e-04
      -1.32365385e-03 1.79338880e-04 1.59702959e-05 -8.56842053e-06
      -3.15990736e-04 2.17468361e-04 -1.10468781e-03 2.45591276e-04
      -6.73079921e-04 -7.16343711e-05 -3.82206490e-04 3.92704009e-04
      -7.52263950e-05 -5.87280992e-05 6.50973525e-04 -3.09522590e-03
      -1.49533059e-03 6.75828778e-05 1.16094307e-03 3.86652013e-04
      1.24730665e-04 5.41543239e-04 -3.01047985e-04 1.80153351e-03
      1.39554148e-03 -2.67528754e-04 8.17240856e-04 1.79009710e-03
      5.88362629e-04 -2.70516612e-03 1.50439198e-04 1.35071424e-03
      3.80045560e-04 -1.02844962e-03 2.15456937e-03 1.03654549e-03
      -3.64998996e-04 -2.72372225e-03 8.51712422e-04 1.20583433e-03
      -1.15703493e-04 -5.21262060e-04 3.33728793e-04 -9.99148469e-04
      -1.78590650e-04 6.94616348e-04 4.54581386e-05 6.09142007e-04
      2.49639153e-04 5.21390350e-04 -2.23597992e-04 -6.28440932e-04
      5.65448045e-06 6.81988458e-05 -1.01449870e-04 -1.89193524e-05
      4.05635627e-04 1.19810516e-04 -1.19482866e-04 6.37993071e-05
      -3.74362746e-04 -7.63076649e-04 2.65512615e-03 -8.63913388e-04
      -1.23426935e-03 4.26172628e-04 1.38406758e-03 -6.28462236e-04
      -3.35071236e-04 1.79267627e-05 5.80980792e-04 -5.76300918e-05
      1.35067661e-04 -6.59060170e-05 -2.33057450e-04 2.58328684e-04
      5.91885473e-04 -2.99370673e-04 1.77382107e-03 -9.71077068e-04
      9.30109993e-04 -4.40482661e-04 -1.99220283e-03 -3.75709438e-04
      2.16069995e-04 -6.07682217e-04 4.34391754e-04 -1.81104743e-03
      8.67109862e-04 -2.40130714e-04 -1.57388195e-03 -9.99672352e-07
      -1.17704109e-03 1.74236557e-04 5.27351513e-04 -2.35061813e-03
      4.35655762e-04 4.98093548e-04 1.81411576e-06 5.83953108e-04
      1.94131062e-05 1.83539669e-04 -1.75652711e-03 1.69831415e-04
      -2.99488311e-04 -1.51016184e-05 -3.43128399e-04 -6.35806791e-05
      1.10352448e-05 1.22385134e-03 -3.59888567e-04 1.27569900e-03
      4.37334393e-06 -5.31454920e-04 5.24521556e-06 -8.23061157e-04
      -4.05240535e-05 1.98036374e-04 3.30960960e-04 -1.78940420e-03
      7.32018889e-05 -7.83395662e-05 6.27881832e-07 -2.56595085e-04
      1.23408926e-03 1.22986746e-03 6.25879562e-04 1.32707981e-04
      -1.68215798e-03 -8.95213103e-04 -8.58653977e-04 -3.54200456e-04
      7.73040170e-04 1.24935861e-04 -9.59255034e-04 4.75946406e-04
      -1.52948080e-04 -1.50713735e-04 9.60572506e-04 1.45975660e-04
      2.52711121e-04 -2.20177571e-05 1.19298918e-03 -2.66022258e-03
      -1.35967101e-03 6.22988911e-04 -6.51049369e-04 -8.02517661e-06
      -6.40438884e-05 6.95217401e-04 -1.32319023e-04 3.25331651e-03
      8.69067793e-04 -3.64700245e-04 -6.10296789e-04 3.51677911e-04
      -9.16150020e-05 1.09098188e-03 6.77517557e-04 6.55620010e-04
      -1.31305610e-03 3.53188923e-04 -7.50683132e-04 -1.24757399e-03
      4.82773612e-04 -5.83558809e-04 -1.64647785e-03 -1.57047668e-03
      -1.83203476e-04 4.44212172e-04 -8.32555816e-05 -4.39891970e-04
      1.25500199e-04 2.46373261e-03 -5.66850184e-04 -2.27718905e-04
      -1.43207610e-04 2.01762829e-04 1.66202182e-04 -1.61823496e-04
      -1.35019305e-04 -2.34746753e-04 1.02285114e-04 2.61227996e-03
      9.51237598e-05 -1.72502507e-04 5.92607248e-05 -1.74216065e-03
      -2.07109653e-04 1.24890485e-03 1.38342404e-03 -1.36355357e-03
      -1.74247878e-04 1.00535952e-04 -1.20045722e-03 -2.21269234e-04
      -2.81910645e-04 -6.15734680e-05 2.18806323e-04 -3.74849769e-05
      4.73222899e-04 7.66131488e-05 1.78738628e-04 1.74680434e-04
      8.24640956e-05 -2.08644342e-04 1.93427689e-03 -1.86267088e-03
      -7.62879441e-04 4.40169766e-04 2.26147589e-03 -2.30036952e-04
      -3.95243726e-04 -6.30646187e-04 -1.12298352e-03 6.82376616e-04
      -8.42274239e-05 2.48468365e-04 6.04002504e-04 1.43330090e-03
      9.65893385e-04 -5.39650609e-05 -1.68186089e-04 -1.39103713e-03
      7.99212081e-04 2.37871602e-04 -1.12086465e-03 2.26203410e-04
      -3.66200402e-04 -7.23399164e-04 -7.55932939e-04 1.38191227e-03
      -1.99159796e-04 3.48354573e-04 5.27801691e-04 -9.69362562e-04
      2.48811120e-04 1.09551195e-03 6.57736557e-04 6.76211203e-04
      2.59373599e-04 -2.90674379e-05 -4.53575194e-04 1.08817090e-04
      -6.69825822e-05 3.53861484e-04 -1.57783361e-04 -1.12173124e-03
      3.14278906e-04 -3.01325374e-04 -1.60023119e-04 -4.05675441e-04
      2.97483755e-04 -1.67527221e-04 -1.44975039e-03 -1.58982890e-04
      -7.18351046e-04 1.95715838e-04 -2.65177106e-04 -1.38716612e-04
      9.19694139e-05 6.79486720e-06 -1.73682161e-03 -2.34038554e-04
      -1.28554486e-04 9.79046831e-07 5.31616737e-04 -4.30750515e-04
      3.25657369e-04 2.97238839e-05 1.64291053e-03 3.54096614e-04
      2.83787446e-03 -4.99080867e-04 -1.62246020e-03 -3.36904894e-04
      1.01312224e-04 -6.50274887e-05 -5.30107412e-04 2.12234235e-03
      1.05147006e-03 -3.12811280e-05 1.80864343e-04 -3.34047043e-04
      -1.53754387e-04 2.04945492e-04 1.17398176e-05 2.36907828e-04
      -1.36664123e-04 6.24881010e-04 -1.59465661e-03 -6.42836851e-04
      -1.30852888e-04 1.81255757e-03 9.73186048e-04 2.66071147e-04
      4.57132934e-04 -1.30261004e-04 2.24679170e-05 -1.93406909e-03
      1.53407091e-04 -2.84372410e-03 1.55726844e-03 2.10433151e-03
      2.43566203e-04 8.64259127e-05 -3.19343671e-04 -2.30109057e-04
      9.07520298e-05 2.07905920e-04 -1.17049698e-04 5.82958863e-04
      -7.57503876e-05 -1.68093247e-04 3.95249459e-04 -2.27528712e-04
      4.06446692e-04 -1.11945858e-03 -4.92811901e-04 -1.44874281e-03
      -2.57270789e-04 -2.86849361e-04 -1.48886372e-03 -2.36371925e-04
      9.80551195e-05 -4.97389738e-06 -3.46516754e-05 -2.06389712e-04
      2.52972004e-05 -9.53148992e-06 -2.20887596e-04 -3.25231929e-04
      2.36488515e-04 -1.41246186e-04 1.53868692e-04 -1.98184189e-05
      8.02016875e-05 4.28316416e-04 -1.33739808e-03 -7.28740124e-04
      -3.25723842e-04 -4.71985637e-04 1.20846066e-03 4.01023455e-04
      1.66550337e-03 -3.52550269e-04 1.63720304e-03 9.25910776e-04
      3.49342008e-04 7.39865995e-04 -1.10616274e-04 6.87589054e-04
      2.44984403e-04 -5.48535143e-04 -1.81015581e-04 -3.14851553e-04
      -1.06703519e-04 -9.76914962e-05 1.67923782e-03 1.04264892e-03
      -1.86290970e-04 1.07639835e-05 1.69662148e-04 -4.63238044e-04
      -7.86662076e-06 9.21405037e-04 -3.70224094e-04 -9.89715219e-04
      -4.28595114e-04 -2.78361131e-05 7.16693059e-04 -7.12070439e-04
      1.33081790e-04 -2.29403176e-05 -3.88983055e-04 8.49980628e-04
      -2.64880473e-05 -1.80217728e-04 1.54516616e-04 1.78973877e-03
      -8.27763361e-05 5.94468962e-04 8.90245428e-04 -2.19214358e-04
      1.04525534e-03 -5.56007144e-04 -8.61060573e-04 -5.31757396e-05
      1.12002363e-05 3.40685947e-05 -5.69702592e-04 3.25434201e-04
      -6.43137100e-05 1.08175205e-04 -3.51913681e-04 6.55057142e-04
      1.69054874e-05 3.66849708e-04 6.77277625e-04 -2.40796409e-03
      -1.63991528e-03 -7.82206364e-04 6.36795958e-05 6.86911400e-04
      1.99017275e-04 3.72673123e-04 -4.95256507e-04 -1.85764348e-03
      -9.42624407e-04 -3.00998770e-04 2.50347046e-04 1.33687782e-03
      -8.04150914e-05 9.08460410e-04 -6.24755688e-04 -1.16603472e-03
      2.83213361e-04 5.73503494e-04 -1.46529148e-03 -1.03992177e-03
      -3.03276873e-04 7.73025793e-04 4.07536572e-04 -1.82639298e-04
      -1.64370322e-05 8.22603994e-04 -6.20107574e-04 7.83383075e-05
      1.27307954e-04 -1.21647732e-04 3.17393511e-04 6.49532129e-04
      1.18791137e-03 -1.56725961e-04 5.91679534e-04 -8.51730147e-05
      -1.48216001e-04 -2.02416297e-04 -1.39366348e-05 1.61707134e-03
      6.81554957e-05 -1.91461426e-04 -1.21447347e-05 9.88778658e-04
      -1.18382799e-04 -6.81675621e-04 6.14940829e-04 -3.60364415e-04
      -1.06347678e-03 2.11182050e-04 1.05010295e-04 1.57127815e-05
      9.90922927e-05 -4.63282428e-04 1.04759634e-03 -1.90305931e-04
      -9.11469397e-05 2.63321981e-05 4.98048554e-04 -1.01972619e-04
      5.46209398e-04 -8.37302650e-04 4.63601988e-04 -7.02913851e-04
      1.04726711e-03 5.63098758e-04 -2.66429223e-03 8.31212819e-05
      -7.02055986e-05 5.59957174e-04 8.60210799e-04 4.85375058e-05
      -1.03579322e-03 1.94042412e-04 3.13108350e-04 -1.12471427e-03
      1.06997031e-05 6.96012576e-04 -1.25857396e-03 -1.64129958e-03
      3.66519118e-04 -8.85349000e-05 -1.44878123e-03 1.37325711e-04
      5.69655203e-05 9.52211383e-04 1.72621466e-03 1.14492862e-03
      -3.06635891e-04 5.41652262e-04 -5.31434081e-04 -1.24442799e-04
      -1.19730801e-04 -1.05611468e-03 -1.58743490e-03 8.20932095e-04
      -4.48991952e-04 3.30219715e-04 8.80879234e-05 4.27278836e-04
      -2.99478561e-05 -4.08081280e-04 5.17119006e-05 -3.56558769e-04
      2.77621642e-04 1.12604626e-04 -2.05754495e-05 1.42964930e-03
      9.36368306e-05 2.03984301e-03 1.43585465e-04 -5.05341974e-04
      6.04592147e-04 -1.45390193e-04 -1.47639541e-03 -3.14835802e-06
      -7.93076644e-04 5.94327517e-04 -6.72751281e-04 -2.96434719e-05
      4.24444734e-04 -1.36957766e-04 -5.03065276e-05 -5.03808202e-04
      -4.30756510e-04 -7.01922341e-04 1.44253799e-03 1.94542273e-03
      -1.47661369e-03 1.53414599e-04 2.28793407e-03 -6.31536022e-05
      -1.86990452e-04 9.90884379e-04 -2.47650919e-03 -1.98232965e-03
      -4.69935447e-04 -5.40891837e-04 -2.44979135e-04 2.01292080e-03
      -2.53132341e-04 5.78791369e-04 -4.63660690e-04 -2.56038108e-03
      1.06814282e-03 8.77434737e-04 -1.09285722e-03 -7.30812433e-04
      -1.53028581e-04 4.93154279e-04 1.16813299e-03 -2.21477399e-04
      4.25626553e-04 -7.39253534e-04 -2.47459742e-04 7.50304083e-04
      6.38590109e-06 -4.45926242e-04 8.26089410e-04 6.61218714e-04
      -3.54977441e-04 -3.65442596e-04 -4.27088380e-04 -1.20958699e-04
      5.90090312e-05 -3.57540674e-04 2.88319192e-04 8.26186078e-05
      4.91007122e-05 1.59770774e-04 -2.34588355e-04 9.32113035e-04
      1.23993304e-04 -4.04739578e-04 8.67222494e-04 -1.37226743e-04
      -1.02658034e-03 -4.82356787e-04 7.78694055e-04 2.73989863e-04
      -3.91084868e-05 -2.15588967e-04 1.50473975e-03 -2.98839121e-04
      -1.52756736e-04 -1.15069349e-06 4.84309421e-04 -2.66351446e-04
      1.31844703e-04 -1.15662508e-04 -1.25231061e-04 3.78523255e-04
      5.67946234e-04 7.00542005e-04 -1.46863889e-03 -6.64144391e-05
      -8.58729065e-04 -7.05232727e-04 -2.51308084e-03 1.26832502e-03
      1.28674856e-03 1.82417571e-04 2.19048525e-04 -2.91589167e-05
      2.79881293e-04 -5.93924888e-05 1.22385332e-04 -5.48298354e-04
      6.13818120e-04 4.82682604e-04 7.53975823e-04 -6.68551656e-04
      8.62082452e-05 -4.19032498e-04 -1.28650619e-03 -1.94892241e-03
      4.44086414e-04 -1.07482228e-04 4.17513889e-04 -1.40719549e-05
      1.07353648e-04 -2.16762157e-04 1.75666029e-03 -3.23584769e-04
      7.08330190e-04 8.88851500e-05 -2.13880776e-04 -4.84190787e-05
      -8.14149389e-05 9.13093609e-05 -1.45519254e-04 -2.65014078e-05
      6.19476923e-05 2.25156709e-05 1.86077348e-04 -9.26703142e-05
      -1.14074253e-04 -4.50858759e-04 -7.66238722e-04 7.62257725e-04
      1.09983957e-03 3.04245041e-04 2.46847747e-03 2.70310789e-04
      5.71234741e-05 -8.06818774e-04 1.59148651e-04 -1.38539472e-04
      -6.49355177e-04 2.29062334e-05 3.28426919e-04 -1.86124726e-05
      -1.16216790e-04 -3.21883737e-04 3.77034303e-04 -7.25430087e-04
      2.20900285e-03 -1.31589390e-04 3.23599461e-03 3.96346062e-04
      -1.75189620e-04 -2.52271071e-04 -3.58993816e-03 8.41924513e-04
      -1.46187830e-03 2.76086124e-04 3.29060567e-04 -1.10140350e-03
      -4.82965668e-04 6.18168269e-04 -2.13283580e-03 6.36677607e-04
      -1.49865006e-03 -3.54175776e-04 -2.64395960e-03 1.37512875e-03
      1.60774125e-05 -5.73208206e-04 -7.16706563e-04 -5.94731129e-04
      -5.40951500e-04 7.97186804e-05 5.85417612e-04 -8.16421001e-04
      -3.22455890e-04 1.95231417e-03 -8.21502937e-04 9.01092251e-04
      -5.10550803e-04 5.96399150e-05 -2.19268477e-04 9.30888291e-06
      1.25892009e-04 -5.42980160e-05 -2.52691127e-04 5.51600533e-04
      -8.96810452e-05 -5.93273126e-06 1.49789092e-04 -1.30840504e-04
      -7.07659710e-05 4.82102114e-05 1.72597342e-04 -5.88724215e-04
      -3.40935454e-04 -3.25755886e-04 4.27168561e-04 -1.46803912e-04
      2.11935141e-04 -6.44922839e-04 -4.90571663e-04 1.75741763e-04
      1.45935875e-04 5.37086162e-05 6.92480990e-06 -1.90419218e-04
      -2.04431315e-04 1.07563531e-03 -1.37553597e-03 -1.13025587e-03
      2.09168997e-03 -8.03976262e-04 5.07869736e-05 2.35557920e-04
      1.10669775e-04 -4.74404776e-04 1.47425075e-04 9.01423977e-04
      -1.51809677e-03 9.28047055e-04 8.49391974e-04 1.16882392e-03
      -3.48750400e-05 3.12528224e-04 2.92964117e-03 -2.40309048e-03
      1.03369521e-05 -2.47838761e-04 8.44129187e-04 -3.01755965e-04
      5.89551491e-05 -1.55337533e-04 2.41889083e-03 -2.30501304e-04
      -1.49476919e-05 -3.30202602e-04 -5.88355120e-04 -2.54543149e-04
      2.64516973e-04 -3.68822453e-04 -4.75064036e-04 -1.85341371e-04
      -4.17905831e-04 6.94602495e-05 3.59977566e-05 1.44966078e-04
      -2.20615875e-05 5.46831405e-04 2.67058931e-04 -1.00603956e-03
      2.29401485e-04 -1.05833242e-04 -2.03595948e-04 -1.05907187e-04
      2.30434365e-04 -2.52335420e-04 -7.42211298e-04 8.16685962e-04
      7.51052634e-04 2.20287606e-04 -9.83714359e-04 4.11865331e-04
      -1.60897922e-04 9.96860792e-04 1.06654083e-03 -1.60999771e-04
      -2.31048631e-04 3.26107183e-05 4.24828831e-05 2.16744796e-04
      7.19409945e-05 2.57111242e-04 -2.07002973e-03 -4.91925748e-04
      -1.33431528e-03 -7.25589416e-05 2.16139844e-04 3.03041801e-04
      -5.21153233e-05 -1.12472582e-04 -9.02070315e-04 7.35821028e-04
      5.46060270e-04 1.06390999e-05 9.01532709e-04 -1.20404293e-03
      3.76941141e-04 6.28825743e-04 2.46371748e-03 -2.31012260e-03
      1.05828753e-04 6.10139337e-04 3.32292309e-03 -3.43623338e-04
      -7.98226029e-05 1.48563553e-03 -7.51500511e-06 2.78122345e-04
      3.37544683e-04 -1.60376203e-05 1.43538229e-04 -1.59804779e-03
      -2.60114524e-04 -1.85593672e-03 -1.50702125e-03 -3.59393802e-04
      -3.19815474e-04 -2.00004288e-04 -5.80991618e-04 -3.69117130e-04
      -4.91031533e-05 -1.50726002e-04 -3.12037009e-05 7.51905609e-04
      -2.03643780e-04 -3.62096209e-04 1.03638660e-04 -2.28405162e-03
      5.56404353e-04 -1.42802263e-03 -3.76812852e-04 -2.27196782e-04
      -2.42890953e-03 -2.86955794e-04 -9.04771208e-04 -1.69023440e-06
      4.33907437e-04 -6.65109546e-04 2.02316721e-03 -2.89798161e-04
      9.17476791e-05 2.33493211e-05 -1.17354823e-04 1.90040650e-04
      4.62477765e-05 4.44482197e-04 1.13572762e-03 -1.58043730e-03
      1.37624459e-03 1.42956821e-06 2.94622150e-03 -7.91762068e-05
      3.51743394e-04 -3.23839806e-04 1.33095615e-04 4.61495435e-03
      6.09380484e-04 5.53533682e-05 7.64456519e-04 -7.45082332e-04
      -7.71988125e-04 6.48011919e-05 1.13502778e-04 2.25195559e-04
      4.45258571e-04 -1.16736302e-03 6.33627933e-04 8.39473912e-04
      4.17029165e-04 -1.43413281e-03 -6.34294644e-04 -6.60274876e-04
      1.96778943e-04 2.77437677e-04 3.45610548e-04 -1.11006806e-03
      2.27279685e-04 6.01059757e-04 1.91682600e-04 5.72075194e-04
      -1.07612423e-05 -5.40200097e-04 -1.77158145e-04 -6.05020847e-04
      1.67992970e-04 4.90978826e-04 5.27827011e-04 -1.90224571e-04
      -4.38042247e-04 3.70777765e-04 5.78831668e-06 -5.20237023e-04
      1.36138493e-04 -3.13747951e-05 -6.74345007e-04 -4.93118423e-04
      4.38240444e-04 -1.38282252e-04 -1.78783713e-03 5.32141945e-04
      -3.12193210e-04 2.88128504e-04 1.00758416e-03 -1.79098279e-04
      -2.98729210e-05 -7.41522990e-06 4.55013826e-04 -1.00909492e-04
      4.06103674e-04 3.25076224e-04 2.17225825e-04 5.97774575e-04
      7.19984353e-04 9.25351123e-05 -8.14661907e-05 -6.59394427e-04
      5.00342321e-05 -2.47685766e-05 7.56449415e-04 6.84173210e-05
      -1.92297739e-03 9.44018393e-05 2.16790373e-04 -7.66962767e-04
      1.28535833e-03 -4.73221036e-04 9.47741559e-04 -1.49405724e-03
      -3.73109215e-05 2.73209880e-04 3.87632492e-04 5.37150365e-04
      -1.84908873e-04 -2.01646704e-03 1.94863358e-03 1.13442761e-03
      -1.74350807e-05 -2.75017781e-04 -1.48771924e-05 4.21634002e-04
      2.83720838e-05 1.12840068e-03 -5.38006600e-04 1.91663310e-03
      1.59176008e-04 1.16840973e-04 -4.93655680e-04 -7.75028093e-05
      8.05468226e-05 3.40627041e-04 6.32252122e-05 1.42659631e-03
      7.82106654e-05 2.42208680e-05 -3.52336705e-04 5.59072068e-04
      -2.07884819e-04 9.24318156e-04 1.15564174e-03 1.50455465e-03
      -4.72698681e-04 -5.50578290e-04 -1.02742624e-05 6.26360925e-05
      2.73742888e-04 -1.15982102e-05 -1.48976885e-03 -7.88103789e-04
      -2.37774493e-05 2.64891551e-05 -1.53734320e-04 -2.08902624e-04
      -6.66443448e-05 6.93813854e-05 -5.19606925e-04 -1.58493838e-03
      3.35692050e-04 2.58199027e-04 -5.29058569e-04 4.21944627e-04
      -3.19849729e-04 -1.44766702e-04 1.07249990e-03 5.22884307e-04
      1.00093824e-03 -9.90582514e-04 -5.77234197e-04 -9.52722970e-04
      -5.16005210e-04 -1.35259557e-04 -2.49796570e-03 -2.98518338e-04
      -4.10206907e-04 -1.49034860e-03 -1.43859000e-03 -1.58141227e-03
      4.52759938e-04 3.90286179e-04 -3.33088479e-04 2.06034025e-03
      -6.34263095e-04 9.50128742e-05 5.02889103e-04 -1.70153205e-03
      -2.28885998e-04 2.30453021e-04 6.81420439e-04 2.64347746e-05
      5.06993383e-04 -1.81700147e-04 2.28501507e-04 -3.30389943e-04
      -1.37951472e-04 -7.58764450e-04 5.41741203e-04 -7.99893402e-04
      -1.91922823e-04 -1.02014135e-04 8.57050545e-05 -1.29402659e-04
      -2.03026415e-04 8.07051198e-04 -7.16411276e-04 -3.12707241e-04
      1.32505759e-03 4.29643333e-05 1.44453929e-03 -1.98231399e-04
      -3.12350399e-04 2.60468514e-04 1.89199043e-03 5.93527111e-05
      -2.70960649e-04 5.73297621e-06 2.33138431e-04 6.77901626e-05
      2.32550286e-04 -1.97700952e-04 3.96970863e-04 2.28640880e-03
      -6.86632120e-04 -2.54944229e-04 3.99869714e-05 4.55735892e-04
      -6.56876597e-04 6.09625888e-04 1.49864834e-04 1.28986052e-04
      1.32421008e-03 3.03063280e-04 -4.39635653e-04 -2.00298382e-03
      -4.53278102e-04 1.85075784e-04 -5.98478480e-04 9.50036861e-04
      -1.19482691e-03 1.35896693e-03 1.63982055e-04 -6.39975362e-04
      4.78440139e-04 -2.59188746e-05 -2.13233870e-03 -8.10079335e-04
      -5.35162049e-04 1.72276705e-04 -1.05033527e-04 3.69866233e-04
      4.67848258e-06 -5.10248763e-04 -1.52977800e-03 5.29726152e-04
      -1.90552484e-04 -3.42029147e-04 -4.24784783e-04 2.41428977e-04
      2.24331325e-05 -9.86241048e-06 6.97648269e-04 -1.05588278e-03
