<?xml version="1.0"?>
<opencv_storage>
<my_svm type_id="opencv-ml-svm">
  <svm_type>C_SVC</svm_type>
  <kernel><type>LINEAR</type></kernel>
  <C>1.0000000000000001e-01</C>
  <term_criteria><epsilon>2.2204460492503131e-16</epsilon>
    <iterations>500</iterations></term_criteria>
  <var_all>16128</var_all>
  <var_count>16128</var_count>
  <class_count>2</class_count>
  <class_labels type_id="opencv-matrix">
    <rows>1</rows>
    <cols>2</cols>
    <dt>i</dt>
    <data>
      -1 1</data></class_labels>
  <sv_total>1</sv_total>
  <support_vectors>
    <_>
      1.35981245e-03 -2.11870338e-05 3.42805724e-04 4.28028085e-04
      -5.44509559e-04 -1.81505457e-04 -2.35542725e-03 -4.17167525e-04
      -2.85788090e-04 -5.12223924e-05 9.99703116e-05 -8.11997816e-05
      -2.34373001e-04 1.10751163e-04 4.56354814e-04 -3.60016944e-04
      -2.85233080e-04 5.74066544e-05 8.30162680e-05 -1.28434534e-04
      -5.17176522e-05 -3.27027510e-06 -6.97319138e-06 9.31421673e-05
      -1.01126185e-04 -4.82730684e-05 -7.17060975e-05 1.01071455e-05
      -4.57131391e-04 1.29256383e-04 -6.14815042e-04 1.08567161e-04
      -1.25674342e-04 6.35801873e-04 -4.17498195e-05 1.41896016e-03
      3.81276368e-05 1.26867226e-05 -1.22994446e-04 4.91826679e-04
      -9.38556914e-05 -3.74397541e-06 0. -7.57555244e-05 1.64308949e-05
      -8.08556979e-06 3.75806558e-05 -2.92672485e-05 9.40840284e-04
      7.27440231e-04 -2.91117496e-04 6.85606734e-04 -1.28371510e-04
      -1.06473883e-04 -5.97634760e-04 -5.70353819e-04 3.00664949e-04
      6.87074134e-05 -1.27824285e-04 2.47789110e-04 -1.22582831e-04
      7.02534162e-05 -3.34786571e-04 1.09414104e-04 1.40744285e-03
      -2.40995636e-04 -4.94009349e-04 2.66933668e-04 -9.44803760e-05
      -2.93855646e-05 -1.35094405e-03 -9.30296665e-04 -1.57897055e-04
      -2.27327814e-06 -9.06504138e-05 6.44575402e-06 2.93775753e-04
      1.26575484e-04 -1.05945382e-03 -3.71284783e-04 4.81197749e-05
      5.24094212e-05 -9.40774626e-05 -5.07483549e-07 3.65773994e-05
      9.14232169e-06 -1.48506397e-05 -5.02764415e-05 6.53241528e-04
      -1.98268972e-04 6.57254132e-05 -3.38139762e-05 6.72873924e-04
      -6.01535885e-06 8.62847955e-05 1.04330349e-04 1.49210027e-04
      2.54093229e-05 -2.94807433e-05 -1.34335642e-04 2.49418335e-05
      1.23273931e-05 9.94547299e-05 4.52210457e-04 -5.01331306e-05
      -2.08912388e-05 1.15140529e-05 1.27506701e-05 1.12636073e-04
      -9.27270812e-05 -1.55207832e-04 1.57034068e-04 6.77053904e-05
      -4.83923417e-04 -1.47400342e-05 8.73591780e-05 6.90112847e-06
      2.66432016e-05 1.44588848e-04 1.19864038e-04 1.19602995e-03
      -1.27668842e-04 -6.17853002e-05 -3.70313028e-05 3.76001735e-05
      1.01875019e-04 -2.28366916e-04 -2.01611838e-05 7.27301813e-04
      -7.21531842e-06 -1.25619583e-04 -8.24443647e-04 3.86740385e-06
      1.14779745e-04 -5.08807658e-04 2.85634978e-05 -5.52213096e-05
      7.94467705e-05 4.39848118e-05 -4.11820038e-05 3.34309298e-05
      -1.14193768e-04 2.60873203e-04 3.59010504e-04 -1.21131903e-04
      -4.73484179e-05 8.05777599e-05 -5.31392070e-05 -2.19732237e-06
      1.37876496e-05 2.21802457e-05 1.21843921e-04 -1.15891824e-04
      1.71476895e-05 -5.61680863e-05 -2.57434403e-05 1.29747472e-03
      2.65433800e-06 -4.25173144e-04 -1.12946000e-04 -1.15698160e-04
      4.99361995e-05 3.05564827e-05 -9.04970802e-04 1.26226136e-04
      2.87515268e-05 -2.93817342e-04 -5.19751222e-04 -3.40968545e-05
      1.00616773e-04 -6.63231049e-06 4.56793987e-06 -1.31675315e-05
      -2.60606885e-05 -4.05691535e-05 -8.38176857e-05 7.99952191e-04
      3.90432706e-06 1.37562180e-04 4.00372752e-04 8.80171115e-07
      -6.04141314e-05 -3.17149279e-05 -5.06112934e-04 5.33024780e-04
      -1.37923771e-05 -1.68685674e-05 -5.96491445e-05 -1.33539099e-04
      -2.08177789e-05 -1.32100511e-04 2.26737393e-04 3.41488252e-04
      -2.91703385e-04 -2.95734964e-04 2.08534766e-04 2.35952204e-04
      -6.41057850e-05 1.74213236e-03 7.45157071e-04 -7.23049379e-05
      1.13006472e-05 1.45226250e-05 6.76077689e-05 -5.65233233e-04
      -4.09383501e-05 4.94416417e-05 -3.77380202e-04 -3.30702751e-04
      -1.03691564e-05 -5.21423317e-05 2.77413420e-07 4.29842403e-05 0.
      -7.34550194e-05 8.50579527e-05 -1.25403778e-04 -3.50759874e-05
      -5.92836186e-05 -4.33935202e-05 -4.10980720e-04 1.41507771e-04
      6.79670920e-05 -5.21604670e-05 -5.12596453e-04 1.54842652e-04
      -9.01232270e-05 1.06854166e-03 9.56220683e-05 9.26958310e-05
      2.19289010e-04 -5.21981507e-04 3.31338379e-05 -1.46858265e-05
      5.35440131e-06 5.23834678e-05 -8.99072711e-06 5.61979959e-06
      -3.50031078e-05 3.87737557e-04 -1.41757846e-04 -3.06515809e-04
      -8.56882034e-05 6.26588444e-05 -5.94681587e-05 5.79521065e-06
      -1.14635812e-04 -7.98142340e-04 -6.07505099e-05 1.84504825e-04
      -8.19418783e-05 -2.20282804e-04 3.05936614e-04 -2.99974898e-04
      -3.26165871e-04 1.51025670e-04 2.64578586e-04 -3.75003583e-04
      -4.79173650e-06 -3.38954742e-05 2.12168707e-05 -1.42564732e-05
      4.15100774e-04 1.91923289e-04 -1.67463979e-04 -5.12460465e-05
      -2.15579621e-05 1.07874585e-05 -1.88749458e-04 -3.76491007e-05
      1.04588119e-03 1.33554335e-04 -2.31167200e-04 -2.65509279e-05
      -2.68444437e-05 -7.38929302e-05 1.03587411e-06 7.80458049e-06
      -1.21101366e-05 -9.71917179e-05 9.62373670e-05 1.37887750e-04
      1.11071444e-04 -2.73974838e-05 -1.06179621e-03 -1.30289016e-04
      -1.27639287e-04 -3.83954642e-07 -8.97564096e-05 -3.64515290e-04
      -5.59995788e-05 3.83036415e-04 -1.26880506e-04 -1.26581246e-04
      -1.21606834e-04 -1.15223345e-04 6.95239351e-06 -1.12454320e-04 0.
      -3.97792019e-06 5.22869159e-05 9.76486990e-06 7.74771543e-05
      1.87912283e-05 1.21670670e-03 -1.10070338e-03 -8.32758872e-07
      9.12351097e-05 2.91444630e-05 -1.47254395e-04 3.12867669e-05
      -1.08261302e-03 7.53750035e-04 -8.21448266e-05 -2.82069250e-05
      -3.19731989e-05 6.51098439e-04 1.12411195e-04 -8.18473054e-04
      1.24805293e-03 4.61028394e-04 -7.24549755e-05 -1.41590819e-04
      2.45591480e-04 -3.56946257e-04 2.37425388e-06 5.09262492e-04
      7.89138547e-04 -4.93892352e-04 -1.91477538e-05 7.50028776e-05
      4.11046422e-05 -7.90403865e-04 -9.77559102e-05 5.30724297e-04
      3.29410715e-04 4.01330733e-04 -1.07093772e-04 -7.98659530e-05
      2.01637067e-05 3.54437980e-05 6.80063431e-06 -2.80673685e-05
      -1.42087709e-04 5.89038791e-06 2.29257366e-05 -1.54533045e-05
      -6.64265008e-06 7.33958266e-04 2.79782944e-05 -3.25945031e-04
      1.34762318e-04 -3.61076934e-04 -4.64480952e-04 -7.36045113e-05
      4.30708140e-04 -3.66046843e-05 -5.97843937e-05 -8.42047957e-05
      5.40382171e-04 8.94494588e-06 -7.69553008e-05 0. -5.92442630e-05
      9.46777982e-06 -7.14165026e-07 4.00860154e-05 -5.92719589e-04
      2.82826950e-04 5.79449174e-04 -9.97127354e-05 -1.17936567e-03
      7.93357976e-05 1.33056616e-04 1.10733730e-04 -3.60208651e-04
      2.69873941e-04 2.65967916e-04 -4.91120554e-05 -1.87258265e-05
      -1.32283079e-04 -3.82684026e-04 3.02676286e-04 -7.17571587e-04
      1.50049722e-03 6.02379441e-06 -1.41906712e-04 4.85269469e-04
      -8.34384773e-05 1.43549905e-05 4.80827992e-04 1.52179855e-03
      3.61791317e-05 -5.20258654e-05 5.19165660e-05 7.81530471e-05
      -4.22660582e-04 9.77402942e-06 6.72382594e-04 2.87494069e-04
      1.61113421e-05 1.12124377e-04 -6.18930699e-07 -7.31855380e-06
      -1.98218360e-04 -3.15146599e-06 -2.30885580e-05 -1.25226516e-05
      -4.56662849e-04 -6.86515705e-05 -6.01248285e-05 -4.34625599e-06
      -3.85228021e-04 -5.26379190e-05 -8.31714715e-05 1.11156805e-04
      -5.35450992e-04 -3.17871367e-04 1.82375879e-04 -5.10385202e-04
      1.45427141e-04 -8.49258868e-05 -1.52520544e-04 2.57003034e-04
      9.52512419e-05 6.45636537e-05 -6.63231049e-06 1.86764464e-05
      -9.70137771e-05 1.01502644e-06 -1.40556085e-06 -1.12426496e-04
      5.30495017e-04 -1.79074879e-03 6.17264959e-05 -3.30197276e-04
      -3.31967603e-05 -5.12327060e-05 2.97304621e-04 1.71280135e-05
      3.72427952e-04 -2.75255559e-04 -1.68965387e-04 -3.43315100e-04
      -9.39460442e-05 -1.05272033e-04 -3.22719570e-04 -3.82042163e-05
      -1.56823589e-04 1.81013966e-04 -2.24113232e-04 -3.70242808e-04
      -2.54497892e-04 -6.84407496e-05 2.42289461e-04 -4.65850462e-04
      1.93218584e-04 -2.47611183e-06 -1.08222994e-04 -7.89000569e-06
      5.66939882e-04 5.67865100e-05 -2.87166855e-04 -7.93078652e-05
      1.54949463e-04 2.57671654e-05 4.30541559e-06 -1.61001481e-05
      -3.11255244e-05 1.35864348e-05 -4.27927625e-05 6.51289156e-05
      4.12114983e-04 -2.43292998e-05 1.76680296e-05 2.99968306e-05
      5.10928396e-04 -3.46658053e-05 6.54601492e-04 2.03669944e-04
      3.49706708e-04 -5.52536745e-04 7.12538022e-05 -1.01199129e-03
      9.75329895e-05 -2.28319641e-05 -8.39545901e-05 -9.39271529e-04
      6.65101397e-05 -8.21559370e-05 0. -8.79723211e-06 2.32499697e-05
      1.60191266e-05 5.79031730e-05 -1.28134940e-04 -1.91697356e-04
      -1.07881287e-03 -1.08420507e-04 -8.03426490e-04 1.45596259e-05
      4.59411312e-05 4.03250044e-04 5.99640014e-04 1.39042281e-03
      -2.63708469e-04 7.74319560e-05 -2.69972486e-04 1.59910385e-04
      1.90315623e-04 4.05048253e-04 4.18097392e-04 -2.27997763e-04
      6.31434086e-05 1.21418969e-04 -3.08715185e-04 -1.95505017e-05
      3.06604124e-05 -1.18493910e-04 -1.93988366e-04 -2.60446861e-04
      4.67177488e-05 -4.66315250e-05 -3.74822448e-05 6.29796647e-04
      -2.45970241e-05 1.52484432e-03 7.79977345e-05 1.23060672e-04
      -1.77255759e-04 -4.77700523e-05 9.54058123e-06 1.23035876e-04
      1.00500847e-05 -6.55481053e-05 -1.14298215e-04 1.54942303e-04
      3.97853728e-06 4.03592021e-05 6.23779306e-06 -1.24596874e-03
      2.34985928e-05 1.95922505e-04 1.24649785e-04 -7.68469181e-05
      -2.67221883e-04 -4.43597628e-06 -1.20292614e-04 4.92395120e-05
      3.14793870e-05 2.02043375e-04 -1.36756164e-04 3.86647444e-05
      -6.87045685e-05 -6.86517342e-06 4.69304468e-05 -6.45777764e-05
      -6.10821735e-05 -9.01440799e-05 -1.33746289e-04 2.20331029e-04
      -5.72767400e-04 -4.15756185e-05 -3.94667586e-04 6.46971966e-06
      -9.50546455e-05 4.68406033e-05 3.24648827e-05 1.24965067e-04
      4.16625378e-04 9.92091736e-05 -5.51408593e-05 1.30823073e-05
      -1.03560211e-04 4.54855268e-04 8.91282325e-05 9.46769025e-04
      -6.05903369e-05 -1.69557825e-04 -1.44041755e-04 7.81433337e-05
      -4.88733567e-05 -1.02429022e-03 7.55459128e-04 -3.07011825e-04
      -4.77565336e-05 -4.93634980e-05 -7.36777656e-05 -4.13876522e-04
      -8.82125314e-05 8.11550941e-04 2.07422461e-04 4.06581152e-04
      -3.32096818e-07 -7.09323067e-05 1.26279963e-04 3.76981334e-05
      1.02353160e-05 1.16829971e-04 -1.05979540e-04 2.60596513e-04
      3.46542874e-05 1.65489128e-05 -7.24178099e-05 7.31926761e-04
      8.53006932e-05 -6.75245028e-05 1.56019945e-04 -4.27848368e-04
      3.22484120e-04 6.72866809e-05 -4.29353182e-04 7.88329562e-05
      -3.17075501e-05 -1.08279355e-05 -6.66858454e-04 -5.71926357e-05
      -8.51668374e-05 -7.00117971e-06 3.21737758e-07 1.11785664e-06
      -1.15100529e-05 9.28910522e-05 -1.66531881e-05 8.16081592e-04
      -1.17164850e-03 -1.32195375e-04 -4.07567626e-04 -5.81342247e-05
      -5.69392105e-05 -4.16188152e-04 -3.69161309e-04 9.11021722e-04
      1.32307279e-04 7.62905329e-05 1.75233523e-04 1.78466915e-04
      3.54947842e-04 -3.24867957e-04 -5.64040267e-04 1.13725394e-03
      -7.29145222e-06 2.85143673e-04 2.38103137e-04 -6.18322010e-05
      4.45319238e-05 -1.14094326e-03 4.92719468e-04 -3.58230929e-04
      -8.18761036e-05 -1.82413896e-05 -1.38643154e-05 3.41601233e-04
      -2.65703293e-05 -2.80724547e-04 -3.01743567e-05 -3.79090343e-04
      1.15593830e-04 -3.53338837e-05 -3.31416450e-05 -1.42668102e-06
      2.39765759e-05 2.20230959e-05 -8.14330997e-05 -7.08397856e-05
      8.67018171e-05 -1.29423250e-04 -4.64906370e-05 -5.55744278e-04
      9.95826413e-05 -2.16947068e-04 -2.13953550e-04 -1.23701815e-04
      2.15138483e-04 -8.34144885e-06 -4.38169576e-04 4.43073332e-05
      4.58601880e-06 -1.33124267e-04 -8.39278946e-05 7.12891342e-05
      -1.32687550e-04 -4.85571618e-05 6.35916804e-05 -4.88227624e-06
      7.06844367e-06 -5.21921065e-05 -9.91345441e-05 -3.04851361e-04
      3.85438179e-04 3.70292619e-05 -1.18510856e-04 7.63499193e-05
      -1.15969655e-04 -5.22744522e-05 5.27171593e-04 7.44317367e-04
      5.82106441e-05 1.16148884e-04 -2.00567840e-04 3.07880517e-04
      -3.90071044e-04 -1.63732286e-04 7.08510517e-04 3.52479692e-04
      -2.48121622e-04 -5.95174206e-04 -6.44214568e-04 3.07428971e-04
      -1.25565448e-05 -6.18354359e-04 5.57611580e-04 -1.82371514e-04
      7.79803668e-05 7.02054604e-05 4.97611763e-05 4.62836178e-04
      -4.47368220e-05 -7.12654786e-04 6.12439326e-05 -1.32227971e-04
      -7.52894848e-05 -9.86018204e-05 -9.12591568e-05 1.35224036e-04
      6.07066249e-05 1.13102680e-04 3.21151310e-05 2.31960148e-04
      7.58598399e-05 1.87553701e-06 5.49300566e-05 1.37631921e-03
      2.03790751e-05 4.58587718e-04 3.38902959e-04 -1.83955781e-04
      -3.44317348e-04 9.63783168e-05 2.83846981e-04 2.44436687e-05
      -1.17761765e-05 2.66959196e-05 2.26665861e-06 -1.71990396e-05
      -2.13810763e-05 6.00297244e-06 -1.40286356e-04 4.67079553e-05
      -3.02395420e-05 -4.74043409e-05 -6.23446977e-05 -3.77207645e-04
      4.55732166e-04 -9.94970324e-05 -4.59063420e-04 1.11689689e-04
      1.38255156e-04 -1.39772077e-04 -8.45301183e-05 -2.67730939e-04
      -3.36695404e-04 8.83371904e-05 2.69118813e-04 -3.92720278e-04
      -3.72089329e-04 6.99228767e-05 3.84864717e-04 -1.82227202e-04
      -3.27693764e-04 1.07763371e-05 -5.15942113e-04 1.78694041e-04
      1.91863946e-05 -8.27893455e-05 -2.65263952e-04 -1.74801011e-04
      9.47676454e-05 4.24573882e-05 -2.56392141e-05 5.77272847e-04
      -1.12626687e-04 1.06211076e-03 -4.89693230e-05 2.97821331e-04
      -1.37133684e-04 4.87817779e-05 -9.71414265e-05 -2.41125061e-04
      -3.90856286e-07 -1.09995184e-04 5.86414935e-05 -4.90822858e-05
      -1.44280493e-05 9.75033181e-05 7.37095688e-05 3.21660191e-04
      -1.62028082e-04 1.74055240e-04 -2.60857014e-05 4.57727059e-04
      -3.46080196e-04 4.65453923e-05 -5.77704632e-05 -3.07819828e-05
      -1.07197906e-04 -7.67020683e-05 -1.83154945e-04 -2.00946561e-05
      -1.15640672e-04 -2.47231819e-05 -5.43093738e-05 -9.88494285e-05
      -3.37374695e-05 -5.33715829e-05 7.56368609e-05 1.95638513e-05
      -7.03729165e-04 -4.70636987e-05 -6.02559245e-04 -7.25509599e-05
      9.79187025e-05 -3.50409719e-05 -5.51488192e-04 -7.28696934e-04
      3.45619686e-04 -1.10754561e-04 3.82579863e-04 5.59219799e-04
      -1.43696292e-04 -9.32629628e-05 1.82237022e-03 -2.25257711e-04
      -3.82986065e-04 1.76629736e-04 3.53976327e-04 1.60473355e-05
      -5.75074482e-05 -1.38938674e-04 5.56804414e-04 -4.00108023e-04
      -1.09451357e-04 -3.85382518e-05 -2.96454236e-05 -2.13125270e-04
      -2.42304704e-05 -4.63892036e-04 1.12364942e-04 5.26721647e-04
      -3.77149918e-05 5.60452754e-05 7.80042028e-05 1.85373836e-04
      2.12498035e-05 -3.49888614e-05 -8.95810808e-05 -1.02681581e-04
      -8.04480587e-05 3.76752760e-05 -2.38875145e-05 -8.22793983e-04
      1.66053051e-05 -1.12223113e-03 -2.55414197e-04 4.46368707e-04
      6.05769106e-04 9.58666933e-05 2.87753902e-03 2.58746368e-05
      -6.36869390e-06 1.27799678e-04 -1.29140113e-04 -3.62687820e-06
      -5.65369628e-05 -1.60363925e-05 -1.64468482e-04 4.61536692e-05
      -2.06889417e-05 -2.03718446e-04 5.63825924e-05 -5.88059374e-05
      4.01785830e-04 -7.87494901e-06 -2.22411709e-05 -2.01445309e-05
      -4.42156743e-05 1.10219968e-04 -2.97072867e-04 -4.42916571e-05
      1.67876846e-04 -1.03400955e-04 1.00373400e-04 -3.48508067e-04
      -5.51794772e-04 -8.40638240e-04 3.93487455e-04 -8.39327811e-04
      -2.97625025e-04 1.52180801e-04 3.11871408e-04 -7.04067425e-05
      -7.56363006e-05 9.51729191e-04 2.89554300e-04 7.84147123e-05
      6.07239963e-06 5.21557049e-05 -9.45101929e-05 7.39491807e-05
      5.04327909e-05 4.84439981e-04 4.95085027e-04 4.47111001e-04
      4.11797555e-06 7.01563040e-05 -2.30945147e-06 9.91430934e-05
      -1.35343189e-05 1.15276365e-04 2.93349012e-06 -1.79813898e-04
      8.52789963e-05 -7.27699990e-06 -7.43295022e-05 -2.20641145e-04
      -9.79810357e-05 9.76193405e-06 2.80847871e-05 -1.55582966e-04
      -1.02793460e-03 1.45621161e-04 1.36366638e-03 -5.94823614e-05
      -4.82721698e-05 9.90659391e-05 7.05536571e-04 -7.45077778e-05
      -3.84218401e-05 1.09991670e-05 -1.18720243e-04 -1.52703633e-05
      -7.87515673e-05 -1.87568605e-06 4.94152540e-04 1.52273700e-04
      -4.09889501e-04 1.19641645e-05 -5.20315138e-04 5.69598778e-05
      7.30073662e-05 -2.16266308e-05 6.62140883e-05 -1.53119129e-03
      3.80935853e-05 -1.17192481e-04 1.84540884e-04 -1.18165903e-04
      1.55821370e-04 -3.57562472e-04 -6.97510957e-04 6.75754331e-04
      -2.33235580e-04 -7.34619098e-04 -8.88997514e-04 1.75106630e-04
      4.27524719e-05 3.08822287e-04 6.36510609e-04 8.21473295e-05
      -7.95907763e-05 -5.89399497e-05 5.15380707e-05 -1.19080920e-04
      -2.96109029e-05 4.10906126e-04 -1.84244491e-04 -3.98148724e-04
      -1.50437172e-05 1.78565024e-05 -5.62099667e-05 1.17929172e-04
      -7.20745220e-07 3.57792851e-05 -8.14652503e-06 1.60699288e-04
      -2.40869904e-05 1.49840504e-04 -2.67823634e-05 9.99055570e-04
      -8.14674331e-06 -2.78889297e-06 -2.27665587e-04 -7.88345569e-05
      -6.56932301e-04 -1.46364386e-04 -1.35976778e-04 5.64887669e-05
      2.85066690e-05 -5.92672914e-05 4.96348002e-05 -8.61705630e-05
      5.11994185e-05 -1.87057394e-05 8.31132093e-06 -6.21776198e-05
      3.66550958e-05 2.95429109e-05 -2.16593035e-04 5.98548446e-04
      -2.21502676e-04 -1.13946960e-04 -8.37081345e-04 -1.28253101e-04
      -7.98688779e-05 -3.10443538e-05 -7.12004185e-05 9.75946081e-04
      3.21162166e-04 -1.56818249e-04 1.64449040e-04 7.49984829e-05
      5.40403416e-05 -3.94171831e-04 2.76787818e-04 2.56317959e-04
      -1.31707944e-04 1.79450697e-04 1.27012527e-03 -3.23436107e-04
      -4.68556354e-05 1.15918613e-03 -9.87419393e-04 1.10416280e-04
      -1.25869474e-05 3.27419693e-05 4.08212281e-06 -1.07531509e-04
      3.79648591e-05 -1.52900866e-05 2.74477439e-04 -3.29419418e-04
      4.25547078e-05 -1.09861656e-04 -4.36665105e-05 -1.65906331e-05
      5.72753970e-06 3.66491586e-05 -3.72474278e-05 -5.52223821e-04
      2.51686615e-05 -6.19198045e-06 1.41900091e-06 2.47085613e-04
      8.28946359e-05 8.71220836e-05 1.08451140e-05 4.59311923e-05
      -4.44855890e-04 -5.38376989e-05 -7.04610080e-04 1.04426996e-04
      -1.33019921e-05 1.27575666e-04 1.04455499e-03 -1.19506176e-05
      6.20237188e-05 0. 7.37420924e-05 7.47843151e-05 4.64935729e-05
      2.49802688e-05 -2.15496955e-04 -1.97819591e-05 -1.65744248e-04
      -2.36376090e-05 -3.41754523e-04 6.56945631e-05 1.27512903e-04
      1.47810453e-04 2.06368844e-04 -2.51438294e-04 1.68023951e-04
      -1.29296575e-04 -1.10078428e-04 -4.62186843e-04 5.14125022e-05
      5.44895825e-04 -1.11246028e-03 -1.90097926e-04 -1.93486019e-04
      1.07359170e-04 -1.72545435e-04 2.59544177e-04 6.92440663e-05
      2.67047377e-04 2.84095615e-04 2.76957639e-04 -8.18531917e-05
      -1.13290720e-04 -3.68338806e-05 -1.74545174e-04 -5.36143743e-05
      -1.03257596e-03 -1.55659673e-05 1.55251793e-04 -8.83296593e-07
      -1.01937885e-05 6.12088188e-05 2.51371530e-04 0. 2.62279791e-05
      1.12610811e-04 2.08780548e-04 2.49740988e-05 -3.55397096e-05
      2.18324403e-05 -8.15331121e-04 3.72374743e-05 5.50527067e-04
      2.55980587e-04 -2.47382941e-05 -2.83235335e-04 -7.84458316e-05
      -1.04218838e-03 -9.07943904e-05 3.51508861e-05 6.60442129e-06
      2.92431592e-04 2.93828543e-05 3.26139052e-05 -2.02448737e-05
      -1.27087274e-04 -4.36763621e-05 -9.28823501e-05 -1.09892935e-04
      -6.77988355e-05 4.30454063e-04 2.10387461e-05 1.19286124e-04
      5.91670396e-04 -9.24043052e-05 1.45525000e-05 9.76403753e-05
      -1.16918032e-04 4.47329512e-04 3.66820925e-04 -6.45786349e-05
      1.07920976e-04 -8.97536665e-05 2.24950109e-05 -5.99184539e-04
      2.84537091e-04 5.74348960e-04 -3.30710929e-04 -5.35588479e-04
      3.05928144e-04 1.86724646e-05 8.34668826e-05 -5.87866234e-04
      -1.99577524e-04 -5.30765356e-05 -3.26523659e-05 5.87960349e-05
      -1.98847338e-04 -6.22285414e-04 -1.40933139e-06 1.20028516e-03
      -2.01892326e-04 -1.10025278e-04 1.61101256e-04 -8.94515833e-05
      5.74654987e-05 8.21088397e-05 -3.53811192e-05 3.58924626e-05
      1.35175607e-04 3.26879206e-04 -6.05627247e-05 1.63368059e-05
      -4.04226885e-05 -7.36381393e-04 9.17844663e-05 4.37790095e-06
      1.60291602e-04 4.62265707e-05 2.18731177e-04 -7.92771607e-06
      6.98460790e-05 -1.54527661e-05 6.56184056e-06 -1.30098997e-05
      1.09140405e-04 1.14674964e-04 7.53530912e-05 -1.12882026e-05
      1.43919715e-05 -3.00707161e-05 -7.75595399e-05 4.45585010e-06
      -2.15632972e-04 -4.38388728e-04 1.48317677e-05 -7.01215758e-05
      1.56770999e-04 -1.31869292e-05 3.46640591e-04 1.00561520e-04
      -2.33889572e-04 -5.07195131e-04 3.56980396e-04 6.76470299e-05
      -1.14839298e-04 1.49474683e-04 1.67574428e-04 -5.16401196e-05
      3.03559849e-04 1.84713295e-04 1.62919387e-04 6.57629498e-05
      5.99819294e-04 2.50246056e-04 1.09907473e-04 -3.60825652e-04
      -2.65618553e-04 -8.09774574e-05 -2.45169431e-05 1.23061167e-04
      -3.08705457e-05 -7.97243847e-05 3.16985061e-05 -4.96155000e-04
      3.20314975e-05 -9.36734068e-05 1.05377134e-04 -4.31138324e-05
      5.25313517e-05 -8.58169733e-05 3.88927765e-05 -1.67089063e-04
      -1.09034345e-05 -8.98011494e-05 5.82812827e-05 -4.50543375e-05
      -2.55635332e-05 -1.68591971e-04 -1.20093755e-04 -7.58781622e-04
      -5.10619029e-05 1.40150105e-05 -3.02470813e-04 7.55518849e-05
      2.52215395e-04 -9.55271826e-05 -1.44322266e-05 2.23616989e-05
      1.74287416e-04 -7.81026938e-06 4.84376105e-05 3.14555436e-05
      2.09045938e-05 -7.35469876e-05 3.57881472e-05 1.26204002e-04
      -1.75533060e-05 1.82583710e-06 -1.23635982e-03 7.43927085e-05
      7.25394581e-04 -9.08572838e-05 -9.69843168e-05 1.68322193e-04
      -2.58367421e-04 1.02366401e-04 5.38906141e-04 3.53305149e-05
      2.86150636e-04 9.21055980e-05 1.16167066e-04 2.69542088e-05
      4.07763786e-04 -1.95888846e-04 -1.81878844e-04 4.84679884e-04
      3.13316967e-04 8.74265534e-05 -4.65083103e-05 -4.90555540e-04
      -5.00059163e-04 -2.56231520e-04 7.64218385e-06 -6.16925900e-05
      7.88033230e-06 2.73287529e-04 -1.63235945e-05 -4.97929053e-04
      -9.03715481e-05 9.03739056e-05 6.29171700e-05 6.03261069e-05
      -6.12950753e-05 1.15207649e-05 0. -3.74279334e-05 -4.70238519e-05
      3.52456263e-05 2.20221009e-05 -1.45085178e-05 -5.49200049e-05
      9.56838659e-04 -1.11156987e-05 4.97006753e-04 -4.94341293e-05
      3.90149711e-04 1.12543511e-03 -2.42564238e-05 -7.11772998e-04
      -1.03790808e-04 -8.45304021e-06 -3.45753033e-05 -8.36054678e-05
      1.08782688e-05 4.71060885e-05 -6.71881298e-06 -8.15060901e-07
      -3.98850352e-05 -3.35267650e-05 1.62106880e-06 -9.80184777e-05
      -1.27510098e-03 -2.17704335e-04 4.25345970e-05 2.28721081e-04
      1.27695266e-05 -5.32641134e-05 2.07496370e-04 -4.74465014e-05
      3.37479927e-04 -6.51775044e-05 1.03442756e-06 7.10249005e-05
      -4.06221352e-06 6.93013135e-05 -1.70425556e-04 1.35726761e-04
      -4.91430284e-04 -6.54844043e-04 4.67860627e-05 -1.07943022e-03
      -9.25653512e-05 6.50112343e-05 -1.49112195e-03 9.34228010e-05
      -1.11219655e-04 -6.53410752e-05 -1.11650297e-04 -1.03273836e-04
      -2.11914783e-04 -1.31163997e-05 -1.15720928e-03 -7.56169844e-04
      1.28448655e-05 -1.42531571e-05 2.63366401e-05 -3.03536272e-05
      4.87421457e-05 -1.83054945e-05 -5.00760980e-05 1.36635557e-04
      -1.04686078e-04 4.66770289e-05 1.99155293e-05 -9.02015745e-06
      -2.16150875e-04 3.97121075e-05 -2.76752806e-04 4.49070685e-05
      3.26032023e-04 1.28323934e-03 -1.80875504e-04 1.36704650e-03
      6.08728042e-05 1.66961145e-05 -3.87214495e-05 -2.95559701e-04
      -9.13657277e-05 7.30229704e-06 -3.57819372e-05 -5.78909167e-05
      -7.18936508e-06 7.17003277e-05 7.94580483e-05 -2.14542106e-05
      -1.18001917e-04 7.47848826e-04 7.30293541e-05 6.74025156e-04
      -6.21940562e-05 8.62452871e-05 -1.34869915e-04 2.57887383e-04
      2.83294270e-04 -6.57389610e-05 -4.75443594e-05 2.85406277e-04
      1.13864233e-04 1.78324961e-04 1.20551279e-03 5.17296139e-04
      3.04917310e-04 4.61421587e-04 -7.48003595e-06 1.72044936e-04
      -6.46422777e-05 2.00660666e-04 -9.31359828e-04 -1.06377364e-03
      1.30715687e-03 -1.13547183e-04 -1.16898918e-04 3.97140720e-05
      -1.54205947e-04 -4.43650242e-05 1.48023188e-03 -5.20144677e-05
      -3.66381719e-04 4.80978160e-05 9.20736129e-05 -3.12201373e-05
      -4.84214761e-05 -3.41541927e-05 -1.50176027e-04 -1.74603178e-04
      -3.10656789e-04 2.29729831e-05 1.58357943e-04 1.10326182e-05
      -7.36353162e-04 1.85826127e-06 -5.76202001e-04 3.01055825e-05
      5.95600752e-04 1.11951656e-03 -1.41971599e-04 4.30199289e-04
      -1.40494176e-05 -3.11848598e-05 -1.20053272e-04 -5.09096833e-04
      -9.53268284e-07 -7.86646524e-06 -6.62208919e-08 -6.56872498e-06
      -5.67063362e-05 -5.38021086e-05 2.00224429e-04 7.27516745e-05
      -2.56228261e-04 3.58955527e-04 4.16378134e-05 -5.94389916e-04
      3.15269826e-05 -1.22949175e-04 -4.69989463e-04 -2.52284168e-04
      5.41992194e-04 1.24274520e-03 -1.28952997e-05 2.10335231e-04
      -1.78152943e-04 -4.53256711e-04 2.23542636e-04 -1.14075327e-03
      6.73820148e-04 -1.16585150e-04 9.30824754e-05 9.67399683e-04
      2.28067671e-04 5.31870246e-05 3.82313039e-04 6.33910589e-04
      -2.85226124e-04 -2.29077283e-04 -4.30991677e-05 -1.52286430e-05
      4.88629681e-04 1.54380232e-05 2.53967498e-03 4.79138485e-04
      6.53300784e-04 -1.67746446e-04 -5.97731414e-05 -5.00886017e-06
      4.15187787e-06 4.26199495e-06 3.11553049e-05 2.31720719e-06
      -2.95354868e-04 3.34245269e-05 1.08432876e-04 -2.72988746e-05
      -1.32956565e-03 3.07921000e-05 8.51372897e-05 -9.12188261e-05
      4.11205896e-04 5.12755942e-04 9.65588551e-05 3.62190092e-03
      -2.84835896e-05 -3.70846719e-05 -1.07245898e-04 6.02276996e-04
      -2.75505827e-05 1.30451790e-05 -4.46833146e-05 1.83829943e-05
      4.88984842e-05 -2.98387789e-07 5.43570641e-05 2.87948293e-04
      -2.43743969e-04 -2.61879899e-03 -1.35740474e-05 2.39710556e-04
      -1.06647531e-04 -8.67326671e-05 -7.38441522e-05 -7.91249156e-04
      -3.80567252e-03 -5.32864884e-04 2.03093782e-06 -1.63232588e-04
      -2.77763407e-04 -2.24716860e-04 -6.97684591e-04 -8.69653188e-04
      -2.96255283e-04 -1.45057449e-04 -1.09898101e-04 -7.93703308e-04
      3.53979558e-04 2.89252475e-05 3.51112336e-04 -5.28059842e-04
      -2.80887703e-04 6.04052184e-06 8.48368945e-05 3.02170993e-05
      3.10017000e-04 9.10992603e-05 9.83155565e-04 1.02135629e-04
      -2.46881769e-04 -2.26581342e-05 8.57675623e-05 1.41218756e-04
      -3.89291963e-05 0. 2.13893494e-04 -7.59244722e-05 -3.21902735e-05
      -4.85141900e-05 2.75364273e-05 1.50874703e-05 1.43923506e-03
      1.63357909e-05 1.05752365e-03 2.60396220e-04 -1.29025982e-04
      2.53340229e-04 -1.02187027e-04 4.09717977e-05 8.99015431e-05
      3.17587510e-05 7.27688257e-06 -6.67182961e-04 2.26951615e-05
      -1.49742427e-05 0. -4.84488373e-05 5.95617939e-06 5.89347801e-05
      1.50671141e-04 -2.11396517e-04 3.21113446e-04 -7.37565162e-04
      -1.59537103e-05 -4.24206344e-04 -9.47218214e-05 3.92459442e-05
      -4.37355266e-06 1.27213250e-04 -1.24735903e-04 -1.17553507e-04
      -6.45065229e-05 -5.24437237e-05 -4.25649807e-04 -1.66888101e-04
      -2.55895400e-04 -4.70923842e-04 1.19144279e-04 2.10578291e-04
      -1.68336555e-04 8.03765070e-05 -2.06099881e-04 8.92980024e-05
      -1.10299727e-04 3.17904400e-04 9.01796957e-05 3.52735947e-06
      -2.03114960e-05 1.08495595e-04 1.18535664e-03 6.34767566e-05
      -3.07440874e-04 -1.67997991e-04 -2.38974812e-04 -9.08470520e-06
      4.42872224e-05 2.01572275e-05 1.68254599e-04 -1.77872280e-05
      -5.83298606e-05 1.70068336e-06 8.18107626e-04 -4.22649500e-05
      4.60492665e-05 4.82295072e-05 7.81879877e-04 3.10668605e-04
      5.39069646e-04 2.32672348e-04 -2.43920716e-04 -7.43317069e-04
      -7.78978138e-05 -2.11872117e-04 1.34173650e-04 -3.33879289e-05
      1.29961147e-04 -1.10988789e-04 -7.31766850e-05 3.85714447e-05 0.
      -1.63283676e-06 1.27077203e-06 2.08528800e-05 -2.55752730e-05
      -1.17089781e-04 -3.05269670e-04 -1.54459581e-03 -4.25569160e-05
      -6.33919204e-04 5.55150618e-05 1.83411667e-05 5.52815109e-05
      4.32253175e-04 2.68672098e-04 -8.77449405e-04 4.13570488e-05
      -4.00465760e-05 -1.79172566e-04 -2.84353853e-04 4.34133137e-04
      -1.66462378e-05 8.10751982e-04 -1.24392871e-04 -3.19666084e-04
      -9.23455926e-04 1.28626070e-05 2.64743426e-06 -6.17391197e-04
      -1.20854157e-03 -2.48126762e-05 -1.62768512e-04 -1.04134742e-04
      -4.08462183e-05 6.69327215e-04 4.17388765e-06 -1.02835125e-03
      -3.42211599e-04 6.17035475e-05 -7.61307965e-05 5.71844248e-05
      9.89468099e-05 2.42595361e-05 -1.68327824e-05 -1.64959856e-04
      -7.54698485e-05 5.73620317e-04 -3.06018046e-05 -8.06338066e-05
      2.96532562e-05 1.65406280e-04 -1.90324517e-05 1.34793547e-04
      -4.98596055e-04 4.62960816e-05 5.10565354e-04 1.30506218e-04
      -2.31299535e-04 1.46522580e-04 -1.52909270e-05 -1.35773489e-05
      1.28671527e-04 5.44379727e-05 -1.12577523e-04 -3.73756461e-06
      -5.37632368e-05 1.00010338e-05 5.45385155e-05 -1.64258363e-05
      -3.69828631e-04 1.18377537e-03 3.31084913e-04 2.19813533e-04
      6.15097117e-04 1.31799902e-06 -3.65442065e-05 -7.48731472e-05
      -1.98975133e-04 -8.70121439e-05 5.06765442e-04 -1.41971293e-04
      2.46980664e-04 3.80356651e-04 3.75406526e-04 -5.49687073e-04
      1.76925474e-04 -8.93914548e-04 1.48676903e-04 4.33821551e-05
      -6.36901939e-04 -5.49296732e-04 -1.30258186e-05 -5.68086361e-05
      5.88555762e-04 2.46437867e-05 -3.95612326e-04 5.41468980e-05
      7.61808842e-05 -3.43542662e-04 1.77472582e-04 -2.03695992e-04
      -3.93768249e-04 8.80990774e-05 1.57175833e-04 1.38630840e-05
      9.67278829e-05 5.28397468e-05 -2.14819120e-05 6.26143301e-05
      -1.59403295e-04 7.05891871e-04 1.10670167e-04 3.69926602e-05
      -1.50564201e-05 4.49532468e-04 3.77835640e-05 -4.94581938e-04
      -3.55753582e-04 3.56119679e-04 -2.25366064e-04 6.35977922e-05
      -3.92219750e-04 6.22371808e-05 3.29537179e-05 2.22397255e-04
      -4.69664170e-04 -1.08479682e-04 -5.33063285e-05 -2.04198896e-05
      3.89924317e-05 4.25103390e-05 8.04773890e-07 4.70303457e-05
      -3.30827635e-04 -4.85936289e-06 4.43942932e-04 2.74998069e-06
      2.83929112e-04 2.25175201e-04 -2.35165089e-06 4.29042062e-04
      -1.23164078e-04 2.15840380e-04 -6.36011609e-05 1.36338407e-04
      3.04452376e-04 2.63220136e-04 1.60954791e-04 -1.40945282e-04
      2.10510610e-04 -9.48479283e-04 7.18450465e-04 1.66910802e-04
      1.53512941e-04 -3.13833531e-04 -3.17211452e-05 -4.69824823e-04
      1.42426565e-04 3.23925487e-04 5.79807711e-05 7.25819409e-05
      1.68262504e-05 -3.68676934e-04 8.03582952e-05 -3.99911427e-04
      -6.34888769e-04 1.78540722e-04 4.21254226e-05 -9.65302970e-05
      -3.81273567e-05 8.25313109e-05 -2.41012458e-05 8.45216273e-05
      -1.45861180e-04 6.41754887e-04 -4.33157293e-05 1.51643599e-05
      5.55528168e-05 2.27395503e-04 4.26973456e-05 -4.20197204e-04
      -8.76330523e-05 -2.53997045e-04 -2.67704600e-04 3.31615556e-05
      -7.41152780e-06 8.93802062e-05 -1.53127199e-04 -7.52900587e-06
      4.11433721e-04 9.02508546e-05 4.10839966e-05 -6.44989850e-05
      -4.27330124e-05 1.01443453e-04 -1.74605327e-06 2.39831643e-05
      -1.79824434e-04 -3.41284525e-04 -2.85939226e-04 3.37324018e-05
      -5.44834475e-04 7.05445709e-05 3.39922117e-04 -5.49366174e-04
      7.49904197e-04 -1.19979726e-04 6.71442715e-04 6.62301027e-05
      8.10953206e-05 5.23821160e-04 2.98721188e-05 5.61542925e-04
      -1.79024137e-04 -7.08701613e-04 2.88868934e-04 6.89697408e-05
      -8.32538376e-07 -2.13881591e-04 -1.39263038e-05 -3.28240450e-04
      -5.31721045e-04 3.56614968e-04 4.57924943e-05 7.42918055e-05
      8.08201585e-05 -4.74388857e-04 6.46386834e-05 2.14172615e-05
      -2.84056354e-04 8.26813557e-05 -1.17640257e-05 -9.71707923e-05
      -8.74085435e-06 -5.11878789e-05 0. 2.96960119e-04 1.00013429e-04
      -4.05972620e-04 1.78986556e-05 1.82439135e-06 4.51864762e-05
      -4.39149648e-04 -2.15521504e-05 -2.58499582e-04 1.27177351e-04
      -5.74630503e-05 2.22901173e-04 2.01311792e-04 -3.96711635e-04
      1.83514512e-05 -3.55752672e-05 1.14955474e-04 4.46176782e-05
      2.98774421e-06 -1.19043252e-04 0. 2.04557109e-05 1.38298528e-05
      3.80644888e-05 -4.02690057e-05 -1.38282150e-04 1.84918608e-04
      1.21373835e-03 1.09539425e-04 -2.94831116e-04 4.75686757e-05
      -6.70307563e-05 3.99296172e-04 5.63916808e-04 5.08685887e-04
      3.14190489e-04 4.83057593e-05 -3.37147649e-04 -2.42110589e-04
      1.42638673e-04 2.42388560e-04 -5.47567732e-04 2.26645367e-04
      -7.97272151e-05 -2.61476962e-04 4.56809998e-04 -3.66610329e-04
      6.87257198e-05 9.16061865e-04 4.92330000e-04 -5.70915814e-04
      -1.88807917e-05 -7.92989304e-05 -9.89989421e-05 -1.50530890e-04
      9.14772900e-05 -1.24073471e-03 -5.99355262e-04 -3.60630002e-05
      -4.12759364e-05 6.13210505e-05 -3.02698772e-05 5.61637307e-07 0.
      7.41884360e-05 -1.28986736e-04 2.61340028e-04 3.01570635e-05
      4.66327874e-05 -6.05061769e-06 4.04999562e-04 8.04428346e-05
      4.08473752e-05 -4.73493128e-05 1.30493339e-04 1.33849098e-04
      -3.78530058e-05 9.11922907e-05 1.01916026e-04 8.94241239e-05
      -1.66431855e-04 1.90159248e-04 2.74513750e-05 -3.62179126e-05
      1.26140401e-06 -5.17069748e-05 2.19201702e-05 -1.46913453e-05
      -7.32129683e-06 -8.13890947e-05 1.90973471e-04 8.75522557e-04
      8.28570701e-05 2.04443568e-04 2.16056287e-05 3.89093548e-05
      -3.60299018e-04 -7.04579812e-04 -2.67260316e-06 4.11671499e-04
      -7.20439348e-05 2.37080003e-05 -8.21418726e-05 2.16690416e-04
      -1.32159912e-04 -6.00555679e-04 -2.49411532e-04 -1.02991704e-03
      -6.40008293e-05 -2.42555674e-04 2.72317789e-04 4.56365171e-07
      -2.36198204e-04 1.22246786e-03 1.04417304e-04 -1.49578218e-05
      -9.63012062e-05 -7.16188588e-05 2.39086119e-04 5.49914548e-05
      1.02380211e-04 -3.03774781e-04 -4.73793261e-05 -5.82750399e-05
      1.06294050e-04 6.63835963e-05 -2.49262084e-05 7.58200122e-06
      -1.96284454e-04 5.90299060e-05 4.34880523e-04 3.44977561e-05
      -5.50904360e-06 1.26832647e-05 1.74491806e-03 -4.20939468e-05
      5.33093465e-04 2.01018061e-04 -2.73486163e-04 -5.37276617e-04
      1.04162129e-04 2.13869949e-04 4.34822214e-05 2.39324800e-05
      -2.71868164e-04 4.29154228e-04 4.05962328e-06 -5.70104348e-05
      -4.64279474e-05 1.48075909e-04 1.05205763e-05 1.76576978e-05
      -6.00609019e-05 -7.18631345e-05 -1.12225780e-05 -1.06313475e-03
      -5.14950534e-06 -1.75055484e-05 -1.56247712e-04 -1.46997700e-05
      -2.21149821e-04 -3.52642557e-04 5.20161702e-04 4.34168818e-04
      1.40921649e-04 -2.85558581e-05 4.65371413e-05 -5.74646911e-05
      -3.59300466e-04 -1.04493124e-03 9.60308826e-04 2.98252271e-04
      1.75135952e-04 -7.46860111e-04 2.02705065e-04 -1.20144741e-05
      -6.45118183e-04 -5.79849002e-04 4.64733166e-04 4.34570029e-06
      1.54089830e-05 6.37057792e-06 6.05510140e-04 -4.75802954e-05
      -1.51719069e-04 2.14065745e-04 -1.83169293e-04 -1.04869818e-04
      2.79377255e-05 -6.15593381e-05 7.84407021e-05 0. -6.63108949e-05
      -5.61443194e-05 -8.63147201e-04 4.73669061e-05 1.56603001e-05
      -1.15088105e-05 1.97724137e-03 4.35904039e-05 1.31706719e-03
      -4.15821341e-05 3.61323007e-04 -1.15445454e-03 -1.55766065e-06
      3.96432792e-04 5.90507007e-05 -8.89116927e-06 -2.27358905e-05
      4.87604615e-04 -8.81679443e-05 -1.46788283e-04 -1.66000302e-06
      3.60296071e-05 1.02608574e-05 3.80573983e-05 4.13792368e-05
      8.06599390e-04 -2.60367320e-04 -1.83718186e-03 1.63407676e-05
      -1.11599138e-03 -2.91436627e-05 -3.28828464e-05 -1.75440146e-04
      -2.03645963e-04 -2.17661553e-04 -3.14530393e-04 -2.01204421e-05
      -4.23460791e-04 -1.35296024e-04 1.60281692e-04 2.77287414e-04
      6.16622390e-04 -5.40296140e-04 5.72910358e-04 -1.64514931e-04
      -1.43010126e-04 -2.94651021e-04 -4.25916987e-05 1.20740267e-03
      1.24315370e-03 2.18058311e-04 -1.62137039e-05 4.73429718e-05
      8.48123600e-05 -8.34613689e-04 1.10266192e-04 9.96176153e-04
      1.16726744e-03 -2.30538659e-04 5.99138839e-05 3.79910161e-05
      3.71011520e-05 -5.98535225e-05 4.16457624e-05 -8.18535700e-05
      1.10469089e-04 -4.57573071e-04 2.60937013e-05 -1.97070385e-05
      -8.69298128e-06 -8.72957287e-04 1.69729647e-05 1.97384623e-04
      -3.16940241e-05 2.01227667e-05 4.40005533e-04 -6.88428772e-05
      -4.74888395e-04 -8.18113913e-05 -6.55033364e-05 -8.01700808e-05
      -4.05071733e-05 -2.90344269e-05 -2.12751675e-05 -1.04125902e-05
      4.47248458e-05 -7.40532269e-05 -8.94092082e-05 -4.65084231e-05
      -2.74046266e-04 -3.89101129e-04 -9.27722867e-05 2.48512282e-04
      -6.91757246e-04 1.06904627e-04 -3.90637506e-05 6.65970583e-05
      4.58034512e-04 -8.98011320e-04 -1.04661231e-04 1.39667041e-04
      -2.47059448e-04 -3.86593136e-04 4.17412011e-05 2.11606428e-04
      5.13648447e-05 2.28880672e-04 4.07056650e-05 4.98597765e-05
      -5.68834257e-05 -1.16108131e-04 4.10558932e-05 -9.45868233e-05
      -1.97551519e-04 -2.83268862e-04 6.59253565e-05 -3.68558067e-05
      -4.23725869e-05 -5.67266834e-04 -7.10847016e-05 -3.50236660e-04
      4.48694846e-05 -1.24581320e-05 -3.03524557e-05 -8.62085835e-06
      1.27327919e-04 1.09167422e-06 1.24641319e-05 1.31356224e-04
      8.29128039e-05 -3.36578814e-04 -1.35764276e-05 3.61116945e-05
      -2.18130299e-05 -1.87884856e-04 -4.78131769e-05 -9.06397530e-04
      -1.72263215e-04 -1.78213071e-04 -3.95856885e-04 5.66684575e-05
      -7.60255556e-04 -4.85771634e-05 -4.62446496e-06 -4.38859242e-05
      -4.96989815e-04 2.58381097e-05 -2.34966046e-06 0. 3.34175347e-05
      -4.66674028e-05 -2.61214223e-06 2.74369340e-05 -2.23992378e-04
      -1.80310162e-04 1.07773370e-03 -6.85334162e-05 -8.03089933e-05
      4.62671778e-05 -5.16122382e-05 3.52965319e-04 6.26427412e-04
      1.56658323e-04 7.20554614e-04 2.19055422e-04 3.93548777e-04
      -9.42644765e-05 -1.92158928e-04 1.03831480e-04 1.72222196e-03
      2.66483024e-04 -4.84209479e-04 4.18455966e-05 3.33504315e-04
      -2.28039164e-04 -9.81157500e-05 7.17540213e-04 -8.26345524e-04
      -2.19099311e-04 -1.46367733e-04 1.13048744e-04 6.95412746e-05
      -2.85572547e-04 2.52908885e-05 -1.83785101e-03 3.48693982e-04
      2.81391549e-04 9.67437882e-05 3.72763461e-05 -1.89665589e-05
      -1.95612174e-05 0. 4.47676830e-05 9.04131812e-05 -1.45570171e-04
      4.45861842e-05 -3.39378166e-05 8.13771931e-06 -4.70496045e-04
      9.21258688e-05 2.37385175e-05 4.01669495e-05 1.39086027e-04
      3.74072639e-04 -6.01064748e-05 5.91743097e-04 -7.89045152e-05
      -1.62332926e-05 1.35615919e-04 1.68088445e-05 -1.43824494e-04
      9.27113360e-05 0. 5.00052447e-05 4.71740314e-05 7.49583851e-05
      3.38165519e-05 -2.80724373e-04 6.31622795e-04 1.21995783e-03
      1.26482773e-04 -3.48680442e-05 -9.24258420e-05 2.59098597e-05
      -1.50729349e-04 -4.94276988e-04 3.83926963e-04 3.52644332e-04
      -8.71457378e-05 4.37308991e-05 4.99214707e-07 -1.13403999e-04
      -2.39063025e-04 -4.10224078e-04 -1.72766711e-04 -2.47462649e-05
      1.78300092e-04 2.83166650e-04 -3.41047620e-04 4.79149130e-05
      -2.88091542e-04 8.09238409e-04 -1.04515158e-04 3.70886992e-05
      6.75471383e-05 4.40102704e-05 -2.82276305e-04 9.32408147e-05
      9.57624638e-04 -1.11901736e-05 -2.42740384e-06 -4.88085134e-05
      7.20243333e-05 -9.79353645e-05 -4.74622539e-05 3.45934495e-05
      1.84956109e-04 -2.42658003e-04 9.40611280e-05 -9.51032198e-05
      -1.04618621e-05 8.18116969e-05 -1.79481343e-03 1.95026814e-06
      -6.53235009e-04 -7.85308512e-05 -1.13352100e-04 4.70711995e-04
      -3.87527034e-05 1.87616301e-04 5.22204537e-05 1.40655648e-05
      6.99873344e-05 4.69892577e-04 -4.33247078e-05 -6.02029540e-05
      9.45451211e-06 1.64391786e-05 -5.35847830e-05 -5.64845614e-05
      -5.40330147e-05 1.96569890e-05 -3.63210071e-04 1.13501155e-03
      2.90805128e-05 8.04275405e-05 -1.05514802e-04 -2.12899758e-04
      4.86250792e-05 -4.86294361e-04 5.59573004e-04 4.59500472e-04
      -1.94300272e-04 -1.39065349e-04 1.63957870e-04 4.10840963e-04
      -6.15426106e-04 -3.52075294e-04 -1.10568630e-03 3.98117321e-04
      -4.06811741e-04 2.55344319e-04 -3.52474999e-05 6.62040256e-05
      7.45210200e-05 -1.22640949e-05 -1.69200008e-04 -1.67812963e-04
      -5.81055137e-05 -8.14500381e-05 2.04498705e-04 1.75599071e-05
      6.51623850e-05 7.01354365e-05 -2.80661392e-04 -1.23760154e-04
      2.34598665e-05 7.26943254e-05 6.67997374e-05 -8.64467438e-06
      1.48513485e-04 -6.99832208e-06 -1.26563406e-04 -8.98969593e-05
      -1.33969943e-05 7.75883673e-05 -2.66396877e-04 4.22819949e-06
      6.16240795e-05 2.13035848e-04 -3.22340115e-04 2.17849578e-04
      4.23947495e-05 1.00451427e-04 -5.93803179e-06 -4.37929793e-06
      8.78634164e-05 -2.52665137e-04 1.66767961e-04 -9.67944652e-05
      -1.28722140e-05 2.30498172e-05 -1.50037840e-05 -1.74765519e-05
      2.32537841e-05 -2.74057802e-05 -6.80236437e-04 1.03014812e-03
      -9.54674542e-05 4.52786073e-04 9.37893055e-05 2.07276789e-05
      -1.12871458e-04 3.45459339e-05 5.59341046e-04 -1.99955874e-04
      -6.76039344e-05 5.66817762e-04 -3.06570641e-04 -2.23059353e-04
      5.05752396e-04 -3.51488619e-04 -2.82578752e-04 1.64143741e-04
      3.60810845e-05 2.37142394e-05 3.75089949e-05 -5.60109402e-05
      -2.28679564e-04 -1.39002502e-03 -5.75421436e-04 8.95453413e-05
      9.45505690e-06 -4.86854369e-05 -5.23534400e-05 2.78489479e-05
      8.14925937e-04 -2.57336651e-04 2.88796989e-04 4.80816598e-05
      2.97851548e-05 -6.43850071e-05 2.56300176e-04 -2.58706677e-05
      -6.64497638e-05 -3.06818401e-05 9.16766177e-04 1.19180273e-04
      -4.74029766e-05 1.08189583e-04 -6.00151019e-04 -1.56932874e-05
      -6.81552221e-04 1.31019900e-04 -3.61521816e-04 4.98318259e-05
      -2.27635101e-05 -5.99750259e-04 2.33498467e-05 -2.94888687e-05
      -8.36876061e-05 -1.11596135e-04 2.18239575e-06 1.15935232e-04
      1.62105716e-05 3.63665313e-05 8.48396448e-05 -7.33177558e-06
      -7.29820531e-05 3.43616193e-05 3.73920077e-04 6.69277157e-04
      -5.86505485e-06 3.73363786e-04 2.02826239e-04 6.79425739e-06
      1.89951621e-04 1.65754274e-04 -8.28959746e-04 2.82577268e-04
      -9.55209543e-05 -1.28483603e-04 -9.62112026e-05 2.49761069e-04
      1.34827523e-03 -4.59481176e-04 9.68742999e-04 -3.65057786e-05
      -1.67955674e-04 -3.11351381e-04 3.14575627e-05 -2.39474084e-05
      5.45680581e-04 -8.45038216e-04 -6.58320350e-05 -1.35638606e-04
      -4.78589527e-06 1.08823639e-04 -6.95767347e-04 -1.37128925e-04
      9.22701845e-04 -1.06651010e-03 3.19094310e-04 -1.11968817e-04
      -2.95358623e-05 5.41448426e-05 2.72359412e-05 0. -1.42425866e-04
      -6.55580370e-05 3.12091375e-04 -1.93195465e-05 2.09794744e-05
      9.95925875e-05 2.15564942e-04 -4.58991781e-05 -6.79556862e-04
      -4.18256037e-04 1.44849968e-04 2.68247095e-05 6.52525268e-05
      -7.13794589e-06 3.56737610e-06 -9.28626923e-06 -3.41508312e-05
      8.15102467e-05 -6.05799469e-05 -1.11122299e-05 2.29998277e-05
      5.04371237e-05 6.86953217e-06 -1.98740672e-05 4.60138872e-05
      1.35440371e-06 -9.17857687e-04 -2.78098683e-04 2.76791034e-05
      6.05470959e-05 3.28181704e-05 3.72722388e-05 -3.31220450e-04
      2.97788501e-04 1.22874544e-03 -3.44907981e-04 -3.87929358e-05
      1.50004407e-05 5.47367206e-04 2.08107347e-04 4.58128372e-04
      6.67568529e-05 -9.67417494e-04 1.69397995e-03 -1.02635255e-04
      3.18694161e-04 -5.31046593e-04 3.99378041e-05 -9.19954793e-04
      -7.45309808e-04 -6.90137560e-04 2.32105493e-04 -4.71642343e-05
      -1.61522148e-05 -5.77150087e-04 2.10067014e-06 -8.58560146e-04
      3.96920441e-05 -2.36146181e-04 -5.98269253e-05 1.79233775e-05
      -9.81331868e-06 -1.46021557e-04 -1.51224767e-05 -2.20194590e-04
      -8.94607292e-05 -1.71805354e-04 -3.73391449e-05 3.26239342e-06
      -9.88072643e-05 9.99417272e-04 -1.08072061e-04 1.26854365e-03
      -2.02003590e-04 8.05011441e-05 1.29134580e-03 -7.88806137e-05
      5.11119899e-04 -2.41286780e-05 -2.50041694e-06 2.44589337e-05
      -9.64726860e-05 -1.68035898e-04 -1.14682058e-04 0. -2.65195176e-05
      9.41907347e-05 3.51921626e-05 1.85891859e-05 9.41807521e-05
      9.05903406e-04 6.88740751e-04 -9.11050010e-05 -1.20722514e-04
      -1.95551620e-04 1.00041570e-05 -4.06112493e-04 -1.23594503e-03
      -8.87091621e-04 1.37641234e-03 -3.10878415e-04 -3.54074669e-04
      1.09071820e-03 2.30354344e-04 1.31649803e-03 -1.42102409e-03
      5.34876250e-04 -7.30932225e-04 1.96198715e-04 2.85979616e-03
      -1.10234272e-04 -1.96766177e-05 5.43056114e-04 3.62693961e-03
      -2.85420887e-04 1.85607114e-05 4.35242036e-05 1.12237874e-04
      -2.57982698e-04 -1.70352578e-04 1.69124556e-04 4.80037008e-04
      -1.44353355e-04 -9.46891669e-05 7.52479400e-06 -2.74467420e-05
      -1.09575252e-04 -7.44691306e-06 1.20859731e-04 1.14896327e-04
      -6.01128791e-04 3.02703484e-05 -5.10732389e-06 6.57926139e-05
      -1.01457338e-03 -1.57817733e-04 2.57200038e-04 4.02636564e-04
      -1.00411758e-04 9.89737237e-05 -4.34627073e-05 1.20910094e-03
      -4.38899478e-05 8.42303343e-05 6.71682346e-06 1.20213663e-03
      1.83492768e-04 -4.16216280e-05 -1.81442701e-05 3.26537884e-05
      1.97677364e-05 -1.05132222e-06 -7.50491290e-06 4.74154251e-04
      -7.47443526e-04 -9.06674832e-05 1.20180550e-04 1.76058762e-04
      7.98820693e-05 -8.27064359e-05 6.84131237e-06 -7.47660582e-04
      -3.52831511e-03 -1.04081631e-03 -1.22822443e-04 6.00528474e-05
      -1.02405867e-03 -5.17734035e-04 -3.29040020e-04 -1.11368496e-03
      1.76276139e-04 3.33177246e-04 4.18809534e-04 -9.54531191e-04
      -1.14107395e-04 1.74924862e-05 -2.79633794e-04 1.13346592e-04
      -6.69798814e-04 9.69614557e-05 4.28622229e-07 -2.21100090e-05
      5.03308256e-04 -1.06773296e-04 7.92526771e-06 5.18661167e-04
      1.23748177e-04 -1.53898891e-05 -5.53979371e-05 -1.55474791e-05
      -1.03505045e-04 -4.30506861e-06 -1.20056713e-04 1.05820791e-05
      -3.32143420e-04 -1.13460446e-04 1.37768613e-04 2.62035082e-05
      1.11363450e-04 2.76863921e-05 -3.68094334e-05 4.21782839e-04
      4.23602352e-04 2.78882289e-05 1.23386228e-04 2.49094534e-04
      4.37619092e-05 7.97592074e-05 1.24274200e-04 7.24983460e-04
      5.15366883e-05 -3.48320827e-05 -1.69736704e-05 -5.46260162e-05
      1.36310104e-04 -6.35723097e-07 1.10479072e-04 1.25107370e-04
      -6.64698309e-04 -1.61103671e-04 1.22984020e-05 -3.29907110e-04
      -8.59714419e-05 3.25505825e-05 -1.01273516e-04 1.43598125e-04
      -1.08803250e-03 -8.80391672e-05 -2.39575107e-04 8.90103474e-05
      5.01129129e-08 -4.54582223e-05 1.40830525e-04 1.70653177e-04
      8.11388090e-05 -2.67752999e-04 -2.77387626e-05 -9.87468666e-05
      -1.82658201e-04 -9.13099575e-05 -1.18278222e-04 -1.31492430e-04
      -6.02390101e-05 -2.70434073e-04 -7.04094782e-05 -8.89309831e-06
      -5.36956300e-04 -8.41053843e-05 2.32444392e-04 -1.57066370e-05
      7.89818732e-05 8.27638796e-05 -1.20629396e-04 1.32296100e-05
      -5.62216519e-05 4.87179136e-07 -1.66133381e-04 -1.29384702e-04
      -7.91895669e-04 2.99898984e-05 2.51106267e-05 5.50301920e-05
      -1.07913185e-03 -5.25132709e-05 -6.49039110e-04 4.88461046e-05
      2.73693586e-04 7.19849544e-04 4.18412237e-05 -2.63720111e-04
      -9.16279896e-05 -1.40814163e-05 1.06379433e-04 -3.77693359e-05
      -4.56955022e-05 1.33177367e-04 0. -5.48067328e-06 4.92990548e-05
      -3.14652316e-05 5.27832053e-05 1.10140718e-04 5.99018094e-05
      3.14191077e-03 1.26549494e-04 1.05808885e-03 -2.12340470e-04
      3.71098868e-05 2.50733778e-04 7.10686611e-04 -7.38068251e-04
      -5.93006087e-04 -9.58269520e-05 5.18285415e-05 -1.07685788e-04
      -9.69721732e-05 -5.70872857e-04 3.42286745e-04 -4.28746571e-04
      -7.42186312e-05 -1.93553598e-04 -3.59009282e-04 1.10002193e-05
      1.43274883e-04 7.62715295e-04 4.81455063e-05 -6.22511870e-05
      -1.36851260e-04 4.22459198e-05 -8.83529137e-05 1.74465327e-04
      -8.56627521e-05 8.37351312e-04 -1.09357614e-04 -1.88625228e-04
      4.63714932e-05 2.10422368e-05 1.06950822e-04 7.49990722e-05 0.
      -1.18040487e-04 3.47606124e-06 -1.90525738e-04 1.32340007e-04
      2.79368323e-05 4.38434290e-05 -6.76549214e-04 1.43277457e-05
      1.48625422e-05 -3.69399495e-04 -1.10169640e-04 -3.57436016e-04
      -6.53600296e-07 -4.44323727e-04 -2.19074300e-05 -5.48251992e-05
      -9.90784611e-05 -4.03953542e-04 -7.66063895e-05 5.68440628e-05 0.
      -2.22776953e-06 5.84968211e-06 1.77252896e-05 2.45913427e-04
      1.25220671e-04 5.18386310e-04 1.98389450e-03 5.10650207e-05
      -5.18251967e-04 -9.48859633e-06 2.13874118e-05 2.03253396e-04
      -1.68829647e-04 5.95876481e-04 2.71547004e-04 -1.12811244e-06
      -1.85108554e-04 -3.38355603e-04 8.70668155e-05 -6.16523786e-04
      -1.99366827e-04 5.84169116e-04 -6.56138873e-05 1.14047827e-04
      -8.50363751e-04 1.70045896e-04 6.28464186e-05 -3.83239123e-04
      -3.71183123e-04 -3.54811855e-05 1.50984386e-04 8.23731898e-06
      7.40988471e-05 -4.23892488e-04 -3.79762423e-05 1.82310250e-04
      -8.32131918e-05 -2.25883807e-04 2.46229156e-05 -5.89702613e-05
      6.16983925e-06 -7.55636938e-05 0. -3.67499269e-05 -1.48617517e-04
      3.78123717e-04 -5.01254872e-05 8.80332809e-05 2.77708314e-05
      3.83468054e-04 1.29597975e-04 5.71088931e-05 -3.33212083e-04
      9.17312209e-05 5.72536264e-05 -1.51534696e-04 -9.95603477e-05
      -2.22585259e-05 -2.56097392e-05 -1.55756716e-05 -6.43389823e-04
      -3.24035063e-05 1.13340302e-05 1.87980604e-05 -1.18000164e-04
      -2.53705239e-05 6.65638727e-05 2.83808404e-05 -3.74959964e-05
      5.65475493e-04 1.20974041e-03 7.26149956e-05 -2.16387372e-04
      -1.84152814e-04 -2.19665762e-05 -1.15128554e-04 6.04498746e-05
      3.55973316e-05 2.03962336e-05 9.17800062e-05 2.90570169e-05
      -2.19993206e-04 1.31457520e-04 3.21653904e-04 -1.45006736e-04
      -1.07620296e-03 2.41228874e-04 -2.36245523e-05 -4.52059030e-05
      2.26896344e-04 4.73800064e-05 -4.42105156e-05 -4.99221751e-05
      3.02988483e-04 -1.75304973e-04 -2.94328111e-05 5.33184975e-05
      -3.05308931e-05 -9.37005389e-05 5.54500672e-04 2.29629397e-04
      -8.33194790e-05 -4.36094560e-05 -4.92571780e-05 -2.20926177e-05
      1.41812008e-04 5.20205831e-05 1.00804812e-06 5.76562888e-05
      -6.72019261e-04 2.55483865e-05 -8.51119839e-05 -6.46222998e-06
      -7.16457944e-05 8.29451801e-06 -3.60186474e-04 2.02180512e-04
      2.66228977e-04 8.46741532e-05 3.69548652e-05 5.72694349e-04
      -3.40427723e-05 3.08317321e-05 1.53132878e-05 -1.00736375e-04
      -1.90222436e-05 -3.84739906e-05 -3.51488488e-05 -3.45393819e-05
      -7.44670760e-05 -1.27488038e-05 -1.42273120e-05 -6.95829731e-05
      -1.87564205e-04 7.06625171e-04 1.41559212e-04 4.44963807e-04
      8.64463218e-05 -5.04606869e-05 -1.38188843e-04 3.20507825e-04
      -1.35419471e-03 -2.88388037e-05 1.88621234e-05 2.71623547e-04
      1.48587511e-04 2.09885457e-06 2.11535298e-04 -3.49892885e-04
      1.20383978e-03 3.95811694e-05 -6.85029736e-05 -6.26552865e-05
      2.26151402e-04 -1.67161743e-05 1.03857463e-04 -1.61287829e-03
      -1.48115330e-04 7.41991680e-05 -1.77347647e-05 -6.21108411e-05
      -7.00572389e-04 -8.05547388e-05 -9.05996480e-04 -1.70154861e-04
      -2.18857429e-04 -7.00574310e-05 5.00905262e-05 -1.15512421e-05
      1.30308486e-04 -4.62445423e-05 1.17490061e-04 7.25218997e-05
      -1.90617255e-04 5.47747150e-05 2.17597008e-05 6.04770976e-05
      1.05548243e-03 -1.08686436e-04 -6.31035829e-04 -2.28969788e-04
      4.13724629e-04 2.26259115e-04 -3.46791239e-05 7.32698187e-04
      8.87574333e-06 7.94803782e-05 -4.59452986e-06 1.04676314e-04
      -1.26759027e-04 5.82119465e-05 -8.37843254e-06 6.52475937e-05
      2.73228161e-05 5.07572076e-05 1.04143401e-04 8.98178987e-05
      -5.79303596e-04 -4.45108541e-04 -8.69665237e-05 8.56712722e-05
      5.23778072e-05 3.21920270e-05 1.63350669e-05 4.17435978e-04
      -1.09086349e-03 1.56015143e-04 1.67993363e-04 1.58793133e-04
      7.05181912e-04 1.60558247e-05 7.94993015e-04 -4.61282470e-05
      1.55693808e-04 -1.58860945e-04 -1.45023578e-05 -3.87347623e-04
      -1.03734339e-04 1.39021460e-04 2.25886950e-04 -1.72486925e-03
      -6.33196032e-04 -3.09957948e-04 7.81927270e-08 -3.31657247e-05
      -6.62089558e-04 1.03374667e-04 -7.78962625e-04 2.32167604e-05
      4.45421792e-05 1.08326960e-04 4.03537615e-06 7.06034334e-05
      -8.04010779e-05 -5.00819397e-06 -2.57270094e-05 1.79626557e-04
      -1.99587419e-04 -9.06083369e-05 6.64039326e-05 -1.70894765e-08
      5.32989332e-04 2.87707771e-05 -5.94917859e-04 2.12049461e-04
      1.56245762e-04 -4.52678680e-04 3.67357461e-06 -1.51400673e-04
      1.94697604e-05 -6.26970650e-05 -9.01093808e-05 -1.75337089e-04
      -5.86555980e-05 -3.76978860e-05 0. 4.01805955e-05 3.55375632e-05
      -6.66578999e-05 -3.07322407e-05 6.90113084e-05 -8.84452893e-05
      -2.16315693e-05 -2.62238268e-06 3.13693832e-04 -1.12342510e-04
      5.77246647e-06 3.00574939e-05 1.11548102e-03 2.84193340e-03
      -1.51536748e-04 1.95473636e-04 1.27394727e-04 3.07841547e-04
      1.87662547e-04 -1.08408916e-04 6.98582735e-05 4.75304580e-04
      1.17719418e-03 -4.83713142e-04 -1.29650568e-03 1.54080859e-04
      6.68592984e-05 -3.78477620e-04 1.53738074e-03 7.73336214e-04
      -2.69551791e-04 4.92368672e-05 -7.45644065e-05 4.71470732e-04
      -1.54894486e-04 -1.24222739e-03 -1.34988484e-04 2.14045489e-04
      3.29090944e-05 -3.87188447e-05 -5.92096258e-05 -2.98914310e-05 0.
      -4.97666515e-05 -8.41221390e-06 1.06075453e-03 6.01649917e-05
      -4.68235157e-05 -2.85664719e-05 3.04877958e-05 2.27146465e-05
      -8.13514460e-04 -1.49751431e-04 -2.36474181e-04 -3.58838530e-04
      -4.69134757e-05 -1.11507019e-03 3.01710843e-05 4.99919297e-05
      -2.21793074e-04 -8.05873497e-05 2.66051036e-04 9.91014385e-05
      -1.63142104e-05 -1.21753270e-04 6.16118050e-05 -3.45659028e-05
      -9.40260361e-05 -2.15662585e-04 -1.57947215e-04 1.00948161e-03
      -1.85463359e-04 -2.14583579e-05 -1.39809359e-04 5.57799976e-05
      -7.97579181e-04 1.18181214e-03 2.51524989e-03 3.44128202e-04
      1.06992629e-04 -1.34212896e-04 -9.98227333e-05 -3.96271877e-04
      -7.61923846e-04 -1.35024637e-03 8.91342177e-04 -2.33449493e-04
      -1.58587427e-05 2.03586285e-04 2.14642729e-04 2.13689909e-05
      1.81765063e-03 4.07659420e-04 -6.89862180e-04 1.36216668e-05
      2.84480211e-05 -6.11686773e-05 9.75780189e-04 -5.75194827e-06
      9.87389009e-04 1.11023990e-04 3.24135792e-04 -1.90963270e-04
      -1.99270871e-05 7.58114857e-06 -1.46424703e-04 -9.73051442e-07
      3.31610325e-04 -4.19225362e-05 -2.75885948e-04 -9.35904882e-06
      1.05958090e-04 -5.25021605e-05 9.41409322e-04 4.70790037e-05
      9.38570709e-04 3.32212367e-04 6.69122266e-04 -4.33241694e-05
      2.03101699e-05 1.87943544e-04 -2.96113030e-05 3.60133599e-05
      -1.04875689e-05 2.11839331e-04 -5.93359000e-05 5.75532249e-05 0.
      -3.42019894e-06 -8.37093467e-05 1.34410413e-06 -2.53242935e-04
      1.18943128e-04 4.86266363e-04 -4.64605121e-03 9.62047197e-05
      2.80120265e-04 9.64007631e-05 -2.78332242e-04 -3.10921780e-04
      -5.32161444e-04 -1.00431603e-03 -1.23723922e-03 -4.43001445e-05
      6.32537485e-05 5.50124860e-05 -3.71536007e-05 4.40562289e-04
      -1.20430382e-03 -7.79598777e-05 6.05385139e-05 -3.37475904e-05
      6.31687581e-04 -2.02858937e-05 -6.65901607e-05 1.75725122e-03
      9.30153765e-04 -8.90276860e-05 -2.72838383e-06 -5.57352223e-07
      -1.68012793e-05 -6.38657439e-05 -5.81057029e-05 2.28997320e-03
      -2.01334740e-04 -1.06326777e-04 -2.63357142e-05 7.96694439e-06
      -8.29089477e-05 -9.23804328e-05 0. -2.76554692e-05 1.23756727e-05
      -3.69524525e-04 -2.71361678e-05 1.18478401e-05 -3.40194019e-05
      -2.23920937e-03 -9.68005697e-05 -5.22827730e-04 2.38786262e-04
      -1.02479762e-05 -3.34235985e-04 -8.60285872e-05 -1.21809542e-04
      -8.52291851e-05 -5.44810973e-05 -1.32219604e-04 1.03849871e-03
      -4.78056381e-06 6.68140274e-05 -2.80506811e-06 -3.20761274e-07
      -3.46326997e-05 -3.54128606e-05 -1.21673700e-04 4.37419840e-05
      -1.16793890e-04 5.68240721e-05 -2.85342030e-05 -2.84474983e-04
      1.17221294e-04 6.67102067e-05 -1.91111714e-04 4.79477225e-04
      -1.06065499e-03 5.68592368e-05 3.51179842e-05 1.88705628e-04
      -3.58213787e-04 1.54519381e-04 4.36864153e-04 -1.36214413e-03
      1.61113305e-04 1.92405889e-04 7.34898145e-04 7.16680835e-04
      1.64191602e-04 1.64439971e-05 2.39593704e-04 2.68382719e-04
      2.00094597e-04 -7.68229438e-05 -3.09941897e-05 4.87292436e-06
      -3.33242817e-04 8.76763806e-05 1.03294919e-03 -1.30550703e-04
      2.84954003e-04 2.63334496e-05 -9.22334511e-05 -4.90421080e-05
      2.66245886e-04 2.55455579e-05 -4.40208787e-05 1.46419889e-05
      -5.56417799e-04 4.47618368e-05 4.16414405e-05 -8.09951416e-06
      -7.88862642e-04 -6.38622150e-05 -4.54311376e-04 3.59473430e-04
      -6.12742078e-05 -2.39526125e-04 -2.85825881e-05 5.56693645e-04
      3.99448945e-05 -1.55849950e-04 -2.09605623e-05 1.51430257e-04
      -1.43224145e-06 -1.13926899e-05 1.02872100e-05 6.53804364e-06
      7.71342172e-07 -2.30723945e-05 -5.68937721e-05 -1.62558194e-04
      -1.65306090e-04 -4.81885014e-04 8.79533545e-05 -8.90763884e-04
      1.43232421e-04 6.99226075e-05 9.29742237e-06 -3.82173603e-05
      -9.38986923e-05 -1.95735236e-04 1.58396124e-05 -4.51826956e-04
      -1.59187752e-04 -2.23456722e-04 1.69543709e-05 9.85148581e-05
      6.02061395e-04 1.13967682e-04 8.41742512e-05 -4.24354337e-04
      3.42816456e-05 -1.00331861e-04 3.92246555e-04 1.76026195e-04
      -6.28944254e-05 1.07575062e-04 -5.50980512e-05 2.46646541e-05
      -2.09297141e-04 -1.32865725e-05 4.48679639e-04 2.93139252e-04
      4.87241923e-04 -3.95562756e-06 1.78090449e-05 1.07815053e-04
      -3.35046898e-05 0. -8.55350208e-06 -5.29423596e-05 -4.72151209e-04
      4.13331036e-05 5.07605182e-05 -1.24696071e-05 -5.64603506e-05
      5.03130505e-05 -1.76267393e-04 6.02722503e-05 -1.07769920e-05
      -3.10633099e-04 9.18953447e-05 -6.64237654e-04 -4.08455935e-06
      4.45885271e-05 1.21382851e-04 1.24260056e-04 -2.46094605e-05
      -7.34066198e-05 -1.54504755e-06 8.15432504e-05 2.77635882e-05
      -5.86005190e-05 2.81216057e-06 2.66900752e-04 -7.85513475e-05
      -7.84459815e-04 5.44084505e-05 1.08977663e-04 -5.82493121e-05
      1.73297085e-04 -2.95334085e-05 -1.88974358e-04 -1.58951661e-04
      -1.72206055e-04 -5.66022281e-05 5.87838076e-05 -3.95541254e-04
      -1.15084549e-05 2.78091495e-04 2.36972672e-04 1.28255211e-04
      -3.20867548e-05 -7.26498547e-04 -1.26684178e-03 -1.20740144e-04
      1.40200646e-04 -3.16640508e-04 -3.78790661e-04 2.49952573e-04
      -3.42288367e-05 7.87088065e-05 -4.43812714e-05 4.54572255e-05
      -1.24450007e-05 -4.15518298e-04 -1.31322347e-04 1.33309604e-05
      4.15956929e-05 2.09474179e-04 -8.21747599e-05 2.88934989e-05
      -2.09812315e-05 2.80354016e-05 2.43527847e-05 5.61235938e-04
      2.35788302e-05 -8.12556755e-05 1.10747969e-05 1.44190865e-03
      5.40514666e-05 -1.20151177e-04 -3.22933804e-04 -8.74827238e-05
      3.54205316e-04 -9.96014496e-05 1.95241137e-05 1.28792861e-04
      -3.87801447e-05 -6.07196853e-05 -6.41276652e-04 4.23182573e-05
      5.24653369e-05 -2.41774032e-05 -4.94670021e-05 -6.90526140e-05
      -2.36732376e-05 1.59274685e-04 -1.40469740e-04 4.91828978e-05
      -1.52139575e-04 3.23956192e-05 -1.42061370e-04 3.52052939e-06
      5.93221012e-05 -7.12491601e-05 6.23955784e-05 2.45976786e-04
      2.31258218e-05 2.28693738e-04 9.85415609e-05 9.37823032e-04
      -6.12878575e-05 -8.32709702e-05 2.74035556e-04 -3.92306509e-04
      -8.82438762e-05 -1.37227835e-04 2.69358832e-04 -1.05745676e-04
      -5.74693768e-05 -1.02108449e-03 -4.92203108e-04 5.25440322e-04
      5.67459319e-05 -2.89242871e-05 2.70224718e-05 -1.52729364e-04
      -6.30568175e-05 -7.70608720e-04 -1.80293273e-06 -1.19349817e-04
      4.74040826e-06 3.37475212e-05 -2.17587774e-04 7.80448609e-05
      1.54861355e-05 -3.00588890e-05 1.00526398e-04 7.86926466e-05
      8.16532047e-05 4.17995070e-05 -2.68918150e-08 6.60632562e-04
      -7.53341810e-05 -3.73247691e-04 1.29511027e-04 2.88600539e-04
      1.68613682e-04 3.75884483e-05 5.67574054e-04 -7.18951633e-05
      -7.80120972e-05 -1.59708099e-04 4.28244792e-04 -6.46677217e-05
      8.51361328e-05 0. 1.01755948e-04 5.15914071e-05 2.69426782e-05
      4.87015532e-05 -1.25587234e-04 -6.69477100e-04 3.46442859e-04
      1.28851418e-04 3.14585719e-04 1.42992474e-04 9.45553402e-05
      -2.12494982e-04 5.12320003e-05 7.27441686e-04 -2.23165247e-04
      -1.45247570e-04 2.13074542e-04 5.20836795e-04 1.35446549e-04
      -1.13106144e-04 -5.93240722e-04 3.19746876e-04 -1.74720422e-04
      4.27283885e-05 8.37941043e-05 -1.38577147e-04 -1.24349070e-04
      5.63703070e-04 1.05998572e-03 -5.44919283e-04 -9.69958783e-05
      -9.59290264e-05 1.02232598e-05 1.50184016e-04 1.31245106e-04
      -1.48859137e-04 1.44725316e-04 -4.60254960e-04 1.51504035e-04
      -1.13655697e-04 8.26561300e-05 -8.87487658e-06 -1.57222330e-05
      -9.47273875e-05 -1.26170007e-05 -8.96993326e-04 -7.29863168e-05
      9.69725806e-05 3.87094951e-05 -1.04527245e-03 8.79507788e-05
      8.65865324e-04 -5.55813094e-05 1.11334441e-04 6.35296019e-05
      -1.00888377e-04 8.25735449e-04 -3.90112145e-05 4.38247152e-05
      -5.58694701e-05 3.70716996e-04 7.59187751e-05 -5.17627923e-05
      8.34347884e-06 7.88480338e-06 -3.82567669e-05 -5.14335989e-05
      -1.26465631e-04 1.54436348e-04 4.85248340e-04 -4.35146183e-04
      3.55213124e-05 2.18176850e-04 1.34817019e-04 2.99825715e-05
      3.37908823e-05 -3.03390640e-04 2.59633263e-04 -5.05826711e-06
      -8.43440284e-05 -9.22400868e-05 2.19231690e-04 -1.75202455e-04
      -2.29723606e-04 -1.01829215e-03 -5.54107071e-04 -7.00807141e-05
      7.90245540e-05 3.96810676e-04 -2.36761058e-04 -6.47591442e-05
      2.14872503e-04 -2.49097706e-04 -5.52438316e-04 2.76529227e-05
      -1.72431646e-05 1.05106483e-04 4.90922481e-04 8.48869458e-05
      1.14198723e-04 -2.31245449e-05 -1.59067233e-04 5.01875620e-05
      1.28066022e-04 -3.55977900e-05 -6.06582653e-05 -3.41541927e-05
      4.49547188e-05 -9.38603116e-05 -1.54079404e-04 7.25383434e-05
      -8.25716852e-05 7.13748668e-05 1.44812177e-04 -5.94569065e-05
      5.87063958e-04 3.93987226e-04 4.80257004e-04 1.74142260e-04
      2.39980163e-05 2.00882132e-04 5.03226183e-05 5.25767755e-05
      -2.19210579e-05 2.08709505e-04 -6.40243206e-06 1.05925094e-04 0.
      -3.06423158e-06 -9.00804298e-05 -7.03669211e-05 -3.47417445e-05
      -2.46970507e-04 -2.43656206e-04 3.20032384e-04 -2.61968739e-06
      2.52295547e-04 -7.47819358e-05 -8.15835519e-05 -9.13549957e-05
      -2.66576128e-04 -2.14090644e-04 2.73893274e-05 -1.20875746e-04
      1.50555294e-04 2.92977202e-04 6.65795160e-05 -2.74213380e-04
      -1.12274580e-03 -9.26487322e-04 -1.01874473e-04 -2.07044592e-04
      9.37180175e-06 -2.50025664e-06 -1.04463608e-04 -1.09164459e-04
      -1.11213897e-03 -1.01304299e-03 -1.22258818e-04 -3.58455909e-05
      -1.23986014e-04 6.03135617e-04 4.47190905e-05 -3.49971378e-04
      -3.46074550e-04 6.84357190e-04 -6.04701600e-05 -3.33961616e-05
      8.35235332e-05 1.00957179e-04 0. -7.27496372e-05 -1.20467130e-05
      2.38130079e-03 -8.30182307e-06 1.40318545e-04 9.92427231e-05
      3.37433862e-03 -8.41390738e-06 1.07979740e-03 3.51354509e-04
      2.61448964e-04 -2.72327743e-04 -1.75158639e-04 -6.72264374e-04
      6.41472870e-05 7.34109126e-05 -8.83741741e-05 -2.15891254e-04
      -4.45427177e-05 2.11521401e-05 1.55932812e-05 -5.19904188e-06
      -4.04323109e-05 2.10217495e-05 -1.95504806e-04 -5.91708340e-05
      1.68545259e-04 -1.87327689e-03 4.81716379e-05 -2.14780710e-04
      -1.23094826e-04 -2.62609501e-05 -2.95464706e-04 -1.61655550e-03
      1.20578229e-03 9.18560108e-05 -8.04143274e-05 1.54858571e-05
      1.77398487e-03 -2.20370115e-04 -1.19247090e-03 -5.51231205e-04
      -1.07440352e-03 -1.71761611e-04 -2.22293340e-04 -2.38660679e-04
      6.09133276e-04 -1.22847749e-04 5.86694281e-04 7.67808597e-05
      -1.09363478e-04 -7.26907674e-05 -7.88846810e-05 -3.50537339e-05
      2.55876640e-03 3.47583737e-05 2.64837546e-03 1.76929359e-04
      -1.07576547e-03 -8.74577108e-06 9.13143158e-05 1.43427378e-05
      -1.46702541e-05 0. -4.85529854e-05 -4.13659618e-05 -9.42568469e-04
      -1.91403215e-05 7.38788185e-06 -7.60373368e-05 2.53385369e-04
      -7.35102367e-05 1.50417793e-03 3.35865421e-04 -5.66942435e-05
      3.61364364e-05 -1.39052820e-04 -1.31755020e-03 4.38636707e-05
      -1.02881815e-04 4.70293780e-05 -4.17579395e-05 -6.68755456e-05
      4.32031484e-05 1.38757232e-05 1.59855317e-05 -6.68188613e-06
      6.21317959e-05 -2.75745897e-05 -1.40801203e-04 -8.20647183e-05
      -1.36201538e-03 2.14355641e-05 -1.57414706e-05 -7.33150373e-05
      -6.28816779e-05 -7.70514744e-05 -1.46364197e-04 -4.75849956e-04
      6.74639523e-05 -1.00561329e-05 -2.79655127e-04 8.62844099e-05
      1.74134198e-04 1.28238229e-04 -7.26511877e-04 -4.02612844e-04
      -1.05277519e-04 1.13878472e-04 -4.34419162e-05 7.28595885e-04
      2.19917256e-05 4.49889281e-04 2.13222491e-04 -1.32124433e-05
      -7.59186805e-05 6.91092064e-05 -5.86227652e-05 3.24646535e-04
      1.14995710e-04 3.65586238e-05 5.09155681e-04 2.88115607e-05
      3.38790742e-05 1.71957727e-05 -3.06161965e-05 7.92718274e-05
      1.26140401e-06 -6.06336616e-05 -2.25057101e-05 5.75231737e-04
      -5.35749678e-05 -2.07123921e-05 1.65794409e-05 -5.47989912e-04
      -8.39096028e-05 6.02165062e-04 7.75330700e-05 -5.32427912e-05
      -1.02458798e-04 4.66546589e-05 -2.01019182e-04 -6.44361862e-05
      6.43379608e-05 1.01588630e-04 1.43808838e-05 2.38948414e-05
      6.12548683e-05 -2.21273021e-05 -1.64577468e-05 3.53844698e-05
      -3.62089013e-05 -5.75090053e-05 -6.44992397e-05 -6.45731867e-04
      -5.24417672e-04 8.48343625e-05 3.51622875e-04 1.18083786e-04
      -5.81996828e-05 -3.40368160e-06 -2.54715880e-04 -7.02527410e-04
      6.21531799e-05 5.33613729e-06 -3.18431216e-06 -1.03917031e-04
      6.92692629e-05 1.27809384e-04 -7.47492537e-04 -1.07268326e-03
      6.19621424e-05 -1.78548755e-04 -2.53505132e-04 2.10059487e-04
      -4.25975231e-05 3.03714594e-04 -1.71449210e-04 -2.06700846e-04
      -1.96026917e-06 -6.49826688e-05 4.98538975e-05 8.68377800e-04
      5.10965874e-05 -8.99021572e-04 -4.50454390e-05 -1.82041797e-04
      -5.99461237e-06 -1.25302740e-05 -8.61210283e-05 5.17992303e-05
      1.79954422e-05 -1.28391883e-04 -1.50916439e-05 1.04728606e-04
      4.74794688e-05 -4.66313395e-05 2.95380391e-06 6.51081617e-04
      4.60465380e-05 2.78298889e-04 3.71723931e-04 -1.33298396e-04
      -3.58745281e-04 1.11161869e-04 1.07383914e-03 -1.26746418e-05
      6.90274464e-05 -6.40676735e-05 4.01633006e-05 3.50354494e-05
      -2.38962293e-05 0. 2.65729597e-07 2.84065201e-04 -9.13530748e-05
      2.26441152e-05 -2.38409484e-04 -1.70302112e-04 -9.64761930e-05
      3.85439344e-05 -1.89352359e-04 -9.22396212e-05 1.33069596e-04
      -9.04682165e-05 -3.92502378e-04 3.94135946e-04 -1.18500291e-04
      -2.47670851e-05 1.18704949e-04 -3.27905058e-04 -2.13333755e-04
      2.98113242e-04 3.15647048e-04 -6.77019183e-04 -1.88405538e-04
      3.39497114e-04 2.53728722e-05 1.13246853e-04 -4.09907334e-05
      3.94606992e-04 5.83325222e-04 1.70384650e-04 -3.08296039e-05
      -4.07491143e-06 4.16917792e-05 3.65872074e-05 2.63881684e-05
      -1.50715176e-04 1.83686920e-04 -7.90563281e-05 -2.03098825e-04
      2.46436219e-04 7.20525131e-05 -9.44820713e-05 1.25615525e-05
      7.51408079e-05 -3.13534147e-05 1.10299257e-03 9.66425505e-05
      9.01113672e-05 -3.99290839e-05 -2.53378483e-03 4.99018934e-05
      -7.23209814e-04 -7.00695018e-05 1.06434592e-04 -2.13898238e-04
      3.28228271e-05 -4.99344897e-04 -1.23144011e-04 3.41043706e-05
      -7.21417455e-05 2.36975917e-04 4.15361501e-05 1.08996261e-04 0.
      -2.33835635e-05 6.00132953e-05 2.76851952e-05 2.07269713e-05
      2.37058557e-05 5.81464148e-04 -7.22311670e-04 6.13488519e-05
      -6.39859412e-04 1.09329021e-05 3.77898250e-05 4.30011369e-06
      2.41138026e-04 3.62125487e-04 1.66093145e-04 4.88743972e-05
      2.31623606e-04 2.21091861e-04 1.35118142e-04 -6.19524362e-05
      7.67525693e-04 -5.51450357e-04 1.18107280e-04 1.20206409e-04
      3.01857421e-04 -5.11568614e-05 -1.36987564e-05 -4.12694557e-04
      -4.40022763e-04 -6.07651309e-04 -6.60803853e-05 5.18141060e-05
      1.02401355e-05 -1.48024832e-04 7.06479332e-05 -7.78533358e-05
      -2.27546872e-04 3.64860869e-04 1.20229401e-04 -1.76251542e-05
      -8.13440129e-05 -6.75896445e-05 -3.27027510e-06 -1.33748981e-04
      3.18916682e-05 -3.70801194e-04 2.00143913e-05 -7.44106655e-05
      -2.15345663e-05 -5.47079952e-04 -3.20790314e-05 -3.12484888e-04
      -2.46626805e-05 -2.76017672e-05 6.16271456e-04 -9.48604502e-05
      1.03287806e-03 1.81135430e-04 -6.37015473e-05 2.83454974e-05
      2.08365513e-04 -7.10877866e-05 2.96310518e-05 0. 6.58741264e-05
      -1.58236453e-05 -7.16710056e-05 -4.21947880e-05 2.36985972e-04
      3.29149858e-04 1.01135997e-03 -1.23976104e-04 1.17385807e-03
      -1.17157062e-04 -3.21918997e-05 -1.83363853e-04 -3.04457673e-04
      -7.24237470e-04 4.91059734e-04 -9.58853416e-05 -1.83074935e-05
      2.01681018e-04 6.77242133e-06 -9.08001966e-04 3.54093179e-04
      -1.10257929e-03 -7.07454019e-05 4.01344005e-04 4.19781019e-04
      5.64818365e-05 -3.80843776e-05 7.83296418e-05 -6.60047343e-04
      -1.04851271e-04 -7.60555195e-05 -4.67182908e-05 -1.05411164e-05
      2.35903179e-04 8.15156284e-07 -1.49451848e-03 3.65006417e-04
      -7.32998669e-05 -1.06657040e-04 -2.62984668e-05 2.69309458e-05
      1.67518901e-05 0. 8.40407520e-05 -1.32398607e-04 1.39259326e-04
      -1.56130496e-04 -2.21626760e-05 2.45933079e-05 4.09263070e-04
      3.74920528e-05 6.96109710e-05 -3.09381867e-04 1.83832264e-04
      4.97590299e-05 1.14720220e-04 1.73482476e-04 6.95631707e-06
      3.99342171e-05 3.30159019e-05 4.49644082e-04 -5.24412098e-06
      -1.59927673e-04 -1.60363925e-05 -5.61092456e-05 5.32538907e-05
      7.12316250e-05 -1.40196949e-04 1.47246814e-04 5.13234350e-04
      -4.43628582e-04 3.18824896e-05 5.89063711e-05 -2.18364403e-05
      1.18730306e-04 2.72510573e-04 5.81643777e-04 2.02093346e-04
      1.15381801e-04 -1.23825430e-05 7.54861394e-05 -6.04542802e-05
      -1.20448240e-04 -3.40674218e-04 1.48859268e-04 7.71720894e-04
      -2.26974880e-04 -4.11471701e-04 -3.13175056e-04 -2.62284448e-04
      8.78793362e-05 -3.22140782e-04 -1.41101145e-06 -2.89910560e-04
      7.22783589e-05 6.10695861e-05 -1.70187616e-06 2.00044102e-04
      8.52828452e-05 1.39176700e-04 2.04346507e-04 -2.86390568e-04
      -6.30539726e-05 1.30951912e-05 -1.88269871e-04 5.52230813e-05
      -2.52656127e-06 1.19438439e-04 3.09310744e-05 -5.58407046e-04
      4.85534983e-05 -1.43811340e-04 -4.82318646e-05 1.46728894e-03
      -7.91918865e-05 2.56531552e-04 -1.03784914e-04 2.12115672e-04
      -8.20072019e-05 1.29414084e-05 1.01653808e-04 -7.48462162e-06
      -9.25500353e-06 6.24794484e-05 -5.34488529e-04 -8.71898956e-05
      -8.61112130e-05 -1.56432106e-05 -9.64306601e-05 -1.74432043e-05
      -2.79825563e-05 -3.14249155e-05 -1.47811734e-04 2.20925329e-04
      4.20559460e-04 3.15209363e-05 3.67995584e-04 -4.72134634e-05
      3.18267485e-05 -7.89690894e-05 -1.23274993e-04 5.57949650e-04
      -1.49173706e-04 -1.58497096e-05 -1.07077569e-04 -4.92046704e-04
      1.43543712e-05 -1.51435655e-04 -3.61304847e-05 6.05521927e-05
      -3.55386321e-04 1.47161016e-04 -1.91506275e-04 1.47794621e-04
      -3.62873689e-05 1.06212427e-03 7.55584042e-04 -2.93666264e-04
      -2.81884786e-05 -5.63920621e-05 -1.82569202e-05 -4.54823748e-04
      8.54071914e-05 5.43092261e-04 -1.48807056e-04 1.83995973e-04
      -3.98293378e-05 -3.25629372e-07 -2.59476856e-05 1.31886045e-04
      -4.40574695e-05 -2.12512954e-04 1.26887724e-04 5.99548912e-05
      -3.13105083e-05 -3.72905852e-05 -2.88356587e-05 -9.14561970e-04
      1.46991981e-04 1.40938530e-04 -3.23257438e-04 -3.55306955e-04
      1.13208829e-04 4.00557328e-05 5.81210421e-04 -1.07916792e-04
      1.24501230e-05 -2.90254829e-05 -4.02874692e-04 8.14652522e-05
      -2.70852197e-05 5.35440131e-06 8.98176077e-05 -4.10322609e-05
      -8.56699116e-05 5.43256101e-05 4.67309546e-05 2.69920129e-04
      7.82968942e-04 -1.85430836e-04 -1.94523818e-04 -6.19812272e-05
      5.85350463e-05 -5.80195992e-05 -9.47259759e-05 -3.50101880e-04
      -2.33471928e-06 -1.32105532e-04 -1.06909472e-04 2.46783806e-04
      -9.57922093e-05 -2.83480156e-04 -1.19637181e-04 9.93684167e-04
      -3.68008827e-04 -3.24335269e-05 -3.16545862e-04 3.03311623e-04
      -1.58288076e-05 6.27932150e-06 -6.89672743e-05 -1.20949757e-04
      -9.25110817e-06 -3.79051999e-05 -8.48601940e-06 -8.22681613e-05
      -3.67381472e-05 -2.49612149e-05 1.21696401e-04 8.60227228e-05
      3.33048083e-05 3.76494208e-05 -1.27499370e-04 -1.25626930e-05
      -1.66000302e-06 -1.45025406e-04 9.17989091e-05 -2.76242499e-04
      6.08806185e-05 -1.90073788e-05 3.17780687e-05 -3.63695901e-04
      -1.17639298e-04 -1.52133885e-04 1.14984257e-04 -9.11295720e-05
      -8.78662977e-04 1.92704974e-05 -7.25779973e-05 -5.95554520e-05
      -6.26940746e-05 -2.40973037e-04 1.71278080e-04 1.56441019e-05
      8.46125986e-05 0. 9.18990045e-05 -3.35108525e-05 -2.25110648e-06
      1.52918165e-05 -4.67117898e-05 1.54878851e-03 -6.22038729e-04
      4.24631944e-05 -4.92007966e-05 -5.71124074e-05 -1.05176543e-04
      -7.22776167e-05 -8.84781475e-04 1.49775748e-04 3.09119991e-04
      -3.97422591e-05 8.23890441e-05 1.04486919e-03 -3.81387545e-05
      -8.59565276e-04 1.09711883e-03 -5.31203405e-04 -3.27669841e-05
      -2.88009003e-04 3.50851420e-04 -2.49581324e-04 4.87874058e-06
      5.29086625e-04 2.52162979e-04 -5.83114925e-05 1.10706078e-05
      1.09817789e-04 -3.93173468e-05 -5.07167948e-04 -3.46431007e-05
      -3.22729698e-04 -8.46557377e-05 1.67755119e-04 -2.54015458e-06
      -9.12430478e-05 -5.91196949e-05 4.01947946e-05 0. 2.84894486e-06
      -1.24736776e-04 3.98076460e-04 -4.10442008e-05 -6.36435652e-05
      1.60211290e-04 -4.55219939e-04 1.19823118e-04 1.28847925e-04
      5.24641837e-05 -1.81796349e-04 -3.77292250e-04 9.71273985e-05
      -1.37544873e-06 1.08807930e-04 3.68152469e-05 -1.93309825e-04
      9.75118310e-04 -2.43513514e-05 -4.71843377e-05 0. -4.75962333e-05
      5.66136896e-06 -2.59596418e-05 2.31649028e-04 -1.63072778e-04
      1.12132356e-03 1.50614855e-04 -1.16633506e-04 -7.62653595e-04
      5.69274162e-05 4.48852406e-05 3.72263195e-04 -4.50109539e-04
      6.67646993e-04 4.91067243e-04 -8.02388695e-06 -1.17561387e-04
      -6.43142121e-05 -2.06818877e-04 2.81626359e-04 -1.19563751e-03
      -5.73692087e-04 2.32137245e-04 1.65154343e-04 1.36964067e-04
      3.26718640e-04 1.08435443e-05 -3.27291636e-05 9.74630355e-04
      -2.08818950e-04 -3.64378866e-05 3.22228079e-05 6.90688466e-05
      -4.24317899e-04 2.11136448e-05 2.99144624e-04 5.30725592e-05
      1.07767177e-04 1.72838612e-04 -9.57470693e-05 2.34938179e-05
      1.65945003e-05 2.18885943e-05 -2.76600895e-05 5.42918497e-06
      -1.44989361e-04 -1.23361733e-05 3.66439563e-05 -2.10329945e-05
      7.22440454e-05 -4.67834252e-05 -6.28932903e-05 -1.51070533e-04
      2.43379996e-04 -1.91079613e-04 1.83016600e-04 2.39866975e-04
      6.01356915e-05 -1.32565274e-05 -4.44044745e-05 4.44822654e-05
      -1.18238328e-04 -3.51593080e-05 -1.84177334e-05 1.05330895e-04
      -5.24055031e-05 1.45717840e-05 -2.03760774e-05 -1.95876884e-04
      4.47148632e-04 -1.47287280e-03 -1.16662650e-05 -1.35182738e-04
      -1.05535742e-04 -1.37070283e-05 4.27304476e-04 3.41652456e-04
      -4.07779662e-05 -4.51784494e-04 -3.33709067e-05 -2.21128197e-04
      3.60609061e-04 1.26576968e-04 -4.74001499e-05 -3.10896750e-04
      -4.75477049e-04 2.62972870e-04 -2.94880796e-04 -1.50946915e-04
      -3.15472978e-04 1.59643023e-05 1.62256911e-04 -2.19320907e-04
      2.22987437e-05 1.60636235e-04 -4.87046091e-05 1.72802738e-05
      3.69753485e-04 7.81533381e-05 3.93342925e-05 -2.17602093e-04
      8.65674810e-05 1.05736071e-04 1.17874833e-05 8.06055323e-06
      -7.40004543e-05 0. 2.03574018e-04 1.15150069e-04 -3.34921788e-04
      2.05582528e-05 3.05963258e-05 5.75394006e-05 4.14660521e-04
      -3.07144437e-05 2.38739856e-04 2.04567099e-04 2.95429461e-04
      -8.42902882e-05 -7.15800561e-05 -6.31491945e-04 -2.89399668e-05
      -7.30458560e-05 -4.62004682e-05 -3.22160922e-04 5.38328859e-05
      -3.63159620e-06 0. -2.20612874e-05 -3.87791624e-06 -1.16773535e-05
      1.52261218e-05 -5.79363841e-05 1.90353057e-06 -8.75140016e-04
      2.02333613e-05 -9.74232680e-04 1.18621596e-04 3.09170318e-05
      3.51570110e-04 5.54960512e-04 1.14459624e-04 -2.17164634e-04
      2.10499675e-05 -3.05152527e-04 1.09010416e-05 4.70074097e-04
      5.05487318e-04 6.99771568e-04 -6.30179886e-04 1.41526136e-04
      7.64958240e-05 1.19262520e-04 2.62184622e-04 -3.88981825e-05
      -8.19224224e-04 -6.07193448e-04 2.42104070e-04 4.42098390e-05
      -1.75336885e-04 4.13208145e-05 4.58798808e-04 2.05639899e-05
      1.47380773e-03 2.55789404e-04 8.88497452e-05 -1.57748189e-04
      -8.85562840e-05 2.34533127e-05 1.36555274e-04 -2.08106903e-05
      8.37847110e-05 -5.06932508e-07 -6.41438703e-04 5.45742150e-05
      -3.82030230e-05 -3.12851444e-05 -7.69710459e-04 -6.47021661e-05
      7.42357981e-04 3.11467360e-04 -4.31395420e-05 -6.77463657e-04
      7.26590952e-05 -1.95867869e-05 -4.41117663e-05 6.93595357e-05
      1.99903593e-06 1.47490340e-04 3.34822689e-05 -7.29019812e-05 0.
      1.84802975e-05 4.89222948e-05 -6.12996082e-05 -1.94753011e-06
      1.52977853e-04 1.27265128e-04 1.82595948e-04 -9.61320329e-05
      -2.36350723e-04 2.42873080e-04 3.15344478e-05 -1.48678751e-04
      -1.39727654e-05 -3.50576556e-05 4.16209426e-04 5.78874142e-06
      -3.28919341e-05 -6.56723161e-04 -1.71674779e-04 3.42115003e-04
      -7.51319167e-05 3.27276473e-04 9.30837850e-05 1.46671649e-04
      2.02114374e-04 -1.66239741e-04 8.81036613e-05 -1.82162519e-04
      8.36985360e-04 -1.10773435e-04 -1.65726320e-04 -1.50939479e-04
      -8.02340146e-05 -4.10525623e-04 -1.58685041e-04 3.32233874e-04
      -1.77172216e-04 2.48808046e-05 3.80749734e-05 -6.07862648e-06
      2.04411612e-04 -1.14153527e-05 3.78848817e-05 -1.41285973e-05
      -1.49351035e-04 4.75262932e-04 3.32548989e-05 5.38223467e-05
      -5.40903711e-05 1.19202235e-03 2.78292760e-06 -2.54333369e-04
      1.48258303e-04 -2.11638151e-04 2.35750587e-04 -2.04306736e-04
      -1.18510367e-03 -1.60918535e-05 1.78730679e-05 7.83754367e-05
      -2.62781949e-04 -4.06929903e-05 1.57889626e-05 -7.00117971e-06
      4.58679506e-06 5.21394395e-05 -2.16826265e-05 1.94200067e-04
      -7.49369747e-06 4.28347179e-04 -1.13770785e-03 5.22119772e-05
      -2.97006889e-04 1.26878746e-04 -4.17665033e-05 -2.91776436e-04
      -5.30997699e-04 5.04093303e-04 -6.43690146e-05 -6.10695497e-05
      4.57314709e-05 7.91421160e-04 2.82939640e-04 -2.03883028e-04
      -3.90237459e-04 2.58394633e-04 2.69881915e-04 2.48902652e-04
      2.32380145e-04 3.39910293e-05 -7.74022192e-05 -4.66810336e-04
      1.97089044e-04 -5.23912313e-04 -5.68383293e-05 2.65279923e-05
      -1.15471863e-04 2.12720654e-04 8.14179002e-05 -8.75225407e-04
      2.71538811e-05 -6.31487783e-05 -8.18350018e-05 -9.05718407e-05
      -2.32134298e-05 1.06225525e-04 2.39765759e-05 4.36390510e-05
      -4.91096798e-05 8.78854335e-05 1.63841851e-05 -1.92209191e-04
      -1.16193687e-05 7.30259460e-04 6.13391749e-05 3.03370471e-04
      -2.12644823e-04 -3.15624289e-04 -3.97692202e-05 1.42395103e-04
      -9.93471243e-04 -2.30669630e-05 4.83750664e-05 -4.48372375e-05
      4.98991343e-04 7.53515124e-05 -1.29715569e-04 -1.55566322e-05
      2.42648821e-05 -3.22618030e-06 -4.96595676e-05 -1.13041451e-05
      1.29877344e-05 -2.00798982e-04 4.78100992e-04 7.68566897e-05
      -3.83203587e-04 1.47195489e-04 2.47271557e-04 -2.24930394e-04
      6.71819493e-04 6.51804090e-04 -4.03236409e-05 -7.96290260e-06
      -2.43056042e-04 -2.09847291e-04 -2.75865023e-04 2.86584668e-06
      1.24119488e-05 -3.66558554e-04 -1.74830973e-04 -4.41462529e-04
      -2.99153791e-04 8.50558645e-05 1.55698290e-05 -5.14959393e-04
      4.23750840e-04 -8.05978198e-05 4.85029705e-05 1.02961094e-05
      -2.85548213e-05 7.72989122e-04 -7.04042177e-05 -3.73740389e-04
      1.27877565e-05 -1.45297076e-04 -3.68123292e-05 -1.05704748e-04
      -7.52924316e-05 1.13089023e-04 0. 3.89616107e-05 -7.39570023e-05
      3.29356873e-04 1.02828453e-05 -3.64275184e-05 9.26399443e-05
      2.04720790e-03 -2.75022903e-05 1.62726780e-03 7.71597042e-05
      3.93616210e-06 -4.74239117e-04 2.04980126e-04 -4.16698967e-05
      -2.79643064e-06 -7.31155014e-05 1.88559716e-04 -3.79634032e-04
      -4.55368645e-05 1.09379398e-04 0. -9.40282625e-05 2.61757414e-05
      6.42042796e-05 -3.17543367e-04 5.67700881e-05 -6.88117463e-04
      -8.69229043e-05 -1.09253451e-04 4.42763296e-04 -6.12780495e-05
      -1.14544446e-05 -1.42291552e-04 1.12849571e-04 -4.63283970e-04
      -3.78427329e-04 -7.86377132e-06 -3.82264552e-05 -1.89857514e-04
      -1.39485302e-04 -2.75525264e-04 -4.27296618e-05 -5.81972301e-04
      -2.35833184e-04 1.16897543e-04 -1.15620860e-04 -3.90834321e-05
      -7.33459965e-05 2.21701659e-04 -8.18375484e-05 -4.22448240e-04
      1.35003735e-04 8.43169910e-05 -1.40337506e-04 3.77522869e-04
      -1.96786947e-04 8.07321689e-04 1.71114254e-04 1.14131013e-04
      -1.57155257e-04 4.62739226e-05 -7.71472696e-05 -1.13477317e-05
      2.73524020e-05 -7.61584815e-05 -5.31903970e-05 3.18195562e-05
      7.09716960e-06 -1.42985054e-05 1.56873662e-04 1.04730320e-03
      7.01621975e-05 2.81461776e-04 -2.10372047e-04 2.65068957e-04
      -2.61479814e-04 1.70021813e-04 1.27778127e-04 9.81818375e-05
      -7.78853348e-07 -9.15638611e-06 -8.32764141e-04 -7.29374442e-05
      -7.92275605e-05 -4.11686960e-05 -1.83870015e-05 -8.77304847e-05
      -3.73379953e-05 6.21888175e-05 4.97970905e-04 -2.68967444e-04
      -1.08371396e-03 -9.20540970e-06 -4.91892861e-04 4.52930135e-06
      -4.89322229e-05 -1.46680788e-04 -4.16529714e-04 -4.06322040e-04
      3.77324759e-04 -7.09024316e-05 2.05495249e-04 7.46960170e-04
      -1.55710557e-04 3.30099465e-05 7.41878059e-04 -8.63188703e-04
      -3.03949055e-04 4.99907183e-04 3.78083932e-04 3.95693147e-04
      -2.48868637e-05 1.75762780e-05 1.86865436e-04 -4.12708905e-04
      -1.25576844e-04 -4.34863177e-05 -1.17154814e-04 -2.15541877e-04
      9.21454830e-06 -1.04032131e-03 -1.74929464e-05 4.29191336e-04
      -9.99936892e-05 9.16546269e-05 7.69130202e-06 1.91374420e-05
      7.04712920e-06 -7.04097620e-05 -1.29934997e-05 -1.80415809e-05
      -7.22407276e-05 7.73123902e-05 -1.28960864e-05 3.58666402e-05
      -6.68667853e-05 -9.04056884e-04 -1.00925616e-04 6.10457035e-04
      4.97519679e-04 -7.84403601e-05 2.72498094e-03 1.13712093e-04
      -6.68738794e-05 1.11903219e-05 8.13866427e-05 -8.93755714e-06
      -8.12737853e-05 0. -1.48664025e-04 8.02617251e-06 3.13982287e-06
      -1.31816778e-04 6.50266447e-05 -2.42991780e-04 7.66773999e-04
      -6.67296263e-05 -1.01903519e-04 -1.25937237e-04 -1.45115438e-04
      5.87995055e-05 -5.95193822e-04 -1.26670682e-04 -4.96701214e-05
      -1.12252819e-04 1.94694090e-04 3.25085639e-05 1.30590503e-04
      -8.52699799e-04 3.85631165e-06 -8.40451336e-04 -5.49192955e-05
      -1.39206895e-04 2.19786845e-04 -1.57212868e-04 -2.25643889e-05
      4.69016115e-04 -3.45157780e-04 1.25640261e-04 -9.09789233e-05
      -9.58897654e-05 -1.52547276e-04 2.47813325e-04 4.35753391e-05
      2.32031583e-04 2.18305577e-04 3.50902585e-04 3.93587288e-05
      1.92908847e-04 3.58637772e-05 9.06914647e-05 0. 5.07562108e-05
      4.86629469e-05 2.86771799e-04 1.18918484e-04 1.30212968e-04
      -9.02936663e-05 -3.72740818e-04 -4.83166295e-05 1.97219546e-04
      -1.44324033e-04 -1.59874198e-05 -1.23655004e-03 1.67531500e-04
      1.19945791e-03 5.72336867e-05 -2.65660274e-05 1.13636976e-04
      7.16926705e-04 1.61834450e-05 -6.37934208e-05 0. -3.30343960e-06
      3.93392625e-08 -6.48512942e-05 -6.17332480e-05 1.77616166e-04
      2.58129789e-04 -4.57813643e-04 2.37763561e-05 -4.64710087e-04
      1.97272369e-04 4.44103534e-05 2.89176649e-04 -1.22171128e-04
      -9.37648583e-04 1.12454254e-04 -3.25701476e-05 -8.31728030e-05
      1.43134443e-04 -1.75634250e-05 -2.91153701e-04 -1.81224328e-04
      -3.22669162e-04 -3.90776928e-04 -2.52689963e-04 -9.43174382e-05
      1.68842147e-04 3.58306534e-05 8.28093791e-04 6.12475094e-04
      1.79202209e-04 -1.68627739e-05 -6.46584958e-05 -4.82689502e-05
      -3.13158598e-05 -2.45999199e-05 6.01886932e-05 9.56619115e-05
      7.93254803e-05 2.40191912e-05 -9.45107677e-05 -1.58126149e-05
      -1.03405791e-05 0. -2.50672292e-05 -5.23132876e-05 -7.79273978e-05
      -7.24375714e-05 9.43950727e-05 -3.35411605e-05 -2.85234069e-04
      -8.61511944e-06 -4.29911015e-04 -1.98180918e-04 -6.79158111e-05
      -9.95682640e-05 -8.64960821e-05 -4.12274792e-04 9.76204537e-05
      -8.05136951e-05 -4.44758844e-05 3.30292154e-04 -1.27366671e-04
      7.70545230e-05 -3.51488488e-05 2.48111724e-06 -4.46171907e-05
      -1.06398902e-05 1.81640662e-05 -3.15497920e-04 5.30531688e-04
      -1.30897388e-04 -2.23311072e-04 -3.60990583e-04 -8.37887637e-05
      -6.10262323e-05 7.43773344e-05 -1.42384408e-04 8.40905413e-04
      2.89269810e-04 -5.78059662e-05 1.30849294e-04 4.00521938e-04
      7.74104265e-05 -7.33687848e-05 -3.93729933e-05 2.81287474e-04
      1.21273035e-04 1.08951586e-04 6.47984096e-04 1.76652436e-04
      6.61360609e-05 4.02420643e-04 -4.37637937e-05 3.53070282e-05
      2.08762358e-05 1.40058692e-04 -1.05031613e-04 2.32445207e-04
      2.05043780e-05 -1.30650282e-04 4.44667821e-04 -3.64289328e-04
      -1.01606842e-04 -1.04797145e-05 -3.26699083e-05 1.48819570e-04
      2.75142083e-05 -6.81728925e-05 -2.07863050e-05 -5.42329974e-04
      -2.44775201e-05 4.41388472e-08 -6.00696330e-05 -8.23821698e-04
      -2.87278272e-05 -5.38886990e-04 6.35843462e-05 1.46673134e-04
      6.47251654e-05 -5.74617525e-06 4.33477107e-04 -1.37613806e-05
      -1.90656901e-05 -2.59801363e-05 -5.46161318e-04 -9.23021980e-06
      -1.29715181e-05 1.39548583e-05 -2.26690872e-06 -4.15125323e-05
      2.04413718e-05 9.69406829e-05 -1.17047122e-04 1.80866453e-04
      -1.29477397e-04 -3.98879956e-06 2.95378064e-04 1.28031141e-04
      1.48636682e-05 2.02740208e-04 5.10058308e-04 -9.37160745e-04
      -1.90695064e-05 -8.49269491e-05 -5.38143504e-05 2.37449490e-06
      -9.67963279e-05 5.86973503e-04 -6.21283660e-04 -5.08997648e-04
      6.92544054e-05 7.60418843e-05 7.11606044e-05 2.05932025e-04
      -7.57347443e-05 4.70574741e-05 7.94183405e-04 2.65435840e-04
      -7.38383169e-05 -1.11476053e-04 -5.21623269e-06 -6.97765849e-04
      -5.87075192e-05 -8.42828944e-04 2.08216996e-04 -7.09109445e-05
      5.64013790e-05 -1.28097759e-04 9.25272398e-05 9.79984361e-06 0.
      -6.76380587e-05 9.09575101e-05 -7.87251774e-05 -4.65283483e-05
      -4.86915669e-05 1.93339583e-05 -5.31278667e-04 -9.84522921e-05
      7.27109655e-05 -2.09436796e-04 2.46374548e-04 -4.28690255e-04
      -1.88409485e-05 1.70282277e-04 -1.10921930e-04 3.51747440e-05
      2.26055054e-05 9.11001582e-04 -1.26647847e-05 -5.30875550e-05
      7.04712920e-06 -2.88129604e-06 -1.50652428e-04 2.37375025e-05
      -1.54166220e-04 -1.56417460e-04 3.33664182e-04 5.63576876e-04
      6.16049438e-05 3.85880034e-04 -2.37224318e-04 8.96305282e-05
      4.19656135e-05 5.56320674e-06 8.23848677e-05 1.98183712e-04
      -5.32886297e-05 2.68672506e-04 -6.16531877e-04 7.98920591e-05
      -1.56521506e-04 1.99958828e-04 -2.20347138e-04 -3.81462196e-05
      -6.04776833e-05 2.51179765e-04 -1.07575011e-04 5.89814626e-05
      -1.10164685e-04 1.97552130e-04 1.30027373e-04 -7.46497171e-05
      -1.04831845e-04 -2.40188689e-04 -2.83731439e-04 1.94912354e-04
      7.05549261e-04 -2.74914200e-04 -6.37395497e-05 1.35938142e-04
      2.84489361e-05 1.02372342e-05 4.71983697e-07 -4.30292930e-05
      -1.69059960e-04 1.13387112e-04 4.02682694e-04 3.25633664e-05
      -1.26686064e-04 -3.53934702e-05 -4.89314203e-04 1.01637677e-04
      -3.83665727e-04 8.81708002e-06 1.18810363e-04 5.48389973e-04
      -7.95480082e-05 -7.07156069e-05 -2.63356433e-05 7.58829410e-05
      -1.04051935e-04 3.06288275e-04 6.02430664e-05 5.55977931e-05
      2.66647548e-05 -1.50122851e-05 7.98659312e-05 -1.29771445e-06
      -1.47289626e-04 -1.39554395e-04 -4.46158025e-04 -3.83336912e-04
      -1.54166803e-04 -2.20920410e-05 -8.86704947e-05 2.25977084e-04
      -1.43597485e-04 1.83125114e-04 -6.69933739e-04 7.18577125e-04
      9.39659512e-05 3.19582105e-05 6.14924938e-05 1.20580837e-04
      4.15005867e-04 -1.77136797e-04 -4.18661279e-04 5.49535725e-05
      1.07686930e-04 4.10909997e-04 -2.64003698e-04 -1.09732784e-04
      -3.99457087e-04 9.38169323e-05 1.05699910e-05 1.38029354e-04
      7.02728721e-05 -6.70962390e-06 3.23042332e-04 5.03442025e-05
      9.84015875e-04 -3.22778476e-04 -1.77983238e-04 1.03515071e-04
      5.28076853e-05 -1.07120404e-05 -7.21140023e-05 2.14965949e-05
      -4.00596182e-05 6.90327433e-05 -3.00971791e-04 -2.81959092e-05
      -7.49230676e-05 -1.06336411e-04 -3.04013869e-04 -3.62418468e-05
      -8.80062405e-04 -1.49500396e-04 -2.83429952e-04 -1.48732215e-04
      4.44735088e-05 3.77665892e-05 -3.84672567e-05 -6.24657478e-05
      8.10417259e-05 3.29741859e-04 -4.32709421e-05 5.98997140e-05
      -4.87428088e-06 -5.30281795e-05 -1.91919054e-04 -2.20442471e-05
      -9.42820225e-06 2.94379162e-04 3.26529320e-04 -9.73305374e-04
      1.79969415e-04 7.53749337e-04 6.64455438e-05 3.22458982e-05
      1.15153402e-04 -2.35138141e-04 1.10451092e-05 6.30938623e-04
      6.47871420e-05 -7.68465252e-05 -3.45585111e-04 2.58328626e-04
      -4.95024833e-05 4.63506149e-04 -4.39277974e-05 1.04942148e-04
      4.25384904e-04 -2.16206230e-04 2.35278349e-04 -3.97139884e-05
      -3.77145130e-04 -7.30978558e-04 -7.90911945e-05 -4.47464408e-05
      3.52459319e-05 -7.28842933e-05 2.87176284e-04 3.14436079e-06
      -2.46912387e-04 1.19520919e-04 9.64814899e-05 -8.66447499e-06
      1.40026605e-04 2.92101504e-05 -5.09165475e-05 1.80070692e-05
      -7.76156012e-05 -1.49507017e-04 -9.72030321e-05 3.62546707e-05
      -4.85849414e-05 5.13644809e-05 1.56955456e-03 -2.81336052e-05
      5.97028760e-04 4.35624133e-05 -8.06358148e-05 1.11972983e-03
      9.90878907e-05 -8.39937071e-04 -9.63121056e-05 -3.30740886e-06
      9.32177936e-05 4.78751812e-04 -2.33346273e-05 -4.95141176e-05
      -8.37881635e-06 -4.03898339e-05 -7.42899465e-06 -2.35154912e-05
      -2.07109348e-04 2.79322878e-04 -7.77642766e-04 -7.11070956e-04
      1.10566158e-04 -2.54194718e-04 6.92938047e-05 -4.82594478e-05
      -2.55342369e-04 -1.34712143e-04 -3.82556027e-04 -1.01332931e-04
      -9.59927202e-05 2.42065711e-04 -1.55439746e-04 1.70429616e-04
      5.00628725e-04 -3.46638612e-04 -8.42677488e-04 -3.14162258e-04
      1.73792869e-04 -7.02422229e-04 -1.59993375e-04 -8.44089736e-05
      -7.29983614e-04 2.38719775e-04 -6.44264452e-04 -1.99751055e-04
      -7.50624531e-05 -5.90104937e-05 3.74320643e-06 -6.48194618e-05
      -9.31417802e-04 -5.15285297e-04 2.36987344e-05 -5.66299605e-06
      -2.84628259e-05 2.34743402e-06 9.01510502e-05 0. -5.07338736e-05
      6.23287851e-05 3.52620700e-04 7.00095334e-05 -1.85461686e-05
      2.94463425e-05 -9.46768778e-05 2.69513348e-05 -4.68651124e-04
      1.60451877e-04 2.01504212e-04 6.20430801e-04 -3.71390051e-05
      1.27486838e-03 4.40056965e-06 1.17797090e-05 -2.03252912e-05
      -5.93626639e-04 -5.35688923e-05 7.46500427e-06 2.96910184e-05
      6.28280613e-05 2.63017646e-05 -7.47044760e-05 1.48141771e-04
      -3.16670863e-04 -3.65134241e-04 1.06253428e-03 -4.28994426e-05
      2.82566616e-05 -6.30453796e-05 1.03930062e-04 -2.59757304e-04
      6.99076336e-04 -4.74797635e-05 1.95532295e-04 1.05803723e-04
      6.16796751e-05 3.31555144e-04 3.01325577e-04 6.47356210e-04
      7.05621089e-04 -3.67767730e-04 6.93043752e-04 -1.95080502e-05
      -8.56821935e-05 3.55073062e-05 1.32587709e-04 -9.34524753e-04
      -1.17272686e-03 1.08096586e-03 1.63269957e-04 1.24125276e-04
      1.51986305e-05 1.22386446e-05 -3.33265234e-05 3.09033116e-04
      3.49241418e-05 -2.36391221e-04 1.67763374e-05 1.73070686e-04
      3.11545846e-05 -3.36783560e-05 -3.55654738e-05 -2.55302526e-04
      -2.47098542e-05 -7.42172488e-05 5.01410614e-05 1.04602923e-05
      -3.59872029e-05 -5.41237881e-04 8.74024554e-05 -1.69478968e-04
      -1.40945864e-04 6.44215150e-04 2.53804727e-04 -8.91109885e-05
      1.03641520e-04 -3.01653404e-06 -6.81420897e-06 -1.48014778e-05
      -6.61799975e-04 1.34258153e-04 -4.52761669e-05 -4.46833146e-05
      1.65072142e-05 8.36669005e-06 -2.50317662e-05 2.01780742e-04
      5.65665177e-05 -2.29708370e-04 9.24718915e-04 -1.97634334e-04
      -2.51231759e-05 1.37987445e-04 -2.03307267e-04 -6.86285610e-04
      -7.25146150e-04 1.70768052e-03 9.20584192e-04 -5.47216696e-05
      -3.58526231e-05 -1.97586502e-04 -3.98885568e-05 2.14846892e-04
      -8.48019263e-04 2.90979544e-04 -8.73138139e-04 2.27406519e-04
      7.21254852e-04 2.36579130e-04 1.03830032e-04 1.57350543e-04
      3.32683063e-04 -1.95316054e-04 -2.16989036e-04 -7.78441536e-05
      9.28678637e-05 5.44368871e-04 1.74645229e-05 1.29865285e-03
      7.03134399e-04 6.19163155e-04 -5.95454658e-05 5.04536947e-05
      4.84434531e-05 8.29677083e-05 7.58200122e-06 1.00605394e-04
      -4.86764584e-05 1.90637264e-04 9.53755953e-05 2.11216975e-05
      -1.74188044e-05 -7.93533574e-04 -1.14782652e-05 1.68212064e-05
      -1.51245767e-04 2.73622663e-05 3.29708768e-04 6.50517104e-05
      3.71800107e-03 -1.41554890e-04 -1.41628538e-04 4.58680879e-05
      7.72542728e-04 -7.26970711e-06 -1.09807384e-04 0. 3.92149996e-05
      -4.83756521e-05 -2.33557221e-05 5.14117201e-05 1.29862106e-04
      -3.57532903e-04 -1.41143322e-03 6.35804972e-05 -5.92481738e-05
      1.74196393e-05 -1.61916978e-04 -3.22071894e-04 -1.11053046e-03
      -2.85695097e-03 -6.01198175e-04 -7.19336240e-05 6.31738076e-05
      3.44903761e-04 -3.49633832e-04 -5.48585900e-04 -8.59630585e-04
      3.76934258e-05 -3.01253953e-04 -4.99261136e-04 -7.54957844e-04
      -2.75046532e-05 2.50188950e-05 1.00983062e-03 -9.45057836e-04
      -2.81126791e-04 1.78972496e-05 -2.10688831e-05 -1.77209711e-06
      1.30428904e-04 1.04688253e-04 1.37060543e-03 6.26648989e-06
      -1.74567205e-04 -3.84377236e-05 1.57716742e-04 -4.21389086e-05
      -5.80106716e-05 0. 2.04188418e-05 -6.25718385e-05 8.67841227e-05
      -9.79599718e-05 6.17484184e-05 -3.01232353e-06 1.75666681e-03
      1.98630505e-06 9.67823900e-04 4.38322139e-04 -2.85759539e-04
      2.34531937e-04 -1.02995858e-04 5.33324492e-04 1.05805693e-05
      7.49325773e-05 -8.45485047e-05 -8.81769694e-04 1.64444209e-05
      3.54919102e-05 0. -3.53735277e-06 2.93230369e-05 2.81406610e-05
      2.65499530e-05 -3.33667740e-05 1.41880038e-04 -3.85914318e-04
      9.28422014e-05 -2.46528245e-04 6.98988442e-05 -6.63499086e-05
      4.62972275e-05 -4.93886510e-05 -2.14615400e-04 -3.33373144e-04
      -2.68832628e-05 -2.02905721e-04 -4.55040972e-05 -2.96940561e-05
      -1.96857000e-04 -1.03544095e-03 -3.67173125e-05 4.23143028e-05
      -1.79063063e-04 -8.64105168e-05 3.10217583e-04 -5.15068496e-06
      7.80983319e-05 4.33797250e-04 2.66255811e-04 -1.13668093e-05
      7.18150432e-06 1.12946655e-04 8.01236951e-04 1.18882490e-04
      2.27962417e-04 -1.15179166e-04 -3.58967925e-04 -5.13129344e-05
      -3.04889672e-05 -2.02333267e-05 6.70992958e-05 -2.24512351e-05
      -3.84185623e-05 1.38242409e-04 3.95846408e-04 3.36337544e-05
      2.00810202e-04 2.75633556e-05 3.82512080e-04 1.25652543e-04
      2.80341192e-04 4.35714639e-04 5.32699669e-05 -5.95072110e-04
      2.12473533e-05 -7.10917870e-04 -4.96960783e-05 -1.01475358e-04
      1.14574097e-04 5.12585044e-04 -3.30880243e-06 -1.44148173e-04
      5.60127319e-06 -5.70310585e-05 1.50416708e-05 -1.17350955e-05
      1.10515739e-05 -4.55710280e-04 -6.74330513e-04 -1.43470441e-03
      1.39183721e-05 -2.11355771e-04 -7.06407445e-06 6.06101676e-05
      1.13257032e-04 -5.64686379e-05 4.15304967e-04 -4.47240105e-04
      1.13297232e-04 -3.22786014e-04 -7.99509216e-05 -2.59899738e-04
      2.24234711e-04 4.18352865e-04 1.26604387e-03 -5.46641415e-04
      -3.97167110e-04 -6.59291632e-04 -5.62521091e-05 1.74912348e-05
      -2.66488496e-04 -2.31919810e-03 -2.41844988e-04 -1.80853385e-06
      -5.21189213e-05 -3.74274859e-05 1.99280272e-04 -1.14895003e-04
      -8.45224364e-04 -3.65748710e-04 2.56231026e-04 -1.27333178e-05
      -1.89987040e-05 1.76898786e-04 -1.84867404e-05 0. 3.85765416e-05
      -8.39654022e-05 6.23711501e-04 -3.04531859e-05 -1.48442618e-04
      -7.84255462e-05 1.03894854e-03 -5.92176139e-06 -1.62139491e-04
      6.68044086e-05 -1.07965789e-05 8.55772581e-04 1.08557193e-04
      -4.07673710e-04 1.42701843e-04 8.50348588e-05 9.61199330e-05
      -3.63104220e-04 4.03958038e-05 -1.62074211e-05 -1.77872280e-05
      -2.72692178e-05 3.46697379e-05 3.32378768e-05 6.64310865e-05
      -3.58475954e-04 9.47737659e-04 4.48576291e-04 7.25979189e-05
      7.25621998e-04 -2.21298592e-06 -5.44272734e-05 -2.53017924e-06
      1.34319547e-04 -1.73951135e-04 4.05915082e-04 -1.56680413e-04
      -4.01532780e-05 5.22615272e-04 8.68365241e-05 -5.41041896e-04
      1.44857782e-04 -9.57532146e-04 9.12978794e-05 -3.26181267e-04
      -3.59853642e-04 -4.12341877e-04 -3.64232437e-05 2.38513778e-04
      3.33630043e-04 -2.48145196e-04 -3.64513253e-04 -7.24863421e-05
      -4.42379605e-05 -3.49458482e-04 -1.23813006e-05 1.72851223e-03
      -3.81008984e-04 1.67964521e-04 6.32184019e-05 2.63152997e-05
      3.83249717e-05 1.20247125e-04 1.14869417e-05 -1.94295470e-04
      -1.72751043e-05 4.51211876e-04 5.91916905e-05 4.38233474e-05
      7.80716437e-05 -5.62283734e-04 2.68803706e-05 -9.72281036e-04
      -1.23746839e-04 2.31993516e-04 -1.00073907e-04 -3.10202267e-05
      1.13627084e-05 -8.59346474e-05 -9.55771975e-05 5.13879022e-05
      -1.67982595e-04 -2.91070173e-05 -1.23331465e-05 -6.52948293e-05
      4.77621361e-05 -2.86911791e-06 2.02708125e-05 1.53193105e-04
      1.07007450e-04 -7.94207095e-04 1.02627114e-03 4.18546406e-05
      4.12046444e-04 1.25899154e-04 1.02138147e-04 1.05164967e-04
      -1.42658770e-04 -2.26854681e-05 8.97526625e-05 2.32192197e-05
      3.29491915e-04 5.32814302e-04 5.84668487e-05 6.42691739e-04
      -6.07289025e-04 -5.57986379e-04 5.96167636e-04 5.50214791e-05
      2.85342772e-04 -4.59233968e-04 4.34031390e-05 -4.39778931e-04
      3.71077214e-04 7.55004748e-06 1.64391633e-04 8.14330851e-05
      2.80777186e-07 -1.29775799e-05 -4.10802204e-05 -1.18564392e-04
      -6.22722728e-04 -2.20068730e-04 2.38386870e-04 1.53381843e-05
      -9.53784474e-05 6.00485509e-06 -8.42975714e-06 9.92419154e-05
      3.62511855e-05 4.94443404e-04 -1.22230646e-04 -7.66058220e-05
      -2.21674018e-05 1.50640772e-04 4.31822491e-06 -3.94163420e-04
      -5.04514355e-06 -2.40574911e-04 -3.62777617e-04 4.47848761e-05
      -2.83236179e-04 8.96491983e-05 -1.37951967e-04 -1.93727756e-05
      4.75565350e-04 -5.58997017e-05 3.09669340e-05 1.74525303e-05
      5.94817575e-05 -2.27856390e-06 -9.82569545e-05 -2.34778912e-04
      -2.43095303e-04 3.04134999e-04 -7.89579819e-04 2.52819191e-05
      -2.53590348e-04 1.91479448e-05 2.45216826e-04 -4.36194125e-04
      4.10921290e-04 4.69070910e-05 4.85271099e-04 -1.00655037e-04
      1.18670556e-04 8.02640629e-04 1.60566182e-04 7.98214343e-04
