<?xml version="1.0"?>
<opencv_storage>
<my_svm type_id="opencv-ml-svm">
  <svm_type>C_SVC</svm_type>
  <kernel><type>LINEAR</type></kernel>
  <C>1.0000000000000001e-01</C>
  <term_criteria><epsilon>2.2204460492503131e-16</epsilon>
    <iterations>1000</iterations></term_criteria>
  <var_all>16128</var_all>
  <var_count>16128</var_count>
  <class_count>2</class_count>
  <class_labels type_id="opencv-matrix">
    <rows>1</rows>
    <cols>2</cols>
    <dt>i</dt>
    <data>
      -1 1</data></class_labels>
  <sv_total>1</sv_total>
  <support_vectors>
    <_>
      -2.40075562e-04 -3.70273250e-04 -9.40571597e-04 2.83803022e-03
      1.89963350e-04 -1.50101714e-05 -1.75117209e-04 8.59375286e-04
      -4.73262859e-04 1.94993972e-05 7.04666672e-05 1.27961639e-05
      3.76109965e-05 -6.80259836e-05 4.62164026e-04 -1.08820980e-03
      9.60101257e-04 -1.72972825e-04 -3.44094035e-04 -1.43304293e-04
      1.66280646e-04 -8.45783325e-06 -7.95482891e-04 8.92222015e-05
      1.05566252e-03 -1.54177149e-04 -1.23761463e-04 -2.14363012e-04
      6.59530109e-04 -4.15466202e-05 8.98795493e-04 -1.02301640e-03
      1.12907134e-03 -8.52605270e-04 -1.72013286e-04 -1.29438366e-03
      5.96551836e-05 1.97147703e-04 -1.51965083e-04 1.32756913e-03
      2.09735415e-04 8.94082114e-05 -4.34916583e-05 1.88088510e-04
      2.48385986e-05 -2.03091055e-04 -1.58646042e-04 1.05462165e-03
      9.05839726e-04 5.82116132e-04 -2.63470196e-04 -8.28707940e-04
      5.12008846e-04 5.27337932e-07 -7.16430659e-04 5.90534357e-04
      -1.04703626e-03 -1.88630295e-03 3.45947017e-04 -1.00300519e-03
      -1.40308472e-03 -3.33441334e-04 -5.09852143e-05 1.26377598e-03
      1.80897501e-03 5.79406274e-04 -1.40247494e-03 1.49493711e-03
      -2.69736280e-03 2.45594129e-04 -4.42757999e-04 -5.75660495e-04
      1.02094747e-03 4.99933318e-04 -6.70818670e-04 -2.67679716e-05
      -8.42559559e-04 -9.29410908e-06 6.35677367e-04 5.78350155e-04
      1.27350655e-03 6.77575445e-05 -6.85999330e-05 8.05640520e-05
      -3.19786050e-04 6.16019679e-05 -5.59516426e-04 -2.51938211e-04
      -6.49856520e-04 6.31728399e-05 3.96192307e-04 -1.52525870e-04
      9.29190603e-04 8.95986377e-05 1.13340537e-03 1.28805797e-04
      1.20780186e-03 2.64050579e-03 2.33977786e-04 -4.75147070e-04
      4.06788284e-04 -2.58834305e-04 4.77645226e-04 -6.43865438e-04
      -5.26129843e-05 -2.71424040e-04 -4.24317250e-06 -1.53752218e-04
      -3.72467417e-04 -8.25389270e-06 -6.12678763e-04 -7.55248358e-04
      9.08727641e-04 9.05470690e-04 4.91047336e-04 -1.43594667e-03
      -7.62144100e-06 -1.85289100e-04 -3.14708846e-03 -2.49621505e-03
      -4.44359583e-04 -8.90396012e-04 -1.34911374e-04 1.11442420e-03
      -1.85384852e-04 -8.39641725e-04 2.00596545e-03 5.65330498e-04
      2.69777647e-05 9.60255449e-04 -1.16102735e-03 -4.38705232e-04
      1.30825618e-04 1.15813644e-04 -1.76333429e-04 -5.72855526e-04
      -1.71037289e-04 -6.98749791e-04 1.27976688e-04 3.96968564e-04
      1.75724679e-03 8.39605636e-05 -1.42093020e-04 -1.73031076e-04
      -1.31522724e-03 -8.06651151e-05 5.25344221e-04 2.78868596e-04
      -5.79407031e-04 9.32155399e-06 7.60794137e-05 -3.84884101e-04
      -6.58372999e-04 7.13465270e-05 -1.89750972e-05 -1.15717339e-04
      6.78537588e-04 -3.68523557e-04 -3.99704499e-04 9.51277383e-04
      -1.23881153e-03 3.80137062e-04 -4.01013967e-04 -1.52018259e-03
      -3.50317365e-04 2.54967832e-04 6.97433134e-04 -1.05588850e-04
      1.75734502e-04 1.58476571e-04 -2.42755141e-05 3.09469870e-05
      2.12858446e-04 -3.25757064e-05 -2.29820886e-04 7.45266676e-04
      9.31997667e-04 1.19234342e-03 5.59162407e-04 1.98741956e-03
      -9.29430607e-05 1.73321387e-04 5.27948083e-04 1.91380495e-05
      -1.28698244e-03 9.33811301e-04 1.71940541e-04 4.50508407e-04
      6.25211280e-04 -1.62970123e-03 -1.46722060e-03 -5.84680412e-04
      -5.87688992e-04 3.98729055e-04 -1.60822019e-05 3.63951520e-04
      -2.24628230e-03 -1.86359815e-04 5.29867713e-04 -8.09748250e-04
      -4.13788774e-04 2.89515592e-04 1.27476582e-04 -3.55673576e-04
      -4.40756674e-04 6.08218135e-04 2.38266145e-03 1.01759541e-03
      -6.26837369e-04 -2.78505031e-04 -1.26928120e-04 -2.46922107e-04
      2.57007341e-04 -1.33398164e-04 -2.98514089e-04 -6.17691432e-04
      -1.49589253e-03 5.01059985e-05 3.34787183e-04 -3.87197542e-05
      9.64091276e-04 3.23747576e-04 1.31161523e-03 1.44805154e-03
      -2.15446824e-04 -3.84113198e-04 -5.25217620e-05 4.08060121e-04
      3.90701825e-06 1.73469190e-04 1.54070790e-06 -1.25130324e-03
      -2.23247727e-04 -5.11272128e-06 -4.76905261e-05 2.83327943e-04
      -5.26479998e-05 5.37183269e-06 3.41542240e-04 3.05521884e-04
      2.40455661e-03 -2.39826390e-03 2.63833877e-04 -2.44532945e-04
      -2.24527859e-04 2.15179214e-04 1.03951723e-03 5.17984619e-04
      -9.36818542e-04 -1.31705019e-03 -6.70814552e-05 8.90796015e-04
      -1.59284135e-03 8.62636371e-04 9.35974167e-05 -2.85274640e-04
      8.74152116e-04 -1.05203164e-03 2.30085361e-03 1.88002537e-03
      -3.46840289e-03 8.63911118e-05 -7.81201466e-04 -1.83738972e-04
      1.50327178e-04 -3.17775528e-04 -5.18816756e-04 5.94913545e-05
      1.75337703e-03 2.38124761e-04 -1.39955094e-03 8.56747793e-05
      5.96533704e-04 -6.00280997e-04 -1.83258366e-04 3.58208054e-04
      -3.37308302e-04 1.76468220e-05 -8.60101252e-04 -1.57137372e-04
      1.75724085e-03 -6.93977272e-05 2.07779376e-04 -7.00134187e-05
      2.39749003e-04 -3.60065460e-04 -3.52145551e-04 1.38428295e-03
      -1.24919054e-03 -1.47869217e-03 -3.71446367e-04 -1.82790289e-04
      -1.39525277e-04 8.80283842e-05 5.83976449e-04 3.18779866e-03
      8.89654257e-06 -1.21559042e-05 5.20558897e-05 1.96228197e-04
      -2.27897064e-04 -2.53342496e-05 -3.18900798e-04 2.01429182e-04
      1.96310505e-03 2.41971880e-04 -2.95638019e-04 -5.69799275e-04
      -1.18524523e-03 -4.13814050e-05 -4.82187781e-04 -1.75206136e-04
      1.23339263e-03 8.73228710e-05 1.56674010e-04 1.10397767e-03
      1.40417670e-03 -1.44796411e-03 -1.72763155e-03 -1.85667933e-03
      -1.40513037e-03 -1.36268535e-03 -2.11394439e-03 8.51935882e-04
      -1.13298891e-04 6.28683774e-05 -3.63993982e-04 -1.67848353e-04
      -1.00082951e-03 1.25512524e-04 -2.63732451e-04 -8.69058567e-06
      -6.78871409e-04 -2.60932738e-05 4.94350934e-05 -7.17221992e-04
      5.13009087e-04 -2.68094213e-04 -1.36086383e-04 -1.05717249e-04
      1.88198188e-04 -6.73410977e-05 -4.98558977e-04 2.17947061e-04
      1.55118166e-03 -5.40670124e-04 -1.53564295e-04 -5.79756103e-04
      2.83757318e-03 -4.70909436e-04 -1.92959720e-04 6.98749092e-04
      -1.50106696e-03 1.06102612e-03 -3.95286363e-04 4.25535924e-04
      1.97373301e-04 1.23567268e-04 -9.42617306e-04 1.19595346e-03
      -3.49336566e-04 4.60794807e-04 -1.84937471e-05 -1.26528103e-05
      -1.29136024e-04 -6.51396767e-05 2.91767123e-04 -3.43524240e-04
      3.97508824e-03 6.09423558e-04 7.88765537e-05 -1.33776723e-03
      -8.60100379e-04 -2.92179029e-04 1.83060591e-03 1.30195334e-03
      1.72007468e-03 -5.09379373e-04 7.11758548e-06 -7.95913802e-04
      -2.20054601e-04 -2.25888507e-04 -7.01121695e-04 -4.39911964e-04
      -3.74328054e-04 -3.70941234e-05 -2.02355703e-04 1.45665091e-03
      -1.32962980e-03 -2.10797603e-04 5.97439124e-04 -2.45196559e-03
      -2.97609920e-04 -1.30331595e-04 -2.63426264e-05 3.93430935e-04
      1.25990098e-03 2.42023263e-04 -6.03207562e-04 -6.15811383e-04
      -9.68692882e-04 8.12703220e-04 -8.92043696e-04 -6.90059605e-05
      9.44949279e-05 1.34571732e-04 -2.30223268e-05 3.63106337e-05
      -1.04576233e-03 -4.20312281e-04 8.63285386e-05 -2.59048567e-04
      1.22020603e-03 9.67517117e-05 -5.32841135e-04 5.19562047e-04
      6.61220634e-04 -5.59581676e-05 3.60518054e-04 8.44958879e-04
      -1.08780012e-04 -2.63747846e-04 -3.63569328e-04 7.27271370e-04
      6.01280190e-05 -1.23565042e-04 4.53077409e-05 -1.26821615e-04
      2.89674848e-04 6.89205190e-05 2.37859509e-04 7.14807655e-04
      1.99979008e-03 -8.87365546e-04 -9.94164875e-05 3.70728754e-04
      -7.48402847e-04 -3.96457617e-05 9.10700037e-05 3.16999030e-05
      1.60365866e-03 1.12968835e-03 3.04024696e-04 9.58854856e-04
      -3.27838655e-03 3.43451597e-04 -8.98434024e-04 -3.09711962e-04
      1.20370802e-04 3.08927178e-04 -1.49074406e-03 -1.57204177e-03
      -8.44306545e-04 -2.55751929e-05 -1.41479727e-03 1.29194127e-03
      -1.62020361e-03 3.31755960e-04 4.56098031e-04 -3.83858744e-04
      1.73277163e-03 -1.18598306e-04 1.04926364e-03 -9.09898954e-05
      2.62564979e-03 -2.72933888e-04 -3.11955780e-04 -3.52828210e-05
      -3.62767198e-04 1.93916039e-05 4.69302788e-04 -5.18229092e-04
      -2.61748704e-04 -2.66341987e-04 -4.51660235e-05 4.03870081e-06
      1.84051029e-03 -5.98483493e-05 8.52017256e-04 2.38348977e-04
      1.21923152e-03 1.10851799e-03 -6.30891227e-05 2.91177491e-03
      -7.52517313e-04 -9.65455401e-05 -1.61258198e-04 -2.78194365e-03
      -2.03664385e-04 -1.13750786e-04 -1.99350307e-05 5.66844712e-04
      2.49876059e-04 1.97699133e-04 5.89306466e-04 -1.39985187e-03
      -7.32737128e-04 1.35941128e-03 -7.95968983e-04 -1.12053950e-03
      -6.33333402e-04 -6.56455522e-04 1.17124722e-03 1.19516451e-03
      -1.75305374e-03 -1.38812908e-03 5.32734965e-04 -8.76704755e-04
      -4.37335199e-04 1.62377677e-04 7.07137864e-04 3.70490074e-04
      8.31286656e-04 -1.97957060e-03 1.23616331e-03 -1.13672973e-03
      4.60157404e-04 -2.95266018e-05 2.34858569e-04 -3.10203613e-05
      1.52820349e-03 -1.85282588e-05 -1.51328160e-04 2.09323436e-04
      4.70976840e-04 3.79609381e-04 -2.21533119e-03 1.34016620e-03
      3.62095278e-04 2.83210073e-04 -7.26300117e-04 -5.36553154e-04
      2.85977614e-04 -1.39540090e-04 -1.30223198e-04 2.79088330e-04
      4.58043156e-04 4.82456293e-04 -3.35376419e-04 -1.93234097e-04
      -1.79477909e-04 -3.51638679e-04 7.29477091e-04 5.47034084e-04
      7.01509998e-04 -7.89665617e-04 -1.37442839e-04 -8.74168836e-05
      6.18897146e-04 -6.74229232e-04 -8.80171254e-04 -4.48152859e-04
      3.19464540e-04 3.72214621e-04 -9.21236715e-05 -6.84304105e-05
      -7.03898550e-05 -3.81773483e-04 -4.30803862e-04 1.31486170e-03
      -7.76636181e-04 5.02667099e-04 -2.55918043e-04 2.82414490e-03
      5.85110567e-04 5.46621504e-06 -7.30104002e-05 -1.92696531e-03
      7.13049318e-04 1.05621724e-03 7.26860308e-04 -3.65563814e-04
      -1.46308902e-03 -1.89975661e-04 -6.90789078e-04 -1.90166512e-03
      -9.44605563e-04 -1.14189272e-04 7.98637164e-04 -5.57222113e-04
      -4.56398469e-04 5.70687931e-04 -1.21561415e-03 6.04572357e-04
      1.93118502e-03 1.09511224e-04 -1.12562026e-04 -4.52507491e-04
      -1.41462777e-03 4.27155537e-05 2.00804812e-03 5.71153883e-04
      1.15966448e-03 -1.73320397e-04 2.36676628e-04 -3.86553496e-04
      -5.63331589e-04 -2.80426524e-04 -2.67340598e-04 -3.32059484e-04
      -5.94395446e-04 8.36312538e-05 -2.27146724e-04 -1.70824802e-04
      1.26137061e-03 1.74037450e-05 -8.44934781e-04 1.33867317e-03
      -7.38539617e-04 -2.36833096e-03 7.45905156e-04 9.95399547e-04
      2.67573341e-04 2.00955066e-04 -9.06238914e-04 -8.30983918e-04
      -6.56903503e-05 2.10263941e-04 3.41309933e-05 -3.83256993e-04
      1.60264550e-04 1.27542356e-04 2.47752090e-04 -6.98673422e-04
      -8.56515486e-04 -9.92057845e-04 -5.43766364e-04 1.48871681e-03
      6.04428176e-04 1.50456734e-04 1.02065515e-03 -5.19278692e-04
      1.49418775e-03 1.14592920e-04 -2.80321721e-04 -4.93391650e-04
      1.08720956e-03 -1.10141782e-03 -2.20107162e-04 4.22666082e-04
      7.92279432e-04 -7.60029361e-04 7.20101234e-05 1.66317762e-03
      -4.60263800e-05 -4.48784616e-04 5.84293506e-04 1.26186278e-04
      3.41567677e-04 -3.77516757e-04 4.22407873e-04 1.21523030e-04
      6.39951089e-04 8.81645246e-05 2.52982776e-04 -2.24160496e-04
      -2.46675289e-03 6.73059316e-04 4.01231868e-04 -2.28092889e-04
      3.19219020e-04 1.89730763e-05 2.87938281e-04 4.23676276e-04
      -1.99799324e-04 1.75105458e-06 -1.22379861e-04 1.27407577e-04
      -2.41508387e-04 -2.10160870e-04 1.56482705e-03 1.80878997e-04
      -9.13633266e-04 1.64546262e-04 6.72876558e-05 2.79453816e-03
      8.78244580e-04 -1.27423511e-04 -3.28474271e-04 4.16666706e-04
      -2.22626215e-04 -9.09949522e-05 -3.51132971e-04 2.02778261e-04
      1.96883302e-05 -6.08007540e-04 2.61674722e-04 -2.17668270e-03
      -8.16554006e-04 -2.83755735e-03 6.41660474e-04 6.46737288e-04
      8.96257407e-04 8.22516507e-04 1.10920635e-03 -1.00112287e-03
      1.00222114e-03 4.27507010e-04 -1.46232778e-04 -2.00996711e-03
      -2.65271345e-04 -2.37282063e-03 1.17409916e-04 2.12660361e-05
      -1.48506113e-03 1.09666078e-04 -1.35249214e-03 7.33115303e-04
      1.19660038e-03 7.61159681e-05 -8.69366806e-04 -1.41885970e-03
      1.01466593e-03 -1.08674911e-04 2.47367461e-06 2.17418681e-04
      -1.85043295e-03 1.36950648e-05 -4.93527157e-04 -1.04920845e-03
      2.74732686e-03 2.12575804e-04 1.10897447e-04 -2.49315781e-04
      -5.48431242e-04 -4.48942810e-05 -4.56905109e-04 -4.99586866e-04
      -5.76881866e-04 4.02843667e-04 -3.67222267e-04 7.66055819e-05
      1.76834152e-03 4.32625093e-05 8.80323234e-04 -4.23977617e-04
      -2.19940455e-04 2.46188417e-03 7.17450690e-04 2.76106247e-03
      1.58698444e-04 -5.06869284e-04 -8.55892606e-04 2.38306995e-04
      -4.45713886e-05 2.97375926e-04 4.93609004e-05 -3.44347529e-04
      1.36915100e-04 1.98101770e-04 9.91758061e-05 -7.83799798e-04
      -1.42121012e-03 -1.58859568e-03 1.20384881e-04 7.56598252e-04
      -4.52024746e-04 9.25040804e-04 4.89992904e-04 2.18983414e-03
      -4.29957145e-04 6.74224051e-04 -2.57458305e-05 3.96302203e-04
      -1.94352830e-03 -1.09962129e-03 5.98168466e-04 -1.36386324e-03
      1.29278656e-03 -2.69066240e-03 -2.65424867e-04 -3.93729337e-04
      -2.44207476e-04 -8.27416879e-05 1.30778970e-03 3.31577467e-04
      6.61015220e-04 3.31365765e-04 -1.73474211e-04 1.89952552e-04
      9.02801810e-04 3.75698030e-04 -1.58912549e-03 -2.84870184e-04
      2.53982347e-04 -1.86940742e-04 3.26584181e-04 3.37572710e-04
      -8.34885868e-05 -8.33878221e-05 -4.26238927e-04 -1.93813266e-05
      2.88093137e-03 -1.09973655e-04 -2.95406469e-04 -7.51354673e-05
      8.80584936e-04 4.50303109e-04 -1.27264077e-03 6.15684316e-04
      -9.27425514e-04 -2.24732430e-04 3.05590336e-04 -2.48637720e-04
      -6.54712552e-04 1.57870076e-04 -4.18233947e-04 -2.71896715e-03
      -8.56455517e-05 -3.56091739e-04 8.73515673e-05 3.83709325e-04
      5.97236940e-05 1.98555557e-04 5.39142580e-04 -1.33368303e-04
      -1.71148323e-03 -7.71592779e-04 1.49053885e-04 2.57846061e-03
      2.88652343e-04 3.59745877e-06 4.57503018e-04 3.03229986e-04
      1.17262406e-03 -7.20840588e-04 -4.38399671e-04 -2.53663654e-03
      7.64578406e-04 8.46716517e-04 2.26550596e-03 -1.47689821e-03
      9.29203001e-04 9.72943497e-04 2.01661285e-04 -7.28495303e-04
      -7.60826515e-04 -6.16543286e-04 -5.87304879e-04 -2.14803265e-04
      7.81629933e-04 -2.10063576e-04 -4.11150599e-04 5.07152057e-04
      -1.44313287e-03 2.13208652e-04 -2.17759563e-03 8.53293401e-04
      2.83394533e-04 -1.85735062e-05 -1.30304284e-06 -3.49717884e-04
      8.86919370e-05 6.64833715e-05 -1.12827744e-04 1.79580049e-04
      -2.10008700e-03 5.16773207e-06 -1.33728259e-04 8.91939999e-05
      -2.26061675e-03 3.28249065e-04 -1.94477069e-03 -1.20478158e-03
      -2.32837629e-03 8.97719641e-04 6.40715531e-04 4.89345519e-04
      -4.85045341e-04 1.00404963e-04 3.11561424e-04 -2.29679840e-03
      -3.56450735e-04 -5.44957584e-04 -2.14326319e-05 1.28522530e-04
      1.20462661e-04 -1.49031257e-04 -1.23494960e-04 -1.19359675e-03
      1.17249554e-03 1.67147710e-03 -3.03801178e-04 1.16339722e-03
      -3.17126192e-04 -9.62264603e-05 2.74212187e-04 1.69718394e-03
      -7.27784427e-05 7.16119364e-04 -3.20892723e-04 4.43691941e-04
      2.77855294e-03 1.80368824e-03 2.85482896e-03 1.12209911e-03
      3.73859890e-03 3.83216218e-04 -2.00872868e-03 1.65169372e-03
      -2.13102205e-03 -3.68422479e-04 -1.24250131e-03 2.65469309e-03
      1.03673572e-03 4.08011947e-05 -4.40849399e-05 6.33007439e-04
      7.52463529e-04 -2.63002403e-05 -8.95815378e-04 -3.82842525e-04
      -1.12537656e-03 1.81795142e-04 2.23898212e-04 -4.47799015e-04
      3.62563034e-04 -1.02909427e-04 4.17132920e-04 -7.75273802e-05
      6.66538544e-04 1.92381485e-05 4.67841077e-04 1.76687201e-04
      -1.58307856e-04 1.99066970e-04 -1.82965319e-04 8.82144450e-05
      -4.09453460e-05 -5.82241664e-05 3.07326671e-04 -6.99065567e-04
      -3.75733129e-04 4.82349482e-04 2.74176447e-04 -1.76118198e-03
      2.24198768e-04 -1.84202305e-04 6.88933642e-06 -1.60577783e-05
      -4.06318613e-05 2.24288611e-04 -2.42299197e-04 -1.18092255e-04
      -5.03963791e-04 1.66414375e-03 -1.76350717e-04 1.05941552e-03
      1.64152647e-04 2.14244530e-04 -8.23505630e-04 -5.75972837e-04
      -1.44111866e-04 7.72114145e-04 -4.43808036e-04 -1.37997593e-03
      -3.33454134e-03 -2.22972521e-04 6.58036151e-04 5.90718060e-04
      -7.33207969e-04 -1.28508342e-04 -3.33854783e-04 -4.24241473e-04
      5.00466442e-04 -3.19398416e-04 -6.88721251e-04 -4.87531739e-04
      8.01259652e-04 -2.21007649e-05 2.00967494e-04 6.63976825e-04
      9.21610917e-04 3.40309169e-04 -5.70485077e-04 -2.00163643e-03
      -3.72358918e-05 4.52121931e-05 3.32011346e-04 -2.15621534e-04
      -6.00906962e-04 -2.95326590e-05 2.89131189e-04 -3.27268441e-04
      -6.73944305e-04 2.90833214e-05 -4.11422778e-04 1.45671351e-04
      -1.20682665e-03 2.23034469e-04 1.18441612e-03 -1.61934318e-03
      1.29635155e-03 4.27874620e-04 -1.58636918e-04 6.69709756e-04
      -2.17447319e-04 -3.32772470e-04 2.85590970e-04 9.63076251e-04
      -1.87861115e-05 3.36875528e-04 -2.63746606e-05 -3.50840972e-04
      8.32452570e-05 -4.65462763e-05 -3.84975167e-04 3.79173231e-04
      6.48527581e-04 1.89900491e-03 -1.12901143e-04 4.13421658e-04
      2.60976027e-04 -1.64634694e-04 3.88813671e-04 -6.21222483e-04
      -2.26821736e-04 -5.75449085e-04 1.49846121e-04 3.22646287e-04
      1.09825924e-03 -1.15499157e-03 -2.55657564e-04 1.79303490e-04
      6.20751583e-04 -3.75944015e-04 -1.64459844e-03 3.08155199e-04
      -1.23437989e-04 1.15855910e-04 -9.83959530e-04 4.39018440e-05
      1.44495000e-03 -2.44407536e-04 4.37921881e-05 -1.25199891e-04
      1.51608849e-03 -6.88613873e-05 -5.59146458e-04 -1.60416734e-04
      3.59414378e-04 -2.14706088e-04 -2.79895932e-04 3.30611423e-04
      -2.21163209e-04 -8.81633605e-05 3.16588586e-04 -3.01996362e-04
      -7.16539391e-04 2.85431015e-04 2.42640861e-04 7.91172846e-04
      8.34954903e-04 4.86306584e-04 -1.29029702e-03 -1.04381889e-03
      1.06478641e-04 6.36251352e-04 8.05887685e-05 3.64768872e-04
      4.22135956e-04 -1.60206910e-04 2.60837580e-04 -1.26354862e-04
      5.02714480e-04 3.76081007e-05 -9.69594112e-06 -2.62881484e-04
      3.27326052e-05 -2.00403665e-04 -1.32266170e-04 -2.35805940e-03
      -3.12355533e-03 2.85095506e-04 3.48325411e-04 -3.68430010e-05
      -1.88761260e-04 -3.62440536e-04 -1.71361153e-05 1.20080076e-03
      9.16973397e-04 -4.30371612e-04 8.81992746e-05 8.64129281e-04
      7.87998259e-04 2.35566826e-04 9.61274665e-04 -2.15669879e-05
      -6.15529018e-04 1.61111285e-03 -2.06220851e-04 -5.91506890e-04
      1.72034709e-03 -2.85742717e-04 9.12896299e-04 -4.40511591e-04
      -1.38363487e-03 6.90864224e-04 3.46517481e-04 7.15321585e-05
      2.07116222e-03 2.57708452e-04 8.09426827e-04 -6.41213788e-04
      -2.10198830e-03 5.18248533e-04 -4.14597569e-04 3.20391351e-04
      -3.23374581e-04 -1.36436967e-04 6.00882515e-04 -1.46533261e-04
      -1.34168938e-03 -1.30980523e-04 -2.81482848e-04 -1.68344690e-04
      2.81066285e-03 -1.97291709e-04 -3.53453943e-04 -1.16582960e-03
      2.14798463e-04 1.40149996e-03 5.56739053e-07 -5.04199008e-04
      -1.11333111e-05 -1.40873482e-04 -9.53480543e-04 -3.10416581e-05
      8.29102646e-04 -5.45294961e-06 -2.61159948e-05 2.48363998e-04
      -3.86004482e-04 3.80752645e-05 3.04434187e-04 -1.68497121e-04
      -1.62156080e-04 1.09376968e-04 -3.03415291e-04 1.60553458e-03
      -6.21764979e-04 1.69471241e-04 -4.50596912e-04 5.39537054e-04
      -3.58166872e-04 -5.24778676e-04 -9.97249226e-05 -6.77063479e-04
      4.82711417e-04 -7.57920439e-04 -1.51942566e-03 -5.70405537e-05
      1.29227410e-03 -8.07634424e-05 4.12194582e-04 2.22445419e-03
      -3.10474279e-04 3.74821335e-04 -5.08930185e-04 -5.48614131e-04
      6.60604390e-04 4.48200808e-05 -8.13180697e-04 -2.54123461e-05
      1.28363247e-03 4.86935343e-04 1.00198144e-04 -2.14781426e-03
      -1.52816065e-03 1.37099036e-04 -1.88601829e-04 -1.10194705e-05
      1.56103488e-04 1.65131991e-04 2.39467001e-04 8.50829703e-04
      1.66704427e-04 -4.62832715e-04 8.46461917e-05 -1.01334226e-05
      -2.14562402e-03 2.94752790e-05 1.06526561e-04 2.16972269e-03
      5.72634803e-04 -6.07446244e-04 9.62462946e-05 3.39221151e-04
      2.64073635e-04 3.22290958e-04 3.93969269e-04 1.52523792e-03
      3.35265911e-04 -2.29772544e-04 -7.66259200e-06 -2.95501610e-04
      1.64662604e-04 -1.55151720e-05 -9.93439462e-04 3.50311384e-05
      -1.62823068e-03 -1.88071677e-03 2.55848165e-04 -3.58916324e-04
      -7.10282708e-04 -5.91206423e-04 4.94898763e-04 1.29382825e-03
      -1.07164390e-03 -1.48264517e-04 -7.56802046e-06 6.49559137e-04
      1.16462202e-03 -1.44846796e-03 -8.40373337e-04 7.23538746e-04
      9.64844192e-04 -2.66087562e-04 -7.13367248e-04 1.58369367e-03
      -2.06874451e-03 3.27017799e-04 1.84859833e-04 5.43971662e-04
      1.21502730e-03 2.91525299e-04 3.15417965e-05 1.58613984e-04
      9.93590220e-04 -1.29537329e-05 -1.19444553e-03 -1.49176782e-03
      -2.82615365e-04 -3.06260539e-04 3.17450671e-04 -2.38939047e-05
      3.94171366e-04 -2.31611539e-05 7.31088570e-04 1.78964721e-04
      -3.49359761e-04 2.83326168e-04 -2.79872969e-04 2.37537912e-04
      -1.12311926e-03 -3.43592226e-04 -8.62136250e-04 -2.40059075e-04
      6.22879073e-04 -3.47651076e-04 3.54679010e-04 -9.38235433e-04
      1.62683617e-04 -1.09428707e-04 -8.05739663e-04 -1.08730153e-03
      5.11796796e-04 -2.09967722e-04 -2.97158869e-04 1.62081560e-04
      2.31709608e-04 1.08292683e-04 4.00021177e-04 -9.27781861e-04
      -7.52534077e-04 7.16169132e-04 6.50657312e-05 1.03751256e-03
      6.17839105e-04 7.63496035e-04 5.84971931e-05 2.37095301e-04
      4.05522529e-04 -7.15258066e-04 7.37527007e-05 3.30382958e-04
      -1.90633698e-04 7.21969045e-05 9.74395371e-04 -3.80166632e-04
      1.54144585e-03 -2.13972852e-03 -6.36254263e-04 -1.40961807e-03
      -6.29490707e-04 2.12518673e-04 1.29499123e-03 -4.14951297e-04
      9.19580169e-04 1.53572619e-04 -2.14806350e-04 -9.60458601e-06
      -1.07050641e-03 1.75963476e-04 -5.70237986e-04 1.12921312e-04
      6.66674925e-04 8.31186422e-04 1.63290402e-04 7.16222203e-05
      -1.16494070e-04 -9.13824260e-05 -4.69321036e-04 1.06357336e-04
      1.40506623e-03 5.95629026e-05 -2.30970065e-04 -4.59472722e-06
      -6.64560284e-05 -2.07366218e-04 1.21650111e-03 -3.44824948e-04
      1.66389369e-03 -6.77705510e-04 1.96194873e-04 1.00049598e-03
      -3.41670457e-05 -1.98591570e-05 2.72132282e-04 1.64714421e-03
      4.82839445e-04 1.58216444e-05 5.75268277e-05 -2.91460892e-04
      -3.81890772e-04 1.01055579e-04 2.88446572e-05 -3.00940039e-04
      -9.51740192e-04 1.48974801e-03 -1.88068239e-04 5.77898463e-04
      -4.66655620e-04 2.55732430e-05 -8.21123947e-04 -2.37727328e-03
      -2.01366306e-03 -1.71427426e-04 3.35513672e-04 1.44813603e-04
      -3.41368548e-04 -8.65053851e-04 1.11821236e-03 4.40041302e-04
      -1.83075288e-04 3.59328464e-04 6.15206663e-04 1.94648659e-04
      -7.91739672e-04 5.39168832e-05 -9.90821980e-04 2.26251641e-03
      3.70668597e-04 3.67020955e-04 4.92581166e-04 -6.20385574e-04
      1.35062786e-04 -2.51850113e-04 -2.21229088e-03 -1.20058097e-03
      -2.07803654e-03 -1.35084061e-04 -2.58934422e-04 -9.65083018e-05
      -5.14738029e-04 -1.06082363e-04 -5.34351799e-04 -5.68078831e-04
      -1.81317667e-03 -3.64151492e-05 -3.62106191e-04 1.01595942e-04
      4.98440873e-04 2.10944454e-05 -5.22018236e-04 -2.79482250e-04
      -1.98477367e-03 1.16875197e-03 2.64218601e-04 -4.20407712e-04
      6.02841574e-05 2.28293924e-04 -1.48395295e-04 1.30437175e-03
      -2.06433499e-04 -1.84579636e-04 9.41003746e-05 -4.53818851e-04
      1.41490207e-04 -2.45765114e-04 -4.75200723e-05 -1.20312558e-03
      2.95307813e-03 7.89755795e-05 -6.34106982e-04 -1.16650457e-03
      4.33653709e-04 3.34170909e-04 1.12392660e-03 1.14987534e-03
      2.92918971e-03 -9.88062355e-04 1.24256057e-03 -2.12051251e-04
      -1.69077146e-04 -4.83675511e-04 1.12428330e-03 2.00074771e-03
      3.14821897e-04 3.27479374e-03 1.12255126e-04 3.45366425e-03
      -6.51961658e-04 3.33410513e-04 1.31286564e-03 4.09537752e-04
      -6.53190888e-04 4.01480793e-05 3.71634873e-04 -9.59526078e-05
      -5.46882045e-04 -6.12714561e-04 -1.97884487e-03 4.23653342e-04
      -1.28279033e-03 2.97780789e-04 -5.96110767e-04 4.79077926e-06
      2.04325024e-05 9.71661357e-05 -4.89559898e-04 -6.15799043e-04
      4.14593436e-04 -4.62633878e-04 -2.69965094e-04 -9.83320424e-05
      -1.54645822e-03 -2.04469499e-04 -2.96581158e-04 -3.02707504e-05
      1.40704928e-04 2.06300919e-03 -6.57291093e-04 8.46792027e-05
      1.06526240e-04 3.51412920e-04 1.29566339e-04 1.21798448e-03
      3.37322679e-04 2.43027374e-04 -4.96469438e-05 -2.73839949e-04
      -8.48991749e-06 4.10375287e-05 -5.92247408e-04 9.57671611e-04
      4.75292560e-04 -6.07891765e-04 -2.91504577e-04 3.25905182e-03
      -1.87770711e-04 1.15203286e-04 5.39667439e-04 -1.08771303e-04
      -1.73451026e-05 -2.83588399e-03 -5.88633178e-04 -3.40779443e-05
      2.79634696e-04 -2.89099873e-03 6.11125288e-05 -1.70754362e-03
      -1.02191640e-03 1.29563545e-04 1.59708812e-04 3.33962875e-04
      8.04680341e-04 2.73789658e-04 -1.90136154e-06 -1.54467055e-03
      1.07295404e-03 -2.30609818e-04 -5.76232909e-04 -2.36948050e-04
      -2.56418111e-03 5.53047925e-04 -8.29363824e-04 -1.94457197e-03
      -1.35982095e-03 8.42090056e-04 -3.37360107e-04 8.67247290e-05
      -4.13476635e-04 4.03619197e-05 1.80076546e-04 1.22722358e-05
      1.53605198e-03 3.53877811e-04 -2.39260073e-04 -5.26116637e-05
      8.48775846e-04 5.06572651e-05 3.60262394e-03 8.21812777e-04
      -9.15952958e-04 9.96818766e-04 -3.33851756e-04 -1.04897737e-03
      2.61981331e-04 -1.74192624e-04 -9.67839267e-04 2.24068252e-04
      8.75720943e-05 -1.81053329e-04 -9.00247251e-05 -2.28965029e-04
      -2.50662473e-04 -6.71947928e-05 -2.83800677e-04 1.42935081e-03
      1.08843169e-03 5.44406765e-04 2.93464196e-04 -1.34003407e-03
      -2.94776401e-04 -7.67315272e-04 -1.26794085e-03 -2.68142414e-03
      2.32445379e-03 5.45099261e-04 4.98715322e-04 1.72973901e-03
      -1.32123692e-04 5.91788033e-04 1.17719581e-03 -1.11706275e-03
      -2.12067715e-03 6.66452514e-04 -1.93152504e-04 1.54398975e-03
      7.71080842e-04 -3.88080574e-04 4.57587710e-04 7.85479671e-04
      1.23993738e-03 1.84922945e-04 -1.03360791e-04 -2.19560411e-06
      1.79940066e-03 2.43661852e-04 -1.17348146e-03 2.40485091e-03
      -1.45255832e-03 1.16670184e-04 -6.05801353e-04 -3.02046596e-04
      3.80339945e-04 7.93903600e-05 -2.40984897e-04 3.23861241e-05
      1.23140705e-03 9.58025412e-05 -1.33862210e-04 -1.86762278e-04
      -1.74580200e-04 1.92540596e-04 -2.25537759e-03 -6.82554382e-04
      -7.47026585e-04 -2.09597102e-03 -2.57066713e-04 2.08488142e-04
      7.04842823e-05 -2.05021308e-04 4.33678419e-04 1.55831885e-03
      -1.20879748e-04 2.07432415e-04 5.84573390e-05 -5.92376382e-05
      -1.40159143e-04 -8.72041346e-05 4.83374373e-04 9.80589772e-04
      1.71728767e-04 3.54251271e-04 7.31724867e-05 -1.41000107e-03
      2.68456759e-04 2.14928776e-04 4.31100372e-04 -6.86190091e-04
      7.22066092e-04 5.11166698e-04 -5.12508384e-04 5.95136313e-04
      -5.45262767e-04 5.50504628e-05 6.31014263e-05 -2.80487933e-03
      -1.20089366e-03 8.29509052e-04 -1.43371767e-03 8.25403404e-05
      -1.08403759e-03 -1.61146454e-05 -3.40197643e-04 4.34970367e-04
      4.40232950e-04 6.95430965e-04 3.11388540e-05 -1.24803468e-04
      -8.99424020e-04 -4.22657671e-04 1.12745306e-03 -6.71612142e-05
      -9.47673834e-05 -2.23194838e-05 1.10538436e-04 -1.37791154e-04
      -1.03475852e-03 -9.67999495e-06 -7.61090196e-05 6.41758263e-04
      -1.10017369e-03 6.41559425e-04 4.50846943e-04 6.08994858e-04
      -1.50186196e-03 -2.74416117e-04 2.46363040e-03 1.23079750e-03
      2.49070721e-03 1.59728035e-04 3.25520195e-05 -2.98430631e-03
      2.93854246e-04 1.18914322e-04 -5.16819127e-04 1.19405624e-03
      7.02811594e-05 2.31263170e-04 1.04766161e-06 -7.54989916e-04
      -2.74977483e-05 -9.25926259e-04 -1.98292091e-05 -5.71167911e-04
      2.34639971e-03 1.05593295e-03 1.27230189e-04 7.06439430e-04
      8.97928985e-05 -1.01033540e-04 -4.79522452e-04 -2.85552029e-04
      -3.02271172e-03 8.58459563e-04 1.36085873e-05 5.95363905e-04
      7.73860898e-04 -6.44114625e-04 -7.90567079e-04 1.60293748e-05
      -3.84252006e-03 9.64721898e-04 -3.02021595e-04 3.10097210e-04
      -2.95738893e-04 -1.95018889e-04 6.19634986e-04 -3.12751392e-04
      -6.00131461e-04 2.47729709e-04 4.39262076e-05 3.94165312e-04
      7.49059778e-04 6.40319995e-05 3.42400512e-04 -2.07986421e-04
      6.44499203e-04 1.94623921e-04 -4.51002648e-04 -5.94229670e-04
      -1.53529647e-04 -8.69114010e-05 4.90860548e-04 -1.08357708e-04
      1.82588678e-03 -2.02957599e-04 -4.44662466e-04 -9.13691110e-06
      7.51670101e-04 1.29023465e-04 -6.89776905e-04 -6.12725489e-05
      2.78358901e-04 2.46198877e-04 -5.42865775e-04 -7.10086839e-04
      2.45217379e-04 1.02048123e-03 2.16258893e-04 -3.19653540e-04
      8.25973912e-05 -9.68188760e-05 2.09142541e-04 8.42583904e-05
      5.84323192e-04 2.02322277e-04 -3.69346322e-04 -1.64400018e-03
      8.82171036e-04 8.23967974e-04 1.01083257e-04 -1.47979928e-03
      2.99357664e-04 2.43208866e-04 1.00429787e-03 1.83596625e-03
      -1.22696720e-03 -4.53202636e-04 3.75304400e-04 5.46541822e-04
      -4.69478196e-04 5.38539665e-04 4.10165267e-05 -1.76272087e-03
      -1.30196405e-03 4.57823364e-04 2.82444089e-04 1.88328588e-04
      1.71311258e-04 -3.06701870e-04 1.09326688e-03 -1.29947008e-03
      3.07324575e-04 -4.82784788e-04 -9.42092520e-05 -5.82656048e-06
      9.74979950e-04 4.87711310e-04 -5.87171351e-04 -1.77125935e-03
      4.47320286e-04 -3.12684773e-04 2.52278085e-04 1.17772433e-04
      3.08826071e-04 -7.50376712e-05 -1.18922058e-03 3.38422746e-04
      -3.86949454e-04 5.15469001e-04 1.89758881e-04 1.87720289e-04
      -5.44958821e-05 1.14353403e-04 7.83630123e-04 -2.09534424e-04
      1.57106610e-03 4.70188825e-04 6.05653622e-05 -1.50417921e-03
      -2.75232014e-04 8.34220627e-05 3.86396277e-04 1.17594597e-03
      -1.46813225e-04 3.81781807e-04 -5.31128244e-05 -3.46733374e-04
      1.87730329e-04 4.69591585e-04 -3.72914859e-04 -2.69124372e-04
      2.10191379e-03 -2.99598579e-03 5.92576864e-04 8.93244229e-04
      -1.70995365e-04 -1.63539116e-05 -1.76099420e-04 3.07733862e-05
      6.15334313e-04 -5.72267803e-04 -5.01469127e-04 6.64901308e-05
      -7.64050346e-04 -1.31149229e-03 5.17937180e-04 7.30434491e-04
      2.21651699e-03 -8.84472101e-04 1.05415809e-03 1.95303815e-03
      7.96967477e-04 4.43183846e-04 -5.54196537e-04 -1.06056163e-03
      -1.06967753e-03 -9.99456752e-05 -3.47048393e-04 9.58680175e-05
      -6.64408552e-04 6.98821459e-05 -3.58491634e-05 -8.12663464e-04
      7.91787079e-06 4.67615173e-04 -1.43492973e-04 1.87432684e-04
      2.73321435e-04 7.48021703e-05 1.27577412e-04 3.41388193e-04
      -4.93279949e-05 5.67640564e-05 2.57273263e-04 2.04993717e-04
      2.40266765e-03 -5.76818675e-05 -1.76561787e-03 1.06894015e-03
      -6.09475246e-04 -2.89864582e-03 -7.45785190e-04 6.99461612e-04
      -4.35267430e-06 7.00073026e-04 1.52706736e-04 -7.07866624e-04
      -3.16478603e-04 -3.50697337e-05 3.01338849e-04 1.00911075e-05
      1.54820846e-05 7.76562083e-05 1.29446154e-04 -4.58499344e-05
      -7.92633567e-04 1.34173292e-03 -2.27843077e-04 1.24414277e-04
      2.17495020e-04 1.14916540e-04 -1.34229090e-03 -1.09177991e-03
      1.19673298e-03 7.71077874e-04 -9.13098105e-04 -1.74188899e-04
      -9.99524491e-04 4.71433741e-04 -3.09353927e-05 5.63942958e-05
      -1.31364376e-03 5.48476295e-04 -9.13940545e-04 1.60440672e-04
      -1.06840735e-05 -3.55112497e-05 -2.22635502e-03 7.28807063e-04
      -4.17324736e-05 9.29006899e-04 -2.28994846e-04 2.00908020e-04
      -2.44063966e-04 2.43290575e-04 4.72746062e-04 1.73552457e-04
      -4.13919886e-04 7.38191084e-05 8.41633664e-05 -3.37052537e-04
      -9.16489691e-04 -7.32982735e-05 -9.73826565e-04 9.18343954e-04
      2.19145836e-03 6.53732801e-04 1.45651691e-04 2.49965145e-04
      3.97970725e-04 -3.87420936e-04 -5.14203566e-04 -3.50283284e-04
      4.59442119e-04 -1.35143602e-03 -2.15678097e-04 -7.96937849e-04
      2.12209998e-04 4.02714621e-04 -2.89632735e-04 -1.71977316e-03
      3.11848766e-04 -1.30762928e-04 -1.28124419e-04 6.68393695e-05
      -1.68772211e-04 -1.29037173e-04 -3.41699371e-04 5.58409782e-04
      2.90001131e-04 3.15129466e-04 -3.35885386e-04 2.61807232e-03
      1.45780112e-04 -1.68386832e-04 2.21026945e-03 9.40406317e-05
      -3.75708158e-04 -1.57946558e-03 -5.02080016e-04 -1.50000514e-03
      7.75773544e-04 -2.96023500e-04 1.27847295e-03 1.09949184e-03
      -8.72252742e-04 9.46900924e-04 -9.28108202e-05 1.17559289e-03
      -2.89665215e-04 -2.47083895e-04 -1.46915729e-03 -8.46079376e-04
      -2.17503379e-03 8.74445133e-04 -6.70880763e-05 2.36028369e-04
      7.18956406e-04 5.54736296e-04 1.15168304e-03 -1.15330762e-03
      -1.38238072e-03 -2.03203686e-04 -3.14747915e-04 -1.70370433e-04
      2.08577156e-04 -4.62455973e-05 -3.78180761e-04 -8.74472025e-05
      9.87034175e-04 -5.71068143e-04 -6.00409803e-05 -1.45759637e-04
      3.77543765e-04 -6.66946362e-05 -1.94342027e-03 -7.45975529e-04
      3.45060806e-04 -5.91697813e-07 5.66108443e-04 -4.40914853e-04
      -3.31667863e-04 -2.14046566e-04 -1.67208782e-04 -1.07432110e-03
      2.33460392e-04 -2.48135970e-04 1.29149892e-04 4.43324854e-04
      -1.88441700e-04 1.55257585e-05 -1.22282654e-04 2.04263837e-03
      -6.75137155e-04 6.09696493e-04 4.23260390e-05 2.53530405e-03
      -3.41499923e-04 -6.19830025e-05 -5.96978725e-06 2.41731107e-03
      4.72767824e-05 1.97768304e-03 6.99769414e-04 1.41008222e-03
      -8.09983612e-05 -2.49244575e-03 -4.70758416e-04 -5.01797767e-04
      3.71682836e-04 1.16319730e-04 -1.30469201e-03 -6.68331003e-03
      2.27200886e-04 1.72924061e-04 -2.74915859e-04 -2.56119319e-03
      6.39739214e-04 -1.99416798e-04 2.76666251e-04 5.04447489e-05
      -5.05161704e-04 -1.32418543e-04 -1.10528874e-03 3.14953504e-04
      8.63662106e-04 -2.33178071e-05 1.53829838e-04 1.84676494e-04
      -3.50482849e-04 -6.48566493e-05 7.09351560e-04 -8.39428394e-05
      2.35287193e-03 -4.28312749e-04 -2.75205792e-04 4.56034992e-04
      -8.43369868e-04 -1.75237132e-04 -1.88099232e-03 7.95593718e-04
      7.06916966e-04 1.70490792e-04 -4.20024211e-04 -7.39430718e-04
      1.91339670e-04 8.70053191e-06 4.54680441e-04 -3.10308533e-03
      5.47302297e-05 6.72201335e-04 -2.28426507e-05 -2.85136513e-04
      1.44367383e-04 -2.06831333e-04 -1.49283762e-04 6.62018283e-05
      9.28512076e-04 3.28225270e-03 -2.88270414e-04 1.74335565e-03
      2.89239339e-04 -1.52995752e-04 -5.60778775e-04 1.67278212e-03
      3.35870194e-03 -6.95334093e-05 1.53570450e-04 -2.88385316e-04
      1.72916800e-03 -2.84276641e-04 -6.34645286e-04 7.84472097e-04
      2.44289846e-03 2.18574516e-03 2.67637864e-04 -9.51459981e-04
      -9.90991830e-04 2.62933521e-04 -5.07620338e-04 2.46079941e-03
      -3.59573576e-04 1.53244822e-04 -3.56876029e-04 1.58558818e-04
      -8.67635943e-04 2.92830315e-04 4.01040772e-04 -7.35630980e-04
      -2.39692636e-05 -7.81310810e-05 -2.07404970e-04 1.09901739e-05
      4.16032533e-04 -3.02269473e-05 1.88579230e-04 1.71140186e-04
      2.29581748e-03 -4.80161514e-04 1.25894469e-04 8.55687267e-06
      -1.59017812e-03 -1.48113570e-04 -2.64902436e-03 -2.08400609e-03
      5.56616287e-04 4.83849253e-05 -2.87248084e-04 6.53751136e-04
      -2.44131763e-04 -4.91543324e-04 -5.21417882e-04 6.18551043e-04
      -1.79840034e-04 8.60532527e-05 -2.78593125e-05 5.05286793e-04
      5.54058759e-04 5.58406246e-05 1.72583226e-04 -1.93209888e-03
      -3.00992015e-05 2.14510527e-03 -3.50172573e-04 2.40912242e-03
      -3.75035364e-04 -2.67716914e-05 5.03742252e-04 1.76590087e-03
      -2.94420082e-04 -3.95529962e-04 9.10104791e-05 -1.59012864e-03
      -1.25890379e-04 1.33613020e-03 -2.24748417e-03 -2.16416176e-03
      -1.43922726e-03 2.40065274e-03 -9.64344072e-04 7.61075760e-04
      -1.30001630e-03 -1.17269919e-04 -1.48938459e-04 -9.12402000e-04
      6.37255143e-04 -8.69301439e-04 -9.70169785e-05 1.94165710e-04
      -1.31795683e-03 3.02883291e-05 1.89156865e-03 4.83120675e-06
      -4.74010361e-04 5.07639081e-04 -4.33056448e-06 -1.06234547e-04
      -6.48350579e-07 5.62693640e-06 -6.14717079e-04 -3.87573848e-04
      7.65868972e-05 4.10688022e-04 -8.34931270e-05 1.60079464e-04
      -6.41843508e-05 1.04768456e-04 -9.66342399e-04 7.70677638e-04
      -5.75212121e-04 -2.87723006e-03 4.26005718e-04 -6.75596879e-04
      -4.28720668e-04 -2.59553432e-04 -7.37039518e-05 -1.15918745e-04
      2.02021765e-04 -1.69303181e-04 1.75175319e-05 2.59352470e-04
      -5.02918556e-04 -3.50725721e-04 2.31370534e-04 5.38202701e-04
      7.51676213e-04 5.38714579e-04 7.30964413e-04 -1.77700509e-04
      7.18688243e-04 -9.84012950e-05 1.56335835e-03 2.73753866e-03
      -7.45081576e-04 4.20330733e-04 5.04549651e-04 -1.11731631e-03
      -1.60256063e-03 7.73078122e-04 8.33519094e-04 4.35158610e-04
      -3.88634944e-04 4.21740988e-04 -1.07261341e-03 6.47756271e-04
      -3.77880671e-04 -1.97671616e-04 1.04479725e-03 -6.51579641e-04
      -1.45496672e-03 3.60930862e-04 3.06776317e-04 6.27092231e-05
      4.97725501e-04 -1.34315429e-04 9.02661937e-04 3.53668875e-05
      -1.49576913e-03 6.65546468e-05 -2.06804398e-04 6.25007015e-05
      1.75284222e-04 -1.17614964e-05 -4.97160654e-04 2.48903089e-04
      -4.51874657e-04 -7.35424343e-04 -4.09571549e-05 5.47563359e-05
      -7.16597249e-04 -6.85029881e-05 -2.52570421e-03 6.90666318e-04
      -1.28927606e-03 4.83865559e-04 -9.24200722e-05 4.36889037e-04
      -1.64110636e-04 1.46112143e-04 4.30626271e-04 1.44466641e-03
      -2.49359757e-04 5.35876643e-05 1.15305404e-04 1.14478105e-04
      1.14346185e-04 -4.60997362e-05 -3.18902603e-04 1.26632571e-03
      2.52788584e-03 7.04234626e-05 7.49398081e-04 -5.86261849e-05
      -5.25218667e-04 2.68449294e-05 3.30390129e-03 -1.63617020e-04
      -6.69106666e-04 -6.61629383e-05 8.32671794e-05 -3.24536348e-04
      -1.05721783e-03 -5.40593872e-04 -3.03041714e-04 -5.05449898e-05
      -2.14594253e-03 -4.51164291e-04 -3.05208552e-04 1.17689997e-04
      6.82940881e-04 1.56159163e-04 7.69865292e-04 -1.14145025e-03
      1.59409782e-03 1.89969593e-04 -2.12390805e-04 -3.75447213e-04
      1.13668339e-03 2.51087040e-04 1.46327703e-03 -2.31651636e-03
      1.29818902e-04 2.35598680e-04 6.98073854e-05 -2.93559744e-04
      1.17565680e-04 2.14254469e-05 3.12533550e-04 1.01034099e-03
      -1.33371924e-03 -9.81822523e-05 1.18644930e-04 -1.27215302e-04
      3.76427866e-04 -1.00031000e-04 5.10137703e-04 3.98886070e-04
      -4.76076297e-04 -1.22823883e-04 -1.97761488e-04 9.39246558e-04
      -2.30769700e-04 4.13185917e-04 8.14096420e-05 6.40514540e-04
      5.87608025e-04 -4.04565741e-04 -9.68055883e-06 -4.77522844e-05
      -2.02937677e-04 1.78230955e-04 -1.90320177e-04 -7.39857322e-04
      -2.82392029e-05 1.83032162e-03 -5.65212744e-04 -2.90708733e-04
      -3.32924945e-04 4.25937906e-05 1.57348026e-04 -9.33855830e-04
      -2.94003148e-05 7.65520439e-04 -1.60558207e-04 3.47621826e-04
      -5.05304371e-04 -1.47282658e-03 -2.85235612e-04 4.81080351e-04
      7.78073794e-04 1.11455889e-03 2.91838456e-04 -4.33157868e-04
      -4.82731906e-04 4.81875213e-05 -5.87111688e-04 -9.83359641e-04
      1.96714955e-03 3.36909987e-04 -1.87629630e-04 -1.49011743e-04
      -1.01591798e-03 6.45870285e-04 -1.58993600e-04 5.76189545e-04
      -7.55121349e-04 -4.91682440e-04 3.58861871e-04 2.72161240e-04
      4.58178227e-04 -2.00809431e-04 1.09731173e-03 -5.78338164e-04
      -1.22436637e-03 3.58223391e-04 -2.04316777e-04 -4.59060084e-06
      -2.86444963e-04 -1.54031601e-04 2.74483929e-03 4.64625831e-04
      -7.87340919e-04 3.24743887e-04 1.86258694e-04 -1.23418332e-03
      4.09228460e-06 4.72027110e-04 8.77215702e-04 6.03103545e-04
      4.89472062e-04 7.08358071e-04 7.64217111e-06 -4.20928001e-04
      1.35912109e-04 7.28724408e-05 6.91699388e-05 9.07307432e-04
      9.55830677e-04 3.05126276e-04 6.65973930e-04 -1.30347651e-03
      -4.57686147e-05 -2.56076513e-04 -1.63073215e-04 -1.84716575e-03
      -1.43678603e-03 -1.89199392e-03 1.51976601e-05 -5.10558661e-04
      1.38996751e-03 -8.30858946e-04 9.27875750e-04 -2.00530095e-03
      1.88152393e-04 2.40908503e-05 5.11229387e-04 3.11709155e-04
      -4.02075500e-04 8.26635165e-04 -1.03054533e-03 -5.63240377e-04
      2.11441400e-03 -2.59234839e-05 6.98889664e-04 -6.49217458e-04
      2.23058648e-03 7.33604189e-04 -1.22728350e-03 3.98077915e-04
      5.10970363e-04 -5.18595451e-04 -1.82442862e-04 2.53142789e-05
      -4.92083549e-04 1.51647007e-04 4.38696705e-04 1.44518053e-04
      1.38941768e-03 -8.66436094e-05 -3.97653785e-05 1.93479646e-04
      4.37720126e-04 -1.84485270e-05 1.76369469e-03 8.75248166e-04
      -1.37759361e-03 -1.64717319e-04 3.66741937e-04 1.20215281e-03
      -8.77903130e-06 -5.91853386e-05 8.22925504e-05 1.21358869e-04
      2.35246145e-04 -2.34440551e-04 -5.04776217e-05 3.35812583e-05
      -1.89489365e-04 1.53174522e-04 -1.07357446e-04 -1.54399633e-04
      5.26876305e-04 9.98988748e-04 -1.13671087e-03 -1.45885360e-03
      -2.63909431e-04 -5.92549157e-04 -1.54712109e-03 -1.44003052e-03
      -4.47473984e-04 -2.33433698e-03 -1.02107867e-03 1.08793343e-03
      -6.33866526e-04 -2.73694081e-04 7.73063570e-04 -8.17175896e-04
      -2.57693348e-04 8.35623359e-05 4.11470159e-04 6.49621710e-04
      -1.93271961e-03 1.33891459e-04 -2.75841844e-03 -1.13861205e-03
      -5.53823833e-04 3.69159912e-04 5.31262194e-04 1.37554263e-04
      -2.34168302e-03 -3.77472024e-04 1.34871888e-03 -1.63303794e-05
      -7.00948367e-05 -3.07339928e-06 3.97651689e-04 8.73333265e-05
      2.58452841e-04 9.04969711e-05 -6.71355287e-04 2.50147568e-04
      -7.01960744e-05 3.66126369e-05 -3.19140789e-04 1.99214526e-04
      5.17244975e-04 -6.33621588e-04 7.49878236e-05 -6.47235895e-04
      9.50165617e-04 2.39253114e-03 -9.54909847e-05 -1.73207547e-04
      4.41325421e-04 -4.12667760e-05 3.36792262e-04 -8.06486059e-04
      -1.79379931e-04 2.57471052e-04 4.71790881e-05 -2.15067863e-04
      -8.15162930e-05 2.97614770e-05 -1.99905175e-04 4.56026115e-04
      2.00885185e-03 -5.26456512e-04 8.14006606e-04 -8.74259567e-04
      -2.08733909e-04 9.87062813e-05 -4.03434999e-04 2.96288054e-03
      -2.23536789e-03 2.33759696e-04 -3.71707079e-04 -3.79862060e-04
      1.38414116e-03 3.85938241e-04 -7.98157562e-05 2.86508788e-04
      -2.43718782e-03 2.11143401e-03 -6.86107727e-04 -2.50559679e-04
      1.24390703e-04 3.71657661e-05 -8.98497237e-04 -2.02775956e-03
      -1.20923587e-03 -1.66255876e-03 3.34265613e-04 4.41733166e-04
      2.42345245e-03 1.64111589e-05 1.49805273e-04 -6.48860994e-04
      -3.54857621e-04 -5.24655043e-04 6.23410015e-05 2.63401424e-04
      1.68363113e-05 -3.62040970e-04 -2.38534747e-04 4.26974555e-04
      -4.27094928e-04 1.08410437e-04 1.05941457e-04 -1.18867283e-04
      7.68697180e-04 1.75208217e-04 -3.59585945e-04 9.72528942e-05
      3.84745334e-04 -5.38009517e-05 -3.06061265e-05 -1.17803679e-03
      -1.10049376e-04 2.97697727e-04 -5.30254911e-04 -1.55228539e-03
      5.08209283e-04 2.93312070e-04 -4.89442900e-05 3.97668045e-05
      -3.93038004e-04 6.10808420e-05 8.83170345e-04 7.80680624e-04
      -2.76347273e-03 4.67150297e-04 -6.66327251e-04 8.45415459e-04
      -2.63222231e-04 6.39545557e-04 -3.57220852e-04 6.36026904e-04
      -1.41033449e-03 1.77059544e-03 -6.37771969e-04 -3.64530744e-04
      3.47804651e-03 1.02594774e-03 2.78978096e-03 1.40684699e-06
      3.96182109e-03 1.09837018e-03 1.77534297e-03 2.30313139e-03
      -4.22506446e-06 -6.77703414e-04 -3.64085397e-04 -7.16623035e-05
      -1.02784274e-04 3.59321071e-04 2.50474055e-04 -4.86794961e-05
      -3.39607242e-03 1.04001607e-04 -2.87923985e-03 -3.38776299e-04
      -2.63015128e-04 5.11862570e-04 4.68449480e-06 4.89777558e-05
      -4.91012615e-05 2.20415706e-04 5.43323520e-04 -1.20899291e-04
      7.56638110e-05 3.38911690e-04 6.72510287e-05 6.74209587e-05
      -2.19831173e-03 -7.65685982e-04 -1.64562822e-04 -8.52065496e-05
      -1.66585797e-03 -5.46940952e-04 -4.73815569e-04 -1.19374238e-03
      -3.73149524e-04 -1.45166297e-04 4.13018046e-04 -6.11397612e-04
      -2.52106565e-05 4.59286457e-05 2.14655392e-05 1.83343363e-04
      1.86267105e-04 2.90198514e-05 -9.81088670e-05 1.14590616e-03
      -1.91821996e-03 1.82622881e-03 4.86117235e-04 8.58886284e-04
      7.82678107e-05 7.13607355e-04 -1.11204130e-03 -1.37487601e-03
      1.80833100e-03 -1.94826256e-03 -1.34572343e-04 -3.83665669e-04
      6.21208514e-04 -5.19263791e-04 1.83568068e-03 2.07005232e-03
      -1.53303612e-03 -5.01016737e-04 -1.17137528e-03 -2.39420542e-03
      -7.09909655e-04 1.20958069e-03 5.08684083e-04 -1.70158676e-03
      9.36444500e-04 3.98827309e-04 -2.32037957e-04 -1.55120259e-04
      1.95342675e-03 2.07151479e-05 2.37746839e-03 -3.34640587e-04
      5.09747711e-04 1.86462945e-04 -4.03416139e-04 -2.70098215e-04
      -1.70660758e-04 -1.00461417e-04 4.28560859e-04 6.54414725e-06
      1.98527751e-03 9.93612484e-05 -2.57367676e-04 -2.33525920e-04
      2.71327386e-04 -8.07979404e-07 2.88222427e-03 2.36626714e-03
      -1.15833944e-03 -3.01268022e-03 -4.96534980e-04 -2.25911452e-03
      -5.64753500e-05 -7.38434246e-05 2.19038833e-04 -2.56018294e-03
      9.54466406e-04 5.76301536e-04 1.39136837e-05 5.20014219e-05
      4.30173910e-04 1.04581508e-04 3.91211564e-04 1.55824746e-04
      -1.17109064e-03 6.02683227e-04 -1.00701314e-03 -2.88349343e-03
      2.37843142e-05 -6.06904541e-05 2.71179742e-04 -1.93035591e-03
      1.00401393e-03 5.94212674e-04 -2.23915515e-04 -9.37538745e-04
      3.42701166e-03 1.55975122e-03 1.38273777e-03 9.67271262e-05
      2.18674191e-03 1.87625445e-03 2.36736552e-04 1.95439483e-04
      2.77015963e-04 -2.18992980e-04 -1.00734399e-03 1.03617099e-03
      2.95731181e-04 -4.05727362e-04 4.34557180e-04 -1.75270383e-04
      5.78485779e-05 -8.84718087e-04 7.71562394e-04 -2.11874765e-04
      -1.36750424e-03 2.32344362e-04 2.00371607e-04 -1.18804826e-06
      -2.50025536e-04 -6.02759837e-06 -1.09891487e-04 -2.45379575e-04
      -2.05269619e-03 4.99814632e-04 2.18091936e-05 1.96802866e-04
      -8.87776143e-04 -8.94406257e-05 4.79746435e-04 1.92213058e-03
      1.11375768e-04 -6.89834415e-04 4.55338042e-04 1.14032638e-03
      -2.29031735e-04 1.86432429e-04 1.83319615e-04 -2.53727101e-03
      5.59953951e-05 5.03387302e-04 -1.31574459e-04 7.86446180e-05
      -2.25822168e-05 1.61126256e-04 -1.49638523e-04 9.66298103e-04
      1.58972351e-03 4.18476062e-04 4.21662407e-04 -1.75761792e-03
      -2.73679500e-04 2.90752883e-04 7.37917726e-04 9.97913419e-04
      -8.99565872e-04 7.55382294e-04 6.82000362e-04 -1.70427933e-03
      -1.98536832e-03 -5.04197262e-04 8.30777222e-04 -2.68943026e-03
      -9.44866624e-04 -2.88388203e-03 -7.17553601e-04 -5.07085526e-04
      -2.35952230e-05 4.88816877e-05 -1.64040201e-03 -1.12289691e-03
      3.03945527e-03 1.27174062e-04 -8.67381968e-05 -4.81760449e-04
      -1.89638662e-03 3.22123262e-04 6.96793664e-04 -2.22581541e-04
      1.32329704e-03 5.52564743e-04 1.60101685e-04 6.90710658e-05
      -1.78851857e-04 -1.51251181e-04 2.74525519e-05 -2.88642535e-04
      6.88302913e-04 5.21640286e-05 1.10345412e-04 1.18443786e-04
      3.83795959e-05 3.06770351e-04 2.46664695e-03 5.81350003e-04
      -5.21530572e-04 3.68204259e-04 8.27688709e-05 6.71239104e-04
      2.41433896e-04 8.29438621e-04 -1.73455221e-04 3.03421984e-04
      -2.69174197e-04 1.81366093e-04 4.12700065e-05 -2.09650298e-05
      4.20387310e-04 9.55471405e-05 1.52445456e-04 1.89935614e-04
      -1.89509941e-03 -8.16232932e-05 -1.16833718e-04 -3.05804075e-03
      7.61126401e-04 -4.23158963e-05 3.90519963e-05 7.03925733e-04
      1.36752881e-03 -7.74386688e-04 -7.51530461e-05 9.71427107e-06
      1.27001223e-03 1.65929134e-06 -2.09719804e-03 1.81247515e-03
      -2.06372910e-03 1.49758719e-03 -2.99551262e-04 3.43154010e-04
      9.20544611e-04 -3.46310699e-04 -2.60573026e-04 -1.20470708e-03
      -1.32015604e-03 1.24795144e-04 1.82708027e-04 -3.32351083e-05
      4.78127040e-04 -6.30527677e-04 -8.97462887e-04 4.12834168e-04
      -3.83807288e-04 2.13586623e-04 -3.25581350e-04 1.43654426e-04
      -1.08164700e-03 7.31995624e-06 2.93998513e-04 -6.52416129e-05
      -8.30467252e-05 -1.55566173e-04 1.13383503e-04 2.97912829e-05
      1.68530503e-03 -5.98141225e-04 6.15293800e-04 -2.79473345e-04
      -1.23864168e-03 2.27544006e-04 -6.55520926e-05 -2.27070108e-04
      -5.49647084e-04 -3.99064535e-04 6.66152220e-04 1.99733913e-05
      1.49003085e-04 1.93717526e-04 -4.89800477e-05 -8.20628266e-05
      1.23658654e-04 -2.21167546e-04 1.27807667e-03 3.11597832e-04
      5.06504963e-04 -5.53669757e-04 4.23691905e-04 -3.16251797e-04
      9.55315263e-05 7.13069923e-04 9.79513788e-05 1.11003930e-03
      6.77611737e-04 1.90461215e-05 1.46012126e-05 9.85169318e-04
      1.08595435e-04 -2.08555168e-04 -1.66945928e-03 8.25260067e-04
      1.98454875e-03 9.96606657e-04 -3.22796783e-04 -1.81588018e-03
      -3.26609210e-04 7.60433832e-05 -1.36768725e-03 7.81225273e-04
      -1.54376181e-03 7.64848373e-04 -3.84948507e-04 8.54422906e-05
      8.42320616e-04 1.26233931e-06 -3.58922128e-03 -2.56109983e-04
      -1.85050082e-03 3.79436766e-04 2.33595376e-04 6.46358298e-04
      -1.04717539e-04 -5.22908231e-05 1.82286953e-03 9.32915602e-04
      -1.47925475e-05 -1.62490236e-04 -3.52998235e-04 2.74779104e-05
      4.90693201e-04 -7.50117470e-05 1.62077107e-04 1.31024490e-03
      1.45523314e-04 -1.28272455e-03 -2.23372135e-05 -1.59537361e-04
      -5.10713377e-04 -2.53832433e-04 -3.62620922e-04 -1.97608396e-03
      6.76840500e-05 -2.72576843e-04 -5.90027121e-05 7.82112475e-05
      1.52606706e-04 -6.00058274e-06 -9.98011819e-06 5.14085463e-04
      1.76393031e-03 9.17521189e-04 -1.58376104e-04 -3.07512411e-04
      7.89955491e-04 -2.98820960e-04 1.49848778e-03 -1.25529314e-03
      -2.19909311e-03 -7.01687764e-04 4.66026104e-04 7.62329946e-05
      2.22671661e-03 -2.39815563e-05 1.73242984e-03 1.12614471e-04
      2.47026933e-03 7.35141162e-04 6.34827884e-04 -1.21028523e-03
      3.44150496e-04 -2.62266371e-06 -1.12748530e-03 -2.27150071e-04
      7.06477091e-04 2.59864202e-04 -2.71217694e-04 -1.29014021e-04
      -1.53294182e-03 5.50919096e-04 5.65167516e-04 -4.66849131e-04
      -9.89269814e-04 1.56320399e-04 -6.39677106e-04 2.26579388e-04
      5.14327221e-05 -1.11725458e-04 3.89265391e-04 4.14538925e-04
      -2.75913603e-03 3.55340104e-04 -2.98072846e-04 4.84584307e-04
      -6.41025428e-04 6.25970279e-05 -1.42108795e-04 -1.07046089e-03
      8.37656145e-04 6.60907768e-04 1.22431711e-05 1.88992231e-03
      -6.11719210e-04 1.06384548e-04 2.33711457e-04 6.11611409e-04
      -2.67172698e-04 -6.21276631e-05 4.67022983e-05 3.52894713e-05
      2.05650926e-04 -1.33482608e-04 3.02337594e-06 2.80087726e-04
      5.81998262e-04 -2.04689265e-03 -6.55532698e-04 -9.86180035e-04
      4.67074715e-04 8.43596295e-04 -1.93747081e-04 1.76867505e-03
      -2.01651244e-04 3.08831542e-04 7.56168505e-04 1.38702744e-03
      -1.20430847e-03 -1.93234463e-03 6.95371011e-04 -2.25207696e-04
      3.31288349e-04 -6.99594442e-04 2.90449546e-03 1.53955960e-04
      8.42785539e-06 7.09255692e-05 -1.73267594e-03 -1.67371682e-03
      1.77209941e-03 5.00000140e-04 -2.67813477e-04 -1.23019418e-04
      2.93559278e-03 -3.02059809e-04 3.59381922e-03 4.15556860e-05
      -6.68831461e-04 1.58450363e-04 -6.90436937e-05 -3.72532115e-04
      4.19824588e-04 -2.53766571e-04 5.89433359e-04 -1.16131450e-04
      -2.31088907e-03 -3.83424012e-05 2.85243848e-04 6.18338163e-05
      -3.70332098e-04 6.65962507e-05 -6.76586700e-04 -6.16695383e-04
      -5.32948237e-04 -8.17812106e-04 -2.00829862e-04 -1.67662496e-04
      1.05350613e-04 -1.70916755e-04 8.11374484e-05 -1.90200075e-03
      -1.28959728e-04 -1.50379841e-04 5.76580605e-05 -1.14474948e-04
      -1.35080545e-05 2.41299960e-04 1.49087660e-04 8.57624855e-06
      5.62458066e-04 -2.09322153e-03 -2.56255240e-04 1.20132550e-04
      2.04179523e-04 3.04318728e-05 1.93815038e-04 1.74049078e-03
      4.13042435e-05 -9.59858953e-05 4.90075035e-04 -3.39805963e-04
      8.67154798e-04 -1.43839594e-03 -5.58791333e-04 4.87284735e-04
      -1.80328079e-03 -1.95001878e-04 -1.22107845e-03 -8.43139249e-04
      -2.64680479e-04 7.35723879e-05 -2.60215111e-05 2.66677525e-04
      6.17486832e-04 -9.87756266e-06 -8.46143230e-05 9.74337891e-05
      1.07830379e-03 -4.49654879e-04 8.32182122e-04 -1.51875103e-03
      -2.03571003e-03 -1.23659163e-04 1.40988093e-04 7.08397056e-06
      -6.77812262e-04 -9.74571376e-05 -3.97057884e-05 5.49711949e-05
      -1.42396556e-03 -8.00588343e-04 -1.77856375e-04 -4.05124156e-04
      3.16590149e-06 -5.05965763e-05 -1.67619917e-04 -3.53340729e-04
      -1.61632721e-04 7.44293618e-04 -1.17713731e-04 8.83733912e-04
      3.01639753e-04 -2.40524154e-04 -4.95181477e-04 2.62463768e-03
      8.72903562e-04 -2.44093448e-04 4.23445854e-05 2.19862632e-05
      -4.40661788e-05 1.00420357e-05 -6.30232738e-04 -1.14166026e-03
      -4.49367915e-04 3.32826888e-03 -1.94873894e-04 -1.10311739e-05
      5.95143531e-04 2.44869094e-04 1.61511078e-03 1.59484392e-03
      -1.97047571e-04 -1.30861765e-04 3.79304285e-04 1.12456479e-03
      3.22563312e-04 -2.25474956e-04 -1.61411986e-03 7.89302401e-04
      -1.47525594e-03 -4.78010671e-03 -9.68161447e-04 -1.35636728e-04
      -5.51435747e-04 -1.57649629e-05 1.52993295e-03 -2.11199326e-03
      3.59737803e-03 3.11567361e-04 -1.24077240e-04 -3.65940708e-04
      3.64077860e-03 2.38418317e-04 3.57467122e-03 3.49255372e-03
      1.95804649e-04 -2.57260719e-04 -5.24723611e-04 -7.19631789e-05
      1.68713144e-04 -2.88064366e-05 -2.64165050e-04 -5.03374671e-04
      1.21572800e-03 1.72845703e-05 -2.22643605e-04 2.67358701e-04
      2.13711336e-03 9.15979253e-05 -4.79828414e-05 1.18152332e-03
      -2.35846639e-03 -4.87584097e-04 -4.74402623e-04 4.34105925e-04
      -2.91122851e-04 2.97530380e-04 8.64051341e-04 -2.47926801e-03
      -5.90441981e-04 -2.55414750e-04 -3.54960393e-05 2.36332853e-04
      7.78375615e-05 -3.86497704e-04 -2.89665099e-04 7.20572483e-04
      -7.61331175e-04 4.11028974e-04 -1.67858350e-04 -6.45014632e-04
      -2.05304197e-04 -9.06573987e-05 1.78130541e-03 -1.15058466e-03
      -1.17859396e-03 -1.39348616e-03 1.12904923e-03 -1.04122388e-03
      -1.99673139e-03 1.34194177e-03 -1.49746414e-03 1.27172319e-03
      1.37428730e-03 -5.60653338e-04 -8.45217553e-04 -5.29752404e-04
      -3.60046361e-05 6.35818942e-05 -4.54585592e-04 3.27318470e-04
      -2.76340684e-03 1.39584910e-04 1.16252071e-04 -2.41919217e-04
      -2.12075701e-03 2.59640830e-04 3.91483016e-04 -1.61999685e-03
      4.08911525e-04 7.06978317e-04 -4.35657683e-04 9.18277219e-05
      -1.57528950e-04 2.39530593e-04 -3.71832284e-04 -5.63334674e-04
      2.43630959e-03 -4.82794348e-05 -1.17718511e-04 -2.97243096e-04
      1.57602585e-03 3.89275701e-05 -2.77189724e-03 7.09743006e-04
      6.46320172e-04 1.04901858e-03 -3.54793883e-04 1.54721050e-03
      2.20713293e-04 -2.12241182e-04 8.15431558e-05 4.59467992e-04
      1.45391416e-04 1.67850420e-04 -6.87235370e-05 4.50225110e-04
      3.83172272e-04 -1.21458172e-04 -3.13823257e-04 8.46121227e-04
      -8.70033575e-04 1.30974688e-03 -2.83818517e-04 4.76844289e-04
      1.72941000e-04 -1.10148650e-03 -1.27459891e-04 7.23826059e-04
      1.31574681e-03 3.11778300e-03 -1.02228113e-03 -8.95847625e-04
      -3.45907733e-06 7.22150289e-05 -1.95404957e-03 -8.01278569e-04
      -1.30823546e-03 8.35114741e-04 1.17540662e-03 -2.91542383e-03
      4.30583983e-04 2.52779253e-04 1.80633110e-03 8.78616993e-04
      -1.22367346e-03 1.19549943e-04 -7.40562900e-05 -3.58818274e-04
      3.92140530e-04 2.32675666e-05 5.95863850e-04 2.53184629e-03
      1.34574380e-04 -7.50975669e-05 -2.12437910e-04 2.94579677e-05
      -8.23939801e-04 -4.36982446e-05 3.66456923e-04 -2.32825056e-04
      -9.84510640e-04 -3.77720171e-05 -4.58550930e-04 5.97935395e-05
      1.69136154e-03 -6.04280212e-04 4.40543779e-04 1.74353214e-03
      -7.50301406e-04 -1.46978954e-03 -7.00953591e-04 -1.63658138e-03
      2.93985533e-04 -2.36286549e-04 -6.28066482e-05 3.04287183e-03
      -4.46842110e-04 2.48825381e-04 -6.09015260e-05 -2.08985919e-04
      -7.23593752e-04 -4.25899576e-04 -6.40856277e-04 7.24046549e-04
      -1.46603736e-03 -2.44600442e-03 -2.50081648e-04 1.08041428e-03
      -4.70272062e-04 6.64341642e-05 -7.04541802e-04 -1.76678738e-03
      4.76915273e-04 5.20744128e-04 1.35894254e-04 -3.91712587e-04
      1.85735151e-03 5.22421731e-04 1.26199832e-03 4.73431282e-04
      -1.33985595e-03 -1.63185108e-03 -1.37532502e-03 1.09252978e-04
      3.49210488e-04 3.43651591e-05 1.79127266e-03 -4.36819100e-04
      6.54421048e-04 -7.83614669e-05 -5.34497551e-04 5.10769023e-05
      -7.39510288e-04 -8.82715904e-06 4.89381142e-04 -1.90003077e-04
      1.60762481e-03 -2.98575440e-04 -3.59242898e-04 2.56619533e-04
      -8.39014014e-04 -3.26491390e-05 -2.35700118e-05 1.31441833e-04
      -8.54459708e-04 2.75798666e-04 -2.33636310e-04 3.10297415e-04
      -7.04962644e-04 2.35951244e-04 -4.53316170e-05 4.28320927e-04
      -1.21259654e-03 -4.34129033e-04 6.42802888e-06 1.17329787e-03
      -3.66995519e-04 3.08172544e-04 1.13866656e-04 -2.48273951e-03
      9.05978086e-05 -2.72948586e-04 1.43620491e-04 -4.53269167e-04
      8.18067178e-08 1.00408943e-04 -2.09512349e-04 4.86097619e-04
      1.01288303e-03 -1.04632648e-03 5.45345574e-05 8.43381800e-04
      5.79857442e-04 -1.21454495e-05 1.13890565e-03 -3.27312853e-04
      1.03558390e-03 1.15601164e-04 -1.70218947e-04 2.68342486e-03
      -9.47062799e-04 -6.83768594e-05 1.06678701e-04 1.01166870e-03
      1.35770091e-03 2.74808728e-04 -5.27497434e-07 -1.70827191e-03
      -3.24493623e-04 -7.76646921e-05 -2.23921263e-03 -8.82189663e-04
      1.27116370e-03 -4.30238812e-04 4.04472725e-04 -2.00074894e-04
      7.82637333e-04 1.09415123e-04 -1.78286608e-03 -1.38932851e-03
      1.00972166e-03 2.73602695e-04 -1.82440446e-04 4.02132602e-04
      8.54473037e-04 6.92540052e-05 2.68188538e-04 5.43157279e-04
      8.01298418e-04 -1.75367386e-04 3.69961752e-04 3.14340461e-04
      1.62900542e-04 -5.00358001e-05 3.77730554e-04 7.15737713e-07
      3.75498057e-04 -9.99760348e-04 5.76800740e-05 1.25829980e-03
      1.32555579e-04 -4.98295296e-04 7.33231427e-04 2.42813505e-04
      2.55241957e-05 2.19908310e-04 1.28547443e-04 -6.72569513e-05
      -4.42621589e-04 -1.28739513e-04 -1.03250053e-03 -1.00980198e-03
      2.64361415e-06 -4.47097787e-04 -7.57514557e-04 1.85938482e-03
      2.97367544e-04 -6.68028893e-04 -2.42562572e-04 1.16738013e-03
      -1.25161151e-03 -1.53639633e-03 4.23670921e-04 -5.84040070e-04
      6.80148718e-04 1.23026688e-03 1.01323088e-03 -3.86887667e-04
      -1.55339914e-03 -2.45434302e-03 3.15686084e-05 -5.23955969e-04
      -7.58161768e-04 2.88895943e-04 3.04634403e-03 3.08095303e-04
      -9.51525406e-04 2.91236822e-04 2.73915968e-04 7.16878858e-04
      6.20448496e-04 -5.56660001e-04 9.22478444e-04 -5.72019198e-04
      6.97625743e-04 -2.24571704e-04 -1.06489688e-05 4.29683219e-04
      6.00420346e-04 3.40479310e-05 -6.92271977e-04 7.63047319e-06
      1.04391387e-04 -2.23029172e-04 2.71302328e-04 -1.10989065e-04
      3.76612559e-04 -3.07940558e-04 -6.69543108e-04 -3.24240063e-05
      -1.64091040e-03 -1.47864528e-04 1.70151674e-04 2.03777477e-03
      -7.91263228e-05 2.27436511e-04 8.40390785e-05 -1.29068526e-03
      -1.45428830e-05 -3.42509156e-04 -1.38940712e-04 -1.27966501e-04
      -9.68353270e-05 -4.91178129e-04 2.96092097e-04 -6.67362532e-04
      2.15232093e-03 3.51627736e-04 -2.83497386e-04 -1.89563213e-03
      3.25548055e-04 5.71306737e-04 -4.72754793e-04 -3.68701985e-05
      -8.57173814e-04 -1.42734183e-03 -6.81767007e-04 -6.24004402e-04
      1.11910806e-03 3.48481553e-05 1.71646499e-03 2.85015092e-03
      5.72657213e-04 -1.32012169e-03 -1.27206114e-03 -1.13336171e-03
      -2.74131802e-04 -6.81868289e-04 9.85199935e-04 -4.17001545e-04
      1.56388269e-03 2.13903593e-04 7.44163059e-04 5.34450868e-04
      -1.19451969e-03 -3.84661165e-04 -1.61046430e-03 -1.00292871e-03
      -6.00935891e-04 2.51488935e-04 1.32754532e-04 1.20654113e-04
      7.72559491e-04 2.36641004e-04 2.23665993e-04 2.15720123e-04
      -2.42604932e-04 4.64746990e-04 -1.84017495e-04 2.12445899e-04
      2.09701480e-04 2.20349728e-04 -6.90715620e-04 -1.72945531e-03
      -1.18211201e-05 1.78235269e-03 -2.85939808e-04 4.71052219e-04
      1.81833253e-04 -5.19850873e-04 -2.51553138e-04 2.05803317e-05
      3.40821600e-04 -1.20113742e-04 1.28550120e-04 -3.33463104e-04
      2.10069309e-04 5.04650467e-04 -5.01700997e-05 9.95788258e-04
      1.23475888e-03 1.08515937e-03 -9.40151585e-05 -1.22659083e-03
      -6.31102535e-04 1.76852845e-04 1.27519845e-04 -1.84342999e-03
      -3.26141715e-04 -5.16398111e-04 8.99021456e-04 7.21527380e-04
      -1.22236652e-05 2.99773292e-05 2.25344836e-03 1.22713871e-04
      -8.81689542e-04 1.50066055e-03 4.94152831e-04 1.97657757e-03
      1.29909022e-04 1.70628173e-05 -1.31517721e-04 -1.92290731e-03
      -7.67896301e-04 -3.12205317e-04 -3.03256063e-04 4.45397367e-04
      -1.03187398e-03 -1.76263085e-04 1.53104041e-03 9.20507475e-04
      -8.09288351e-04 3.76145763e-04 6.55237163e-05 1.84591714e-04
      -3.62837134e-04 8.73625540e-05 5.04794705e-04 -3.47344525e-04
      7.03290745e-04 5.29682904e-04 7.23956909e-05 2.69365089e-04
      1.99198793e-03 8.74562102e-05 -1.37873145e-03 -1.44138956e-03
      -8.00090318e-04 -1.78721535e-03 -3.16500373e-04 -3.02146981e-03
      5.28853561e-04 -2.51604710e-04 -7.13027548e-05 2.06947746e-03
      1.94553621e-04 -3.03901616e-04 8.05566524e-05 -1.50642853e-04
      -1.22407864e-05 -1.50049120e-04 3.88708373e-04 3.77969627e-05
      2.30725418e-04 9.10378236e-04 2.96014128e-04 -2.43456056e-03
      -1.40466596e-04 -6.88778018e-05 8.45277566e-04 5.62128029e-04
      4.97911707e-04 4.42882883e-04 1.20084973e-04 -1.10379700e-03
      8.74599325e-04 -1.35609170e-03 1.14599161e-03 7.22166093e-04
      -1.08674623e-03 9.10050061e-04 -1.70174241e-03 -8.61574896e-04
      1.25128322e-03 4.55137080e-04 1.81899965e-03 -2.35181837e-03
      -8.69124779e-04 -3.34675482e-04 4.41527052e-04 -2.75984901e-04
      -1.13320106e-03 2.11174702e-04 -9.33736970e-04 -6.14251767e-04
      -1.23522163e-03 1.84034012e-04 -1.08467844e-04 3.88198649e-04
      -2.69762822e-04 1.94913337e-05 -5.19127934e-04 4.23363053e-05
      -4.69679770e-04 2.64405418e-04 -1.70684798e-04 -3.91229056e-04
      6.19533530e-04 2.80574168e-04 -5.22612354e-05 6.83874940e-04
      2.12013605e-04 -7.99775415e-04 3.09648603e-04 4.64754819e-04
      4.41710756e-04 -4.73370106e-04 9.51638867e-05 1.16161897e-03
      -1.84545439e-04 -4.62467928e-04 -2.67707583e-05 1.36214367e-04
      4.53916262e-04 2.61088513e-04 2.64477654e-04 -3.47839668e-04
      4.52403401e-05 4.34382673e-04 -1.24072059e-04 1.35427550e-03
      -1.23421152e-04 -1.93862492e-04 -1.89856553e-04 6.80393889e-04
      1.21857820e-03 -1.53774582e-03 5.04215772e-04 -3.42305982e-04
      -3.65598476e-04 3.76978249e-04 1.23763666e-03 1.32799498e-03
      -2.93637331e-05 1.01404299e-03 6.77877688e-04 -1.23321579e-03
      -8.96932092e-04 7.64782671e-05 -2.16803164e-04 -1.38229248e-03
      1.40716368e-03 7.47787853e-05 -5.06320153e-04 2.55519204e-04
      4.48910840e-04 -1.55945701e-04 2.41717978e-04 -1.28132803e-03
      2.15998560e-04 -3.08774324e-04 4.88822872e-04 7.72810890e-05
      -4.17342701e-04 1.14051390e-05 4.18506155e-04 -2.10055980e-04
      8.29227269e-04 3.64570005e-04 -4.63920558e-04 3.62822262e-04
      -4.63973614e-04 4.03067534e-04 -2.31912779e-03 4.44629695e-05
      -1.12681370e-03 3.94183386e-04 6.69898000e-04 6.27422996e-05
      2.92176352e-04 -5.39296190e-04 -1.96747151e-05 1.19615113e-03
      -4.90180682e-04 5.15773936e-05 -1.32535628e-04 -9.10544040e-05
      -4.95100161e-04 -2.12137747e-04 -2.75303028e-04 5.97707403e-04
      -1.10837317e-03 1.28378964e-03 2.21376424e-04 -9.48741741e-04
      2.98043247e-04 7.30952830e-04 5.21107228e-04 7.02717691e-04
      1.01104251e-03 -9.21238388e-04 -3.17838305e-04 -1.06066720e-04
      -8.84309702e-04 -1.88693768e-04 5.07137680e-04 1.78949744e-03
      4.99300077e-04 -8.01750110e-04 -1.39000214e-04 8.54168378e-04
      -1.62421179e-03 6.97558380e-06 1.41605397e-03 -8.44517024e-04
      9.61189944e-05 -3.49574810e-04 -2.60768120e-05 -1.04610343e-04
      2.04780698e-03 -1.05996398e-04 5.25470183e-04 1.25379593e-04
      -9.47138586e-04 -1.66497593e-05 3.33026750e-04 -9.60508332e-05
      -3.77662975e-04 -1.44931924e-04 -8.76588092e-05 1.18050433e-04
      3.79829406e-04 -1.20627243e-04 7.84266740e-05 6.24429260e-04
      2.54581403e-03 -4.59062256e-04 -1.07716897e-03 -2.04639672e-03
      1.52928449e-04 -1.29151880e-03 1.14140254e-04 1.46056278e-04
      1.64800367e-05 1.56382259e-04 6.01374602e-04 -5.11214079e-04
      -1.06848733e-04 3.96766176e-04 4.93300759e-05 -2.21192749e-04
      -2.75833940e-04 1.74241562e-04 9.05730121e-04 -5.11626931e-05
      -1.37230242e-03 2.15035019e-04 3.55101482e-04 -7.71540741e-04
      3.19532592e-05 -2.52751051e-04 -1.52062057e-04 -1.20726658e-03
      1.23943039e-03 -1.51873310e-03 -1.40410237e-04 1.33684010e-03
      2.07747612e-03 1.07420911e-03 -1.17394142e-03 -2.78461695e-04
      -1.57816370e-03 1.52704865e-03 1.07978459e-03 -1.40465493e-03
      1.03268796e-03 -4.92720574e-05 -2.51711020e-03 -6.47503766e-04
      3.23672080e-04 3.44113869e-05 -5.28523815e-04 1.49683459e-04
      2.05188780e-03 -8.53324891e-05 4.29108884e-04 7.89119687e-04
      -7.33101799e-04 -2.10690647e-04 -1.21749850e-04 2.46251642e-04
      9.35066608e-04 2.79931282e-05 -3.51083872e-04 -9.90498884e-05
      -1.97093235e-03 1.38066403e-04 -5.41298359e-04 -1.58108291e-04
      2.88530515e-04 7.53655797e-04 1.67035626e-03 8.18932822e-05
      4.45806159e-04 -1.37458032e-04 1.42514458e-04 -2.59116117e-04
      -5.32190315e-04 -7.01712037e-04 2.10197075e-04 -1.56715419e-03
      -2.22867908e-04 -7.25788123e-05 6.49168578e-05 3.57884128e-04
      -1.55388538e-04 2.54667830e-04 4.19640914e-04 -1.54067180e-03
      1.16782170e-03 5.22485236e-04 1.10031433e-04 -6.74094015e-04
      2.44523428e-04 4.42975987e-04 4.78419315e-05 7.83752825e-04
      -2.04595318e-03 5.32243692e-04 -2.90631608e-04 4.51864995e-04
      -9.90401488e-04 -7.99673726e-05 1.54174084e-03 9.66633554e-04
      -1.16522599e-03 -1.04868808e-03 1.86929991e-03 -1.02671496e-04
      8.05804666e-05 2.22699804e-04 1.23355724e-03 1.99967588e-04
      1.11820071e-03 1.09302047e-04 -2.56159314e-04 -1.24518017e-04
      -9.48379224e-04 5.23296258e-05 -2.99167266e-04 9.98741947e-04
      -1.27486512e-03 1.21563644e-04 -8.82607419e-05 6.79506848e-05
      5.50513098e-04 -1.56152746e-04 8.74960329e-04 -4.40331496e-04
      -1.40898395e-03 1.87632777e-05 2.68783013e-04 1.10980247e-04
      -1.65154983e-04 3.49092908e-04 -1.30826177e-03 1.41901488e-03
      3.71870818e-04 -3.55568714e-04 -3.09547904e-04 -1.71805324e-03
      1.45351121e-04 -4.91515966e-04 -1.57236311e-04 5.90454380e-04
      2.82479770e-04 3.29563598e-04 1.13236689e-04 5.71009819e-04
      -1.71069201e-04 6.27031186e-05 -3.35106277e-04 1.25867140e-03
      -1.87274141e-04 5.62768371e-04 5.58503787e-04 6.07288384e-04
      -1.80374918e-04 1.31059947e-04 2.82929628e-04 -1.47859182e-03
      9.34318581e-04 -6.41543767e-04 -4.19216412e-05 -6.85648702e-04
      5.77811443e-04 -1.83966034e-03 -1.05084979e-03 1.38446037e-03
      1.80819887e-03 5.05035452e-04 1.20239647e-03 2.99233571e-03
      -2.79724536e-05 5.44603798e-04 -3.11732816e-04 2.28242076e-04
      1.23411010e-03 -5.42547961e-04 -8.22412025e-04 4.37608309e-04
      -1.30909088e-03 2.09527585e-04 3.69553978e-04 -4.01061552e-04
      -1.21401181e-03 3.34318553e-04 3.59123282e-04 -9.77152886e-05
      6.94441202e-04 -1.47673045e-05 -1.24491431e-04 -1.22600628e-04
      -9.66342748e-04 4.78045316e-04 2.29885394e-04 4.59408056e-06
      -1.77618043e-04 -2.40357185e-05 -1.68738910e-03 -6.24917971e-04
      -6.38759055e-04 -1.51107833e-03 5.59605134e-04 -3.70957330e-03
      4.28836414e-04 -1.08219530e-04 2.41005226e-04 -3.14510922e-04
      1.92897845e-04 -2.50773912e-04 -9.49023706e-06 7.84362725e-04
      -2.53177597e-04 -5.80677006e-04 -6.89605717e-04 -3.38723854e-04
      1.25645613e-03 -8.74010206e-04 3.25094952e-05 3.27379181e-04
      5.51627600e-04 1.61974705e-04 -3.04154295e-04 1.21465581e-03
      2.38939774e-05 2.57524289e-03 1.24900238e-04 -5.07959572e-04
      -6.37453981e-04 -1.90335489e-03 6.50484930e-04 3.42377403e-04
      4.10104985e-04 -5.22279821e-04 1.25667534e-03 2.05673883e-03
      9.89269000e-04 6.55682234e-05 -7.18666299e-04 4.86134610e-04
      -6.69726869e-04 6.95075491e-04 -6.10652904e-04 1.46219490e-05
      1.67710287e-03 2.56373401e-04 -4.26064711e-03 -3.04260961e-04
      1.12367619e-03 -6.26384048e-04 -1.16487106e-04 -6.58692501e-04
      -4.72333959e-05 -1.03055645e-04 9.12167307e-05 2.31680198e-04
      1.48391374e-03 -1.26991712e-04 3.18848935e-04 1.21686528e-04
      1.29925204e-03 -3.34123848e-04 8.04089010e-04 -1.28678384e-03
      -1.74303605e-05 3.77142394e-04 -2.23189432e-04 -7.07610045e-04
      -9.49419991e-05 2.96835409e-04 8.45160219e-04 1.74056669e-03
      -1.04058876e-04 -3.29952491e-05 -3.31108095e-05 6.63842075e-04
      -6.52138842e-05 -3.99523327e-04 -8.32414514e-07 3.29683651e-04
      -1.84550008e-03 -2.21235165e-03 -5.94285782e-04 9.71717527e-04
      6.19498082e-04 1.77431648e-04 -4.89710073e-04 -7.68152589e-04
      -1.82209571e-03 -1.03004975e-03 2.51471763e-04 -1.00088643e-03
      -2.15313659e-04 5.67666837e-04 2.25246884e-03 -4.32274886e-04
      -5.25370124e-04 3.21137661e-04 9.59666970e-04 1.85482507e-03
      8.85943591e-05 1.30750588e-04 1.73492648e-03 -3.34068737e-03
      2.99658568e-04 -2.02060000e-05 -3.34247190e-04 -4.81645460e-04
      1.23261753e-03 -2.33203333e-04 5.78793231e-04 9.81760793e-04
      1.22006156e-03 1.23826132e-04 5.60171538e-05 1.41691125e-04
      -5.67396404e-04 -8.11288046e-05 -2.66808802e-05 -1.26968071e-05
      -7.38199102e-04 -1.05956518e-04 1.43758007e-04 -3.95460840e-04
      -3.00175598e-04 -3.31813266e-04 -1.90457751e-04 1.28059459e-04
      4.56805079e-04 2.03289557e-03 7.65704433e-04 -2.69331574e-03
      -1.52179462e-04 7.71076011e-05 7.60700263e-04 1.26945146e-03
      -4.87790567e-05 -6.40721235e-04 -8.25885509e-05 2.20992413e-04
      -4.11061728e-06 -2.41091748e-05 -3.50377464e-04 5.07129065e-04
      -1.89130424e-05 9.06530549e-05 4.17082483e-05 -4.77160327e-04
      -3.99380573e-04 -6.96040574e-04 -1.54970936e-03 -7.99571979e-04
      9.81823774e-04 -8.62317742e-04 1.16334732e-05 -1.15410199e-04
      -8.22992937e-04 3.01407010e-04 4.76694375e-04 -5.67847106e-04
      -1.69831561e-03 9.52048940e-05 1.06413488e-03 6.39580365e-04
      5.17380191e-04 5.13392035e-04 7.95903616e-04 -1.17310951e-03
      -4.75481706e-04 -4.94244086e-05 1.47934086e-04 2.79398082e-04
      6.57038472e-05 2.22558563e-04 -1.16098940e-03 6.84241124e-04
      -1.67017477e-03 3.20326108e-05 -2.73011887e-04 -1.33999041e-04
      -5.24540897e-04 -9.82496204e-05 6.77423086e-04 8.53129313e-05
      -1.33920577e-03 1.61512653e-04 1.05069928e-04 -1.24238926e-04
      -3.69985774e-03 -1.01664373e-04 2.19137664e-03 -4.93339685e-05
      -2.40540307e-04 1.16128777e-03 -1.16542052e-03 1.39357471e-05
      -2.75666593e-04 2.68353906e-04 3.83321109e-04 1.43880933e-03
      4.03148821e-04 1.00778103e-04 4.57374590e-05 -4.80404327e-04
      3.46321642e-04 -1.98915426e-04 -1.18268283e-04 5.98838611e-04
      2.97351438e-03 1.13699411e-03 -3.48896952e-04 1.17094559e-03
      -5.45403804e-04 -2.47960212e-04 -2.12115905e-04 -1.96463341e-04
      -1.77818001e-03 7.52278429e-04 3.25559726e-04 -8.99011327e-04
      2.77444581e-03 -8.66032322e-04 6.40914484e-04 -2.66846735e-03
      1.05917722e-03 -1.43274653e-03 5.95635269e-04 1.52672443e-03
      -1.93046976e-03 1.95025568e-04 -9.39843652e-04 5.59550244e-04
      -2.50354712e-03 2.06331199e-04 7.49768151e-05 4.69318002e-05
      -6.10883755e-04 3.55979777e-04 1.27689610e-03 1.81015092e-03
      5.65684808e-04 -6.17315745e-05 5.65722003e-04 1.03792598e-04
      -3.18106875e-04 -6.41396691e-05 -4.54447465e-04 -8.04982032e-04
      -4.60448588e-04 1.05425781e-04 7.66622485e-04 2.69309967e-04
      -1.03591045e-03 1.03086088e-04 -5.75101643e-04 2.10357504e-03
      -1.42491132e-04 4.22888552e-04 -1.00650440e-03 -3.50416917e-03
      1.03298080e-04 3.66173015e-04 6.36212062e-05 -8.25972704e-04
      -1.89480968e-04 -7.59598479e-05 -5.60609515e-05 5.78805921e-04
      4.69436964e-05 -5.89391675e-06 -2.72874924e-04 -2.28622571e-06
      -2.02637888e-03 1.53986108e-03 8.44994502e-04 1.92624528e-03
      8.28847580e-04 -4.12047259e-04 -1.42259267e-03 -2.24858697e-04
      -3.02596563e-05 -2.84499198e-04 -9.82179699e-06 5.91946591e-04
      7.94625957e-04 -2.62748596e-04 -1.01804349e-03 2.56645377e-03
      5.42679103e-04 -3.61965678e-04 4.90848965e-04 1.73874956e-03
      -2.16473918e-03 -1.95339540e-04 -1.87795027e-03 -2.98758911e-04
      -1.39604136e-03 1.76040980e-04 -2.59710243e-04 3.09621100e-04
      1.28144294e-03 3.21721018e-04 4.17291565e-04 -4.10605207e-05
      8.84390785e-04 -3.12079414e-04 -4.61037271e-05 1.00743091e-04
      1.25582141e-04 -5.42070375e-05 1.92524793e-04 -7.51036932e-05
      9.34711890e-04 -2.74162187e-04 3.85900465e-04 -1.16450246e-04
      -6.86758489e-04 -1.48346880e-04 9.34518583e-04 8.28729942e-04
      -7.11766770e-04 -2.69558071e-03 -5.76423481e-04 -1.85517839e-03
      6.46724191e-04 -9.14812044e-05 8.52283774e-05 4.45286324e-03
      -1.77995651e-04 3.10735195e-04 1.20583572e-04 3.60101549e-04
      -2.13144740e-04 -2.17419860e-04 -6.76906144e-04 1.16130442e-03
      6.11282157e-05 8.88569746e-04 -2.77122221e-04 -3.52494000e-03
      -6.27030211e-04 5.46798656e-05 5.64060814e-04 1.30055728e-03
      -1.70926767e-04 7.30220811e-04 -1.18030162e-04 -1.76399088e-04
      5.59225155e-04 -1.06093031e-03 1.68928434e-03 -1.17071043e-03
      -5.44062583e-04 -7.14761554e-04 -3.00532067e-03 1.15105347e-03
      9.24688880e-04 -1.99043789e-04 2.95124506e-03 3.51123069e-03
      -7.84243864e-04 2.17116540e-04 1.36319504e-04 2.78606429e-04
      -1.93354324e-03 -1.94614749e-05 1.42715304e-04 -1.27626909e-03
      1.76554313e-03 -4.63106087e-04 -1.56752765e-04 -2.49811186e-04
      -4.82422853e-04 1.39190834e-05 -3.40859377e-04 2.72665377e-04
      7.38374190e-04 -4.07588348e-04 4.49265266e-04 -3.22711188e-04
      1.62312121e-03 2.62479502e-04 -9.58975870e-04 2.59259599e-04
      -5.25096257e-04 7.20308672e-05 4.06745035e-04 -2.50594632e-04
      2.72531965e-04 1.14551949e-04 -7.76919827e-04 2.60412897e-04
      -1.63463148e-04 8.71674856e-05 -5.06046563e-05 -1.43904443e-04
      2.98572297e-04 -1.20709854e-04 -4.19935895e-05 -4.37808805e-04
      -8.09708785e-04 6.11004943e-04 -8.56591854e-04 -1.06884388e-03
      -4.36253351e-04 -9.03685359e-05 -3.03182227e-04 -1.90433802e-03
      1.14571082e-03 6.85784908e-04 -5.34767423e-05 -1.26347120e-03
      -7.81256414e-04 9.56677541e-04 7.15837930e-04 1.61288830e-03
      9.38205980e-04 4.35037742e-04 3.09392606e-04 1.38287130e-03
      -1.69740699e-04 1.88667487e-04 1.99827389e-03 1.86851516e-03
      -1.06687064e-03 5.96116188e-05 3.04414396e-04 1.91564817e-04
      -3.70944937e-04 -6.12039094e-06 -5.34245512e-04 7.80295813e-04
      -2.35269094e-04 5.41410001e-04 -2.04521537e-04 -2.27533921e-04
      3.07702023e-04 -1.37667084e-05 3.22650274e-04 -2.29187528e-04
      -2.64642318e-03 -5.95560588e-04 -4.65224148e-05 8.56633196e-05
      6.20353909e-04 1.52997527e-04 6.47362322e-04 2.91638164e-04
      -1.40715754e-04 -3.25918918e-05 1.50521751e-04 -2.05126079e-03
      5.70001663e-04 -4.59653093e-05 -2.23186507e-04 4.82033298e-04
      3.06780508e-04 -9.64089049e-05 6.65003972e-05 -3.15631856e-04
      -1.63119694e-05 -1.19062715e-04 1.56109760e-04 6.22328080e-05
      -1.70136977e-04 -2.27494910e-03 1.80776333e-04 1.05628429e-03
      1.46027945e-04 -1.89955550e-04 -1.25805615e-03 -9.54366813e-04
      3.45786335e-04 8.74683086e-04 9.73620045e-04 -2.11121282e-04
      -1.41467759e-03 -4.67962818e-04 -1.42363657e-03 9.54719028e-04
      1.70877669e-04 -3.33022152e-04 -5.31774655e-04 -1.17112533e-03
      1.47058396e-03 2.59909168e-04 -7.26200524e-04 1.10057916e-03
      -9.05126217e-06 4.25462349e-04 3.98026983e-04 -5.67578769e-04
      -1.24609843e-03 -1.40117103e-04 -1.39756943e-04 1.33156730e-03
      1.02054118e-03 -2.58839718e-04 -4.10352686e-06 4.21188888e-04
      4.43791883e-04 -1.05418942e-04 -2.68273667e-04 3.89353489e-04
      -1.55054964e-03 2.45147588e-04 -1.57850038e-04 -1.66641199e-04
      9.53689101e-04 -3.44979228e-04 -8.87467468e-05 7.91268540e-04
      7.33528112e-04 -5.06346289e-04 6.55109994e-04 7.27680745e-04
      -5.97180624e-04 1.64527286e-04 -1.17026502e-05 1.92285806e-04
      -2.02407682e-04 -1.59395524e-04 7.65244258e-05 1.16290328e-04
      2.73197802e-04 3.35372868e-04 4.38611693e-04 -1.28953264e-03
      -1.31764127e-05 -8.65428767e-04 -1.07134564e-03 1.97103689e-03
      -2.62867339e-04 -1.14525121e-03 2.23300580e-04 1.71571283e-03
      -1.52550486e-03 -1.34775112e-03 2.57898973e-05 2.29021709e-04
      9.12803283e-04 4.92838677e-04 -2.36849257e-04 -1.66075223e-03
      3.07181821e-04 -7.76757661e-04 -1.00329555e-04 -8.28759454e-04
      -1.18314102e-03 3.40574858e-04 7.79475493e-04 -1.73810299e-03
      2.25299760e-03 -6.29425282e-04 -9.91383931e-05 7.21923643e-05
      -5.81421264e-05 6.56238873e-04 -2.84318434e-04 6.51757466e-04
      7.64132885e-04 2.52883532e-04 1.98780908e-04 -1.18558026e-04
      7.11524219e-04 -1.47618790e-04 -1.22151658e-04 -3.20178922e-04
      1.31393579e-04 8.53372214e-04 -5.55247883e-04 -5.11046419e-05
      1.48759142e-03 -6.04649598e-04 1.81905154e-04 1.03925052e-03
      -3.22605920e-04 -9.81105841e-04 -3.46379529e-04 1.58570314e-04
      2.57481734e-04 -8.28587727e-05 -6.66685344e-04 -4.01438010e-04
      1.12215290e-04 6.31565927e-04 3.31334450e-05 -1.44209029e-04
      1.07620137e-04 -8.35000683e-05 9.08314250e-05 3.57512938e-04
      -3.23141110e-04 -2.81285873e-04 3.61928076e-04 -1.57892879e-04
      3.38701182e-04 -1.04038767e-03 -7.62232085e-05 1.80283177e-03
      -4.10013337e-04 -1.03158607e-04 3.33216740e-04 -4.63221659e-04
      -9.99871525e-04 -9.01178981e-04 7.39435316e-04 -6.03515189e-04
      -2.98654573e-04 3.01183725e-04 1.32642360e-03 1.56042201e-03
      1.18076149e-03 -1.87092126e-04 -1.30790053e-04 -1.39620015e-05
      7.39518204e-04 3.07032518e-04 1.39694574e-04 -5.05466945e-04
      -1.39686360e-03 3.57785844e-04 -5.90402517e-04 4.27000312e-04
      -5.03621763e-04 1.62496275e-04 1.27802356e-04 -6.21325627e-04
      -7.25859078e-04 -2.72169884e-04 2.49329663e-04 -4.88971302e-04
      -5.59150940e-04 -1.42831617e-04 9.32805269e-05 -2.98032974e-04
      -1.52099202e-03 2.40894602e-04 1.35625410e-03 1.14393816e-03
      1.06416328e-03 -3.15464148e-03 3.47698980e-04 -2.54257512e-03
      1.55379617e-04 9.37248406e-05 -5.63107606e-04 -1.29801614e-04
      -2.18136207e-04 1.72796412e-04 -1.34952415e-05 5.28613309e-05
      9.51019902e-05 1.88503138e-04 3.33557924e-04 1.69174164e-03
      -3.51436291e-04 1.50806643e-03 -4.12756955e-04 -8.79838539e-04
      -1.13510185e-04 -3.66159948e-04 -9.48642730e-04 2.77368905e-04
      2.69088824e-03 -1.73076324e-03 -1.87060257e-04 4.58692288e-04
      6.70869136e-04 -8.58650310e-04 -1.24369934e-03 2.45523010e-03
      1.55442103e-03 -7.76248926e-04 -6.82256301e-04 2.52727623e-04
      -1.77244283e-03 2.58274784e-04 8.90113763e-04 -8.98437924e-04
      7.88953970e-04 -7.86954188e-05 5.72820834e-04 -4.07888365e-05
      9.05446504e-05 2.77155923e-04 1.04200991e-03 -1.40761651e-04
      -1.62104436e-03 1.55330281e-06 5.61789086e-04 -4.19312360e-04
      3.96486721e-04 -3.03956131e-05 -1.47842584e-04 -8.95474659e-05
      -2.83024128e-04 9.95031587e-05 -4.99157002e-04 -1.89365615e-04
      -4.91381725e-05 -1.20726087e-04 1.81975251e-03 4.29454813e-04
      1.02347764e-03 -2.22931791e-04 1.56035647e-04 2.40175403e-03
      6.86225714e-04 -8.84193432e-05 2.64260976e-04 2.89101736e-04
      -4.59155533e-04 5.89596930e-05 -2.26698423e-04 -1.16952535e-04
      -6.16806617e-04 -5.60485700e-04 -2.31498954e-04 -1.89890864e-03
      1.11341919e-03 -8.02721537e-04 1.25639094e-03 -5.74730686e-04
      7.22521654e-05 5.75672530e-05 8.75248516e-04 -3.33319680e-04
      9.83538921e-04 -3.00239655e-04 -1.05314957e-05 -3.89033841e-04
      -4.71565290e-04 -1.51897792e-03 -1.46543921e-03 -1.46192309e-04
      2.83388211e-03 2.26479000e-03 -9.99437063e-04 9.37793739e-05
      -2.01563362e-05 -8.57857667e-05 -5.35298605e-04 -1.82203262e-03
      -2.00209251e-04 5.28893434e-04 8.80187217e-05 -4.48292267e-05
      -3.32408515e-03 3.69620073e-04 -8.54437414e-04 -9.65697574e-04
      6.73189643e-04 -3.52764037e-04 -2.31681304e-04 2.41421847e-04
      -2.54283164e-04 -2.24083939e-04 -8.02887836e-04 -3.42763553e-04
      -1.05457089e-03 1.82680160e-04 -2.29466285e-04 -2.46503449e-04
      1.24175707e-03 4.52201144e-04 7.29046238e-04 2.41607777e-04
      9.70267574e-04 8.76592065e-04 -6.67138433e-04 -1.48218288e-03
      -5.56645449e-04 1.33196532e-04 -6.86372514e-04 1.52000086e-03
      1.51184824e-04 4.51319560e-04 6.95385679e-05 -2.65472947e-04
      1.11670204e-06 -1.60221462e-04 -2.21713533e-04 -4.40648510e-05
      8.69538810e-04 2.16371060e-04 7.47121958e-05 -6.94946386e-04
      -1.10611640e-04 -9.07137564e-06 -1.82118456e-04 -8.08676050e-05
      1.11767884e-04 1.10477314e-03 3.33927863e-04 2.31974619e-03
      -5.97834180e-04 7.90952981e-05 3.51386989e-04 -1.22518896e-03
      1.36389164e-03 -1.65468804e-03 7.74055312e-04 -6.79553836e-04
      1.84419367e-03 -3.29242393e-05 9.87054198e-04 -2.26709293e-04
      -5.07126446e-04 -4.32578272e-05 3.51014489e-04 7.04213089e-05
      7.34207802e-04 2.75395258e-04 -1.23355305e-03 -2.13270090e-04
      7.73748441e-04 -5.81498280e-05 -3.37688136e-04 5.36197680e-04
      -7.84505537e-05 -8.17445616e-05 7.33743291e-05 2.19473703e-04
      2.47370661e-03 -3.28242459e-04 -3.13909637e-04 8.03883813e-05
      6.24145672e-04 5.11042454e-05 -2.01817043e-03 3.23229433e-05
      -7.35856767e-04 -2.26815068e-03 8.39258253e-04 -2.89968471e-03
      1.96439607e-04 5.04709082e-04 -5.21589362e-04 -5.41004993e-04
      -4.99469679e-05 -2.17697685e-04 -3.81100544e-05 8.44420108e-04
      3.22094304e-04 -3.00546031e-04 6.90371264e-04 -3.63082654e-05
      -1.39882229e-03 2.10917275e-03 1.51304470e-04 1.26752246e-03
      4.94444903e-05 6.63751620e-04 -6.23658707e-04 1.19404314e-04
      3.40108119e-04 -8.53611215e-04 -6.01893516e-05 -1.62169192e-04
      1.00323826e-03 -3.20891239e-04 -1.80825649e-03 2.77997548e-04
      -8.79069674e-04 7.23474484e-04 -1.06462697e-03 3.04503087e-03
      -1.45898305e-03 -4.15241375e-04 9.97796771e-04 -7.86519318e-04
      -3.15963407e-04 1.15186027e-04 -1.69980194e-04 4.68858838e-04
      -4.75910580e-04 -2.31124621e-04 -2.07799929e-03 -4.63555072e-04
      -5.18949237e-04 -3.08816729e-04 -8.89526291e-06 2.59511813e-04
      -2.23861702e-04 4.01729812e-05 1.52154535e-05 2.43039263e-04
      4.04577091e-04 1.54204645e-06 4.00744029e-04 -2.10495593e-04
      1.74923707e-03 -6.30326613e-05 -1.91775197e-03 -5.60387911e-04
      -9.00983054e-04 1.27694957e-05 1.29467750e-03 1.10762412e-04
      -6.91350579e-05 -1.50474705e-04 3.81928839e-04 -1.11260638e-03
      1.64635159e-04 -9.13683616e-05 -2.42385358e-05 -4.10558452e-04
      3.19131475e-04 -3.76201388e-05 1.09992914e-04 -1.15013716e-03
      1.97451649e-04 -1.54148298e-03 2.81064509e-04 4.14106733e-04
      -1.44715872e-04 -3.30160328e-05 -6.68169814e-05 1.13636977e-03
      -1.76778447e-03 8.02262570e-04 -4.56935086e-04 1.05805276e-03
      3.84427665e-04 1.66921387e-03 2.40072189e-03 9.07081936e-04
      -1.87782207e-04 1.29503023e-03 -2.57106352e-04 2.16968544e-03
      6.15098630e-04 -5.47389966e-04 1.59052294e-03 1.45086600e-03
      9.05938330e-04 3.01172084e-04 -1.89763537e-04 5.41081354e-05
      5.44407812e-04 6.95320123e-05 -8.93167395e-04 7.90648919e-05
      -1.45518850e-03 -1.33610782e-04 2.72265141e-04 -4.45702433e-04
      -7.00302407e-05 5.57956992e-05 -2.87852075e-04 2.66293937e-04
      5.79174259e-04 1.45235055e-04 1.72040222e-04 -4.43960074e-04
      -4.95833869e-04 2.21222217e-04 9.87862935e-04 7.39783922e-04
      -8.23441253e-04 1.30140514e-04 -3.12564487e-04 -1.36822765e-03
      8.39846107e-05 7.49827450e-05 1.47100975e-04 -2.74485350e-03
      -3.66670138e-04 7.76554079e-05 -6.28940370e-07 -1.54765294e-04
      -3.29981813e-05 -1.55987786e-04 3.00550164e-05 5.36138657e-04
      -4.16422001e-04 1.22935278e-04 2.01593488e-04 -1.19412586e-03
      8.33059530e-05 1.37702067e-04 -3.67237662e-05 -7.74543907e-04
      1.33807061e-03 3.45053879e-04 2.66333664e-04 -4.97927067e-05
      -1.38865958e-03 -5.84767258e-04 -1.17722130e-03 8.99628387e-04
      1.32982724e-03 -6.25020111e-05 -4.21739300e-04 1.40079297e-03
      5.45500428e-04 -3.91127134e-04 2.58058263e-03 3.20918916e-04
      9.89819993e-04 1.82120944e-04 2.49077653e-04 -3.95640673e-05
      -2.90256226e-04 -5.92256656e-05 -1.05455623e-03 -2.95329140e-04
      -7.93809071e-04 3.89242021e-04 -1.04589035e-05 3.14780336e-05
      2.08934725e-04 2.50474241e-05 8.02887778e-04 8.71143056e-05
      -4.97643137e-04 4.05528699e-04 1.74643836e-04 5.20102876e-05
      2.91248015e-03 1.60241238e-04 -2.34115380e-03 3.69163579e-04
      -4.43888479e-04 -6.10742834e-04 1.78664268e-05 -4.42315871e-03
      4.45111189e-04 2.01597897e-04 5.93845733e-04 -4.71052917e-04
      -3.53480973e-05 -2.22277216e-04 -6.89380249e-05 -9.02891188e-05
      2.57447900e-05 -3.48686124e-04 -2.38193708e-04 1.48368068e-03
      4.63065680e-06 -9.46473330e-04 -5.06933080e-04 1.68291066e-04
      -6.61198923e-04 -1.15908384e-04 1.27143547e-04 -7.40381307e-04
      1.16293365e-03 3.19992338e-04 -2.09042919e-04 -6.12167059e-04
      3.27535998e-03 -7.12498499e-04 -1.46609289e-03 -1.86297460e-03
      -1.98138691e-03 9.19494545e-04 1.28137079e-04 -5.75180282e-04
      1.65240467e-03 -1.18671407e-04 2.75997998e-04 4.94415523e-04
      2.70984182e-03 -5.10811107e-04 -1.35227092e-05 -1.44980095e-05
      2.57899333e-03 4.50425694e-04 9.92085319e-04 2.06925371e-03
      1.13498745e-03 -4.36649862e-04 -1.33452224e-04 -2.52502679e-04
      -5.20926609e-04 6.72782480e-05 3.16514168e-04 -4.07170242e-04
      2.22749729e-03 -4.61999909e-04 3.35280019e-05 1.79724026e-04
      1.21058081e-04 2.02194060e-04 -3.98817845e-03 -1.04115861e-04
      -1.60270359e-03 -6.57453726e-04 -2.55018211e-04 4.75395267e-04
      -2.69733340e-04 -3.33161181e-04 7.63806165e-04 -6.39407290e-06
      -1.70086041e-05 -9.28963302e-04 -4.31361877e-05 1.86613659e-04
      3.69014306e-04 -3.30212089e-04 -3.95534589e-04 -4.08847496e-04
      -1.12033379e-03 -1.09117327e-03 -1.53470595e-04 6.08597766e-04
      1.57876275e-04 -3.90383007e-04 3.27092159e-04 8.93238001e-04
      5.26601216e-04 -1.43290521e-03 -2.64376613e-05 -9.13324649e-04
      1.02112489e-03 1.17515691e-03 -6.85382809e-04 -2.47770385e-03
      4.68146201e-04 7.20087439e-04 3.90754663e-04 2.27790722e-03
      -4.53824498e-04 -6.51808106e-04 1.25018880e-03 1.98558369e-03
      -2.99071893e-04 9.90882865e-04 1.69362494e-04 -3.68297624e-05
      2.74313451e-03 -1.17047413e-04 -1.04405556e-03 -6.94137532e-04
      -1.59862090e-03 -2.87122093e-04 -1.82662872e-04 3.31726682e-04
      -7.10522814e-04 -6.20276332e-05 -2.04453769e-04 4.04352322e-04
      -1.27094844e-03 -1.11153196e-04 2.02973548e-04 -1.84034609e-04
      6.57655764e-04 -8.08453042e-05 -1.85640424e-03 -1.05009077e-03
      -3.83450155e-04 4.32793808e-04 -1.58689014e-04 -1.52576098e-03
      -3.50210728e-04 1.08794295e-04 -1.10857880e-04 -7.50731968e-04
      5.28773060e-04 -3.17393075e-04 2.98585364e-05 1.37862749e-04
      2.85010523e-04 -5.80575579e-05 6.41384278e-04 -1.58364855e-04
      -1.24139630e-03 8.99253413e-04 -3.26578331e-04 -4.83371725e-04
      -3.53583368e-04 -6.37550780e-04 9.32189505e-05 1.32288726e-03
      2.04793597e-03 9.84931597e-04 3.14793928e-04 -1.28730084e-04
      -1.71387254e-03 -2.66121933e-04 -2.82355788e-04 -2.77515996e-04
      2.55251862e-03 -1.59750658e-03 -1.95468962e-03 6.64719555e-05
      -5.27983411e-06 5.24598698e-04 -9.00871819e-04 -2.17838632e-03
      1.71001954e-03 4.90927559e-05 -4.98062989e-04 -2.29274247e-05
      5.24936942e-04 6.55399112e-04 -2.52743368e-03 -1.18957367e-03
      -4.41437383e-04 -5.62217785e-04 -3.25341738e-04 3.68752044e-05
      1.72461470e-04 5.43797250e-06 5.55332866e-04 6.88251341e-04
      1.08859254e-04 -3.53837386e-05 3.79414530e-04 1.22920319e-04
      -1.88962498e-03 6.03715671e-06 -1.44674676e-03 5.33287704e-04
      -7.81689778e-06 3.28683673e-04 -4.05837694e-04 -4.43157693e-03
      1.18249671e-04 4.00322548e-04 1.47443754e-03 6.24195265e-04
      3.14880162e-04 7.17598505e-06 -6.19032107e-06 1.79592913e-04
      1.22527810e-04 -7.60190815e-05 -2.09086968e-04 -2.29455822e-04
      2.75486172e-03 2.51183938e-03 5.01950679e-04 -1.08957458e-04
      2.90527329e-04 -7.10944121e-04 -5.55587350e-04 -2.72620207e-04
      8.72601231e-04 8.76458536e-04 1.01545331e-04 -4.47954459e-04
      6.63330313e-04 -8.08442201e-06 2.48143362e-04 1.96237722e-03
      1.21002400e-03 2.29286705e-03 -2.04287222e-04 1.34367601e-03
      -4.32832749e-04 3.16115882e-04 -1.11627416e-03 -1.17926998e-03
      -7.24443060e-04 1.60842596e-04 3.89976951e-04 2.31744852e-04
      -7.02809193e-04 4.41567012e-04 1.37746870e-03 -2.05525919e-03
      8.36066029e-04 -7.84848467e-04 2.69672251e-04 2.30918755e-04
      6.87169668e-04 7.79352704e-05 8.04397278e-04 4.65473568e-04
      5.70322096e-04 3.10539908e-05 -5.21881972e-04 3.09711642e-04
      -2.48344359e-03 -3.67700326e-04 -1.87267346e-04 2.17326614e-03
      -4.04036022e-04 -2.13521323e-03 7.42356118e-04 1.03400322e-03
      3.74913798e-04 2.63333583e-04 -1.23677426e-04 -9.25096101e-04
      2.61334208e-05 -4.42749442e-04 1.28411135e-04 1.51637942e-04
      -3.70272464e-05 -4.81469178e-05 4.43575846e-06 -1.71537814e-03
      -7.32838991e-04 8.55191902e-04 -1.08752330e-03 1.53664514e-05
      -1.88157384e-04 4.43809433e-04 1.55032123e-03 -3.96286981e-04
      1.25212758e-03 -2.86910846e-03 7.54551802e-05 5.94592362e-04
      -3.46459623e-04 8.51065270e-05 3.23157897e-03 -2.83702789e-03
      1.46365876e-03 -1.94507313e-03 -1.44754048e-03 -1.94298429e-03
      8.97484351e-05 3.05785448e-04 1.53692102e-03 -2.19924795e-03
      1.05149765e-03 3.91488720e-05 8.46128096e-04 5.32611411e-05
      -3.97197262e-04 8.47091505e-05 9.10147559e-04 5.07080462e-04
      3.77076532e-04 5.70239441e-04 8.57925625e-05 6.57842538e-05
      5.04725031e-05 -8.36615654e-05 -8.23412964e-04 -1.74676461e-04
      1.82808179e-03 -2.27915531e-04 6.00744097e-05 4.56109323e-04
      3.92514933e-03 -2.68367963e-04 3.34887626e-03 7.61832402e-04
      1.45486556e-03 1.65420322e-04 2.83270230e-04 -3.73556651e-03
      2.83470872e-05 -5.00432157e-04 1.73957829e-04 7.45535363e-04
      3.45278037e-04 -5.98164661e-05 2.40131467e-05 1.14387061e-04
      -2.17858629e-04 -2.42434588e-04 -6.15222205e-04 6.14963647e-04
      1.75606390e-03 -2.58803112e-03 -3.30706273e-04 9.93643072e-04
      2.98122759e-04 -2.06971337e-04 -1.32974936e-03 -2.98956176e-03
      -2.60445988e-03 4.75754321e-04 5.02800031e-05 -1.31728675e-03
      1.56974618e-03 -6.30810042e-04 6.36293844e-04 -1.26853329e-03
      -1.45153332e-04 8.38886190e-04 1.10194169e-03 -1.90708169e-03
      -2.18196408e-04 2.38223860e-04 -8.02124501e-04 -4.45309840e-03
      2.43304693e-03 3.01385880e-04 1.42485747e-04 -5.93961857e-04
      2.15520064e-04 1.78457631e-04 3.72038456e-03 6.17053767e-04
      -6.70359645e-04 -9.45941865e-05 -8.61285807e-05 -5.37652930e-04
      2.93560770e-05 -1.12975795e-05 -3.55321231e-06 -4.38625895e-04
      -5.66596515e-04 -1.84442702e-04 9.13701879e-05 -3.46484921e-05
      8.60642991e-04 4.56606504e-05 -7.38656381e-04 -1.23425899e-03
      3.38186393e-04 -2.09761295e-03 -9.51885537e-04 -1.57036330e-03
      4.88059915e-04 -6.41855440e-05 -5.07024582e-04 -2.41586659e-03
      -3.04418005e-04 2.14302308e-05 -2.94641177e-05 -1.98836322e-04
      -1.91016909e-04 -2.24092815e-04 2.55995430e-04 -2.00081663e-03
      3.16177029e-03 -1.71855172e-05 -1.14406859e-04 -2.84332293e-03
      4.73858410e-04 -4.87799989e-04 1.67811522e-04 2.59443605e-03
      2.16541300e-03 -3.51351046e-04 5.25396666e-04 -8.75528203e-05
      1.56262156e-03 -7.62286421e-04 2.72891601e-03 2.64160847e-03
      -5.52316953e-04 3.64785618e-03 1.34113798e-04 4.75579547e-03
      -2.06455570e-05 1.21678720e-04 1.91988086e-03 -1.33880239e-03
      -8.57678999e-04 9.18926016e-05 2.24903983e-04 9.91000547e-07
      -5.98882689e-05 -1.57067378e-04 -1.28470547e-03 9.99822048e-04
      -4.80812247e-04 -5.25778625e-04 -3.86966451e-04 1.92664811e-04
      1.93594446e-04 9.69569919e-06 5.47008589e-04 -4.54944238e-05
      4.54323803e-04 -9.79026547e-04 -4.58579801e-04 -1.94135937e-04
      -7.12474983e-04 7.88945472e-05 -1.01387537e-04 6.28863636e-04
      -4.27001563e-04 1.30591635e-03 -3.47568915e-04 -4.80443909e-04
      -2.16687949e-05 4.03324375e-04 2.88629264e-04 2.00148579e-03
      -4.35693000e-05 1.83387328e-05 2.52693921e-04 -3.11657757e-04
      2.45311036e-04 1.15990297e-04 -1.84814518e-04 -2.26077300e-05
      -1.65223191e-03 -1.17986090e-03 -6.04793138e-04 2.49491585e-03
      3.23790628e-05 -8.39532120e-04 2.05776741e-04 9.88242566e-04
      -1.06777600e-03 -4.02323483e-03 -3.03655717e-04 -1.32210378e-03
      -6.17256155e-04 -9.26516950e-04 1.39155181e-03 -1.21448026e-03
      -2.55227135e-03 -5.67199488e-04 -6.73493123e-05 3.96014366e-04
      -5.49056742e-04 3.59778554e-04 -1.41024764e-03 -1.50498736e-03
      3.66945838e-04 8.72105375e-05 -5.69556723e-04 1.11586323e-05
      -5.39500383e-04 2.43274597e-04 5.84162655e-04 -1.20880280e-03
      5.36508567e-04 -1.19207674e-04 1.40036049e-04 1.59722695e-04
      4.39442301e-05 -1.42927529e-05 3.90974834e-04 2.60036148e-04
      2.42137606e-03 3.17010446e-04 1.00983088e-05 8.98602302e-05
      2.08275160e-03 2.66202900e-04 2.76408996e-03 2.24140429e-04
      -9.14210104e-04 -5.31539205e-04 -3.31885531e-04 -4.50144336e-03
      -4.81073657e-05 -6.23718952e-04 -8.69870128e-04 1.20074418e-03
      -1.74650704e-04 3.09725001e-04 -2.73619953e-05 -5.22912771e-04
      -3.46852787e-04 -3.34291050e-04 3.05566064e-04 7.12099936e-05
      2.26796907e-03 9.21897808e-05 -4.03845130e-04 -1.38992863e-03
      1.67386097e-04 -8.31751793e-04 -6.97046577e-04 -2.49765324e-03
      2.98052770e-03 4.33021109e-04 5.45761781e-04 9.42750659e-04
      9.45824781e-04 5.38103050e-04 1.20802270e-03 3.85441905e-04
      1.29283592e-03 -1.39377426e-06 -3.23020096e-04 -7.20582262e-04
      3.70058406e-04 -1.98594062e-04 -1.44102063e-03 -1.40297459e-03
      7.28277955e-04 5.03880554e-04 4.12611553e-04 -1.91723448e-04
      1.40335865e-03 2.13489562e-04 -1.59301653e-05 4.06740321e-04
      -1.09697611e-03 -7.18640076e-05 -4.65022778e-04 -4.23237419e-04
      -4.21742188e-05 -2.34924755e-05 -7.11921530e-05 -2.64520222e-05
      2.25017406e-03 1.19336684e-04 -2.73893587e-04 -4.37399460e-04
      2.45635724e-03 1.77189650e-04 -1.91122352e-03 -2.52633996e-04
      -1.02408032e-03 -1.63623062e-03 -3.56080185e-04 -4.21799999e-03
      -4.44374571e-04 -2.95752223e-04 6.01051026e-04 9.80017707e-04
      -8.16141037e-05 -1.03654849e-04 7.25213249e-05 -1.14243958e-04
      -9.73893912e-04 -5.12642786e-04 7.85001612e-04 -3.40629558e-05
      1.90145720e-03 2.06954475e-03 9.19524115e-04 4.98272129e-04
      -8.19831184e-05 1.20485121e-04 1.78163042e-04 -9.97258001e-04
      -4.04075370e-04 9.58834658e-04 -3.38372396e-04 1.62790890e-03
      1.75371370e-05 1.68578452e-04 2.19877238e-05 -2.48075550e-04
      -1.30946946e-03 5.06998913e-05 1.50763884e-03 -4.06403560e-03
      5.84487687e-04 -3.27238115e-04 1.07677153e-03 -1.86840727e-04
      -7.49860657e-04 1.21095392e-03 8.78634819e-05 -6.48855581e-04
      -5.17175125e-04 -2.22896633e-04 4.63044737e-04 -1.37667794e-05
      4.11036483e-04 -5.38854918e-04 3.80641490e-04 3.22847831e-04
      -1.28464447e-03 -2.74364593e-05 -3.89179295e-05 -3.68928158e-04
      7.92904233e-04 5.90874588e-05 -1.06219040e-05 4.02655365e-04
      -1.63705798e-03 -1.70714513e-04 3.33861052e-03 4.69944556e-04
      2.84125376e-03 1.00641139e-03 -6.51062874e-05 -3.27564892e-03
      3.31468793e-04 6.16687350e-04 -1.66527228e-04 -8.86469614e-04
      -2.44801515e-04 1.68965693e-04 -1.26677071e-04 4.43413621e-04
      -3.19083338e-04 -8.18020198e-04 -2.60195724e-04 -1.09754025e-03
      3.05327168e-03 -4.63681528e-04 -3.26230511e-04 9.47541906e-04
      2.26236691e-04 4.18492054e-05 -6.85433566e-04 -1.93234032e-03
      -2.73313769e-03 1.85674959e-04 -1.11031448e-04 3.16661480e-03
      7.25714635e-05 5.11194346e-04 8.47515003e-06 8.48421361e-04
      -1.24801067e-03 1.00434222e-03 6.86511106e-04 9.95924114e-04
      -3.01090023e-03 2.29242360e-05 -3.78160970e-04 -1.77375623e-03
      -1.30592985e-03 1.51541637e-04 3.88646440e-04 5.53166319e-04
      3.49717389e-04 4.74189146e-04 -7.98551191e-04 -1.71197997e-03
      -6.87875552e-04 1.26164887e-04 1.99674905e-04 1.20569006e-04
      3.89890512e-04 1.13318987e-04 -3.46421526e-04 -7.38946372e-04
      2.47944938e-03 7.84305885e-05 -2.47153541e-04 1.72525601e-04
      1.38527772e-03 4.30840184e-04 -4.87628713e-04 -4.93280357e-04
      1.13758969e-03 -5.48254582e-04 -5.50129625e-04 -2.61521236e-05
      -1.85154437e-04 3.30216630e-04 9.88809275e-04 1.08183397e-03
      -1.58133509e-04 1.09132554e-04 -9.66838270e-05 2.11140796e-04
      9.12969044e-05 -3.81130114e-04 -1.08596279e-04 -1.14956102e-03
      -1.24778063e-03 2.34219525e-03 4.03927406e-04 -8.71534285e-04
      2.20273942e-04 6.89164153e-04 2.21156297e-04 1.90568541e-03
      -9.69028624e-04 -7.32683518e-04 -1.38928197e-04 2.23224820e-03
      1.55976275e-03 -4.11451882e-04 7.46453705e-04 -3.59019311e-03
      1.68221886e-03 -1.07431639e-04 -3.96588497e-04 -1.62875780e-03
      -9.83125996e-04 -2.24121250e-04 -1.43176981e-03 -1.15292135e-03
      3.67195229e-04 3.07329232e-04 -1.97170200e-04 1.95770976e-04
      1.39295275e-03 -1.24004015e-04 -1.33682555e-03 -3.31154326e-03
      -6.38246594e-04 -6.64799227e-05 3.62444494e-04 5.02315997e-05
      7.37276801e-04 1.85946483e-05 -6.90507004e-04 3.57914570e-04
      7.18828000e-04 2.49408069e-04 5.03653100e-05 1.49131636e-04
      -3.56554898e-04 -4.90503498e-06 1.91940635e-04 2.03057294e-04
      4.59037779e-04 1.58340822e-03 -1.51663517e-05 -7.74385466e-04
      2.39919518e-05 -2.24643984e-04 -1.80413554e-04 8.03119387e-04
      1.00879086e-04 5.16187400e-04 -4.35872935e-05 5.39140055e-05
      1.90500010e-04 2.20980481e-04 -1.07269036e-04 4.94039326e-04
      2.24572211e-03 2.15920759e-03 2.02137177e-04 1.34715089e-03
      -6.73181552e-04 1.22687547e-04 -7.94846099e-04 -7.32485612e-04
      2.45182565e-03 -2.16712407e-03 1.79704017e-04 -6.13873708e-04
      -1.63330813e-03 -5.24057250e-04 1.43284234e-03 -4.86699922e-04
      2.15701107e-03 -9.30885959e-04 2.04487052e-03 2.32119625e-03
      1.03074871e-03 4.32725239e-04 1.59921474e-03 -1.02521933e-03
      -4.67758247e-04 2.23981304e-04 -3.33745556e-04 -7.29508611e-05
      -1.43430632e-04 4.25495818e-05 1.88967877e-03 4.08995373e-04
      -1.48223166e-03 2.76410487e-04 2.75422470e-04 6.38228084e-05
      -1.42342513e-04 -3.35409186e-06 -1.68024897e-04 9.14625198e-05
