<?xml version="1.0"?>
<opencv_storage>
<my_svm type_id="opencv-ml-svm">
  <svm_type>C_SVC</svm_type>
  <kernel><type>LINEAR</type></kernel>
  <C>1.0000000000000001e-01</C>
  <term_criteria><epsilon>2.2204460492503131e-16</epsilon>
    <iterations>500</iterations></term_criteria>
  <var_all>16128</var_all>
  <var_count>16128</var_count>
  <class_count>2</class_count>
  <class_labels type_id="opencv-matrix">
    <rows>1</rows>
    <cols>2</cols>
    <dt>i</dt>
    <data>
      -1 1</data></class_labels>
  <sv_total>1</sv_total>
  <support_vectors>
    <_>
      -2.05754931e-03 1.30348117e-03 5.28369099e-04 -2.66920659e-04
      -4.91589133e-04 -1.23055070e-04 4.77752415e-03 2.83029105e-04
      3.94942268e-04 4.94832406e-04 1.22419107e-04 6.76934505e-05
      -8.04467127e-04 7.78876929e-05 -9.52600560e-04 1.13292015e-03
      -4.00470890e-05 3.25821338e-06 1.34511620e-05 -4.06616564e-05
      -4.13776113e-04 6.91933019e-05 -5.21633367e-04 -4.12796420e-04
      9.64784340e-06 -4.33170271e-06 9.74506329e-05 -1.10264293e-04
      -3.74054513e-03 3.57274766e-05 -7.37251539e-04 -4.49203100e-04
      1.53875723e-03 1.13077025e-04 2.84212845e-04 -5.15391584e-04
      1.49079888e-05 -1.28770102e-04 2.36921886e-04 8.60605564e-04
      -3.34554134e-05 1.89460363e-04 -2.91940523e-05 -3.98834272e-05
      5.43300157e-05 9.19728700e-05 2.34018677e-04 4.41676530e-04
      -2.92338175e-03 -1.88199466e-03 -1.22327372e-04 6.99490309e-04
      -3.67555273e-04 1.38356365e-04 3.99165234e-04 2.32873298e-03
      -1.90951233e-03 1.47580961e-03 -1.09386219e-05 3.55405500e-04
      -1.06665655e-03 1.93731394e-05 -5.58468630e-04 1.86612061e-03
      -1.61433069e-04 1.02500687e-03 1.95610197e-03 -3.62020161e-04
      -1.15162937e-03 -8.02332361e-05 2.54524383e-03 -4.05118859e-04
      -6.49137190e-04 5.03653428e-04 5.55901534e-05 3.93373222e-04
      -3.21767497e-04 -4.58818868e-05 5.10197773e-04 3.13996425e-05
      -1.19300466e-03 -3.51932467e-05 -4.70888699e-05 -7.92306491e-06
      -2.77816987e-04 -5.11617036e-05 -5.52479061e-04 2.76390900e-04
      -1.15842035e-03 -1.66734171e-04 6.54225732e-05 -6.62325765e-05
      -7.13755609e-04 -1.32544255e-05 -2.34835272e-04 -4.22579149e-04
      -1.29502487e-05 -7.39644165e-04 -2.53924052e-04 -1.42876478e-03
      -1.25384948e-04 -1.93804735e-04 -1.33533365e-04 1.46595034e-04
      1.82410549e-05 1.79886178e-04 1.03719312e-05 9.79069882e-05
      -2.62744597e-05 -3.84665655e-05 2.07143748e-04 1.48353702e-03
      4.67569771e-04 -1.98664871e-04 2.68200383e-04 -4.12972295e-04
      -2.87550589e-04 -2.72308855e-04 -2.59720895e-04 9.18530743e-04
      -1.02153688e-03 6.24005450e-04 5.01318835e-04 -6.46509434e-05
      -8.02142953e-04 1.85618483e-04 3.28279602e-05 1.88586221e-03
      -1.84071192e-03 1.51879562e-03 -7.56375593e-05 -4.34294139e-04
      7.17860821e-04 1.14607037e-05 1.52314047e-03 -9.59449739e-04
      -1.09469882e-04 4.24308673e-04 2.48647324e-04 9.53993513e-05
      -1.76938204e-03 -2.36242904e-05 -1.33430003e-03 1.74517243e-03
      -1.36075512e-04 2.85824790e-04 -4.64897428e-04 -1.49175816e-04
      -3.12653778e-04 3.15477291e-06 -8.00851558e-05 5.10801583e-05
      -1.22155761e-03 -1.47291657e-05 5.66891540e-05 2.18681544e-05
      1.57215528e-03 -1.79563824e-04 -3.47240333e-04 5.36293199e-04
      -4.82310279e-04 -1.64968939e-03 2.37602479e-04 1.34656718e-03
      -4.27562045e-04 3.63150699e-04 -2.39667977e-04 6.29502611e-05
      -9.00904342e-05 -1.23298480e-04 1.72640302e-05 -1.90736449e-04
      1.42403980e-04 -5.80244487e-05 2.99600088e-05 2.84754555e-04
      1.27978230e-04 -2.52151833e-04 -3.27410089e-04 6.41968509e-04
      3.50252049e-05 1.96887806e-04 1.69026677e-03 2.21626673e-04
      -9.10376621e-05 4.02439327e-04 7.37864902e-05 -2.99972773e-04
      -1.46977283e-04 -3.98784614e-04 -8.49702512e-04 3.93781287e-04
      1.31426103e-04 3.81178630e-04 9.38529382e-04 6.67217770e-04
      5.24688337e-04 -1.33581634e-04 -4.97122121e-04 -8.85893023e-05
      7.21487391e-04 8.95692210e-05 9.43719715e-05 3.94459901e-04
      6.08743750e-04 -2.34027364e-04 5.09806036e-04 2.39649191e-04
      -1.46098447e-03 2.68502044e-04 -9.42087136e-05 2.34029896e-04
      -2.12261264e-04 3.54092299e-06 -3.02714354e-04 1.20692159e-04
      1.66042100e-05 -2.27573182e-05 -8.01394344e-05 -1.96729961e-04
      5.54147846e-05 2.45159055e-04 -1.04848866e-03 1.07315276e-03
      -1.10111851e-03 -1.09563838e-03 -8.62737943e-05 2.23310129e-03
      -3.40534636e-04 -1.68375205e-04 -5.14568994e-04 5.77579020e-04
      7.28666419e-05 -1.93227592e-04 -6.35554970e-05 -2.74190679e-05
      1.37558251e-04 -1.23509861e-04 1.05281761e-04 1.35535793e-03
      -1.73142878e-03 4.36183327e-04 -4.60121606e-04 -1.29588775e-03
      -5.48795448e-04 8.90044321e-05 4.93295056e-06 -2.04417715e-03
      8.33451995e-05 9.18587320e-04 -2.40830668e-05 6.44391694e-04
      -2.70153949e-04 5.63450682e-04 5.83682850e-04 -6.63073210e-04
      1.29452359e-03 5.30024809e-05 8.36253108e-04 1.35175229e-04
      1.25001417e-04 -3.18347797e-04 6.21400482e-04 1.47376687e-03
      2.82200072e-05 -2.61613022e-04 2.39171623e-05 2.76990933e-04
      8.34033533e-04 9.09894225e-05 1.64602199e-04 -1.78979174e-03
      -6.47402834e-04 1.78717542e-04 2.49189063e-04 1.30535791e-05
      -2.14593907e-04 -2.45922729e-05 -1.01571721e-04 4.79757378e-04
      -2.11453787e-03 -2.63878173e-05 -1.54033012e-04 1.21309226e-04
      8.66902643e-04 -1.24383063e-04 1.55530695e-04 1.27202808e-03
      -2.24723859e-04 8.30229605e-04 -1.02708314e-03 -5.00566035e-04
      1.02047761e-05 -2.24970208e-04 3.59888654e-04 -2.60720175e-04
      5.97932512e-06 1.31505527e-04 9.44634758e-06 -2.15261447e-04
      -2.64200266e-04 4.50512161e-05 -9.14070915e-05 7.53933331e-04
      1.05083571e-03 4.66490397e-04 9.70753490e-07 -2.65406910e-04
      -8.54166050e-04 5.74313999e-05 6.75769872e-04 -1.12660415e-03
      -2.94346508e-04 4.74595116e-04 1.49343359e-05 -1.51632106e-04
      -1.08166528e-03 4.65921650e-04 -1.35556888e-03 -9.31975490e-04
      1.08805683e-03 -6.45924709e-04 7.39098759e-05 2.10651808e-04
      8.59247848e-06 -7.48968232e-05 6.82647631e-04 1.97599205e-04
      -1.00259343e-03 5.30216766e-06 -1.49708387e-04 -5.34555074e-05
      1.62235473e-03 -1.85670928e-04 -1.63362827e-03 3.60952807e-04
      6.97046460e-04 3.18448321e-04 -7.61747287e-05 -1.01167068e-04
      -1.56543261e-04 4.05290630e-05 -1.01684636e-05 -1.85106168e-04
      -1.08513213e-03 -1.32546003e-04 3.41521431e-04 -3.54468531e-04
      -1.03351784e-04 3.51409777e-04 -1.63965306e-04 -3.87522450e-04
      -4.81300143e-04 8.85110931e-04 -4.85444063e-04 -3.50417948e-04
      -2.56891566e-04 1.77405076e-04 -6.17329861e-05 -1.45370711e-03
      8.34193997e-05 1.88740785e-04 -7.30778265e-06 1.61793396e-05
      1.70668209e-04 8.73865793e-05 1.29404507e-04 2.26769451e-04
      1.23697100e-03 -1.31093943e-03 5.25870710e-04 -2.96125181e-05
      -3.01115680e-04 -6.89922454e-05 5.67488198e-04 9.41171660e-04
      3.13922239e-04 -3.57379060e-04 9.85667521e-06 7.09201267e-04
      -1.71609444e-03 9.10114381e-04 5.27352153e-04 -3.23096232e-04
      2.14880565e-03 -5.77723316e-04 2.90407101e-04 7.36478250e-04
      1.03065628e-03 -1.00338257e-04 -1.06172694e-03 -3.81774909e-04
      -4.49498039e-04 1.35610404e-04 -6.56186021e-05 -2.15573920e-04
      1.83594075e-03 -1.89071492e-04 2.53112498e-03 1.46196762e-04
      -4.09901491e-04 -1.57775547e-04 -1.56346287e-04 7.53326967e-05
      2.92314449e-04 -1.25680681e-05 -4.79048816e-04 -2.47647658e-05
      1.62578200e-03 4.60056181e-05 -1.60464537e-04 2.55710711e-05
      -5.42946858e-04 5.05833741e-05 -9.83720529e-04 8.28239950e-04
      -5.48437354e-04 6.55406096e-04 1.04297687e-04 8.27228476e-04
      -1.46908560e-05 7.46326041e-05 3.16734659e-04 -3.59983620e-04
      -4.24368016e-04 -1.53968533e-04 -1.10610046e-04 -2.04276963e-04
      7.66178418e-05 -1.80745890e-04 -1.33837733e-04 -2.48740485e-04
      -1.53926760e-03 1.03399885e-04 -1.16009767e-04 6.17055106e-04
      -1.24146289e-04 -3.80799000e-04 -2.60072527e-04 -1.53691613e-03
      -1.34425529e-03 5.29574754e-04 4.04602353e-04 7.23478515e-05
      -4.32204251e-04 -3.27722228e-04 -4.17114614e-04 -7.53916800e-04
      -1.09564513e-03 4.81338851e-04 1.68900972e-03 3.46073502e-04
      4.39395517e-04 -3.92938382e-04 1.63263139e-05 -3.38906015e-04
      -6.95722061e-04 -7.34394998e-05 1.28193526e-04 -1.49367828e-04
      2.18535587e-03 -5.48364842e-05 -3.83042381e-04 -1.37080642e-04
      1.76874513e-04 -2.48597411e-04 -5.06291462e-06 3.50058290e-05
      5.08466212e-04 -3.45894514e-05 2.15276610e-04 -9.25748463e-05
      2.99960608e-04 -1.30837201e-04 -8.86513662e-05 -1.43074058e-05
      1.98682319e-04 -1.26445448e-04 1.28839992e-03 1.04297214e-04
      -2.96488171e-04 -1.20729703e-04 7.33688124e-04 -2.15885433e-04
      2.48218657e-06 -1.04478262e-04 1.41664685e-04 1.09767995e-03
      -3.86851490e-04 6.22046628e-06 3.68485307e-05 -1.69191553e-04
      3.72846349e-04 -2.33487677e-04 -3.33591859e-04 2.86355673e-04
      9.43089399e-05 -2.23587733e-03 -1.15719726e-04 -1.27884175e-03
      -1.76317044e-04 -4.20185155e-04 3.29863833e-04 1.06437330e-03
      3.48259491e-04 6.43097737e-04 -3.43605003e-04 -3.90679343e-04
      -2.15929816e-03 3.67794622e-04 -1.63934787e-03 1.04447990e-03
      -1.12524070e-03 -8.65395123e-05 -3.02161323e-04 -1.23559893e-03
      -3.27853224e-04 8.94519981e-05 2.08630762e-03 1.53512158e-03
      -1.15662033e-03 -3.96820076e-04 2.23087307e-04 1.46888080e-04
      -1.39130861e-03 1.50304011e-04 1.29658659e-03 -1.63329951e-03
      -2.81292683e-04 -1.58830750e-04 -1.59652918e-05 -1.11196132e-04
      5.65811526e-04 -6.13199591e-05 6.24776876e-04 1.45529833e-04
      6.72235852e-04 2.17497625e-04 -1.96814784e-04 -3.83793449e-05
      -4.89490514e-04 1.20881406e-04 -7.18818977e-04 -1.67309736e-05
      1.24118684e-04 5.70486998e-04 6.11437208e-05 1.25782841e-04
      -5.24057505e-05 -1.29912907e-04 -5.12039442e-05 1.74781890e-03
      -2.17835594e-04 -2.44777566e-05 -9.95784467e-06 -1.22586687e-04
      -9.43424093e-05 -2.50416979e-05 7.42004413e-05 -2.60517903e-04
      4.89353843e-04 -6.37534249e-05 1.33563954e-04 4.27743653e-04
      1.47617699e-04 -1.22418438e-04 -1.37029696e-04 -1.23582990e-03
      8.88494178e-05 1.27421154e-04 -9.03033870e-05 -1.84918012e-04
      -1.29729114e-03 2.89421354e-04 4.17142612e-04 1.16496265e-03
      -2.02723895e-03 1.60120812e-03 1.00811489e-03 -1.36647699e-03
      -3.29302711e-04 -3.27753194e-04 6.24243286e-04 -1.42973755e-03
      9.12537274e-04 -8.79844592e-05 4.35781258e-04 2.76415085e-04
      -2.50360754e-04 2.08635800e-04 1.77388371e-03 5.87566974e-05
      -2.22923336e-06 1.53644563e-04 -2.80217733e-04 3.21437488e-04
      -1.56699447e-04 2.48915516e-04 -3.53265292e-04 -5.72130142e-04
      9.27701185e-04 1.84047152e-04 1.05191226e-04 -6.42084851e-05
      9.61006444e-04 -2.62365764e-04 -3.58252961e-04 -8.08753772e-04
      -1.90264266e-03 7.53052707e-04 -4.09506931e-04 -3.45466775e-04
      2.35849831e-04 1.18399010e-04 -6.97041905e-05 -1.06696280e-04
      1.67138831e-04 1.18415541e-04 -1.67646394e-05 1.99166170e-04
      -2.76128230e-05 -1.17195515e-04 1.31896813e-04 1.19790051e-03
      -9.23533982e-04 -1.00270426e-03 4.35927912e-04 -2.60716275e-04
      -1.39406970e-04 -7.48480670e-05 1.90586186e-04 -4.66493017e-04
      -3.49400012e-04 4.10576176e-04 -4.35139991e-05 1.02770841e-03
      7.70988176e-04 -2.70746023e-05 -1.81246476e-04 -4.17621195e-04
      -1.48169755e-03 6.66845008e-04 7.12834240e-04 3.32908996e-04
      -1.56313210e-04 1.35342707e-04 -8.09654361e-04 -5.25811978e-04
      6.00987463e-04 3.46682704e-04 -4.43905621e-04 -6.14284727e-05
      3.64794483e-04 -5.42402013e-05 -3.19547951e-04 1.73357734e-03
      -4.18462063e-04 -6.30651601e-04 1.94483699e-04 1.17951422e-04
      -4.28775762e-04 -3.42835119e-05 1.52963519e-04 1.53499830e-04
      -6.45747059e-04 -8.79955478e-05 -4.17457304e-05 -2.93450139e-04
      -7.60966039e-04 2.87134433e-04 -1.03625457e-03 -4.30709159e-04
      -4.87712095e-04 8.35876970e-04 -3.65223357e-04 1.77200569e-03
      -2.79380707e-04 -1.06272666e-04 6.95201161e-05 -3.62939027e-04
      -6.71606031e-05 6.70756126e-05 -1.86566576e-05 2.30407008e-04
      -1.70566826e-04 -1.05692015e-05 4.78876871e-04 1.27235625e-03
      -1.73923108e-04 3.98755765e-05 -1.19397615e-03 -2.79885804e-04
      -5.67182360e-05 -2.06490731e-04 1.44386361e-03 -1.12224102e-03
      -2.70575038e-05 8.79459898e-04 8.62418176e-07 1.07639753e-04
      -2.48333876e-04 4.76955000e-04 1.89193906e-05 3.45048058e-04
      -8.47081537e-05 4.03821497e-04 2.00751959e-03 -4.34910005e-04
      2.37048414e-04 -2.29702840e-04 2.33105166e-04 2.81323621e-04
      1.85486671e-04 4.71488253e-04 1.14239941e-04 -3.66646782e-05
      8.63264722e-04 2.02908821e-04 1.34533714e-03 1.70486339e-03
      -6.97872136e-04 -4.91544415e-05 1.97738016e-04 2.10049286e-04
      -2.35018961e-04 -1.55321177e-05 -7.83983618e-04 1.52815869e-06
      -9.53260751e-05 1.44789810e-04 -2.30312682e-04 -1.69318009e-04
      -6.49760594e-04 4.62915777e-05 -2.22649053e-03 -2.73646292e-04
      -8.06569238e-04 1.56252889e-03 4.39781033e-05 7.71283521e-05
      4.92864056e-04 -2.01429502e-05 -3.11406708e-04 2.22015381e-03
      -7.13864210e-05 -2.72628095e-04 2.17320281e-04 -1.17986652e-04
      2.24026269e-04 7.14197404e-06 2.33291838e-04 1.77897816e-03
      6.31545437e-04 -2.19348655e-03 -5.11677819e-04 -1.59189501e-03
      -2.13071035e-04 -5.64068556e-04 -1.11971796e-03 -8.30856035e-04
      8.95473640e-04 5.28034696e-04 2.96901766e-04 -8.79561776e-05
      -5.96457510e-04 1.02193595e-03 -2.84424773e-03 -5.16151893e-04
      1.54560676e-03 1.14012707e-03 -3.87930893e-04 2.51356512e-03
      -3.31016869e-04 -1.20731522e-04 9.76322684e-04 8.57772306e-04
      -7.37568014e-04 -1.98173759e-04 1.44903344e-04 4.60897936e-05
      2.06795358e-03 5.45326156e-06 -8.48983182e-05 1.38253917e-03
      -1.50711113e-03 -9.58086312e-05 -2.46121432e-04 -2.41601101e-05
      -2.69386015e-04 -8.94190016e-05 -2.49843812e-04 -1.01519116e-04
      -6.16872334e-04 2.88460760e-05 -9.70782421e-05 5.75610829e-05
      -1.26501580e-03 2.34670879e-04 -9.03458495e-05 1.02648430e-03
      -2.25581680e-04 4.90755367e-04 3.15373181e-04 -1.05755881e-03
      -7.01082972e-05 3.69859801e-04 -6.22756139e-04 3.62440478e-03
      -3.60393926e-04 -2.42148672e-04 -2.41504040e-05 -2.12224215e-04
      -3.34521523e-04 -1.13609880e-04 -3.74649913e-04 3.42422631e-03
      3.83609702e-04 -2.07909639e-03 -1.51115004e-04 4.00943645e-06
      1.26816667e-04 -1.64086508e-04 -5.86940208e-04 -1.38205127e-03
      -9.83705977e-04 -5.72282122e-04 -1.62452183e-04 -1.30230401e-04
      -2.86872475e-03 1.54634763e-04 -2.39736657e-03 7.07170169e-04
      2.03626207e-03 -8.67420109e-04 1.28633998e-04 2.06210907e-03
      6.59558631e-04 3.38615879e-04 1.13874439e-05 -2.02819938e-04
      -1.11757987e-03 -4.13483431e-05 -4.27555897e-05 -1.58196126e-04
      2.13930034e-03 4.04643069e-05 1.27298129e-03 6.67945540e-04
      -4.51196305e-04 -8.48794662e-05 4.76183450e-05 7.40779215e-05
      9.74494469e-05 0. -5.29679801e-06 2.17879671e-04 -7.81928771e-04
      6.87536085e-05 -2.19474605e-04 7.11009052e-05 3.52851534e-03
      3.88693414e-04 2.68356688e-03 1.78150006e-03 -7.31471751e-04
      -2.72406451e-03 -7.03152560e-04 7.12105189e-04 1.19709119e-04
      -6.64046675e-05 -1.49468269e-05 2.10539508e-03 -1.35900191e-04
      2.34155930e-04 -2.22530980e-05 1.08956177e-04 1.92366977e-04
      3.18572929e-05 3.44738146e-05 5.34965657e-04 -5.56568615e-04
      -9.68151493e-04 -2.89235642e-04 -2.82944064e-03 -1.01171427e-04
      4.26640559e-04 -6.99281634e-04 -1.14739931e-04 -1.86984474e-03
      -1.30179722e-03 -2.10142651e-04 -1.40472187e-03 -1.53823372e-03
      -7.60538736e-04 -7.64300930e-04 -1.03778136e-03 6.49669732e-04
      -9.29401082e-04 2.32775789e-03 -2.23708184e-06 -3.93737719e-04
      -2.15310356e-04 9.85159655e-04 7.36595946e-04 3.01308137e-05
      8.13052538e-05 8.10468191e-05 8.30274075e-06 -6.85395207e-04
      -7.45527650e-05 4.61341202e-04 9.36200900e-04 -6.77134842e-04
      -6.03931258e-05 -2.76846549e-04 -1.45984333e-04 7.68239988e-05 0.
      -2.18703339e-04 -4.32594934e-05 -1.23816822e-03 -1.29623601e-04
      1.13903174e-04 -2.80140230e-04 3.51750903e-04 -1.89555212e-04
      -7.70537823e-04 2.41414964e-04 2.52236932e-04 -1.33757596e-03
      -1.85740340e-04 -6.91575289e-04 -1.18784163e-04 -2.63627706e-04
      1.59789124e-04 7.35800248e-04 6.19946804e-05 -4.49201762e-05
      1.18302933e-05 -1.39188312e-04 3.43833926e-05 7.35375352e-06
      3.55795942e-06 1.06135057e-03 1.18823082e-03 -7.06676976e-04
      -3.58584977e-04 7.13844842e-04 -1.36977924e-05 2.17753201e-04
      2.62019283e-04 2.60599190e-04 -1.23665913e-03 -6.78385986e-05
      -3.17980128e-04 1.25501852e-03 -1.27522938e-03 5.28971257e-04
      5.58666827e-04 -1.30574475e-03 3.32767231e-05 -5.06007927e-04
      1.11880351e-03 -2.43547081e-04 -7.65846926e-04 -3.35987657e-04
      1.23926112e-03 3.84865009e-04 2.16536428e-05 2.83100198e-05
      -2.42327835e-04 -3.48562025e-04 2.28975504e-03 -8.85998888e-05
      -7.29307940e-04 -3.96993884e-04 -8.45228729e-04 4.11619076e-05
      -7.62233831e-05 -3.51581257e-04 2.82828551e-04 0. -3.06136426e-05
      -1.65227946e-04 1.97749614e-04 8.87893329e-05 5.81307950e-06
      -1.58514842e-04 1.74704066e-03 -1.51728353e-04 -2.73364742e-04
      4.79461305e-04 5.62661502e-04 4.10811801e-04 7.40016258e-05
      -1.59715462e-04 -2.53272392e-05 -2.85951915e-04 -2.19389563e-04
      1.17627881e-03 -1.38806849e-04 6.43354360e-05 2.31263912e-05
      2.09035890e-04 1.16084921e-05 -1.57760278e-05 4.29546235e-05
      -5.60776934e-05 2.52360041e-05 -1.68826198e-03 3.71725706e-04
      -1.01997668e-03 9.42714250e-05 2.14090716e-04 -1.87345082e-04
      -6.14410907e-04 -1.46840245e-03 -4.52210952e-04 -4.10083041e-04
      7.71793930e-05 -7.18329335e-04 3.37950682e-04 8.50479992e-04
      6.65211119e-04 1.06762385e-03 -4.60405136e-04 -8.26623349e-04
      2.91050412e-03 -1.17749313e-03 -1.40159898e-06 -1.82192563e-03
      7.29319814e-04 -4.53437067e-04 4.85792552e-05 -1.10665984e-04
      2.55811145e-04 1.37730123e-04 -1.66848171e-04 -1.30790914e-03
      3.70557586e-06 6.96447329e-04 8.18963599e-05 4.37615468e-04
      3.09684692e-04 6.18889870e-04 9.11023619e-07 1.36021890e-05
      -1.89950279e-05 1.59047253e-04 9.11187453e-05 3.29950308e-05
      -6.98522563e-05 -9.04873654e-04 -1.50320542e-04 -2.47053511e-04
      -5.09683276e-04 -2.96647253e-04 -5.70300559e-04 -1.03729122e-04
      -1.51212240e-04 -1.04447354e-04 -1.46826205e-04 -1.67002672e-05
      8.31793353e-04 5.15092397e-05 2.08671452e-04 -5.35721301e-05
      1.21378238e-04 -3.44115833e-05 1.94704990e-04 -1.66210069e-04
      -2.83659436e-04 8.26544128e-04 -4.67566453e-04 -7.16824725e-05
      1.44619829e-04 -1.91513944e-04 -4.23058693e-04 2.68797274e-04
      -4.61071431e-05 1.36214460e-03 -2.46719603e-04 4.32237393e-05
      6.88135857e-04 -9.70608613e-04 1.37793642e-04 2.61470472e-04
      -1.63808014e-04 -1.70370447e-03 -2.27143336e-03 -4.01798432e-04
      2.52190512e-03 -6.39487116e-04 -2.25059179e-04 5.86523267e-04
      2.87184885e-05 -1.24910206e-04 9.57357843e-05 -3.07505688e-04
      2.18054120e-04 7.99681293e-04 -4.22079756e-05 7.84322387e-04
      -6.01788401e-04 -1.05544401e-03 -3.49143520e-05 1.41193814e-04
      -9.72176858e-05 5.20224043e-04 -5.02018884e-05 -8.78804276e-05
      -4.11193934e-04 2.78894138e-03 -2.22459377e-04 -7.37954033e-05
      -1.83252327e-04 -1.33459410e-03 7.77186287e-05 1.10318244e-03
      -4.96082823e-04 -6.06836285e-04 6.85827225e-04 -2.84401816e-04
      2.38674483e-03 -3.61396931e-04 2.50556477e-04 5.64666116e-05
      2.00470048e-03 2.09511581e-05 4.48118335e-05 2.30189780e-05
      -2.76757695e-04 3.18246282e-04 -1.34204965e-04 3.12892989e-05
      2.56161235e-04 1.76297361e-03 -1.17314153e-03 -2.40484602e-04
      -5.28219622e-04 1.20640056e-04 -1.58363167e-04 1.20368568e-04
      -2.59857927e-03 1.99682335e-03 -4.66765079e-04 -5.91560500e-04
      6.29923961e-05 -1.22206542e-03 -2.97535425e-05 4.84174561e-05
      -8.19729234e-04 -1.19428383e-03 1.55597029e-03 1.24569540e-03
      -1.12118956e-04 -6.31124654e-04 8.18881963e-05 1.43726112e-03
      1.12340506e-03 3.26204899e-04 6.13533892e-04 2.12269195e-04
      9.12925607e-05 5.11345279e-04 9.56125732e-05 2.39431702e-05
      -1.22809247e-03 -9.17315774e-04 -2.68996111e-04 -1.73972599e-04
      -2.27182492e-04 5.44498216e-05 -6.59481375e-05 -2.78400665e-04
      1.59482806e-05 -5.52267084e-05 2.77701794e-04 3.02356493e-04
      1.03585277e-04 2.05695326e-03 8.80652733e-05 -1.84396491e-03
      -1.90396604e-04 -2.41496856e-03 6.22031512e-04 -3.13847762e-04
      2.09989888e-03 -3.68867972e-04 -4.75903595e-04 -2.20828020e-04
      1.03340473e-03 -5.33897546e-04 -3.97590047e-05 -1.57841841e-05
      9.30101160e-05 -1.68757353e-04 2.59551016e-04 -1.73204768e-04
      1.15014642e-04 -1.55329739e-03 5.14870684e-04 -5.29707351e-04
      7.55135625e-05 -1.93189611e-04 -2.48525121e-05 6.00042928e-04
      -1.29136827e-03 -5.16832457e-04 1.71166763e-03 -2.32530525e-04
      3.44048400e-04 -4.12561931e-04 9.24640161e-04 1.09863788e-04
      -2.05385708e-03 2.57925101e-04 5.66129864e-04 7.63612159e-04
      -6.42787025e-04 -1.11490837e-03 -1.55048125e-04 -1.12569134e-03
      8.46101786e-04 -2.91933073e-04 -8.66202117e-06 6.83539722e-04
      -1.51452812e-04 3.73894494e-04 -1.80334740e-04 -5.13208041e-04
      -3.98427474e-05 4.16070718e-04 1.09594213e-04 -1.71934196e-04
      2.39841815e-04 -2.52466270e-05 3.80670863e-05 -2.28080418e-04
      3.95514915e-04 3.47457826e-04 1.88361417e-04 1.37514740e-04
      -1.20030127e-04 -1.26635807e-03 -3.95398165e-05 -1.70753090e-04
      -3.12528195e-04 -5.93327277e-04 3.21176462e-03 -5.74692531e-05
      -1.22223655e-03 -4.54629590e-05 6.29712886e-05 -7.51191052e-04
      1.96760613e-03 1.25936465e-04 3.35370351e-05 2.55874202e-05
      2.52645666e-04 -2.56039726e-04 -1.94367531e-04 1.53959569e-04
      4.46688733e-04 -1.27146996e-04 -1.03303196e-03 1.56003895e-04
      -1.09583874e-04 -2.32876424e-04 5.71796205e-04 -5.32970473e-04
      -7.81764629e-06 -8.34484352e-04 -1.34097223e-04 -5.38044726e-04
      2.88268377e-04 6.85076986e-04 2.10448913e-03 -9.70235036e-04
      -1.25123549e-03 -2.25593196e-03 5.19249879e-04 8.99396662e-04
      1.62159104e-03 -1.71849839e-04 -2.62243208e-04 4.78581205e-04
      -7.58104579e-05 -7.00849341e-04 -1.63872406e-04 -1.18323667e-04
      2.00242448e-05 -2.95271573e-04 -5.89686970e-05 -8.70054355e-04
      1.44009746e-03 8.74798629e-04 5.79329644e-05 -5.57728694e-04
      1.62690529e-04 6.79660516e-05 -3.75812597e-05 -2.70174933e-04
      -1.29184526e-04 1.26307516e-03 -1.30534492e-04 1.11635483e-04
      -6.28865964e-05 7.09967921e-04 2.03181189e-04 1.91820451e-04
      4.16568568e-04 -1.48936640e-03 2.60671647e-03 -1.86631310e-04
      -1.62182725e-03 -9.28697191e-05 -2.28851815e-04 -5.28004239e-05
      2.57881801e-03 9.33121737e-06 -1.49804851e-04 5.13801097e-05
      9.83524806e-05 -4.98704367e-06 7.07074578e-05 -2.75149854e-04
      4.72042797e-04 -1.60952657e-03 -2.02028872e-03 -6.84209008e-05
      2.03548744e-03 -4.07235319e-04 -5.08984431e-06 -6.85401144e-04
      -7.91284197e-04 -7.81225797e-04 -1.39973557e-03 -2.23407245e-04
      -1.83254524e-04 2.78773921e-04 1.73282693e-03 -1.37149589e-03
      8.36906140e-04 7.04158447e-04 -1.51229335e-03 -4.62269498e-04
      -6.59555255e-04 7.09995336e-04 1.14167837e-04 1.06551987e-03
      1.12173206e-03 1.64053999e-04 -7.31503475e-04 -4.82626405e-04
      -1.06521984e-04 2.91136734e-04 -1.41932440e-04 1.38863781e-03
      1.19745196e-03 3.70672846e-04 1.65178470e-04 5.92128636e-05
      2.77054351e-05 -1.15783550e-04 -3.73210642e-05 7.92014616e-05
      -1.08070126e-04 1.46359074e-04 1.07760068e-04 6.88868749e-05
      -1.68693630e-04 2.20236834e-03 2.18052064e-05 9.70117631e-04
      1.03944121e-03 1.19139568e-03 1.78804412e-03 1.67068443e-04
      -3.16928886e-03 -1.45179889e-04 3.53650888e-04 3.38315323e-04
      -4.73954744e-04 -1.46760111e-04 -1.74669360e-04 2.25205640e-05
      1.09967630e-04 -2.05049000e-05 5.14302019e-06 -1.95123444e-04
      4.05496481e-04 -1.24124368e-03 -4.23652120e-04 1.28500091e-04
      2.03043665e-03 1.53705187e-04 -2.17996916e-04 -9.95456474e-04
      -2.49591772e-03 -2.36808462e-03 -3.17411235e-04 -3.63418134e-04
      -5.23250201e-05 9.16802906e-04 4.49524901e-04 -1.76667119e-03
      -9.81906196e-04 -1.16614538e-04 -1.21339038e-03 -2.96062441e-04
      -2.00070310e-04 -2.52882281e-04 6.69518427e-04 5.49095217e-04
      -1.12010271e-03 -1.42360199e-03 -1.28384127e-04 -2.85672228e-04
      -9.93243302e-05 1.10002502e-03 7.47282349e-04 -6.77432690e-05
      2.22567294e-04 -5.89619958e-05 -7.65580335e-04 1.72621279e-04
      8.56381375e-05 -1.71813008e-04 0. 1.88039878e-04 -9.39037782e-05
      -4.74009110e-04 1.30688903e-04 3.99461511e-04 -5.02962321e-05
      1.18635315e-03 -2.63289403e-04 7.95784727e-05 4.94149048e-04
      -8.45883915e-05 8.80379055e-04 -1.07078929e-04 -2.78515625e-04
      2.19117173e-05 9.54356365e-05 4.71403589e-04 7.00070057e-04
      -9.55634678e-05 -6.57017881e-05 9.35805001e-05 -3.57296522e-05
      -3.27516173e-05 -1.73531938e-04 5.98017323e-05 5.28795121e-04
      1.29571650e-04 -1.22662156e-03 1.19442600e-04 3.51744643e-06
      -2.75375030e-04 6.21107483e-06 -4.43794037e-04 1.81132171e-04
      -7.10495398e-04 7.72202548e-05 -6.26428664e-05 -1.75276713e-04
      1.43725134e-03 6.85889972e-04 -1.38611521e-03 7.18852039e-04
      4.50902211e-04 -1.47009196e-04 3.57706449e-04 -3.56881676e-04
      4.40745440e-04 -3.66771215e-04 8.32806225e-04 -6.28761190e-04
      3.43908439e-04 3.55268188e-04 3.34023825e-05 7.16758586e-05
      -8.85148547e-05 -4.79660266e-05 -9.88696935e-04 -6.78938988e-04
      -3.41058680e-04 1.19041535e-04 2.68195814e-04 1.10708519e-04
      2.90500087e-04 0. -2.90237804e-04 5.15346583e-05 7.46708771e-04
      1.32076006e-04 -1.60534273e-05 -9.51682960e-05 -7.15689501e-04
      4.00466452e-05 5.57051797e-04 -1.12606780e-04 -8.13792227e-04
      -1.02714612e-03 1.80352290e-04 1.16292853e-03 -1.11958878e-04
      -3.75658201e-05 -4.91493207e-04 8.39760120e-04 -1.20058125e-04
      -1.48136183e-04 -1.20264785e-05 -2.70702003e-04 -2.67228868e-04
      -1.50548032e-04 5.09808655e-04 -3.58249905e-04 -1.71391584e-05
      2.77218205e-04 4.60598938e-04 7.49122526e-04 2.65707553e-04
      1.24873608e-04 4.84732416e-04 -1.38638439e-04 -3.14646191e-03
      7.94527936e-04 -1.49776970e-04 -1.90942137e-05 6.18379272e-04
      -3.29362265e-05 -1.02489966e-03 1.54191779e-03 -2.16191591e-04
      1.62794348e-03 1.18814071e-03 8.22296133e-04 -1.21048314e-03
      2.24531032e-04 4.27371240e-04 -2.38841446e-03 -6.55617405e-05
      -5.90119316e-06 2.04795342e-05 1.30236789e-04 -6.26157445e-04
      -3.56897304e-04 -2.72047037e-04 -3.56685545e-04 6.93026581e-04
      2.35218540e-04 -6.37197663e-05 -1.18616743e-04 -1.04904291e-04
      8.15187559e-06 5.64264774e-04 -3.14627978e-04 -1.23579497e-03
      -5.16889158e-05 1.99341492e-04 3.56808550e-06 -2.99970759e-03
      -1.10059555e-04 3.96456075e-04 -4.94020933e-04 -8.34915147e-04
      1.01649470e-03 4.73986147e-05 -1.15481648e-03 2.40336551e-04
      -1.03716440e-04 -3.49961279e-04 1.56624083e-04 -4.50667067e-05
      -1.50456690e-04 8.25370535e-06 6.71847738e-05 4.26371727e-04
      6.26810797e-05 -2.14473184e-04 1.69759186e-03 -8.53109406e-04
      1.18989999e-04 4.75943089e-05 1.75643642e-03 4.89289596e-06
      -4.04486462e-04 9.81940320e-06 1.71226286e-03 3.39917373e-04
      -2.29263504e-04 3.09398776e-04 2.88879557e-04 -1.66731246e-04
      9.52704751e-04 1.96330380e-04 -5.02713257e-04 2.95770913e-03
      5.07681834e-05 1.73934546e-04 1.78549773e-04 1.36195903e-03
      -3.02255008e-04 -1.12981105e-03 1.36904663e-03 3.05791706e-04
      -2.82991587e-05 2.80165532e-05 1.89326442e-04 3.55328739e-05
      -3.23492459e-05 -1.02132407e-03 -4.91243380e-04 1.18941694e-04
      -1.43231431e-04 6.85010673e-05 -2.45370338e-05 -1.35312284e-05 0.
      -9.98680189e-05 -1.73535402e-04 -1.50170806e-03 -1.73665772e-04
      -8.43836024e-05 -3.08613904e-04 6.38521393e-04 -1.24519836e-04
      6.56181772e-04 2.95456819e-04 1.17590430e-03 8.27657423e-05
      4.56425856e-04 -6.57906756e-04 5.12527040e-05 8.23423688e-05
      -3.92591377e-04 -1.27393310e-03 -1.60961587e-04 2.32139500e-05
      -4.75952984e-05 1.24009675e-04 3.48464237e-04 4.86287841e-04
      -1.01576894e-04 -7.03726313e-04 -6.48208661e-04 -5.37678774e-04
      -5.39298810e-04 1.35110400e-04 -2.41814996e-04 -8.39390050e-05
      -4.21556506e-05 4.40914082e-05 5.64863090e-04 -5.85155387e-04
      2.57111184e-04 6.16586476e-04 -1.36924267e-04 -7.22527970e-04
      -1.32570288e-03 9.77907097e-04 -9.94699658e-04 1.18276235e-04
      -1.76045788e-03 7.24322570e-04 8.67600102e-05 -4.27503837e-05
      1.05081196e-03 1.22155668e-03 2.18097455e-04 -7.10309032e-05
      -1.62709955e-04 3.36966150e-05 -4.81263764e-04 -1.43011188e-04
      4.08027990e-04 1.32934350e-04 4.12213092e-04 -1.69968218e-04
      3.01325432e-04 2.57546228e-04 1.34716160e-04 -1.16708150e-04
      -2.49237230e-04 -3.64158885e-04 1.24263181e-03 2.19338341e-04
      5.54877843e-05 -4.38678398e-05 -8.68922216e-04 2.09813996e-04
      1.24521705e-03 5.59380860e-04 8.13080987e-04 -1.10886665e-03
      1.39068143e-04 5.39338107e-05 3.58205027e-04 -5.24858420e-04
      -8.83923858e-05 -4.58289316e-04 -1.63669189e-04 -9.63218263e-05
      1.21778739e-05 2.79594562e-04 2.02998970e-04 -6.38119891e-05
      1.66041165e-04 3.73748393e-04 -1.04251504e-03 -8.62412708e-06
      2.10534345e-04 1.29960699e-03 1.53962857e-04 -2.77375191e-04
      -8.57270788e-04 -3.62215418e-04 -3.38932819e-04 4.37627139e-04
      5.25850570e-04 6.23825254e-05 9.08928196e-05 6.28469788e-05
      -1.25252805e-03 -1.76225021e-03 -1.08488137e-03 7.65308563e-04
      -3.66775086e-04 -2.85853661e-04 -1.34879036e-03 3.86964020e-05
      -1.46935217e-03 2.17810227e-03 6.36935292e-04 1.06077432e-03
      -2.20628150e-04 2.53945269e-04 7.64515935e-05 -1.50936146e-04
      -8.77743529e-04 2.35575926e-03 -2.81713816e-04 1.25760125e-04
      -7.38164585e-04 -3.97196069e-04 -6.45282344e-05 1.22366022e-04
      -2.54703365e-04 7.69107137e-05 5.20042340e-05 -1.84809629e-04
      -4.79033304e-04 -1.23046339e-04 4.32148139e-04 1.22370635e-04
      3.91699607e-04 7.54405162e-04 -5.60489541e-04 -3.63328814e-04
      9.38505982e-05 1.02861982e-03 2.62066955e-04 -3.79624747e-04
      -5.19737368e-05 -4.57177754e-04 -2.04814860e-04 1.95908535e-04
      1.34328366e-04 -8.70771619e-05 -1.88066930e-04 -1.54061272e-04
      2.40098700e-04 -1.74771747e-04 -1.87055604e-03 1.86179369e-03
      8.02349459e-05 -3.80763202e-04 -2.09005535e-04 5.80949534e-04
      -7.47578859e-04 -7.98413705e-04 1.20941736e-03 1.33075134e-03
      2.21515329e-05 -2.09682155e-04 4.98609210e-04 -5.81742370e-06
      -1.86345458e-03 5.23958297e-05 -1.68797118e-03 8.81184707e-04
      -3.33489123e-04 8.02928058e-04 3.91298490e-05 2.58279597e-05
      -1.67997205e-03 4.50655876e-04 2.11911020e-03 -2.08675454e-04
      -1.49154557e-05 -2.75400351e-04 -7.92128383e-04 -3.16673133e-04
      3.24120023e-03 7.78047688e-05 5.37238200e-04 1.24214886e-04
      -2.48049007e-04 -2.20798989e-04 1.93730521e-04 1.41507728e-04
      -5.61664870e-04 -2.15586806e-06 1.14283517e-04 -1.48887402e-05
      1.99722577e-04 -2.05127872e-04 3.06216127e-04 -1.63906079e-04
      -1.24295324e-03 2.61097914e-04 1.47849566e-03 1.19286904e-03
      -2.05541583e-04 -1.28919049e-03 1.45643920e-04 1.27600622e-04
      -5.99894789e-04 -5.59453969e-04 -1.40655990e-04 -8.59371448e-06
      -3.07724295e-05 -7.66790254e-05 -3.24929104e-04 -7.40928517e-05
      4.51304775e-04 3.76754469e-04 -2.96858023e-03 -5.35363215e-04
      -1.97188332e-04 2.15963901e-05 -5.31724545e-05 4.23206860e-04
      -1.43814436e-03 2.60150176e-03 1.59183017e-03 -1.62064179e-03
      7.42871023e-04 1.29894621e-03 -7.71916413e-04 5.87048824e-04
      3.27966018e-06 -1.69522222e-03 1.35715958e-03 -1.54408172e-03
      1.53043005e-03 1.04747235e-03 3.03099398e-04 -6.76849086e-05
      2.60653411e-04 -1.78450125e-03 -8.59596534e-04 -3.39343504e-04
      3.05042427e-04 -2.19498514e-04 -5.62358939e-04 -2.13885112e-04
      1.44494942e-03 -6.45014050e-04 -3.97274678e-04 -7.48586390e-05
      4.51194828e-05 2.84433372e-05 -1.03332977e-05 3.53795294e-05
      1.36238697e-04 1.58254014e-04 3.01595101e-05 -8.41106084e-05
      1.45036262e-04 -1.19266937e-04 -5.15760330e-04 -1.48108695e-04
      4.12237918e-04 -1.05491439e-04 1.42408884e-04 1.27780891e-04
      -1.03571430e-04 1.22342957e-03 2.74624937e-04 4.35606307e-05
      6.56106102e-04 -2.23996094e-03 -3.13440396e-04 2.04246026e-04
      8.73234894e-05 3.23416491e-04 -5.73998186e-05 5.29345853e-05
      8.89862204e-05 1.13520108e-03 1.51869166e-03 -7.12216250e-04
      5.57136780e-04 2.12386032e-04 -2.46057840e-04 3.17782433e-05
      1.72076238e-04 1.82316790e-03 1.58062918e-04 -1.59900740e-03
      2.86017952e-04 -3.28975759e-04 -1.26038925e-04 -5.43415663e-04
      -1.63213199e-03 -7.65626435e-04 2.36697728e-03 4.94452717e-04
      4.11059336e-05 1.45622075e-03 9.40278733e-06 -3.35277175e-04
      9.16583696e-04 -1.91509689e-03 2.90648808e-04 -1.36899471e-04
      -2.21405382e-04 2.44368566e-04 -3.30856565e-05 4.11088549e-05
      9.57789831e-04 -1.11271557e-03 -5.86004986e-04 -9.14304474e-05
      -8.34385428e-05 2.31237791e-04 -7.24016427e-05 2.57877873e-05
      1.99705493e-04 3.67374232e-05 5.97550476e-04 -8.47474512e-05
      1.52197599e-05 7.04773192e-05 3.46660323e-04 1.77392751e-04
      -2.98146915e-04 -1.15074698e-04 -1.05351894e-04 -8.03015937e-05
      -4.13652197e-05 4.57857328e-04 -1.06822263e-04 1.08547210e-04
      1.84993463e-04 -4.20045661e-04 -3.26447567e-04 -2.07253193e-04
      6.18029808e-05 -5.78530744e-05 1.07057327e-04 -3.08029921e-05
      -9.94081711e-06 -9.12052230e-04 5.48425538e-04 -2.70813907e-04
      4.70683095e-04 -7.09682179e-04 2.24564152e-04 -5.23818017e-05
      -2.86678900e-04 -8.33153259e-04 -3.36764526e-04 -1.28267694e-03
      -1.85205936e-04 -1.36678119e-03 1.30260258e-03 2.19822730e-04
      8.42241396e-04 -3.39926424e-04 -7.95034866e-04 5.52151359e-05
      -3.88865621e-04 -2.76461040e-04 -1.12663489e-03 -4.00977988e-05
      1.85690192e-03 2.59022904e-03 1.90773528e-04 -1.19928794e-04
      -1.57776987e-04 -6.79147197e-05 -5.36659732e-04 -2.34757768e-04
      -1.37255050e-03 1.52823178e-03 7.09196378e-04 -1.70512882e-04
      -8.54094542e-05 3.08289709e-05 4.29187232e-04 -3.12841148e-05
      4.65760706e-04 2.87165516e-04 -1.71438314e-03 2.07711142e-04
      9.92098649e-05 -1.45465528e-04 -9.82592901e-05 7.02394900e-05
      1.06543303e-03 8.42816298e-05 7.21782388e-04 5.80241031e-04
      -2.23315787e-04 1.40944018e-03 1.04241379e-04 -1.88339225e-04
      5.78591193e-04 3.25418729e-03 -1.85748999e-04 -1.56675060e-06
      5.00337483e-05 3.72985756e-04 7.18851925e-06 -1.05035651e-04
      -9.80105979e-05 -6.63197949e-04 -2.75824714e-04 -1.88417989e-03
      -1.30418397e-04 -1.44180958e-03 -2.10697090e-05 -1.77717768e-04
      3.22254811e-04 -1.03861687e-03 -1.42924266e-03 -1.39887954e-04
      -1.05543681e-04 -1.23606760e-05 -1.02134515e-03 -3.31132469e-04
      2.52522208e-04 -4.87472396e-04 -6.70560170e-04 -2.42709371e-04
      -1.71916414e-04 1.77790853e-03 6.35897741e-04 6.48212954e-05
      -4.77013004e-04 -1.49910268e-03 1.13515637e-03 -4.43052937e-04
      -2.40674170e-04 -2.55899358e-04 1.08548987e-03 -3.34428987e-05
      -1.19954010e-03 2.64915056e-04 -1.94519627e-04 -1.97725400e-04
      -5.92171345e-05 2.24808580e-04 7.40810719e-05 -5.87553695e-05
      2.17865323e-04 -2.57165666e-04 2.71443016e-04 -1.45935250e-04
      3.25922010e-05 -1.07124608e-04 4.33132052e-04 1.83338751e-04
      1.08668930e-03 5.13220439e-04 2.84872309e-04 -8.38893233e-04
      3.45305452e-04 -1.76245684e-03 1.44524180e-04 2.91338103e-04
      2.00124850e-05 -7.47738173e-04 -2.75175489e-06 -2.71315221e-05
      -1.80772477e-05 -2.59245746e-04 -1.06596672e-04 -1.97602683e-04
      2.65888812e-04 1.98837341e-04 -1.89868850e-04 8.69093521e-04
      1.78370159e-04 -4.02311329e-04 5.58926375e-04 -8.99080333e-05
      7.69511826e-05 -8.23468843e-04 -1.96053923e-04 4.90697508e-04
      6.93698894e-06 -1.55127037e-03 8.76860868e-05 2.62563899e-05
      -4.66670608e-04 2.08734325e-03 2.00060126e-03 -6.01117965e-04
      1.25341641e-04 -3.15400743e-04 7.23933626e-04 3.64452222e-04
      -9.63974802e-04 -1.59447803e-03 -4.44272737e-04 9.25462518e-04
      -2.96160899e-04 -4.84940334e-04 -1.03729579e-03 3.09027149e-04
      2.54599781e-05 -5.37087151e-04 2.92063705e-05 -1.08704291e-04
      -6.27564878e-05 -3.12469201e-05 -1.68493625e-05 -1.82773019e-05
      -3.29515518e-04 1.75994865e-04 9.11006238e-04 1.36802657e-04
      1.51414197e-05 4.66293641e-05 1.12338130e-04 -2.71933131e-05
      6.69237692e-04 -6.02489454e-04 7.26218917e-04 1.31533400e-03
      1.85776938e-04 -5.28824748e-04 6.26011111e-04 -3.29440838e-04
      -6.50613918e-04 6.60496764e-04 -1.78457831e-05 2.46010575e-04
      1.86944944e-05 -1.45611757e-05 -2.32264851e-04 -3.21611005e-04
      1.56014255e-04 5.72544464e-04 4.22563113e-04 1.07723416e-03
      -4.40786971e-04 1.70970947e-04 -3.92500311e-04 -2.47197371e-04
      7.21373886e-04 -1.02516043e-03 -3.56844044e-04 2.72328416e-05
      -6.76748925e-04 -3.29177361e-04 1.15737319e-03 1.13963010e-03
      -1.69889384e-03 -1.05988246e-03 -7.22698227e-04 -1.46609230e-03
      1.39766478e-03 1.16723834e-03 -6.09940071e-05 6.84786355e-05
      -1.18956680e-03 -2.06447951e-03 -1.09610450e-03 -2.34743769e-04
      -1.35629904e-04 4.67540696e-04 6.87741616e-04 1.20094184e-04
      -2.09254841e-03 5.48104581e-04 -2.38847151e-05 4.87950019e-05
      5.95200072e-05 -3.02843055e-05 1.03489445e-04 -1.59677820e-05
      4.94230108e-06 3.66286549e-04 1.47278095e-03 -4.14401584e-05
      2.21605951e-04 -5.97351791e-05 1.08070415e-03 6.01139473e-05
      -7.79231428e-04 -2.97606661e-04 6.22337247e-05 -3.37739184e-04
      1.38728297e-04 1.07313541e-03 1.77951209e-04 7.65990117e-05
      -4.21341421e-04 -7.75831868e-04 4.52281383e-04 1.44659731e-04
      -1.07744563e-04 -1.89109123e-04 -2.80213921e-04 -3.52779636e-04
      -2.18161615e-04 -1.36542876e-04 -8.23682931e-04 -4.21650184e-04
      -6.79006393e-04 5.71611163e-04 5.56062150e-04 -1.35229697e-04
      4.32581233e-04 2.32990031e-04 1.23600836e-03 -4.23840014e-04
      2.28253164e-04 -9.62291670e-05 -3.39436432e-04 1.55351707e-04
      2.00327695e-03 6.32721931e-04 -8.18477711e-04 -1.00736223e-04
      3.27378948e-04 -6.25757675e-04 7.54909415e-04 6.41367524e-06
      -1.03136897e-03 6.72743306e-04 -1.46648199e-05 -5.24579897e-04
      -2.58746091e-04 -1.27136314e-04 7.60586467e-04 -4.22777084e-04
      -5.65430310e-05 -7.26574290e-05 -1.40594144e-04 1.86509733e-05
      -1.36591712e-04 -2.82209425e-04 3.46429661e-05 0. 3.50962568e-04
      1.83270648e-04 4.89268103e-04 1.46404098e-04 -2.34983803e-04
      4.95909262e-05 1.05265866e-03 -1.06682979e-04 2.57045467e-04
      2.61325564e-04 -4.43695870e-04 1.05832377e-03 1.80949355e-04
      -9.54887539e-04 -2.97580700e-04 1.14051414e-04 -2.67633266e-04
      -1.52658042e-03 6.56829332e-04 -5.66325944e-05 1.04558661e-04
      -1.08793480e-04 -1.71128006e-04 -1.98731257e-04 -1.55538582e-05
      1.31418172e-03 -1.35489576e-03 1.91784857e-04 7.25084101e-05
      8.22122616e-04 -1.06301195e-04 -1.08566546e-05 -3.54671414e-04
      1.36354400e-04 1.16777210e-03 -8.72980861e-04 -1.73068795e-04
      -2.02269905e-04 -2.41615824e-04 7.04010890e-04 6.18205580e-04
      -1.95120316e-04 -2.01842492e-03 1.39046961e-03 1.84415447e-04
      -7.86707678e-04 -6.78055105e-04 -8.98968065e-05 1.92043794e-04
      -1.54103778e-04 2.49634119e-04 1.83013821e-04 8.45944305e-05
      1.54416819e-04 -1.47837307e-03 6.06439098e-05 1.59941020e-03
      -6.91493973e-04 4.29841137e-04 1.07638014e-04 3.30234216e-05
      1.03660626e-04 3.13432975e-05 -1.63785335e-05 -1.12451590e-03
      -1.28683998e-04 9.17929108e-04 1.18866483e-04 5.56342056e-05
      -8.24562958e-05 9.59428377e-04 -1.68497660e-04 -2.84461203e-05
      3.95364732e-05 1.88386155e-04 -1.10443414e-03 1.53501489e-04
      -7.09274434e-04 1.97942165e-04 -9.24691922e-05 2.21471244e-04
      -8.25538184e-04 3.37513949e-04 -4.24534810e-04 7.15787246e-05
      3.17076367e-04 3.83900595e-04 1.75720983e-04 6.44026004e-05
      6.17419195e-04 -1.66481477e-03 -3.03499895e-04 -8.50565208e-04
      5.15399734e-04 -6.14187156e-04 5.82706532e-04 -6.76869764e-04
      1.03652966e-03 1.87207319e-04 1.67315942e-03 1.01897720e-04
      -8.67503186e-05 1.28461246e-03 -2.07351710e-04 1.21373846e-03
      -1.21338468e-03 -1.82345393e-03 1.39295973e-03 -3.38380429e-04
      -7.29358871e-04 -1.56301493e-03 -5.09380006e-05 -3.17278923e-03
      -7.35922076e-05 1.65245554e-03 9.01121603e-05 3.87451961e-04
      1.69411098e-04 1.49420180e-06 -8.61015724e-05 -2.43182338e-04
      5.25790856e-05 5.53279315e-05 5.62886999e-05 -1.31479421e-04
      -2.67905532e-04 2.99540668e-04 5.83535111e-05 -4.09391563e-04
      1.55552276e-04 1.21762778e-03 -3.71476199e-05 -2.04431621e-04
      2.49180972e-04 1.31018250e-03 3.52100028e-06 8.01120244e-04
      -3.59168218e-04 1.33994932e-03 1.51941727e-03 9.85872393e-05
      -5.06671728e-04 9.84671424e-05 -6.27464760e-05 -5.27640514e-04
      -1.43966943e-04 3.45971166e-05 1.56615934e-04 -5.17923254e-05
      -4.10809356e-04 1.61013468e-05 -4.72468782e-05 -1.18773623e-05
      4.76706657e-04 -3.15435417e-03 1.31086432e-04 -3.92906513e-05
      1.52954529e-03 -1.90634339e-04 2.55520881e-05 -6.64088235e-04
      -1.29357693e-04 -1.18852942e-03 9.73356015e-04 3.08322691e-04
      2.20084097e-03 2.35522352e-03 9.05290479e-04 -8.73410027e-05
      -3.41613661e-03 2.18061055e-03 -2.38651191e-04 -9.34612937e-04
      -1.72126363e-03 8.41177243e-04 -3.74919473e-04 -1.44833443e-03
      2.16099201e-03 1.53114041e-03 -2.50736775e-05 -2.65404989e-04
      -1.14599141e-04 1.21540017e-03 1.07926433e-04 -1.95693225e-03
      -8.64398724e-04 5.29073528e-04 -3.66843218e-04 -7.22297336e-05
      1.98727867e-06 -2.04894488e-04 1.79847892e-04 1.66551254e-04
      1.00849895e-04 1.51565197e-04 2.62910675e-04 1.07339860e-04
      -3.12301476e-04 -2.13454198e-03 2.97144376e-04 1.86955172e-03
      1.57360686e-04 5.16168584e-05 -4.54259105e-04 4.54789988e-05
      3.81995109e-04 -1.68495477e-04 4.37976851e-05 9.46362852e-05
      -2.56213476e-04 -9.01375606e-05 3.85486317e-04 -2.45922729e-05
      -3.37301579e-04 1.13694739e-04 -2.09469319e-04 2.00878712e-04
      2.26323700e-05 1.54191162e-03 -2.01056432e-03 4.19657408e-05
      1.61052251e-03 -2.10088532e-04 3.60014164e-05 -1.98626629e-04
      -1.48708047e-03 1.11349730e-03 -3.28905036e-04 -3.61529783e-05
      4.43697616e-04 1.22348592e-03 -3.22428503e-04 -1.31550583e-03
      -7.27905950e-04 1.60534435e-03 3.68544832e-04 9.36410157e-04
      1.25091849e-03 3.51760158e-04 1.71217092e-04 1.68345880e-03
      2.09985487e-03 -4.98626148e-04 -9.64440696e-04 -3.14073375e-04
      1.91252635e-04 -2.69312528e-03 2.17079083e-04 -1.64893951e-04
      1.05084537e-03 2.57747044e-04 -1.09083965e-04 3.16483565e-05
      1.53639063e-04 -2.64840310e-05 -7.45495418e-05 -1.00446123e-04
      -2.78893014e-04 -1.96068478e-03 5.06893412e-05 2.69847806e-06
      1.96478868e-05 -4.99830465e-04 -9.16482386e-05 -1.66057016e-05
      -4.77528607e-04 1.39551214e-03 -5.58855070e-04 -3.02308239e-04
      -6.87122112e-04 1.12403337e-04 1.58011710e-04 -9.00279992e-05
      1.23656390e-03 1.20651559e-04 2.55850446e-05 -2.26256489e-05
      2.80144421e-04 1.33697167e-05 -6.64927502e-05 -2.11312363e-04
      4.90609556e-04 1.92055697e-04 -2.30403198e-03 3.04726564e-04
      6.50589238e-04 6.06020389e-04 -9.06733330e-04 -5.20106754e-04
      4.46494203e-04 2.12449842e-04 1.07408843e-04 -4.09327331e-05
      -1.97114146e-04 -7.50508974e-04 -1.90606646e-04 -1.20641598e-04
      -1.55501778e-03 -6.99360098e-05 1.21702836e-03 4.56597249e-04
      -2.09900690e-03 3.08525516e-04 -2.17989582e-04 7.66779354e-04
      -9.82040772e-04 -3.31446558e-04 1.71376305e-04 5.59896534e-06
      1.73901397e-04 1.24164612e-03 1.19402088e-04 1.95560465e-03
      6.83771970e-04 -3.84188461e-04 -1.35984679e-04 2.29258643e-04
      1.26577928e-04 -9.56613658e-05 -7.86487726e-05 2.00901286e-05
      7.53141876e-06 -1.70576747e-03 -1.41978249e-04 -3.46458582e-05
      2.10249727e-05 -1.42542226e-03 -1.94306340e-04 -3.60070466e-04
      5.34689054e-04 1.76295274e-04 3.08627903e-04 2.02652183e-04
      -9.83703765e-04 -3.66431486e-05 3.63391999e-04 4.40600124e-04
      -2.83686037e-04 3.65865999e-04 7.49652536e-05 -1.35669043e-05
      1.41723052e-04 6.36986588e-05 -1.19505086e-04 1.04941510e-05
      -1.28639363e-06 1.56094483e-03 7.83475232e-04 -2.00310911e-04
      7.22872850e-04 3.60424310e-05 2.71790603e-04 3.31060874e-04
      -2.78903026e-04 -1.36556791e-03 -1.12811348e-03 -1.11695292e-04
      4.00870835e-04 -2.97317468e-03 5.23545488e-04 -6.36599783e-04
      1.57152803e-03 9.71785630e-04 -1.21247191e-04 -1.30693452e-05
      1.02670351e-03 -2.29974030e-04 -4.43544850e-04 6.42352097e-04
      1.54680421e-03 -3.44291067e-04 -1.93959393e-04 2.43638369e-05
      -4.43260651e-05 -2.68014683e-05 3.16398218e-04 6.70501380e-04
      -1.41569157e-03 1.54707886e-04 -7.59232134e-05 7.27275037e-05
      -4.83755102e-05 7.86231758e-05 7.61939591e-05 -3.04856949e-04
      -3.12143646e-04 -6.09825540e-04 -1.50233944e-04 -1.05821513e-04
      2.18115252e-04 -9.42948172e-05 -7.03328260e-05 -4.25477599e-04
      1.95296714e-04 8.93048767e-04 8.28986173e-04 4.31100343e-04
      -5.14891115e-04 3.80854799e-05 -1.02172744e-04 -2.76377221e-04
      -3.98431381e-04 -3.54897842e-04 -3.52706615e-04 -1.05174004e-04
      8.20841742e-05 -3.58742953e-04 -1.78601797e-04 5.47794480e-05
      9.60667850e-04 5.19959547e-04 -6.13869459e-04 3.04000685e-04
      1.57260336e-03 -1.64473182e-04 4.64041717e-04 1.86453748e-04
      5.35007974e-04 -2.08121119e-03 -8.38884444e-04 3.34767283e-05
      5.18570421e-04 -2.89025938e-05 -3.14734323e-04 -7.46629375e-04
      -9.56548844e-04 7.58127659e-04 -2.40380992e-04 5.86093171e-04
      -1.02545100e-03 -9.52482864e-04 3.65365267e-04 -2.06502667e-03
      -1.65971869e-04 2.99430481e-04 -1.23345133e-04 2.18479443e-04
      5.20713584e-05 -2.20392903e-04 3.25784989e-04 -4.06262698e-03
      -1.90506635e-05 8.23609531e-04 -1.87492988e-04 2.07729929e-04
      -1.17033982e-04 2.25632641e-04 0. 2.16909000e-04 -1.92637017e-04
      2.28307722e-03 -2.75727856e-04 5.78026302e-05 2.06504788e-04
      -1.24267850e-03 6.37395278e-05 8.60813481e-04 -8.23751150e-04
      5.09609643e-04 6.58660720e-04 4.37864248e-04 -7.57990754e-04
      2.61414098e-05 4.00863821e-04 1.06979685e-04 -7.07257495e-05
      -1.32652531e-05 -2.90893193e-04 1.20423792e-04 2.02221607e-04
      2.16307599e-04 1.60822256e-05 -4.29809006e-05 3.99601675e-04
      6.78309705e-04 7.12294015e-04 -2.49312550e-04 6.46025990e-04
      3.29106144e-04 1.03983679e-04 -1.07880209e-04 -1.82494882e-03
      1.65251875e-03 -4.53475186e-05 1.93640983e-04 6.26467459e-04
      1.07407221e-03 2.67045951e-04 -6.71580376e-04 -1.14041648e-03
      2.63125752e-04 7.46206846e-04 7.06315273e-04 -2.42442766e-04
      -8.70273856e-04 -1.08029863e-05 -1.94447837e-03 -3.46409564e-04
      -1.52333232e-03 -1.90167964e-04 -4.33808746e-04 -1.87058249e-04
      4.85561963e-04 -2.57699954e-04 8.85329064e-05 -6.09649287e-04
      -4.83594573e-04 -3.43840569e-04 -1.34245231e-04 -8.18421977e-05
      5.13463856e-05 -1.42026993e-05 1.65195422e-06 -3.39753111e-04
      1.20728649e-03 -2.90415424e-04 -2.81636530e-05 5.02312423e-06
      -4.64103214e-04 -4.50829029e-05 -1.02573575e-03 -2.36547698e-04
      7.98913708e-04 1.21653569e-03 2.11665116e-04 5.18436764e-06
      -1.46968989e-04 1.97919260e-04 3.32028867e-04 4.62876487e-04
      -5.89547737e-04 -2.79752188e-04 -6.40414000e-05 1.36182120e-04
      1.52977547e-04 -5.60814842e-05 1.20585122e-04 -1.03762595e-03
      1.37701922e-03 -5.29998855e-04 -1.74793138e-04 2.30157340e-04
      -3.93759081e-04 1.20677483e-04 1.33396511e-03 2.64821621e-03
      7.84055737e-04 1.55490555e-03 -3.60382372e-04 -2.41304762e-04
      1.57780539e-06 -4.48984501e-04 -5.16933913e-04 -2.96667888e-04
      1.44633010e-03 2.36357722e-04 -3.79001925e-04 7.85274489e-04
      -4.96039924e-04 8.06713870e-05 1.71619782e-03 7.11153785e-04
      -8.86923517e-04 -3.16268706e-04 1.75060617e-04 2.72731759e-05
      -2.92001001e-04 2.00351369e-05 -1.87721825e-03 4.73562279e-04
      -2.43941267e-05 3.13771598e-04 -2.36537147e-04 -2.55282706e-04
      1.14497263e-04 -3.92312977e-05 2.52821570e-04 4.84035932e-04
      -4.11170215e-04 -2.64896371e-04 -1.96368070e-04 -2.04388798e-05
      -3.12895660e-04 1.65617239e-05 -1.03318680e-03 -8.41822548e-05
      -3.09118099e-04 -1.43940788e-05 -1.62655386e-04 -4.03172424e-04
      1.01003796e-04 2.24621603e-04 -2.37429980e-04 5.46057745e-05
      1.33547641e-04 5.89693918e-05 0. 2.00403956e-05 1.89872895e-04
      1.06730431e-05 2.19314807e-05 3.25721136e-04 1.64611544e-03
      -5.27855591e-04 1.59055373e-04 -1.41867145e-03 3.77577780e-05
      2.44294293e-04 3.98711505e-04 1.75535475e-04 -3.26846843e-04
      7.93391955e-04 1.27126157e-04 -5.55064587e-04 -1.59796793e-04
      -7.81711715e-05 1.29669276e-03 -1.55405921e-03 -2.06024968e-03
      -2.87254865e-04 -4.28402185e-04 2.34029168e-04 1.93726257e-04
      -4.25983075e-04 -1.86026315e-04 -1.10859971e-03 3.86632164e-04
      -7.50368272e-05 4.51025553e-04 -5.38348468e-05 6.49524591e-05
      -4.73841646e-04 1.98656833e-03 1.09608530e-03 -1.16489385e-03
      8.75654077e-05 8.14756058e-05 1.93379601e-04 9.59053505e-05
      5.85242233e-05 -6.95604773e-04 -1.34096030e-04 -1.12701103e-03
      -2.31296362e-04 -3.62496590e-04 2.36065607e-04 1.67612790e-03
      1.20661185e-04 5.21905895e-04 -1.87175203e-04 6.19436556e-04
      2.20280708e-04 3.63819890e-05 5.86709473e-04 1.58833383e-04
      -1.04322127e-04 -4.90415958e-04 -1.99608621e-04 1.63172226e-04
      3.47871537e-04 8.09386765e-05 2.02066440e-05 -1.34191549e-04
      2.25977099e-04 4.70842388e-05 3.25802393e-05 -1.34883530e-03
      1.04130851e-03 2.99710169e-04 -1.56782349e-04 -4.56544338e-04
      1.54336376e-04 -1.98679348e-03 -2.68510252e-04 5.66481845e-04
      2.12818268e-04 3.50763934e-04 1.29668892e-03 -2.85894581e-04
      1.18099328e-03 1.00748276e-03 -1.70098548e-03 -1.71762973e-03
      1.26142811e-03 -8.88464798e-04 -7.91753046e-05 -1.22714485e-03
      9.39962803e-04 -8.42893671e-04 8.72603327e-04 7.81839830e-04
      -4.39107156e-04 -2.89455609e-04 -1.01702841e-04 -1.26104977e-03
      2.13329244e-04 1.77961600e-03 -6.37033023e-04 7.85337412e-04
      3.21198691e-04 -2.75066268e-04 -2.59903813e-04 7.42462680e-06
      -1.44789141e-04 -4.43878089e-04 -3.48052010e-04 2.03773356e-03
      -1.16447009e-05 2.03901327e-05 -2.35083906e-04 1.76944549e-03
      -1.30277345e-04 9.26940644e-04 -2.75530561e-04 -9.32041497e-04
      3.51758121e-04 1.16549927e-04 1.94698325e-04 -3.16904625e-04
      1.14826304e-04 -5.77921805e-04 -1.70704699e-03 5.86754119e-04
      1.99263784e-04 1.31668392e-04 -3.05775349e-04 -2.16068744e-04
      -1.10645844e-04 -3.11439420e-04 4.47605562e-04 -6.48920715e-04
      -2.41230082e-04 -3.01411405e-04 1.32168888e-03 -7.54291832e-05
      6.43659223e-06 -1.43298437e-03 9.39158839e-04 -1.35621533e-03
      5.66484523e-04 1.36737060e-03 4.62147727e-05 2.95735430e-03
      6.66741398e-04 -2.05479935e-03 -1.53510703e-03 -6.16621808e-04
      -8.67451381e-05 -4.59424104e-04 -3.99692508e-04 3.18486447e-04
      -1.68745115e-04 -5.05906588e-04 4.23616177e-04 -3.62202030e-04
      -4.35573369e-04 1.32239817e-04 2.91497563e-05 2.04261788e-03
      8.96364727e-05 1.95352244e-03 1.17420196e-03 5.98537794e-04
      -2.20201531e-04 -1.20966331e-04 1.37165465e-04 1.18572570e-04
      1.40760414e-04 2.58356682e-04 1.58756899e-04 -6.60496706e-04
      8.04576703e-05 -1.30608360e-05 -7.07359068e-05 -1.90262380e-03
      -1.70198458e-04 8.20207817e-04 1.13301119e-03 -6.97500291e-05
      9.27263871e-04 3.86010906e-05 1.03197608e-03 -1.04773819e-04
      4.34799185e-05 -2.28165532e-04 -4.34843445e-04 -2.53393519e-04
      -2.63832917e-04 0. -5.69063423e-06 2.49024655e-04 -3.50584975e-04
      4.87182660e-05 -2.35935557e-04 -1.08525110e-03 3.26909008e-04
      -2.57784501e-04 1.62469310e-04 -2.00605427e-04 1.14927225e-05
      -7.86685734e-04 -1.22027285e-03 -1.73858297e-03 8.81606771e-04
      5.04018913e-04 3.97259028e-05 2.44042440e-05 4.90056118e-04
      7.18121941e-04 -1.67781918e-03 2.66882707e-03 -1.43133081e-03
      6.23940025e-04 8.46205512e-04 1.17424480e-03 2.37098429e-04
      -4.68257858e-05 -7.87438883e-04 -1.26644457e-03 -3.94608738e-04
      2.23485229e-04 -1.29420427e-04 -6.09088049e-04 -8.64209724e-05
      -1.89190975e-03 9.78793949e-04 6.61142345e-04 -1.35668830e-04
      -2.85464106e-04 2.28904355e-05 -8.49054559e-05 -7.26180442e-05
      4.68252634e-04 2.35251518e-05 6.52165501e-04 -1.16373965e-04
      -6.18742924e-05 9.51069233e-05 2.36383197e-03 3.52903415e-04
      1.04566501e-03 3.90331756e-04 4.96104185e-04 -2.69707176e-04
      -1.22938407e-04 -3.05734238e-06 1.39757904e-04 1.14533796e-04
      5.68112664e-05 8.07776058e-04 -1.11241607e-05 7.48125603e-05
      -4.44140605e-05 -4.60980918e-05 -1.09041517e-04 -6.30661889e-05
      2.81795714e-04 9.95452956e-06 3.47059889e-04 -2.47725472e-03
      2.78663938e-04 1.41356984e-04 -1.69224586e-04 3.59641999e-04
      -5.17657143e-04 -7.55982182e-04 9.21050902e-04 -7.08439271e-04
      -4.77198861e-04 -2.24327479e-04 -1.47123705e-03 4.63616481e-04
      -1.12666097e-03 -1.32352428e-03 5.68681629e-04 5.34630206e-04
      -3.93927592e-04 1.31250033e-03 -1.10394764e-03 1.48186027e-05
      7.74383836e-04 1.40713784e-03 -2.42953785e-04 2.34698949e-04
      -2.47271993e-04 2.66822783e-04 -1.01799180e-03 -3.54149699e-04
      8.58919113e-04 9.90443281e-04 6.09241019e-04 5.06952056e-05
      -9.13444965e-05 -1.34291375e-04 9.37292352e-05 3.37763377e-05
      4.16452473e-04 6.26222056e-04 -1.02307054e-03 -7.08161097e-05
      -3.41023151e-05 2.04969074e-05 -6.18181133e-04 -1.63474222e-04
      9.45064065e-04 -3.91640730e-04 -3.80874379e-04 1.22264528e-03
      -5.15087004e-06 -6.54227450e-04 -1.69964493e-04 -1.47165701e-04
      1.36226256e-04 -1.12067815e-03 8.33929153e-05 -3.33427684e-04
      4.27272171e-05 -1.23830265e-04 -7.68778773e-05 1.61398100e-04
      -4.33911955e-05 -5.18483401e-04 2.54193059e-04 -2.06215962e-04
      -3.71565315e-04 -1.32001459e-03 -2.44976312e-04 1.52682042e-04
      -7.57239235e-04 -1.41406443e-03 9.87107283e-04 7.76465109e-04
      5.97724749e-04 -9.20929233e-05 2.14139043e-04 2.39192843e-04
      1.38412672e-03 -2.14333087e-03 2.08329991e-03 -6.86607615e-04
      8.90798401e-04 1.07615010e-03 3.83758626e-04 2.36836331e-05
      1.17583293e-03 -1.72570674e-03 -2.58165164e-05 6.52736489e-05
      8.90703523e-05 -4.08689230e-04 -4.47014027e-04 1.53038534e-04
      2.67370790e-03 8.42669571e-04 -1.83544436e-03 2.39951245e-04
      -2.05704382e-05 1.58290495e-04 4.06201580e-04 7.54309367e-05
      2.94274796e-04 2.74085964e-04 -1.17180258e-04 -3.49229202e-04
      -3.91427107e-04 1.55389920e-04 1.04894687e-03 9.09434166e-05
      8.77784274e-04 8.42917361e-04 6.09625295e-06 -2.77061656e-04
      -1.44990641e-04 -1.23310706e-03 -1.61631124e-05 1.59095856e-04
      -2.30760852e-05 -8.19701410e-04 -1.05280844e-04 -7.66523008e-05
      4.03385093e-05 -9.22758190e-05 -7.58633032e-05 -1.31018402e-04
      1.49725631e-04 -2.69564800e-04 -1.95537973e-03 -1.07832276e-03
      1.69407736e-04 -3.03373876e-04 1.50856838e-04 -1.66320184e-04
      3.57301440e-04 -4.00559249e-04 -1.80906209e-03 -1.09019002e-03
      1.01890306e-04 -3.71002970e-04 4.49965999e-04 -1.71951193e-04
      1.80462972e-04 9.31961054e-04 -3.06250222e-05 -3.49941693e-04
      -1.15032773e-04 4.28774511e-04 8.14299565e-04 1.01705053e-04
      -2.18509836e-03 -1.16608426e-05 2.95203325e-04 2.24736432e-04
      -5.21813781e-05 -2.89346295e-04 1.44802209e-04 -1.73323861e-05
      8.91365053e-05 -6.57194993e-04 3.09831754e-04 4.99476409e-05
      6.40529688e-05 -9.43940322e-05 -1.62454351e-04 7.56875379e-05
      -2.95518112e-04 -5.50170895e-04 -1.25074782e-03 7.50320169e-06
      2.08256170e-04 3.21692642e-05 -4.69592778e-04 2.07142002e-04
      -1.07186424e-05 1.61569158e-04 -3.04232410e-04 -1.36825640e-03
      -9.48950837e-05 -2.25253263e-03 -3.52543975e-05 1.42308010e-04
      1.14323193e-04 1.07883464e-03 -6.32045412e-05 -2.50938356e-05
      2.78105617e-05 1.88849954e-04 -1.49069427e-04 2.21503971e-04
      9.73504284e-05 -1.73837252e-04 4.52281616e-04 2.26840004e-03
      -1.49659259e-04 5.65008144e-04 1.83007636e-04 -1.71787615e-05
      -4.72162443e-04 -3.04303132e-04 8.76854581e-04 5.18060406e-04
      8.30255740e-05 -1.36745092e-03 1.31686614e-03 -4.71507228e-04
      1.21972745e-03 1.22161838e-03 1.37627358e-03 -1.24207399e-05
      9.95128416e-04 3.84212995e-04 1.53140951e-04 -3.17242549e-04
      -6.75222429e-04 -2.07280231e-04 -3.80449812e-04 5.08740886e-05
      -2.46935932e-04 1.11161738e-04 -5.54227190e-05 1.18233824e-04
      -1.13480014e-03 3.46124056e-04 1.26342566e-04 4.42858727e-05
      -2.54280487e-04 -2.76373350e-04 6.47549605e-05 -8.80131047e-05
      3.45186127e-04 -2.70750257e-04 6.18273451e-04 -4.68340295e-05
      1.61484699e-04 4.72402235e-06 4.17389274e-05 2.31179394e-04
      -2.14152620e-03 -4.86575096e-04 -2.40878173e-04 1.86685508e-03
      2.23651932e-05 -2.39895977e-04 2.61937937e-04 -3.04907910e-04
      2.53809907e-04 -4.64088371e-05 6.86672647e-05 -2.15215288e-04
      -1.41287474e-05 -2.69543398e-05 -1.67288235e-04 8.56137631e-05
      -1.08030639e-04 9.66559572e-04 9.00291081e-04 2.02498632e-03
      -6.20925566e-05 -1.89942960e-03 -2.29349665e-04 9.36891229e-05
      -7.66023077e-05 6.69808534e-04 -2.98045954e-04 4.56646143e-04
      2.93103774e-04 3.84034560e-04 -6.80608500e-04 -1.01777329e-03
      -8.78279970e-04 -4.21471050e-04 5.14805899e-04 -2.05225297e-04
      -7.74113461e-04 6.05092384e-04 -5.54632279e-04 -6.94916889e-05
      -3.57941841e-04 9.79240634e-04 3.54478951e-04 -6.66158940e-06
      2.10305676e-04 -4.11532528e-05 5.49938006e-04 1.47206010e-04
      -1.73123577e-03 -1.30789436e-03 1.12080853e-03 -6.86119529e-06
      -4.59200877e-04 2.25638112e-04 9.50617323e-05 2.77156178e-05
      2.19595371e-04 1.81704148e-04 7.48227467e-04 -7.01491263e-06
      2.75943836e-04 -2.48814526e-04 2.79571163e-04 2.50326993e-04
      -5.40423171e-05 -6.94871123e-04 1.27522639e-04 1.12793618e-03
      -3.89084744e-05 -3.05812486e-04 2.37102300e-04 -2.06950383e-04
      2.04890792e-04 -1.57249218e-04 -1.51032888e-04 -1.34838512e-04
      1.35497277e-04 -5.22555565e-05 4.84522825e-05 4.03951097e-04
      -4.26434068e-04 -1.10341352e-03 -1.18342636e-04 1.57397342e-04
      2.63068650e-04 -1.19686765e-05 -3.98594770e-04 -7.42870849e-04
      3.90535861e-04 -1.94645509e-05 -6.12272532e-04 -2.71139899e-04
      1.16145908e-04 7.28134692e-05 1.18065637e-03 -2.72468489e-04
      4.17325704e-04 -1.25784558e-04 7.93853018e-04 5.37865271e-04
      -2.40644527e-04 6.18981954e-04 4.89042177e-05 6.29590417e-04
      -8.33764905e-04 -2.19522131e-04 2.57148262e-04 2.75675644e-04
      -4.19021293e-04 -1.89932660e-04 -2.93977530e-04 2.50480836e-04
      7.93128915e-04 -3.98001896e-04 8.50403332e-04 -3.74868920e-04
      -2.14551634e-04 7.85468001e-05 -2.46031123e-04 4.74785447e-05
      -3.74471245e-04 4.66864120e-04 -5.20986912e-04 -1.78782604e-04
      -1.48105944e-04 1.51738801e-04 -3.84874758e-04 7.63900534e-05
      1.88460131e-03 2.63379916e-04 9.22659645e-04 -2.93548102e-04
      -4.31940804e-04 -1.84652605e-03 1.32974397e-04 1.90322942e-04
      -5.17357606e-04 2.76597682e-04 2.50120705e-04 1.19489065e-04
      5.67476563e-05 1.63286881e-04 -7.18417868e-05 1.33108158e-04
      -3.57910496e-04 -5.29933546e-04 -1.84429082e-04 -1.27528192e-05
      -7.88501566e-05 -1.47258595e-03 -6.02058019e-04 2.84649868e-05
      -1.09650032e-03 -7.69244798e-04 2.81231944e-03 4.06621461e-04
      7.42153556e-04 5.83886460e-04 8.29546014e-04 1.81268188e-04
      -2.02280749e-03 -5.28773642e-04 -1.20823621e-03 1.51947537e-03
      -1.57942377e-05 5.07264573e-04 1.32729474e-03 4.10060835e-04
      -1.52964890e-03 1.35323079e-03 -8.23893002e-04 -3.62097257e-04
      -3.63703002e-04 -5.43932256e-05 -6.17234677e-04 2.35982079e-04
      1.61636737e-03 1.36997842e-03 -8.14072031e-04 -1.35788054e-04
      -2.74759077e-04 -4.01334284e-04 -1.04794504e-04 1.51275772e-05
      -5.51215955e-04 2.50387733e-04 4.74294007e-04 1.22185025e-04
      -2.98306750e-05 4.37928160e-04 2.88407155e-03 2.40909969e-04
      3.23620450e-04 2.52098544e-03 1.73463937e-04 -4.34977381e-04
      -9.02742686e-05 4.19632008e-04 -1.60003765e-04 2.50249232e-05
      -1.41067241e-04 -2.29614950e-03 6.68498222e-04 -3.49092676e-04
      3.73519506e-05 1.10689405e-04 -2.39543544e-04 -7.46074438e-05
      -2.62481102e-04 1.82323201e-04 1.64454003e-04 -2.39318796e-03
      -8.60835018e-04 9.80295445e-05 -1.73978289e-04 -5.73582402e-05
      -1.30173413e-03 -1.17986703e-04 1.87985844e-03 -4.14635491e-04
      1.30729389e-03 1.74875301e-03 -3.69788380e-04 -7.07828498e-04
      -2.23979168e-03 -2.45242030e-03 -2.79208645e-04 7.68020400e-05
      8.50217039e-05 2.18965215e-04 1.19430257e-03 4.62936092e-04
      -6.72859489e-04 1.83913566e-03 -8.68278614e-04 4.73118242e-04
      -3.32154217e-04 -2.04359167e-05 -3.71325819e-04 -4.91748870e-05
      9.52678092e-04 1.84895692e-03 -2.01583884e-04 -3.41861625e-04
      -3.33657837e-04 -4.64740042e-05 1.17765325e-04 1.14477312e-04
      -7.46766047e-04 -1.38037067e-04 -1.44143589e-04 7.34945876e-04
      1.15814466e-04 2.76402784e-06 -3.52143520e-03 -2.69621698e-04
      -8.45093047e-04 1.00096245e-03 1.01859274e-03 3.14826553e-04
      2.69241718e-04 1.38077955e-03 9.20262391e-05 4.11543915e-05
      -1.37144903e-04 7.71303312e-04 4.44822072e-04 1.15868519e-04
      1.29278618e-04 -5.09155579e-05 -9.06440619e-05 -1.54638605e-04
      -2.86738330e-04 -1.00602291e-03 9.44557542e-04 8.95256759e-04
      -4.00313118e-04 -5.32150094e-04 -4.98655245e-05 -2.71184515e-04
      -1.13473937e-03 -1.79887353e-03 -1.58789533e-03 3.06352304e-04
      1.98919937e-04 1.70394930e-03 -5.96812206e-05 -1.06263738e-04
      2.05199394e-04 -1.22159242e-03 -8.62986664e-04 4.61487536e-04
      -2.15539199e-04 1.61157921e-03 1.05107925e-03 -7.42387725e-04
      6.43453212e-04 4.40711994e-03 -6.48098066e-05 -4.93256994e-05
      1.48736610e-04 -1.85243407e-04 1.76334649e-03 5.06028649e-04
      2.12543923e-03 2.52435124e-03 7.99113361e-04 -1.76969203e-04
      -2.13025545e-04 3.29932693e-04 1.63324621e-05 3.55327438e-06
      2.80443433e-04 -3.03278066e-04 -2.09043990e-03 9.80439800e-05
      1.97505608e-04 -9.74082504e-05 -1.46490161e-03 1.03590492e-05
      3.62153747e-03 1.13732344e-03 -8.87397153e-04 -9.95669179e-05
      -2.44503142e-04 -4.32161411e-04 -1.94305350e-04 -1.32908157e-04
      -2.86061695e-04 -2.47264368e-04 -5.02829207e-04 9.04301414e-05
      -4.83734293e-05 -1.61966935e-04 -4.22373880e-04 -1.69202438e-04
      -1.04749786e-04 5.51066652e-04 -3.59781407e-05 -1.98841626e-05
      -4.66874219e-04 -1.25106471e-03 4.39075993e-05 1.26341183e-05
      -6.82861792e-05 -2.16890895e-03 -3.79263214e-03 4.95327458e-06
      -4.20920696e-04 -6.09030772e-04 -9.35665099e-04 -6.91494206e-04
      -5.96901773e-05 -1.51934905e-03 -1.82097103e-03 -5.40225665e-05
      6.12619915e-04 3.94474366e-04 3.95041343e-06 2.82795372e-04
      2.14497256e-03 1.25309522e-03 7.32503395e-05 -1.11938010e-04
      -2.19405207e-04 -1.70152940e-04 2.25159712e-03 -1.91461542e-04
      1.16416230e-03 2.02375790e-03 1.40326412e-03 -2.13836436e-04
      -1.25167600e-04 1.70911153e-05 -2.07459925e-05 4.76782188e-05
      -2.35776999e-04 -2.59481258e-05 -4.90152743e-04 -2.47639517e-04
      -1.47147046e-04 -3.80599784e-04 7.68177037e-04 1.70704661e-04
      4.60477639e-03 6.96855946e-04 -2.42992741e-04 -2.79471307e-04
      9.65874133e-05 -1.74270989e-03 -7.23843477e-05 -7.83133219e-05
      -1.35619539e-05 2.09179614e-03 -1.92413747e-04 1.93089771e-04
      5.18611778e-05 6.42824962e-05 6.14777382e-05 -1.30705972e-04
      -1.63193792e-04 7.88553516e-05 -6.15451369e-04 -1.62639865e-03
      -3.72335810e-04 -1.71710202e-03 1.25029488e-04 -7.86059536e-04
      5.35767642e-04 1.28016178e-03 -2.74318526e-03 4.69110382e-04
      -1.93265660e-04 -8.97600257e-04 -3.95452930e-03 -2.16248655e-03
      -4.82303549e-05 -4.73885186e-04 4.21889417e-04 -3.47749010e-04
      4.53917863e-04 7.94481253e-04 9.77364718e-04 -8.18670305e-05
      -3.25351837e-04 -1.51554809e-03 -3.58412741e-04 -4.54254587e-05
      -1.20818959e-05 -8.96972997e-05 1.64486584e-04 -1.20584213e-04
      -2.18317218e-04 7.95495405e-04 5.59447042e-04 -1.25002218e-04
      6.04438756e-05 -9.36228207e-06 -7.97673056e-05 3.87861328e-05
      -7.15176793e-05 -1.79041628e-04 1.08598186e-04 1.71050269e-04
      -1.04662584e-04 3.56468299e-05 -2.49402761e-03 1.25567836e-04
      1.98081904e-03 6.26044639e-04 -2.82899971e-04 -1.97687699e-03
      -1.60421943e-04 -7.25969498e-04 -1.64548459e-04 2.21869595e-05
      4.77375346e-04 -6.69302681e-05 -1.49167579e-04 3.98310985e-05
      -2.15346245e-05 5.80839005e-05 1.39208190e-04 3.79211851e-04
      -1.23517937e-04 8.67785828e-04 5.47174073e-04 -7.78587710e-04
      2.08783196e-04 -8.75404367e-05 -2.84382812e-04 -1.20383636e-04
      -1.62994966e-05 1.42665487e-03 -1.60649128e-03 -3.33665434e-04
      -2.05416236e-05 -6.87386433e-04 -4.83873941e-04 -8.76742182e-04
      1.48930424e-03 2.17653951e-03 1.25824381e-03 3.35424207e-04
      -4.56263573e-04 -5.68753807e-04 1.10217382e-03 9.67893357e-05
      1.46648381e-04 6.66381209e-04 -6.86530315e-04 1.28886400e-04
      9.50051981e-06 2.11477542e-04 -7.29816617e-04 1.03831599e-05
      -1.53869379e-03 9.93194990e-04 9.34398093e-04 6.09935560e-05
      -1.46297971e-04 3.55040465e-05 -6.48640736e-04 1.60283980e-05
      3.15296813e-04 5.02710500e-05 -3.83927036e-05 -3.73805524e-05
      3.19710671e-05 -2.71279878e-05 5.12476719e-04 -1.72802265e-05
      5.39323082e-04 1.10061059e-03 1.06195232e-03 -4.85342054e-04
      -1.27352076e-04 -3.59397673e-04 9.20279490e-05 3.85608910e-05
      -3.52335395e-04 2.09510705e-04 -7.76924280e-05 -1.17410616e-06
      3.49781658e-05 -1.55237038e-04 -2.21287395e-04 1.55177666e-04
      -5.61726847e-05 2.65037175e-04 -6.55173149e-04 -6.88364962e-04
      -9.46481960e-05 1.82005067e-04 -1.70079977e-04 -1.68526400e-04
      -6.43158623e-04 -1.25433959e-03 8.53212550e-04 -5.34182647e-04
      2.97034305e-04 -1.60684099e-03 2.04820768e-03 -4.69285675e-04
      -1.17108505e-03 3.93172988e-04 -6.78397249e-04 7.42299890e-04
      -7.33684865e-04 -2.58171145e-04 -5.44342154e-04 -1.29131178e-04
      2.34497449e-04 -4.17786418e-04 7.07285479e-04 -9.65258223e-05
      -3.18783830e-04 2.77275831e-04 1.62092759e-03 1.52080920e-05
      4.45879763e-04 -1.39828620e-03 -3.01567692e-04 7.56844966e-05
      9.48629458e-05 1.01321340e-04 7.29579537e-04 7.65990917e-05
      -3.13374403e-05 -1.00192112e-04 5.73549245e-04 -9.44384465e-06
      1.09697459e-04 4.03328086e-05 4.67348960e-04 -1.14063023e-05
      -3.32931057e-04 7.25475024e-04 8.20692105e-04 -9.54123447e-04
      8.24245508e-05 -2.94217461e-04 6.80536323e-05 -1.22918587e-04
      4.50424384e-04 4.89790749e-04 -6.58074423e-05 -1.39867567e-04
      7.84244912e-05 1.13404421e-04 -2.77553016e-04 -2.01696661e-04
      -5.54073951e-04 -5.59174747e-04 2.53929669e-04 -6.33245450e-04
      -2.75052502e-04 -1.39714428e-03 1.69317180e-04 2.19652517e-04
      -3.90225119e-04 1.14648300e-03 1.11597241e-04 -1.22878220e-04
      -5.16936007e-06 1.17656298e-03 5.80594118e-04 1.05771695e-04
      1.83537006e-04 -1.73334975e-03 -1.65734557e-03 1.11218760e-04
      -1.44412159e-03 1.31908440e-04 -2.02532555e-03 1.82160147e-04
      -9.75551317e-04 1.07156020e-03 7.28895597e-04 -2.83899630e-04
      5.80631196e-04 -1.17578973e-04 1.38422288e-03 -5.26871707e-04
      -1.33281352e-03 -1.12998218e-03 4.96863446e-04 3.16454913e-04
      -1.04680665e-04 7.60355688e-05 4.36377159e-04 1.38993346e-04
      -1.41815719e-04 -3.17760510e-04 -1.97483751e-04 1.37890907e-04
      3.02548695e-04 1.74782544e-04 8.73428246e-04 1.30914748e-04
      5.17714361e-04 -1.39589142e-03 4.32298519e-04 1.03019329e-03
      -5.75677623e-05 1.47372845e-03 1.47703118e-04 2.77602259e-04
      1.57832474e-04 8.08623852e-04 -4.02783160e-04 -1.80614035e-04
      2.52112513e-05 2.97160383e-04 -1.18778727e-04 8.89726434e-05
      1.00649304e-04 -1.04596175e-03 -5.16991306e-04 -6.55792392e-05
      1.73795139e-04 -1.42394012e-04 2.97229533e-04 2.33870291e-04
      -7.35252630e-04 -1.82697710e-04 2.06166622e-03 -6.55748372e-05
      -5.97436272e-04 1.86933932e-04 1.33721463e-04 1.15609332e-03
      -6.14888268e-04 -4.98244888e-04 -3.32340685e-04 1.09654770e-03
      2.74398626e-04 -1.15989754e-03 -9.30231705e-04 -1.32595684e-04
      -1.66512618e-04 -2.16402041e-04 -4.70146886e-04 1.37581621e-04
      -3.16495454e-04 2.36421693e-04 5.69221389e-04 3.52289557e-04
      4.93621046e-04 1.46956381e-03 7.93817104e-04 -2.24829229e-04
      -6.07707170e-06 5.53894915e-06 -4.86151810e-04 4.02053629e-05
      -1.92259846e-04 -2.88875890e-04 1.76518151e-04 -6.95144990e-05
      1.41810146e-04 -4.72069078e-05 6.63457206e-04 1.62860815e-05
      -9.18325561e-04 -3.24793276e-04 7.82504212e-04 -1.27919939e-05
      5.00796887e-05 -5.14464162e-04 1.41774712e-04 2.26007978e-05
      2.85352668e-04 6.31736300e-04 1.21238809e-04 -9.53610652e-05
      -7.70949773e-05 5.25279502e-05 4.83800250e-05 5.12702136e-05
      -1.75651730e-04 -3.07636481e-04 -8.15117790e-04 -1.54631818e-03
      2.22670307e-04 1.32145220e-03 -5.38558292e-04 -7.45703946e-05
      2.27468001e-04 1.74029463e-03 -1.66587066e-03 1.38816331e-03
      1.31160996e-04 3.38572776e-04 2.62219139e-04 -3.52633564e-04
      -8.40301975e-04 -9.87716950e-04 2.13248335e-04 9.82159399e-04
      -3.55578260e-04 5.90826530e-05 1.64094177e-04 -3.21974192e-04
      1.19015831e-03 -2.51585990e-03 4.84245509e-04 5.78496489e-04
      3.09142051e-04 4.38264717e-04 4.20608994e-04 -2.28997626e-04
      -7.72736385e-04 -7.67192323e-05 1.74142129e-04 -2.74402206e-04
      4.80234128e-04 -2.71514757e-04 -1.30445987e-04 1.13439412e-04
      -7.50826031e-04 1.19244185e-04 -7.37206603e-04 -9.19152299e-05
      -1.18989949e-04 2.13727239e-04 2.27081846e-03 1.68124534e-04
      3.30432085e-04 -1.69339346e-05 8.90371084e-05 -1.97788514e-03
      3.12302618e-05 -1.33403332e-03 2.43135481e-04 1.17122137e-04
      1.75936177e-04 -1.29304896e-03 8.62648667e-05 1.65546531e-04
      1.18535390e-05 -8.02984869e-05 -3.40871338e-05 2.90232885e-04
      2.13883308e-04 1.80460722e-03 1.24605313e-05 -2.01145234e-03
      2.15396183e-04 -1.42402924e-03 1.06296844e-04 -1.45321508e-04
      -4.98933601e-04 2.65990500e-03 -2.21700571e-03 3.69128946e-04
      -3.63889958e-05 -3.64987034e-04 -6.33771240e-04 -2.38099146e-05
      1.70784758e-03 1.72960549e-03 -2.79787392e-03 1.26762758e-03
      -1.75628826e-04 -2.83265254e-03 3.51746887e-04 9.96088493e-05
      -2.26103766e-05 -1.49081006e-05 4.50092339e-04 7.24620768e-05
      1.34324189e-04 2.49831559e-04 1.78857939e-03 -2.79938773e-04
      7.83865107e-04 3.04311048e-04 -8.18972709e-04 1.41572353e-04
      -1.91609332e-04 -1.21786688e-04 -3.91343987e-04 1.26468265e-04
      1.03783124e-04 -1.38023315e-04 -1.96946785e-04 2.02005904e-04
      1.21484256e-04 8.34597304e-05 5.05838869e-03 -2.87737435e-04
      1.12564524e-03 1.15044857e-03 8.69350333e-05 -2.46893801e-03
      -8.03034782e-05 -1.28180895e-04 -2.98496627e-04 3.87983979e-04
      -4.37996459e-05 -3.10134492e-03 -7.08753287e-05 -1.35236216e-04
      -3.18206185e-05 2.73306476e-04 1.15659357e-04 1.12436421e-04
      -1.70368294e-04 3.68804351e-04 4.41616285e-04 -1.94339035e-03
      5.86278504e-04 1.09398423e-03 -9.19883860e-06 8.48728596e-05
      6.92493806e-04 -1.33921183e-03 -7.25033984e-04 -2.26299730e-04
      -7.24465353e-05 5.99592226e-04 -6.94494738e-05 -4.56827460e-04
      2.25559445e-04 9.56026837e-04 2.59227166e-03 8.36486579e-04
      9.58309465e-05 -1.60098495e-03 6.66248612e-04 -1.35835537e-04
      1.81036536e-04 -8.96182682e-05 1.36269431e-03 2.47068383e-04
      -4.12251611e-05 1.62139055e-04 -1.48342375e-03 -3.99640674e-04
      -1.26000121e-03 5.20060537e-04 -6.48607325e-04 2.97481223e-04
      -1.99498718e-05 -3.87485779e-05 -1.94146924e-04 8.30654171e-05
      -5.67380514e-04 3.57510842e-04 1.50377268e-03 4.53642890e-04
      -2.70468270e-04 -9.10194722e-05 2.14308803e-03 -2.43632094e-04
      -1.25329883e-03 -8.49202770e-05 -4.78268892e-04 -2.23426754e-03
      -2.44787225e-05 -3.86665203e-03 4.00658355e-05 -1.77571128e-05
      -2.81791145e-04 5.25063137e-04 8.40816429e-05 -1.56790193e-04
      -4.52922395e-05 1.29735912e-04 5.62297828e-05 -3.52032112e-05
      1.05776504e-04 7.67209043e-04 1.27874687e-03 1.90342101e-03
      -3.12752381e-05 -8.82135122e-04 -5.01119881e-04 4.42029937e-04
      2.32380669e-04 -7.98729772e-04 -9.66519117e-04 7.95195112e-04
      4.57362185e-04 4.79947194e-04 -9.24332289e-06 9.59281868e-04
      3.62496445e-04 -1.36899599e-03 -2.17116409e-04 -4.31206368e-04
      1.23233942e-03 -7.18565192e-04 -4.65968507e-04 -1.08604450e-04
      3.14887823e-03 -1.72893760e-05 6.33010815e-04 -2.98332685e-04
      4.42441436e-04 -1.03961820e-05 1.10345625e-03 8.72938836e-05
      -2.82129040e-04 -1.63902517e-03 -6.47692359e-04 -2.42016249e-04
      3.71456508e-06 -3.09305557e-04 2.98371539e-04 -6.96469360e-05
      -4.11930348e-04 3.60785052e-04 -8.13143677e-04 2.38975073e-04
      -7.96210952e-05 -2.49142700e-04 2.46968935e-03 1.18485470e-04
      -9.96940420e-04 4.30040935e-04 -9.99563053e-06 1.09238736e-03
      -6.62021164e-04 -8.33812403e-04 -6.72554597e-05 -1.21587946e-04
      -5.98904153e-05 -1.18705595e-03 -5.70723250e-06 3.35664918e-05 0.
      -1.60429263e-04 1.99875994e-05 -2.74058199e-04 -1.16762523e-04
      1.59847303e-04 -1.53058209e-03 1.31299009e-03 5.43443020e-04
      2.16236629e-04 1.08483226e-04 -2.70833825e-05 1.59647025e-03
      -9.81374178e-04 2.03171687e-04 8.77782295e-04 1.56654525e-04
      -6.50110771e-04 -1.24076440e-03 -5.48239506e-04 -1.05096988e-04
      -2.98602157e-04 1.34861341e-03 2.93750290e-05 -5.20766298e-05
      2.65920360e-04 7.69502367e-04 -7.15703864e-05 8.70545686e-04
      -7.70714716e-04 -1.52211520e-03 -3.08775052e-04 -2.55803083e-04
      8.56951665e-05 9.92609188e-04 3.90583191e-05 -1.90476698e-04
      -2.21293958e-04 1.02889945e-03 3.28585011e-04 -1.26528292e-04
      4.90950151e-05 -2.97100196e-04 1.31606008e-04 2.84614856e-04
      2.37262342e-04 -8.92128854e-04 1.95670436e-04 2.63559836e-04
      -2.09009508e-04 -1.14533585e-03 3.21240979e-04 -4.98568173e-04
      -8.99121806e-04 -8.05734715e-04 -6.81162754e-04 -2.89929332e-04
      4.60963784e-04 -2.77377811e-04 8.37873667e-05 -1.60296222e-05
      6.52281276e-04 2.59620283e-04 2.18431902e-04 -2.38359808e-05
      -6.31009389e-05 -2.87661591e-04 2.07565507e-04 2.03135802e-04
      4.48305334e-04 -2.60079303e-03 -1.66093896e-03 1.37502255e-04
      -6.02651038e-04 -2.46805779e-04 -4.47252787e-05 1.08904380e-03
      -1.09131332e-03 1.75200548e-05 1.96456807e-04 -2.00662340e-04
      4.15892737e-06 1.16371084e-03 1.04136555e-03 8.76317150e-04
      2.05132063e-03 7.73008505e-04 -7.91582715e-05 -2.60563364e-04
      -3.21979867e-04 1.35835854e-03 -3.45214976e-05 3.55919008e-03
      3.96605086e-04 -2.88659096e-04 3.14673380e-04 1.59096846e-04
      5.00235255e-05 6.26820547e-04 2.41781439e-04 2.58715311e-03
      -9.26328503e-05 -5.26037591e-04 -1.97453934e-04 9.18895894e-05
      2.13117892e-04 -5.53968903e-06 -3.11363656e-05 -4.22010402e-04
      7.26429789e-05 2.16967543e-03 -3.86022119e-04 -1.17252072e-04
      -1.46400344e-04 -1.17181116e-04 -3.29694485e-05 -7.76148110e-04
      5.21460548e-04 -7.60489085e-04 -1.12840603e-03 -1.07272092e-04
      -7.25514663e-04 1.17996984e-04 -1.72845888e-04 4.03214653e-04
      -5.41522750e-04 -1.84718592e-04 -1.18841832e-04 1.68026090e-05
      -2.45150848e-04 9.12675096e-05 -4.78224247e-05 4.06167674e-05
      -1.26354702e-04 -3.30265349e-04 -1.01488753e-04 -1.72867681e-06
      -1.04166265e-03 -3.33421485e-04 9.40952305e-05 -2.65159819e-04
      -1.27465246e-04 -2.13663047e-03 1.27154417e-04 1.33388006e-04
      -1.86805046e-04 -1.71825290e-03 1.28226893e-04 3.36885132e-04
      -3.87660519e-04 -8.13871520e-05 8.43335874e-04 6.12726377e-04
      1.60784204e-03 1.03646505e-03 -2.14814921e-04 1.54740422e-03
      -6.67529821e-04 -7.08483451e-04 5.00188798e-06 7.18511001e-05
      -2.24668242e-04 9.33733885e-04 -1.87413505e-04 -1.65938342e-03
      1.89966435e-04 -1.33380760e-03 -2.37122920e-04 -6.01690044e-05
      -4.27220439e-05 4.08698077e-04 -1.17399750e-05 2.66916206e-04
      -7.19850868e-05 2.68285978e-04 -6.67098793e-05 1.95593835e-04
      2.67022988e-04 3.61230574e-03 -4.77733760e-04 -5.90584066e-04
      4.13035334e-04 -1.73466885e-03 4.14180919e-04 2.58525106e-04
      -1.11370580e-03 4.77116810e-05 -2.87987379e-04 4.83759533e-04
      2.09108787e-03 -5.69902659e-05 -1.48991130e-05 -9.01383537e-05
      -1.18271018e-04 -5.74664264e-05 -2.91033211e-04 -3.46244255e-04
      1.85286612e-04 7.92189094e-04 -1.46617426e-03 5.74723934e-04
      -2.63335207e-03 -2.41523609e-04 -6.64651743e-05 5.96293947e-04
      1.54072861e-03 -1.18686038e-03 3.83127481e-04 -1.83714525e-04
      -4.32897126e-04 -3.77340405e-03 -1.02119418e-04 6.02820306e-04
      5.83550078e-04 -1.54683279e-04 -1.47783547e-04 -7.11806060e-04
      -1.05367240e-03 7.56798778e-04 -2.77262734e-04 1.36499817e-03
      2.00881832e-03 -3.09396040e-04 5.15654974e-05 7.92962732e-04
      9.32405892e-05 -3.58377723e-03 9.24263804e-05 -2.47674109e-03
      -8.71833356e-04 5.93071745e-04 2.56732223e-04 -2.54111401e-05
      -1.70076950e-04 8.85760601e-05 6.72586393e-05 3.60939535e-04
      5.20982467e-05 6.45565684e-04 2.79004307e-05 -1.62359604e-04
      4.43687968e-05 -3.88670742e-05 3.38384387e-04 1.52827962e-03
      -8.26676478e-05 9.85659775e-04 3.20748979e-04 -1.65781414e-04
      -8.71116819e-04 1.01793317e-04 -4.86954668e-04 1.79359879e-04
      6.02756510e-04 -3.40420374e-04 -9.83051650e-05 -8.51496407e-06
      -5.08764584e-04 -1.88362683e-05 1.90664767e-04 -9.99543408e-05
      -1.09656842e-03 7.72239291e-04 -4.11648856e-04 8.25951502e-05
      3.73594339e-05 6.41857274e-04 3.32332216e-04 4.97278175e-04
      -1.20831979e-03 -1.69748004e-04 -3.70807742e-04 -1.75983932e-05
      1.20263925e-04 -1.22301246e-03 7.50139239e-04 7.99076632e-04
      1.58458005e-03 1.71649794e-03 3.42104875e-04 -6.11670432e-04
      1.08086842e-03 5.02911163e-04 -7.79644324e-05 -2.90323677e-03
      -1.16655743e-03 -7.83473661e-05 2.55379564e-04 4.98428417e-04
      7.03347105e-05 1.31773343e-03 1.45770638e-04 2.70182220e-03
      -2.43572751e-04 7.04911072e-04 2.28817124e-04 -1.55860427e-04
      1.31222681e-04 2.82343652e-04 4.80676754e-05 -2.70839781e-04
      -4.60898445e-04 1.53444777e-03 -9.58966702e-05 9.05222769e-05
      -2.22881754e-05 3.15220706e-04 4.73472282e-05 -7.14670983e-04
      -1.13128184e-03 -1.79010397e-03 2.79198575e-04 -6.72191207e-04
      -1.33063050e-03 3.79500503e-04 -1.78577247e-05 1.42153513e-04
      -2.32515158e-03 2.32797946e-04 2.57543114e-04 -8.49458229e-05
      1.35807117e-04 4.40291551e-05 3.47352790e-04 -2.70176388e-05
      1.12939090e-03 -4.68444428e-04 -3.47384810e-03 -5.55994455e-04
      -3.60028906e-04 -4.18434531e-04 5.63031819e-04 -2.76634411e-04
      -5.95316465e-04 -4.14379872e-04 8.67735653e-05 -9.88299944e-05
      7.76137866e-04 2.47159833e-03 -2.63512251e-04 7.37048220e-04
      1.50929263e-03 -3.38612772e-05 -2.47911958e-04 -1.04463452e-05
      1.78096758e-04 -3.04772693e-04 1.66795580e-04 -1.70408632e-03
      -1.64137105e-03 1.50056346e-03 8.16505999e-05 -3.70833695e-05
      -8.79543149e-05 1.18982152e-03 2.41809132e-04 -1.97213329e-03
      1.71739107e-03 -6.67854678e-04 -1.72708867e-04 1.14025148e-04
      6.66274209e-05 -5.70022967e-04 -1.23910548e-04 5.81155182e-04
      1.34341855e-04 1.19460025e-03 1.22357858e-04 2.21782218e-04
      1.28911546e-04 -7.43701685e-06 4.23837133e-04 1.85753252e-05
      -3.81025224e-04 -8.65349430e-05 1.70617120e-03 -2.59774446e-04
      -2.02246569e-03 -1.81565963e-04 1.97719710e-04 -1.57545743e-04
      -1.24527188e-03 -9.64767169e-05 -7.38983581e-05 3.54197909e-05
      1.99473769e-04 6.38430429e-05 3.72756098e-04 1.74117813e-04
      5.57534047e-04 -7.24903657e-04 -1.12014217e-03 -4.65103134e-04
      -8.77926359e-04 1.79049493e-05 5.79644286e-04 1.41577574e-03
      3.85471300e-04 -5.63945330e-04 8.25459836e-04 -4.66742895e-05
      3.82496626e-04 6.23675529e-04 -2.58162152e-04 -6.52940304e-04
      1.17610523e-03 -9.17094119e-04 -1.35546573e-03 8.21089256e-04
      -1.74877117e-03 -3.82043596e-04 -1.58698182e-04 5.24007017e-04
      1.99243426e-04 1.09256466e-03 3.56295204e-04 1.31411653e-04
      4.49980826e-06 3.66913038e-04 1.51012224e-04 3.45476018e-03
      1.01112493e-03 -6.17182697e-04 1.22351077e-04 2.99062929e-04
      -3.90151945e-05 8.90624287e-05 2.99921749e-06 -5.78314532e-04
      -3.59008671e-04 9.97902593e-04 2.21559138e-04 2.47028540e-04
      -1.45442813e-04 2.44938186e-03 2.80390785e-04 -1.35305640e-03
      -5.53915801e-04 -1.01102283e-03 1.51948625e-04 -3.25246627e-04
      7.55737710e-04 2.05080752e-04 -3.89595916e-05 -1.75776993e-04
      -9.75960356e-05 -5.17784247e-05 -2.73270067e-04 1.98962662e-04
      -2.57900974e-04 3.49174865e-04 7.47577069e-05 4.88411286e-04
      1.13860378e-03 -6.68469933e-04 9.45688458e-04 4.99927410e-05
      -1.25292549e-03 1.77928432e-05 -6.79121295e-04 -9.64900188e-04
      -5.95367921e-04 1.24358383e-04 6.69013010e-04 -9.18215155e-05
      -5.71940269e-04 -5.50170080e-04 -2.69094395e-04 -2.35629943e-03
      4.47488186e-04 6.00172207e-04 4.36064147e-04 -4.64999088e-04
      9.92329558e-04 1.35097420e-03 -7.38461022e-05 -3.23615794e-04
      -5.42918919e-04 1.75730442e-04 -2.14321903e-04 -1.54361878e-05
      -1.96065652e-04 1.25142804e-03 -3.90076835e-04 -1.66722911e-03
      9.46551037e-04 -9.44073079e-04 1.12052701e-04 -2.24542542e-04
      -5.74881087e-05 -1.27110354e-04 -3.20122490e-05 -2.10487033e-05
      1.86123085e-04 -1.61560648e-03 1.58123366e-04 -1.41204553e-04
      2.80759297e-04 -1.99769216e-04 -1.17426047e-04 7.21246761e-04
      7.26414321e-04 1.08193090e-04 -2.30176796e-04 -1.69159088e-04
      1.33086322e-03 4.82991636e-05 1.14414339e-04 -6.21157349e-04
      5.03109186e-04 -2.32526895e-06 6.25474786e-05 5.62663045e-05
      1.39347394e-05 -2.32605133e-04 -7.67272468e-06 -1.21233361e-05
      1.26467657e-03 3.74442345e-04 5.91159565e-04 5.71847086e-05
      -1.24143146e-03 1.16672500e-05 -3.89365421e-04 -1.33440859e-04
      -9.16236953e-04 -7.34516289e-05 1.13230199e-03 2.35134139e-05
      3.15813231e-04 -1.41373603e-03 3.69488931e-04 -1.73556549e-03
      2.31393715e-04 -4.82085074e-04 -3.01130203e-04 9.31019895e-04
      6.60618651e-04 8.66701594e-04 3.28011636e-04 -8.56485160e-04
      -6.68547407e-04 -5.97718346e-04 -2.40071633e-04 -9.89700347e-05
      1.83007593e-04 2.26629921e-03 -1.59390183e-04 -2.38531095e-04
      6.07629074e-04 -7.61152420e-04 -3.11957294e-04 -2.37578352e-04
      -2.00808005e-04 2.50038574e-04 8.58557905e-05 -1.04749051e-04
      -6.22816151e-05 1.33809657e-03 -4.07103798e-04 3.01386390e-05
      -2.02040930e-04 -1.99497538e-03 5.51786274e-04 1.09617552e-03
      1.71039510e-03 5.40112844e-04 -1.84587756e-04 -2.13558538e-04
      1.37128017e-03 1.94827138e-04 -1.35482420e-04 -1.47944826e-04
      1.46732992e-03 -5.02510520e-05 2.82448134e-04 -8.78282808e-05
      2.89490737e-04 -2.26112024e-04 6.84935294e-05 1.74549481e-04
      -4.90421487e-04 -1.65166450e-04 7.52156484e-04 -4.36270318e-04
      -9.82361089e-05 -4.16418537e-04 1.88644044e-04 -2.40421679e-04
      5.78543055e-04 -1.14217633e-03 -1.56420792e-04 -1.79210183e-05
      -9.12569987e-04 -1.37603795e-03 -4.83392039e-04 -5.09181875e-04
      -1.39767455e-03 1.62805198e-03 2.81317974e-04 1.20628427e-03
      7.14682217e-04 7.39165524e-04 -1.88848760e-04 7.71229621e-04
      -7.37621813e-05 9.85974446e-04 4.43925455e-05 -1.56993832e-04
      -3.30213737e-07 3.19253915e-04 -1.00103614e-04 -1.22546568e-04
      4.56100155e-04 -3.59811878e-04 -9.01982858e-05 -1.03877355e-04
      -2.54655926e-04 9.41295184e-06 6.45683976e-05 -2.72292731e-04
      2.12962623e-04 -1.44987192e-03 -4.07172301e-05 1.03826524e-05
      -9.09637020e-05 -4.27169865e-03 -8.11400168e-05 1.83745098e-04
      -5.07822784e-04 -1.45031299e-04 -2.06414657e-03 1.58410301e-04
      1.76852057e-03 -1.83812954e-04 7.57774887e-06 8.89745024e-06
      2.71503523e-04 -2.23675452e-04 3.07301489e-05 0. -9.59172467e-05
      1.58319206e-04 -4.28886733e-06 -8.69479991e-05 1.16724474e-03
      -1.03951001e-03 -5.29176032e-04 -1.60511700e-04 -8.62687830e-06
      2.45220485e-06 7.08963271e-05 8.52360172e-05 -5.10783902e-05
      -4.45885758e-04 6.90906367e-04 -4.40892545e-05 1.17516529e-03
      1.10962988e-04 -3.85630206e-04 5.82480279e-04 -2.82862951e-04
      -1.41867704e-03 -6.26724504e-04 1.05677848e-03 5.42741735e-04
      -5.68422489e-04 -1.86395395e-04 1.71379629e-03 -5.84508758e-04
      9.41502512e-04 -5.03872325e-05 -3.53884650e-04 3.49082184e-05
      8.73754383e-04 1.30668224e-04 2.26457720e-03 1.19871474e-04
      -4.89490340e-05 -2.65807961e-04 -3.17525788e-04 -2.16271510e-04
      5.24478719e-06 0. 3.39316321e-04 -2.50028796e-04 -7.12084933e-04
      -1.28470943e-04 -1.04277598e-04 -2.43718532e-05 -1.27172784e-03
      1.10480898e-04 -3.32643307e-04 4.60578703e-05 4.20395227e-04
      2.66950054e-04 1.70577929e-04 2.37241946e-03 8.14305386e-05
      -1.09015295e-04 -8.48061391e-05 1.97529071e-03 1.03564947e-04
      -2.45177507e-05 1.75049645e-05 1.07619773e-04 -2.17158668e-05
      -1.58268871e-04 2.60905130e-04 -2.82513181e-04 -1.75276131e-04
      -9.98787349e-04 4.03124977e-05 -8.02705006e-04 1.70737971e-04
      -1.45278944e-04 -2.51972320e-04 1.03826658e-03 -1.77224108e-03
      -1.20350414e-04 2.60112545e-04 -7.42783945e-04 -1.65880076e-03
      -4.79413400e-04 -9.87075327e-05 -7.74729197e-05 8.04226496e-04
      -4.69231745e-04 1.04991917e-03 3.25105363e-03 -2.36511277e-03
      -1.80507617e-04 -1.03115826e-03 9.37607139e-04 -8.94585100e-04
      3.33209522e-04 -1.35722323e-04 2.98112252e-04 -3.42555839e-04
      -6.07742659e-05 -2.45833740e-04 -1.12343274e-04 2.58587334e-05
      1.33394948e-04 5.69849653e-05 -2.65851675e-04 -2.12226048e-04
      4.42544806e-05 1.05842206e-04 2.17697510e-04 -2.36699381e-03
      -1.81760479e-04 1.19816599e-04 1.64044995e-05 -4.48709866e-03
      -1.17886178e-04 5.58077591e-05 -9.41192498e-04 -1.80223666e-04
      -6.76691780e-05 -3.23574408e-04 2.80902418e-03 1.59140727e-05
      7.26024082e-05 -1.67038743e-04 1.42166333e-03 1.68063765e-04
      3.39833845e-04 -5.90998707e-06 2.88916082e-04 1.34853559e-04
      2.79390079e-04 -1.92305932e-04 8.65752343e-04 2.95901118e-04
      -6.71566988e-04 3.27510934e-04 1.84112915e-03 -3.94128059e-04
      -2.59096414e-04 7.10650580e-04 6.95738650e-04 1.24351366e-03
      6.88112108e-04 -1.30693414e-04 -2.47746910e-04 -3.27488314e-03
      -1.47123006e-03 1.08569185e-03 1.06244988e-03 -5.02103823e-04
      -4.40167671e-04 8.24460643e-04 8.65718175e-04 -4.98166541e-04
      -4.78151895e-04 1.04362052e-03 3.57104000e-04 -6.41254068e-04
      2.52117869e-04 -7.53313507e-05 -2.37703542e-04 3.80690239e-04
      1.02987753e-04 -1.23794435e-03 5.18012617e-04 -2.13109469e-03
      -8.24274539e-05 -3.23447457e-04 -9.59107565e-05 -1.62430559e-04
      1.74947236e-05 -1.43479105e-04 -7.31667678e-04 1.48919632e-03
      4.29359148e-04 -1.90859122e-04 5.54272447e-05 -2.11365917e-03
      1.84298682e-04 -1.84151530e-03 2.03709118e-04 -5.17348177e-04
      2.04531732e-03 1.23133766e-04 2.55459599e-04 1.23578720e-04
      -7.25797872e-05 1.06765263e-04 2.35628500e-03 -2.66382500e-04
      -2.88847572e-04 -2.57379997e-05 7.55025612e-05 7.34269197e-05
      -2.13030853e-05 1.44987222e-04 -4.47852595e-04 1.69601454e-03
      1.02195668e-03 3.33688658e-04 7.97601999e-04 -2.42788868e-04
      -1.36408693e-04 4.60912765e-04 -1.53225544e-03 -6.19906001e-04
      -2.05273391e-04 -4.67629667e-04 1.80683433e-04 -3.61197186e-03
      -2.74189224e-04 1.02172093e-03 3.11655668e-03 -2.27631675e-03
      8.95039644e-04 7.90855382e-04 -3.26104346e-05 -9.86684579e-04
      1.63810328e-04 2.68040225e-04 1.95443654e-03 1.61906087e-03
      4.36409988e-04 8.80676031e-04 -7.04835838e-05 1.42528291e-03
      8.07718461e-05 2.49564112e-03 -1.35993131e-03 -4.84313874e-04
      2.23685071e-04 -2.83032103e-04 -1.89999977e-04 1.73586115e-04
      1.12416172e-04 -2.73949321e-04 -4.78680304e-05 8.14645493e-04
      3.88792309e-04 5.83634210e-05 -1.19254953e-04 7.14236754e-04
      4.69076576e-06 1.01839460e-03 -9.38990852e-04 -2.12084199e-03
      -6.12823060e-05 -3.22642241e-04 1.54692831e-03 -1.69722596e-04
      -3.51273251e-04 1.35863185e-04 -6.28346286e-04 -2.50494631e-04
      3.26797890e-04 2.86886880e-05 1.14588722e-04 4.74252680e-04
      5.15989996e-05 -3.39172926e-04 6.84478902e-04 -4.83836367e-04
      -2.78292876e-03 -3.32246418e-04 -1.94688246e-03 -6.42552273e-04
      5.61218010e-04 -4.91974584e-04 -1.06030772e-03 -1.32048444e-04
      1.70630915e-03 -3.35138830e-05 6.44308457e-04 -4.26098850e-04
      4.85991826e-04 -5.31247817e-04 -1.10901066e-03 -2.89147458e-04
      1.42863952e-03 8.16440152e-04 -1.14642060e-03 -1.26992108e-03
      4.00841827e-06 -1.31926895e-03 1.23542466e-03 -6.06066838e-04
      6.62455277e-05 -3.35971708e-04 -2.28273220e-05 -7.88484758e-04
      -6.15628815e-05 1.00258202e-03 3.17820261e-04 9.52604343e-04
      1.23480087e-04 -3.20085928e-05 5.78506406e-05 1.12166827e-05
      9.99231052e-05 -7.04759499e-04 3.45910114e-04 3.11997224e-04
      1.27016421e-04 1.74040091e-04 -1.65074001e-04 -2.69345427e-03
      1.76942689e-04 -2.69835419e-03 -5.03833115e-04 4.85377823e-04
      1.14529894e-03 -5.03436167e-05 1.86589325e-03 -6.29468559e-05
      1.90749386e-04 -8.50223470e-04 6.22053398e-04 5.36165782e-04
      8.75881087e-05 -3.12336488e-05 1.82448624e-04 -4.37152368e-04
      8.60834989e-05 4.18112351e-04 1.97767353e-04 8.10398313e-04
      -2.67022318e-04 1.82229894e-06 -2.29283571e-04 -7.72385160e-04
      4.01682017e-04 -6.96554140e-04 -1.00909884e-03 1.52704364e-03
      4.43318801e-04 -5.23567760e-05 1.73814278e-05 1.21491740e-03
      1.64066278e-03 -2.15125503e-03 1.20104000e-04 -4.47576912e-03
      6.25144730e-06 1.32284156e-04 7.75449371e-05 -7.36986287e-04
      -6.87971551e-05 4.20045282e-04 -4.47322120e-04 -1.51666487e-03
      -3.71768430e-04 5.57244231e-04 6.96829738e-05 -1.16731704e-03
      -1.13014248e-04 -2.04339484e-03 1.51576812e-03 -4.33115492e-04
      1.83895881e-05 1.01472506e-04 -2.01127314e-05 -1.15516668e-04
      4.80395465e-05 -2.57094594e-04 1.87881342e-05 -1.46837483e-04
      -1.15669056e-04 -1.03292899e-04 -2.84887465e-05 1.00198342e-03
      1.52962704e-04 -1.94923559e-04 -1.10948007e-04 -1.93713247e-04
      4.32363944e-03 6.79284058e-05 3.36272130e-03 -1.16667965e-04
      -1.92037856e-04 -9.29793052e-04 2.79319240e-03 -3.64464388e-04
      -1.42400415e-04 -4.34786780e-05 3.21975895e-05 -2.77511048e-04
      4.80899289e-05 -1.37731491e-04 -6.81617676e-05 -8.43912014e-04
      1.89712190e-03 -1.70650121e-04 2.93018902e-03 -4.21193254e-04
      -2.98309227e-04 -4.91770799e-04 -1.42338139e-03 -1.39019321e-04
      1.49604122e-04 -3.13207885e-04 3.23308603e-04 -1.13480783e-03
      1.38170412e-03 -2.03178357e-03 7.70874962e-04 4.12900612e-04
      -3.53860622e-03 -1.48095877e-03 2.49943673e-03 1.72122876e-04
      2.75187194e-05 -6.97554788e-04 2.59923749e-03 -9.04711429e-04
      -8.44779832e-04 -4.35454596e-04 5.74500518e-05 9.36336524e-04
      -1.86088262e-04 -1.33754651e-03 -4.86227218e-04 2.44822062e-04
      -2.97557155e-04 1.40061646e-04 8.92469834e-05 1.54438967e-04
      -3.73210642e-05 2.71798839e-04 7.87684752e-04 3.81987338e-04
      3.13403252e-05 -1.91918094e-04 -2.87950133e-05 2.30878894e-03
      -2.78931839e-05 1.20510627e-03 6.96839765e-04 3.29489529e-04
      1.57390151e-03 3.38582293e-04 5.84357232e-03 -1.07260930e-04
      2.48945144e-04 2.36979133e-04 5.48964541e-04 8.42062291e-05
      -5.28062119e-05 -6.98858930e-05 3.00169049e-04 2.60873407e-04
      -3.53992109e-05 -5.36442734e-04 -6.60627324e-04 2.92003184e-04
      -2.10457691e-03 1.28652478e-04 2.08527781e-03 7.54370546e-07
      -5.55173901e-04 -8.65267531e-04 -1.63748651e-03 -3.96934245e-03
      -1.93314278e-04 1.73365115e-04 1.48126826e-04 1.21052690e-05
      -1.64304249e-04 -1.96483056e-03 -2.21095583e-03 4.55080182e-04
      -9.64759034e-04 3.12872842e-04 4.23378340e-04 -6.57054421e-04
      4.96982131e-04 4.40494419e-04 -1.21126173e-03 -1.76620239e-03
      2.53870705e-04 -5.31306549e-04 4.14349997e-05 9.52539500e-04
      2.87333707e-04 -4.13256465e-04 5.48798067e-04 1.06944157e-04
      -3.47766356e-04 -1.31903987e-04 1.35646638e-04 8.69660362e-05
      -8.50131801e-06 3.94332659e-04 -8.41864676e-05 6.82944141e-04
      3.99723591e-04 2.81910412e-04 -9.88617103e-05 -2.52079753e-05
      -2.36105174e-04 -1.73719629e-04 -4.19906253e-04 1.26654966e-04
      1.09586201e-03 3.37891724e-05 9.87292966e-04 -1.03041093e-05
      -8.18476692e-05 4.47612925e-04 1.00947113e-03 -1.78854625e-05
      -1.95657718e-04 9.21223182e-06 3.13118144e-05 -1.49293017e-04
      -1.51700951e-04 -5.99592749e-04 7.40732998e-04 -3.62711609e-04
      -1.21373357e-03 -4.92566440e-04 -3.82375962e-04 -2.26468605e-04
      1.20510209e-04 -2.56576841e-05 2.68900098e-04 -5.39268542e-04
      3.38612474e-04 -5.14704006e-05 -1.03986218e-04 1.19308324e-03
      1.50671884e-04 -1.69275550e-03 5.12305298e-04 3.47770023e-04
      -9.90229310e-04 1.51325250e-03 1.55802816e-04 5.53283957e-04
      -1.73067514e-04 -1.46695354e-03 -2.37752614e-03 8.85939284e-04
      -9.66254447e-05 -9.95473310e-05 -9.73178758e-05 3.10124124e-05
      -5.37308915e-05 1.05785567e-03 -9.33777250e-04 -5.37049607e-04
      -2.93235411e-04 3.52443167e-04 -9.46729779e-05 4.18993935e-04 0.
      -2.15456341e-04 2.38182201e-05 5.78336301e-04 -3.31900141e-04
      2.20556140e-05 1.13283595e-05 -8.92866985e-04 2.00639028e-04
      5.28027187e-04 6.72111404e-04 -1.25746336e-03 9.50396294e-04
      -1.91906816e-04 3.06351436e-03 2.72162084e-04 -1.73759836e-05
      -3.26717709e-04 2.54630519e-04 1.48125517e-04 2.04361582e-04
      -9.29396265e-06 -1.09474611e-04 -1.78298142e-04 -4.03100748e-05
      6.76369891e-05 -7.92045379e-04 -1.03410319e-04 -1.89398741e-03
      4.61539661e-04 1.54157096e-04 2.15000677e-04 5.96805912e-05
      -2.38803783e-04 1.08429056e-03 -8.93934688e-04 -3.32251511e-04
      -3.78865952e-04 3.16177087e-04 -4.00044810e-04 -8.81844608e-06
      7.79956579e-04 4.42660326e-04 -1.20490941e-03 4.81281168e-04
      1.45545229e-03 1.05639594e-03 -5.49267163e-04 1.17047646e-04
      8.61339387e-04 -2.72003352e-03 -4.68911399e-04 2.43252536e-04
      -2.37747245e-05 1.18229698e-04 5.93626057e-04 -1.43292724e-04
      -2.44531548e-04 6.23756030e-04 7.34835630e-05 1.81681912e-06
      2.47821386e-04 1.39933589e-04 5.59224136e-05 -6.23220258e-05
      2.66327377e-04 2.38906596e-05 -1.40875741e-03 -2.24277421e-04
      4.17720788e-04 4.83501135e-05 -1.26328797e-03 -8.19269117e-05
      -1.39065960e-03 -3.67738190e-04 -1.46588404e-03 2.40736827e-03
      -4.15059942e-04 2.53894925e-03 7.32490793e-04 1.28836682e-05
      -8.03872317e-05 -7.29685940e-04 2.51413963e-04 -1.46533668e-04 0.
      -7.30432293e-05 -1.96341061e-04 2.93503166e-04 2.44395225e-04
      1.45079673e-03 -6.29674818e-04 3.69998429e-06 -3.12293210e-04
      1.69861363e-04 -6.11208437e-04 -3.52565898e-04 -2.57076696e-04
      1.25370012e-03 -3.60351813e-04 -9.47044697e-04 3.14674369e-04
      5.19961941e-05 -2.77381478e-04 1.86925245e-04 1.17078028e-03
      -9.00863903e-04 2.66577769e-03 9.55674739e-04 2.87571340e-04
      9.59841011e-04 5.13296516e-04 8.05172531e-05 -1.20280776e-03
      -3.52679257e-04 -8.59174121e-04 -4.54841153e-04 -9.23468615e-05
      3.32629133e-04 1.07194402e-03 -3.55545926e-04 -2.19368911e-03
      -6.84425351e-04 -1.72131069e-04 -9.48544402e-05 6.63067694e-05
      1.24130020e-06 4.14454204e-04 2.59970820e-05 -4.10933244e-05
      -2.19517897e-04 -6.33934571e-04 -3.39603255e-04 -2.50830140e-04
      2.78663938e-05 3.58463789e-04 1.03129045e-04 5.34912862e-04
      4.66485653e-04 2.06632074e-03 1.98764697e-04 4.38351621e-04
      1.76325347e-03 1.73723805e-04 5.56389103e-04 4.86612698e-05
      1.13941298e-03 -3.64787484e-05 2.19731184e-04 -2.83511490e-05
      2.66882620e-04 3.57841724e-04 9.77146556e-05 -1.91776096e-04
      -5.56999410e-04 -1.06311007e-03 -5.84168476e-04 -3.26621928e-04
      3.01821594e-04 -2.60971545e-04 -2.89738906e-04 -1.14573399e-04
      1.16645126e-03 -6.84843340e-04 -1.46719371e-03 1.30074040e-04
      -6.09353010e-04 -1.53296115e-03 9.77101536e-06 -1.80806580e-03
      -2.98593659e-04 -3.13601480e-03 7.54418375e-04 -1.28692877e-03
      1.46402780e-03 8.85967514e-04 8.05430973e-05 9.68609995e-04
      1.38107524e-03 1.63934354e-04 3.16003541e-04 3.02403769e-05
      7.22067634e-05 5.52339887e-04 -1.11609821e-04 -3.54976597e-04
      5.25926531e-04 -4.99777321e-04 -2.24295625e-04 3.78056022e-04
      -3.29583090e-05 -2.65644572e-04 6.10324387e-05 -1.02110105e-04
      -2.67101539e-04 8.00632522e-04 -7.08166772e-06 -2.16907225e-04
      -1.46372928e-04 -2.59670522e-03 2.72690231e-04 -1.51031472e-05
      -2.61311998e-05 1.51304936e-03 -6.64063613e-04 4.17187402e-06
      1.91610272e-03 -2.48631040e-05 -1.67441976e-04 -2.26401957e-04
      3.62926279e-03 1.08691944e-04 6.92559188e-05 3.69203699e-05
      -1.07521002e-04 -2.50034238e-04 -4.28700936e-04 8.46763726e-07
      -2.97127466e-04 -8.56572180e-04 -2.97222054e-04 1.23024816e-04
      7.71669904e-04 8.38648134e-07 -1.83167562e-04 -7.71088293e-04
      -8.87627903e-05 -1.43693193e-04 -3.46286892e-04 -1.97782283e-04
      6.54486823e-04 -1.72397902e-03 -1.48879655e-04 -1.45585497e-03
      1.33135516e-04 -2.19139899e-03 6.37587946e-05 -3.75041011e-04
      -7.40925490e-04 -1.22774020e-03 7.31791151e-05 8.79079089e-05
      2.93749548e-03 -4.72139858e-04 4.00980120e-04 2.37793764e-04
      3.60947335e-04 -3.41889507e-04 2.14640953e-04 2.06040986e-05
      1.59657176e-03 -5.04129799e-04 2.55632069e-04 -5.54241182e-04
      -4.23766236e-04 -1.72269851e-04 2.57009960e-04 -1.41342491e-04
      6.44708693e-04 2.72340199e-04 2.07657489e-04 -4.30703367e-04
      -6.84983315e-05 -9.59297904e-06 -1.31007546e-04 -4.84315504e-04
      -2.74743943e-04 -3.33984906e-04 -4.67421836e-04 8.08244440e-05
      3.78631084e-05 2.83150235e-04 -1.22458034e-04 4.77255162e-05
      -9.28285590e-05 -3.01598571e-04 3.99675890e-04 3.62600040e-05
      1.84076544e-05 -2.82987399e-04 -5.93585246e-05 -1.51862856e-04
      -1.54835885e-04 -1.51472306e-03 6.61387923e-04 7.83665309e-05
      4.81355557e-04 -2.83820904e-04 -6.03324443e-04 -3.98301054e-04
      -6.45992579e-04 2.12542550e-03 1.43220532e-03 1.72401837e-04
      3.34638753e-04 -1.66533682e-05 8.47573974e-04 -3.89091205e-04
      -3.05500434e-04 -5.71695913e-04 1.52448413e-03 -1.10851624e-03
      -7.01198122e-04 -2.75662751e-04 -1.90874009e-04 -3.03339865e-03
      -1.38428109e-03 1.24398200e-03 -5.13989013e-04 -2.43970790e-04
      1.84163389e-06 7.32430548e-04 -2.19960581e-04 8.19365145e-04
      -1.48049288e-03 -4.90481209e-04 3.49903457e-05 -1.53304791e-04
      -5.34160317e-05 3.96028627e-05 9.82402271e-05 -6.61846643e-05
      4.71498788e-05 4.81522817e-04 1.92236665e-04 5.35627187e-05
      2.93822808e-07 4.86474251e-04 -1.28739484e-04 -4.08971013e-04
